{"learner":{"attributes":{"best_iteration":"8","best_ntree_limit":"9","best_score":"0.9965151481293018"},"feature_names":[],"feature_types":[],"gradient_booster":{"model":{"gbtree_model_param":{"num_parallel_tree":"1","num_trees":"59","size_leaf_vector":"0"},"tree_info":[0,0,0,0,0,0,0,0,0,0,0,0,0,0,0,0,0,0,0,0,0,0,0,0,0,0,0,0,0,0,0,0,0,0,0,0,0,0,0,0,0,0,0,0,0,0,0,0,0,0,0,0,0,0,0,0,0,0,0],"trees":[{"base_weights":[-4.9324325E-1,-2.6011124E-1,-1.3928884E0,-1.1514734E0,1.093518E-2,-1.3811181E-1,-6.669076E-2,-1.0964293E-1,-3.7043452E-2,3.260958E-1,-6.2006944E-1,-1.2457979E-1,6.835423E-1,-1.5513682E-3,-7.332238E-2,1.803815E-2,-3.5557184E-2,6.591316E-2,1.0985179E-2],"categories":[],"categories_nodes":[],"categories_segments":[],"categories_sizes":[],"default_left":[0,0,0,0,0,0,0,0,0,0,0,0,0,0,0,0,0,0,0],"id":0,"left_children":[1,3,5,7,9,-1,-1,-1,-1,11,13,15,17,-1,-1,-1,-1,-1,-1],"loss_changes":[1.5158167E1,1.4508623E1,1.7517948E0,2.1357384E0,9.548989E0,0E0,0E0,0E0,0E0,5.240113E0,3.4088554E0,2.0280876E0,1.7593021E0,0E0,0E0,0E0,0E0,0E0,0E0],"parents":[2147483647,0,0,1,1,2,2,3,3,4,4,9,9,10,10,11,11,12,12],"right_children":[2,4,6,8,10,-1,-1,-1,-1,12,14,16,18,-1,-1,-1,-1,-1,-1],"split_conditions":[5.0015E-1,-7.197E-2,2.4897E-1,4.8575E-1,5.3478E-1,-1.3811181E-1,-6.669076E-2,-1.0964293E-1,-3.7043452E-2,2.7752E-1,1.7376E-1,3.877E-1,5.4302E-1,-1.5513682E-3,-7.332238E-2,1.803815E-2,-3.5557184E-2,6.591316E-2,1.0985179E-2],"split_indices":[1151,1115,2787,87,3359,0,0,0,0,2986,1322,698,2940,0,0,0,0,0,0],"split_type":[0,0,0,0,0,0,0,0,0,0,0,0,0,0,0,0,0,0,0],"sum_hessian":[7.3E1,5.9E1,1.4E1,1.3E1,4.6E1,6E0,8E0,8E0,5E0,3.1E1,1.5E1,1.4E1,1.7E1,6E0,9E0,7E0,7E0,1.2E1,5E0],"tree_param":{"num_deleted":"0","num_feature":"6670","num_nodes":"19","size_leaf_vector":"0"}},{"base_weights":[-4.6120924E-1,-2.4330589E-1,-1.3020753E0,-9.7836995E-1,4.6225797E-2,-4.810464E-2,-1.1762069E-1,-2.4303459E-2,-9.793614E-2,3.6618495E-1,-5.365893E-1,-3.376979E-2,5.987483E-1,-5.9363875E-3,-7.380996E-2,1.163132E-2,7.46213E-1,6.2443037E-2,3.3684198E-2],"categories":[],"categories_nodes":[],"categories_segments":[],"categories_sizes":[],"default_left":[0,0,0,0,0,0,0,0,0,0,0,0,0,0,0,0,0,0,0],"id":1,"left_children":[1,3,5,7,9,-1,-1,-1,-1,11,13,-1,15,-1,-1,-1,17,-1,-1],"loss_changes":[1.3242033E1,1.2814687E1,1.6322174E0,3.2191925E0,8.401481E0,0E0,0E0,0E0,0E0,5.7760005E0,3.1976748E0,0E0,1.3890438E0,0E0,0E0,0E0,6.22406E-2,0E0,0E0],"parents":[2147483647,0,0,1,1,2,2,3,3,4,4,9,9,10,10,12,12,16,16],"right_children":[2,4,6,8,10,-1,-1,-1,-1,12,14,-1,16,-1,-1,-1,18,-1,-1],"split_conditions":[5.0015E-1,5.097E-2,6.1392E-1,-2.952E-2,4.8676E-1,-4.810464E-2,-1.1762069E-1,-2.4303459E-2,-9.793614E-2,1.2608E-1,5.9528E-1,-3.376979E-2,5.1344E-1,-5.9363875E-3,-7.380996E-2,1.163132E-2,7.1235E-1,6.2443037E-2,3.3684198E-2],"split_indices":[1151,709,5020,5291,4109,0,0,0,0,889,4885,0,3294,0,0,0,356,0,0],"split_type":[0,0,0,0,0,0,0,0,0,0,0,0,0,0,0,0,0,0,0],"sum_hessian":[7.3E1,5.9E1,1.4E1,1.6E1,4.3E1,5E0,9E0,6E0,1E1,2.8E1,1.5E1,6E0,2.2E1,8E0,7E0,6E0,1.6E1,1.1E1,5E0],"tree_param":{"num_deleted":"0","num_feature":"6670","num_nodes":"19","size_leaf_vector":"0"}},{"base_weights":[-4.3058774E-1,1.5153392E-1,-6.9608444E-1,-4.5941576E-2,4.402608E-1,-9.7456527E-1,-2.599731E-2,6.068736E-1,4.4172147E-4,3.5901037E-3,-1.141018E0,-4.1250026E-1,5.1519327E-2,5.3384237E-2,2.743798E-2,-1.8702488E-2,-1.3028984E0,-9.7460225E-3,-4.6972763E-2,-1.1437356E-1,-6.460683E-2],"categories":[],"categories_nodes":[],"categories_segments":[],"categories_sizes":[],"default_left":[0,0,0,0,0,0,0,0,0,0,0,0,0,0,0,0,0,0,0,0,0],"id":2,"left_children":[1,3,5,-1,7,9,11,13,-1,-1,15,17,-1,-1,-1,-1,19,-1,-1,-1,-1],"loss_changes":[1.1542284E1,5.564391E0,9.491592E0,0E0,1.2991178E0,6.181347E0,4.6920977E0,6.8347454E-2,0E0,0E0,4.149666E0,5.831326E-1,0E0,0E0,0E0,0E0,1.2354736E0,0E0,0E0,0E0,0E0],"parents":[2147483647,0,0,1,1,2,2,4,4,5,5,6,6,7,7,10,10,11,11,16,16],"right_children":[2,4,6,-1,8,10,12,14,-1,-1,16,18,-1,-1,-1,-1,20,-1,-1,-1,-1],"split_conditions":[2.6466E-1,2.2678E-1,5.8934E-1,-4.5941576E-2,3.3938E-1,1.4507E-1,4.2783E-1,3.6979E-1,4.4172147E-4,3.5901037E-3,3.505E-1,3.099E-2,5.1519327E-2,5.3384237E-2,2.743798E-2,-1.8702488E-2,5.6382E-1,-9.7460225E-3,-4.6972763E-2,-1.1437356E-1,-6.460683E-2],"split_indices":[4454,2283,3549,0,6362,6168,2175,152,0,0,5419,783,0,0,0,0,4372,0,0,0,0],"split_type":[0,0,0,0,0,0,0,0,0,0,0,0,0,0,0,0,0,0,0,0,0],"sum_hessian":[7.3E1,2.3E1,5E1,6E0,1.7E1,3.5E1,1.5E1,1.2E1,5E0,5E0,3E1,1E1,5E0,7E0,5E0,5E0,2.5E1,5E0,5E0,1.5E1,1E1],"tree_param":{"num_deleted":"0","num_feature":"6670","num_nodes":"21","size_leaf_vector":"0"}},{"base_weights":[-4.0050948E-1,-2.0945641E-1,-1.1380211E0,-9.401796E-1,1.2662318E-2,-1.1431929E-1,-5.3337652E-2,-9.0505175E-2,-2.8773664E-2,2.7450907E-1,-5.118226E-1,-1.6076207E-3,5.0864097E-2,-5.8164153E-2,4.269755E-3,2.5700325E-1,-2.5968263E-2,3.2639686E-2,4.7085807E-4],"categories":[],"categories_nodes":[],"categories_segments":[],"categories_sizes":[],"default_left":[0,0,0,0,0,0,0,0,0,0,0,0,0,0,0,0,0,0,0],"id":3,"left_children":[1,3,5,7,9,-1,-1,-1,-1,11,13,15,-1,-1,-1,17,-1,-1,-1],"loss_changes":[1.01885195E1,9.750343E0,1.3889809E0,1.6138906E0,6.5952296E0,0E0,0E0,0E0,0E0,3.5678892E0,2.4438262E0,1.8715172E0,0E0,0E0,0E0,5.33396E-1,0E0,0E0,0E0],"parents":[2147483647,0,0,1,1,2,2,3,3,4,4,9,9,10,10,11,11,15,15],"right_children":[2,4,6,8,10,-1,-1,-1,-1,12,14,16,-1,-1,-1,18,-1,-1,-1],"split_conditions":[5.0015E-1,-7.197E-2,2.4897E-1,4.1145E-1,5.3478E-1,-1.1431929E-1,-5.3337652E-2,-9.0505175E-2,-2.8773664E-2,6.7451E-1,2.6259E-1,9.234E-2,5.0864097E-2,-5.8164153E-2,4.269755E-3,3.0955E-1,-2.5968263E-2,3.2639686E-2,4.7085807E-4],"split_indices":[1151,1115,2787,326,3359,0,0,0,0,3379,638,6166,0,0,0,1039,0,0,0],"split_type":[0,0,0,0,0,0,0,0,0,0,0,0,0,0,0,0,0,0,0],"sum_hessian":[7.3E1,5.9E1,1.4E1,1.3E1,4.6E1,6E0,8E0,8E0,5E0,3.1E1,1.5E1,1.9E1,1.2E1,1E1,5E0,1.1E1,8E0,6E0,5E0],"tree_param":{"num_deleted":"0","num_feature":"6670","num_nodes":"19","size_leaf_vector":"0"}},{"base_weights":[-3.742932E-1,-1.9566664E-1,-1.0638467E0,-7.98305E-1,4.161789E-2,-3.7790243E-2,-9.700861E-2,-1.9789945E-2,-7.9937205E-2,3.057468E-1,-4.397169E-1,-2.7420396E-2,4.96778E-1,-4.2267833E-3,-6.1202407E-2,1.0243008E-2,6.158753E-1,5.172523E-2,2.7423041E-2],"categories":[],"categories_nodes":[],"categories_segments":[],"categories_sizes":[],"default_left":[0,0,0,0,0,0,0,0,0,0,0,0,0,0,0,0,0,0,0],"id":4,"left_children":[1,3,5,7,9,-1,-1,-1,-1,11,13,-1,15,-1,-1,-1,17,-1,-1],"loss_changes":[8.906611E0,8.6130295E0,1.276844E0,2.1493473E0,5.7283573E0,0E0,0E0,0E0,0E0,3.9008508E0,2.262236E0,0E0,9.0257406E-1,0E0,0E0,0E0,6.1749935E-2,0E0,0E0],"parents":[2147483647,0,0,1,1,2,2,3,3,4,4,9,9,10,10,12,12,16,16],"right_children":[2,4,6,8,10,-1,-1,-1,-1,12,14,-1,16,-1,-1,-1,18,-1,-1],"split_conditions":[5.0015E-1,5.097E-2,6.1392E-1,-2.952E-2,4.8676E-1,-3.7790243E-2,-9.700861E-2,-1.9789945E-2,-7.9937205E-2,1.2267E-1,5.9528E-1,-2.7420396E-2,5.663E-1,-4.2267833E-3,-6.1202407E-2,1.0243008E-2,6.983E-1,5.172523E-2,2.7423041E-2],"split_indices":[1151,709,5020,5291,4109,0,0,0,0,1252,4885,0,399,0,0,0,3210,0,0],"split_type":[0,0,0,0,0,0,0,0,0,0,0,0,0,0,0,0,0,0,0],"sum_hessian":[7.3E1,5.9E1,1.4E1,1.6E1,4.3E1,5E0,9E0,6E0,1E1,2.8E1,1.5E1,6E0,2.2E1,8E0,7E0,6E0,1.6E1,1.1E1,5E0],"tree_param":{"num_deleted":"0","num_feature":"6670","num_nodes":"19","size_leaf_vector":"0"}},{"base_weights":[-3.494372E-1,-1.827114E-1,-9.9304473E-1,-7.442984E-1,3.8417958E-2,-1.0073391E-1,-4.5781996E-2,-1.8517734E-2,-7.448695E-2,2.8495273E-1,-4.1082746E-1,-1.8632304E-2,4.9997646E-1,-3.9449986E-3,-5.7185996E-2,1.4966466E-2,4.5513183E-2],"categories":[],"categories_nodes":[],"categories_segments":[],"categories_sizes":[],"default_left":[0,0,0,0,0,0,0,0,0,0,0,0,0,0,0,0,0],"id":5,"left_children":[1,3,5,7,9,-1,-1,-1,-1,11,13,-1,15,-1,-1,-1,-1],"loss_changes":[7.759203E0,7.479597E0,1.1892939E0,1.8590832E0,4.9902697E0,0E0,0E0,0E0,0E0,3.4502223E0,1.9754391E0,0E0,5.531087E-1,0E0,0E0,0E0,0E0],"parents":[2147483647,0,0,1,1,2,2,3,3,4,4,9,9,10,10,12,12],"right_children":[2,4,6,8,10,-1,-1,-1,-1,12,14,-1,16,-1,-1,-1,-1],"split_conditions":[5.0015E-1,5.097E-2,2.4897E-1,-2.952E-2,4.8676E-1,-1.0073391E-1,-4.5781996E-2,-1.8517734E-2,-7.448695E-2,1.4103E-1,5.9528E-1,-1.8632304E-2,3.1862E-1,-3.9449986E-3,-5.7185996E-2,1.4966466E-2,4.5513183E-2],"split_indices":[1151,709,2787,5291,4109,0,0,0,0,5646,4885,0,1355,0,0,0,0],"split_type":[0,0,0,0,0,0,0,0,0,0,0,0,0,0,0,0,0],"sum_hessian":[7.3E1,5.9E1,1.4E1,1.6E1,4.3E1,6E0,8E0,6E0,1E1,2.8E1,1.5E1,8E0,2E1,8E0,7E0,6E0,1.4E1],"tree_param":{"num_deleted":"0","num_feature":"6670","num_nodes":"17","size_leaf_vector":"0"}},{"base_weights":[-3.267268E-1,-1.7087951E-1,-9.283341E-1,-7.739883E-1,1.2405651E-2,-9.425817E-2,-4.2729862E-2,-7.57041E-2,-2.1891804E-2,2.2950667E-1,-4.2257175E-1,6.323324E-3,5.552113E-1,4.120997E-3,-6.446207E-1,2.1753468E-1,-2.0699583E-2,2.5847672E-2,4.8280627E-2,-3.077754E-2,-5.7857808E-2,2.6421523E-2,1.805094E-3],"categories":[],"categories_nodes":[],"categories_segments":[],"categories_sizes":[],"default_left":[0,0,0,0,0,0,0,0,0,0,0,0,0,0,0,0,0,0,0,0,0,0,0],"id":6,"left_children":[1,3,5,7,9,-1,-1,-1,-1,11,13,15,17,-1,19,21,-1,-1,-1,-1,-1,-1,-1],"loss_changes":[6.779523E0,6.6420555E0,1.0506735E0,1.2941675E0,4.5353827E0,0E0,0E0,0E0,0E0,2.3226285E0,1.7319388E0,1.2526126E0,2.0493984E-2,0E0,1.0207176E-2,3.0436224E-1,0E0,0E0,0E0,0E0,0E0,0E0,0E0],"parents":[2147483647,0,0,1,1,2,2,3,3,4,4,9,9,10,10,11,11,12,12,14,14,15,15],"right_children":[2,4,6,8,10,-1,-1,-1,-1,12,14,16,18,-1,20,22,-1,-1,-1,-1,-1,-1,-1],"split_conditions":[5.0015E-1,-7.197E-2,2.4897E-1,4.8575E-1,5.3478E-1,-9.425817E-2,-4.2729862E-2,-7.57041E-2,-2.1891804E-2,6.7451E-1,4.4457E-1,9.234E-2,4.1475E-1,4.120997E-3,3.32E-2,3.0955E-1,-2.0699583E-2,2.5847672E-2,4.8280627E-2,-3.077754E-2,-5.7857808E-2,2.6421523E-2,1.805094E-3],"split_indices":[1151,1115,2787,87,3359,0,0,0,0,3379,60,6166,469,0,35,1039,0,0,0,0,0,0,0],"split_type":[0,0,0,0,0,0,0,0,0,0,0,0,0,0,0,0,0,0,0,0,0,0,0],"sum_hessian":[7.3E1,5.9E1,1.4E1,1.3E1,4.6E1,6E0,8E0,8E0,5E0,3.1E1,1.5E1,1.9E1,1.2E1,5E0,1E1,1.1E1,8E0,5E0,7E0,5E0,5E0,6E0,5E0],"tree_param":{"num_deleted":"0","num_feature":"6670","num_nodes":"23","size_leaf_vector":"0"}},{"base_weights":[-3.0543098E-1,-1.597378E-1,-8.678416E-1,-7.229103E-1,1.1414398E-2,-2.9896364E-2,-7.969436E-2,-1.9907653E-2,-7.106777E-2,2.148454E-1,-3.9616102E-1,-6.730159E-2,4.3803203E-1,-6.057833E-1,4.063002E-3,1.2555735E-2,-2.2020023E-2,4.164001E-2,8.337193E-3,-2.9003834E-2,-5.429137E-2],"categories":[],"categories_nodes":[],"categories_segments":[],"categories_sizes":[],"default_left":[0,0,0,0,0,0,0,0,0,0,0,0,0,0,0,0,0,0,0,0,0],"id":7,"left_children":[1,3,5,7,9,-1,-1,-1,-1,11,13,15,17,19,-1,-1,-1,-1,-1,-1,-1],"loss_changes":[5.9248877E0,5.7915444E0,9.471493E-1,1.1873498E0,3.9820466E0,0E0,0E0,0E0,0E0,2.0445666E0,1.5432193E0,8.458747E-1,6.276586E-1,4.6525E-3,0E0,0E0,0E0,0E0,0E0,0E0,0E0],"parents":[2147483647,0,0,1,1,2,2,3,3,4,4,9,9,10,10,11,11,12,12,13,13],"right_children":[2,4,6,8,10,-1,-1,-1,-1,12,14,16,18,20,-1,-1,-1,-1,-1,-1,-1],"split_conditions":[5.0015E-1,-7.197E-2,6.1392E-1,2.7301E-1,5.3478E-1,-2.9896364E-2,-7.969436E-2,-1.9907653E-2,-7.106777E-2,2.7752E-1,2.6259E-1,8.516E-2,5.4302E-1,4.0296E-1,4.063002E-3,1.2555735E-2,-2.2020023E-2,4.164001E-2,8.337193E-3,-2.9003834E-2,-5.429137E-2],"split_indices":[1151,1115,5020,1852,3359,0,0,0,0,2986,638,2180,2940,289,0,0,0,0,0,0,0],"split_type":[0,0,0,0,0,0,0,0,0,0,0,0,0,0,0,0,0,0,0,0,0],"sum_hessian":[7.3E1,5.9E1,1.4E1,1.3E1,4.6E1,5E0,9E0,5E0,8E0,3.1E1,1.5E1,1.4E1,1.7E1,1E1,5E0,7E0,7E0,1.2E1,5E0,5E0,5E0],"tree_param":{"num_deleted":"0","num_feature":"6670","num_nodes":"21","size_leaf_vector":"0"}},{"base_weights":[-2.8575724E-1,-6.3917154E-1,-8.1008404E-2,-9.007022E-1,-7.837443E-3,2.4011713E-1,-4.1213882E-1,-8.063814E-2,-2.794203E-2,-1.3198147E-2,4.1170725E-1,6.941936E-4,-6.234147E-1,3.6737084E-2,1.3037119E-2,-2.2733215E-2,-5.560894E-2],"categories":[],"categories_nodes":[],"categories_segments":[],"categories_sizes":[],"default_left":[0,0,0,0,0,0,0,0,0,0,0,0,0,0,0,0,0],"id":8,"left_children":[1,3,5,7,-1,9,11,-1,-1,-1,13,-1,15,-1,-1,-1,-1],"loss_changes":[5.3029475E0,3.6813726E0,5.2030144E0,1.25807E0,0E0,1.8573841E0,2.1425028E0,0E0,0E0,0E0,2.4935222E-1,0E0,3.8018894E-1,0E0,0E0,0E0,0E0],"parents":[2147483647,0,0,1,1,2,2,3,3,5,5,6,6,10,10,12,12],"right_children":[2,4,6,8,-1,10,12,-1,-1,-1,14,-1,16,-1,-1,-1,-1],"split_conditions":[4.0032E-1,5.5985E-1,4.7602E-1,4.9721E-1,-7.837443E-3,2.6326E-1,6.7674E-1,-8.063814E-2,-2.794203E-2,-1.3198147E-2,3.178E-1,6.941936E-4,3.0678E-1,3.6737084E-2,1.3037119E-2,-2.2733215E-2,-5.560894E-2],"split_indices":[6658,6219,3441,1800,0,3334,4397,0,0,0,3142,0,1080,0,0,0,0],"split_type":[0,0,0,0,0,0,0,0,0,0,0,0,0,0,0,0,0],"sum_hessian":[7.3E1,2.6E1,4.7E1,1.7E1,9E0,2.4E1,2.3E1,1.2E1,5E0,7E0,1.7E1,8E0,1.5E1,1.2E1,5E0,5E0,1E1],"tree_param":{"num_deleted":"0","num_feature":"6670","num_nodes":"17","size_leaf_vector":"0"}},{"base_weights":[-2.6645368E-1,-1.3735774E-1,-7.650739E-1,-5.4265237E-1,4.9260255E-2,-8.221121E-2,-3.6744088E-2,-1.2510523E-2,-5.6099623E-2,2.5488845E-1,-3.3786306E-1,-1.1927952E-2,4.0043768E-1,3.7849662E-3,-4.0280577E-2,1.428792E-2,4.7171018E-1,2.6431687E-2,4.439285E-2],"categories":[],"categories_nodes":[],"categories_segments":[],"categories_sizes":[],"default_left":[0,0,0,0,0,0,0,0,0,0,0,0,0,0,0,0,0,0,0],"id":9,"left_children":[1,3,5,7,9,-1,-1,-1,-1,11,13,-1,15,-1,-1,-1,17,-1,-1],"loss_changes":[4.6582794E0,4.564847E0,8.294182E-1,1.3415933E0,3.4294631E0,0E0,0E0,0E0,0E0,1.7505981E0,1.1874975E0,0E0,2.2434664E-1,0E0,0E0,0E0,6.4651966E-3,0E0,0E0],"parents":[2147483647,0,0,1,1,2,2,3,3,4,4,9,9,10,10,12,12,16,16],"right_children":[2,4,6,8,10,-1,-1,-1,-1,12,14,-1,16,-1,-1,-1,18,-1,-1],"split_conditions":[5.0015E-1,7.269E-2,3.0132E-1,-2.952E-2,4.8676E-1,-8.221121E-2,-3.6744088E-2,-1.2510523E-2,-5.6099623E-2,1.5964E-1,5.9373E-1,-1.1927952E-2,2.1783E-1,3.7849662E-3,-4.0280577E-2,1.428792E-2,4.6492E-1,2.6431687E-2,4.439285E-2],"split_indices":[1151,709,803,5291,4109,0,0,0,0,5674,356,0,692,0,0,0,264,0,0],"split_type":[0,0,0,0,0,0,0,0,0,0,0,0,0,0,0,0,0,0,0],"sum_hessian":[7.3E1,5.9E1,1.4E1,1.8E1,4.1E1,5E0,9E0,7E0,1.1E1,2.7E1,1.4E1,7E0,2E1,5E0,9E0,6E0,1.4E1,9E0,5E0],"tree_param":{"num_deleted":"0","num_feature":"6670","num_nodes":"19","size_leaf_vector":"0"}},{"base_weights":[-2.4850853E-1,-7.0048966E-2,-1.6295135E-1,-6.420806E-2,-5.3952552E-2,-2.2692163E-1,2.1236515E-1,8.8270254E-2,-3.8174456E-1,3.4051046E-1,-1.395806E-2,-1.3839607E-2,2.1137644E-2,-5.3666544E-1,-3.502512E-3,6.4755133E-3,3.534748E-2,-2.4589775E-2,-4.472582E-2],"categories":[],"categories_nodes":[],"categories_segments":[],"categories_sizes":[],"default_left":[0,0,0,0,0,0,0,0,0,0,0,0,0,0,0,0,0,0,0],"id":10,"left_children":[1,-1,3,5,-1,7,9,11,13,15,-1,-1,-1,17,-1,-1,-1,-1,-1],"loss_changes":[4.1877227E0,0E0,3.6349483E0,2.6583188E0,0E0,1.839257E0,1.1867445E0,7.3846114E-1,1.2725723E0,5.2443445E-1,0E0,0E0,0E0,1.6317844E-2,0E0,0E0,0E0,0E0,0E0],"parents":[2147483647,0,0,2,2,3,3,5,5,6,6,7,7,8,8,9,9,13,13],"right_children":[2,-1,4,6,-1,8,10,12,14,16,-1,-1,-1,18,-1,-1,-1,-1,-1],"split_conditions":[2.1189E-1,-7.0048966E-2,7.3763E-1,5.0844E-1,-5.3952552E-2,1.2343E-1,4.5372E-1,4.0101E-1,2.5198E-1,3.021E-1,-1.395806E-2,-1.3839607E-2,2.1137644E-2,2.6959E-1,-3.502512E-3,6.4755133E-3,3.534748E-2,-2.4589775E-2,-4.472582E-2],"split_indices":[6382,0,4343,6046,0,2007,1177,2369,3423,2551,0,0,0,2481,0,0,0,0,0],"split_type":[0,0,0,0,0,0,0,0,0,0,0,0,0,0,0,0,0,0,0],"sum_hessian":[7.3E1,7E0,6.6E1,5.7E1,9E0,3.6E1,2.1E1,1.2E1,2.4E1,1.6E1,5E0,5E0,7E0,1.6E1,8E0,6E0,1E1,5E0,1.1E1],"tree_param":{"num_deleted":"0","num_feature":"6670","num_nodes":"19","size_leaf_vector":"0"}},{"base_weights":[-2.3205493E-1,-6.5452E-2,-1.5209728E-1,-6.004168E-2,-5.0310757E-2,-2.1167333E-1,1.9770434E-1,8.221137E-2,-3.5602644E-1,3.1743237E-1,-1.308568E-2,-1.2974631E-2,1.9750485E-2,-5.0049293E-1,-3.2690116E-3,3.82023E-3,4.2422765E-1,-2.3052914E-2,-4.1650917E-2,2.0591887E-2,3.961028E-2],"categories":[],"categories_nodes":[],"categories_segments":[],"categories_sizes":[],"default_left":[0,0,0,0,0,0,0,0,0,0,0,0,0,0,0,0,0,0,0,0,0],"id":11,"left_children":[1,-1,3,5,-1,7,9,11,13,15,-1,-1,-1,17,-1,-1,19,-1,-1,-1,-1],"loss_changes":[3.6578376E0,0E0,3.1590014E0,2.3086312E0,0E0,1.5989265E0,1.0357125E0,6.464833E-1,1.1066117E0,4.6222007E-1,0E0,0E0,0E0,9.386063E-3,0E0,0E0,4.1620016E-2,0E0,0E0,0E0,0E0],"parents":[2147483647,0,0,2,2,3,3,5,5,6,6,7,7,8,8,9,9,13,13,16,16],"right_children":[2,-1,4,6,-1,8,10,12,14,16,-1,-1,-1,18,-1,-1,20,-1,-1,-1,-1],"split_conditions":[2.1189E-1,-6.5452E-2,7.3763E-1,5.0844E-1,-5.0310757E-2,1.2343E-1,4.5372E-1,4.0101E-1,2.5198E-1,2.8528E-1,-1.308568E-2,-1.2974631E-2,1.9750485E-2,2.6959E-1,-3.2690116E-3,3.82023E-3,6.1514E-1,-2.3052914E-2,-4.1650917E-2,2.0591887E-2,3.961028E-2],"split_indices":[6382,0,4343,6046,0,2007,1177,2369,3423,751,0,0,0,2481,0,0,230,0,0,0,0],"split_type":[0,0,0,0,0,0,0,0,0,0,0,0,0,0,0,0,0,0,0,0,0],"sum_hessian":[7.3E1,7E0,6.6E1,5.7E1,9E0,3.6E1,2.1E1,1.2E1,2.4E1,1.6E1,5E0,5E0,7E0,1.6E1,8E0,5E0,1.1E1,5E0,1.1E1,6E0,5E0],"tree_param":{"num_deleted":"0","num_feature":"6670","num_nodes":"21","size_leaf_vector":"0"}},{"base_weights":[-2.1635383E-1,-2.7962724E-2,-4.4956815E-1,-2.9815468E-1,2.0820257E-1,-6.5230805E-1,1.5212375E-2,-4.6829143E-1,6.3534286E-3,-3.6677555E-3,3.4858596E-1,-7.777302E-1,-1.9089336E-2,2.0458782E-2,-1.836708E-2,-1.9905305E-2,-4.1363798E-2,1.8996382E-2,3.3699237E-2,-7.572113E-2,-4.195983E-2],"categories":[],"categories_nodes":[],"categories_segments":[],"categories_sizes":[],"default_left":[0,0,0,0,0,0,0,0,0,0,0,0,0,0,0,0,0,0,0,0,0],"id":12,"left_children":[1,3,5,7,9,11,13,15,-1,-1,17,19,-1,-1,-1,-1,-1,-1,-1,-1,-1],"loss_changes":[3.238656E0,2.7420948E0,3.1194983E0,1.3424653E0,8.4719545E-1,9.4953823E-1,8.037598E-1,9.002185E-2,0E0,0E0,3.0198216E-2,2.9557037E-1,0E0,0E0,0E0,0E0,0E0,0E0,0E0,0E0,0E0],"parents":[2147483647,0,0,1,1,2,2,3,3,4,4,5,5,6,6,7,7,10,10,11,11],"right_children":[2,4,6,8,10,12,14,16,-1,-1,18,20,-1,-1,-1,-1,-1,-1,-1,-1,-1],"split_conditions":[4.8914E-1,1.9256E-1,5.7088E-1,3.4082E-1,3.1357E-1,6.3366E-1,4.5071E-1,3.7968E-1,6.3534286E-3,-3.6677555E-3,2.8804E-1,5.3236E-1,-1.9089336E-2,2.0458782E-2,-1.836708E-2,-1.9905305E-2,-4.1363798E-2,1.8996382E-2,3.3699237E-2,-7.572113E-2,-4.195983E-2],"split_indices":[4355,4680,6335,2235,4910,6009,7,538,0,0,1190,4318,0,0,0,0,0,0,0,0,0],"split_type":[0,0,0,0,0,0,0,0,0,0,0,0,0,0,0,0,0,0,0,0,0],"sum_hessian":[7.3E1,4.1E1,3.2E1,1.9E1,2.2E1,2.2E1,1E1,1.3E1,6E0,8E0,1.4E1,1.6E1,6E0,5E0,5E0,5E0,8E0,9E0,5E0,6E0,1E1],"tree_param":{"num_deleted":"0","num_feature":"6670","num_nodes":"21","size_leaf_vector":"0"}},{"base_weights":[-2.0202683E-1,-5.767709E-2,-1.313099E-1,1.2581679E-2,-3.8963985E-1,-2.6700424E-2,1.17532864E-1,1.1179853E-3,-4.96884E-1,2.1471258E-1,-2.263944E-2,-4.331935E-2,-1.693147E-2,4.4725057E-2,3.5003212E-1,9.257931E-3,-6.0600108E-3,1.8597437E-2,3.5911124E-2],"categories":[],"categories_nodes":[],"categories_segments":[],"categories_sizes":[],"default_left":[0,0,0,0,0,0,0,0,0,0,0,0,0,0,0,0,0,0,0],"id":13,"left_children":[1,-1,3,5,7,-1,9,-1,11,13,-1,-1,-1,15,17,-1,-1,-1,-1],"loss_changes":[2.8661659E0,0E0,2.4953933E0,1.7439241E0,1.0486522E0,0E0,1.4912869E0,0E0,2.853694E-1,6.514212E-1,0E0,0E0,0E0,1.483022E-1,9.158051E-2,0E0,0E0,0E0,0E0],"parents":[2147483647,0,0,2,2,3,3,4,4,6,6,8,8,9,9,13,13,14,14],"right_children":[2,-1,4,6,8,-1,10,-1,12,14,-1,-1,-1,16,18,-1,-1,-1,-1],"split_conditions":[2.1189E-1,-5.767709E-2,3.9391E-1,5.7199E-1,-1.978E-2,-2.6700424E-2,4.5173E-1,1.1179853E-3,6.6804E-1,5.0366E-1,-2.263944E-2,-4.331935E-2,-1.693147E-2,3.403E-1,4.8207E-1,9.257931E-3,-6.0600108E-3,1.8597437E-2,3.5911124E-2],"split_indices":[6382,0,3779,1519,5373,0,1151,0,3138,314,0,0,0,1150,482,0,0,0,0],"split_type":[0,0,0,0,0,0,0,0,0,0,0,0,0,0,0,0,0,0,0],"sum_hessian":[7.3E1,7E0,6.6E1,4.3E1,2.3E1,9E0,3.4E1,5E0,1.8E1,2.8E1,6E0,1.3E1,5E0,1.3E1,1.5E1,8E0,5E0,1E1,5E0],"tree_param":{"num_deleted":"0","num_feature":"6670","num_nodes":"19","size_leaf_vector":"0"}},{"base_weights":[-1.8834028E-1,-1.9783888E-2,-3.971593E-1,-2.5168085E-1,1.8272582E-1,-5.7594806E-1,1.2777111E-2,-4.00341E-1,6.1195386E-3,-3.4985417E-3,3.0816793E-1,-6.883814E-1,-1.6546309E-2,1.8136587E-2,-1.6379735E-2,-1.6191931E-2,-3.5911832E-2,2.6640346E-2,1.338091E-2,-6.760704E-2,-3.6767002E-2],"categories":[],"categories_nodes":[],"categories_segments":[],"categories_sizes":[],"default_left":[0,0,0,0,0,0,0,0,0,0,0,0,0,0,0,0,0,0,0,0,0],"id":14,"left_children":[1,3,5,7,9,11,13,15,-1,-1,17,19,-1,-1,-1,-1,-1,-1,-1,-1,-1],"loss_changes":[2.5967784E0,2.0183668E0,2.4259953E0,1.0235589E0,6.7615515E-1,7.6700354E-1,6.35251E-1,9.9291325E-2,0E0,0E0,2.8176427E-2,2.7576828E-1,0E0,0E0,0E0,0E0,0E0,0E0,0E0,0E0,0E0],"parents":[2147483647,0,0,1,1,2,2,3,3,4,4,5,5,6,6,7,7,10,10,11,11],"right_children":[2,4,6,8,10,12,14,16,-1,-1,18,20,-1,-1,-1,-1,-1,-1,-1,-1,-1],"split_conditions":[4.8914E-1,1.9256E-1,5.7088E-1,3.4082E-1,3.1357E-1,6.3366E-1,4.5071E-1,2.6396E-1,6.1195386E-3,-3.4985417E-3,5.2395E-1,5.3236E-1,-1.6546309E-2,1.8136587E-2,-1.6379735E-2,-1.6191931E-2,-3.5911832E-2,2.6640346E-2,1.338091E-2,-6.760704E-2,-3.6767002E-2],"split_indices":[4355,4680,6335,2235,4910,6009,7,1616,0,0,350,4318,0,0,0,0,0,0,0,0,0],"split_type":[0,0,0,0,0,0,0,0,0,0,0,0,0,0,0,0,0,0,0,0,0],"sum_hessian":[7.3E1,4.1E1,3.2E1,1.9E1,2.2E1,2.2E1,1E1,1.3E1,6E0,8E0,1.4E1,1.6E1,6E0,5E0,5E0,5E0,8E0,9E0,5E0,6E0,1E1],"tree_param":{"num_deleted":"0","num_feature":"6670","num_nodes":"21","size_leaf_vector":"0"}},{"base_weights":[-1.7595291E-1,-8.559333E-2,-5.2566105E-1,-3.922773E-1,3.4843512E-2,-5.936696E-2,-2.3516698E-2,-9.28759E-3,-5.2744293E-1,1.2379849E-1,-2.4363594E-2,-4.7293622E-2,-2.5229782E-2,-1.4674626E-2,2.0765652E-1,2.59614E-1,-2.6087076E-3,1.9166201E-1,3.236447E-2,5.8808993E-3,1.698807E-2],"categories":[],"categories_nodes":[],"categories_segments":[],"categories_sizes":[],"default_left":[0,0,0,0,0,0,0,0,0,0,0,0,0,0,0,0,0,0,0,0,0],"id":15,"left_children":[1,3,5,7,9,-1,-1,-1,11,13,-1,-1,-1,-1,15,17,-1,19,-1,-1,-1],"loss_changes":[2.293369E0,2.2298312E0,5.9777737E-1,5.5151653E-1,1.4480547E0,0E0,0E0,0E0,4.6203136E-3,1.0050453E0,0E0,0E0,0E0,0E0,3.7432945E-1,1.9765544E-1,0E0,5.7218075E-2,0E0,0E0,0E0],"parents":[2147483647,0,0,1,1,2,2,3,3,4,4,8,8,9,9,14,14,15,15,17,17],"right_children":[2,4,6,8,10,-1,-1,-1,12,14,-1,-1,-1,-1,16,18,-1,20,-1,-1,-1],"split_conditions":[5.0015E-1,5.097E-2,3.0132E-1,1.8231E-1,3.4248E-1,-5.936696E-2,-2.3516698E-2,-9.28759E-3,1.6635E-1,4.0612E-1,-2.4363594E-2,-4.7293622E-2,-2.5229782E-2,-1.4674626E-2,5.8584E-1,3.7735E-1,-2.6087076E-3,5.5879E-1,3.236447E-2,5.8808993E-3,1.698807E-2],"split_indices":[1151,709,803,3006,1189,0,0,0,19,347,0,0,0,0,5970,485,0,399,0,0,0],"split_type":[0,0,0,0,0,0,0,0,0,0,0,0,0,0,0,0,0,0,0,0,0],"sum_hessian":[7.3E1,5.9E1,1.4E1,1.6E1,4.3E1,5E0,9E0,6E0,1E1,3.5E1,8E0,5E0,5E0,7E0,2.8E1,2.3E1,5E0,1.8E1,5E0,5E0,1.3E1],"tree_param":{"num_deleted":"0","num_feature":"6670","num_nodes":"21","size_leaf_vector":"0"}},{"base_weights":[-1.6479845E-1,-4.833326E-2,-1.0506773E-1,1.3877479E-2,-3.187561E-1,1.3100395E-1,-2.2130063E-1,6.207064E-4,-4.052528E-1,2.1966323E-1,-1.43764205E-2,-2.9715162E-2,2.6390336E-3,-3.5246246E-2,-1.4006308E-2,1.9427458E-3,2.828108E-1,1.536496E-2,3.0341689E-2],"categories":[],"categories_nodes":[],"categories_segments":[],"categories_sizes":[],"default_left":[0,0,0,0,0,0,0,0,0,0,0,0,0,0,0,0,0,0,0],"id":16,"left_children":[1,-1,3,5,7,9,11,-1,13,15,-1,-1,-1,-1,-1,-1,17,-1,-1],"loss_changes":[2.0523558E0,0E0,1.7073765E0,1.2409967E0,6.822469E-1,9.00389E-1,6.8684256E-1,0E0,1.8082857E-1,2.8632557E-1,0E0,0E0,0E0,0E0,0E0,0E0,8.792913E-2,0E0,0E0],"parents":[2147483647,0,0,2,2,3,3,4,4,5,5,6,6,8,8,9,9,16,16],"right_children":[2,-1,4,6,8,10,12,-1,14,16,-1,-1,-1,-1,-1,-1,18,-1,-1],"split_conditions":[2.1189E-1,-4.833326E-2,3.9391E-1,4.0403E-1,-1.978E-2,3.6536E-1,3.6899E-1,6.207064E-4,6.6804E-1,2.9889E-1,-1.43764205E-2,-2.9715162E-2,2.6390336E-3,-3.5246246E-2,-1.4006308E-2,1.9427458E-3,3.4444E-1,1.536496E-2,3.0341689E-2],"split_indices":[6382,0,3779,2681,5373,4954,4069,0,3138,1355,0,0,0,0,0,0,525,0,0],"split_type":[0,0,0,0,0,0,0,0,0,0,0,0,0,0,0,0,0,0,0],"sum_hessian":[7.3E1,7E0,6.6E1,4.3E1,2.3E1,2.9E1,1.4E1,5E0,1.8E1,2.3E1,6E0,8E0,6E0,1.3E1,5E0,6E0,1.7E1,1.2E1,5E0],"tree_param":{"num_deleted":"0","num_feature":"6670","num_nodes":"19","size_leaf_vector":"0"}},{"base_weights":[-1.5366517E-1,-9.682937E-2,-4.5784265E-2,-3.6362338E-1,-5.9994217E-3,-1.2538442E-2,-3.6331225E-2,9.965914E-2,-2.4335621E-1,1.6907538E-1,-1.5905706E-2,-2.8461358E-2,-1.0591295E-3,-1.9308778E-3,2.2948791E-1,1.6681086E-1,2.8445331E-2,5.4026246E-3,1.4829148E-2],"categories":[],"categories_nodes":[],"categories_segments":[],"categories_sizes":[],"default_left":[0,0,0,0,0,0,0,0,0,0,0,0,0,0,0,0,0,0,0],"id":17,"left_children":[1,3,-1,5,7,-1,-1,9,11,13,-1,-1,-1,-1,15,17,-1,-1,-1],"loss_changes":[1.8620867E0,1.6214218E0,0E0,3.2240963E-1,1.3032702E0,0E0,0E0,8.148784E-1,4.9392658E-1,3.5899597E-1,0E0,0E0,0E0,0E0,1.5265667E-1,3.8490355E-2,0E0,0E0,0E0],"parents":[2147483647,0,0,1,1,3,3,4,4,7,7,8,8,9,9,14,14,15,15],"right_children":[2,4,-1,6,8,-1,-1,10,12,14,-1,-1,-1,-1,16,18,-1,-1,-1],"split_conditions":[7.8805E-1,1.4271E-1,-4.5784265E-2,3.4081E-1,3.9391E-1,-1.2538442E-2,-3.6331225E-2,4.1682E-1,2.6487E-1,2.274E-1,-1.5905706E-2,-2.8461358E-2,-1.0591295E-3,-1.9308778E-3,6.6511E-1,7.5955E-1,2.8445331E-2,5.4026246E-3,1.4829148E-2],"split_indices":[4478,2231,0,5804,3779,0,0,5740,1233,3950,0,0,0,0,566,232,0,0,0],"split_type":[0,0,0,0,0,0,0,0,0,0,0,0,0,0,0,0,0,0,0],"sum_hessian":[7.3E1,6.6E1,7E0,1.6E1,5E1,7E0,9E0,3.5E1,1.5E1,2.9E1,6E0,9E0,6E0,7E0,2.2E1,1.7E1,5E0,5E0,1.2E1],"tree_param":{"num_deleted":"0","num_feature":"6670","num_nodes":"19","size_leaf_vector":"0"}},{"base_weights":[-1.4340155E-1,-4.929677E-2,-9.66373E-2,6.0149934E-3,-2.7754593E-1,-2.6538947E-1,9.1141686E-2,1.1341266E-3,-3.5146892E-1,-1.1078621E-2,-2.5412435E-2,1.6032454E-1,-1.5636995E-2,-4.0153885E-1,-1.2578699E-2,3.796157E-2,2.5737187E-1,-1.8761043E-2,-3.3916496E-2,7.0868996E-3,-3.987074E-3,1.3469108E-2,2.678101E-2],"categories":[],"categories_nodes":[],"categories_segments":[],"categories_sizes":[],"default_left":[0,0,0,0,0,0,0,0,0,0,0,0,0,0,0,0,0,0,0,0,0,0,0],"id":18,"left_children":[1,-1,3,5,7,9,11,-1,13,-1,-1,15,-1,17,-1,19,21,-1,-1,-1,-1,-1,-1],"loss_changes":[1.714821E0,0E0,1.2830468E0,1.0638574E0,5.461867E-1,4.5015395E-2,7.5896275E-1,0E0,1.1666536E-1,0E0,0E0,3.3460474E-1,0E0,1.9688606E-3,0E0,7.714003E-2,5.9963465E-2,0E0,0E0,0E0,0E0,0E0,0E0],"parents":[2147483647,0,0,2,2,3,3,4,4,5,5,6,6,8,8,11,11,13,13,15,15,16,16],"right_children":[2,-1,4,6,8,10,12,-1,14,-1,-1,16,-1,18,-1,20,22,-1,-1,-1,-1,-1,-1],"split_conditions":[1.483E-1,-4.929677E-2,3.9391E-1,5.7293E-1,-1.978E-2,2.389E-1,4.5173E-1,1.1341266E-3,6.6804E-1,-1.1078621E-2,-2.5412435E-2,5.0366E-1,-1.5636995E-2,5.7876E-1,-1.2578699E-2,2.4855E-1,5.0332E-1,-1.8761043E-2,-3.3916496E-2,7.0868996E-3,-3.987074E-3,1.3469108E-2,2.678101E-2],"split_indices":[6382,0,3779,1519,5373,304,1151,0,3138,0,0,314,0,396,0,1187,6290,0,0,0,0,0,0],"split_type":[0,0,0,0,0,0,0,0,0,0,0,0,0,0,0,0,0,0,0,0,0,0,0],"sum_hessian":[7.3E1,5E0,6.8E1,4.4E1,2.4E1,1E1,3.4E1,5E0,1.9E1,5E0,5E0,2.8E1,6E0,1.4E1,5E0,1.3E1,1.5E1,5E0,9E0,8E0,5E0,1E1,5E0],"tree_param":{"num_deleted":"0","num_feature":"6670","num_nodes":"23","size_leaf_vector":"0"}},{"base_weights":[-1.3429774E-1,-4.621572E-2,-9.0446025E-2,-3.4242813E-2,-2.8775793E-2,-2.6696932E-1,3.73314E-2,-9.01062E-3,-2.5139341E-2,1.1448558E-1,-1.9081257E-1,-9.230062E-2,2.0089208E-1,-4.787413E-3,-2.0429548E-2,2.3209453E-3,-1.5012282E-2,1.476418E-1,2.5868328E-2,1.3268093E-2,3.740217E-3],"categories":[],"categories_nodes":[],"categories_segments":[],"categories_sizes":[],"default_left":[0,0,0,0,0,0,0,0,0,0,0,0,0,0,0,0,0,0,0,0,0],"id":19,"left_children":[1,-1,3,5,-1,7,9,-1,-1,11,13,15,17,-1,-1,-1,-1,19,-1,-1,-1],"loss_changes":[1.5080832E0,0E0,1.1240187E0,9.9274206E-1,0E0,9.996569E-2,8.315492E-1,0E0,0E0,6.43911E-1,1.0692337E-1,1.5242562E-1,1.408031E-1,0E0,0E0,0E0,0E0,4.8405915E-2,0E0,0E0,0E0],"parents":[2147483647,0,0,2,2,3,3,5,5,6,6,9,9,10,10,11,11,12,12,17,17],"right_children":[2,-1,4,6,-1,8,10,-1,-1,12,14,16,18,-1,-1,-1,-1,20,-1,-1,-1],"split_conditions":[1.483E-1,-4.621572E-2,7.3763E-1,4.0331E-1,-2.8775793E-2,4.2853E-1,4.7338E-1,-9.01062E-3,-2.5139341E-2,2.3026E-1,5.6823E-1,1.835E-2,3.5964E-1,-4.787413E-3,-2.0429548E-2,2.3209453E-3,-1.5012282E-2,1.9454E-1,2.5868328E-2,1.3268093E-2,3.740217E-3],"split_indices":[6382,0,4343,1626,0,4774,1177,0,0,333,230,221,2472,0,0,0,0,4483,0,0,0],"split_type":[0,0,0,0,0,0,0,0,0,0,0,0,0,0,0,0,0,0,0,0,0],"sum_hessian":[7.3E1,5E0,6.8E1,5.8E1,1E1,1.3E1,4.5E1,5E0,8E0,3.4E1,1.1E1,1E1,2.4E1,5E0,6E0,5E0,5E0,1.9E1,5E0,1.4E1,5E0],"tree_param":{"num_deleted":"0","num_feature":"6670","num_nodes":"21","size_leaf_vector":"0"}},{"base_weights":[-1.2563315E-1,-4.3867007E-2,-8.387671E-2,6.932738E-3,-2.4397865E-1,-2.3296282E-1,8.213041E-2,7.5255113E-4,-3.0798352E-1,-9.824898E-3,-2.2207491E-2,1.3721609E-1,-1.5523982E-2,-1.6396573E-2,-3.1102479E-2,1.9374532E-1,-1.2159515E-3,1.3875799E-1,2.3793893E-2,1.248329E-2,4.519491E-3],"categories":[],"categories_nodes":[],"categories_segments":[],"categories_sizes":[],"default_left":[0,0,0,0,0,0,0,0,0,0,0,0,0,0,0,0,0,0,0,0,0],"id":20,"left_children":[1,-1,3,5,7,9,11,-1,13,-1,-1,15,-1,-1,-1,17,-1,19,-1,-1,-1],"loss_changes":[1.3700447E0,0E0,1.0048665E0,8.3091474E-1,4.095415E-1,3.202623E-2,5.858189E-1,0E0,1.0006654E-1,0E0,0E0,2.6333737E-1,0E0,0E0,0E0,1.0538727E-1,0E0,2.6916057E-2,0E0,0E0,0E0],"parents":[2147483647,0,0,2,2,3,3,4,4,5,5,6,6,8,8,11,11,15,15,17,17],"right_children":[2,-1,4,6,8,10,12,-1,14,-1,-1,16,-1,-1,-1,18,-1,20,-1,-1,-1],"split_conditions":[4.0307E-1,-4.3867007E-2,3.9391E-1,5.7293E-1,-1.978E-2,2.389E-1,8.7648E-1,7.5255113E-4,4.5962E-1,-9.824898E-3,-2.2207491E-2,3.8661E-1,-1.5523982E-2,-1.6396573E-2,-3.1102479E-2,4.5792E-1,-1.2159515E-3,8.4026E-1,2.3793893E-2,1.248329E-2,4.519491E-3],"split_indices":[5186,0,3779,1519,5373,304,1211,0,1091,0,0,4139,0,0,0,3740,0,1720,0,0,0],"split_type":[0,0,0,0,0,0,0,0,0,0,0,0,0,0,0,0,0,0,0,0,0],"sum_hessian":[7.3E1,5E0,6.8E1,4.4E1,2.4E1,1E1,3.4E1,5E0,1.9E1,5E0,5E0,2.9E1,5E0,1.2E1,7E0,2.1E1,8E0,1.6E1,5E0,1.1E1,5E0],"tree_param":{"num_deleted":"0","num_feature":"6670","num_nodes":"21","size_leaf_vector":"0"}},{"base_weights":[-1.1754295E-1,-1.8352264E-3,-2.6124543E-1,-2.4216004E-1,8.083378E-2,-3.8205707E-1,1.5110353E-2,-2.3908494E-2,-9.388511E-3,-8.004134E-3,1.5886515E-1,-4.4189148E-2,-2.5461274E-1,1.1987568E-2,-9.909894E-3,4.7040884E-3,2.1619192E-1,-8.246399E-3,-2.3277901E-2,1.15937255E-2,2.0442998E-2],"categories":[],"categories_nodes":[],"categories_segments":[],"categories_sizes":[],"default_left":[0,0,0,0,0,0,0,0,0,0,0,0,0,0,0,0,0,0,0,0,0],"id":21,"left_children":[1,3,5,7,9,11,13,-1,-1,-1,15,-1,17,-1,-1,-1,19,-1,-1,-1,-1],"loss_changes":[1.2299545E0,8.5400605E-1,1.107544E0,5.8687985E-2,4.8528135E-1,4.571333E-1,2.555234E-1,0E0,0E0,0E0,1.1320752E-1,0E0,9.4932795E-2,0E0,0E0,0E0,6.495118E-3,0E0,0E0,0E0,0E0],"parents":[2147483647,0,0,1,1,2,2,3,3,4,4,5,5,6,6,10,10,12,12,16,16],"right_children":[2,4,6,8,10,12,14,-1,-1,-1,16,-1,18,-1,-1,-1,20,-1,-1,-1,-1],"split_conditions":[4.8914E-1,9.232E-2,5.7088E-1,3.9012E-1,3.5875E-1,1.8702E-1,4.5071E-1,-2.3908494E-2,-9.388511E-3,-8.004134E-3,3.9578E-1,-4.4189148E-2,1.671E-2,1.1987568E-2,-9.909894E-3,4.7040884E-3,5.4415E-1,-8.246399E-3,-2.3277901E-2,1.15937255E-2,2.0442998E-2],"split_indices":[4355,2236,6335,288,3215,4371,7,0,0,0,770,0,4589,0,0,0,535,0,0,0,0],"split_type":[0,0,0,0,0,0,0,0,0,0,0,0,0,0,0,0,0,0,0,0,0],"sum_hessian":[7.3E1,4.1E1,3.2E1,1E1,3.1E1,2.2E1,1E1,5E0,5E0,9E0,2.2E1,7E0,1.5E1,5E0,5E0,9E0,1.3E1,5E0,1E1,8E0,5E0],"tree_param":{"num_deleted":"0","num_feature":"6670","num_nodes":"21","size_leaf_vector":"0"}},{"base_weights":[-1.0978393E-1,-3.9314296E-2,-7.21575E-2,7.3094745E-3,-2.1231176E-1,-2.062201E-1,7.420993E-2,6.241109E-4,-2.6788616E-1,-1.9650321E-2,-8.704943E-3,1.2888777E-1,-1.2218549E-2,-1.4331648E-2,-2.693973E-2,2.2479904E-1,5.7786487E-2,1.0546292E-2,2.141585E-2,9.755098E-2,-2.8500743E-3,3.9539123E-3,9.633547E-3],"categories":[],"categories_nodes":[],"categories_segments":[],"categories_sizes":[],"default_left":[0,0,0,0,0,0,0,0,0,0,0,0,0,0,0,0,0,0,0,0,0,0,0],"id":22,"left_children":[1,-1,3,5,7,9,11,-1,13,-1,-1,15,-1,-1,-1,17,19,-1,-1,21,-1,-1,-1],"loss_changes":[1.1160312E0,0E0,7.700488E-1,6.581387E-1,3.0876815E-1,2.4911195E-2,4.747874E-1,0E0,7.16095E-2,0E0,0E0,1.847727E-1,0E0,0E0,0E0,2.1211624E-2,7.2267964E-2,0E0,0E0,1.12353265E-2,0E0,0E0,0E0],"parents":[2147483647,0,0,2,2,3,3,4,4,5,5,6,6,8,8,11,11,15,15,16,16,19,19],"right_children":[2,-1,4,6,8,10,12,-1,14,-1,-1,16,-1,-1,-1,18,20,-1,-1,22,-1,-1,-1],"split_conditions":[4.0307E-1,-3.9314296E-2,3.9391E-1,5.7293E-1,-1.978E-2,7.7238E-1,4.5173E-1,6.241109E-4,4.5962E-1,-1.9650321E-2,-8.704943E-3,7.9708E-1,-1.2218549E-2,-1.4331648E-2,-2.693973E-2,2.3848E-1,4.0072E-1,1.0546292E-2,2.141585E-2,4.6805E-1,-2.8500743E-3,3.9539123E-3,9.633547E-3],"split_indices":[5186,0,3779,1519,5373,55,1151,0,1091,0,0,6579,0,0,0,217,2689,0,0,315,0,0,0],"split_type":[0,0,0,0,0,0,0,0,0,0,0,0,0,0,0,0,0,0,0,0,0,0,0],"sum_hessian":[7.3E1,5E0,6.8E1,4.4E1,2.4E1,1E1,3.4E1,5E0,1.9E1,5E0,5E0,2.8E1,6E0,1.2E1,7E0,1.1E1,1.7E1,6E0,5E0,1.2E1,5E0,6E0,6E0],"tree_param":{"num_deleted":"0","num_feature":"6670","num_nodes":"23","size_leaf_vector":"0"}},{"base_weights":[-1.02601975E-1,-3.7535913E-2,-6.6517E-2,-2.2924934E-2,-2.2071155E-2,-2.0961575E-1,3.439238E-2,-1.9443018E-2,-7.51823E-3,9.5497556E-2,-1.4669707E-1,-6.805389E-2,1.6364029E-1,-3.1403548E-3,-1.616932E-2,2.2370566E-3,-1.1594467E-2,1.2134289E-1,2.0801868E-2,1.085821E-2,3.190199E-3],"categories":[],"categories_nodes":[],"categories_segments":[],"categories_sizes":[],"default_left":[0,0,0,0,0,0,0,0,0,0,0,0,0,0,0,0,0,0,0,0,0],"id":23,"left_children":[1,-1,3,5,-1,7,9,-1,-1,11,13,15,17,-1,-1,-1,-1,19,-1,-1,-1],"loss_changes":[1.0291553E0,0E0,6.7833734E-1,6.385456E-1,0E0,4.999882E-2,5.2302235E-1,0E0,0E0,4.0120578E-1,7.763508E-2,9.778715E-2,8.6593926E-2,0E0,0E0,0E0,0E0,3.0775815E-2,0E0,0E0,0E0],"parents":[2147483647,0,0,2,2,3,3,5,5,6,6,9,9,10,10,11,11,12,12,17,17],"right_children":[2,-1,4,6,-1,8,10,-1,-1,12,14,16,18,-1,-1,-1,-1,20,-1,-1,-1],"split_conditions":[1.483E-1,-3.7535913E-2,7.3763E-1,4.0331E-1,-2.2071155E-2,1.7201E-1,4.7338E-1,-1.9443018E-2,-7.51823E-3,2.3026E-1,5.6823E-1,1.835E-2,3.5964E-1,-3.1403548E-3,-1.616932E-2,2.2370566E-3,-1.1594467E-2,1.4845E-1,2.0801868E-2,1.085821E-2,3.190199E-3],"split_indices":[6382,0,4343,1626,0,2015,1177,0,0,333,230,221,2472,0,0,0,0,2800,0,0,0],"split_type":[0,0,0,0,0,0,0,0,0,0,0,0,0,0,0,0,0,0,0,0,0],"sum_hessian":[7.3E1,5E0,6.8E1,5.8E1,1E1,1.3E1,4.5E1,8E0,5E0,3.4E1,1.1E1,1E1,2.4E1,5E0,6E0,5E0,5E0,1.9E1,5E0,1.4E1,5E0],"tree_param":{"num_deleted":"0","num_feature":"6670","num_nodes":"21","size_leaf_vector":"0"}},{"base_weights":[-9.599311E-2,-5.647672E-2,-3.112078E-2,-2.6025987E-1,-2.5981872E-3,-5.0448067E-3,-2.7000448E-2,1.08780436E-1,-9.53271E-2,1.6104902E-1,-3.6473616E-3,6.2966286E-3,-1.5354145E-1,6.3671474E-3,1.4879807E-2,-2.0085424E-3,-2.0732555E-1,-1.7984327E-2,-9.849628E-3],"categories":[],"categories_nodes":[],"categories_segments":[],"categories_sizes":[],"default_left":[0,0,0,0,0,0,0,0,0,0,0,0,0,0,0,0,0,0,0],"id":24,"left_children":[1,3,-1,5,7,-1,-1,9,11,13,-1,-1,15,-1,-1,-1,17,-1,-1],"loss_changes":[9.092449E-1,7.3495275E-1,0E0,2.4529254E-1,5.6808275E-1,0E0,0E0,2.1352452E-1,3.2599437E-1,3.7197143E-2,0E0,0E0,1.5125531E-1,0E0,0E0,0E0,7.985115E-3,0E0,0E0],"parents":[2147483647,0,0,1,1,3,3,4,4,7,7,8,8,9,9,12,12,16,16],"right_children":[2,4,-1,6,8,-1,-1,10,12,14,-1,-1,16,-1,-1,-1,18,-1,-1],"split_conditions":[7.8805E-1,2.2318E-1,-3.112078E-2,1.1857E-1,2.2683E-1,-5.0448067E-3,-2.7000448E-2,4.6139E-1,7.969E-2,1.1195E-1,-3.6473616E-3,6.2966286E-3,2.811E-1,6.3671474E-3,1.4879807E-2,-2.0085424E-3,2.6564E-1,-1.7984327E-2,-9.849628E-3],"split_indices":[4478,4988,0,1699,5012,0,0,2778,958,109,0,0,2641,0,0,0,1322,0,0],"split_type":[0,0,0,0,0,0,0,0,0,0,0,0,0,0,0,0,0,0,0],"sum_hessian":[7.3E1,6.6E1,7E0,1.3E1,5.3E1,5E0,8E0,2.4E1,2.9E1,1.8E1,6E0,7E0,2.2E1,7E0,1.1E1,7E0,1.5E1,9E0,6E0],"tree_param":{"num_deleted":"0","num_feature":"6670","num_nodes":"19","size_leaf_vector":"0"}},{"base_weights":[-8.972758E-2,-3.3922885E-2,-5.6898702E-2,9.834546E-3,-1.747426E-1,-9.633976E-2,1.0675122E-1,3.599685E-4,-2.1986812E-1,3.280902E-3,-1.475151E-2,1.589486E-1,-5.724928E-3,-2.5295755E-1,-7.537491E-3,1.08529694E-1,1.8757598E-2,-2.146468E-2,-1.1655073E-2,4.750098E-3,9.4950665E-3],"categories":[],"categories_nodes":[],"categories_segments":[],"categories_sizes":[],"default_left":[0,0,0,0,0,0,0,0,0,0,0,0,0,0,0,0,0,0,0,0,0],"id":25,"left_children":[1,-1,3,5,7,9,11,-1,13,-1,-1,15,-1,17,-1,19,-1,-1,-1,-1,-1],"loss_changes":[8.550874E-1,0E0,5.443418E-1,4.733371E-1,2.0360368E-1,3.1786087E-1,2.4148855E-1,0E0,5.3574324E-2,0E0,0E0,6.0177147E-2,0E0,4.1639805E-3,0E0,3.415957E-3,0E0,0E0,0E0,0E0,0E0],"parents":[2147483647,0,0,2,2,3,3,4,4,5,5,6,6,8,8,11,11,13,13,15,15],"right_children":[2,-1,4,6,8,10,12,-1,14,-1,-1,16,-1,18,-1,20,-1,-1,-1,-1,-1],"split_conditions":[1.483E-1,-3.3922885E-2,3.9391E-1,3.1349E-1,3.174E-1,4.531E-2,6.4269E-1,3.599685E-4,5.8514E-1,3.280902E-3,-1.475151E-2,5.8607E-1,-5.724928E-3,2.4997E-1,-7.537491E-3,4.0089E-1,1.8757598E-2,-2.146468E-2,-1.1655073E-2,4.750098E-3,9.4950665E-3],"split_indices":[6382,0,3779,6065,833,6003,4792,0,1482,0,0,540,0,1202,0,716,0,0,0,0,0],"split_type":[0,0,0,0,0,0,0,0,0,0,0,0,0,0,0,0,0,0,0,0,0],"sum_hessian":[7.3E1,5E0,6.8E1,4.4E1,2.4E1,2.1E1,2.3E1,5E0,1.9E1,9E0,1.2E1,1.8E1,5E0,1.4E1,5E0,1.3E1,5E0,9E0,5E0,5E0,8E0],"tree_param":{"num_deleted":"0","num_feature":"6670","num_nodes":"21","size_leaf_vector":"0"}},{"base_weights":[-8.378737E-2,-3.2387376E-2,-5.2308336E-2,1.0487654E-2,-1.6324878E-1,-5.2643947E-2,1.5403934E-1,3.7124663E-4,-2.0554596E-1,-1.4717164E-2,1.2073137E-2,5.1676277E-3,1.7200042E-2,-1.0845609E-2,-2.0915754E-2,7.295521E-2,-1.0313107E-2,-2.1895675E-4,7.860971E-3],"categories":[],"categories_nodes":[],"categories_segments":[],"categories_sizes":[],"default_left":[0,0,0,0,0,0,0,0,0,0,0,0,0,0,0,0,0,0,0],"id":26,"left_children":[1,-1,3,5,7,9,11,-1,13,-1,15,-1,-1,-1,-1,17,-1,-1,-1],"loss_changes":[7.881629E-1,0E0,4.824085E-1,4.159284E-1,1.7887568E-1,2.997258E-1,7.394409E-2,0E0,4.904461E-2,0E0,2.1948868E-1,0E0,0E0,0E0,0E0,4.1398264E-2,0E0,0E0,0E0],"parents":[2147483647,0,0,2,2,3,3,4,4,5,5,6,6,8,8,10,10,15,15],"right_children":[2,-1,4,6,8,10,12,-1,14,-1,16,-1,-1,-1,-1,18,-1,-1,-1],"split_conditions":[4.0307E-1,-3.2387376E-2,3.9391E-1,3.4533E-1,-1.978E-2,2.3958E-1,6.4119E-1,3.7124663E-4,4.5962E-1,-1.4717164E-2,4.1876E-1,5.1676277E-3,1.7200042E-2,-1.0845609E-2,-2.0915754E-2,3.6852E-1,-1.0313107E-2,-2.1895675E-4,7.860971E-3],"split_indices":[5186,0,3779,2831,5373,1371,4701,0,1091,0,2986,0,0,0,0,3935,0,0,0],"split_type":[0,0,0,0,0,0,0,0,0,0,0,0,0,0,0,0,0,0,0],"sum_hessian":[7.3E1,5E0,6.8E1,4.4E1,2.4E1,3.1E1,1.3E1,5E0,1.9E1,9E0,2.2E1,7E0,6E0,1.2E1,7E0,1.6E1,6E0,5E0,1.1E1],"tree_param":{"num_deleted":"0","num_feature":"6670","num_nodes":"19","size_leaf_vector":"0"}},{"base_weights":[-7.829788E-2,-3.0398333E-2,-4.87272E-2,9.874254E-3,-1.5226074E-1,-8.35744E-2,9.512409E-2,-2.1322033E-1,-2.9624475E-3,4.8376685E-3,-1.5697698E-1,1.416867E-1,-5.1133633E-3,-1.0198155E-2,-1.936435E-2,-5.1418813E-3,-1.4574782E-2,9.440286E-2,1.7130092E-2,4.0629087E-3,8.305061E-3],"categories":[],"categories_nodes":[],"categories_segments":[],"categories_sizes":[],"default_left":[0,0,0,0,0,0,0,0,0,0,0,0,0,0,0,0,0,0,0,0,0],"id":27,"left_children":[1,-1,3,5,7,9,11,13,-1,-1,15,17,-1,-1,-1,-1,-1,19,-1,-1,-1],"loss_changes":[6.958307E-1,0E0,4.2014134E-1,3.6644164E-1,1.634252E-1,2.4924794E-1,1.9215061E-1,2.0472884E-2,0E0,0E0,3.6218077E-2,5.6342006E-2,0E0,0E0,0E0,0E0,0E0,3.1995699E-3,0E0,0E0,0E0],"parents":[2147483647,0,0,2,2,3,3,4,4,5,5,6,6,7,7,10,10,11,11,17,17],"right_children":[2,-1,4,6,8,10,12,14,-1,-1,16,18,-1,-1,-1,-1,-1,20,-1,-1,-1],"split_conditions":[1.483E-1,-3.0398333E-2,3.9391E-1,3.1349E-1,4.9768E-1,7.508E-2,6.4269E-1,5.7876E-1,-2.9624475E-3,4.8376685E-3,2.5641E-1,5.8607E-1,-5.1133633E-3,-1.0198155E-2,-1.936435E-2,-5.1418813E-3,-1.4574782E-2,4.0089E-1,1.7130092E-2,4.0629087E-3,8.305061E-3],"split_indices":[6382,0,3779,6065,6658,76,4792,396,0,0,6056,540,0,0,0,0,0,716,0,0,0],"split_type":[0,0,0,0,0,0,0,0,0,0,0,0,0,0,0,0,0,0,0,0,0],"sum_hessian":[7.3E1,5E0,6.8E1,4.4E1,2.4E1,2.1E1,2.3E1,1.5E1,9E0,7E0,1.4E1,1.8E1,5E0,7E0,8E0,5E0,9E0,1.3E1,5E0,5E0,8E0],"tree_param":{"num_deleted":"0","num_feature":"6670","num_nodes":"21","size_leaf_vector":"0"}},{"base_weights":[-7.31474E-2,-2.9057372E-2,-4.475823E-2,-1.1875321E-2,-2.1706127E-1,-8.663486E-2,6.328006E-2,-1.990664E-2,-9.939285E-3,-1.5850383E-1,1.9540237E-2,1.1620591E-1,-5.4844012E-3,-5.534119E-3,-1.3905805E-2,-4.080311E-3,5.441699E-3,6.103776E-2,1.5384034E-2,2.4929835E-4,6.717169E-3],"categories":[],"categories_nodes":[],"categories_segments":[],"categories_sizes":[],"default_left":[0,0,0,0,0,0,0,0,0,0,0,0,0,0,0,0,0,0,0,0,0],"id":28,"left_children":[1,-1,3,5,7,9,11,-1,-1,13,15,17,-1,-1,-1,-1,-1,19,-1,-1,-1],"loss_changes":[6.429071E-1,0E0,3.8836426E-1,3.369786E-1,9.796381E-3,2.3201804E-1,2.2507873E-1,0E0,0E0,2.7348667E-2,5.491017E-2,9.5395416E-2,0E0,0E0,0E0,0E0,0E0,2.4396151E-2,0E0,0E0,0E0],"parents":[2147483647,0,0,2,2,3,3,4,4,5,5,6,6,9,9,10,10,11,11,17,17],"right_children":[2,-1,4,6,8,10,12,-1,-1,14,16,18,-1,-1,-1,-1,-1,20,-1,-1,-1],"split_conditions":[4.0307E-1,-2.9057372E-2,7.3763E-1,5.1781E-1,1.969E-1,2.8746E-1,4.0147E-1,-1.990664E-2,-9.939285E-3,7.99E-3,4.7669E-1,1.3091E-1,-5.4844012E-3,-5.534119E-3,-1.3905805E-2,-4.080311E-3,5.441699E-3,-6.905E-2,1.5384034E-2,2.4929835E-4,6.717169E-3],"split_indices":[5186,0,4343,5481,653,529,110,0,0,6197,164,2664,0,0,0,0,0,4709,0,0,0],"split_type":[0,0,0,0,0,0,0,0,0,0,0,0,0,0,0,0,0,0,0,0,0],"sum_hessian":[7.3E1,5E0,6.8E1,5.8E1,1E1,2.9E1,2.9E1,5E0,5E0,1.7E1,1.2E1,2.1E1,8E0,5E0,1.2E1,5E0,7E0,1.4E1,7E0,5E0,9E0],"tree_param":{"num_deleted":"0","num_feature":"6670","num_nodes":"21","size_leaf_vector":"0"}},{"base_weights":[-6.847372E-2,-2.7833432E-1,-3.133403E-2,-3.1934768E-2,-6.336201E-3,3.88329E-2,-1.2293555E-1,-6.1004918E-2,1.0967709E-1,2.6494784E-3,-1.7737173E-1,-1.0550287E-2,4.6138517E-3,1.5469234E-1,3.0142174E-3,-2.0964527E-1,-4.631024E-3,6.89604E-3,1.4650392E-2,-1.8258031E-2,-9.856289E-3],"categories":[],"categories_nodes":[],"categories_segments":[],"categories_sizes":[],"default_left":[0,0,0,0,0,0,0,0,0,0,0,0,0,0,0,0,0,0,0,0,0],"id":29,"left_children":[1,3,5,-1,-1,7,9,11,13,-1,15,-1,-1,17,-1,19,-1,-1,-1,-1,-1],"loss_changes":[5.680462E-1,2.78472E-1,4.1612738E-1,0E0,0E0,2.6838923E-1,2.474908E-1,1.6482753E-1,6.259894E-2,0E0,6.541908E-2,0E0,0E0,1.519376E-2,0E0,1.0307431E-2,0E0,0E0,0E0,0E0,0E0],"parents":[2147483647,0,0,1,1,2,2,5,5,6,6,7,7,8,8,10,10,13,13,15,15],"right_children":[2,4,6,-1,-1,8,10,12,14,-1,16,-1,-1,18,-1,20,-1,-1,-1,-1,-1],"split_conditions":[4.4567E-1,2.2642E-1,4.9376E-1,-3.1934768E-2,-6.336201E-3,3.7E-4,1.2633E-1,4.0643E-1,3.6694E-1,2.6494784E-3,5.7812E-1,-1.0550287E-2,4.6138517E-3,4.3623E-1,3.0142174E-3,3.1214E-1,-4.631024E-3,6.89604E-3,1.4650392E-2,-1.8258031E-2,-9.856289E-3],"split_indices":[6613,35,4355,0,0,1518,2787,2252,3062,0,1332,0,0,4575,0,4070,0,0,0,0,0],"split_type":[0,0,0,0,0,0,0,0,0,0,0,0,0,0,0,0,0,0,0,0,0],"sum_hessian":[7.3E1,1E1,6.3E1,5E0,5E0,3.6E1,2.7E1,1.5E1,2.1E1,7E0,2E1,9E0,6E0,1.2E1,9E0,1.5E1,5E0,6E0,6E0,9E0,6E0],"tree_param":{"num_deleted":"0","num_feature":"6670","num_nodes":"21","size_leaf_vector":"0"}},{"base_weights":[-6.401039E-2,-2.5906531E-2,-3.861227E-2,1.043847E-2,-1.3101734E-1,-1.20187685E-1,6.007675E-2,6.3892663E-4,-1.7800273E-1,-1.1754287E-2,-3.8581155E-3,1.03993855E-1,-7.173982E-3,-1.7526306E-2,-9.099388E-3,5.978076E-4,1.3104947E-1,1.3990416E-2,6.7485427E-3],"categories":[],"categories_nodes":[],"categories_segments":[],"categories_sizes":[],"default_left":[0,0,0,0,0,0,0,0,0,0,0,0,0,0,0,0,0,0,0],"id":30,"left_children":[1,-1,3,5,7,9,11,-1,13,-1,-1,15,-1,-1,-1,-1,17,-1,-1],"loss_changes":[5.1556164E-1,0E0,3.1411266E-1,3.0548713E-1,1.5886453E-1,2.4590239E-2,2.424803E-1,0E0,2.8454125E-2,0E0,0E0,6.910044E-2,0E0,0E0,0E0,0E0,3.1071782E-2,0E0,0E0],"parents":[2147483647,0,0,2,2,3,3,4,4,5,5,6,6,8,8,11,11,16,16],"right_children":[2,-1,4,6,8,10,12,-1,14,-1,-1,16,-1,-1,-1,-1,18,-1,-1],"split_conditions":[4.1807E-1,-2.5906531E-2,4.618E-1,1.4271E-1,3.8198E-1,2.5943E-1,4.2043E-1,6.3892663E-4,4.7693E-1,-1.1754287E-2,-3.8581155E-3,4.0635E-1,-7.173982E-3,-1.7526306E-2,-9.099388E-3,5.978076E-4,1.4939E-1,1.3990416E-2,6.7485427E-3],"split_indices":[6613,0,2680,2231,2703,683,2231,0,409,0,0,6414,0,0,0,0,5829,0,0],"split_type":[0,0,0,0,0,0,0,0,0,0,0,0,0,0,0,0,0,0,0],"sum_hessian":[7.3E1,5E0,6.8E1,4.5E1,2.3E1,1.2E1,3.3E1,6E0,1.7E1,7E0,5E0,2.6E1,7E0,7E0,1E1,6E0,2E1,7E0,1.3E1],"tree_param":{"num_deleted":"0","num_feature":"6670","num_nodes":"19","size_leaf_vector":"0"}},{"base_weights":[-5.9930466E-2,-2.4811985E-2,-3.5505734E-2,-7.6916767E-3,-1.8146244E-1,-5.4528013E-2,7.355707E-2,-1.6627511E-2,-8.323575E-3,6.8810857E-3,-8.482185E-2,1.1693501E-1,-1.2728398E-3,4.8271613E-3,-1.148323E-1,5.0302646E-3,1.3541541E-2,-1.03322705E-2,-2.2225329E-3],"categories":[],"categories_nodes":[],"categories_segments":[],"categories_sizes":[],"default_left":[0,0,0,0,0,0,0,0,0,0,0,0,0,0,0,0,0,0,0],"id":31,"left_children":[1,-1,3,5,7,9,11,-1,-1,-1,13,15,-1,-1,17,-1,-1,-1,-1],"loss_changes":[4.7787935E-1,0E0,2.7871996E-1,2.2852914E-1,6.591648E-3,1.7616993E-1,8.837697E-2,0E0,0E0,0E0,1.5065737E-1,3.5475343E-2,0E0,0E0,4.8667848E-2,0E0,0E0,0E0,0E0],"parents":[2147483647,0,0,2,2,3,3,4,4,5,5,6,6,10,10,11,11,14,14],"right_children":[2,-1,4,6,8,10,12,-1,-1,-1,14,16,-1,-1,18,-1,-1,-1,-1],"split_conditions":[4.0307E-1,-2.4811985E-2,7.3763E-1,5.0844E-1,1.969E-1,2.3191E-1,4.3652E-1,-1.6627511E-2,-8.323575E-3,6.8810857E-3,6.944E-1,4.9485E-1,-1.2728398E-3,4.8271613E-3,6.8765E-1,5.0302646E-3,1.3541541E-2,-1.03322705E-2,-2.2225329E-3],"split_indices":[5186,0,4343,6046,653,159,2691,0,0,0,6529,482,0,0,48,0,0,0,0],"split_type":[0,0,0,0,0,0,0,0,0,0,0,0,0,0,0,0,0,0,0],"sum_hessian":[7.3E1,5E0,6.8E1,5.8E1,1E1,3.7E1,2.1E1,5E0,5E0,6E0,3.1E1,1.4E1,7E0,5E0,2.6E1,9E0,5E0,2E1,6E0],"tree_param":{"num_deleted":"0","num_feature":"6670","num_nodes":"19","size_leaf_vector":"0"}},{"base_weights":[-5.588583E-2,-2.3653982E-2,-3.251062E-2,1.2724033E-2,-1.1263257E-1,-5.797957E-2,7.70055E-2,9.3846046E-4,-1.4454456E-1,2.3898701E-3,-1.2263076E-1,1.10322885E-1,-3.100036E-3,-1.6644657E-1,-4.927407E-3,-5.438645E-3,-1.086664E-2,7.174388E-2,1.3646507E-2,-8.534552E-3,-1.4871998E-2,3.1625247E-3,6.26177E-3],"categories":[],"categories_nodes":[],"categories_segments":[],"categories_sizes":[],"default_left":[0,0,0,0,0,0,0,0,0,0,0,0,0,0,0,0,0,0,0,0,0,0,0],"id":32,"left_children":[1,-1,3,5,7,9,11,-1,13,-1,15,17,-1,19,-1,-1,-1,21,-1,-1,-1,-1,-1],"loss_changes":[4.3862164E-1,0E0,2.5150907E-1,2.0898664E-1,1.0164958E-1,1.316958E-1,9.918623E-2,0E0,2.3602307E-2,0E0,3.9943457E-3,3.9451197E-2,0E0,2.5875866E-3,0E0,0E0,0E0,1.343362E-3,0E0,0E0,0E0,0E0,0E0],"parents":[2147483647,0,0,2,2,3,3,4,4,5,5,6,6,8,8,10,10,11,11,13,13,17,17],"right_children":[2,-1,4,6,8,10,12,-1,14,-1,16,18,-1,20,-1,-1,-1,22,-1,-1,-1,-1,-1],"split_conditions":[1.483E-1,-2.3653982E-2,3.9391E-1,3.1349E-1,3.174E-1,3.2442E-1,6.4269E-1,9.3846046E-4,5.8514E-1,2.3898701E-3,5.666E-2,5.8607E-1,-3.100036E-3,3.4593E-1,-4.927407E-3,-5.438645E-3,-1.086664E-2,4.0089E-1,1.3646507E-2,-8.534552E-3,-1.4871998E-2,3.1625247E-3,6.26177E-3],"split_indices":[6382,0,3779,6065,833,4008,4792,0,1482,0,1497,540,0,2196,0,0,0,716,0,0,0,0,0],"split_type":[0,0,0,0,0,0,0,0,0,0,0,0,0,0,0,0,0,0,0,0,0,0,0],"sum_hessian":[7.3E1,5E0,6.8E1,4.4E1,2.4E1,2.1E1,2.3E1,5E0,1.9E1,9E0,1.2E1,1.8E1,5E0,1.4E1,5E0,5E0,7E0,1.3E1,5E0,7E0,7E0,5E0,8E0],"tree_param":{"num_deleted":"0","num_feature":"6670","num_nodes":"23","size_leaf_vector":"0"}},{"base_weights":[-5.2302424E-2,-2.8042773E-2,-2.1037187E-2,-1.3604146E-2,-1.5766509E-3,7.0656374E-2,-5.67673E-2,1.0056597E-1,-3.4352452E-3,4.205428E-3,-8.809878E-2,1.1757627E-2,6.763379E-2,-1.2047987E-1,-7.46247E-4,5.9506074E-3,2.763658E-3,-4.380068E-3,-1.0385958E-2],"categories":[],"categories_nodes":[],"categories_segments":[],"categories_sizes":[],"default_left":[0,0,0,0,0,0,0,0,0,0,0,0,0,0,0,0,0,0,0],"id":33,"left_children":[1,3,-1,-1,5,7,9,11,-1,-1,13,-1,15,17,-1,-1,-1,-1,-1],"loss_changes":[4.0179017E-1,2.7568996E-1,0E0,0E0,2.3921965E-1,9.517102E-2,1.2514465E-1,2.8265342E-2,0E0,0E0,6.712593E-2,0E0,2.4826676E-3,1.3143182E-2,0E0,0E0,0E0,0E0,0E0],"parents":[2147483647,0,0,1,1,4,4,5,5,6,6,7,7,10,10,12,12,13,13],"right_children":[2,4,-1,-1,6,8,10,12,-1,-1,14,-1,16,18,-1,-1,-1,-1,-1],"split_conditions":[7.675E-1,-8.535E-2,-2.1037187E-2,-1.3604146E-2,2.2683E-1,7.3071E-1,7.969E-2,4.1282E-1,-3.4352452E-3,4.205428E-3,5.6174E-1,1.1757627E-2,5.1235E-1,2.6959E-1,-7.46247E-4,5.9506074E-3,2.763658E-3,-4.380068E-3,-1.0385958E-2],"split_indices":[2583,2295,0,0,5012,6473,958,4990,0,0,3549,0,166,2481,0,0,0,0,0],"split_type":[0,0,0,0,0,0,0,0,0,0,0,0,0,0,0,0,0,0,0],"sum_hessian":[7.3E1,6.7E1,6E0,9E0,5.8E1,2.5E1,3.3E1,2E1,5E0,7E0,2.6E1,6E0,1.4E1,1.8E1,8E0,9E0,5E0,5E0,1.3E1],"tree_param":{"num_deleted":"0","num_feature":"6670","num_nodes":"19","size_leaf_vector":"0"}},{"base_weights":[-4.8770435E-2,-2.1664217E-2,-2.7186595E-2,-4.1507683E-3,-1.4827089E-1,-1.04253806E-1,2.6405608E-2,-1.3900377E-2,-6.486871E-3,-1.0140398E-2,-3.0338196E-3,6.4649716E-2,-5.6942202E-2,9.5684074E-2,-1.8968899E-3,2.2616826E-3,-7.7630077E-3,1.0528173E-2,5.3734686E-2,5.0209104E-3,1.8722051E-3],"categories":[],"categories_nodes":[],"categories_segments":[],"categories_sizes":[],"default_left":[0,0,0,0,0,0,0,0,0,0,0,0,0,0,0,0,0,0,0,0,0],"id":34,"left_children":[1,-1,3,5,7,9,11,-1,-1,-1,-1,13,15,17,-1,-1,-1,-1,19,-1,-1],"loss_changes":[3.7561297E-1,0E0,1.9184463E-1,1.8322127E-1,9.159818E-3,2.2177935E-2,1.5030919E-1,0E0,0E0,0E0,0E0,9.174095E-2,6.3956514E-2,3.745179E-2,0E0,0E0,0E0,0E0,3.6502592E-3,0E0,0E0],"parents":[2147483647,0,0,2,2,3,3,4,4,5,5,6,6,11,11,12,12,13,13,18,18],"right_children":[2,-1,4,6,8,10,12,-1,-1,-1,-1,14,16,18,-1,-1,-1,-1,20,-1,-1],"split_conditions":[4.1807E-1,-2.1664217E-2,7.3763E-1,1.4271E-1,1.969E-1,1.5102E-1,4.618E-1,-1.3900377E-2,-6.486871E-3,-1.0140398E-2,-3.0338196E-3,3.8876E-1,3.8198E-1,7.1847E-1,-1.8968899E-3,2.2616826E-3,-7.7630077E-3,1.0528173E-2,6.0345E-1,5.0209104E-3,1.8722051E-3],"split_indices":[6613,0,4343,2231,653,1158,2680,0,0,0,0,4421,2703,4912,0,0,0,0,2300,0,0],"split_type":[0,0,0,0,0,0,0,0,0,0,0,0,0,0,0,0,0,0,0,0,0],"sum_hessian":[7.3E1,5E0,6.8E1,5.8E1,1E1,1.3E1,4.5E1,5E0,5E0,8E0,5E0,3.1E1,1.4E1,2.3E1,8E0,5E0,9E0,1E1,1.3E1,8E0,5E0],"tree_param":{"num_deleted":"0","num_feature":"6670","num_nodes":"21","size_leaf_vector":"0"}},{"base_weights":[-4.572349E-2,-2.0722494E-2,-2.5010709E-2,-3.3338247E-3,-1.3900393E-1,-5.132392E-2,4.47674E-2,-1.3031601E-2,-6.08144E-3,-9.888769E-2,1.8481605E-2,7.739792E-2,-4.0980955E-3,-3.3146457E-3,-8.73927E-3,-2.152055E-3,3.866487E-3,1.0958829E-1,1.136065E-3,5.006835E-3,1.1175044E-2],"categories":[],"categories_nodes":[],"categories_segments":[],"categories_sizes":[],"default_left":[0,0,0,0,0,0,0,0,0,0,0,0,0,0,0,0,0,0,0,0,0],"id":35,"left_children":[1,-1,3,5,7,9,11,-1,-1,13,15,17,-1,-1,-1,-1,-1,19,-1,-1,-1],"loss_changes":[3.465045E-1,0E0,1.7003682E-1,1.3849218E-1,8.050606E-3,1.0143403E-1,1.0154183E-1,0E0,0E0,1.2212113E-2,2.1761512E-2,4.442884E-2,0E0,0E0,0E0,0E0,0E0,1.5373781E-2,0E0,0E0,0E0],"parents":[2147483647,0,0,2,2,3,3,4,4,5,5,6,6,9,9,10,10,11,11,17,17],"right_children":[2,-1,4,6,8,10,12,-1,-1,14,16,18,-1,-1,-1,-1,-1,20,-1,-1,-1],"split_conditions":[4.0307E-1,-2.0722494E-2,7.3763E-1,5.1781E-1,1.969E-1,2.8746E-1,4.8175E-1,-1.3031601E-2,-6.08144E-3,1.7187E-1,4.4819E-1,7.8199E-1,-4.0980955E-3,-3.3146457E-3,-8.73927E-3,-2.152055E-3,3.866487E-3,3.4918E-1,1.136065E-3,5.006835E-3,1.1175044E-2],"split_indices":[5186,0,4343,5481,653,529,5551,0,0,285,461,4263,0,0,0,0,0,1465,0,0,0],"split_type":[0,0,0,0,0,0,0,0,0,0,0,0,0,0,0,0,0,0,0,0,0],"sum_hessian":[7.3E1,5E0,6.8E1,5.8E1,1E1,2.9E1,2.9E1,5E0,5E0,1.7E1,1.2E1,2.2E1,7E0,5E0,1.2E1,5E0,7E0,1.4E1,8E0,8E0,6E0],"tree_param":{"num_deleted":"0","num_feature":"6670","num_nodes":"21","size_leaf_vector":"0"}},{"base_weights":[-4.2793613E-2,-1.9752542E-2,-2.29931E-2,1.2568159E-2,-8.608364E-2,-4.386037E-2,6.377064E-2,9.0433756E-4,-1.1122191E-1,3.066071E-3,-8.6131714E-2,8.926139E-2,-2.0683892E-3,-5.6360303E-3,-1.1022278E-2,-2.6995314E-3,-8.070099E-3,4.2874985E-3,1.11954175E-2],"categories":[],"categories_nodes":[],"categories_segments":[],"categories_sizes":[],"default_left":[0,0,0,0,0,0,0,0,0,0,0,0,0,0,0,0,0,0,0],"id":36,"left_children":[1,-1,3,5,7,9,11,-1,13,-1,15,17,-1,-1,-1,-1,-1,-1,-1],"loss_changes":[3.1713712E-1,0E0,1.5588889E-1,1.3281463E-1,6.3018724E-2,8.232799E-2,5.83471E-2,0E0,1.47437155E-2,0E0,1.2273662E-2,2.8061256E-2,0E0,0E0,0E0,0E0,0E0,0E0,0E0],"parents":[2147483647,0,0,2,2,3,3,4,4,5,5,6,6,8,8,10,10,11,11],"right_children":[2,-1,4,6,8,10,12,-1,14,-1,16,18,-1,-1,-1,-1,-1,-1,-1],"split_conditions":[1.483E-1,-1.9752542E-2,3.9391E-1,3.1349E-1,3.174E-1,7.508E-2,6.4269E-1,9.0433756E-4,4.5962E-1,3.066071E-3,3.3542E-1,5.8607E-1,-2.0683892E-3,-5.6360303E-3,-1.1022278E-2,-2.6995314E-3,-8.070099E-3,4.2874985E-3,1.11954175E-2],"split_indices":[6382,0,3779,6065,833,76,4792,0,1091,0,1286,540,0,0,0,0,0,0,0],"split_type":[0,0,0,0,0,0,0,0,0,0,0,0,0,0,0,0,0,0,0],"sum_hessian":[7.3E1,5E0,6.8E1,4.4E1,2.4E1,2.1E1,2.3E1,5E0,1.9E1,7E0,1.4E1,1.8E1,5E0,1.1E1,8E0,5E0,9E0,1.3E1,5E0],"tree_param":{"num_deleted":"0","num_feature":"6670","num_nodes":"19","size_leaf_vector":"0"}},{"base_weights":[-3.998673E-2,-1.8940268E-2,-2.0924589E-2,6.4983947E-4,-1.3473974E-1,-5.8080535E-2,3.4634534E-2,-1.30138025E-2,-5.512912E-3,-9.328332E-2,2.3010133E-3,6.9146164E-2,-5.6361843E-2,-1.0014226E-2,-4.7140573E-3,-8.7431916E-5,9.2638984E-2,-6.0871164E-3,-1.6626375E-3,1.112484E-2,6.596447E-2,5.6549623E-3,2.8254634E-3],"categories":[],"categories_nodes":[],"categories_segments":[],"categories_sizes":[],"default_left":[0,0,0,0,0,0,0,0,0,0,0,0,0,0,0,0,0,0,0,0,0,0,0],"id":37,"left_children":[1,-1,3,5,7,9,11,-1,-1,13,-1,15,17,-1,-1,-1,19,-1,-1,-1,21,-1,-1],"loss_changes":[2.9453874E-1,0E0,1.6951682E-1,1.19771704E-1,1.3365224E-2,7.160366E-2,1.2323366E-1,0E0,0E0,1.1198908E-2,0E0,4.635912E-2,7.528603E-3,0E0,0E0,0E0,2.1412224E-2,0E0,0E0,0E0,1.4303997E-3,0E0,0E0],"parents":[2147483647,0,0,2,2,3,3,4,4,5,5,6,6,9,9,11,11,12,12,16,16,20,20],"right_children":[2,-1,4,6,8,10,12,-1,-1,14,-1,16,18,-1,-1,-1,20,-1,-1,-1,22,-1,-1],"split_conditions":[6.692E-2,-1.8940268E-2,7.3763E-1,2.5098E-1,5.3708E-1,4.0785E-1,4.8671E-1,-1.30138025E-2,-5.512912E-3,-2.08E-3,2.3010133E-3,1.3586E-1,6.9285E-1,-1.0014226E-2,-4.7140573E-3,-8.7431916E-5,2.2504E-1,-6.0871164E-3,-1.6626375E-3,1.112484E-2,3.0204E-1,5.6549623E-3,2.8254634E-3],"split_indices":[4767,0,4343,755,115,1391,3996,0,0,3614,0,3916,5,0,0,0,2850,0,0,0,4209,0,0],"split_type":[0,0,0,0,0,0,0,0,0,0,0,0,0,0,0,0,0,0,0,0,0,0,0],"sum_hessian":[7.3E1,5E0,6.8E1,5.8E1,1E1,2.1E1,3.7E1,5E0,5E0,1.5E1,6E0,2.7E1,1E1,5E0,1E1,7E0,2E1,5E0,5E0,5E0,1.5E1,1E1,5E0],"tree_param":{"num_deleted":"0","num_feature":"6670","num_nodes":"23","size_leaf_vector":"0"}},{"base_weights":[-3.7502944E-2,-1.8034719E-2,-1.9310731E-2,-7.974607E-2,1.0674872E-2,-3.2194148E-5,-1.22019745E-1,6.335333E-2,-4.704845E-2,-5.2432874E-3,-1.191574E-2,-9.182984E-4,8.787058E-2,-7.295516E-2,2.8884816E-3,3.1464163E-3,8.808895E-3,-2.6868994E-3,-6.6400976E-3],"categories":[],"categories_nodes":[],"categories_segments":[],"categories_sizes":[],"default_left":[0,0,0,0,0,0,0,0,0,0,0,0,0,0,0,0,0,0,0],"id":38,"left_children":[1,-1,3,5,7,-1,9,11,13,-1,-1,-1,15,17,-1,-1,-1,-1,-1],"loss_changes":[2.6858598E-1,0E0,1.2589239E-1,7.706693E-2,1.4589714E-1,0E0,1.7701551E-2,4.7411837E-2,5.3791933E-2,0E0,0E0,0E0,2.0880833E-2,7.2405636E-3,0E0,0E0,0E0,0E0,0E0],"parents":[2147483647,0,0,2,2,3,3,4,4,6,6,7,7,8,8,12,12,13,13],"right_children":[2,-1,4,6,8,-1,10,12,14,-1,-1,-1,16,18,-1,-1,-1,-1,-1],"split_conditions":[4.1807E-1,-1.8034719E-2,2.7831E-1,4.2957E-1,2.2015E-1,-3.2194148E-5,2.2714E-1,5.648E-2,9.3378E-1,-5.2432874E-3,-1.191574E-2,-9.182984E-4,3.5778E-1,4.9044E-1,2.8884816E-3,3.1464163E-3,8.808895E-3,-2.6868994E-3,-6.6400976E-3],"split_indices":[6613,0,1164,6205,5828,0,4547,2568,4117,0,0,0,5956,5767,0,0,0,0,0],"split_type":[0,0,0,0,0,0,0,0,0,0,0,0,0,0,0,0,0,0,0],"sum_hessian":[7.3E1,5E0,6.8E1,2.2E1,4.6E1,8E0,1.4E1,2.4E1,2.2E1,7E0,7E0,6E0,1.8E1,1.7E1,5E0,8E0,1E1,6E0,1.1E1],"tree_param":{"num_deleted":"0","num_feature":"6670","num_nodes":"19","size_leaf_vector":"0"}},{"base_weights":[-3.510411E-2,-1.7242221E-2,-1.7656906E-2,-7.3510164E-4,-1.0681413E-1,-3.882654E-2,3.738084E-2,-1.0296131E-2,-4.3908134E-3,-6.402393E-2,2.8851945E-3,6.2777214E-2,-3.0229765E-3,-6.151914E-3,4.886473E-5,3.7236854E-2,8.687672E-3,3.819411E-3,2.7401015E-4],"categories":[],"categories_nodes":[],"categories_segments":[],"categories_sizes":[],"default_left":[0,0,0,0,0,0,0,0,0,0,0,0,0,0,0,0,0,0,0],"id":39,"left_children":[1,-1,3,5,7,9,11,-1,-1,13,-1,15,-1,-1,-1,17,-1,-1,-1],"loss_changes":[2.4743557E-1,0E0,1.04021855E-1,8.711294E-2,8.140311E-3,6.0892504E-2,6.171951E-2,0E0,0E0,2.6831463E-2,0E0,2.6854664E-2,0E0,0E0,0E0,7.6290183E-3,0E0,0E0,0E0],"parents":[2147483647,0,0,2,2,3,3,4,4,5,5,6,6,9,9,11,11,15,15],"right_children":[2,-1,4,6,8,10,12,-1,-1,14,-1,16,-1,-1,-1,18,-1,-1,-1],"split_conditions":[4.0307E-1,-1.7242221E-2,7.3763E-1,5.1781E-1,1.969E-1,3.2181E-1,4.8175E-1,-1.0296131E-2,-4.3908134E-3,5.8343E-1,2.8851945E-3,5.1157E-1,-3.0229765E-3,-6.151914E-3,4.886473E-5,6.1535E-1,8.687672E-3,3.819411E-3,2.7401015E-4],"split_indices":[5186,0,4343,5481,653,529,5551,0,0,1329,0,487,0,0,0,3549,0,0,0],"split_type":[0,0,0,0,0,0,0,0,0,0,0,0,0,0,0,0,0,0,0],"sum_hessian":[7.3E1,5E0,6.8E1,5.8E1,1E1,2.9E1,2.9E1,5E0,5E0,2.2E1,7E0,2.2E1,7E0,1.7E1,5E0,1.6E1,6E0,1.1E1,5E0],"tree_param":{"num_deleted":"0","num_feature":"6670","num_nodes":"19","size_leaf_vector":"0"}},{"base_weights":[-3.28144E-2,-1.6439477E-2,-1.6131993E-2,1.6603165E-3,-1.10096924E-1,-4.753238E-2,3.0096605E-2,-1.0648887E-2,-4.4894414E-3,-7.656864E-2,1.9219918E-3,5.9127335E-2,-4.6535846E-2,-3.5543449E-3,-8.048418E-3,-9.617295E-4,7.532625E-2,-5.2059493E-3,-1.1927297E-3,9.660129E-3,5.3316295E-2,2.0970013E-3,4.5688455E-3],"categories":[],"categories_nodes":[],"categories_segments":[],"categories_sizes":[],"default_left":[0,0,0,0,0,0,0,0,0,0,0,0,0,0,0,0,0,0,0,0,0,0,0],"id":40,"left_children":[1,-1,3,5,7,9,11,-1,-1,13,-1,15,17,-1,-1,-1,19,-1,-1,-1,21,-1,-1],"loss_changes":[2.2654805E-1,0E0,1.1554067E-1,8.396318E-2,9.122789E-3,4.8695955E-2,8.728998E-2,0E0,0E0,9.266615E-3,0E0,3.3600427E-2,6.6047106E-3,0E0,0E0,0E0,2.020359E-2,0E0,0E0,0E0,1.7662235E-3,0E0,0E0],"parents":[2147483647,0,0,2,2,3,3,4,4,5,5,6,6,9,9,11,11,12,12,16,16,20,20],"right_children":[2,-1,4,6,8,10,12,-1,-1,14,-1,16,18,-1,-1,-1,20,-1,-1,-1,22,-1,-1],"split_conditions":[6.692E-2,-1.6439477E-2,7.3763E-1,2.5098E-1,5.3708E-1,3.4372E-1,4.8671E-1,-1.0648887E-2,-4.4894414E-3,8.627E-2,1.9219918E-3,5.3581E-1,6.9285E-1,-3.5543449E-3,-8.048418E-3,-9.617295E-4,2.2504E-1,-5.2059493E-3,-1.1927297E-3,9.660129E-3,1.83E-1,2.0970013E-3,4.5688455E-3],"split_indices":[4767,0,4343,755,115,1376,3996,0,0,3042,0,6366,5,0,0,0,2850,0,0,0,1347,0,0],"split_type":[0,0,0,0,0,0,0,0,0,0,0,0,0,0,0,0,0,0,0,0,0,0,0],"sum_hessian":[7.3E1,5E0,6.8E1,5.8E1,1E1,2.1E1,3.7E1,5E0,5E0,1.5E1,6E0,2.7E1,1E1,9E0,6E0,5E0,2.2E1,5E0,5E0,5E0,1.7E1,5E0,1.2E1],"tree_param":{"num_deleted":"0","num_feature":"6670","num_nodes":"23","size_leaf_vector":"0"}},{"base_weights":[-3.0789714E-2,-1.5903115E-2,-1.458246E-2,2.347279E-4,-9.273079E-2,-6.5020114E-2,2.0089794E-2,-9.0640625E-3,-3.6864216E-3,-2.546738E-3,-5.887855E-3,3.5238884E-2,-5.2009816E-3,5.538147E-2,-1.0855829E-2,3.0982794E-2,9.02719E-2,-3.176206E-3,1.6641442E-3,4.0598089E-4,3.0300685E-3,8.559252E-3,3.8531346E-3],"categories":[],"categories_nodes":[],"categories_segments":[],"categories_sizes":[],"default_left":[0,0,0,0,0,0,0,0,0,0,0,0,0,0,0,0,0,0,0,0,0,0,0],"id":41,"left_children":[1,-1,3,5,7,9,11,-1,-1,-1,-1,13,-1,15,17,19,21,-1,-1,-1,-1,-1,-1],"loss_changes":[2.1428987E-1,0E0,7.991952E-2,7.774895E-2,7.5410604E-3,3.1985864E-3,6.476805E-2,0E0,0E0,0E0,0E0,3.7739884E-2,0E0,2.1038972E-2,1.44686075E-2,4.116038E-3,4.342094E-3,0E0,0E0,0E0,0E0,0E0,0E0],"parents":[2147483647,0,0,2,2,3,3,4,4,5,5,6,6,11,11,13,13,14,14,15,15,16,16],"right_children":[2,-1,4,6,8,10,12,-1,-1,-1,-1,14,-1,16,18,20,22,-1,-1,-1,-1,-1,-1],"split_conditions":[1.483E-1,-1.5903115E-2,7.3763E-1,4.0331E-1,1.969E-1,3.9153E-1,5.3287E-1,-9.0640625E-3,-3.6864216E-3,-2.546738E-3,-5.887855E-3,5.381E-1,-5.2009816E-3,4.8415E-1,3.2821E-1,3.3844E-1,2.9777E-1,-3.176206E-3,1.6641442E-3,4.0598089E-4,3.0300685E-3,8.559252E-3,3.8531346E-3],"split_indices":[6382,0,4343,1626,653,295,3034,0,0,0,0,2586,0,982,2235,3935,147,0,0,0,0,0,0],"split_type":[0,0,0,0,0,0,0,0,0,0,0,0,0,0,0,0,0,0,0,0,0,0,0],"sum_hessian":[7.3E1,5E0,6.8E1,5.8E1,1E1,1.3E1,4.5E1,5E0,5E0,5E0,8E0,3.9E1,6E0,2.7E1,1.2E1,1.7E1,1E1,6E0,6E0,5E0,1.2E1,5E0,5E0],"tree_param":{"num_deleted":"0","num_feature":"6670","num_nodes":"23","size_leaf_vector":"0"}},{"base_weights":[-2.885822E-2,-1.4997841E-2,-1.3560597E-2,6.521038E-2,-2.801687E-2,1.841213E-3,7.1252147E-3,5.7110135E-3,-6.556242E-2,-4.2177204E-2,4.5300584E-2,6.16755E-4,-8.196036E-2,3.5356404E-4,-4.957074E-3,5.420902E-3,1.2367675E-3,-9.534324E-3,-5.8542233E-2,-2.5804325E-3,-4.9298964E-3],"categories":[],"categories_nodes":[],"categories_segments":[],"categories_sizes":[],"default_left":[0,0,0,0,0,0,0,0,0,0,0,0,0,0,0,0,0,0,0,0,0],"id":42,"left_children":[1,-1,3,5,7,-1,-1,9,11,13,15,-1,17,-1,-1,-1,-1,-1,19,-1,-1],"loss_changes":[1.909923E-1,0E0,8.039969E-2,1.0993E-2,7.508801E-2,0E0,0E0,6.257862E-2,3.455217E-2,1.7134186E-2,1.2798585E-2,0E0,1.6883925E-2,0E0,0E0,0E0,0E0,0E0,6.885305E-4,0E0,0E0],"parents":[2147483647,0,0,2,2,3,3,4,4,7,7,8,8,9,9,10,10,12,12,18,18],"right_children":[2,-1,4,6,8,-1,-1,10,12,14,16,-1,18,-1,-1,-1,-1,-1,20,-1,-1],"split_conditions":[4.1807E-1,-1.4997841E-2,2.575E-2,5.1997E-1,3.1032E-1,1.841213E-3,7.1252147E-3,2.8026E-1,-1.2046E-1,-1.845E-2,3.0249E-1,6.16755E-4,3.2846E-1,3.5356404E-4,-4.957074E-3,5.420902E-3,1.2367675E-3,-9.534324E-3,2.327E-1,-2.5804325E-3,-4.9298964E-3],"split_indices":[6613,0,5860,61,4130,0,0,5263,2713,6311,70,0,4145,0,0,0,0,0,5007,0,0],"split_type":[0,0,0,0,0,0,0,0,0,0,0,0,0,0,0,0,0,0,0,0,0],"sum_hessian":[7.3E1,5E0,6.8E1,1E1,5.8E1,5E0,5E0,3.1E1,2.7E1,1.4E1,1.7E1,5E0,2.2E1,5E0,9E0,8E0,9E0,6E0,1.6E1,5E0,1.1E1],"tree_param":{"num_deleted":"0","num_feature":"6670","num_nodes":"21","size_leaf_vector":"0"}},{"base_weights":[-2.6969602E-2,-1.4393596E-2,-1.2235695E-2,1.2619527E-2,-5.936505E-2,-2.7290624E-2,5.034094E-2,-1.650453E-4,-8.27739E-2,1.4461617E-3,-5.8607563E-2,9.168175E-2,1.4263096E-2,-8.01218E-3,-3.714123E-3,-1.9071628E-3,-5.5661076E-3,8.5331835E-3,4.0730573E-3,-1.241541E-3,2.4917219E-3],"categories":[],"categories_nodes":[],"categories_segments":[],"categories_sizes":[],"default_left":[0,0,0,0,0,0,0,0,0,0,0,0,0,0,0,0,0,0,0,0,0],"id":43,"left_children":[1,-1,3,5,7,9,11,-1,13,-1,15,17,19,-1,-1,-1,-1,-1,-1,-1,-1],"loss_changes":[1.7749284E-1,0E0,8.157648E-2,7.062533E-2,3.1933546E-2,3.467597E-2,3.4488026E-2,0E0,8.307762E-3,0E0,5.362384E-3,2.9043779E-3,8.729967E-3,0E0,0E0,0E0,0E0,0E0,0E0,0E0,0E0],"parents":[2147483647,0,0,2,2,3,3,4,4,5,5,6,6,8,8,10,10,11,11,12,12],"right_children":[2,-1,4,6,8,10,12,-1,14,-1,16,18,20,-1,-1,-1,-1,-1,-1,-1,-1],"split_conditions":[6.692E-2,-1.4393596E-2,4.618E-1,2.3906E-1,-3.472E-2,2.3224E-1,7.1847E-1,-1.650453E-4,6.3812E-1,1.4461617E-3,2.6801E-1,7.1736E-1,3.1474E-1,-8.01218E-3,-3.714123E-3,-1.9071628E-3,-5.5661076E-3,8.5331835E-3,4.0730573E-3,-1.241541E-3,2.4917219E-3],"split_indices":[4767,0,2680,2194,6291,1802,4912,0,2490,0,22,249,316,0,0,0,0,0,0,0,0],"split_type":[0,0,0,0,0,0,0,0,0,0,0,0,0,0,0,0,0,0,0,0,0],"sum_hessian":[7.3E1,5E0,6.8E1,4.5E1,2.3E1,2.2E1,2.3E1,7E0,1.6E1,9E0,1.3E1,1E1,1.3E1,8E0,8E0,5E0,8E0,5E0,5E0,5E0,8E0],"tree_param":{"num_deleted":"0","num_feature":"6670","num_nodes":"21","size_leaf_vector":"0"}},{"base_weights":[-2.519628E-2,-1.3906457E-2,-1.089867E-2,1.4169705E-3,-7.59645E-2,-2.6870381E-2,2.965709E-2,-7.519606E-3,-2.925513E-3,-4.5278076E-2,2.2057907E-3,4.491535E-2,-2.914637E-3,-5.871966E-2,1.9447684E-4,1.9452123E-2,7.08795E-2,-4.8625176E-3,-2.6764693E-3,2.3224624E-3,-7.957188E-5,2.557899E-3,6.9205933E-3],"categories":[],"categories_nodes":[],"categories_segments":[],"categories_sizes":[],"default_left":[0,0,0,0,0,0,0,0,0,0,0,0,0,0,0,0,0,0,0,0,0,0,0],"id":44,"left_children":[1,-1,3,5,7,9,11,-1,-1,13,-1,15,-1,17,-1,19,21,-1,-1,-1,-1,-1,-1],"loss_changes":[1.6749899E-1,0E0,5.5399224E-2,4.7928352E-2,5.966656E-3,3.2411717E-2,3.3109866E-2,0E0,0E0,1.4951918E-2,0E0,1.5149519E-2,0E0,2.2116676E-4,0E0,3.3394923E-3,6.2943846E-3,0E0,0E0,0E0,0E0,0E0,0E0],"parents":[2147483647,0,0,2,2,3,3,4,4,5,5,6,6,9,9,11,11,13,13,15,15,16,16],"right_children":[2,-1,4,6,8,10,12,-1,-1,14,-1,16,-1,18,-1,20,22,-1,-1,-1,-1,-1,-1],"split_conditions":[4.0307E-1,-1.3906457E-2,7.3763E-1,5.1781E-1,1.969E-1,3.2181E-1,1.6458E-1,-7.519606E-3,-2.925513E-3,3.9566E-1,2.2057907E-3,3.545E-2,-2.914637E-3,2.5907E-1,1.9447684E-4,4.1826E-1,3.1156E-1,-4.8625176E-3,-2.6764693E-3,2.3224624E-3,-7.957188E-5,2.557899E-3,6.9205933E-3],"split_indices":[5186,0,4343,5481,653,529,2801,0,0,5360,0,6291,0,3500,0,2778,126,0,0,0,0,0,0],"split_type":[0,0,0,0,0,0,0,0,0,0,0,0,0,0,0,0,0,0,0,0,0,0,0],"sum_hessian":[7.3E1,5E0,6.8E1,5.8E1,1E1,2.9E1,2.9E1,5E0,5E0,2.2E1,7E0,2.4E1,5E0,1.7E1,5E0,1.3E1,1.1E1,1.2E1,5E0,8E0,5E0,5E0,6E0],"tree_param":{"num_deleted":"0","num_feature":"6670","num_nodes":"23","size_leaf_vector":"0"}},{"base_weights":[-2.3586059E-2,-1.3329588E-2,-9.840599E-3,1.3031661E-2,-5.0617043E-2,-3.499998E-2,3.5852402E-2,3.1826991E-4,-6.81648E-2,-4.497973E-3,9.341243E-4,-2.0232627E-3,5.201049E-2,-6.7473347E-3,-2.5460185E-3,6.650342E-3,3.2827362E-2,8.7844586E-4,3.003559E-3],"categories":[],"categories_nodes":[],"categories_segments":[],"categories_sizes":[],"default_left":[0,0,0,0,0,0,0,0,0,0,0,0,0,0,0,0,0,0,0],"id":45,"left_children":[1,-1,3,5,7,9,11,-1,13,-1,-1,-1,15,-1,-1,-1,17,-1,-1],"loss_changes":[1.5503852E-1,0E0,6.501244E-2,5.0580133E-2,2.4356298E-2,1.8523345E-2,3.287429E-2,0E0,1.1118807E-2,0E0,0E0,0E0,1.4670849E-2,0E0,0E0,0E0,2.275046E-3,0E0,0E0],"parents":[2147483647,0,0,2,2,3,3,4,4,5,5,6,6,8,8,12,12,16,16],"right_children":[2,-1,4,6,8,10,12,-1,14,-1,-1,-1,16,-1,-1,-1,18,-1,-1],"split_conditions":[3.503E-1,-1.3329588E-2,4.618E-1,3.2929E-1,-4.32E-2,3.2264E-1,-1.5226E-1,3.1826991E-4,6.9326E-1,-4.497973E-3,9.341243E-4,-2.0232627E-3,7.5338E-1,-6.7473347E-3,-2.5460185E-3,6.650342E-3,2.0395E-1,8.7844586E-4,3.003559E-3],"split_indices":[4837,0,2680,311,6291,331,1313,0,1732,0,0,0,4115,0,0,0,2572,0,0],"split_type":[0,0,0,0,0,0,0,0,0,0,0,0,0,0,0,0,0,0,0],"sum_hessian":[7.3E1,5E0,6.8E1,4.4E1,2.4E1,1.4E1,3E1,6E0,1.8E1,9E0,5E0,6E0,2.4E1,1E1,8E0,7E0,1.7E1,5E0,1.2E1],"tree_param":{"num_deleted":"0","num_feature":"6670","num_nodes":"19","size_leaf_vector":"0"}},{"base_weights":[-2.205169E-2,-1.2835546E-2,-8.767846E-3,2.229026E-3,-6.695399E-2,-4.649633E-2,1.7010026E-2,-6.6395914E-3,-2.5665828E-3,-4.217029E-3,-1.8113148E-3,2.817792E-2,-3.6927399E-3,4.3332074E-2,-6.629325E-3,2.8451899E-2,5.7732025E-3,1.1231677E-3,-2.5748222E-3,7.747747E-4,2.625888E-3],"categories":[],"categories_nodes":[],"categories_segments":[],"categories_sizes":[],"default_left":[0,0,0,0,0,0,0,0,0,0,0,0,0,0,0,0,0,0,0,0,0],"id":46,"left_children":[1,-1,3,5,7,9,11,-1,-1,-1,-1,13,-1,15,17,19,-1,-1,-1,-1,-1],"loss_changes":[1.4505453E-1,0E0,4.4299968E-2,4.3283265E-2,4.738413E-3,1.6861912E-3,3.5419773E-2,0E0,0E0,0E0,0E0,2.1386236E-2,0E0,1.1827469E-2,8.294507E-3,2.1347199E-3,0E0,0E0,0E0,0E0,0E0],"parents":[2147483647,0,0,2,2,3,3,4,4,5,5,6,6,11,11,13,13,14,14,15,15],"right_children":[2,-1,4,6,8,10,12,-1,-1,-1,-1,14,-1,16,18,20,-1,-1,-1,-1,-1],"split_conditions":[1.483E-1,-1.2835546E-2,7.3763E-1,4.0331E-1,5.9391E-1,2.0418E-1,5.3287E-1,-6.6395914E-3,-2.5665828E-3,-4.217029E-3,-1.8113148E-3,5.381E-1,-3.6927399E-3,4.6789E-1,1.5973E-1,2.0395E-1,5.7732025E-3,1.1231677E-3,-2.5748222E-3,7.747747E-4,2.625888E-3],"split_indices":[6382,0,4343,1626,116,1272,3034,0,0,0,0,2586,0,6233,1188,2572,0,0,0,0,0],"split_type":[0,0,0,0,0,0,0,0,0,0,0,0,0,0,0,0,0,0,0,0,0],"sum_hessian":[7.3E1,5E0,6.8E1,5.8E1,1E1,1.3E1,4.5E1,5E0,5E0,8E0,5E0,3.9E1,6E0,2.7E1,1.2E1,2E1,7E0,7E0,5E0,6E0,1.4E1],"tree_param":{"num_deleted":"0","num_feature":"6670","num_nodes":"21","size_leaf_vector":"0"}},{"base_weights":[-2.0722691E-2,-1.224557E-2,-8.026574E-3,1.1448784E-2,-4.5019902E-2,-3.0309005E-2,3.4729905E-2,5.7499047E-4,-5.9288256E-2,-3.8699314E-3,1.2991991E-3,7.142982E-3,6.5747604E-2,-5.8676065E-3,-2.2157887E-3,-2.1232024E-3,1.8205432E-3,6.9832117E-3,2.519063E-3],"categories":[],"categories_nodes":[],"categories_segments":[],"categories_sizes":[],"default_left":[0,0,0,0,0,0,0,0,0,0,0,0,0,0,0,0,0,0,0],"id":47,"left_children":[1,-1,3,5,7,9,11,-1,13,-1,-1,15,17,-1,-1,-1,-1,-1,-1],"loss_changes":[1.3261847E-1,0E0,5.0227046E-2,4.577236E-2,1.849651E-2,1.8133223E-2,2.5200855E-2,0E0,8.396134E-3,0E0,0E0,1.1011814E-2,9.192135E-3,0E0,0E0,0E0,0E0,0E0,0E0],"parents":[2147483647,0,0,2,2,3,3,4,4,5,5,6,6,8,8,11,11,12,12],"right_children":[2,-1,4,6,8,10,12,-1,14,-1,-1,16,18,-1,-1,-1,-1,-1,-1],"split_conditions":[6.692E-2,-1.224557E-2,4.618E-1,3.2005E-1,-4.32E-2,3.2247E-1,3.5304E-1,5.7499047E-4,6.9326E-1,-3.8699314E-3,1.2991991E-3,2.5726E-1,7.3958E-1,-5.8676065E-3,-2.2157887E-3,-2.1232024E-3,1.8205432E-3,6.9832117E-3,2.519063E-3],"split_indices":[4767,0,2680,532,6291,1308,5393,0,1732,0,0,491,56,0,0,0,0,0,0],"split_type":[0,0,0,0,0,0,0,0,0,0,0,0,0,0,0,0,0,0,0],"sum_hessian":[7.3E1,5E0,6.8E1,4.5E1,2.3E1,1.6E1,2.9E1,5E0,1.8E1,1.1E1,5E0,1.6E1,1.3E1,1E1,8E0,5E0,1.1E1,6E0,7E0],"tree_param":{"num_deleted":"0","num_feature":"6670","num_nodes":"19","size_leaf_vector":"0"}},{"base_weights":[-1.9345853E-2,-1.1892534E-2,-6.9592814E-3,4.3714987E-3,-1.6471643E-2,6.0209557E-3,-4.3195814E-2,-2.3666685E-2,3.0704184E-2,1.1609048E-4,-5.8184084E-2,-3.1503625E-3,1.042327E-3,3.2956433E-4,4.2509243E-2,-6.7886505E-3,-2.9412918E-3,1.7745298E-3,3.8499166E-3],"categories":[],"categories_nodes":[],"categories_segments":[],"categories_sizes":[],"default_left":[0,0,0,0,0,0,0,0,0,0,0,0,0,0,0,0,0,0,0],"id":48,"left_children":[1,-1,3,-1,5,7,9,11,13,-1,15,-1,-1,-1,17,-1,-1,-1,-1],"loss_changes":[1.2650757E-1,0E0,4.378444E-2,0E0,3.692694E-2,2.5641419E-2,1.886772E-2,1.1605545E-2,5.714435E-3,0E0,9.327903E-3,0E0,0E0,0E0,9.473972E-4,0E0,0E0,0E0,0E0],"parents":[2147483647,0,0,2,2,4,4,5,5,6,6,7,7,8,8,10,10,14,14],"right_children":[2,-1,4,-1,6,8,10,12,14,-1,16,-1,-1,-1,18,-1,-1,-1,-1],"split_conditions":[4.1807E-1,-1.1892534E-2,-3.17E-3,4.3714987E-3,3.1032E-1,2.8026E-1,3.2784E-1,3.4082E-1,1.9766E-1,1.1609048E-4,3.6435E-1,-3.1503625E-3,1.042327E-3,3.2956433E-4,5.8697E-1,-6.7886505E-3,-2.9412918E-3,1.7745298E-3,3.8499166E-3],"split_indices":[6613,0,5860,0,4130,5263,6241,2235,2572,0,6200,0,0,0,791,0,0,0,0],"split_type":[0,0,0,0,0,0,0,0,0,0,0,0,0,0,0,0,0,0,0],"sum_hessian":[7.3E1,5E0,6.8E1,8E0,6E1,3.3E1,2.7E1,1.5E1,1.8E1,7E0,2E1,1E1,5E0,6E0,1.2E1,6E0,1.4E1,5E0,7E0],"tree_param":{"num_deleted":"0","num_feature":"6670","num_nodes":"19","size_leaf_vector":"0"}},{"base_weights":[-1.8074496E-2,-5.170156E-3,-1.0563666E-2,-5.9885036E-2,7.623837E-3,-6.851109E-3,-2.1601568E-3,2.6918368E-2,-1.9223804E-2,-1.3996226E-3,4.2250436E-2,2.539788E-3,-3.746011E-3,6.5002055E-3,2.6812224E-2,1.6405701E-3,-1.2834124E-3,1.0204188E-3,2.5862139E-3],"categories":[],"categories_nodes":[],"categories_segments":[],"categories_sizes":[],"default_left":[0,0,0,0,0,0,0,0,0,0,0,0,0,0,0,0,0,0,0],"id":49,"left_children":[1,3,-1,5,7,-1,-1,9,11,-1,13,15,-1,-1,17,-1,-1,-1,-1],"loss_changes":[1.1651164E-1,4.8058037E-2,0E0,1.0082532E-2,2.9526183E-2,0E0,0E0,2.3850039E-2,1.6174287E-2,0E0,1.4819939E-2,6.0737208E-3,0E0,0E0,1.556905E-3,0E0,0E0,0E0,0E0],"parents":[2147483647,0,0,1,1,3,3,4,4,7,7,8,8,10,10,11,11,14,14],"right_children":[2,4,-1,6,8,-1,-1,10,12,-1,14,16,-1,-1,18,-1,-1,-1,-1],"split_conditions":[7.675E-1,3.2508E-1,-1.0563666E-2,3.2793E-1,2.2112E-1,-6.851109E-3,-2.1601568E-3,4.728E-2,8.0603E-1,-1.3996226E-3,2.0548E-1,2.107E-1,-3.746011E-3,6.5002055E-3,2.0586E-1,1.6405701E-3,-1.2834124E-3,1.0204188E-3,2.5862139E-3],"split_indices":[2583,1604,0,1014,5828,0,0,5828,4882,0,2622,2824,0,0,3078,0,0,0,0],"split_type":[0,0,0,0,0,0,0,0,0,0,0,0,0,0,0,0,0,0,0],"sum_hessian":[7.3E1,6.7E1,6E0,1.2E1,5.5E1,5E0,7E0,3.2E1,2.3E1,8E0,2.4E1,1.4E1,9E0,5E0,1.9E1,7E0,7E0,8E0,1.1E1],"tree_param":{"num_deleted":"0","num_feature":"6670","num_nodes":"19","size_leaf_vector":"0"}},{"base_weights":[-1.6911572E-2,-1.1075992E-2,-5.295318E-3,4.230635E-2,-1.6058939E-2,9.924584E-4,5.551504E-3,-4.715412E-2,-1.6646329E-3,-5.615969E-3,-2.2703405E-2,3.0519884E-2,-1.8291248E-2,-6.407789E-4,-2.4809395E-3,1.3667786E-3,3.01595E-3,-2.9354366E-2,1.3133355E-3,-3.7204713E-2,-2.6457815E-4,-3.1114242E-3,-1.7366656E-3],"categories":[],"categories_nodes":[],"categories_segments":[],"categories_sizes":[],"default_left":[0,0,0,0,0,0,0,0,0,0,0,0,0,0,0,0,0,0,0,0,0,0,0],"id":50,"left_children":[1,-1,3,5,7,-1,-1,9,11,-1,13,15,17,-1,-1,-1,-1,19,-1,21,-1,-1,-1],"loss_changes":[1.1162679E-1,0E0,3.603266E-2,1.1006907E-2,2.5434334E-2,0E0,0E0,1.0502316E-2,2.1963028E-2,0E0,1.333477E-3,9.357529E-4,1.1208351E-2,0E0,0E0,0E0,0E0,4.126465E-3,0E0,1.6763806E-6,0E0,0E0,0E0],"parents":[2147483647,0,0,2,2,3,3,4,4,7,7,8,8,10,10,11,11,12,12,17,17,19,19],"right_children":[2,-1,4,6,8,-1,-1,10,12,-1,14,16,18,-1,-1,-1,-1,20,-1,22,-1,-1,-1],"split_conditions":[3.503E-1,-1.1075992E-2,9.001E-2,2.5723E-1,1.7579E-1,9.924584E-4,5.551504E-3,1.9035E-1,2.917E-2,-5.615969E-3,4.5295E-1,3.1214E-1,5.1585E-1,-6.407789E-4,-2.4809395E-3,1.3667786E-3,3.01595E-3,4.909E-1,1.3133355E-3,4.5097E-1,-2.6457815E-4,-3.1114242E-3,-1.7366656E-3],"split_indices":[4837,0,5861,2918,5590,0,0,2925,3612,0,15,288,3531,0,0,0,0,6001,0,1190,0,0,0],"split_type":[0,0,0,0,0,0,0,0,0,0,0,0,0,0,0,0,0,0,0,0,0,0,0],"sum_hessian":[7.3E1,5E0,6.8E1,1.2E1,5.6E1,7E0,5E0,1.7E1,3.9E1,7E0,1E1,1.3E1,2.6E1,5E0,5E0,7E0,6E0,2E1,6E0,1.5E1,5E0,1E1,5E0],"tree_param":{"num_deleted":"0","num_feature":"6670","num_nodes":"23","size_leaf_vector":"0"}},{"base_weights":[-1.581464E-2,-9.822712E-3,-3.7278952E-3,3.2614913E-2,-1.7463604E-2,6.461772E-3,4.571699E-3,1.0401996E-2,-3.3463065E-2,-5.18461E-4,1.4069546E-3,2.9677926E-2,-1.4859111E-3,-3.6220023E-5,-4.443632E-2,1.2348408E-3,3.0110413E-3,-5.7367582E-2,-2.3938688E-2,-2.5091763E-3,-5.0201006E-3,-2.1522734E-3,-1.1392961E-3],"categories":[],"categories_nodes":[],"categories_segments":[],"categories_sizes":[],"default_left":[0,0,0,0,0,0,0,0,0,0,0,0,0,0,0,0,0,0,0,0,0,0,0],"id":51,"left_children":[1,-1,3,5,7,9,-1,11,13,-1,-1,15,-1,-1,17,-1,-1,19,21,-1,-1,-1,-1],"loss_changes":[1.02508456E-1,0E0,3.451478E-2,1.3689069E-2,2.2639815E-2,1.9389116E-3,0E0,1.16536915E-2,1.1559315E-2,0E0,0E0,9.990102E-4,0E0,0E0,4.9881414E-3,0E0,0E0,9.634048E-4,2.196012E-5,0E0,0E0,0E0,0E0],"parents":[2147483647,0,0,2,2,3,3,4,4,5,5,7,7,8,8,11,11,14,14,17,17,18,18],"right_children":[2,-1,4,6,8,10,-1,12,14,-1,-1,16,-1,-1,18,-1,-1,20,22,-1,-1,-1,-1],"split_conditions":[1.9175E-1,-9.822712E-3,3.4516E-1,4.1091E-1,5.0747E-1,1.791E-1,4.571699E-3,4.3264E-1,-1.3445E-1,-5.18461E-4,1.4069546E-3,3.8039E-1,-1.4859111E-3,-3.6220023E-5,3.7563E-1,1.2348408E-3,3.0110413E-3,3.6341E-1,2.5312E-1,-2.5091763E-3,-5.0201006E-3,-2.1522734E-3,-1.1392961E-3],"split_indices":[6505,0,3357,5042,4137,33,0,2774,3007,0,0,288,0,0,1814,0,0,502,266,0,0,0,0],"split_type":[0,0,0,0,0,0,0,0,0,0,0,0,0,0,0,0,0,0,0,0,0,0,0],"sum_hessian":[7.3E1,6E0,6.7E1,1.8E1,4.9E1,1E1,8E0,1.8E1,3.1E1,5E0,5E0,1.1E1,7E0,8E0,2.3E1,6E0,5E0,1.3E1,1E1,5E0,8E0,5E0,5E0],"tree_param":{"num_deleted":"0","num_feature":"6670","num_nodes":"23","size_leaf_vector":"0"}},{"base_weights":[-1.4796909E-2,-1.0228682E-2,-4.009807E-3,4.3480534E-2,-1.2795975E-2,4.9586133E-3,1.0199599E-3,4.7554723E-3,-3.2397773E-2,-1.8685035E-2,2.4025036E-2,1.6926919E-4,-4.405681E-2,5.189586E-4,-2.4134417E-3,9.0730195E-5,3.2707095E-2,-5.0857826E-3,-3.0034667E-2,1.5010351E-3,3.0545963E-3,-2.5657688E-3,-1.3552189E-3],"categories":[],"categories_nodes":[],"categories_segments":[],"categories_sizes":[],"default_left":[0,0,0,0,0,0,0,0,0,0,0,0,0,0,0,0,0,0,0,0,0,0,0],"id":52,"left_children":[1,-1,3,5,7,-1,-1,9,11,13,15,-1,17,-1,-1,-1,19,-1,21,-1,-1,-1,-1],"loss_changes":[9.6508235E-2,0E0,2.9347187E-2,6.5405853E-3,2.0452423E-2,0E0,0E0,1.4902937E-2,1.14125665E-2,5.405338E-3,3.5259407E-3,0E0,4.957944E-3,0E0,0E0,0E0,5.0842203E-4,0E0,1.3125222E-4,0E0,0E0,0E0,0E0],"parents":[2147483647,0,0,2,2,3,3,4,4,7,7,8,8,9,9,10,10,12,12,16,16,18,18],"right_children":[2,-1,4,6,8,-1,-1,10,12,14,16,-1,18,-1,-1,-1,20,-1,22,-1,-1,-1,-1],"split_conditions":[4.1807E-1,-1.0228682E-2,2.575E-2,3.118E-1,3.1032E-1,4.9586133E-3,1.0199599E-3,2.8026E-1,3.2784E-1,8.488E-2,-5.472E-2,1.6926919E-4,3.6435E-1,5.189586E-4,-2.4134417E-3,9.0730195E-5,6.0864E-1,-5.0857826E-3,5.8084E-1,1.5010351E-3,3.0545963E-3,-2.5657688E-3,-1.3552189E-3],"split_indices":[6613,0,5860,139,4130,0,0,5263,6241,3968,1909,0,6200,0,0,0,347,0,3147,0,0,0,0],"split_type":[0,0,0,0,0,0,0,0,0,0,0,0,0,0,0,0,0,0,0,0,0,0,0],"sum_hessian":[7.3E1,5E0,6.8E1,1E1,5.8E1,5E0,5E0,3.1E1,2.7E1,1.4E1,1.7E1,7E0,2E1,5E0,9E0,5E0,1.2E1,6E0,1.4E1,6E0,6E0,9E0,5E0],"tree_param":{"num_deleted":"0","num_feature":"6670","num_nodes":"23","size_leaf_vector":"0"}},{"base_weights":[-1.3826815E-2,-9.907043E-3,-3.3423326E-3,3.4740455E-3,-1.0614859E-2,5.060598E-3,-3.0541753E-2,-2.3837788E-2,1.7573465E-2,-4.554376E-2,-4.5803096E-3,-8.486055E-4,-2.4290904E-3,-8.0789736E-4,2.5198419E-2,-2.2114052E-3,-4.8204055E-3,1.099671E-3,-1.7294637E-3,1.2154744E-3,2.7495576E-3],"categories":[],"categories_nodes":[],"categories_segments":[],"categories_sizes":[],"default_left":[0,0,0,0,0,0,0,0,0,0,0,0,0,0,0,0,0,0,0,0,0],"id":53,"left_children":[1,-1,3,-1,5,7,9,11,13,15,17,-1,-1,-1,19,-1,-1,-1,-1,-1,-1],"loss_changes":[9.131622E-2,0E0,2.5412768E-2,0E0,1.9208714E-2,1.3074971E-2,1.0307187E-2,8.11344E-4,5.6747515E-3,3.2175928E-3,4.2495704E-3,0E0,0E0,0E0,1.4672736E-3,0E0,0E0,0E0,0E0,0E0,0E0],"parents":[2147483647,0,0,2,2,4,4,5,5,6,6,7,7,8,8,9,9,10,10,14,14],"right_children":[2,-1,4,-1,6,8,10,12,14,16,18,-1,-1,-1,20,-1,-1,-1,-1,-1,-1],"split_conditions":[6.692E-2,-9.907043E-3,-3.17E-3,3.4740455E-3,3.1032E-1,8.7464E-1,5.9858E-1,2.9711E-1,4.754E-1,4.2221E-1,6.5774E-1,-8.486055E-4,-2.4290904E-3,-8.0789736E-4,6.0653E-1,-2.2114052E-3,-4.8204055E-3,1.099671E-3,-1.7294637E-3,1.2154744E-3,2.7495576E-3],"split_indices":[4767,0,5860,0,4130,2299,761,191,4701,5162,234,0,0,0,791,0,0,0,0,0,0],"split_type":[0,0,0,0,0,0,0,0,0,0,0,0,0,0,0,0,0,0,0,0,0],"sum_hessian":[7.3E1,5E0,6.8E1,8E0,6E1,3.4E1,2.6E1,1E1,2.4E1,1.6E1,1E1,5E0,5E0,5E0,1.9E1,1E1,6E0,5E0,5E0,1.2E1,7E0],"tree_param":{"num_deleted":"0","num_feature":"6670","num_nodes":"21","size_leaf_vector":"0"}},{"base_weights":[-1.2981906E-2,-9.652572E-3,-2.7312355E-3,-8.5592745E-3,4.4917297E-3,3.4294082E-3,-2.7398797E-2,-1.9447298E-3,1.2789472E-2,6.911761E-5,-4.078024E-2,1.9925933E-2,-1.0893716E-3,-4.3409374E-3,-1.9643856E-3,1.0238858E-2,2.34931E-3,1.0721807E-3,1.3281815E-4],"categories":[],"categories_nodes":[],"categories_segments":[],"categories_sizes":[],"default_left":[0,0,0,0,0,0,0,0,0,0,0,0,0,0,0,0,0,0,0],"id":54,"left_children":[1,-1,3,5,-1,7,9,-1,11,-1,13,15,-1,-1,-1,17,-1,-1,-1],"loss_changes":[8.742713E-2,0E0,2.5694674E-2,1.4549069E-2,0E0,1.1323765E-2,9.511765E-3,0E0,6.3322005E-3,0E0,2.7246308E-3,2.4396572E-3,0E0,0E0,0E0,4.899858E-4,0E0,0E0,0E0],"parents":[2147483647,0,0,2,2,3,3,5,5,6,6,8,8,10,10,11,11,15,15],"right_children":[2,-1,4,6,-1,8,10,-1,12,-1,14,16,-1,-1,-1,18,-1,-1,-1],"split_conditions":[3.503E-1,-9.652572E-3,6.0147E-1,3.2416E-1,4.4917297E-3,3.18E-2,6.172E-2,-1.9447298E-3,6.3237E-1,6.911761E-5,1.0997E-1,2.3215E-1,-1.0893716E-3,-4.3409374E-3,-1.9643856E-3,3.5554E-1,2.34931E-3,1.0721807E-3,1.3281815E-4],"split_indices":[4837,0,4230,4059,0,4544,6108,0,252,0,94,6014,0,0,0,104,0,0,0],"split_type":[0,0,0,0,0,0,0,0,0,0,0,0,0,0,0,0,0,0,0],"sum_hessian":[7.3E1,5E0,6.8E1,6.3E1,5E0,3.9E1,2.4E1,9E0,3E1,8E0,1.6E1,2.4E1,6E0,6E0,1E1,1.4E1,1E1,9E0,5E0],"tree_param":{"num_deleted":"0","num_feature":"6670","num_nodes":"19","size_leaf_vector":"0"}},{"base_weights":[-1.2155242E-2,-9.27992E-3,-2.2767303E-3,-4.5002498E-2,6.602338E-3,-1.4608223E-3,-5.0460827E-3,2.2525007E-2,-1.3861138E-2,4.3611918E-2,6.6379197E-3,1.0991157E-3,-2.7349083E-2,5.0777756E-3,1.7028733E-3,-1.2660344E-3,1.5602742E-2,-1.5360666E-3,-2.8253992E-3,7.047898E-4,1.402173E-3],"categories":[],"categories_nodes":[],"categories_segments":[],"categories_sizes":[],"default_left":[0,0,0,0,0,0,0,0,0,0,0,0,0,0,0,0,0,0,0,0,0],"id":55,"left_children":[1,-1,3,5,7,-1,-1,9,11,13,15,-1,17,-1,-1,-1,19,-1,-1,-1,-1],"loss_changes":[8.128219E-2,0E0,2.6473308E-2,5.513422E-3,1.9210545E-2,0E0,0E0,1.07658245E-2,1.0400979E-2,5.5143777E-3,4.4801435E-3,0E0,5.04639E-4,0E0,0E0,0E0,1.1221017E-4,0E0,0E0,0E0,0E0],"parents":[2147483647,0,0,2,2,3,3,4,4,7,7,8,8,9,9,10,10,12,12,16,16],"right_children":[2,-1,4,6,8,-1,-1,10,12,14,16,-1,18,-1,-1,-1,20,-1,-1,-1,-1],"split_conditions":[4.316E-2,-9.27992E-3,3.3571E-1,4.6944E-1,2.9747E-1,-1.4608223E-3,-5.0460827E-3,2.7977E-1,3.8173E-1,7.6833E-1,5.956E-1,1.0991157E-3,5.9722E-1,5.0777756E-3,1.7028733E-3,-1.2660344E-3,7.0189E-1,-1.5360666E-3,-2.8253992E-3,7.047898E-4,1.402173E-3],"split_indices":[3580,0,1604,1213,2621,0,0,2683,5931,1211,5768,0,1487,0,0,0,787,0,0,0,0],"split_type":[0,0,0,0,0,0,0,0,0,0,0,0,0,0,0,0,0,0,0,0,0],"sum_hessian":[7.3E1,5E0,6.8E1,1.1E1,5.7E1,6E0,5E0,3.2E1,2.5E1,1.3E1,1.9E1,8E0,1.7E1,5E0,8E0,5E0,1.4E1,1.2E1,5E0,6E0,8E0],"tree_param":{"num_deleted":"0","num_feature":"6670","num_nodes":"21","size_leaf_vector":"0"}},{"base_weights":[-1.1398017E-2,-7.7188457E-3,-3.0014588E-4,2.5184292E-2,-1.0912409E-2,9.362227E-3,3.9923005E-3,-1.4367878E-3,-3.6313176E-2,-1.9710885E-4,1.2236657E-3,-1.896928E-2,1.7149555E-2,-3.7008277E-3,-1.3570789E-3,-1.9209468E-3,-2.29951E-5,3.7264783E-4,2.4449352E-2,1.1002448E-3,2.2615413E-3],"categories":[],"categories_nodes":[],"categories_segments":[],"categories_sizes":[],"default_left":[0,0,0,0,0,0,0,0,0,0,0,0,0,0,0,0,0,0,0,0,0],"id":56,"left_children":[1,-1,3,5,7,9,-1,11,13,-1,-1,15,17,-1,-1,-1,-1,-1,19,-1,-1],"loss_changes":[7.5129166E-2,0E0,1.8394811E-2,8.376675E-3,1.1500852E-2,1.2100962E-3,0E0,1.2056452E-2,2.1935068E-3,0E0,0E0,2.3478162E-3,1.4790478E-3,0E0,0E0,0E0,0E0,0E0,1.7130142E-4,0E0,0E0],"parents":[2147483647,0,0,2,2,3,3,4,4,5,5,7,7,8,8,11,11,12,12,18,18],"right_children":[2,-1,4,6,8,10,-1,12,14,-1,-1,16,18,-1,-1,-1,-1,-1,20,-1,-1],"split_conditions":[1.8004E-1,-7.7188457E-3,3.4516E-1,2.9968E-1,3.6593E-1,9.26E-2,3.9923005E-3,1.555E-1,4.6043E-1,-1.9710885E-4,1.2236657E-3,2.114E-1,3.0114E-1,-3.7008277E-3,-1.3570789E-3,-1.9209468E-3,-2.29951E-5,3.7264783E-4,5.3923E-1,1.1002448E-3,2.2615413E-3],"split_indices":[6507,0,3357,3351,3171,478,0,3175,670,0,0,2108,1887,0,0,0,0,0,102,0,0],"split_type":[0,0,0,0,0,0,0,0,0,0,0,0,0,0,0,0,0,0,0,0,0],"sum_hessian":[7.3E1,7E0,6.6E1,1.9E1,4.7E1,1.3E1,6E0,3.5E1,1.2E1,5E0,8E0,1.8E1,1.7E1,6E0,6E0,1.3E1,5E0,7E0,1E1,5E0,5E0],"tree_param":{"num_deleted":"0","num_feature":"6670","num_nodes":"21","size_leaf_vector":"0"}},{"base_weights":[-1.0623811E-2,-8.732229E-3,-1.2693293E-3,-6.144451E-3,3.8207644E-3,-5.7318807E-4,-2.7128963E-3,-1.4214252E-2,1.3088346E-2,-2.461507E-2,5.226545E-4,1.9112336E-2,-9.1387524E-4,-7.5572246E-4,-2.908775E-2,1.076329E-3,2.2658096E-3,-2.7210058E-3,-1.5795672E-3],"categories":[],"categories_nodes":[],"categories_segments":[],"categories_sizes":[],"default_left":[0,0,0,0,0,0,0,0,0,0,0,0,0,0,0,0,0,0,0],"id":57,"left_children":[1,-1,3,5,-1,7,-1,9,11,13,-1,15,-1,-1,17,-1,-1,-1,-1],"loss_changes":[7.3094405E-2,0E0,1.7876558E-2,1.0685897E-2,0E0,1.0435725E-2,0E0,6.340503E-3,4.495782E-3,9.42423E-4,0E0,7.818304E-4,0E0,0E0,4.4153072E-5,0E0,0E0,0E0,0E0],"parents":[2147483647,0,0,2,2,3,3,5,5,7,7,8,8,9,9,11,11,14,14],"right_children":[2,-1,4,6,-1,8,-1,10,12,14,-1,16,-1,-1,18,-1,-1,-1,-1],"split_conditions":[3.503E-1,-8.732229E-3,6.0147E-1,4.8927E-1,3.8207644E-3,4.1041E-1,-2.7128963E-3,3.8093E-1,6.5087E-1,1.8936E-1,5.226545E-4,5.6271E-1,-9.1387524E-4,-7.5572246E-4,1.1737E-1,1.076329E-3,2.2658096E-3,-2.7210058E-3,-1.5795672E-3],"split_indices":[4837,0,4230,3123,0,352,0,2216,1260,4929,0,502,0,0,94,0,0,0,0],"split_type":[0,0,0,0,0,0,0,0,0,0,0,0,0,0,0,0,0,0,0],"sum_hessian":[7.3E1,5E0,6.8E1,6.3E1,5E0,5.4E1,9E0,2.7E1,2.7E1,1.8E1,9E0,2.2E1,5E0,5E0,1.3E1,1.7E1,5E0,5E0,8E0],"tree_param":{"num_deleted":"0","num_feature":"6670","num_nodes":"19","size_leaf_vector":"0"}},{"base_weights":[-9.958517E-3,-8.478293E-3,-8.5024413E-4,2.9037576E-3,-6.6740615E-3,5.011117E-3,-2.0624846E-2,-1.6859329E-3,1.1704704E-2,3.6042603E-4,-2.9330531E-2,-8.3378446E-4,1.7149324E-2,-3.754522E-3,-1.9723713E-2,1.2029482E-2,2.2237971E-3,-1.7422222E-3,-8.923192E-4,5.032182E-4,1.016961E-3],"categories":[],"categories_nodes":[],"categories_segments":[],"categories_sizes":[],"default_left":[0,0,0,0,0,0,0,0,0,0,0,0,0,0,0,0,0,0,0,0,0],"id":58,"left_children":[1,-1,3,-1,5,7,9,-1,11,-1,13,-1,15,-1,17,19,-1,-1,-1,-1,-1],"loss_changes":[6.9384694E-2,0E0,1.615814E-2,0E0,1.0047416E-2,6.5193893E-3,6.339876E-3,0E0,3.6698247E-3,0E0,3.194712E-3,0E0,1.1154264E-3,0E0,1.6262755E-4,5.5531505E-5,0E0,0E0,0E0,0E0,0E0],"parents":[2147483647,0,0,2,2,4,4,5,5,6,6,8,8,10,10,12,12,14,14,15,15],"right_children":[2,-1,4,-1,6,8,10,-1,12,-1,14,-1,16,-1,18,20,-1,-1,-1,-1,-1],"split_conditions":[4.1807E-1,-8.478293E-3,-3.17E-3,2.9037576E-3,3.1032E-1,3.8055E-1,3.2784E-1,-1.6859329E-3,1.6078E-1,3.6042603E-4,1.5246E-1,-8.3378446E-4,5.0407E-1,-3.754522E-3,6.8536E-1,1.4423E-1,2.2237971E-3,-1.7422222E-3,-8.923192E-4,5.032182E-4,1.016961E-3],"split_indices":[6613,0,5860,0,4130,4693,6241,0,2470,0,4021,0,1000,0,50,1821,0,0,0,0,0],"split_type":[0,0,0,0,0,0,0,0,0,0,0,0,0,0,0,0,0,0,0,0,0],"sum_hessian":[7.3E1,5E0,6.8E1,8E0,6E1,3.3E1,2.7E1,6E0,2.7E1,7E0,2E1,5E0,2.2E1,5E0,1.5E1,1.7E1,5E0,9E0,6E0,5E0,1.2E1],"tree_param":{"num_deleted":"0","num_feature":"6670","num_nodes":"21","size_leaf_vector":"0"}}]},"name":"gbtree"},"learner_model_param":{"base_score":"5E-1","boost_from_average":"1","num_class":"0","num_feature":"6670","num_target":"1"},"objective":{"name":"reg:squarederror","reg_loss_param":{"scale_pos_weight":"1"}}},"version":[1,7,3]}