{"learner":{"attributes":{"best_iteration":"9","best_ntree_limit":"10","best_score":"1.1617908041711613"},"feature_names":[],"feature_types":[],"gradient_booster":{"model":{"gbtree_model_param":{"num_parallel_tree":"1","num_trees":"60","size_leaf_vector":"0"},"tree_info":[0,0,0,0,0,0,0,0,0,0,0,0,0,0,0,0,0,0,0,0,0,0,0,0,0,0,0,0,0,0,0,0,0,0,0,0,0,0,0,0,0,0,0,0,0,0,0,0,0,0,0,0,0,0,0,0,0,0,0,0],"trees":[{"base_weights":[-4.931507E-1,-1.0479397E0,-1.2466117E-1,-3.2942567E-2,-9.1624014E-2,-8.3295584E-1,1.01507485E-1,-3.5470113E-2,-7.906132E-2,3.7758818E-1,-4.5911288E-1,4.9650628E-2,3.8000677E-2,-6.79644E-3,-5.320328E-2,-6.0039884E-3,1.2704754E-2],"categories":[],"categories_nodes":[],"categories_segments":[],"categories_sizes":[],"default_left":[0,0,0,0,0,0,0,0,0,0,0,0,0,0,0,0,0],"id":0,"left_children":[1,3,5,-1,-1,7,9,-1,-1,11,13,-1,15,-1,-1,-1,-1],"loss_changes":[1.4793041E1,2.5298824E0,7.293284E0,0E0,0E0,3.7743855E-1,5.590532E0,0E0,0E0,2.2928963E0,1.042366E0,0E0,1.9970244E-1,0E0,0E0,0E0,0E0],"parents":[2147483647,0,0,1,1,2,2,5,5,6,6,9,9,10,10,12,12],"right_children":[2,4,6,-1,-1,8,10,-1,-1,12,14,-1,16,-1,-1,-1,-1],"split_conditions":[3.5137E-1,1.7957E-1,3.7168E-1,-3.2942567E-2,-9.1624014E-2,3.0661E-1,5.9612E-1,-3.5470113E-2,-7.906132E-2,4.9235E-1,5.0995E-1,4.9650628E-2,4.732E-1,-6.79644E-3,-5.320328E-2,-6.0039884E-3,1.2704754E-2],"split_indices":[1,1,0,0,0,0,0,0,0,1,1,0,0,0,0,0,0],"split_type":[0,0,0,0,0,0,0,0,0,0,0,0,0,0,0,0,0],"sum_hessian":[7.2E1,2.8E1,4.4E1,7E0,2.1E1,1E1,3.4E1,5E0,5E0,2.3E1,1.1E1,1.2E1,1.1E1,5E0,6E0,6E0,5E0],"tree_param":{"num_deleted":"0","num_feature":"2","num_nodes":"17","size_leaf_vector":"0"}},{"base_weights":[-4.5948967E-1,-9.7363955E-1,-1.1793779E-1,-3.078071E-2,-8.506456E-2,-7.8089607E-1,9.379019E-2,-3.325323E-2,-7.4119985E-2,3.5161704E-1,-4.2967936E-1,4.6213273E-2,3.5709027E-2,-6.371662E-3,-4.9783066E-2,-5.618018E-3,1.1910709E-2],"categories":[],"categories_nodes":[],"categories_segments":[],"categories_sizes":[],"default_left":[0,0,0,0,0,0,0,0,0,0,0,0,0,0,0,0,0],"id":1,"left_children":[1,3,5,-1,-1,7,9,-1,-1,11,13,-1,15,-1,-1,-1,-1],"loss_changes":[1.2704618E1,2.1569595E0,6.3897476E0,0E0,0E0,3.3173323E-1,4.8748403E0,0E0,0E0,1.9838355E0,9.119859E-1,0E0,1.7529833E-1,0E0,0E0,0E0,0E0],"parents":[2147483647,0,0,1,1,2,2,5,5,6,6,9,9,10,10,12,12],"right_children":[2,4,6,-1,-1,8,10,-1,-1,12,14,-1,16,-1,-1,-1,-1],"split_conditions":[3.5137E-1,1.7957E-1,3.7168E-1,-3.078071E-2,-8.506456E-2,3.0661E-1,5.9612E-1,-3.325323E-2,-7.4119985E-2,4.9235E-1,5.0995E-1,4.6213273E-2,4.732E-1,-6.371662E-3,-4.9783066E-2,-5.618018E-3,1.1910709E-2],"split_indices":[1,1,0,0,0,0,0,0,0,1,1,0,0,0,0,0,0],"split_type":[0,0,0,0,0,0,0,0,0,0,0,0,0,0,0,0,0],"sum_hessian":[7.2E1,2.8E1,4.4E1,7E0,2.1E1,1E1,3.4E1,5E0,5E0,2.3E1,1.1E1,1.2E1,1.1E1,5E0,6E0,6E0,5E0],"tree_param":{"num_deleted":"0","num_feature":"2","num_nodes":"17","size_leaf_vector":"0"}},{"base_weights":[-4.2813572E-1,-9.0461123E-1,-1.11559615E-1,-2.8760727E-2,-7.897471E-2,-7.320901E-1,8.6651675E-2,-3.1174904E-2,-6.948749E-2,2.8375918E-1,-3.8572412E-2,5.454729E-1,-8.883904E-2,2.8016424E-2,4.7826234E-2,-1.744825E-2,7.0304354E-3],"categories":[],"categories_nodes":[],"categories_segments":[],"categories_sizes":[],"default_left":[0,0,0,0,0,0,0,0,0,0,0,0,0,0,0,0,0],"id":2,"left_children":[1,3,5,-1,-1,7,9,-1,-1,11,-1,13,15,-1,-1,-1,-1],"loss_changes":[1.0910457E1,1.838728E0,5.5982633E0,0E0,0E0,2.9156256E-1,4.2917523E0,0E0,0E0,2.681339E0,0E0,1.5437126E-2,3.368741E-1,0E0,0E0,0E0,0E0],"parents":[2147483647,0,0,1,1,2,2,5,5,6,6,9,9,11,11,12,12],"right_children":[2,4,6,-1,-1,8,10,-1,-1,12,-1,14,16,-1,-1,-1,-1],"split_conditions":[3.5137E-1,1.7957E-1,3.7168E-1,-2.8760727E-2,-7.897471E-2,3.0661E-1,6.0974E-1,-3.1174904E-2,-6.948749E-2,5.0995E-1,-3.8572412E-2,5.3034E-1,5.9698E-1,2.8016424E-2,4.7826234E-2,-1.744825E-2,7.0304354E-3],"split_indices":[1,1,0,0,0,0,0,0,0,1,0,0,1,0,0,0,0],"split_type":[0,0,0,0,0,0,0,0,0,0,0,0,0,0,0,0,0],"sum_hessian":[7.2E1,2.8E1,4.4E1,7E0,2.1E1,1E1,3.4E1,5E0,5E0,2.6E1,8E0,1.5E1,1.1E1,7E0,8E0,6E0,5E0],"tree_param":{"num_deleted":"0","num_feature":"2","num_nodes":"17","size_leaf_vector":"0"}},{"base_weights":[-3.9851245E-1,-8.404804E-1,-1.04832865E-1,-2.6873305E-2,-7.3320836E-2,-6.863345E-1,8.092E-2,-2.9226473E-2,-6.5144524E-2,3.0947587E-1,-3.8293508E-1,4.0388577E-2,3.5561282E-2,-5.7226256E-3,-4.4329405E-2,-4.88458E-3,1.1032869E-2],"categories":[],"categories_nodes":[],"categories_segments":[],"categories_sizes":[],"default_left":[0,0,0,0,0,0,0,0,0,0,0,0,0,0,0,0,0],"id":3,"left_children":[1,3,5,-1,-1,7,9,-1,-1,11,13,-1,15,-1,-1,-1,-1],"loss_changes":[9.387069E0,1.5671978E0,4.9162397E0,0E0,0E0,2.5625658E-1,3.8290973E0,0E0,0E0,1.4865372E0,7.2071326E-1,0E0,1.4435524E-1,0E0,0E0,0E0,0E0],"parents":[2147483647,0,0,1,1,2,2,5,5,6,6,9,9,10,10,12,12],"right_children":[2,4,6,-1,-1,8,10,-1,-1,12,14,-1,16,-1,-1,-1,-1],"split_conditions":[3.5137E-1,1.7957E-1,3.7168E-1,-2.6873305E-2,-7.3320836E-2,3.0661E-1,5.9612E-1,-2.9226473E-2,-6.5144524E-2,4.9235E-1,5.0995E-1,4.0388577E-2,4.732E-1,-5.7226256E-3,-4.4329405E-2,-4.88458E-3,1.1032869E-2],"split_indices":[1,1,0,0,0,0,0,0,0,1,1,0,0,0,0,0,0],"split_type":[0,0,0,0,0,0,0,0,0,0,0,0,0,0,0,0,0],"sum_hessian":[7.2E1,2.8E1,4.4E1,7E0,2.1E1,1E1,3.4E1,5E0,5E0,2.3E1,1.1E1,1.2E1,1.1E1,5E0,6E0,6E0,5E0],"tree_param":{"num_deleted":"0","num_feature":"2","num_nodes":"17","size_leaf_vector":"0"}},{"base_weights":[-3.7133747E-1,-7.8089935E-1,-9.914565E-2,-2.5109744E-2,-6.807174E-2,-6.434386E-1,7.4750565E-2,-2.7399817E-2,-6.1072987E-2,2.8820422E-1,-3.5838595E-1,5.012325E-1,3.3406544E-2,-5.364961E-3,-4.147966E-2,2.4728611E-2,4.508592E-2,-4.570571E-3,1.0343315E-2],"categories":[],"categories_nodes":[],"categories_segments":[],"categories_sizes":[],"default_left":[0,0,0,0,0,0,0,0,0,0,0,0,0,0,0,0,0,0,0],"id":4,"left_children":[1,3,5,-1,-1,7,9,-1,-1,11,13,15,17,-1,-1,-1,-1,-1,-1],"loss_changes":[8.060572E0,1.3355541E0,4.3073688E0,0E0,0E0,2.2522497E-1,3.3391986E0,0E0,0E0,1.2859542E0,6.305593E-1,2.457261E-2,1.2672104E-1,0E0,0E0,0E0,0E0,0E0,0E0],"parents":[2147483647,0,0,1,1,2,2,5,5,6,6,9,9,10,10,11,11,12,12],"right_children":[2,4,6,-1,-1,8,10,-1,-1,12,14,16,18,-1,-1,-1,-1,-1,-1],"split_conditions":[3.5137E-1,1.7957E-1,3.7168E-1,-2.5109744E-2,-6.807174E-2,3.0661E-1,5.9612E-1,-2.7399817E-2,-6.1072987E-2,4.9235E-1,5.0995E-1,5.3034E-1,4.732E-1,-5.364961E-3,-4.147966E-2,2.4728611E-2,4.508592E-2,-4.570571E-3,1.0343315E-2],"split_indices":[1,1,0,0,0,0,0,0,0,1,1,0,0,0,0,0,0,0,0],"split_type":[0,0,0,0,0,0,0,0,0,0,0,0,0,0,0,0,0,0,0],"sum_hessian":[7.2E1,2.8E1,4.4E1,7E0,2.1E1,1E1,3.4E1,5E0,5E0,2.3E1,1.1E1,1.2E1,1.1E1,5E0,6E0,6E0,6E0,6E0,5E0],"tree_param":{"num_deleted":"0","num_feature":"2","num_nodes":"19","size_leaf_vector":"0"}},{"base_weights":[-3.4558183E-1,-7.2554505E-1,-9.3037054E-2,-2.3461917E-2,-8.426455E-1,-6.032236E-1,6.9965504E-2,-7.3090486E-2,-4.666176E-2,-2.568733E-2,-5.7255924E-2,2.3357758E-1,-3.214835E-2,4.548076E-1,-8.08606E-2,2.2603644E-2,4.0548887E-2,-1.5231004E-2,5.6404136E-3],"categories":[],"categories_nodes":[],"categories_segments":[],"categories_sizes":[],"default_left":[0,0,0,0,0,0,0,0,0,0,0,0,0,0,0,0,0,0,0],"id":5,"left_children":[1,3,5,-1,7,9,11,-1,-1,-1,-1,13,-1,15,17,-1,-1,-1,-1],"loss_changes":[6.9374104E0,1.1379585E0,3.7844818E0,0E0,3.34692E-2,1.9795227E-1,2.9553742E0,0E0,0E0,0E0,0E0,1.9149816E0,0E0,4.778862E-2,2.441645E-1,0E0,0E0,0E0,0E0],"parents":[2147483647,0,0,1,1,2,2,4,4,5,5,6,6,11,11,13,13,14,14],"right_children":[2,4,6,-1,8,10,12,-1,-1,-1,-1,14,-1,16,18,-1,-1,-1,-1],"split_conditions":[3.5137E-1,1.7957E-1,3.7168E-1,-2.3461917E-2,5.2988E-1,3.0661E-1,6.0974E-1,-7.3090486E-2,-4.666176E-2,-2.568733E-2,-5.7255924E-2,5.0995E-1,-3.214835E-2,5.3034E-1,5.9698E-1,2.2603644E-2,4.0548887E-2,-1.5231004E-2,5.6404136E-3],"split_indices":[1,1,0,0,0,0,0,0,0,0,0,1,0,0,1,0,0,0,0],"split_type":[0,0,0,0,0,0,0,0,0,0,0,0,0,0,0,0,0,0,0],"sum_hessian":[7.2E1,2.8E1,4.4E1,7E0,2.1E1,1E1,3.4E1,1.1E1,1E1,5E0,5E0,2.6E1,8E0,1.5E1,1.1E1,7E0,8E0,6E0,5E0],"tree_param":{"num_deleted":"0","num_feature":"2","num_nodes":"19","size_leaf_vector":"0"}},{"base_weights":[-3.224679E-1,-6.760676E-1,-8.7426595E-2,-2.192223E-2,-7.848904E-1,-5.655222E-1,6.532991E-2,-4.226964E-2,-8.947413E-1,-2.408187E-2,-5.3677432E-2,2.550065E-1,-3.1946737E-1,-7.817641E-2,-4.1160252E-2,4.247886E-1,1.573774E-2,-4.837809E-3,-3.6927685E-2,2.112028E-2,3.958083E-2,-7.4412865E-3,9.605225E-3],"categories":[],"categories_nodes":[],"categories_segments":[],"categories_sizes":[],"default_left":[0,0,0,0,0,0,0,0,0,0,0,0,0,0,0,0,0,0,0,0,0,0,0],"id":6,"left_children":[1,3,5,-1,7,9,11,-1,13,-1,-1,15,17,-1,-1,19,21,-1,-1,-1,-1,-1,-1],"loss_changes":[6.0079627E0,9.817076E-1,3.3233953E0,0E0,3.0537605E-2,1.7398119E-1,2.6360123E0,0E0,9.178734E-2,0E0,0E0,9.682802E-1,4.972434E-1,0E0,0E0,5.776882E-2,1.5475085E-1,0E0,0E0,0E0,0E0,0E0,0E0],"parents":[2147483647,0,0,1,1,2,2,4,4,5,5,6,6,8,8,11,11,12,12,15,15,16,16],"right_children":[2,4,6,-1,8,10,12,-1,14,-1,-1,16,18,-1,-1,20,22,-1,-1,-1,-1,-1,-1],"split_conditions":[3.5137E-1,1.7957E-1,3.7168E-1,-2.192223E-2,2.7448E-1,3.0661E-1,5.9612E-1,-4.226964E-2,3.0815E-1,-2.408187E-2,-5.3677432E-2,5.0531E-1,5.0995E-1,-7.817641E-2,-4.1160252E-2,5.3034E-1,4.732E-1,-4.837809E-3,-3.6927685E-2,2.112028E-2,3.958083E-2,-7.4412865E-3,9.605225E-3],"split_indices":[1,1,0,0,1,0,0,0,1,0,0,1,1,0,0,0,0,0,0,0,0,0,0],"split_type":[0,0,0,0,0,0,0,0,0,0,0,0,0,0,0,0,0,0,0,0,0,0,0],"sum_hessian":[7.2E1,2.8E1,4.4E1,7E0,2.1E1,1E1,3.4E1,9E0,1.2E1,5E0,5E0,2.3E1,1.1E1,7E0,5E0,1.3E1,1E1,5E0,6E0,7E0,6E0,5E0,5E0],"tree_param":{"num_deleted":"0","num_feature":"2","num_nodes":"23","size_leaf_vector":"0"}},{"base_weights":[-3.0157307E-1,-6.316911E-1,-8.212871E-2,-2.0483583E-2,-7.3336935E-1,-5.3017706E-1,6.103301E-2,-6.473144E-2,-3.938929E-2,-2.2576753E-2,-5.0322592E-2,2.3850036E-1,-2.9898778E-1,4.1184723E-1,3.0832892E-2,-4.535446E-3,-3.4553763E-2,2.032809E-2,3.7036348E-2,-3.7542554E-3,9.004898E-3],"categories":[],"categories_nodes":[],"categories_segments":[],"categories_sizes":[],"default_left":[0,0,0,0,0,0,0,0,0,0,0,0,0,0,0,0,0,0,0,0,0],"id":7,"left_children":[1,3,5,-1,7,9,11,-1,-1,-1,-1,13,15,17,19,-1,-1,-1,-1,-1,-1],"loss_changes":[5.236425E0,8.570318E-1,2.91881E0,0E0,1.4080715E-1,1.5291286E-1,2.3075264E0,0E0,0E0,0E0,0E0,8.512659E-1,4.3503726E-1,1.6200542E-2,9.262581E-2,0E0,0E0,0E0,0E0,0E0,0E0],"parents":[2147483647,0,0,1,1,2,2,4,4,5,5,6,6,11,11,12,12,13,13,14,14],"right_children":[2,4,6,-1,8,10,12,-1,-1,-1,-1,14,16,18,20,-1,-1,-1,-1,-1,-1],"split_conditions":[3.5137E-1,1.7957E-1,3.7168E-1,-2.0483583E-2,5.2988E-1,3.0661E-1,5.9612E-1,-6.473144E-2,-3.938929E-2,-2.2576753E-2,-5.0322592E-2,4.9235E-1,5.0995E-1,5.3034E-1,4.732E-1,-4.535446E-3,-3.4553763E-2,2.032809E-2,3.7036348E-2,-3.7542554E-3,9.004898E-3],"split_indices":[1,1,0,0,0,0,0,0,0,0,0,1,1,0,0,0,0,0,0,0,0],"split_type":[0,0,0,0,0,0,0,0,0,0,0,0,0,0,0,0,0,0,0,0,0],"sum_hessian":[7.2E1,2.8E1,4.4E1,7E0,2.1E1,1E1,3.4E1,1.1E1,1E1,5E0,5E0,2.3E1,1.1E1,1.2E1,1.1E1,5E0,6E0,6E0,6E0,6E0,5E0],"tree_param":{"num_deleted":"0","num_feature":"2","num_nodes":"21","size_leaf_vector":"0"}},{"base_weights":[-2.8133833E-1,-5.8861095E-1,-7.706625E-2,-3.994411E-1,-7.9070914E-1,-4.9704096E-1,5.7127696E-2,-5.4410923E-2,-2.1765665E-3,-6.9986E-2,-3.5175577E-2,-2.1165706E-2,-4.717743E-2,1.9313176E-1,-2.6792403E-2,3.8045576E-1,-7.272789E-2,1.8626E-2,3.4170993E-2,-1.320558E-2,4.497327E-3],"categories":[],"categories_nodes":[],"categories_segments":[],"categories_sizes":[],"default_left":[0,0,0,0,0,0,0,0,0,0,0,0,0,0,0,0,0,0,0,0,0],"id":8,"left_children":[1,3,5,7,9,11,13,-1,-1,-1,-1,-1,-1,15,-1,17,19,-1,-1,-1,-1],"loss_changes":[4.536645E0,7.9285336E-1,2.5645075E0,2.032053E0,1.5803814E-1,1.3439655E-1,2.041404E0,0E0,0E0,0E0,0E0,0E0,0E0,1.3723208E0,0E0,4.5713663E-2,1.7511755E-1,0E0,0E0,0E0,0E0],"parents":[2147483647,0,0,1,1,2,2,3,3,4,4,5,5,6,6,13,13,15,15,16,16],"right_children":[2,4,6,8,10,12,14,-1,-1,-1,-1,-1,-1,16,-1,18,20,-1,-1,-1,-1],"split_conditions":[3.5137E-1,2.7448E-1,3.7168E-1,4.334E-1,3.0815E-1,3.0661E-1,6.0974E-1,-5.4410923E-2,-2.1765665E-3,-6.9986E-2,-3.5175577E-2,-2.1165706E-2,-4.717743E-2,5.0995E-1,-2.6792403E-2,5.3034E-1,5.9698E-1,1.8626E-2,3.4170993E-2,-1.320558E-2,4.497327E-3],"split_indices":[1,1,0,0,1,0,0,0,0,0,0,0,0,1,0,0,1,0,0,0,0],"split_type":[0,0,0,0,0,0,0,0,0,0,0,0,0,0,0,0,0,0,0,0,0],"sum_hessian":[7.2E1,2.8E1,4.4E1,1.6E1,1.2E1,1E1,3.4E1,8E0,8E0,7E0,5E0,5E0,5E0,2.6E1,8E0,1.5E1,1.1E1,7E0,8E0,6E0,5E0],"tree_param":{"num_deleted":"0","num_feature":"2","num_nodes":"21","size_leaf_vector":"0"}},{"base_weights":[-2.63153E-1,-5.500427E-1,-7.242065E-2,-1.7037725E-2,-6.4244914E-1,-4.659759E-1,5.3337306E-2,-5.7359304E-2,-3.3793584E-2,-1.9842848E-2,-4.422884E-2,2.1106069E-1,-2.6655424E-1,3.4899092E-1,1.6325772E-2,-4.1015404E-3,-3.0755654E-2,1.740367E-2,3.245873E-2,-6.137502E-3,8.382295E-3],"categories":[],"categories_nodes":[],"categories_segments":[],"categories_sizes":[],"default_left":[0,0,0,0,0,0,0,0,0,0,0,0,0,0,0,0,0,0,0,0,0],"id":9,"left_children":[1,3,5,-1,7,9,11,-1,-1,-1,-1,13,15,17,19,-1,-1,-1,-1,-1,-1],"loss_changes":[3.9546628E0,7.1928596E-1,2.2520256E0,0E0,1.7181587E-1,1.1812186E-1,1.8221623E0,0E0,0E0,0E0,0E0,6.3893855E-1,3.4246278E-1,3.6756635E-2,1.1219541E-1,0E0,0E0,0E0,0E0,0E0,0E0],"parents":[2147483647,0,0,1,1,2,2,4,4,5,5,6,6,11,11,12,12,13,13,14,14],"right_children":[2,4,6,-1,8,10,12,-1,-1,-1,-1,14,16,18,20,-1,-1,-1,-1,-1,-1],"split_conditions":[3.5137E-1,1.7957E-1,3.7168E-1,-1.7037725E-2,5.2988E-1,3.0661E-1,5.9612E-1,-5.7359304E-2,-3.3793584E-2,-1.9842848E-2,-4.422884E-2,5.0531E-1,5.0995E-1,5.3034E-1,4.732E-1,-4.1015404E-3,-3.0755654E-2,1.740367E-2,3.245873E-2,-6.137502E-3,8.382295E-3],"split_indices":[1,1,0,0,0,0,0,0,0,0,0,1,1,0,0,0,0,0,0,0,0],"split_type":[0,0,0,0,0,0,0,0,0,0,0,0,0,0,0,0,0,0,0,0,0],"sum_hessian":[7.2E1,2.8E1,4.4E1,7E0,2.1E1,1E1,3.4E1,1.1E1,1E1,5E0,5E0,2.3E1,1.1E1,1.3E1,1E1,5E0,6E0,7E0,6E0,5E0,5E0],"tree_param":{"num_deleted":"0","num_feature":"2","num_nodes":"21","size_leaf_vector":"0"}},{"base_weights":[-2.4553995E-1,-5.125202E-1,-6.802958E-2,-3.395881E-1,-6.9923747E-1,-4.368524E-1,4.9829863E-2,-4.8303626E-2,1.953086E-4,-6.2733606E-2,-2.9981287E-2,-1.8602671E-2,-4.1464534E-2,1.9740227E-1,-2.4946743E-1,3.3799008E-1,2.8648606E-2,-3.845195E-3,-2.8778503E-2,1.6656473E-2,3.0420719E-2,-3.0523795E-3,7.8584E-3],"categories":[],"categories_nodes":[],"categories_segments":[],"categories_sizes":[],"default_left":[0,0,0,0,0,0,0,0,0,0,0,0,0,0,0,0,0,0,0,0,0,0,0],"id":10,"left_children":[1,3,5,7,9,11,13,-1,-1,-1,-1,-1,-1,15,17,19,21,-1,-1,-1,-1,-1,-1],"loss_changes":[3.4247317E0,6.989403E-1,1.9778847E0,1.7728038E0,1.998353E-1,1.038177E-1,1.5951264E0,0E0,0E0,0E0,0E0,0E0,0E0,5.5970997E-1,2.996149E-1,1.1805415E-2,6.7617014E-2,0E0,0E0,0E0,0E0,0E0,0E0],"parents":[2147483647,0,0,1,1,2,2,3,3,4,4,5,5,6,6,13,13,14,14,15,15,16,16],"right_children":[2,4,6,8,10,12,14,-1,-1,-1,-1,-1,-1,16,18,20,22,-1,-1,-1,-1,-1,-1],"split_conditions":[3.5137E-1,2.7448E-1,3.7168E-1,4.334E-1,3.0815E-1,3.0661E-1,5.9612E-1,-4.8303626E-2,1.953086E-4,-6.2733606E-2,-2.9981287E-2,-1.8602671E-2,-4.1464534E-2,4.9235E-1,5.0995E-1,4.432E-1,4.732E-1,-3.845195E-3,-2.8778503E-2,1.6656473E-2,3.0420719E-2,-3.0523795E-3,7.8584E-3],"split_indices":[1,1,0,0,1,0,0,0,0,0,0,0,0,1,1,1,0,0,0,0,0,0,0],"split_type":[0,0,0,0,0,0,0,0,0,0,0,0,0,0,0,0,0,0,0,0,0,0,0],"sum_hessian":[7.2E1,2.8E1,4.4E1,1.6E1,1.2E1,1E1,3.4E1,8E0,8E0,7E0,5E0,5E0,5E0,2.3E1,1.1E1,1.2E1,1.1E1,5E0,6E0,6E0,6E0,6E0,5E0],"tree_param":{"num_deleted":"0","num_feature":"2","num_nodes":"23","size_leaf_vector":"0"}},{"base_weights":[-2.2961254E-1,-4.7893715E-1,-6.38342E-2,-3.1694892E-1,-6.5392655E-1,-4.0954912E-1,4.66429E-2,-4.5083385E-2,1.822882E-4,-5.8616713E-2,-2.8107457E-2,-1.7440004E-2,-3.8873002E-2,1.5969406E-1,-2.2326984E-2,3.1896546E-1,-6.597566E-2,1.4966126E-2,2.9225508E-2,-1.1498939E-2,3.5190803E-3],"categories":[],"categories_nodes":[],"categories_segments":[],"categories_sizes":[],"default_left":[0,0,0,0,0,0,0,0,0,0,0,0,0,0,0,0,0,0,0,0,0],"id":11,"left_children":[1,3,5,7,9,11,13,-1,-1,-1,-1,-1,-1,15,-1,17,19,-1,-1,-1,-1],"loss_changes":[2.986709E0,6.14779E-1,1.7378136E0,1.5443091E0,1.702776E-1,9.124625E-2,1.4100052E0,0E0,0E0,0E0,0E0,0E0,0E0,9.914977E-1,0E0,5.7341218E-2,1.255235E-1,0E0,0E0,0E0,0E0],"parents":[2147483647,0,0,1,1,2,2,3,3,4,4,5,5,6,6,13,13,15,15,16,16],"right_children":[2,4,6,8,10,12,14,-1,-1,-1,-1,-1,-1,16,-1,18,20,-1,-1,-1,-1],"split_conditions":[3.5137E-1,2.7448E-1,3.7168E-1,4.334E-1,3.0815E-1,3.0661E-1,6.0974E-1,-4.5083385E-2,1.822882E-4,-5.8616713E-2,-2.8107457E-2,-1.7440004E-2,-3.8873002E-2,5.0995E-1,-2.2326984E-2,5.3034E-1,5.9698E-1,1.4966126E-2,2.9225508E-2,-1.1498939E-2,3.5190803E-3],"split_indices":[1,1,0,0,1,0,0,0,0,0,0,0,0,1,0,0,1,0,0,0,0],"split_type":[0,0,0,0,0,0,0,0,0,0,0,0,0,0,0,0,0,0,0,0,0],"sum_hessian":[7.2E1,2.8E1,4.4E1,1.6E1,1.2E1,1E1,3.4E1,8E0,8E0,7E0,5E0,5E0,5E0,2.6E1,8E0,1.5E1,1.1E1,7E0,8E0,6E0,5E0],"tree_param":{"num_deleted":"0","num_feature":"2","num_nodes":"21","size_leaf_vector":"0"}},{"base_weights":[-2.147759E-1,-4.4755566E-1,-5.998949E-2,-1.2428231E-2,-5.2970165E-1,-3.839523E-1,4.354138E-2,-4.67873E-2,-2.433173E-2,-1.6350003E-2,-3.644344E-2,1.7474987E-1,-2.2250405E-1,2.8641203E-1,1.6748054E-2,-3.4982476E-3,-2.5609167E-2,1.3983973E-2,2.698012E-2,-5.032177E-3,7.3350347E-3],"categories":[],"categories_nodes":[],"categories_segments":[],"categories_sizes":[],"default_left":[0,0,0,0,0,0,0,0,0,0,0,0,0,0,0,0,0,0,0,0,0],"id":12,"left_children":[1,3,5,-1,7,9,11,-1,-1,-1,-1,13,15,17,19,-1,-1,-1,-1,-1,-1],"loss_changes":[2.6034248E0,5.836468E-1,1.5260246E0,0E0,2.2271395E-1,8.019698E-2,1.2606423E0,0E0,0E0,0E0,0E0,4.1863096E-1,2.3510015E-1,3.553641E-2,8.1315085E-2,0E0,0E0,0E0,0E0,0E0,0E0],"parents":[2147483647,0,0,1,1,2,2,4,4,5,5,6,6,11,11,12,12,13,13,14,14],"right_children":[2,4,6,-1,8,10,12,-1,-1,-1,-1,14,16,18,20,-1,-1,-1,-1,-1,-1],"split_conditions":[3.5137E-1,1.7957E-1,3.7168E-1,-1.2428231E-2,2.9855E-1,3.0661E-1,5.9612E-1,-4.67873E-2,-2.433173E-2,-1.6350003E-2,-3.644344E-2,5.0531E-1,5.0995E-1,5.3034E-1,4.732E-1,-3.4982476E-3,-2.5609167E-2,1.3983973E-2,2.698012E-2,-5.032177E-3,7.3350347E-3],"split_indices":[1,1,0,0,1,0,0,0,0,0,0,1,1,0,0,0,0,0,0,0,0],"split_type":[0,0,0,0,0,0,0,0,0,0,0,0,0,0,0,0,0,0,0,0,0],"sum_hessian":[7.2E1,2.8E1,4.4E1,7E0,2.1E1,1E1,3.4E1,1.3E1,8E0,5E0,5E0,2.3E1,1.1E1,1.3E1,1E1,5E0,6E0,7E0,6E0,5E0,5E0],"tree_param":{"num_deleted":"0","num_feature":"2","num_nodes":"21","size_leaf_vector":"0"}},{"base_weights":[-2.0034142E-1,-4.4449383E-1,-7.168526E-2,-2.6593176E-1,-5.492922E-2,-1.7044915E-2,-3.453252E-2,-4.010398E-2,2.4303123E-3,5.422668E-2,-2.2517808E-2,-2.4881482E-2,1.271832E-1,2.4676522E-2,5.460486E-2,-2.0793907E-2,1.5652785E-1,2.5345203E-2,1.6908814E-3],"categories":[],"categories_nodes":[],"categories_segments":[],"categories_sizes":[],"default_left":[0,0,0,0,0,0,0,0,0,0,0,0,0,0,0,0,0,0,0],"id":13,"left_children":[1,3,5,7,-1,9,-1,-1,-1,11,-1,-1,13,-1,15,-1,17,-1,-1],"loss_changes":[2.2611911E0,1.090416E0,1.0329778E0,1.3805417E0,0E0,9.043585E-1,0E0,0E0,0E0,1.055944E0,0E0,0E0,4.3615294E-1,0E0,8.551702E-1,0E0,4.54187E-1,0E0,0E0],"parents":[2147483647,0,0,1,1,2,2,3,3,5,5,9,9,12,12,14,14,16,16],"right_children":[2,4,6,8,-1,10,-1,-1,-1,12,-1,-1,14,-1,16,-1,18,-1,-1],"split_conditions":[3.1107E-1,2.7448E-1,6.6956E-1,4.334E-1,-5.492922E-2,6.0974E-1,-3.453252E-2,-4.010398E-2,2.4303123E-3,2.9531E-1,-2.2517808E-2,-2.4881482E-2,3.9537E-1,2.4676522E-2,4.4706E-1,-2.0793907E-2,4.5998E-1,2.5345203E-2,1.6908814E-3],"split_indices":[1,1,1,0,0,0,0,0,0,0,0,0,1,0,1,0,0,0,0],"split_type":[0,0,0,0,0,0,0,0,0,0,0,0,0,0,0,0,0,0,0],"sum_hessian":[7.2E1,2.4E1,4.8E1,1.6E1,8E0,4.3E1,5E0,8E0,8E0,3.5E1,8E0,5E0,3E1,7E0,2.3E1,5E0,1.8E1,7E0,1.1E1],"tree_param":{"num_deleted":"0","num_feature":"2","num_nodes":"19","size_leaf_vector":"0"}},{"base_weights":[-1.8728316E-1,-3.9139166E-1,-5.1584702E-2,-2.4820295E-1,-5.485314E-1,-3.4959E-1,4.3547958E-2,-3.743038E-2,2.2682915E-3,-4.8726406E-2,-2.4167813E-2,-1.4400869E-2,-3.3667758E-2,1.607909E-1,-1.9456694E-1,2.314819E-2,5.150376E-2,-2.328084E-2,-2.0240599E-3,-2.3020392E-3,1.1237154E-2],"categories":[],"categories_nodes":[],"categories_segments":[],"categories_sizes":[],"default_left":[0,0,0,0,0,0,0,0,0,0,0,0,0,0,0,0,0,0,0,0,0],"id":14,"left_children":[1,3,5,7,9,11,13,-1,-1,-1,-1,-1,-1,15,17,-1,19,-1,-1,-1,-1],"loss_changes":[2.0017066E0,5.1637125E-1,1.2909757E0,1.202605E0,8.8223696E-2,8.595157E-2,1.0083897E0,0E0,0E0,0E0,0E0,0E0,0E0,3.7190253E-1,2.2458017E-1,0E0,1.2582998E-1,0E0,0E0,0E0,0E0],"parents":[2147483647,0,0,1,1,2,2,3,3,4,4,5,5,6,6,13,13,14,14,16,16],"right_children":[2,4,6,8,10,12,14,-1,-1,-1,-1,-1,-1,16,18,-1,20,-1,-1,-1,-1],"split_conditions":[3.5137E-1,2.7448E-1,3.7168E-1,4.334E-1,3.0815E-1,3.0661E-1,5.9612E-1,-3.743038E-2,2.2682915E-3,-4.8726406E-2,-2.4167813E-2,-1.4400869E-2,-3.3667758E-2,4.6716E-1,6.9313E-1,2.314819E-2,4.8999E-1,-2.328084E-2,-2.0240599E-3,-2.3020392E-3,1.1237154E-2],"split_indices":[1,1,0,0,1,0,0,0,0,0,0,0,0,1,0,0,0,0,0,0,0],"split_type":[0,0,0,0,0,0,0,0,0,0,0,0,0,0,0,0,0,0,0,0,0],"sum_hessian":[7.2E1,2.8E1,4.4E1,1.6E1,1.2E1,1E1,3.4E1,8E0,8E0,7E0,5E0,5E0,5E0,2.3E1,1.1E1,9E0,1.4E1,6E0,5E0,8E0,6E0],"tree_param":{"num_deleted":"0","num_feature":"2","num_nodes":"21","size_leaf_vector":"0"}},{"base_weights":[-1.7528276E-1,-3.6576337E-1,-4.8633408E-2,-8.837236E-3,-4.392954E-1,-3.2774064E-1,4.0475532E-2,-4.171121E-2,-2.718823E-1,-1.3500814E-2,-3.1563528E-2,1.2987427E-1,-1.7416347E-2,-2.4993524E-2,-1.2390293E-2,2.6526573E-1,-6.1470546E-2,1.1239973E-2,2.537768E-2,-1.098958E-2,3.6005955E-3],"categories":[],"categories_nodes":[],"categories_segments":[],"categories_sizes":[],"default_left":[0,0,0,0,0,0,0,0,0,0,0,0,0,0,0,0,0,0,0,0,0],"id":15,"left_children":[1,3,5,-1,7,9,11,-1,13,-1,-1,15,-1,-1,-1,17,19,-1,-1,-1,-1],"loss_changes":[1.7432816E0,4.769392E-1,1.1324583E0,0E0,2.7917624E-1,7.5543284E-2,8.8340497E-1,0E0,1.6955495E-2,0E0,0E0,7.157803E-1,0E0,0E0,0E0,8.426726E-2,1.1877769E-1,0E0,0E0,0E0,0E0],"parents":[2147483647,0,0,1,1,2,2,4,4,5,5,6,6,8,8,11,11,15,15,16,16],"right_children":[2,4,6,-1,8,10,12,-1,14,-1,-1,16,-1,-1,-1,18,20,-1,-1,-1,-1],"split_conditions":[3.5137E-1,1.7957E-1,3.7168E-1,-8.837236E-3,5.2988E-1,3.0661E-1,6.0974E-1,-4.171121E-2,2.8055E-1,-1.3500814E-2,-3.1563528E-2,5.0995E-1,-1.7416347E-2,-2.4993524E-2,-1.2390293E-2,4.432E-1,5.9698E-1,1.1239973E-2,2.537768E-2,-1.098958E-2,3.6005955E-3],"split_indices":[1,1,0,0,0,0,0,0,1,0,0,1,0,0,0,1,1,0,0,0,0],"split_type":[0,0,0,0,0,0,0,0,0,0,0,0,0,0,0,0,0,0,0,0,0],"sum_hessian":[7.2E1,2.8E1,4.4E1,7E0,2.1E1,1E1,3.4E1,1.1E1,1E1,5E0,5E0,2.6E1,8E0,5E0,5E0,1.5E1,1.1E1,7E0,8E0,6E0,5E0],"tree_param":{"num_deleted":"0","num_feature":"2","num_nodes":"21","size_leaf_vector":"0"}},{"base_weights":[-1.637966E-1,-3.6502293E-1,-5.778733E-2,-2.08885E-1,-4.6454404E-2,-8.531974E-3,-3.0702155E-2,-3.325007E-2,3.6580272E-3,-7.212175E-2,2.1497792E-2,1.6998691E-2,-3.4237117E-2,2.5154823E-2,-7.2832964E-2,-4.6811238E-2,9.620374E-2,1.5449097E-2,-1.0283108E-2],"categories":[],"categories_nodes":[],"categories_segments":[],"categories_sizes":[],"default_left":[0,0,0,0,0,0,0,0,0,0,0,0,0,0,0,0,0,0,0],"id":16,"left_children":[1,3,5,7,-1,9,-1,-1,-1,11,-1,13,-1,-1,15,-1,17,-1,-1],"loss_changes":[1.5361317E0,8.635347E-1,8.450372E-1,1.048557E0,0E0,8.465414E-1,0E0,0E0,0E0,1.2752132E0,0E0,9.1109943E-1,0E0,0E0,2.389865E0,0E0,5.405218E-1,0E0,0E0],"parents":[2147483647,0,0,1,1,2,2,3,3,5,5,9,9,11,11,14,14,16,16],"right_children":[2,4,6,8,-1,10,-1,-1,-1,12,-1,14,-1,-1,16,-1,18,-1,-1],"split_conditions":[3.1107E-1,2.7448E-1,6.6956E-1,4.334E-1,-4.6454404E-2,5.9698E-1,-3.0702155E-2,-3.325007E-2,3.6580272E-3,6.0974E-1,2.1497792E-2,3.7894E-1,-3.4237117E-2,2.5154823E-2,3.7168E-1,-4.6811238E-2,5.0995E-1,1.5449097E-2,-1.0283108E-2],"split_indices":[1,1,1,0,0,1,0,0,0,0,0,1,0,0,0,0,1,0,0],"split_type":[0,0,0,0,0,0,0,0,0,0,0,0,0,0,0,0,0,0,0],"sum_hessian":[7.2E1,2.4E1,4.8E1,1.6E1,8E0,4.3E1,5E0,8E0,8E0,3.6E1,7E0,3E1,6E0,6E0,2.4E1,5E0,1.9E1,1.3E1,6E0],"tree_param":{"num_deleted":"0","num_feature":"2","num_nodes":"19","size_leaf_vector":"0"}},{"base_weights":[-1.5337458E-1,-3.2180658E-1,-4.142119E-2,-1.9495936E-1,-4.6292937E-1,-2.865923E-1,3.6816053E-2,-3.10334E-2,3.4141582E-3,-4.0880974E-2,-2.071806E-2,-1.0585175E-2,-2.8821269E-2,1.3423249E-1,-1.6108483E-1,4.9349472E-2,2.026657E-2,-2.1216547E-2,5.89912E-4,9.469488E-3,-5.06793E-3],"categories":[],"categories_nodes":[],"categories_segments":[],"categories_sizes":[],"default_left":[0,0,0,0,0,0,0,0,0,0,0,0,0,0,0,0,0,0,0,0,0],"id":17,"left_children":[1,3,5,7,9,11,13,-1,-1,-1,-1,-1,-1,15,17,19,-1,-1,-1,-1,-1],"loss_changes":[1.3631972E0,4.288776E-1,8.737192E-1,9.134099E-1,4.8801422E-2,1.0207218E-1,6.963809E-1,0E0,0E0,0E0,0E0,0E0,0E0,2.6369938E-1,2.4916786E-1,1.5241174E-1,0E0,0E0,0E0,0E0,0E0],"parents":[2147483647,0,0,1,1,2,2,3,3,4,4,5,5,6,6,13,13,14,14,15,15],"right_children":[2,4,6,8,10,12,14,-1,-1,-1,-1,-1,-1,16,18,20,-1,-1,-1,-1,-1],"split_conditions":[3.5137E-1,2.7448E-1,3.7168E-1,4.334E-1,3.0815E-1,3.0661E-1,5.9612E-1,-3.10334E-2,3.4141582E-3,-4.0880974E-2,-2.071806E-2,-1.0585175E-2,-2.8821269E-2,5.3034E-1,6.9313E-1,5.3713E-1,2.026657E-2,-2.1216547E-2,5.89912E-4,9.469488E-3,-5.06793E-3],"split_indices":[1,1,0,0,1,0,0,0,0,0,0,0,0,0,0,1,0,0,0,0,0],"split_type":[0,0,0,0,0,0,0,0,0,0,0,0,0,0,0,0,0,0,0,0,0],"sum_hessian":[7.2E1,2.8E1,4.4E1,1.6E1,1.2E1,1E1,3.4E1,8E0,8E0,7E0,5E0,5E0,5E0,2.3E1,1.1E1,1.5E1,8E0,6E0,5E0,9E0,6E0],"tree_param":{"num_deleted":"0","num_feature":"2","num_nodes":"21","size_leaf_vector":"0"}},{"base_weights":[-1.435781E-1,-3.0074757E-1,-3.9100487E-2,-6.0455687E-3,-3.6712813E-1,1.7681355E-2,-1.0489958E-1,-3.5868824E-2,-2.1252795E-1,-3.1247107E-2,-4.539023E-3,-2.151325E-2,-7.7093416E-3,9.807063E-2,-1.5697833E-2,2.908676E-2,1.906389E-2,1.0326705E-2,-6.23638E-3],"categories":[],"categories_nodes":[],"categories_segments":[],"categories_sizes":[],"default_left":[0,0,0,0,0,0,0,0,0,0,0,0,0,0,0,0,0,0,0],"id":18,"left_children":[1,3,5,-1,7,-1,9,-1,11,-1,13,-1,-1,15,-1,17,-1,-1,-1],"loss_changes":[1.1869508E0,3.9418435E-1,8.3855546E-1,0E0,2.7630973E-1,0E0,1.1556629E0,0E0,6.0221434E-2,0E0,6.298429E-1,0E0,0E0,2.079943E-1,0E0,1.9429004E-1,0E0,0E0,0E0],"parents":[2147483647,0,0,1,1,2,2,4,4,6,6,8,8,10,10,13,13,15,15],"right_children":[2,4,6,-1,8,-1,10,-1,12,-1,14,-1,-1,16,-1,18,-1,-1,-1],"split_conditions":[3.5137E-1,1.7957E-1,3.9537E-1,-6.0455687E-3,5.2988E-1,1.7681355E-2,3.7168E-1,-3.5868824E-2,2.8055E-1,-3.1247107E-2,5.8327E-1,-2.151325E-2,-7.7093416E-3,5.3034E-1,-1.5697833E-2,4.5998E-1,1.906389E-2,1.0326705E-2,-6.23638E-3],"split_indices":[1,1,1,0,0,0,0,0,1,0,0,0,0,0,0,0,0,0,0],"split_type":[0,0,0,0,0,0,0,0,0,0,0,0,0,0,0,0,0,0,0],"sum_hessian":[7.2E1,2.8E1,4.4E1,7E0,2.1E1,8E0,3.6E1,1.1E1,1E1,8E0,2.8E1,5E0,5E0,1.9E1,9E0,1.4E1,5E0,7E0,7E0],"tree_param":{"num_deleted":"0","num_feature":"2","num_nodes":"19","size_leaf_vector":"0"}},{"base_weights":[-1.3386792E-1,-2.997412E-1,-4.6506684E-2,-1.6301666E-1,-3.9352063E-2,-1.5186657E-3,-2.765008E-2,-2.756736E-2,4.4733323E-3,-6.479109E-2,2.1847961E-2,1.6514497E-2,-3.1170214E-2,2.436107E-2,-7.047002E-2,-4.1654672E-2,7.853115E-2,1.3231513E-2,-9.634921E-3],"categories":[],"categories_nodes":[],"categories_segments":[],"categories_sizes":[],"default_left":[0,0,0,0,0,0,0,0,0,0,0,0,0,0,0,0,0,0,0],"id":19,"left_children":[1,3,5,7,-1,9,-1,-1,-1,11,-1,13,-1,-1,15,-1,17,-1,-1],"loss_changes":[1.0438952E0,6.8338084E-1,7.0961607E-1,7.961867E-1,0E0,8.340944E-1,0E0,0E0,0E0,1.0622128E0,0E0,8.542261E-1,0E0,0E0,1.8499779E0,0E0,4.279181E-1,0E0,0E0],"parents":[2147483647,0,0,1,1,2,2,3,3,5,5,9,9,11,11,14,14,16,16],"right_children":[2,4,6,8,-1,10,-1,-1,-1,12,-1,14,-1,-1,16,-1,18,-1,-1],"split_conditions":[3.1107E-1,2.7448E-1,6.6956E-1,4.334E-1,-3.9352063E-2,5.9698E-1,-2.765008E-2,-2.756736E-2,4.4733323E-3,6.0974E-1,2.1847961E-2,3.7894E-1,-3.1170214E-2,2.436107E-2,3.7168E-1,-4.1654672E-2,5.0995E-1,1.3231513E-2,-9.634921E-3],"split_indices":[1,1,1,0,0,1,0,0,0,0,0,1,0,0,0,0,1,0,0],"split_type":[0,0,0,0,0,0,0,0,0,0,0,0,0,0,0,0,0,0,0],"sum_hessian":[7.2E1,2.4E1,4.8E1,1.6E1,8E0,4.3E1,5E0,8E0,8E0,3.6E1,7E0,3E1,6E0,6E0,2.4E1,5E0,1.9E1,1.3E1,6E0],"tree_param":{"num_deleted":"0","num_feature":"2","num_nodes":"19","size_leaf_vector":"0"}},{"base_weights":[-1.2537734E-1,-2.6486325E-1,-3.2700248E-2,-1.5214887E-1,-3.9188492E-1,1.6539672E-2,-9.341276E-2,-2.5729535E-2,4.1751107E-3,-3.4322944E-2,-1.7917378E-2,-3.092266E-2,-5.2618287E-3,2.0714331E-2,-1.2016249E-1,-2.7134815E-2,1.672035E-2,2.9969811E-2,-2.1219809E-2],"categories":[],"categories_nodes":[],"categories_segments":[],"categories_sizes":[],"default_left":[0,0,0,0,0,0,0,0,0,0,0,0,0,0,0,0,0,0,0],"id":20,"left_children":[1,3,5,7,9,-1,11,-1,-1,-1,-1,-1,13,-1,15,-1,17,-1,-1],"loss_changes":[9.3502104E-1,3.5557294E-1,7.1243834E-1,6.935669E-1,2.144456E-2,0E0,1.0379152E0,0E0,0E0,0E0,0E0,0E0,1.0033616E0,0E0,7.3371446E-1,0E0,1.8340018E0,0E0,0E0],"parents":[2147483647,0,0,1,1,2,2,3,3,4,4,6,6,12,12,14,14,16,16],"right_children":[2,4,6,8,10,-1,12,-1,-1,-1,-1,-1,14,-1,16,-1,18,-1,-1],"split_conditions":[3.5137E-1,2.7448E-1,3.9537E-1,4.334E-1,3.0815E-1,1.6539672E-2,4.432E-1,-2.5729535E-2,4.1751107E-3,-3.4322944E-2,-1.7917378E-2,-3.092266E-2,5.0995E-1,2.0714331E-2,5.8305E-1,-2.7134815E-2,6.417E-1,2.9969811E-2,-2.1219809E-2],"split_indices":[1,1,1,0,1,0,1,0,0,0,0,0,1,0,1,0,1,0,0],"split_type":[0,0,0,0,0,0,0,0,0,0,0,0,0,0,0,0,0,0,0],"sum_hessian":[7.2E1,2.8E1,4.4E1,1.6E1,1.2E1,8E0,3.6E1,8E0,8E0,7E0,5E0,7E0,2.9E1,8E0,2.1E1,7E0,1.4E1,6E0,8E0],"tree_param":{"num_deleted":"0","num_feature":"2","num_nodes":"19","size_leaf_vector":"0"}},{"base_weights":[-1.1715004E-1,-2.4754317E-1,-3.051558E-2,-3.893431E-3,-3.0742967E-1,1.5437027E-2,-8.717958E-2,-3.9537093E-1,-1.0235496E-2,-2.8893363E-2,-4.7895317E-3,-1.905971E-2,-3.521519E-2,1.933338E-2,-1.1198597E-1,-2.5354091E-2,1.604966E-2,2.804318E-2,-1.9805156E-2],"categories":[],"categories_nodes":[],"categories_segments":[],"categories_sizes":[],"default_left":[0,0,0,0,0,0,0,0,0,0,0,0,0,0,0,0,0,0,0],"id":21,"left_children":[1,3,5,-1,7,-1,9,11,-1,-1,13,-1,-1,-1,15,-1,17,-1,-1],"loss_changes":[8.1709325E-1,3.2379413E-1,6.205892E-1,0E0,2.76793E-1,0E0,9.067863E-1,2.7329445E-2,0E0,0E0,8.732579E-1,0E0,0E0,0E0,6.422119E-1,0E0,1.6023824E0,0E0,0E0],"parents":[2147483647,0,0,1,1,2,2,4,4,6,6,7,7,10,10,14,14,16,16],"right_children":[2,4,6,-1,8,-1,10,12,-1,-1,14,-1,-1,-1,16,-1,18,-1,-1],"split_conditions":[3.5137E-1,1.7957E-1,3.9537E-1,-3.893431E-3,2.9855E-1,1.5437027E-2,4.432E-1,4.7568E-1,-1.0235496E-2,-2.8893363E-2,5.0995E-1,-1.905971E-2,-3.521519E-2,1.933338E-2,5.8305E-1,-2.5354091E-2,6.417E-1,2.804318E-2,-1.9805156E-2],"split_indices":[1,1,1,0,1,0,1,0,0,0,1,0,0,0,1,0,1,0,0],"split_type":[0,0,0,0,0,0,0,0,0,0,0,0,0,0,0,0,0,0,0],"sum_hessian":[7.2E1,2.8E1,4.4E1,7E0,2.1E1,8E0,3.6E1,1.3E1,8E0,7E0,2.9E1,6E0,7E0,8E0,2.1E1,7E0,1.4E1,6E0,8E0],"tree_param":{"num_deleted":"0","num_feature":"2","num_nodes":"19","size_leaf_vector":"0"}},{"base_weights":[-1.0945479E-1,-2.3133619E-1,-2.8476667E-2,-1.2651071E-1,-3.5062057E-1,1.4679522E-2,-2.3357889E-2,-2.3249127E-2,5.3267768E-3,-1.7560048E-2,-3.3562448E-2,-4.4889558E-2,1.9392528E-2,1.4407893E-2,-1.284121E-1,-2.6997235E-2,-1.836653E-2,1.8044487E-2,-1.871952E-2],"categories":[],"categories_nodes":[],"categories_segments":[],"categories_sizes":[],"default_left":[0,0,0,0,0,0,0,0,0,0,0,0,0,0,0,0,0,0,0],"id":22,"left_children":[1,3,5,7,9,11,-1,-1,-1,-1,-1,13,-1,-1,15,-1,17,-1,-1],"loss_changes":[7.1390235E-1,3.1825995E-1,5.540917E-1,6.3815E-1,4.1931152E-2,5.9273314E-1,0E0,0E0,0E0,0E0,0E0,6.7788404E-1,0E0,0E0,6.304178E-1,0E0,1.1378633E0,0E0,0E0],"parents":[2147483647,0,0,1,1,2,2,3,3,4,4,5,5,11,11,14,14,16,16],"right_children":[2,4,6,8,10,12,-1,-1,-1,-1,-1,14,-1,-1,16,-1,18,-1,-1],"split_conditions":[3.5137E-1,2.7448E-1,6.6956E-1,4.334E-1,5.4958E-1,5.9698E-1,-2.3357889E-2,-2.3249127E-2,5.3267768E-3,-1.7560048E-2,-3.3562448E-2,3.9537E-1,1.9392528E-2,1.4407893E-2,4.432E-1,-2.6997235E-2,5.0995E-1,1.8044487E-2,-1.871952E-2],"split_indices":[1,1,1,0,0,1,0,0,0,0,0,1,0,0,1,0,1,0,0],"split_type":[0,0,0,0,0,0,0,0,0,0,0,0,0,0,0,0,0,0,0],"sum_hessian":[7.2E1,2.8E1,4.4E1,1.6E1,1.2E1,3.9E1,5E0,8E0,8E0,7E0,5E0,3.2E1,7E0,8E0,2.4E1,7E0,1.7E1,8E0,9E0],"tree_param":{"num_deleted":"0","num_feature":"2","num_nodes":"19","size_leaf_vector":"0"}},{"base_weights":[-1.0242752E-1,-2.5317857E-1,-4.076338E-2,-2.915899E-3,-3.575515E-1,-2.6864426E-2,-2.3552372E-4,-1.670698E-2,-3.2310028E-2,6.579894E-2,-2.2833318E-1,3.1115803E-1,-3.2942098E-2,-3.2904606E-2,1.5087939E-3,1.1819224E-2,3.096501E-2,-2.9249597E-2,6.163431E-2,1.4267765E-1,-2.454522E-2,5.199372E-3,1.53357135E-2,-6.805747E-3,4.258255E-3],"categories":[],"categories_nodes":[],"categories_segments":[],"categories_sizes":[],"default_left":[0,0,0,0,0,0,0,0,0,0,0,0,0,0,0,0,0,0,0,0,0,0,0,0,0],"id":23,"left_children":[1,3,5,-1,7,-1,9,-1,-1,11,13,15,17,-1,-1,-1,-1,-1,19,21,23,-1,-1,-1,-1],"loss_changes":[6.6828287E-1,4.5580804E-1,6.817455E-1,0E0,4.226184E-2,0E0,7.3801476E-1,0E0,0E0,9.308767E-1,5.8382565E-1,1.0674822E-1,9.69562E-1,0E0,0E0,0E0,0E0,0E0,1.6414043E-1,4.0221736E-2,6.975238E-2,0E0,0E0,0E0,0E0],"parents":[2147483647,0,0,1,1,2,2,4,4,6,6,9,9,10,10,11,11,12,12,18,18,19,19,20,20],"right_children":[2,4,6,-1,8,-1,10,-1,-1,12,14,16,18,-1,-1,-1,-1,-1,20,22,24,-1,-1,-1,-1],"split_conditions":[2.9855E-1,1.7957E-1,2.9328E-1,-2.915899E-3,4.7568E-1,-2.6864426E-2,6.0974E-1,-1.670698E-2,-3.2310028E-2,4.2546E-1,6.9313E-1,3.6466E-1,3.7168E-1,-3.2904606E-2,1.5087939E-3,1.1819224E-2,3.096501E-2,-2.9249597E-2,5.0995E-1,5.3034E-1,5.9698E-1,5.199372E-3,1.53357135E-2,-6.805747E-3,4.258255E-3],"split_indices":[1,1,0,0,0,0,0,0,0,1,0,1,0,0,0,0,0,0,1,0,1,0,0,0,0],"split_type":[0,0,0,0,0,0,0,0,0,0,0,0,0,0,0,0,0,0,0,0,0,0,0,0,0],"sum_hessian":[7.2E1,2E1,5.2E1,7E0,1.3E1,5E0,4.7E1,6E0,7E0,3.7E1,1E1,1E1,2.7E1,5E0,5E0,5E0,5E0,5E0,2.2E1,1.1E1,1.1E1,6E0,5E0,6E0,5E0],"tree_param":{"num_deleted":"0","num_feature":"2","num_nodes":"25","size_leaf_vector":"0"}},{"base_weights":[-9.582314E-2,-2.3666318E-1,-3.8210616E-2,-2.7245427E-3,-3.3423635E-1,-2.5185399E-2,-2.1522523E-4,-2.979992E-2,-1.3791484E-2,6.1693553E-2,-2.1406235E-1,2.9171067E-1,-3.0873653E-2,-3.084807E-2,1.4144947E-3,1.1080521E-2,2.9029697E-2,-2.7421499E-2,5.7793804E-2,1.3368809E-1,-2.2916624E-2,4.8651267E-3,1.4377232E-2,-6.3682343E-3,3.9921133E-3],"categories":[],"categories_nodes":[],"categories_segments":[],"categories_sizes":[],"default_left":[0,0,0,0,0,0,0,0,0,0,0,0,0,0,0,0,0,0,0,0,0,0,0,0,0],"id":24,"left_children":[1,3,5,-1,7,-1,9,-1,-1,11,13,15,17,-1,-1,-1,-1,-1,19,21,23,-1,-1,-1,-1],"loss_changes":[5.8329E-1,3.983537E-1,5.992107E-1,0E0,5.9746504E-2,0E0,6.4867896E-1,0E0,0E0,8.181038E-1,5.131281E-1,9.3821645E-2,8.522015E-1,0E0,0E0,0E0,0E0,0E0,1.4394924E-1,3.547038E-2,6.116508E-2,0E0,0E0,0E0,0E0],"parents":[2147483647,0,0,1,1,2,2,4,4,6,6,9,9,10,10,11,11,12,12,18,18,19,19,20,20],"right_children":[2,4,6,-1,8,-1,10,-1,-1,12,14,16,18,-1,-1,-1,-1,-1,20,22,24,-1,-1,-1,-1],"split_conditions":[2.9855E-1,1.7957E-1,2.9328E-1,-2.7245427E-3,5.2988E-1,-2.5185399E-2,6.0974E-1,-2.979992E-2,-1.3791484E-2,4.2546E-1,6.9313E-1,3.6466E-1,3.7168E-1,-3.084807E-2,1.4144947E-3,1.1080521E-2,2.9029697E-2,-2.7421499E-2,5.0995E-1,5.3034E-1,5.9698E-1,4.8651267E-3,1.4377232E-2,-6.3682343E-3,3.9921133E-3],"split_indices":[1,1,0,0,0,0,0,0,0,1,0,1,0,0,0,0,0,0,1,0,1,0,0,0,0],"split_type":[0,0,0,0,0,0,0,0,0,0,0,0,0,0,0,0,0,0,0,0,0,0,0,0,0],"sum_hessian":[7.2E1,2E1,5.2E1,7E0,1.3E1,5E0,4.7E1,8E0,5E0,3.7E1,1E1,1E1,2.7E1,5E0,5E0,5E0,5E0,5E0,2.2E1,1.1E1,1.1E1,6E0,5E0,6E0,5E0],"tree_param":{"num_deleted":"0","num_feature":"2","num_nodes":"25","size_leaf_vector":"0"}},{"base_weights":[-8.961421E-2,-2.2111896E-1,-3.5817727E-2,-2.937939E-1,7.1505236E-4,-2.361131E-2,-1.9656029E-4,-4.3186443E-3,-3.2232217E-2,6.8246536E-2,-1.7129026E-1,2.2505712E-2,-2.3543572E-2,-2.0867921E-2,1.3260874E-3,-2.5707657E-2,6.8784736E-2,1.1112204E-2,1.8512702E-2,-1.1705872E-2,9.963729E-3],"categories":[],"categories_nodes":[],"categories_segments":[],"categories_sizes":[],"default_left":[0,0,0,0,0,0,0,0,0,0,0,0,0,0,0,0,0,0,0,0,0],"id":25,"left_children":[1,3,5,7,-1,-1,9,-1,-1,11,13,-1,15,-1,-1,-1,17,-1,19,-1,-1],"loss_changes":[5.0851804E-1,3.548175E-1,5.2666783E-1,4.8913348E-1,0E0,0E0,5.7377875E-1,0E0,0E0,7.518532E-1,2.878631E-1,0E0,7.898888E-1,0E0,0E0,0E0,8.105745E-2,0E0,3.0020595E-1,0E0,0E0],"parents":[2147483647,0,0,1,1,2,2,3,3,6,6,9,9,10,10,12,12,16,16,18,18],"right_children":[2,4,6,8,-1,-1,10,-1,-1,12,14,-1,16,-1,-1,-1,18,-1,20,-1,-1],"split_conditions":[2.9855E-1,6.1448E-1,2.9328E-1,1.7957E-1,7.1505236E-4,-2.361131E-2,5.9612E-1,-4.3186443E-3,-3.2232217E-2,4.2546E-1,6.9313E-1,2.2505712E-2,3.7168E-1,-2.0867921E-2,1.3260874E-3,-2.5707657E-2,4.5998E-1,1.1112204E-2,5.0974E-1,-1.1705872E-2,9.963729E-3],"split_indices":[1,0,0,1,0,0,0,0,0,1,0,0,0,0,0,0,0,0,0,0,0],"split_type":[0,0,0,0,0,0,0,0,0,0,0,0,0,0,0,0,0,0,0,0,0],"sum_hessian":[7.2E1,2E1,5.2E1,1.5E1,5E0,5E0,4.7E1,6E0,9E0,3.4E1,1.3E1,9E0,2.5E1,8E0,5E0,5E0,2E1,7E0,1.3E1,5E0,8E0],"tree_param":{"num_deleted":"0","num_feature":"2","num_nodes":"21","size_leaf_vector":"0"}},{"base_weights":[-8.38907E-2,-2.0624149E-1,-3.382924E-2,-2.7404377E-1,6.703615E-4,-2.2135604E-2,-4.6044463E-4,-4.0410166E-3,-3.0056542E-2,5.4939672E-2,-1.918008E-1,1.133758E-1,-1.6503409E-2,-2.761582E-2,1.2432071E-3,2.5696206E-1,3.6429226E-2,8.981382E-3,2.6350902E-2,-1.8286237E-2,1.3319659E-1,2.3262693E-2,-1.6275888E-3],"categories":[],"categories_nodes":[],"categories_segments":[],"categories_sizes":[],"default_left":[0,0,0,0,0,0,0,0,0,0,0,0,0,0,0,0,0,0,0,0,0,0,0],"id":26,"left_children":[1,3,5,7,-1,-1,9,-1,-1,11,13,15,-1,-1,-1,17,19,-1,-1,-1,21,-1,-1],"loss_changes":[4.401523E-1,3.088326E-1,4.6200663E-1,4.2475843E-1,0E0,0E0,5.193508E-1,0E0,0E0,6.3557225E-1,4.1046122E-1,3.4419015E-1,0E0,0E0,0E0,1.00379765E-1,6.290855E-1,0E0,0E0,0E0,4.7274637E-1,0E0,0E0],"parents":[2147483647,0,0,1,1,2,2,3,3,6,6,9,9,10,10,11,11,15,15,16,16,20,20],"right_children":[2,4,6,8,-1,-1,10,-1,-1,12,14,16,-1,-1,-1,18,20,-1,-1,-1,22,-1,-1],"split_conditions":[2.9855E-1,6.1448E-1,2.9328E-1,1.7957E-1,6.703615E-4,-2.2135604E-2,6.0974E-1,-4.0410166E-3,-3.0056542E-2,6.417E-1,6.9313E-1,4.2546E-1,-1.6503409E-2,-2.761582E-2,1.2432071E-3,3.6466E-1,4.4706E-1,8.981382E-3,2.6350902E-2,-1.8286237E-2,4.5998E-1,2.3262693E-2,-1.6275888E-3],"split_indices":[1,0,0,1,0,0,0,0,0,1,0,1,0,0,0,1,1,0,0,0,0,0,0],"split_type":[0,0,0,0,0,0,0,0,0,0,0,0,0,0,0,0,0,0,0,0,0,0,0],"sum_hessian":[7.2E1,2E1,5.2E1,1.5E1,5E0,5E0,4.7E1,6E0,9E0,3.7E1,1E1,3.1E1,6E0,5E0,5E0,1E1,2.1E1,5E0,5E0,5E0,1.6E1,7E0,9E0],"tree_param":{"num_deleted":"0","num_feature":"2","num_nodes":"23","size_leaf_vector":"0"}},{"base_weights":[-7.8417495E-2,-1.376332E-1,1.1046114E-2,-9.1577314E-2,-3.1054322E-2,9.777696E-2,-1.5164248E-2,-1.6534612E-1,1.1122928E-1,-2.2458714E-2,2.6897492E-2,-6.567777E-2,-2.829627E-1,1.8197903E-2,-2.903878E-3,1.5102218E-2,-2.03588E-2,-1.7605992E-2,8.301641E-3,-2.7648581E-2,-1.3749644E-2],"categories":[],"categories_nodes":[],"categories_segments":[],"categories_sizes":[],"default_left":[0,0,0,0,0,0,0,0,0,0,0,0,0,0,0,0,0,0,0,0,0],"id":27,"left_children":[1,3,5,7,-1,9,-1,11,13,15,-1,17,19,-1,-1,-1,-1,-1,-1,-1,-1],"loss_changes":[3.882488E-1,5.2224433E-1,5.7459384E-1,6.018625E-1,0E0,6.980674E-1,0E0,3.2137245E-1,2.261445E-1,9.4633657E-1,0E0,5.328903E-1,4.3399215E-2,0E0,0E0,0E0,0E0,0E0,0E0,0E0,0E0],"parents":[2147483647,0,0,1,1,2,2,3,3,5,5,7,7,8,8,9,9,11,11,12,12],"right_children":[2,4,6,8,-1,10,-1,12,14,16,-1,18,20,-1,-1,-1,-1,-1,-1,-1,-1],"split_conditions":[4.432E-1,4.2546E-1,6.417E-1,3.5137E-1,-3.1054322E-2,5.8305E-1,-1.5164248E-2,2.7448E-1,5.3641E-1,5.0995E-1,2.6897492E-2,4.334E-1,5.2988E-1,1.8197903E-2,-2.903878E-3,1.5102218E-2,-2.03588E-2,-1.7605992E-2,8.301641E-3,-2.7648581E-2,-1.3749644E-2],"split_indices":[1,1,1,1,0,1,0,1,0,1,0,0,0,0,0,0,0,0,0,0,0],"split_type":[0,0,0,0,0,0,0,0,0,0,0,0,0,0,0,0,0,0,0,0,0],"sum_hessian":[7.2E1,4.3E1,2.9E1,3.8E1,5E0,2.1E1,8E0,2.8E1,1E1,1.5E1,6E0,1.6E1,1.2E1,5E0,5E0,8E0,7E0,8E0,8E0,5E0,7E0],"tree_param":{"num_deleted":"0","num_feature":"2","num_nodes":"21","size_leaf_vector":"0"}},{"base_weights":[-7.335791E-2,-1.8487795E-1,-2.7786616E-2,-6.572286E-2,-2.320322E-2,-1.9645723E-2,2.061815E-3,-9.649269E-3,-1.7928013E-4,5.2540876E-2,-1.7250784E-1,2.410759E-1,-2.3402913E-2,-2.5065752E-2,1.345924E-3,9.317562E-3,2.3830375E-2,-2.3946485E-2,5.480161E-2,1.2081143E-1,-1.5775016E-2,4.053551E-3,1.3392573E-2,-6.473046E-3,5.185634E-3],"categories":[],"categories_nodes":[],"categories_segments":[],"categories_sizes":[],"default_left":[0,0,0,0,0,0,0,0,0,0,0,0,0,0,0,0,0,0,0,0,0,0,0,0,0],"id":28,"left_children":[1,3,5,7,-1,-1,9,-1,-1,11,13,15,17,-1,-1,-1,-1,-1,19,21,23,-1,-1,-1,-1],"loss_changes":[3.6585706E-1,2.9119378E-1,3.709677E-1,4.7521677E-2,0E0,0E0,4.320451E-1,0E0,0E0,5.497283E-1,3.4476176E-1,5.9057176E-2,6.654014E-1,0E0,0E0,0E0,0E0,0E0,1.0905707E-1,3.6621377E-2,7.783992E-2,0E0,0E0,0E0,0E0],"parents":[2147483647,0,0,1,1,2,2,3,3,6,6,9,9,10,10,11,11,12,12,18,18,19,19,20,20],"right_children":[2,4,6,8,-1,-1,10,-1,-1,12,14,16,18,-1,-1,-1,-1,-1,20,22,24,-1,-1,-1,-1],"split_conditions":[2.9855E-1,4.8558E-1,2.9328E-1,3.3036E-1,-2.320322E-2,-1.9645723E-2,6.0974E-1,-9.649269E-3,-1.7928013E-4,4.2546E-1,6.9313E-1,3.6466E-1,3.7168E-1,-2.5065752E-2,1.345924E-3,9.317562E-3,2.3830375E-2,-2.3946485E-2,5.0995E-1,5.3034E-1,5.9698E-1,4.053551E-3,1.3392573E-2,-6.473046E-3,5.185634E-3],"split_indices":[1,0,0,0,0,0,0,0,0,1,0,1,0,0,0,0,0,0,1,0,1,0,0,0,0],"split_type":[0,0,0,0,0,0,0,0,0,0,0,0,0,0,0,0,0,0,0,0,0,0,0,0,0],"sum_hessian":[7.2E1,2E1,5.2E1,1.1E1,9E0,5E0,4.7E1,5E0,6E0,3.7E1,1E1,1E1,2.7E1,5E0,5E0,5E0,5E0,5E0,2.2E1,1.1E1,1.1E1,6E0,5E0,6E0,5E0],"tree_param":{"num_deleted":"0","num_feature":"2","num_nodes":"25","size_leaf_vector":"0"}},{"base_weights":[-6.8555206E-2,9.354119E-2,-9.576958E-2,1.2958804E-3,1.1566034E-2,-4.123115E-2,-4.7155023E-2,-1.5312305E-1,1.712746E-2,-7.6468918E-3,-2.4519734E-2,1.6627891E-2,-2.9620014E-2,-1.1020412E-2,7.3333434E-3,-2.1011794E-2,4.1715205E-2,1.3513864E-2,-3.4046084E-2,-1.8638266E-2,7.914464E-3],"categories":[],"categories_nodes":[],"categories_segments":[],"categories_sizes":[],"default_left":[0,0,0,0,0,0,0,0,0,0,0,0,0,0,0,0,0,0,0,0,0],"id":29,"left_children":[1,3,5,-1,-1,-1,7,9,11,13,-1,-1,15,-1,-1,-1,17,-1,19,-1,-1],"loss_changes":[3.30987E-1,4.823309E-2,1.364486E0,0E0,0E0,0E0,3.9771214E-1,5.5376416E-1,3.604161E-1,2.0527008E-1,0E0,0E0,5.657227E-1,0E0,0E0,0E0,2.6840052E-1,0E0,5.350895E-1,0E0,0E0],"parents":[2147483647,0,0,1,1,2,2,6,6,7,7,8,8,9,9,12,12,16,16,18,18],"right_children":[2,4,6,-1,-1,-1,8,10,12,14,-1,-1,16,-1,-1,-1,18,-1,20,-1,-1],"split_conditions":[3.1741E-1,2.8855E-1,3.3776E-1,1.2958804E-3,1.1566034E-2,-4.123115E-2,3.5137E-1,2.7448E-1,3.9201E-1,4.7568E-1,-2.4519734E-2,1.6627891E-2,4.432E-1,-1.1020412E-2,7.3333434E-3,-2.1011794E-2,5.0995E-1,1.3513864E-2,5.7236E-1,-1.8638266E-2,7.914464E-3],"split_indices":[0,0,0,0,0,0,1,1,1,0,0,0,1,0,0,0,1,0,1,0,0],"split_type":[0,0,0,0,0,0,0,0,0,0,0,0,0,0,0,0,0,0,0,0,0],"sum_hessian":[7.2E1,1E1,6.2E1,5E0,5E0,5E0,5.7E1,2.1E1,3.6E1,1.2E1,9E0,6E0,3E1,5E0,7E0,6E0,2.4E1,8E0,1.6E1,6E0,1E1],"tree_param":{"num_deleted":"0","num_feature":"2","num_nodes":"21","size_leaf_vector":"0"}},{"base_weights":[-6.421042E-2,-1.1562786E-1,1.3342176E-2,-7.3157065E-2,-2.7931256E-2,9.1491595E-2,-1.3437916E-2,-1.3252145E-1,8.999968E-2,-2.0984376E-2,2.5163198E-2,-4.335463E-2,-2.3893024E-1,1.5800765E-2,-3.4258077E-3,1.1254204E-2,-1.9674756E-2,-1.47173125E-2,8.575406E-3,-2.4699194E-2,-1.05952285E-2],"categories":[],"categories_nodes":[],"categories_segments":[],"categories_sizes":[],"default_left":[0,0,0,0,0,0,0,0,0,0,0,0,0,0,0,0,0,0,0,0,0],"id":30,"left_children":[1,3,5,7,-1,9,-1,11,13,15,-1,17,19,-1,-1,-1,-1,-1,-1,-1,-1],"loss_changes":[2.9263434E-1,4.5262033E-1,4.677394E-1,3.8966912E-1,0E0,6.108553E-1,0E0,2.6479715E-1,1.8972757E-1,6.9984215E-1,0E0,4.3226534E-1,6.82376E-2,0E0,0E0,0E0,0E0,0E0,0E0,0E0,0E0],"parents":[2147483647,0,0,1,1,2,2,3,3,5,5,7,7,8,8,9,9,11,11,12,12],"right_children":[2,4,6,8,-1,10,-1,12,14,16,-1,18,20,-1,-1,-1,-1,-1,-1,-1,-1],"split_conditions":[4.432E-1,4.2546E-1,6.417E-1,3.5137E-1,-2.7931256E-2,5.8305E-1,-1.3437916E-2,2.7448E-1,5.3641E-1,5.1093E-1,2.5163198E-2,4.334E-1,5.2988E-1,1.5800765E-2,-3.4258077E-3,1.1254204E-2,-1.9674756E-2,-1.47173125E-2,8.575406E-3,-2.4699194E-2,-1.05952285E-2],"split_indices":[1,1,1,1,0,1,0,1,0,1,0,0,0,0,0,0,0,0,0,0,0],"split_type":[0,0,0,0,0,0,0,0,0,0,0,0,0,0,0,0,0,0,0,0,0],"sum_hessian":[7.2E1,4.3E1,2.9E1,3.8E1,5E0,2.1E1,8E0,2.8E1,1E1,1.5E1,6E0,1.6E1,1.2E1,5E0,5E0,9E0,6E0,8E0,8E0,5E0,7E0],"tree_param":{"num_deleted":"0","num_feature":"2","num_nodes":"21","size_leaf_vector":"0"}},{"base_weights":[-6.0130086E-2,9.264878E-2,-8.585131E-2,2.0647605E-3,1.0674448E-2,-3.7766352E-2,-4.1160766E-2,-1.741942E-1,9.297275E-3,7.9103676E-4,-2.1457031E-2,7.430651E-2,-1.3067232E-1,2.0424988E-2,2.1969469E-3,-1.5955929E-2,1.0662361E-3,-1.7287001E-2,7.963832E-2,-1.0382202E-3,1.7138626E-2],"categories":[],"categories_nodes":[],"categories_segments":[],"categories_sizes":[],"default_left":[0,0,0,0,0,0,0,0,0,0,0,0,0,0,0,0,0,0,0,0,0],"id":31,"left_children":[1,3,5,-1,-1,-1,7,9,11,-1,-1,13,15,-1,17,-1,-1,-1,19,-1,-1],"loss_changes":[2.948192E-1,3.1665765E-2,1.1553097E0,0E0,0E0,0E0,3.9095074E-1,3.3377707E-1,4.009804E-1,0E0,0E0,4.277902E-1,1.6950569E-1,0E0,4.3281275E-1,0E0,0E0,0E0,2.5367254E-1,0E0,0E0],"parents":[2147483647,0,0,1,1,2,2,6,6,7,7,8,8,11,11,12,12,14,14,18,18],"right_children":[2,4,6,-1,-1,-1,8,10,12,-1,-1,14,16,-1,18,-1,-1,-1,20,-1,-1],"split_conditions":[3.1741E-1,2.8855E-1,3.3776E-1,2.0647605E-3,1.0674448E-2,-3.7766352E-2,2.9855E-1,4.8558E-1,5.9612E-1,7.9103676E-4,-2.1457031E-2,3.7894E-1,6.9313E-1,2.0424988E-2,4.432E-1,-1.5955929E-2,1.0662361E-3,-1.7287001E-2,5.0974E-1,-1.0382202E-3,1.7138626E-2],"split_indices":[0,0,0,0,0,0,1,0,0,0,0,1,0,0,1,0,0,0,0,0,0],"split_type":[0,0,0,0,0,0,0,0,0,0,0,0,0,0,0,0,0,0,0,0,0],"sum_hessian":[7.2E1,1E1,6.2E1,5E0,5E0,5E0,5.7E1,1.5E1,4.2E1,6E0,9E0,2.9E1,1.3E1,7E0,2.2E1,8E0,5E0,5E0,1.7E1,1.1E1,6E0],"tree_param":{"num_deleted":"0","num_feature":"2","num_nodes":"21","size_leaf_vector":"0"}},{"base_weights":[-5.6186687E-2,8.6858235E-2,-8.027093E-2,1.9357128E-3,1.0007296E-2,-3.540596E-2,-3.8355038E-2,-1.6242126E-1,8.701117E-3,-2.5675833E-1,2.820017E-3,6.937481E-2,-1.2193544E-1,-9.7524E-3,-2.555187E-2,1.9084603E-2,1.9805871E-3,-1.4892201E-2,9.99597E-4,-1.6206563E-2,7.455991E-2,-9.668436E-4,1.6036859E-2],"categories":[],"categories_nodes":[],"categories_segments":[],"categories_sizes":[],"default_left":[0,0,0,0,0,0,0,0,0,0,0,0,0,0,0,0,0,0,0,0,0,0,0],"id":32,"left_children":[1,3,5,-1,-1,-1,7,9,11,13,-1,15,17,-1,-1,-1,19,-1,-1,-1,21,-1,-1],"loss_changes":[2.5846657E-1,2.7831241E-2,1.0165426E0,0E0,0E0,0E0,3.4002188E-1,3.115652E-1,3.4928593E-1,7.2701216E-2,0E0,3.7370893E-1,1.4775448E-1,0E0,0E0,0E0,3.8013786E-1,0E0,0E0,0E0,2.2197619E-1,0E0,0E0],"parents":[2147483647,0,0,1,1,2,2,6,6,7,7,8,8,9,9,11,11,12,12,16,16,20,20],"right_children":[2,4,6,-1,-1,-1,8,10,12,14,-1,16,18,-1,-1,-1,20,-1,-1,-1,22,-1,-1],"split_conditions":[3.1741E-1,2.8855E-1,3.3776E-1,1.9357128E-3,1.0007296E-2,-3.540596E-2,2.9855E-1,6.1448E-1,5.9612E-1,4.7568E-1,2.820017E-3,3.7894E-1,6.9313E-1,-9.7524E-3,-2.555187E-2,1.9084603E-2,4.432E-1,-1.4892201E-2,9.99597E-4,-1.6206563E-2,5.0974E-1,-9.668436E-4,1.6036859E-2],"split_indices":[0,0,0,0,0,0,1,0,0,0,0,1,0,0,0,0,1,0,0,0,0,0,0],"split_type":[0,0,0,0,0,0,0,0,0,0,0,0,0,0,0,0,0,0,0,0,0,0,0],"sum_hessian":[7.2E1,1E1,6.2E1,5E0,5E0,5E0,5.7E1,1.5E1,4.2E1,1E1,5E0,2.9E1,1.3E1,5E0,5E0,7E0,2.2E1,8E0,5E0,5E0,1.7E1,1.1E1,6E0],"tree_param":{"num_deleted":"0","num_feature":"2","num_nodes":"23","size_leaf_vector":"0"}},{"base_weights":[-5.2683536E-2,8.1429586E-2,-7.5263865E-2,1.8147303E-3,9.381838E-3,-3.319309E-2,-3.596856E-2,-1.5226993E-1,8.142846E-3,1.5364048E-3,-1.9347876E-2,5.6435134E-2,-1.3747427E-1,1.7832175E-2,-1.5284327E-3,-1.9839834E-2,9.3712116E-4,-1.3036617E-2,5.8850583E-2,1.1064E-2,-9.416776E-4],"categories":[],"categories_nodes":[],"categories_segments":[],"categories_sizes":[],"default_left":[0,0,0,0,0,0,0,0,0,0,0,0,0,0,0,0,0,0,0,0,0],"id":33,"left_children":[1,3,5,-1,-1,-1,7,9,11,-1,-1,13,15,-1,17,-1,-1,-1,19,-1,-1],"loss_changes":[2.2719595E-1,2.4461053E-2,8.9339685E-1,0E0,0E0,0E0,2.987925E-1,2.9745328E-1,3.1014225E-1,0E0,0E0,3.4720564E-1,2.1290609E-1,0E0,2.8070462E-1,0E0,0E0,0E0,1.284833E-1,0E0,0E0],"parents":[2147483647,0,0,1,1,2,2,6,6,7,7,8,8,11,11,12,12,14,14,18,18],"right_children":[2,4,6,-1,-1,-1,8,10,12,-1,-1,14,16,-1,18,-1,-1,-1,20,-1,-1],"split_conditions":[3.1741E-1,2.8855E-1,3.3776E-1,1.8147303E-3,9.381838E-3,-3.319309E-2,2.9855E-1,4.8558E-1,6.0974E-1,1.5364048E-3,-1.9347876E-2,3.7894E-1,6.9313E-1,1.7832175E-2,4.432E-1,-1.9839834E-2,9.3712116E-4,-1.3036617E-2,5.0995E-1,1.1064E-2,-9.416776E-4],"split_indices":[0,0,0,0,0,0,1,0,0,0,0,1,0,0,1,0,0,0,1,0,0],"split_type":[0,0,0,0,0,0,0,0,0,0,0,0,0,0,0,0,0,0,0,0,0],"sum_hessian":[7.2E1,1E1,6.2E1,5E0,5E0,5E0,5.7E1,1.5E1,4.2E1,6E0,9E0,3.2E1,1E1,7E0,2.5E1,5E0,5E0,6E0,1.9E1,8E0,1.1E1],"tree_param":{"num_deleted":"0","num_feature":"2","num_nodes":"21","size_leaf_vector":"0"}},{"base_weights":[-4.9332175E-2,-7.4189074E-2,7.109884E-2,-3.9030794E-2,-1.8943255E-1,2.4996385E-2,-1.0082116E-2,-8.221152E-2,6.1447565E-2,-7.3115027E-4,-2.1613032E-2,-2.3398038E-2,-2.6458107E-2,1.3051049E-2,-9.1777765E-4,-9.057503E-2,1.8690722E-2,-1.349537E-1,4.8789913E-3,-1.0413816E-3,-2.2476554E-2],"categories":[],"categories_nodes":[],"categories_segments":[],"categories_sizes":[],"default_left":[0,0,0,0,0,0,0,0,0,0,0,0,0,0,0,0,0,0,0,0,0],"id":34,"left_children":[1,3,5,7,9,-1,-1,11,13,-1,-1,15,-1,-1,-1,17,-1,19,-1,-1,-1],"loss_changes":[2.2380331E-1,2.397638E-1,7.4532574E-1,2.1331066E-1,2.4558151E-1,0E0,0E0,5.3277975E-1,1.2654556E-1,0E0,0E0,5.5364805E-1,0E0,0E0,0E0,1.7453693E-1,0E0,3.7477627E-1,0E0,0E0,0E0],"parents":[2147483647,0,0,1,1,2,2,3,3,4,4,7,7,8,8,11,11,15,15,17,17],"right_children":[2,4,6,8,10,-1,-1,12,14,-1,-1,16,-1,-1,-1,18,-1,20,-1,-1,-1],"split_conditions":[5.9698E-1,6.0974E-1,6.4269E-1,5.3034E-1,2.7757E-1,2.4996385E-2,-1.0082116E-2,4.8622E-1,5.4875E-1,-7.3115027E-4,-2.1613032E-2,4.5741E-1,-2.6458107E-2,1.3051049E-2,-9.1777765E-4,4.3944E-1,1.8690722E-2,3.4516E-1,4.8789913E-3,-1.0413816E-3,-2.2476554E-2],"split_indices":[1,0,1,0,1,0,0,0,0,0,0,0,0,0,0,1,0,0,0,0,0],"split_type":[0,0,0,0,0,0,0,0,0,0,0,0,0,0,0,0,0,0,0,0,0],"sum_hessian":[7.2E1,6E1,1.2E1,4.7E1,1.3E1,5E0,7E0,3.3E1,1.4E1,5E0,8E0,2.8E1,5E0,5E0,9E0,2.3E1,5E0,1.8E1,5E0,1.1E1,7E0],"tree_param":{"num_deleted":"0","num_feature":"2","num_nodes":"21","size_leaf_vector":"0"}},{"base_weights":[-4.592956E-2,-6.922518E-2,6.691368E-2,-3.6400836E-2,-1.7682111E-1,2.343411E-2,-9.420477E-3,-1.3125356E-1,6.5165632E-3,-6.854533E-4,-2.0172162E-2,5.7051575E-4,-1.6850429E-2,-1.8287662E-2,5.8088828E-2,1.9723988E-1,-2.5529614E-2,7.0706136E-3,2.004987E-2,-1.108958E-2,2.8721696E-2,1.2721848E-2,-5.130367E-3],"categories":[],"categories_nodes":[],"categories_segments":[],"categories_sizes":[],"default_left":[0,0,0,0,0,0,0,0,0,0,0,0,0,0,0,0,0,0,0,0,0,0,0],"id":35,"left_children":[1,3,5,7,9,-1,-1,11,13,-1,-1,-1,-1,-1,15,17,19,-1,-1,-1,21,-1,-1],"loss_changes":[1.9653106E-1,2.0900124E-1,6.537768E-1,1.9625525E-1,2.1384695E-1,0E0,0E0,1.9629174E-1,4.5314565E-1,0E0,0E0,0E0,0E0,0E0,3.4246773E-1,5.4184318E-2,1.3034302E-1,0E0,0E0,0E0,2.0319904E-1,0E0,0E0],"parents":[2147483647,0,0,1,1,2,2,3,3,4,4,7,7,8,8,14,14,15,15,16,16,20,20],"right_children":[2,4,6,8,10,-1,-1,12,14,-1,-1,-1,-1,-1,16,18,20,-1,-1,-1,22,-1,-1],"split_conditions":[5.9698E-1,6.0974E-1,6.4269E-1,2.9855E-1,2.7757E-1,2.343411E-2,-9.420477E-3,1.7957E-1,2.9328E-1,-6.854533E-4,-2.0172162E-2,5.7051575E-4,-1.6850429E-2,-1.8287662E-2,4.2546E-1,3.6466E-1,4.4706E-1,7.0706136E-3,2.004987E-2,-1.108958E-2,4.5998E-1,1.2721848E-2,-5.130367E-3],"split_indices":[1,0,1,1,1,0,0,1,0,0,0,0,0,0,1,1,1,0,0,0,0,0,0],"split_type":[0,0,0,0,0,0,0,0,0,0,0,0,0,0,0,0,0,0,0,0,0,0,0],"sum_hessian":[7.2E1,6E1,1.2E1,4.7E1,1.3E1,5E0,7E0,1.4E1,3.3E1,5E0,8E0,6E0,8E0,5E0,2.8E1,1E1,1.8E1,5E0,5E0,5E0,1.3E1,5E0,8E0],"tree_param":{"num_deleted":"0","num_feature":"2","num_nodes":"23","size_leaf_vector":"0"}},{"base_weights":[-4.272853E-2,7.572369E-2,-6.273243E-2,2.5996426E-3,7.8123654E-3,-3.0177774E-2,-2.6515882E-2,-5.1131953E-2,1.0029454E-2,-7.8168055E-3,-1.6504936E-1,-1.2344718E-2,4.6514608E-2,-6.426124E-4,-1.882735E-2,1.5956158E-2,-1.6048469E-2,-1.1568393E-2,3.406173E-3],"categories":[],"categories_nodes":[],"categories_segments":[],"categories_sizes":[],"default_left":[0,0,0,0,0,0,0,0,0,0,0,0,0,0,0,0,0,0,0],"id":36,"left_children":[1,3,5,-1,-1,-1,7,9,-1,11,13,-1,15,-1,-1,-1,17,-1,-1],"loss_changes":[1.777243E-1,9.235747E-3,7.642629E-1,0E0,0E0,0E0,2.3562022E-1,2.5036162E-1,0E0,3.3134192E-1,1.8621299E-1,0E0,3.0501774E-1,0E0,0E0,0E0,1.9387624E-1,0E0,0E0],"parents":[2147483647,0,0,1,1,2,2,6,6,7,7,9,9,10,10,12,12,16,16],"right_children":[2,4,6,-1,-1,-1,8,10,-1,12,14,-1,16,-1,-1,-1,18,-1,-1],"split_conditions":[3.1741E-1,2.8855E-1,3.3776E-1,2.5996426E-3,7.8123654E-3,-3.0177774E-2,6.0787E-1,6.0974E-1,1.0029454E-2,2.9855E-1,2.7757E-1,-1.2344718E-2,3.7894E-1,-6.426124E-4,-1.882735E-2,1.5956158E-2,4.432E-1,-1.1568393E-2,3.406173E-3],"split_indices":[0,0,0,0,0,0,1,0,0,1,1,0,1,0,0,0,1,0,0],"split_type":[0,0,0,0,0,0,0,0,0,0,0,0,0,0,0,0,0,0,0],"sum_hessian":[7.2E1,1E1,6.2E1,5E0,5E0,5E0,5.7E1,5E1,7E0,3.7E1,1.3E1,9E0,2.8E1,5E0,8E0,7E0,2.1E1,6E0,1.5E1],"tree_param":{"num_deleted":"0","num_feature":"2","num_nodes":"19","size_leaf_vector":"0"}},{"base_weights":[-3.9986312E-2,-6.079951E-2,6.0751475E-2,-3.233148E-2,-1.5406136E-1,2.1480856E-2,-8.706557E-3,-6.85521E-2,5.1924024E-2,-6.0244894E-4,-1.7572194E-2,-1.4858975E-2,-2.3748266E-2,1.1687734E-2,-1.1711871E-3,-7.71166E-2,1.7748604E-2,-1.14099935E-1,3.963754E-3,-1.9977214E-4,-2.0024395E-2],"categories":[],"categories_nodes":[],"categories_segments":[],"categories_sizes":[],"default_left":[0,0,0,0,0,0,0,0,0,0,0,0,0,0,0,0,0,0,0,0,0],"id":37,"left_children":[1,3,5,7,9,-1,-1,11,13,-1,-1,15,-1,-1,-1,17,-1,19,-1,-1,-1],"loss_changes":[1.5675098E-1,1.5697283E-1,5.5201966E-1,1.5004528E-1,1.6214961E-1,0E0,0E0,4.4820234E-1,1.0770696E-1,0E0,0E0,4.7233817E-1,0E0,0E0,0E0,1.2138857E-1,0E0,3.2300544E-1,0E0,0E0,0E0],"parents":[2147483647,0,0,1,1,2,2,3,3,4,4,7,7,8,8,11,11,15,15,17,17],"right_children":[2,4,6,8,10,-1,-1,12,14,-1,-1,16,-1,-1,-1,18,-1,20,-1,-1,-1],"split_conditions":[5.9698E-1,6.0974E-1,6.4269E-1,5.3034E-1,2.7757E-1,2.1480856E-2,-8.706557E-3,4.8622E-1,5.4875E-1,-6.0244894E-4,-1.7572194E-2,4.5741E-1,-2.3748266E-2,1.1687734E-2,-1.1711871E-3,4.3944E-1,1.7748604E-2,3.4516E-1,3.963754E-3,-1.9977214E-4,-2.0024395E-2],"split_indices":[1,0,1,0,1,0,0,0,0,0,0,0,0,0,0,1,0,0,0,0,0],"split_type":[0,0,0,0,0,0,0,0,0,0,0,0,0,0,0,0,0,0,0,0,0],"sum_hessian":[7.2E1,6E1,1.2E1,4.7E1,1.3E1,5E0,7E0,3.3E1,1.4E1,5E0,8E0,2.8E1,5E0,5E0,9E0,2.3E1,5E0,1.8E1,5E0,1.1E1,7E0],"tree_param":{"num_deleted":"0","num_feature":"2","num_nodes":"21","size_leaf_vector":"0"}},{"base_weights":[-3.7222188E-2,-5.5842653E-2,6.2085398E-2,-3.5505228E-2,-1.2874684E-2,1.8423272E-2,-1.2181007E-2,4.913825E-2,-6.35419E-2,-7.73298E-3,2.0198664E-2,-2.0690896E-2,-1.1711446E-2,1.2057466E-2,-6.2382184E-2,-2.9506037E-2,3.0734722E-2,1.5040405E-2,-3.4106586E-3],"categories":[],"categories_nodes":[],"categories_segments":[],"categories_sizes":[],"default_left":[0,0,0,0,0,0,0,0,0,0,0,0,0,0,0,0,0,0,0],"id":38,"left_children":[1,3,5,7,-1,-1,-1,9,11,-1,-1,-1,13,-1,15,-1,17,-1,-1],"loss_changes":[1.3845521E-1,1.399446E-1,5.343991E-1,1.3127092E-1,0E0,0E0,0E0,4.9705952E-1,4.4799483E-1,0E0,0E0,0E0,3.0717432E-1,0E0,8.443567E-1,0E0,2.93817E-1,0E0,0E0],"parents":[2147483647,0,0,1,1,2,2,3,3,7,7,8,8,12,12,14,14,16,16],"right_children":[2,4,6,8,-1,-1,-1,10,12,-1,-1,-1,14,-1,16,-1,18,-1,-1],"split_conditions":[6.0787E-1,6.3497E-1,6.6956E-1,2.7448E-1,-1.2874684E-2,1.8423272E-2,-1.2181007E-2,4.334E-1,3.1107E-1,-7.73298E-3,2.0198664E-2,-2.0690896E-2,3.7894E-1,1.2057466E-2,3.7168E-1,-2.9506037E-2,4.5998E-1,1.5040405E-2,-3.4106586E-3],"split_indices":[1,0,1,1,0,0,0,0,1,0,0,0,1,0,0,0,0,0,0],"split_type":[0,0,0,0,0,0,0,0,0,0,0,0,0,0,0,0,0,0,0],"sum_hessian":[7.2E1,6.1E1,1.1E1,5.3E1,8E0,6E0,5E0,1.3E1,4E1,8E0,5E0,7E0,3.3E1,7E0,2.6E1,5E0,2.1E1,6E0,1.5E1],"tree_param":{"num_deleted":"0","num_feature":"2","num_nodes":"19","size_leaf_vector":"0"}},{"base_weights":[-3.471376E-2,7.760076E-2,-5.3773217E-2,3.3398373E-3,7.330268E-3,-2.7471995E-2,-2.0516435E-2,-9.320152E-2,2.3256222E-2,3.8869765E-2,-1.9168055E-2,1.4214017E-2,-1.5037464E-2,-6.0460074E-3,9.271759E-3,-1.2461138E-2,2.7875124E-2,1.0195255E-2,-3.0973678E-2,-1.2427271E-2,8.039334E-3],"categories":[],"categories_nodes":[],"categories_segments":[],"categories_sizes":[],"default_left":[0,0,0,0,0,0,0,0,0,0,0,0,0,0,0,0,0,0,0,0,0],"id":39,"left_children":[1,3,5,-1,-1,-1,7,9,11,13,-1,-1,15,-1,-1,-1,17,-1,19,-1,-1],"loss_changes":[1.604406E-1,2.972506E-3,6.4726996E-1,0E0,0E0,0E0,1.8670142E-1,4.8171854E-1,2.384238E-1,1.4161204E-1,0E0,0E0,2.0565297E-1,0E0,0E0,0E0,1.6319287E-1,0E0,3.3419943E-1,0E0,0E0],"parents":[2147483647,0,0,1,1,2,2,6,6,7,7,8,8,9,9,12,12,16,16,18,18],"right_children":[2,4,6,-1,-1,-1,8,10,12,14,-1,-1,16,-1,-1,-1,18,-1,20,-1,-1],"split_conditions":[3.1741E-1,2.8855E-1,3.3776E-1,3.3398373E-3,7.330268E-3,-2.7471995E-2,3.5137E-1,2.7448E-1,3.9201E-1,4.7568E-1,-1.9168055E-2,1.4214017E-2,4.432E-1,-6.0460074E-3,9.271759E-3,-1.2461138E-2,5.0995E-1,1.0195255E-2,5.9698E-1,-1.2427271E-2,8.039334E-3],"split_indices":[0,0,0,0,0,0,1,1,1,0,0,0,1,0,0,0,1,0,1,0,0],"split_type":[0,0,0,0,0,0,0,0,0,0,0,0,0,0,0,0,0,0,0,0,0],"sum_hessian":[7.2E1,1E1,6.2E1,5E0,5E0,5E0,5.7E1,2.1E1,3.6E1,1.2E1,9E0,6E0,3E1,5E0,7E0,6E0,2.4E1,8E0,1.6E1,8E0,8E0],"tree_param":{"num_deleted":"0","num_feature":"2","num_nodes":"21","size_leaf_vector":"0"}},{"base_weights":[-3.245521E-2,7.2750725E-2,-5.0309338E-2,3.131098E-3,6.8721264E-3,-2.5754994E-2,-1.9122222E-2,-1.1052441E-1,1.5332595E-2,3.9182715E-3,-1.600572E-2,6.0036916E-2,-6.385825E-2,-1.33173745E-2,1.8381549E-2,-1.15010135E-1,3.0422434E-3,5.3646173E-3,-6.084933E-2,-2.121542E-3,-1.3692351E-2,-7.565476E-3,-1.3666836E-3],"categories":[],"categories_nodes":[],"categories_segments":[],"categories_sizes":[],"default_left":[0,0,0,0,0,0,0,0,0,0,0,0,0,0,0,0,0,0,0,0,0,0,0],"id":40,"left_children":[1,3,5,-1,-1,-1,7,9,11,-1,-1,13,15,17,-1,19,-1,-1,21,-1,-1,-1,-1],"loss_changes":[1.4078033E-1,2.6125386E-3,5.6929433E-1,0E0,0E0,0E0,1.8435088E-1,2.7909195E-1,1.5606129E-1,0E0,0E0,3.8334265E-1,9.012689E-2,8.9042865E-2,0E0,5.9279546E-2,0E0,0E0,2.2047035E-2,0E0,0E0,0E0,0E0],"parents":[2147483647,0,0,1,1,2,2,6,6,7,7,8,8,11,11,12,12,13,13,15,15,18,18],"right_children":[2,4,6,-1,-1,-1,8,10,12,-1,-1,14,16,18,-1,20,-1,-1,22,-1,-1,-1,-1],"split_conditions":[3.1741E-1,2.8855E-1,3.3776E-1,3.131098E-3,6.8721264E-3,-2.5754994E-2,2.9855E-1,4.8558E-1,5.8327E-1,3.9182715E-3,-1.600572E-2,5.3975E-1,6.9313E-1,4.5032E-1,1.8381549E-2,6.0974E-1,3.0422434E-3,5.3646173E-3,4.8209E-1,-2.121542E-3,-1.3692351E-2,-7.565476E-3,-1.3666836E-3],"split_indices":[0,0,0,0,0,0,1,0,0,0,0,0,0,0,0,0,0,0,1,0,0,0,0],"split_type":[0,0,0,0,0,0,0,0,0,0,0,0,0,0,0,0,0,0,0,0,0,0,0],"sum_hessian":[7.2E1,1E1,6.2E1,5E0,5E0,5E0,5.7E1,1.5E1,4.2E1,6E0,9E0,2.7E1,1.5E1,2E1,7E0,1E1,5E0,7E0,1.3E1,5E0,5E0,6E0,7E0],"tree_param":{"num_deleted":"0","num_feature":"2","num_nodes":"23","size_leaf_vector":"0"}},{"base_weights":[-3.0374441E-2,6.820381E-2,-4.7104385E-2,2.935405E-3,6.4426195E-3,-2.4145307E-2,-1.7861238E-2,-1.0299054E-1,1.4230161E-2,-1.9439368E-1,6.131023E-3,6.563824E-2,-4.817104E-2,-5.9130243E-3,-2.0816108E-2,-3.5245515E-2,2.0385858E-2,-1.133539E-2,6.7534917E-3,5.012565E-3,-8.503856E-3,1.1970678E-2,-9.587947E-3],"categories":[],"categories_nodes":[],"categories_segments":[],"categories_sizes":[],"default_left":[0,0,0,0,0,0,0,0,0,0,0,0,0,0,0,0,0,0,0,0,0,0,0],"id":41,"left_children":[1,3,5,-1,-1,-1,7,9,11,13,-1,15,17,-1,-1,19,-1,-1,21,-1,-1,-1,-1],"loss_changes":[1.236049E-1,2.2961833E-3,5.0057966E-1,0E0,0E0,0E0,1.5991683E-1,2.860605E-1,1.4110267E-1,8.38145E-2,0E0,5.0876874E-1,1.1412953E-1,0E0,0E0,1.4317727E-1,0E0,0E0,3.084299E-1,0E0,0E0,0E0,0E0],"parents":[2147483647,0,0,1,1,2,2,6,6,7,7,8,8,9,9,11,11,12,12,15,15,18,18],"right_children":[2,4,6,-1,-1,-1,8,10,12,14,-1,16,18,-1,-1,20,-1,-1,22,-1,-1,-1,-1],"split_conditions":[3.1741E-1,2.8855E-1,3.3776E-1,2.935405E-3,6.4426195E-3,-2.4145307E-2,2.9855E-1,6.1448E-1,5.4705E-1,4.7568E-1,6.131023E-3,5.0974E-1,3.8642E-1,-5.9130243E-3,-2.0816108E-2,4.5032E-1,2.0385858E-2,-1.133539E-2,5.0995E-1,5.012565E-3,-8.503856E-3,1.1970678E-2,-9.587947E-3],"split_indices":[0,0,0,0,0,0,1,0,0,0,0,0,1,0,0,0,0,0,1,0,0,0,0],"split_type":[0,0,0,0,0,0,0,0,0,0,0,0,0,0,0,0,0,0,0,0,0,0,0],"sum_hessian":[7.2E1,1E1,6.2E1,5E0,5E0,5E0,5.7E1,1.5E1,4.2E1,1E1,5E0,2.3E1,1.9E1,5E0,5E0,1.6E1,7E0,6E0,1.3E1,7E0,9E0,6E0,7E0],"tree_param":{"num_deleted":"0","num_feature":"2","num_nodes":"23","size_leaf_vector":"0"}},{"base_weights":[-2.8472025E-2,-4.577412E-2,6.32948E-2,4.2383045E-2,-7.735885E-2,-8.644072E-3,1.9578971E-2,-6.0857914E-2,1.8135086E-2,-3.0756937E-2,-1.8153755E-2,-1.1014103E-2,1.6160709E-3,-1.6925862E-2,6.7519457E-3,9.615784E-3,-3.907632E-2,-1.6474535E-1,6.2454797E-2,-1.7019132E-2,-5.633355E-3,1.287503E-2,-1.2969596E-3],"categories":[],"categories_nodes":[],"categories_segments":[],"categories_sizes":[],"default_left":[0,0,0,0,0,0,0,0,0,0,0,0,0,0,0,0,0,0,0,0,0,0,0],"id":42,"left_children":[1,3,5,7,9,-1,-1,11,-1,13,-1,-1,-1,-1,15,-1,17,19,21,-1,-1,-1,-1],"loss_changes":[1.1880362E-1,1.7591277E-1,4.5380193E-1,3.6471346E-1,3.4560186E-1,0E0,0E0,8.820368E-2,0E0,2.7204105E-1,0E0,0E0,0E0,0E0,1.8312944E-1,0E0,3.1651276E-1,4.4259876E-2,1.2490041E-1,0E0,0E0,0E0,0E0],"parents":[2147483647,0,0,1,1,2,2,3,3,4,4,7,7,9,9,14,14,16,16,17,17,18,18],"right_children":[2,4,6,8,10,-1,-1,12,-1,14,-1,-1,-1,-1,16,-1,18,20,22,-1,-1,-1,-1],"split_conditions":[6.0787E-1,2.7448E-1,4.8999E-1,2.4698E-1,6.0974E-1,-8.644072E-3,1.9578971E-2,4.334E-1,1.8135086E-2,2.9328E-1,-1.8153755E-2,-1.1014103E-2,1.6160709E-3,-1.6925862E-2,4.5032E-1,9.615784E-3,5.3034E-1,4.5884E-1,3.6539E-1,-1.7019132E-2,-5.633355E-3,1.287503E-2,-1.2969596E-3],"split_indices":[1,1,0,1,0,0,0,0,0,0,0,0,0,0,0,0,0,1,1,0,0,0,0],"split_type":[0,0,0,0,0,0,0,0,0,0,0,0,0,0,0,0,0,0,0,0,0,0,0],"sum_hessian":[7.2E1,6.1E1,1.1E1,1.6E1,4.5E1,6E0,5E0,1.1E1,5E0,3.6E1,9E0,5E0,6E0,5E0,3.1E1,8E0,2.3E1,1E1,1.3E1,5E0,5E0,5E0,8E0],"tree_param":{"num_deleted":"0","num_feature":"2","num_nodes":"23","size_leaf_vector":"0"}},{"base_weights":[-2.6567666E-2,5.4344446E-3,-4.343637E-2,-2.2371456E-2,-1.6323706E-2,-9.6983746E-2,1.4068954E-2,-1.8092892E-1,5.4809777E-3,8.560245E-3,-1.5776496E-2,-5.7416856E-3,-1.9136041E-2,-1.4043865E-2,2.7655706E-2,1.1516767E-2,-1.3660839E-2,-5.668239E-3,7.810401E-3],"categories":[],"categories_nodes":[],"categories_segments":[],"categories_sizes":[],"default_left":[0,0,0,0,0,0,0,0,0,0,0,0,0,0,0,0,0,0,0],"id":43,"left_children":[1,-1,3,-1,5,7,9,11,-1,-1,13,-1,-1,-1,15,-1,17,-1,-1],"loss_changes":[1.2509066E-1,0E0,4.3043914E-1,0E0,1.435499E-1,2.4163832E-1,1.3022292E-1,6.5677315E-2,0E0,0E0,2.5839487E-1,0E0,0E0,0E0,1.4774816E-1,0E0,1.6833045E-1,0E0,0E0],"parents":[2147483647,0,0,2,2,4,4,5,5,6,6,7,7,10,10,14,14,16,16],"right_children":[2,-1,4,-1,6,8,10,12,-1,-1,14,-1,-1,-1,16,-1,18,-1,-1],"split_conditions":[3.1741E-1,5.4344446E-3,3.3776E-1,-2.2371456E-2,2.9855E-1,6.1448E-1,3.7894E-1,4.7568E-1,5.4809777E-3,8.560245E-3,4.2582E-1,-5.7416856E-3,-1.9136041E-2,-1.4043865E-2,4.6716E-1,1.1516767E-2,6.0787E-1,-5.668239E-3,7.810401E-3],"split_indices":[0,0,0,0,1,0,1,0,0,0,1,0,0,0,1,0,1,0,0],"split_type":[0,0,0,0,0,0,0,0,0,0,0,0,0,0,0,0,0,0,0],"sum_hessian":[7.2E1,1E1,6.2E1,5E0,5.7E1,1.5E1,4.2E1,1E1,5E0,9E0,3.3E1,5E0,5E0,6E0,2.7E1,6E0,2.1E1,1.4E1,7E0],"tree_param":{"num_deleted":"0","num_feature":"2","num_nodes":"19","size_leaf_vector":"0"}},{"base_weights":[-2.4960829E-2,4.7122538E-2,-4.602147E-2,-4.849509E-2,1.7287804E-2,-1.8056279E-2,-9.315722E-3,-9.690824E-3,2.0713368E-3,1.1048957E-2,-3.8929183E-2,-1.7496357E-2,2.1146117E-2,6.361944E-2,-4.9091265E-2,9.635912E-3,1.1260364E-2,4.2250776E-3,-9.151806E-3,8.892231E-3,-8.717163E-3],"categories":[],"categories_nodes":[],"categories_segments":[],"categories_sizes":[],"default_left":[0,0,0,0,0,0,0,0,0,0,0,0,0,0,0,0,0,0,0,0,0],"id":44,"left_children":[1,3,5,7,-1,-1,9,-1,-1,-1,11,-1,13,15,17,19,-1,-1,-1,-1,-1],"loss_changes":[1.1299153E-1,3.0926487E-1,4.0517443E-1,7.729078E-2,0E0,0E0,2.3302197E-1,0E0,0E0,0E0,4.9532375E-1,0E0,1.01569265E-1,9.663563E-2,1.06831E-1,2.0572168E-1,0E0,0E0,0E0,0E0,0E0],"parents":[2147483647,0,0,1,1,2,2,3,3,6,6,10,10,12,12,13,13,14,14,15,15],"right_children":[2,4,6,8,-1,-1,10,-1,-1,-1,12,-1,14,16,18,20,-1,-1,-1,-1,-1],"split_conditions":[2.7448E-1,2.4698E-1,3.1107E-1,4.334E-1,1.7287804E-2,-1.8056279E-2,3.7894E-1,-9.690824E-3,2.0713368E-3,1.1048957E-2,3.7168E-1,-1.7496357E-2,5.8327E-1,5.0974E-1,5.0995E-1,4.5998E-1,1.1260364E-2,4.2250776E-3,-9.151806E-3,8.892231E-3,-8.717163E-3],"split_indices":[1,1,1,0,0,0,1,0,0,0,0,0,0,0,1,0,0,0,0,0,0],"split_type":[0,0,0,0,0,0,0,0,0,0,0,0,0,0,0,0,0,0,0,0,0],"sum_hessian":[7.2E1,1.6E1,5.6E1,1.1E1,5E0,8E0,4.8E1,5E0,6E0,7E0,4.1E1,9E0,3.2E1,2E1,1.2E1,1.3E1,7E0,5E0,7E0,7E0,6E0],"tree_param":{"num_deleted":"0","num_feature":"2","num_nodes":"21","size_leaf_vector":"0"}},{"base_weights":[-2.3202833E-2,6.016635E-3,-4.0892802E-2,-2.050966E-2,-1.6128857E-2,-9.142405E-2,1.2263048E-2,4.3244013E-3,-1.3997967E-2,7.891491E-3,-1.5437874E-2,-1.3041262E-2,2.472488E-2,1.0103267E-2,-1.1394314E-2,-5.77176E-3,6.8893353E-3],"categories":[],"categories_nodes":[],"categories_segments":[],"categories_sizes":[],"default_left":[0,0,0,0,0,0,0,0,0,0,0,0,0,0,0,0,0],"id":45,"left_children":[1,-1,3,-1,5,7,9,-1,-1,-1,11,-1,13,-1,15,-1,-1],"loss_changes":[1.3683972E-1,0E0,3.584274E-1,0E0,1.2511204E-1,2.3788121E-1,1.1234894E-1,0E0,0E0,0E0,2.2066206E-1,0E0,1.12767234E-1,0E0,1.5599729E-1,0E0,0E0],"parents":[2147483647,0,0,2,2,4,4,5,5,6,6,10,10,12,12,14,14],"right_children":[2,-1,4,-1,6,8,10,-1,-1,-1,12,-1,14,-1,16,-1,-1],"split_conditions":[3.1741E-1,6.016635E-3,3.3776E-1,-2.050966E-2,2.9855E-1,4.8558E-1,3.7894E-1,4.3244013E-3,-1.3997967E-2,7.891491E-3,4.2582E-1,-1.3041262E-2,4.6716E-1,1.0103267E-2,5.9698E-1,-5.77176E-3,6.8893353E-3],"split_indices":[0,0,0,0,1,0,1,0,0,0,1,0,1,0,1,0,0],"split_type":[0,0,0,0,0,0,0,0,0,0,0,0,0,0,0,0,0],"sum_hessian":[7.2E1,1E1,6.2E1,5E0,5.7E1,1.5E1,4.2E1,6E0,9E0,9E0,3.3E1,6E0,2.7E1,6E0,2.1E1,1.3E1,8E0],"tree_param":{"num_deleted":"0","num_feature":"2","num_nodes":"17","size_leaf_vector":"0"}},{"base_weights":[-2.171051E-2,5.6064106E-3,-3.820858E-2,-1.9227806E-2,-1.4981312E-2,-3.1840477E-2,7.0776404E-3,4.7181662E-2,-7.637321E-2,-4.223668E-2,1.5487805E-2,-1.996446E-2,-3.2969967E-2,-1.3378477E-2,1.0974508E-2,9.028361E-3,-7.154034E-2,-2.4817314E-3,-1.3122655E-2],"categories":[],"categories_nodes":[],"categories_segments":[],"categories_sizes":[],"default_left":[0,0,0,0,0,0,0,0,0,0,0,0,0,0,0,0,0,0,0],"id":46,"left_children":[1,-1,3,-1,5,7,-1,9,11,13,-1,-1,15,-1,-1,-1,17,-1,-1],"loss_changes":[1.1903186E-1,0E0,3.153999E-1,0E0,1.0993047E-1,1.8307608E-1,0E0,2.7940258E-1,2.6310357E-1,3.5983244E-1,0E0,0E0,1.7422335E-1,0E0,0E0,0E0,8.567864E-2,0E0,0E0],"parents":[2147483647,0,0,2,2,4,4,5,5,7,7,8,8,9,9,12,12,16,16],"right_children":[2,-1,4,-1,6,8,-1,10,12,14,-1,-1,16,-1,-1,-1,18,-1,-1],"split_conditions":[3.1741E-1,5.6064106E-3,3.3776E-1,-1.9227806E-2,6.0787E-1,4.8622E-1,7.0776404E-3,4.5741E-1,5.3034E-1,4.2582E-1,1.5487805E-2,-1.996446E-2,5.4875E-1,-1.3378477E-2,1.0974508E-2,9.028361E-3,4.4706E-1,-2.4817314E-3,-1.3122655E-2],"split_indices":[0,0,0,0,1,0,0,0,0,1,0,0,0,0,0,0,1,0,0],"split_type":[0,0,0,0,0,0,0,0,0,0,0,0,0,0,0,0,0,0,0],"sum_hessian":[7.2E1,1E1,6.2E1,5E0,5.7E1,5E1,7E0,1.8E1,3.2E1,1.2E1,6E0,5E0,2.7E1,7E0,5E0,5E0,2.2E1,1.7E1,5E0],"tree_param":{"num_deleted":"0","num_feature":"2","num_nodes":"19","size_leaf_vector":"0"}},{"base_weights":[-2.0356191E-2,5.6453083E-2,-4.2907096E-2,-3.5640664E-2,1.7342381E-2,-1.6719727E-2,-8.96607E-3,-8.010647E-3,2.2838975E-3,1.0007012E-2,-3.5875045E-2,-1.6044179E-2,1.9165816E-2,6.799021E-2,-3.0785983E-2,8.736278E-4,8.75832E-3,-1.23869E-2,5.752263E-2,-4.3770536E-3,1.2286415E-2],"categories":[],"categories_nodes":[],"categories_segments":[],"categories_sizes":[],"default_left":[0,0,0,0,0,0,0,0,0,0,0,0,0,0,0,0,0,0,0,0,0],"id":47,"left_children":[1,3,5,7,-1,-1,9,-1,-1,-1,11,-1,13,15,17,-1,-1,-1,19,-1,-1],"loss_changes":[1.288669E-1,2.818736E-1,3.462798E-1,5.9696667E-2,0E0,0E0,1.9253737E-1,0E0,0E0,0E0,4.156949E-1,0E0,8.257574E-2,4.5368828E-2,2.1122687E-1,0E0,0E0,0E0,1.4505818E-1,0E0,0E0],"parents":[2147483647,0,0,1,1,2,2,3,3,6,6,10,10,12,12,13,13,14,14,18,18],"right_children":[2,4,6,8,-1,-1,10,-1,-1,-1,12,-1,14,16,18,-1,-1,-1,20,-1,-1],"split_conditions":[2.7448E-1,2.4698E-1,3.1107E-1,4.334E-1,1.7342381E-2,-1.6719727E-2,3.7894E-1,-8.010647E-3,2.2838975E-3,1.0007012E-2,3.7168E-1,-1.6044179E-2,5.0995E-1,4.432E-1,5.7236E-1,8.736278E-4,8.75832E-3,-1.23869E-2,5.0468E-1,-4.3770536E-3,1.2286415E-2],"split_indices":[1,1,1,0,0,0,1,0,0,0,0,0,1,1,1,0,0,0,0,0,0],"split_type":[0,0,0,0,0,0,0,0,0,0,0,0,0,0,0,0,0,0,0,0,0],"sum_hessian":[7.2E1,1.6E1,5.6E1,1.1E1,5E0,8E0,4.8E1,5E0,6E0,7E0,4.1E1,9E0,3.2E1,1.6E1,1.6E1,8E0,8E0,6E0,1E1,5E0,5E0],"tree_param":{"num_deleted":"0","num_feature":"2","num_nodes":"21","size_leaf_vector":"0"}},{"base_weights":[-1.8911494E-2,8.126521E-2,-3.610248E-2,3.9010996E-3,7.2728675E-3,-1.7641477E-2,-1.4881695E-2,-8.195706E-2,1.04226675E-2,-1.6014454E-1,5.628461E-3,8.364338E-2,-2.4094418E-2,-4.263958E-3,-1.7755916E-2,1.9145682E-2,-3.0053947E-3,-1.51897175E-2,1.9693794E-2,8.174432E-3,-2.8740415E-2,-9.696033E-3,5.624474E-3],"categories":[],"categories_nodes":[],"categories_segments":[],"categories_sizes":[],"default_left":[0,0,0,0,0,0,0,0,0,0,0,0,0,0,0,0,0,0,0,0,0,0,0],"id":48,"left_children":[1,3,5,-1,-1,-1,7,9,11,13,-1,15,17,-1,-1,-1,-1,-1,19,-1,21,-1,-1],"loss_changes":[1.2864986E-1,9.670854E-6,2.627012E-1,0E0,0E0,0E0,9.9297576E-2,2.0842919E-1,1.1069205E-1,7.357511E-2,0E0,3.074991E-1,2.3838924E-1,0E0,0E0,0E0,0E0,0E0,1.11260206E-1,0E0,1.8699421E-1,0E0,0E0],"parents":[2147483647,0,0,1,1,2,2,6,6,7,7,8,8,9,9,11,11,12,12,18,18,20,20],"right_children":[2,4,6,-1,-1,-1,8,10,12,14,-1,16,18,-1,-1,-1,-1,-1,20,-1,22,-1,-1],"split_conditions":[3.1741E-1,2.8855E-1,3.3776E-1,3.9010996E-3,7.2728675E-3,-1.7641477E-2,2.9855E-1,6.1448E-1,3.9537E-1,1.9247E-1,5.628461E-3,5.4553E-1,4.432E-1,-4.263958E-3,-1.7755916E-2,1.9145682E-2,-3.0053947E-3,-1.51897175E-2,5.0995E-1,8.174432E-3,5.9698E-1,-9.696033E-3,5.624474E-3],"split_indices":[0,0,0,0,0,0,1,0,1,1,0,0,1,0,0,0,0,0,1,0,1,0,0],"split_type":[0,0,0,0,0,0,0,0,0,0,0,0,0,0,0,0,0,0,0,0,0,0,0],"sum_hessian":[7.2E1,1E1,6.2E1,5E0,5E0,5E0,5.7E1,1.5E1,4.2E1,1E1,5E0,1.3E1,2.9E1,5E0,5E0,5E0,8E0,5E0,2.4E1,8E0,1.6E1,8E0,8E0],"tree_param":{"num_deleted":"0","num_feature":"2","num_nodes":"23","size_leaf_vector":"0"}},{"base_weights":[-1.7737048E-2,5.884926E-2,-4.02674E-2,-2.8511459E-2,1.6782187E-2,-1.55586265E-2,-8.738914E-3,-7.0111095E-3,2.3437638E-3,8.859781E-3,-3.269643E-2,-1.4859357E-2,1.8424165E-2,7.896135E-3,-9.009879E-3,-6.255095E-2,1.089388E-2,2.2829399E-3,-1.7969655E-2],"categories":[],"categories_nodes":[],"categories_segments":[],"categories_sizes":[],"default_left":[0,0,0,0,0,0,0,0,0,0,0,0,0,0,0,0,0,0,0],"id":49,"left_children":[1,3,5,7,-1,-1,9,-1,-1,-1,11,-1,13,-1,15,17,-1,-1,-1],"loss_changes":[1.283324E-1,2.5129774E-1,2.9863197E-1,4.9513876E-2,0E0,0E0,1.5279666E-1,0E0,0E0,0E0,3.5883564E-1,0E0,7.958282E-2,0E0,2.2382826E-1,3.3656088E-1,0E0,0E0,0E0],"parents":[2147483647,0,0,1,1,2,2,3,3,6,6,10,10,12,12,14,14,15,15],"right_children":[2,4,6,8,-1,-1,10,-1,-1,-1,12,-1,14,-1,16,18,-1,-1,-1],"split_conditions":[2.7448E-1,2.4698E-1,3.1107E-1,4.334E-1,1.6782187E-2,-1.55586265E-2,3.7894E-1,-7.0111095E-3,2.3437638E-3,8.859781E-3,3.7168E-1,-1.4859357E-2,4.5998E-1,7.896135E-3,6.0787E-1,5.0995E-1,1.089388E-2,2.2829399E-3,-1.7969655E-2],"split_indices":[1,1,1,0,0,0,1,0,0,0,0,0,0,0,1,1,0,0,0],"split_type":[0,0,0,0,0,0,0,0,0,0,0,0,0,0,0,0,0,0,0],"sum_hessian":[7.2E1,1.6E1,5.6E1,1.1E1,5E0,8E0,4.8E1,5E0,6E0,7E0,4.1E1,9E0,3.2E1,7E0,2.5E1,1.9E1,6E0,1.3E1,6E0],"tree_param":{"num_deleted":"0","num_feature":"2","num_nodes":"19","size_leaf_vector":"0"}},{"base_weights":[-1.649362E-2,6.521402E-3,-3.4293752E-2,-1.6201904E-2,-1.4902659E-2,-7.811558E-2,8.965001E-3,4.487159E-3,-1.2514882E-2,7.7407666E-2,-2.3273742E-2,1.7782781E-2,-2.8242918E-3,-1.4238929E-2,1.7636083E-2,-4.8899733E-2,7.340706E-2,3.689501E-3,-1.1639378E-2,1.6891623E-2,-2.696924E-3],"categories":[],"categories_nodes":[],"categories_segments":[],"categories_sizes":[],"default_left":[0,0,0,0,0,0,0,0,0,0,0,0,0,0,0,0,0,0,0,0,0],"id":50,"left_children":[1,-1,3,-1,5,7,9,-1,-1,11,13,-1,-1,-1,15,17,19,-1,-1,-1,-1],"loss_changes":[1.374002E-1,0E0,2.187911E-1,0E0,8.820749E-2,2.0586324E-1,9.66813E-2,0E0,0E0,2.661844E-1,2.0778936E-1,0E0,0E0,0E0,9.6358776E-2,1.3275246E-1,2.4054578E-1,0E0,0E0,0E0,0E0],"parents":[2147483647,0,0,2,2,4,4,5,5,6,6,9,9,10,10,14,14,15,15,16,16],"right_children":[2,-1,4,-1,6,8,10,-1,-1,12,14,-1,-1,-1,16,18,20,-1,-1,-1,-1],"split_conditions":[3.1741E-1,6.521402E-3,3.3776E-1,-1.6201904E-2,2.9855E-1,4.8558E-1,3.9537E-1,4.487159E-3,-1.2514882E-2,5.4553E-1,4.432E-1,1.7782781E-2,-2.8242918E-3,-1.4238929E-2,5.0974E-1,4.5998E-1,5.8327E-1,3.689501E-3,-1.1639378E-2,1.6891623E-2,-2.696924E-3],"split_indices":[0,0,0,0,1,0,1,0,0,0,1,0,0,0,0,0,0,0,0,0,0],"split_type":[0,0,0,0,0,0,0,0,0,0,0,0,0,0,0,0,0,0,0,0,0],"sum_hessian":[7.2E1,1E1,6.2E1,5E0,5.7E1,1.5E1,4.2E1,6E0,9E0,1.3E1,2.9E1,5E0,8E0,5E0,2.4E1,1.1E1,1.3E1,6E0,5E0,5E0,8E0],"tree_param":{"num_deleted":"0","num_feature":"2","num_nodes":"21","size_leaf_vector":"0"}},{"base_weights":[-1.5403776E-2,6.0457055E-2,-3.7758697E-2,-2.192928E-2,1.6136518E-2,-1.4418323E-2,-8.613204E-3,-6.361565E-3,2.6332908E-3,7.7965134E-3,-2.9849406E-2,-1.3799992E-2,1.7767394E-2,7.3039057E-3,-7.413817E-3,-5.79318E-2,1.034868E-2,2.0177534E-3,-1.6449464E-2],"categories":[],"categories_nodes":[],"categories_segments":[],"categories_sizes":[],"default_left":[0,0,0,0,0,0,0,0,0,0,0,0,0,0,0,0,0,0,0],"id":51,"left_children":[1,3,5,7,-1,-1,9,-1,-1,-1,11,-1,13,-1,15,17,-1,-1,-1],"loss_changes":[1.2608077E-1,2.2138108E-1,2.5499E-1,4.6026006E-2,0E0,0E0,1.20236926E-1,0E0,0E0,0E0,3.1155565E-1,0E0,6.6882975E-2,0E0,1.9896677E-1,2.7973905E-1,0E0,0E0,0E0],"parents":[2147483647,0,0,1,1,2,2,3,3,6,6,10,10,12,12,14,14,15,15],"right_children":[2,4,6,8,-1,-1,10,-1,-1,-1,12,-1,14,-1,16,18,-1,-1,-1],"split_conditions":[2.7448E-1,2.4698E-1,3.1107E-1,4.334E-1,1.6136518E-2,-1.4418323E-2,3.7894E-1,-6.361565E-3,2.6332908E-3,7.7965134E-3,3.7168E-1,-1.3799992E-2,4.5998E-1,7.3039057E-3,6.0787E-1,5.0995E-1,1.034868E-2,2.0177534E-3,-1.6449464E-2],"split_indices":[1,1,1,0,0,0,1,0,0,0,0,0,0,0,1,1,0,0,0],"split_type":[0,0,0,0,0,0,0,0,0,0,0,0,0,0,0,0,0,0,0],"sum_hessian":[7.2E1,1.6E1,5.6E1,1.1E1,5E0,8E0,4.8E1,5E0,6E0,7E0,4.1E1,9E0,3.2E1,7E0,2.5E1,1.9E1,6E0,1.3E1,6E0],"tree_param":{"num_deleted":"0","num_feature":"2","num_nodes":"19","size_leaf_vector":"0"}},{"base_weights":[-1.4314144E-2,9.10418E-2,-3.248242E-2,4.2998428E-3,8.218406E-3,-1.1644744E-1,3.6913122E-3,-1.849753E-2,-5.2335646E-2,1.4851633E-2,-3.1283163E-2,-8.028022E-3,-7.538106E-4,-1.3833888E-2,2.0815834E-2,1.4428414E-2,-2.1191925E-2,-6.4699024E-2,5.9511033E-3,6.9983327E-4,-9.364218E-3],"categories":[],"categories_nodes":[],"categories_segments":[],"categories_sizes":[],"default_left":[0,0,0,0,0,0,0,0,0,0,0,0,0,0,0,0,0,0,0,0,0],"id":52,"left_children":[1,3,5,-1,-1,7,9,-1,11,-1,13,-1,-1,-1,15,-1,17,19,-1,-1,-1],"loss_changes":[1.4268917E-1,5.915165E-4,1.917815E-1,0E0,0E0,1.4567533E-1,3.1204203E-1,0E0,3.1308647E-2,0E0,3.1505695E-1,0E0,0E0,0E0,2.2028622E-1,0E0,1.14488795E-1,8.132709E-2,0E0,0E0,0E0],"parents":[2147483647,0,0,1,1,2,2,5,5,6,6,8,8,10,10,14,14,16,16,17,17],"right_children":[2,4,6,-1,-1,8,10,-1,12,-1,14,-1,-1,-1,16,-1,18,20,-1,-1,-1],"split_conditions":[3.1741E-1,2.8855E-1,4.5741E-1,4.2998428E-3,8.218406E-3,2.5566E-1,4.8622E-1,-1.849753E-2,3.7168E-1,1.4851633E-2,5.3975E-1,-8.028022E-3,-7.538106E-4,-1.3833888E-2,5.4958E-1,1.4428414E-2,6.9318E-1,6.0974E-1,5.9511033E-3,6.9983327E-4,-9.364218E-3],"split_indices":[0,0,0,0,0,1,0,0,0,0,0,0,0,0,0,0,0,0,0,0,0],"split_type":[0,0,0,0,0,0,0,0,0,0,0,0,0,0,0,0,0,0,0,0,0],"sum_hessian":[7.2E1,1E1,6.2E1,5E0,5E0,1.8E1,4.4E1,5E0,1.3E1,6E0,3.8E1,5E0,8E0,9E0,2.9E1,5E0,2.4E1,1.7E1,7E0,8E0,9E0],"tree_param":{"num_deleted":"0","num_feature":"2","num_nodes":"21","size_leaf_vector":"0"}},{"base_weights":[-1.3268366E-2,8.535169E-2,-3.0277133E-2,4.0311026E-3,7.7047553E-3,-1.0914963E-1,3.6974137E-3,-1.7341435E-2,-4.9037736E-2,1.3896885E-2,-2.8991256E-2,-7.5262706E-3,-7.035559E-4,-1.2900102E-2,1.9645149E-2,1.3526638E-2,-1.971106E-2,-6.0327943E-2,5.5605615E-3,6.531774E-4,-8.732133E-3],"categories":[],"categories_nodes":[],"categories_segments":[],"categories_sizes":[],"default_left":[0,0,0,0,0,0,0,0,0,0,0,0,0,0,0,0,0,0,0,0,0],"id":53,"left_children":[1,3,5,-1,-1,7,9,-1,11,-1,13,-1,-1,-1,15,-1,17,19,-1,-1,-1],"loss_changes":[1.2503482E-1,5.1987916E-4,1.6922198E-1,0E0,0E0,1.2808028E-1,2.724954E-1,0E0,2.7547251E-2,0E0,2.7464336E-1,0E0,0E0,0E0,1.933031E-1,0E0,9.9772036E-2,7.072811E-2,0E0,0E0,0E0],"parents":[2147483647,0,0,1,1,2,2,5,5,6,6,8,8,10,10,14,14,16,16,17,17],"right_children":[2,4,6,-1,-1,8,10,-1,12,-1,14,-1,-1,-1,16,-1,18,20,-1,-1,-1],"split_conditions":[3.1741E-1,2.8855E-1,4.5741E-1,4.0311026E-3,7.7047553E-3,2.5566E-1,4.8622E-1,-1.7341435E-2,3.7168E-1,1.3896885E-2,5.3975E-1,-7.5262706E-3,-7.035559E-4,-1.2900102E-2,5.4958E-1,1.3526638E-2,6.9318E-1,6.0974E-1,5.5605615E-3,6.531774E-4,-8.732133E-3],"split_indices":[0,0,0,0,0,1,0,0,0,0,0,0,0,0,0,0,0,0,0,0,0],"split_type":[0,0,0,0,0,0,0,0,0,0,0,0,0,0,0,0,0,0,0,0,0],"sum_hessian":[7.2E1,1E1,6.2E1,5E0,5E0,1.8E1,4.4E1,5E0,1.3E1,6E0,3.8E1,5E0,8E0,9E0,2.9E1,5E0,2.4E1,1.7E1,7E0,8E0,9E0],"tree_param":{"num_deleted":"0","num_feature":"2","num_nodes":"21","size_leaf_vector":"0"}},{"base_weights":[-1.2298312E-2,6.502484E-2,-3.514384E-2,-1.3687651E-2,1.5870927E-2,-1.3449945E-2,-7.9429755E-3,-4.2761564E-3,1.9054359E-3,7.761164E-3,-2.8977696E-2,-1.3121181E-2,1.6134165E-2,5.668231E-2,-2.5363047E-2,-3.9460548E-4,8.293064E-2,-9.906295E-3,4.485597E-2,8.468169E-3,2.5600672E-3,-4.05467E-3,1.0222366E-2],"categories":[],"categories_nodes":[],"categories_segments":[],"categories_sizes":[],"default_left":[0,0,0,0,0,0,0,0,0,0,0,0,0,0,0,0,0,0,0,0,0,0,0],"id":54,"left_children":[1,3,5,7,-1,-1,9,-1,-1,-1,11,-1,13,15,17,-1,19,-1,21,-1,-1,-1,-1],"loss_changes":[1.3123888E-1,1.9904703E-1,2.2213289E-1,2.177451E-2,0E0,0E0,1.1784473E-1,0E0,0E0,0E0,2.793944E-1,0E0,5.696459E-2,2.8076958E-2,1.3331996E-1,0E0,1.3699919E-2,0E0,1.0686695E-1,0E0,0E0,0E0,0E0],"parents":[2147483647,0,0,1,1,2,2,3,3,6,6,10,10,12,12,13,13,14,14,16,16,18,18],"right_children":[2,4,6,8,-1,-1,10,-1,-1,-1,12,-1,14,16,18,-1,20,-1,22,-1,-1,-1,-1],"split_conditions":[2.7448E-1,2.4698E-1,3.1107E-1,4.334E-1,1.5870927E-2,-1.3449945E-2,3.7894E-1,-4.2761564E-3,1.9054359E-3,7.761164E-3,3.7168E-1,-1.3121181E-2,5.0995E-1,4.0961E-1,5.7236E-1,-3.9460548E-4,4.6716E-1,-9.906295E-3,5.0468E-1,8.468169E-3,2.5600672E-3,-4.05467E-3,1.0222366E-2],"split_indices":[1,1,1,0,0,0,1,0,0,0,0,0,1,1,1,0,1,0,0,0,0,0,0],"split_type":[0,0,0,0,0,0,0,0,0,0,0,0,0,0,0,0,0,0,0,0,0,0,0],"sum_hessian":[7.2E1,1.6E1,5.6E1,1.1E1,5E0,8E0,4.8E1,5E0,6E0,7E0,4.1E1,9E0,3.2E1,1.6E1,1.6E1,5E0,1.1E1,6E0,1E1,6E0,5E0,5E0,5E0],"tree_param":{"num_deleted":"0","num_feature":"2","num_nodes":"23","size_leaf_vector":"0"}},{"base_weights":[-1.1354224E-2,8.930286E-2,-2.8749045E-2,4.2317514E-3,8.047393E-3,-1.0177103E-1,2.7213267E-3,-1.6242174E-2,-4.5305397E-2,1.424755E-2,-2.5433606E-2,-6.8592373E-3,-7.1280525E-4,-1.1097804E-2,1.491493E-2,9.384912E-2,-3.319133E-2,-1.9442989E-3,1.6345717E-2,-1.0440278E-2,2.2185659E-2,1.1769839E-2,-7.386741E-3],"categories":[],"categories_nodes":[],"categories_segments":[],"categories_sizes":[],"default_left":[0,0,0,0,0,0,0,0,0,0,0,0,0,0,0,0,0,0,0,0,0,0,0],"id":55,"left_children":[1,3,5,-1,-1,7,9,-1,11,-1,13,-1,-1,-1,15,17,19,-1,-1,-1,21,-1,-1],"loss_changes":[1.3038395E-1,4.544407E-4,1.4505276E-1,0E0,0E0,1.1334203E-1,2.4206698E-1,0E0,2.2262579E-2,0E0,1.9997467E-1,0E0,0E0,0E0,1.20829076E-1,1.8400711E-1,1.20501235E-1,0E0,0E0,0E0,2.4310298E-1,0E0,0E0],"parents":[2147483647,0,0,1,1,2,2,5,5,6,6,8,8,10,10,14,14,15,15,16,16,20,20],"right_children":[2,4,6,-1,-1,8,10,-1,12,-1,14,-1,-1,-1,16,18,20,-1,-1,-1,22,-1,-1],"split_conditions":[3.1741E-1,2.8855E-1,4.5741E-1,4.2317514E-3,8.047393E-3,2.5566E-1,4.8558E-1,-1.6242174E-2,3.7168E-1,1.424755E-2,2.9855E-1,-6.8592373E-3,-7.1280525E-4,-1.1097804E-2,5.4705E-1,5.3034E-1,3.8642E-1,-1.9442989E-3,1.6345717E-2,-1.0440278E-2,5.0995E-1,1.1769839E-2,-7.386741E-3],"split_indices":[0,0,0,0,0,1,0,0,0,0,1,0,0,0,0,0,1,0,0,0,1,0,0],"split_type":[0,0,0,0,0,0,0,0,0,0,0,0,0,0,0,0,0,0,0,0,0,0,0],"sum_hessian":[7.2E1,1E1,6.2E1,5E0,5E0,1.8E1,4.4E1,5E0,1.3E1,5E0,3.9E1,5E0,8E0,9E0,3E1,1.1E1,1.9E1,6E0,5E0,6E0,1.3E1,6E0,7E0],"tree_param":{"num_deleted":"0","num_feature":"2","num_nodes":"23","size_leaf_vector":"0"}},{"base_weights":[-1.0503225E-2,6.8156384E-2,-3.3778843E-2,-6.4725517E-3,1.5454115E-2,-1.5321753E-2,-1.34548815E-2,-3.249685E-3,1.9532589E-3,1.4429114E-2,-4.9750205E-2,-1.5035342E-1,1.6700074E-2,-3.1492952E-2,-1.43788615E-2,7.1380705E-2,-2.2880374E-2,1.0597054E-2,-9.700214E-3,7.3722596E-3,2.1061362E-3,-9.169408E-3,4.2440463E-2,-3.9129197E-3,9.748485E-3],"categories":[],"categories_nodes":[],"categories_segments":[],"categories_sizes":[],"default_left":[0,0,0,0,0,0,0,0,0,0,0,0,0,0,0,0,0,0,0,0,0,0,0,0,0],"id":56,"left_children":[1,3,5,7,-1,-1,9,-1,-1,-1,11,13,15,-1,17,19,21,-1,-1,-1,-1,-1,23,-1,-1],"loss_changes":[1.3595437E-1,1.762844E-1,1.9478267E-1,1.5509584E-2,0E0,0E0,3.980707E-1,0E0,0E0,0E0,3.033409E-1,6.537036E-1,6.2233157E-2,0E0,2.5091907E-1,1.1224885E-2,1.1554389E-1,0E0,0E0,0E0,0E0,0E0,9.788702E-2,0E0,0E0],"parents":[2147483647,0,0,1,1,2,2,3,3,6,6,10,10,11,11,12,12,14,14,15,15,16,16,22,22],"right_children":[2,4,6,8,-1,-1,10,-1,-1,-1,12,14,16,-1,18,20,22,-1,-1,-1,-1,-1,24,-1,-1],"split_conditions":[2.7448E-1,2.4698E-1,2.9328E-1,4.334E-1,1.5454115E-2,-1.5321753E-2,3.4516E-1,-3.249685E-3,1.9532589E-3,1.4429114E-2,4.2582E-1,5.3641E-1,5.0995E-1,-3.1492952E-2,6.0974E-1,4.6716E-1,5.7236E-1,1.0597054E-2,-9.700214E-3,7.3722596E-3,2.1061362E-3,-9.169408E-3,5.0468E-1,-3.9129197E-3,9.748485E-3],"split_indices":[1,1,0,0,0,0,0,0,0,0,1,0,1,0,0,1,1,0,0,0,0,0,0,0,0],"split_type":[0,0,0,0,0,0,0,0,0,0,0,0,0,0,0,0,0,0,0,0,0,0,0,0,0],"sum_hessian":[7.2E1,1.6E1,5.6E1,1.1E1,5E0,5E0,5.1E1,5E0,6E0,7E0,4.4E1,1.7E1,2.7E1,5E0,1.2E1,1.1E1,1.6E1,5E0,7E0,6E0,5E0,6E0,1E1,5E0,5E0],"tree_param":{"num_deleted":"0","num_feature":"2","num_nodes":"25","size_leaf_vector":"0"}},{"base_weights":[-9.868723E-3,6.387746E-2,-3.1690065E-2,-6.09514E-3,1.4488232E-2,-1.2004607E-2,-7.464918E-3,-3.0465794E-3,1.827693E-3,7.914651E-3,-2.8809771E-2,-1.2346223E-2,1.3216747E-2,6.7098793E-3,-1.0752608E-2,-5.7484668E-2,9.322774E-3,1.4740719E-3,-1.5266287E-2],"categories":[],"categories_nodes":[],"categories_segments":[],"categories_sizes":[],"default_left":[0,0,0,0,0,0,0,0,0,0,0,0,0,0,0,0,0,0,0],"id":57,"left_children":[1,3,5,7,-1,-1,9,-1,-1,-1,11,-1,13,-1,15,17,-1,-1,-1],"loss_changes":[1.1949885E-1,1.5498298E-1,1.7606461E-1,1.36116315E-2,0E0,0E0,1.21220015E-1,0E0,0E0,0E0,2.4188967E-1,0E0,6.1273534E-2,0E0,1.7124344E-1,2.2934794E-1,0E0,0E0,0E0],"parents":[2147483647,0,0,1,1,2,2,3,3,6,6,10,10,12,12,14,14,15,15],"right_children":[2,4,6,8,-1,-1,10,-1,-1,-1,12,-1,14,-1,16,18,-1,-1,-1],"split_conditions":[2.7448E-1,2.4698E-1,3.1107E-1,4.334E-1,1.4488232E-2,-1.2004607E-2,3.7894E-1,-3.0465794E-3,1.827693E-3,7.914651E-3,3.7168E-1,-1.2346223E-2,4.5998E-1,6.7098793E-3,6.0787E-1,5.0995E-1,9.322774E-3,1.4740719E-3,-1.5266287E-2],"split_indices":[1,1,1,0,0,0,1,0,0,0,0,0,0,0,1,1,0,0,0],"split_type":[0,0,0,0,0,0,0,0,0,0,0,0,0,0,0,0,0,0,0],"sum_hessian":[7.2E1,1.6E1,5.6E1,1.1E1,5E0,8E0,4.8E1,5E0,6E0,7E0,4.1E1,9E0,3.2E1,7E0,2.5E1,1.9E1,6E0,1.3E1,6E0],"tree_param":{"num_deleted":"0","num_feature":"2","num_nodes":"19","size_leaf_vector":"0"}},{"base_weights":[-9.141256E-3,7.065655E-3,-2.7041392E-2,-9.788143E-2,3.469763E-3,-1.3052453E-2,-2.667753E-2,1.2840365E-2,-2.6725505E-2,9.2647044E-4,-4.594631E-3,-1.1820408E-2,1.7791985E-2,1.2055242E-2,-1.7226394E-2,-5.385474E-2,5.0505516E-3,-1.1352863E-4,-7.1682143E-3],"categories":[],"categories_nodes":[],"categories_segments":[],"categories_sizes":[],"default_left":[0,0,0,0,0,0,0,0,0,0,0,0,0,0,0,0,0,0,0],"id":58,"left_children":[1,-1,3,5,7,-1,9,-1,11,-1,-1,-1,13,-1,15,17,-1,-1,-1],"loss_changes":[1.37596E-1,0E0,1.3650854E-1,9.838033E-2,2.3249184E-1,0E0,1.560498E-2,0E0,2.3003547E-1,0E0,0E0,0E0,1.5293953E-1,0E0,8.1065424E-2,3.9162703E-2,0E0,0E0,0E0],"parents":[2147483647,0,0,2,2,3,3,4,4,6,6,8,8,12,12,14,14,15,15],"right_children":[2,-1,4,6,8,-1,10,-1,12,-1,-1,-1,14,-1,16,18,-1,-1,-1],"split_conditions":[3.1741E-1,7.065655E-3,4.5741E-1,3.5137E-1,4.8622E-1,-1.3052453E-2,5.1093E-1,1.2840365E-2,5.3975E-1,9.2647044E-4,-4.594631E-3,-1.1820408E-2,5.4958E-1,1.2055242E-2,6.9318E-1,6.0974E-1,5.0505516E-3,-1.1352863E-4,-7.1682143E-3],"split_indices":[0,0,0,1,0,0,1,0,0,0,0,0,0,0,0,0,0,0,0],"split_type":[0,0,0,0,0,0,0,0,0,0,0,0,0,0,0,0,0,0,0],"sum_hessian":[7.2E1,1E1,6.2E1,1.8E1,4.4E1,8E0,1E1,6E0,3.8E1,5E0,5E0,9E0,2.9E1,5E0,2.4E1,1.7E1,7E0,8E0,9E0],"tree_param":{"num_deleted":"0","num_feature":"2","num_nodes":"19","size_leaf_vector":"0"}},{"base_weights":[-8.43937E-3,6.5839062E-3,-2.5106564E-2,-1.2172484E-2,-1.0481291E-2,-5.9600793E-2,8.039485E-3,-1.2934732E-1,5.8650984E-3,7.008826E-3,-1.7318007E-2,-2.4644765E-3,-1.5320781E-2,-1.0965387E-2,1.552228E-2,7.573432E-3,-7.4456832E-3,-4.3857023E-3,8.816161E-3],"categories":[],"categories_nodes":[],"categories_segments":[],"categories_sizes":[],"default_left":[0,0,0,0,0,0,0,0,0,0,0,0,0,0,0,0,0,0,0],"id":59,"left_children":[1,-1,3,-1,5,7,9,11,-1,-1,13,-1,-1,-1,15,-1,17,-1,-1],"loss_changes":[1.1928118E-1,0E0,1.24707654E-1,0E0,5.3243574E-2,1.6389462E-1,9.4748735E-2,7.2815254E-2,0E0,0E0,1.4618091E-1,0E0,0E0,0E0,5.5709388E-2,0E0,1.5357958E-1,0E0,0E0],"parents":[2147483647,0,0,2,2,4,4,5,5,6,6,7,7,10,10,14,14,16,16],"right_children":[2,-1,4,-1,6,8,10,12,-1,-1,14,-1,-1,-1,16,-1,18,-1,-1],"split_conditions":[3.1741E-1,6.5839062E-3,3.3776E-1,-1.2172484E-2,2.9855E-1,6.1448E-1,3.7894E-1,1.9247E-1,5.8650984E-3,7.008826E-3,4.2582E-1,-2.4644765E-3,-1.5320781E-2,-1.0965387E-2,4.5032E-1,7.573432E-3,6.0787E-1,-4.3857023E-3,8.816161E-3],"split_indices":[0,0,0,0,1,0,1,1,0,0,1,0,0,0,0,0,1,0,0],"split_type":[0,0,0,0,0,0,0,0,0,0,0,0,0,0,0,0,0,0,0],"sum_hessian":[7.2E1,1E1,6.2E1,5E0,5.7E1,1.5E1,4.2E1,1E1,5E0,9E0,3.3E1,5E0,5E0,6E0,2.7E1,5E0,2.2E1,1.6E1,6E0],"tree_param":{"num_deleted":"0","num_feature":"2","num_nodes":"19","size_leaf_vector":"0"}}]},"name":"gbtree"},"learner_model_param":{"base_score":"5E-1","boost_from_average":"1","num_class":"0","num_feature":"2","num_target":"1"},"objective":{"name":"reg:squarederror","reg_loss_param":{"scale_pos_weight":"1"}}},"version":[1,7,3]}