{"learner":{"attributes":{"best_iteration":"44","best_ntree_limit":"45","best_score":"1.119923101681366"},"feature_names":[],"feature_types":[],"gradient_booster":{"model":{"gbtree_model_param":{"num_parallel_tree":"1","num_trees":"95","size_leaf_vector":"0"},"tree_info":[0,0,0,0,0,0,0,0,0,0,0,0,0,0,0,0,0,0,0,0,0,0,0,0,0,0,0,0,0,0,0,0,0,0,0,0,0,0,0,0,0,0,0,0,0,0,0,0,0,0,0,0,0,0,0,0,0,0,0,0,0,0,0,0,0,0,0,0,0,0,0,0,0,0,0,0,0,0,0,0,0,0,0,0,0,0,0,0,0,0,0,0,0,0,0],"trees":[{"base_weights":[-4.931507E-1,-1.0479397E0,-1.2466117E-1,-5.8684666E-2,-9.858689E-2,-6.247169E-2,1.01507485E-1,3.7758818E-1,-3.443347E-2,4.9650628E-2,2.8500508E-3],"categories":[],"categories_nodes":[],"categories_segments":[],"categories_sizes":[],"default_left":[0,0,0,0,0,0,0,0,0,0,0],"id":0,"left_children":[1,3,5,-1,-1,-1,7,9,-1,-1,-1],"loss_changes":[1.4793041E1,1.0236034E0,7.293284E0,0E0,0E0,0E0,5.590532E0,2.2928963E0,0E0,0E0,0E0],"parents":[2147483647,0,0,1,1,2,2,6,6,7,7],"right_children":[2,4,6,-1,-1,-1,8,10,-1,-1,-1],"split_conditions":[3.5137E-1,2.7448E-1,3.7168E-1,-5.8684666E-2,-9.858689E-2,-6.247169E-2,5.9612E-1,4.9235E-1,-3.443347E-2,4.9650628E-2,2.8500508E-3],"split_indices":[1,1,0,0,0,0,0,1,0,0,0],"split_type":[0,0,0,0,0,0,0,0,0,0,0],"sum_hessian":[7.2E1,2.8E1,4.4E1,1.6E1,1.2E1,1E1,3.4E1,2.3E1,1.1E1,1.2E1,1.1E1],"tree_param":{"num_deleted":"0","num_feature":"2","num_nodes":"11","size_leaf_vector":"0"}},{"base_weights":[-4.5892707E-1,-9.7476727E-1,-1.1629833E-1,-5.4542214E-2,-9.1761634E-2,-5.8212258E-2,9.4410636E-2,3.5145658E-1,-3.2066163E-2,4.6213273E-2,2.6541094E-3],"categories":[],"categories_nodes":[],"categories_segments":[],"categories_sizes":[],"default_left":[0,0,0,0,0,0,0,0,0,0,0],"id":1,"left_children":[1,3,5,-1,-1,-1,7,9,-1,-1,-1],"loss_changes":[1.278878E1,8.9571E-1,6.3300548E0,0E0,0E0,0E0,4.8461294E0,1.9862692E0,0E0,0E0,0E0],"parents":[2147483647,0,0,1,1,2,2,6,6,7,7],"right_children":[2,4,6,-1,-1,-1,8,10,-1,-1,-1],"split_conditions":[3.5137E-1,2.7448E-1,3.7168E-1,-5.4542214E-2,-9.1761634E-2,-5.8212258E-2,5.9612E-1,4.9235E-1,-3.2066163E-2,4.6213273E-2,2.6541094E-3],"split_indices":[1,1,0,0,0,0,0,1,0,0,0],"split_type":[0,0,0,0,0,0,0,0,0,0,0],"sum_hessian":[7.2E1,2.8E1,4.4E1,1.6E1,1.2E1,1E1,3.4E1,2.3E1,1.1E1,1.2E1,1.1E1],"tree_param":{"num_deleted":"0","num_feature":"2","num_nodes":"11","size_leaf_vector":"0"}},{"base_weights":[-4.27079E-1,-9.067047E-1,-1.08496204E-1,-5.069218E-2,-8.54089E-2,-5.424324E-2,8.7809876E-2,3.271335E-1,-2.9861616E-2,4.3013893E-2,2.4716384E-3],"categories":[],"categories_nodes":[],"categories_segments":[],"categories_sizes":[],"default_left":[0,0,0,0,0,0,0,0,0,0,0],"id":2,"left_children":[1,3,5,-1,-1,-1,7,9,-1,-1,-1],"loss_changes":[1.1056063E1,7.837219E-1,5.494044E0,0E0,0E0,0E0,4.200849E0,1.7206473E0,0E0,0E0,0E0],"parents":[2147483647,0,0,1,1,2,2,6,6,7,7],"right_children":[2,4,6,-1,-1,-1,8,10,-1,-1,-1],"split_conditions":[3.5137E-1,2.7448E-1,3.7168E-1,-5.069218E-2,-8.54089E-2,-5.424324E-2,5.9612E-1,4.9235E-1,-2.9861616E-2,4.3013893E-2,2.4716384E-3],"split_indices":[1,1,0,0,0,0,0,1,0,0,0],"split_type":[0,0,0,0,0,0,0,0,0,0,0],"sum_hessian":[7.2E1,2.8E1,4.4E1,1.6E1,1.2E1,1E1,3.4E1,2.3E1,1.1E1,1.2E1,1.1E1],"tree_param":{"num_deleted":"0","num_feature":"2","num_nodes":"11","size_leaf_vector":"0"}},{"base_weights":[-3.9744148E-1,-8.43395E-1,-1.0121718E-1,-4.003333E-2,-7.336935E-2,-5.0544836E-2,8.167055E-2,3.0449373E-1,-2.7808625E-2,4.003601E-2,2.3017132E-3],"categories":[],"categories_nodes":[],"categories_segments":[],"categories_sizes":[],"default_left":[0,0,0,0,0,0,0,0,0,0,0],"id":3,"left_children":[1,3,5,-1,-1,-1,7,9,-1,-1,-1],"loss_changes":[9.558099E0,6.887493E-1,4.7684464E0,0E0,0E0,0E0,3.64149E0,1.490547E0,0E0,0E0,0E0],"parents":[2147483647,0,0,1,1,2,2,6,6,7,7],"right_children":[2,4,6,-1,-1,-1,8,10,-1,-1,-1],"split_conditions":[3.5137E-1,2.0388E-1,3.7168E-1,-4.003333E-2,-7.336935E-2,-5.0544836E-2,5.9612E-1,4.9235E-1,-2.7808625E-2,4.003601E-2,2.3017132E-3],"split_indices":[1,1,0,0,0,0,0,1,0,0,0],"split_type":[0,0,0,0,0,0,0,0,0,0,0],"sum_hessian":[7.2E1,2.8E1,4.4E1,1E1,1.8E1,1E1,3.4E1,2.3E1,1.1E1,1.2E1,1.1E1],"tree_param":{"num_deleted":"0","num_feature":"2","num_nodes":"11","size_leaf_vector":"0"}},{"base_weights":[-3.696802E-1,-7.8405076E-1,-9.442625E-2,-4.3405596E-2,-7.441657E-2,-4.70986E-2,7.5960375E-2,2.6780378E-2,-1.8201835E-2],"categories":[],"categories_nodes":[],"categories_segments":[],"categories_sizes":[],"default_left":[0,0,0,0,0,0,0,0,0],"id":4,"left_children":[1,3,5,-1,-1,-1,7,-1,-1],"loss_changes":[8.252136E0,6.651993E-1,4.138681E0,0E0,0E0,0E0,3.221837E0,0E0,0E0],"parents":[2147483647,0,0,1,1,2,2,6,6],"right_children":[2,4,6,-1,-1,-1,8,-1,-1],"split_conditions":[3.5137E-1,2.7448E-1,3.7168E-1,-4.3405596E-2,-7.441657E-2,-4.70986E-2,5.0995E-1,2.6780378E-2,-1.8201835E-2],"split_indices":[1,1,0,0,0,0,1,0,0],"split_type":[0,0,0,0,0,0,0,0,0],"sum_hessian":[7.2E1,2.8E1,4.4E1,1.6E1,1.2E1,1E1,3.4E1,1.8E1,1.6E1],"tree_param":{"num_deleted":"0","num_feature":"2","num_nodes":"9","size_leaf_vector":"0"}},{"base_weights":[-3.4409586E-1,-7.293098E-1,-8.820028E-2,-4.034167E-2,-6.926465E-2,-4.388733E-2,7.050845E-2,2.7649882E-1,-2.6051104E-2,3.5410263E-2,3.113709E-3],"categories":[],"categories_nodes":[],"categories_segments":[],"categories_sizes":[],"default_left":[0,0,0,0,0,0,0,0,0,0,0],"id":5,"left_children":[1,3,5,-1,-1,-1,7,9,-1,-1,-1],"loss_changes":[7.1316166E0,5.813942E-1,3.5905235E0,0E0,0E0,0E0,3.1086457E0,1.083716E0,0E0,0E0,0E0],"parents":[2147483647,0,0,1,1,2,2,6,6,7,7],"right_children":[2,4,6,-1,-1,-1,8,10,-1,-1,-1],"split_conditions":[3.5137E-1,2.7448E-1,3.7168E-1,-4.034167E-2,-6.926465E-2,-4.388733E-2,5.9612E-1,4.9235E-1,-2.6051104E-2,3.5410263E-2,3.113709E-3],"split_indices":[1,1,0,0,0,0,0,1,0,0,0],"split_type":[0,0,0,0,0,0,0,0,0,0,0],"sum_hessian":[7.2E1,2.8E1,4.4E1,1.6E1,1.2E1,1E1,3.4E1,2.3E1,1.1E1,1.2E1,1.1E1],"tree_param":{"num_deleted":"0","num_feature":"2","num_nodes":"11","size_leaf_vector":"0"}},{"base_weights":[-3.2022044E-1,-6.783911E-1,-8.2283355E-2,-3.1593744E-2,-5.9366815E-2,-4.089501E-2,6.557669E-2,2.5736657E-1,-2.4260087E-2,3.2958783E-2,2.8996412E-3],"categories":[],"categories_nodes":[],"categories_segments":[],"categories_sizes":[],"default_left":[0,0,0,0,0,0,0,0,0,0,0],"id":6,"left_children":[1,3,5,-1,-1,-1,7,9,-1,-1,-1],"loss_changes":[6.1653924E0,5.1044846E-1,3.1163106E0,0E0,0E0,0E0,2.694768E0,9.387523E-1,0E0,0E0,0E0],"parents":[2147483647,0,0,1,1,2,2,6,6,7,7],"right_children":[2,4,6,-1,-1,-1,8,10,-1,-1,-1],"split_conditions":[3.5137E-1,2.0388E-1,3.7168E-1,-3.1593744E-2,-5.9366815E-2,-4.089501E-2,5.9612E-1,4.9235E-1,-2.4260087E-2,3.2958783E-2,2.8996412E-3],"split_indices":[1,1,0,0,0,0,0,1,0,0,0],"split_type":[0,0,0,0,0,0,0,0,0,0,0],"sum_hessian":[7.2E1,2.8E1,4.4E1,1E1,1.8E1,1E1,3.4E1,2.3E1,1.1E1,1.2E1,1.1E1],"tree_param":{"num_deleted":"0","num_feature":"2","num_nodes":"11","size_leaf_vector":"0"}},{"base_weights":[-2.9785126E-1,-6.306483E-1,-7.676315E-2,-3.452871E-2,-6.0359392E-2,-3.8106717E-2,6.0989797E-2,2.2608276E-2,-1.585053E-2],"categories":[],"categories_nodes":[],"categories_segments":[],"categories_sizes":[],"default_left":[0,0,0,0,0,0,0,0,0],"id":7,"left_children":[1,3,5,-1,-1,-1,7,-1,-1],"loss_changes":[5.3227453E0,4.89357E-1,2.7047296E0,0E0,0E0,0E0,2.3556068E0,0E0,0E0],"parents":[2147483647,0,0,1,1,2,2,6,6],"right_children":[2,4,6,-1,-1,-1,8,-1,-1],"split_conditions":[3.5137E-1,2.7448E-1,3.7168E-1,-3.452871E-2,-6.0359392E-2,-3.8106717E-2,5.0995E-1,2.2608276E-2,-1.585053E-2],"split_indices":[1,1,0,0,0,0,1,0,0],"split_type":[0,0,0,0,0,0,0,0,0],"sum_hessian":[7.2E1,2.8E1,4.4E1,1.6E1,1.2E1,1E1,3.4E1,1.8E1,1.6E1],"tree_param":{"num_deleted":"0","num_feature":"2","num_nodes":"9","size_leaf_vector":"0"}},{"base_weights":[-2.772417E-1,-5.866217E-1,-7.170257E-2,-3.2091387E-2,-5.6180667E-2,-3.5508532E-2,5.6608636E-2,2.339164E-1,-2.2704322E-2,2.911183E-2,3.549646E-3],"categories":[],"categories_nodes":[],"categories_segments":[],"categories_sizes":[],"default_left":[0,0,0,0,0,0,0,0,0,0,0],"id":8,"left_children":[1,3,5,-1,-1,-1,7,9,-1,-1,-1],"loss_changes":[4.5999856E0,4.273157E-1,2.3464756E0,0E0,0E0,0E0,2.3007503E0,6.723381E-1,0E0,0E0,0E0],"parents":[2147483647,0,0,1,1,2,2,6,6,7,7],"right_children":[2,4,6,-1,-1,-1,8,10,-1,-1,-1],"split_conditions":[3.5137E-1,2.7448E-1,3.7168E-1,-3.2091387E-2,-5.6180667E-2,-3.5508532E-2,5.9612E-1,4.9235E-1,-2.2704322E-2,2.911183E-2,3.549646E-3],"split_indices":[1,1,0,0,0,0,0,1,0,0,0],"split_type":[0,0,0,0,0,0,0,0,0,0,0],"sum_hessian":[7.2E1,2.8E1,4.4E1,1.6E1,1.2E1,1E1,3.4E1,2.3E1,1.1E1,1.2E1,1.1E1],"tree_param":{"num_deleted":"0","num_feature":"2","num_nodes":"11","size_leaf_vector":"0"}},{"base_weights":[-2.580078E-1,-5.86763E-1,-8.501006E-2,-2.7222078E-2,-5.740721E-2,-2.9697746E-2,1.54249E-2,1.8053004E-1,-2.3697894E-2,1.8285528E-3,2.7050441E-2],"categories":[],"categories_nodes":[],"categories_segments":[],"categories_sizes":[],"default_left":[0,0,0,0,0,0,0,0,0,0,0],"id":9,"left_children":[1,3,5,-1,-1,-1,7,9,-1,-1,-1],"loss_changes":[4.1019154E0,7.2182655E-1,1.5364387E0,0E0,0E0,0E0,2.1362243E0,7.2256386E-1,0E0,0E0,0E0],"parents":[2147483647,0,0,1,1,2,2,6,6,7,7],"right_children":[2,4,6,-1,-1,-1,8,10,-1,-1,-1],"split_conditions":[3.1107E-1,2.4974E-1,3.7168E-1,-2.7222078E-2,-5.740721E-2,-2.9697746E-2,5.9612E-1,5.0974E-1,-2.3697894E-2,1.8285528E-3,2.7050441E-2],"split_indices":[1,1,0,0,0,0,0,0,0,0,0],"split_type":[0,0,0,0,0,0,0,0,0,0,0],"sum_hessian":[7.2E1,2.4E1,4.8E1,1.2E1,1.2E1,1.1E1,3.7E1,2.5E1,1.2E1,1.4E1,1.1E1],"tree_param":{"num_deleted":"0","num_feature":"2","num_nodes":"11","size_leaf_vector":"0"}},{"base_weights":[-2.4015237E-1,-5.46141E-1,-7.913465E-2,-2.5337473E-2,-5.3432863E-2,-2.7656026E-2,1.4404373E-2,1.6810101E-1,-2.2057272E-2,1.7005542E-3,2.5190724E-2],"categories":[],"categories_nodes":[],"categories_segments":[],"categories_sizes":[],"default_left":[0,0,0,0,0,0,0,0,0,0,0],"id":10,"left_children":[1,3,5,-1,-1,-1,7,9,-1,-1,-1],"loss_changes":[3.5534616E0,6.2534046E-1,1.3327245E0,0E0,0E0,0E0,1.8512315E0,6.267595E-1,0E0,0E0,0E0],"parents":[2147483647,0,0,1,1,2,2,6,6,7,7],"right_children":[2,4,6,-1,-1,-1,8,10,-1,-1,-1],"split_conditions":[3.1107E-1,2.4974E-1,3.7168E-1,-2.5337473E-2,-5.3432863E-2,-2.7656026E-2,5.9612E-1,5.0974E-1,-2.2057272E-2,1.7005542E-3,2.5190724E-2],"split_indices":[1,1,0,0,0,0,0,0,0,0,0],"split_type":[0,0,0,0,0,0,0,0,0,0,0],"sum_hessian":[7.2E1,2.4E1,4.8E1,1.2E1,1.2E1,1.1E1,3.7E1,2.5E1,1.2E1,1.4E1,1.1E1],"tree_param":{"num_deleted":"0","num_feature":"2","num_nodes":"11","size_leaf_vector":"0"}},{"base_weights":[-2.235326E-1,-5.0833124E-1,-7.36653E-2,-2.1313742E-2,-4.791133E-2,-2.5754673E-2,1.34512605E-2,1.4127406E-1,-2.3485405E-2,2.1058965E-2,-5.1105693E-3],"categories":[],"categories_nodes":[],"categories_segments":[],"categories_sizes":[],"default_left":[0,0,0,0,0,0,0,0,0,0,0],"id":11,"left_children":[1,3,5,-1,-1,-1,7,9,-1,-1,-1],"loss_changes":[3.0783393E0,5.496664E-1,1.1560202E0,0E0,0E0,0E0,1.6305729E0,8.371789E-1,0E0,0E0,0E0],"parents":[2147483647,0,0,1,1,2,2,6,6,7,7],"right_children":[2,4,6,-1,-1,-1,8,10,-1,-1,-1],"split_conditions":[3.1107E-1,2.0388E-1,3.7168E-1,-2.1313742E-2,-4.791133E-2,-2.5754673E-2,6.0612E-1,5.0995E-1,-2.3485405E-2,2.1058965E-2,-5.1105693E-3],"split_indices":[1,1,0,0,0,0,0,1,0,0,0],"split_type":[0,0,0,0,0,0,0,0,0,0,0],"sum_hessian":[7.2E1,2.4E1,4.8E1,1E1,1.4E1,1.1E1,3.7E1,2.7E1,1E1,1.6E1,1.1E1],"tree_param":{"num_deleted":"0","num_feature":"2","num_nodes":"11","size_leaf_vector":"0"}},{"base_weights":[-2.0817201E-1,-4.456982E-1,-5.0473537E-2,-4.2025305E-2,-1.961257E-2,-2.4016084E-2,6.911541E-2,2.3313856E-1,-1.6776355E-2,9.202463E-3,2.4178741E-2],"categories":[],"categories_nodes":[],"categories_segments":[],"categories_sizes":[],"default_left":[0,0,0,0,0,0,0,0,0,0,0],"id":12,"left_children":[1,3,5,-1,-1,-1,7,9,-1,-1,-1],"loss_changes":[2.7119029E0,4.6584177E-1,1.4737432E0,0E0,0E0,0E0,1.5889814E0,1.6742182E-1,0E0,0E0,0E0],"parents":[2147483647,0,0,1,1,2,2,6,6,7,7],"right_children":[2,4,6,-1,-1,-1,8,10,-1,-1,-1],"split_conditions":[3.5137E-1,5.2988E-1,3.9667E-1,-4.2025305E-2,-1.961257E-2,-2.4016084E-2,5.9612E-1,5.0974E-1,-1.6776355E-2,9.202463E-3,2.4178741E-2],"split_indices":[1,0,0,0,0,0,0,0,0,0,0],"split_type":[0,0,0,0,0,0,0,0,0,0,0],"sum_hessian":[7.2E1,2.8E1,4.4E1,1.6E1,1.2E1,1.3E1,3.1E1,2E1,1.1E1,1E1,1E1],"tree_param":{"num_deleted":"0","num_feature":"2","num_nodes":"11","size_leaf_vector":"0"}},{"base_weights":[-1.9350499E-1,-4.1439626E-1,-4.685272E-2,-2.0406902E-2,-4.2645738E-2,1.1467383E-1,-2.2093384E-1,-3.470511E-3,2.0960797E-2,-2.4221832E-2,-8.175056E-3],"categories":[],"categories_nodes":[],"categories_segments":[],"categories_sizes":[],"default_left":[0,0,0,0,0,0,0,0,0,0,0],"id":13,"left_children":[1,3,5,-1,-1,7,9,-1,-1,-1,-1],"loss_changes":[2.345362E0,4.8169708E-1,1.2906778E0,0E0,0E0,6.4952445E-1,2.1603405E-1,0E0,0E0,0E0,0E0],"parents":[2147483647,0,0,1,1,2,2,5,5,6,6],"right_children":[2,4,6,-1,-1,8,10,-1,-1,-1,-1],"split_conditions":[3.5137E-1,2.7448E-1,5.0995E-1,-2.0406902E-2,-4.2645738E-2,5.3034E-1,6.0787E-1,-3.470511E-3,2.0960797E-2,-2.4221832E-2,-8.175056E-3],"split_indices":[1,1,1,0,0,0,1,0,0,0,0],"split_type":[0,0,0,0,0,0,0,0,0,0,0],"sum_hessian":[7.2E1,2.8E1,4.4E1,1.6E1,1.2E1,2.3E1,2.1E1,1.2E1,1.1E1,1E1,1.1E1],"tree_param":{"num_deleted":"0","num_feature":"2","num_nodes":"11","size_leaf_vector":"0"}},{"base_weights":[-1.8006004E-1,-4.1488916E-1,-5.6574587E-2,-4.055832E-2,-1.5412948E-2,6.272306E-2,-2.0583639E-1,-3.0459692E-3,1.6958717E-2,-2.2570342E-2,-7.6130214E-3],"categories":[],"categories_nodes":[],"categories_segments":[],"categories_sizes":[],"default_left":[0,0,0,0,0,0,0,0,0,0,0],"id":14,"left_children":[1,3,5,-1,-1,7,9,-1,-1,-1,-1],"loss_changes":[2.0933807E0,5.4783964E-1,8.854332E-1,0E0,0E0,4.819462E-1,1.8773413E-1,0E0,0E0,0E0,0E0],"parents":[2147483647,0,0,1,1,2,2,5,5,6,6],"right_children":[2,4,6,-1,-1,8,10,-1,-1,-1,-1],"split_conditions":[3.1107E-1,5.2988E-1,5.0995E-1,-4.055832E-2,-1.5412948E-2,4.3931E-1,6.0787E-1,-3.0459692E-3,1.6958717E-2,-2.2570342E-2,-7.6130214E-3],"split_indices":[1,0,1,0,0,1,1,0,0,0,0],"split_type":[0,0,0,0,0,0,0,0,0,0,0],"sum_hessian":[7.2E1,2.4E1,4.8E1,1.4E1,1E1,2.7E1,2.1E1,1.7E1,1E1,1E1,1.1E1],"tree_param":{"num_deleted":"0","num_feature":"2","num_nodes":"11","size_leaf_vector":"0"}},{"base_weights":[-1.6754515E-1,-3.860113E-1,-5.2663546E-2,-1.3486969E-2,-3.836097E-2,-2.116904E-2,2.1224538E-2,1.3323657E-1,-1.9936988E-2,1.8265434E-2,-2.5596314E-3],"categories":[],"categories_nodes":[],"categories_segments":[],"categories_sizes":[],"default_left":[0,0,0,0,0,0,0,0,0,0,0],"id":15,"left_children":[1,3,5,-1,-1,-1,7,9,-1,-1,-1],"loss_changes":[1.8118067E0,5.5476475E-1,8.372261E-1,0E0,0E0,0E0,1.2572383E0,5.252136E-1,0E0,0E0,0E0],"parents":[2147483647,0,0,1,1,2,2,6,6,7,7],"right_children":[2,4,6,-1,-1,-1,8,10,-1,-1,-1],"split_conditions":[3.1107E-1,2.0388E-1,3.7168E-1,-1.3486969E-2,-3.836097E-2,-2.116904E-2,6.0612E-1,5.0995E-1,-1.9936988E-2,1.8265434E-2,-2.5596314E-3],"split_indices":[1,1,0,0,0,0,0,1,0,0,0],"split_type":[0,0,0,0,0,0,0,0,0,0,0],"sum_hessian":[7.2E1,2.4E1,4.8E1,1E1,1.4E1,1.1E1,3.7E1,2.7E1,1E1,1.6E1,1.1E1],"tree_param":{"num_deleted":"0","num_feature":"2","num_nodes":"11","size_leaf_vector":"0"}},{"base_weights":[-1.5603746E-1,-3.368484E-1,-3.6047347E-2,-1.50477E-2,-3.6679573E-2,-2.3504827E-2,5.214982E-2,1.596169E-2,-9.786989E-3],"categories":[],"categories_nodes":[],"categories_segments":[],"categories_sizes":[],"default_left":[0,0,0,0,0,0,0,0,0],"id":16,"left_children":[1,3,5,-1,-1,-1,7,-1,-1],"loss_changes":[1.5716312E0,5.0314045E-1,1.1171117E0,0E0,0E0,0E0,1.0548729E0,0E0,0E0],"parents":[2147483647,0,0,1,1,2,2,6,6],"right_children":[2,4,6,-1,-1,-1,8,-1,-1],"split_conditions":[3.5137E-1,2.7448E-1,3.7168E-1,-1.50477E-2,-3.6679573E-2,-2.3504827E-2,5.0995E-1,1.596169E-2,-9.786989E-3],"split_indices":[1,1,0,0,0,0,1,0,0],"split_type":[0,0,0,0,0,0,0,0,0],"sum_hessian":[7.2E1,2.8E1,4.4E1,1.6E1,1.2E1,1E1,3.4E1,1.8E1,1.6E1],"tree_param":{"num_deleted":"0","num_feature":"2","num_nodes":"9","size_leaf_vector":"0"}},{"base_weights":[-1.4528064E-1,-3.3776638E-1,-4.4108722E-2,-3.4651108E-2,-1.0322303E-2,1.1625825E-2,-1.1287758E-1,-2.6998147E-2,5.508957E-3,1.3010419E-2,-1.5367818E-2],"categories":[],"categories_nodes":[],"categories_segments":[],"categories_sizes":[],"default_left":[0,0,0,0,0,0,0,0,0,0,0],"id":17,"left_children":[1,3,5,-1,-1,-1,7,-1,9,-1,-1],"loss_changes":[1.4067144E0,5.5807614E-1,6.884658E-1,0E0,0E0,0E0,1.0843456E0,0E0,9.544291E-1,0E0,0E0],"parents":[2147483647,0,0,1,1,2,2,6,6,8,8],"right_children":[2,4,6,-1,-1,-1,8,-1,10,-1,-1],"split_conditions":[3.1107E-1,5.2988E-1,3.9537E-1,-3.4651108E-2,-1.0322303E-2,1.1625825E-2,3.9667E-1,-2.6998147E-2,5.4705E-1,1.3010419E-2,-1.5367818E-2],"split_indices":[1,0,1,0,0,0,0,0,0,0,0],"split_type":[0,0,0,0,0,0,0,0,0,0,0],"sum_hessian":[7.2E1,2.4E1,4.8E1,1.4E1,1E1,1.2E1,3.6E1,1.1E1,2.5E1,1.4E1,1.1E1],"tree_param":{"num_deleted":"0","num_feature":"2","num_nodes":"11","size_leaf_vector":"0"}},{"base_weights":[-1.3524355E-1,-2.9468453E-1,-2.9487297E-2,-1.2076214E-2,-3.3511017E-2,-2.0588132E-2,4.8361838E-2,1.618114E-1,-1.3692558E-2,5.369299E-3,1.9644575E-2],"categories":[],"categories_nodes":[],"categories_segments":[],"categories_sizes":[],"default_left":[0,0,0,0,0,0,0,0,0,0,0],"id":18,"left_children":[1,3,5,-1,-1,-1,7,9,-1,-1,-1],"loss_changes":[1.2222279E0,5.177655E-1,8.7163645E-1,0E0,0E0,0E0,9.4650024E-1,1.9802994E-1,0E0,0E0,0E0],"parents":[2147483647,0,0,1,1,2,2,6,6,7,7],"right_children":[2,4,6,-1,-1,-1,8,10,-1,-1,-1],"split_conditions":[3.5137E-1,2.7448E-1,3.7168E-1,-1.2076214E-2,-3.3511017E-2,-2.0588132E-2,5.9612E-1,5.0974E-1,-1.3692558E-2,5.369299E-3,1.9644575E-2],"split_indices":[1,1,0,0,0,0,0,0,0,0,0],"split_type":[0,0,0,0,0,0,0,0,0,0,0],"sum_hessian":[7.2E1,2.8E1,4.4E1,1.6E1,1.2E1,1E1,3.4E1,2.3E1,1.1E1,1.3E1,1E1],"tree_param":{"num_deleted":"0","num_feature":"2","num_nodes":"11","size_leaf_vector":"0"}},{"base_weights":[-1.258517E-1,-2.9578054E-1,-3.658493E-2,-3.1058675E-2,-8.064401E-3,1.1811188E-2,-1.03782006E-1,-2.4213294E-2,1.3151031E-3,1.1366954E-2,-1.3994988E-2],"categories":[],"categories_nodes":[],"categories_segments":[],"categories_sizes":[],"default_left":[0,0,0,0,0,0,0,0,0,0,0],"id":19,"left_children":[1,3,5,-1,-1,-1,7,-1,9,-1,-1],"loss_changes":[1.0965159E0,5.1240206E-1,6.5534127E-1,0E0,0E0,0E0,8.52267E-1,0E0,7.6234275E-1,0E0,0E0],"parents":[2147483647,0,0,1,1,2,2,6,6,8,8],"right_children":[2,4,6,-1,-1,-1,8,-1,10,-1,-1],"split_conditions":[3.1107E-1,5.2988E-1,3.9537E-1,-3.1058675E-2,-8.064401E-3,1.1811188E-2,3.9667E-1,-2.4213294E-2,5.4705E-1,1.1366954E-2,-1.3994988E-2],"split_indices":[1,0,1,0,0,0,0,0,0,0,0],"split_type":[0,0,0,0,0,0,0,0,0,0,0],"sum_hessian":[7.2E1,2.4E1,4.8E1,1.4E1,1E1,1.2E1,3.6E1,1.1E1,2.5E1,1.4E1,1.1E1],"tree_param":{"num_deleted":"0","num_feature":"2","num_nodes":"11","size_leaf_vector":"0"}},{"base_weights":[-1.1715466E-1,-2.580096E-1,-2.377803E-2,-9.538625E-3,-3.0693406E-2,1.6291436E-2,-9.8840624E-2,-2.8364455E-2,2.8027924E-2,1.4426566E-2,-7.075991E-3],"categories":[],"categories_nodes":[],"categories_segments":[],"categories_sizes":[],"default_left":[0,0,0,0,0,0,0,0,0,0,0],"id":20,"left_children":[1,3,5,-1,-1,-1,7,-1,9,-1,-1],"loss_changes":[9.540019E-1,5.217416E-1,8.3551437E-1,0E0,0E0,0E0,1.2510349E0,0E0,5.208815E-1,0E0,0E0],"parents":[2147483647,0,0,1,1,2,2,6,6,8,8],"right_children":[2,4,6,-1,-1,-1,8,-1,10,-1,-1],"split_conditions":[3.5137E-1,2.7448E-1,4.2546E-1,-9.538625E-3,-3.0693406E-2,1.6291436E-2,3.9667E-1,-2.8364455E-2,5.0995E-1,1.4426566E-2,-7.075991E-3],"split_indices":[1,1,1,0,0,0,0,0,1,0,0],"split_type":[0,0,0,0,0,0,0,0,0,0,0],"sum_hessian":[7.2E1,2.8E1,4.4E1,1.6E1,1.2E1,1E1,3.4E1,1E1,2.4E1,1E1,1.4E1],"tree_param":{"num_deleted":"0","num_feature":"2","num_nodes":"11","size_leaf_vector":"0"}},{"base_weights":[-1.08983874E-1,-2.8073055E-1,-3.887701E-2,-6.232787E-3,-3.3962723E-2,3.6100816E-2,-2.4632841E-2,-8.073298E-2,1.946796E-2,-1.5727948E-2,1.6981814E-3],"categories":[],"categories_nodes":[],"categories_segments":[],"categories_sizes":[],"default_left":[0,0,0,0,0,0,0,0,0,0,0],"id":21,"left_children":[1,3,5,-1,-1,7,-1,9,-1,-1,-1],"loss_changes":[8.680513E-1,6.766342E-1,1.1625211E0,0E0,0E0,1.1436464E0,0E0,3.9139464E-1,0E0,0E0,0E0],"parents":[2147483647,0,0,1,1,2,2,5,5,7,7],"right_children":[2,4,6,-1,-1,8,-1,10,-1,-1,-1],"split_conditions":[2.9855E-1,2.0388E-1,6.0974E-1,-6.232787E-3,-3.3962723E-2,5.3034E-1,-2.4632841E-2,3.7168E-1,1.946796E-2,-1.5727948E-2,1.6981814E-3],"split_indices":[1,1,0,0,0,0,0,0,0,0,0],"split_type":[0,0,0,0,0,0,0,0,0,0,0],"sum_hessian":[7.2E1,2E1,5.2E1,1E1,1E1,4.2E1,1E1,2.8E1,1.4E1,1.2E1,1.6E1],"tree_param":{"num_deleted":"0","num_feature":"2","num_nodes":"11","size_leaf_vector":"0"}},{"base_weights":[-1.0162365E-1,-2.4310012E-1,-2.7367821E-2,-2.6722522E-2,-4.9977177E-3,1.1179586E-2,-8.861671E-2,-2.0123115E-2,-2.2738404E-3,9.928577E-3,-1.278022E-2],"categories":[],"categories_nodes":[],"categories_segments":[],"categories_sizes":[],"default_left":[0,0,0,0,0,0,0,0,0,0,0],"id":22,"left_children":[1,3,5,-1,-1,-1,7,-1,9,-1,-1],"loss_changes":[7.6024485E-1,4.7565103E-1,5.427071E-1,0E0,0E0,0E0,5.734477E-1,0E0,6.111825E-1,0E0,0E0],"parents":[2147483647,0,0,1,1,2,2,6,6,8,8],"right_children":[2,4,6,-1,-1,-1,8,-1,10,-1,-1],"split_conditions":[3.1107E-1,5.2988E-1,3.9537E-1,-2.6722522E-2,-4.9977177E-3,1.1179586E-2,3.9667E-1,-2.0123115E-2,5.4705E-1,9.928577E-3,-1.278022E-2],"split_indices":[1,0,1,0,0,0,0,0,0,0,0],"split_type":[0,0,0,0,0,0,0,0,0,0,0],"sum_hessian":[7.2E1,2.4E1,4.8E1,1.4E1,1E1,1.2E1,3.6E1,1.1E1,2.5E1,1.4E1,1.1E1],"tree_param":{"num_deleted":"0","num_feature":"2","num_nodes":"11","size_leaf_vector":"0"}},{"base_weights":[-9.459798E-2,1.0169582E-2,-1.3328874E-1,-3.489766E-2,-2.8931819E-2,7.967225E-2,-1.7853722E-2,-4.244635E-3,1.7099516E-2],"categories":[],"categories_nodes":[],"categories_segments":[],"categories_sizes":[],"default_left":[0,0,0,0,0,0,0,0,0],"id":23,"left_children":[1,-1,3,-1,5,7,-1,-1,-1],"loss_changes":[6.682345E-1,0E0,2.1693552E0,0E0,1.131807E0,6.79878E-1,0E0,0E0,0E0],"parents":[2147483647,0,0,2,2,4,4,5,5],"right_children":[2,-1,4,-1,6,8,-1,-1,-1],"split_conditions":[3.1741E-1,1.0169582E-2,4.2654E-1,-3.489766E-2,6.0974E-1,5.3034E-1,-1.7853722E-2,-4.244635E-3,1.7099516E-2],"split_indices":[0,0,0,0,0,0,0,0,0],"split_type":[0,0,0,0,0,0,0,0,0],"sum_hessian":[7.2E1,1E1,6.2E1,1.4E1,4.8E1,3.2E1,1.6E1,1.7E1,1.5E1],"tree_param":{"num_deleted":"0","num_feature":"2","num_nodes":"9","size_leaf_vector":"0"}},{"base_weights":[-8.791034E-2,-2.0313047E-1,-1.1703806E-2,-5.0908206E-3,-2.7328063E-2,1.5354608E-2,-7.939087E-2,-2.3192288E-2,2.4914207E-2,9.363803E-3,-8.522082E-3],"categories":[],"categories_nodes":[],"categories_segments":[],"categories_sizes":[],"default_left":[0,0,0,0,0,0,0,0,0,0,0],"id":24,"left_children":[1,3,5,-1,-1,-1,7,-1,9,-1,-1],"loss_changes":[6.386011E-1,6.0771847E-1,6.754873E-1,0E0,0E0,0E0,8.4677464E-1,0E0,3.6032146E-1,0E0,0E0],"parents":[2147483647,0,0,1,1,2,2,6,6,8,8],"right_children":[2,4,6,-1,-1,-1,8,-1,10,-1,-1],"split_conditions":[3.5137E-1,2.7448E-1,4.2546E-1,-5.0908206E-3,-2.7328063E-2,1.5354608E-2,3.9667E-1,-2.3192288E-2,5.4705E-1,9.363803E-3,-8.522082E-3],"split_indices":[1,1,1,0,0,0,0,0,0,0,0],"split_type":[0,0,0,0,0,0,0,0,0,0,0],"sum_hessian":[7.2E1,2.8E1,4.4E1,1.6E1,1.2E1,1E1,3.4E1,1E1,2.4E1,1.4E1,1E1],"tree_param":{"num_deleted":"0","num_feature":"2","num_nodes":"11","size_leaf_vector":"0"}},{"base_weights":[-8.185699E-2,1.0493031E-2,-1.19278386E-1,-3.172992E-2,-2.384804E-2,7.473962E-2,-1.6036596E-2,-4.085528E-3,1.6157504E-2],"categories":[],"categories_nodes":[],"categories_segments":[],"categories_sizes":[],"default_left":[0,0,0,0,0,0,0,0,0],"id":25,"left_children":[1,-1,3,-1,5,7,-1,-1,-1],"loss_changes":[6.2249446E-1,0E0,1.8163135E0,0E0,9.3370265E-1,6.116593E-1,0E0,0E0,0E0],"parents":[2147483647,0,0,2,2,4,4,5,5],"right_children":[2,-1,4,-1,6,8,-1,-1,-1],"split_conditions":[3.1741E-1,1.0493031E-2,4.2654E-1,-3.172992E-2,6.0974E-1,5.3034E-1,-1.6036596E-2,-4.085528E-3,1.6157504E-2],"split_indices":[0,0,0,0,0,0,0,0,0],"split_type":[0,0,0,0,0,0,0,0,0],"sum_hessian":[7.2E1,1E1,6.2E1,1.4E1,4.8E1,3.2E1,1.6E1,1.7E1,1.5E1],"tree_param":{"num_deleted":"0","num_feature":"2","num_nodes":"9","size_leaf_vector":"0"}},{"base_weights":[-7.606295E-2,9.777596E-3,-1.1089909E-1,-2.8647095E-2,-1.8234635E-2,7.82223E-2,-1.4904601E-2,-3.0946683E-3,1.502143E-2],"categories":[],"categories_nodes":[],"categories_segments":[],"categories_sizes":[],"default_left":[0,0,0,0,0,0,0,0,0],"id":26,"left_children":[1,-1,3,-1,5,7,-1,-1,-1],"loss_changes":[5.394194E-1,0E0,1.575458E0,0E0,8.5121703E-1,4.749744E-1,0E0,0E0,0E0],"parents":[2147483647,0,0,2,2,4,4,5,5],"right_children":[2,-1,4,-1,6,8,-1,-1,-1],"split_conditions":[3.1741E-1,9.777596E-3,4.334E-1,-2.8647095E-2,6.0974E-1,5.3034E-1,-1.4904601E-2,-3.0946683E-3,1.502143E-2],"split_indices":[0,0,0,0,0,0,0,0,0],"split_type":[0,0,0,0,0,0,0,0,0],"sum_hessian":[7.2E1,1E1,6.2E1,1.5E1,4.7E1,3.1E1,1.6E1,1.6E1,1.5E1],"tree_param":{"num_deleted":"0","num_feature":"2","num_nodes":"9","size_leaf_vector":"0"}},{"base_weights":[-7.06575E-2,-1.7271608E-1,-3.3162471E-3,-2.5747744E-3,-2.5529718E-2,1.4487039E-2,-6.4971335E-2,-1.9693863E-2,2.4577452E-2,8.901549E-3,-7.949137E-3],"categories":[],"categories_nodes":[],"categories_segments":[],"categories_sizes":[],"default_left":[0,0,0,0,0,0,0,0,0,0,0],"id":27,"left_children":[1,3,5,-1,-1,-1,7,-1,9,-1,-1],"loss_changes":[5.011382E-1,6.6124576E-1,5.5767053E-1,0E0,0E0,0E0,6.2581533E-1,0E0,3.1976804E-1,0E0,0E0],"parents":[2147483647,0,0,1,1,2,2,6,6,8,8],"right_children":[2,4,6,-1,-1,-1,8,-1,10,-1,-1],"split_conditions":[3.5137E-1,2.7448E-1,4.2546E-1,-2.5747744E-3,-2.5529718E-2,1.4487039E-2,3.9667E-1,-1.9693863E-2,5.4705E-1,8.901549E-3,-7.949137E-3],"split_indices":[1,1,1,0,0,0,0,0,0,0,0],"split_type":[0,0,0,0,0,0,0,0,0,0,0],"sum_hessian":[7.2E1,2.8E1,4.4E1,1.6E1,1.2E1,1E1,3.4E1,1E1,2.4E1,1.4E1,1E1],"tree_param":{"num_deleted":"0","num_feature":"2","num_nodes":"11","size_leaf_vector":"0"}},{"base_weights":[-6.5801464E-2,9.990253E-3,-9.950387E-2,-2.6952416E-2,-1.7923694E-2,6.524058E-2,-1.3372942E-2,-3.646062E-3,1.4193721E-2],"categories":[],"categories_nodes":[],"categories_segments":[],"categories_sizes":[],"default_left":[0,0,0,0,0,0,0,0,0],"id":28,"left_children":[1,-1,3,-1,5,7,-1,-1,-1],"loss_changes":[5.028609E-1,0E0,1.3291311E0,0E0,6.651981E-1,4.7512773E-1,0E0,0E0,0E0],"parents":[2147483647,0,0,2,2,4,4,5,5],"right_children":[2,-1,4,-1,6,8,-1,-1,-1],"split_conditions":[3.1741E-1,9.990253E-3,4.2654E-1,-2.6952416E-2,6.0974E-1,5.3034E-1,-1.3372942E-2,-3.646062E-3,1.4193721E-2],"split_indices":[0,0,0,0,0,0,0,0,0],"split_type":[0,0,0,0,0,0,0,0,0],"sum_hessian":[7.2E1,1E1,6.2E1,1.4E1,4.8E1,3.2E1,1.6E1,1.7E1,1.5E1],"tree_param":{"num_deleted":"0","num_feature":"2","num_nodes":"9","size_leaf_vector":"0"}},{"base_weights":[-6.1137415E-2,9.309098E-3,-9.251374E-2,-2.4318263E-2,-1.3343126E-2,1.415206E-2,-7.8508094E-2,-4.1698567E-3,-1.2428968E-2,-6.366161E-3,5.769113E-3],"categories":[],"categories_nodes":[],"categories_segments":[],"categories_sizes":[],"default_left":[0,0,0,0,0,0,0,0,0,0,0],"id":29,"left_children":[1,-1,3,-1,5,-1,7,9,-1,-1,-1],"loss_changes":[4.3581277E-1,0E0,1.1514833E0,0E0,6.4677006E-1,0E0,2.3918541E-1,1.4397573E-1,0E0,0E0,0E0],"parents":[2147483647,0,0,2,2,4,4,6,6,7,7],"right_children":[2,-1,4,-1,6,-1,8,10,-1,-1,-1],"split_conditions":[3.1741E-1,9.309098E-3,4.334E-1,-2.4318263E-2,5.0468E-1,1.415206E-2,6.0974E-1,4.3931E-1,-1.2428968E-2,-6.366161E-3,5.769113E-3],"split_indices":[0,0,0,0,0,0,0,1,0,0,0],"split_type":[0,0,0,0,0,0,0,0,0,0,0],"sum_hessian":[7.2E1,1E1,6.2E1,1.5E1,4.7E1,1.1E1,3.6E1,2E1,1.6E1,1E1,1E1],"tree_param":{"num_deleted":"0","num_feature":"2","num_nodes":"11","size_leaf_vector":"0"}},{"base_weights":[-5.67423E-2,-1.4617969E-1,2.1560735E-3,-6.253676E-4,-2.36392E-2,1.388171E-2,-5.539888E-2,-1.678001E-2,2.0884285E-2,7.896471E-3,-7.2080935E-3],"categories":[],"categories_nodes":[],"categories_segments":[],"categories_sizes":[],"default_left":[0,0,0,0,0,0,0,0,0,0,0],"id":30,"left_children":[1,3,5,-1,-1,-1,7,-1,9,-1,-1],"loss_changes":[3.8485855E-1,6.7297137E-1,4.8404625E-1,0E0,0E0,0E0,4.5411074E-1,0E0,2.5697818E-1,0E0,0E0],"parents":[2147483647,0,0,1,1,2,2,6,6,8,8],"right_children":[2,4,6,-1,-1,-1,8,-1,10,-1,-1],"split_conditions":[3.5137E-1,2.7448E-1,4.2546E-1,-6.253676E-4,-2.36392E-2,1.388171E-2,3.9667E-1,-1.678001E-2,5.4705E-1,7.896471E-3,-7.2080935E-3],"split_indices":[1,1,1,0,0,0,0,0,0,0,0],"split_type":[0,0,0,0,0,0,0,0,0,0,0],"sum_hessian":[7.2E1,2.8E1,4.4E1,1.6E1,1.2E1,1E1,3.4E1,1E1,2.4E1,1.4E1,1E1],"tree_param":{"num_deleted":"0","num_feature":"2","num_nodes":"11","size_leaf_vector":"0"}},{"base_weights":[-5.2849285E-2,9.43052E-3,-8.319271E-2,-2.6646407E-2,-2.515097E-2,3.2267954E-2,-1.1148158E-2,-7.553783E-2,1.3386314E-2,-1.7447406E-2,7.7028596E-3],"categories":[],"categories_nodes":[],"categories_segments":[],"categories_sizes":[],"default_left":[0,0,0,0,0,0,0,0,0,0,0],"id":31,"left_children":[1,-1,3,-1,5,7,-1,9,-1,-1,-1],"loss_changes":[4.0604904E-1,0E0,9.8600644E-1,0E0,3.8060498E-1,5.967116E-1,0E0,6.39912E-1,0E0,0E0,0E0],"parents":[2147483647,0,0,2,2,4,4,5,5,7,7],"right_children":[2,-1,4,-1,6,8,-1,10,-1,-1,-1],"split_conditions":[3.1741E-1,9.43052E-3,3.9667E-1,-2.6646407E-2,6.0974E-1,5.3034E-1,-1.1148158E-2,4.3931E-1,1.3386314E-2,-1.7447406E-2,7.7028596E-3],"split_indices":[0,0,0,0,0,0,0,1,0,0,0],"split_type":[0,0,0,0,0,0,0,0,0,0,0],"sum_hessian":[7.2E1,1E1,6.2E1,1E1,5.2E1,3.6E1,1.6E1,2.1E1,1.5E1,1.1E1,1E1],"tree_param":{"num_deleted":"0","num_feature":"2","num_nodes":"11","size_leaf_vector":"0"}},{"base_weights":[-4.922425E-2,8.7875305E-3,-7.749537E-2,-2.4829606E-2,-2.3406278E-2,2.9946277E-2,-1.0361228E-2,-7.0315436E-2,1.2445088E-2,-1.6247898E-2,7.1776644E-3],"categories":[],"categories_nodes":[],"categories_segments":[],"categories_sizes":[],"default_left":[0,0,0,0,0,0,0,0,0,0,0],"id":32,"left_children":[1,-1,3,-1,5,7,-1,9,-1,-1,-1],"loss_changes":[3.5247684E-1,0E0,8.5630584E-1,0E0,3.2859537E-1,5.1614094E-1,0E0,5.5516183E-1,0E0,0E0,0E0],"parents":[2147483647,0,0,2,2,4,4,5,5,7,7],"right_children":[2,-1,4,-1,6,8,-1,10,-1,-1,-1],"split_conditions":[3.1741E-1,8.7875305E-3,3.9667E-1,-2.4829606E-2,6.0974E-1,5.3034E-1,-1.0361228E-2,4.3931E-1,1.2445088E-2,-1.6247898E-2,7.1776644E-3],"split_indices":[0,0,0,0,0,0,0,1,0,0,0],"split_type":[0,0,0,0,0,0,0,0,0,0,0],"sum_hessian":[7.2E1,1E1,6.2E1,1E1,5.2E1,3.6E1,1.6E1,2.1E1,1.5E1,1.1E1,1E1],"tree_param":{"num_deleted":"0","num_feature":"2","num_nodes":"11","size_leaf_vector":"0"}},{"base_weights":[-4.5847896E-2,-1.2140545E-2,-7.735102E-3,7.8919465E-3,-6.858607E-2,-1.0764099E-2,-1.6733257E-2,5.74341E-3,-8.148816E-3],"categories":[],"categories_nodes":[],"categories_segments":[],"categories_sizes":[],"default_left":[0,0,0,0,0,0,0,0,0],"id":33,"left_children":[1,-1,3,-1,5,-1,7,-1,-1],"loss_changes":[3.2155943E-1,0E0,3.9214918E-1,0E0,1.4136575E-1,0E0,2.0559186E-1,0E0,0E0],"parents":[2147483647,0,0,2,2,4,4,6,6],"right_children":[2,-1,4,-1,6,-1,8,-1,-1],"split_conditions":[3.7168E-1,-1.2140545E-2,5.0468E-1,7.8919465E-3,3.2827E-1,-1.0764099E-2,5.9612E-1,5.74341E-3,-8.148816E-3],"split_indices":[0,0,0,0,1,0,0,0,0],"split_type":[0,0,0,0,0,0,0,0,0],"sum_hessian":[7.2E1,1.7E1,5.5E1,1.9E1,3.6E1,1.4E1,2.2E1,1.1E1,1.1E1],"tree_param":{"num_deleted":"0","num_feature":"2","num_nodes":"9","size_leaf_vector":"0"}},{"base_weights":[-4.26479E-2,9.016144E-3,-7.0407376E-2,-1.9796668E-2,-9.721041E-3,1.2475579E-2,-5.9130322E-2,-1.2772272E-2,-1.4924692E-2,9.222957E-3,-8.962332E-3],"categories":[],"categories_nodes":[],"categories_segments":[],"categories_sizes":[],"default_left":[0,0,0,0,0,0,0,0,0,0,0],"id":34,"left_children":[1,-1,3,-1,5,-1,7,-1,9,-1,-1],"loss_changes":[3.3849669E-1,0E0,7.3741513E-1,0E0,4.3609178E-1,0E0,1.8911184E-1,0E0,4.328854E-1,0E0,0E0],"parents":[2147483647,0,0,2,2,4,4,6,6,8,8],"right_children":[2,-1,4,-1,6,-1,8,-1,10,-1,-1],"split_conditions":[3.1741E-1,9.016144E-3,4.2654E-1,-1.9796668E-2,4.8622E-1,1.2475579E-2,5.4431E-1,-1.2772272E-2,6.0974E-1,9.222957E-3,-8.962332E-3],"split_indices":[0,0,0,0,0,0,0,0,0,0,0],"split_type":[0,0,0,0,0,0,0,0,0,0,0],"sum_hessian":[7.2E1,1E1,6.2E1,1.4E1,4.8E1,1E1,3.8E1,1E1,2.8E1,1.2E1,1.6E1],"tree_param":{"num_deleted":"0","num_feature":"2","num_nodes":"11","size_leaf_vector":"0"}},{"base_weights":[-3.959748E-2,-6.925246E-2,7.694908E-3,-3.2155808E-2,-1.4362079E-2,-1.0153885E-1,9.5442105E-3,-1.6568927E-2,-5.195091E-4],"categories":[],"categories_nodes":[],"categories_segments":[],"categories_sizes":[],"default_left":[0,0,0,0,0,0,0,0,0],"id":35,"left_children":[1,3,-1,5,-1,7,-1,-1,-1],"loss_changes":[3.149336E-1,2.7046308E-1,0E0,5.438248E-1,0E0,3.8249314E-1,0E0,0E0,0E0],"parents":[2147483647,0,0,1,1,3,3,5,5],"right_children":[2,4,-1,6,-1,8,-1,-1,-1],"split_conditions":[5.9698E-1,6.0974E-1,7.694908E-3,5.3034E-1,-1.4362079E-2,3.1107E-1,9.5442105E-3,-1.6568927E-2,-5.195091E-4],"split_indices":[1,0,0,0,0,1,0,0,0],"split_type":[0,0,0,0,0,0,0,0,0],"sum_hessian":[7.2E1,6E1,1.2E1,4.7E1,1.3E1,3.3E1,1.4E1,1.4E1,1.9E1],"tree_param":{"num_deleted":"0","num_feature":"2","num_nodes":"9","size_leaf_vector":"0"}},{"base_weights":[-3.682235E-2,8.653097E-3,-6.281194E-2,-2.1173213E-2,-1.6070712E-2,9.201106E-3,-5.9673317E-2,3.0331958E-2,-1.9189805E-2,-7.253585E-3,1.1651719E-2],"categories":[],"categories_nodes":[],"categories_segments":[],"categories_sizes":[],"default_left":[0,0,0,0,0,0,0,0,0,0,0],"id":36,"left_children":[1,-1,3,-1,5,-1,7,9,-1,-1,-1],"loss_changes":[2.960011E-1,0E0,6.41817E-1,0E0,3.279683E-1,0E0,7.3174715E-1,4.756579E-1,0E0,0E0,0E0],"parents":[2147483647,0,0,2,2,4,4,6,6,7,7],"right_children":[2,-1,4,-1,6,-1,8,10,-1,-1,-1],"split_conditions":[3.1741E-1,8.653097E-3,3.9667E-1,-2.1173213E-2,2.7448E-1,9.201106E-3,6.0974E-1,5.3034E-1,-1.9189805E-2,-7.253585E-3,1.1651719E-2],"split_indices":[0,0,0,0,1,0,0,0,0,0,0],"split_type":[0,0,0,0,0,0,0,0,0,0,0],"sum_hessian":[7.2E1,1E1,6.2E1,1E1,5.2E1,1.2E1,4E1,2.8E1,1.2E1,1.4E1,1.4E1],"tree_param":{"num_deleted":"0","num_feature":"2","num_nodes":"11","size_leaf_vector":"0"}},{"base_weights":[-3.430877E-2,-6.327668E-2,7.819253E-3,2.8794943E-3,-1.0027917E-1,-2.4653956E-2,-2.4884142E-2,-9.8574E-2,8.10181E-3,-1.5705422E-2,2.0919064E-4],"categories":[],"categories_nodes":[],"categories_segments":[],"categories_sizes":[],"default_left":[0,0,0,0,0,0,0,0,0,0,0],"id":37,"left_children":[1,3,-1,-1,5,7,-1,9,-1,-1,-1],"loss_changes":[2.996155E-1,2.3333454E-1,0E0,0E0,7.796777E-1,3.539133E-1,0E0,2.5897178E-1,0E0,0E0,0E0],"parents":[2147483647,0,0,1,1,4,4,5,5,7,7],"right_children":[2,4,-1,-1,6,8,-1,10,-1,-1,-1],"split_conditions":[5.9698E-1,2.7448E-1,7.819253E-3,2.8794943E-3,6.0612E-1,5.3034E-1,-2.4884142E-2,4.2582E-1,8.10181E-3,-1.5705422E-2,2.0919064E-4],"split_indices":[1,1,0,0,0,0,0,1,0,0,0],"split_type":[0,0,0,0,0,0,0,0,0,0,0],"sum_hessian":[7.2E1,6E1,1.2E1,1.6E1,4.4E1,3.4E1,1E1,2.2E1,1.2E1,1E1,1.2E1],"tree_param":{"num_deleted":"0","num_feature":"2","num_nodes":"11","size_leaf_vector":"0"}},{"base_weights":[-3.2031227E-2,-1.1006096E-2,1.6702712E-4,9.1782086E-2,-5.4311305E-2,2.477591E-4,1.2392925E-2,-1.0811447E-1,4.000059E-3,-1.5002161E-2,2.0288883E-3],"categories":[],"categories_nodes":[],"categories_segments":[],"categories_sizes":[],"default_left":[0,0,0,0,0,0,0,0,0,0,0],"id":38,"left_children":[1,-1,3,5,7,-1,-1,9,-1,-1,-1],"loss_changes":[2.6966298E-1,0E0,2.944649E-1,1.4244018E-1,2.2005779E-1,0E0,0E0,3.160042E-1,0E0,0E0,0E0],"parents":[2147483647,0,0,2,2,3,3,4,4,7,7],"right_children":[2,-1,4,6,8,-1,-1,10,-1,-1,-1],"split_conditions":[3.3776E-1,-1.1006096E-2,5.0468E-1,4.334E-1,6.2697E-1,2.477591E-4,1.2392925E-2,4.3931E-1,4.000059E-3,-1.5002161E-2,2.0288883E-3],"split_indices":[0,0,0,0,0,0,0,1,0,0,0],"split_type":[0,0,0,0,0,0,0,0,0,0,0],"sum_hessian":[7.2E1,1.5E1,5.7E1,2.1E1,3.6E1,1E1,1.1E1,2.4E1,1.2E1,1.4E1,1E1],"tree_param":{"num_deleted":"0","num_feature":"2","num_nodes":"11","size_leaf_vector":"0"}},{"base_weights":[-2.9729417E-2,9.219828E-3,-5.591252E-2,-1.641214E-2,-4.4233943E-4,1.154091E-2,-5.0480485E-2,-1.0052482E-1,3.7231306E-3,-1.6438195E-2,-5.109266E-4],"categories":[],"categories_nodes":[],"categories_segments":[],"categories_sizes":[],"default_left":[0,0,0,0,0,0,0,0,0,0,0],"id":39,"left_children":[1,-1,3,-1,5,-1,7,9,-1,-1,-1],"loss_changes":[2.986635E-1,0E0,5.6923306E-1,0E0,3.7842116E-1,0E0,1.9038057E-1,2.764841E-1,0E0,0E0,0E0],"parents":[2147483647,0,0,2,2,4,4,6,6,7,7],"right_children":[2,-1,4,-1,6,-1,8,10,-1,-1,-1],"split_conditions":[3.1741E-1,9.219828E-3,4.334E-1,-1.641214E-2,5.0468E-1,1.154091E-2,6.2697E-1,3.6466E-1,3.7231306E-3,-1.6438195E-2,-5.109266E-4],"split_indices":[0,0,0,0,0,0,0,1,0,0,0],"split_type":[0,0,0,0,0,0,0,0,0,0,0],"sum_hessian":[7.2E1,1E1,6.2E1,1.5E1,4.7E1,1.1E1,3.6E1,2.4E1,1.2E1,1E1,1.4E1],"tree_param":{"num_deleted":"0","num_feature":"2","num_nodes":"11","size_leaf_vector":"0"}},{"base_weights":[-2.7621314E-2,8.591204E-3,-5.2006334E-2,-1.4480992E-2,4.326931E-3,5.6212734E-2,-9.878044E-3,1.1562996E-1,-4.6766014E-3,-2.4848375E-3,1.7445762E-2],"categories":[],"categories_nodes":[],"categories_segments":[],"categories_sizes":[],"default_left":[0,0,0,0,0,0,0,0,0,0,0],"id":40,"left_children":[1,-1,3,-1,5,7,-1,9,-1,-1,-1],"loss_changes":[2.590363E-1,0E0,5.0150484E-1,0E0,3.320828E-1,2.4673826E-1,0E0,4.079551E-1,0E0,0E0,0E0],"parents":[2147483647,0,0,2,2,4,4,5,5,7,7],"right_children":[2,-1,4,-1,6,8,-1,10,-1,-1,-1],"split_conditions":[3.1741E-1,8.591204E-3,4.565E-1,-1.4480992E-2,5.0995E-1,6.0974E-1,-9.878044E-3,5.3034E-1,-4.6766014E-3,-2.4848375E-3,1.7445762E-2],"split_indices":[0,0,0,0,1,0,0,0,0,0,0],"split_type":[0,0,0,0,0,0,0,0,0,0,0],"sum_hessian":[7.2E1,1E1,6.2E1,1.7E1,4.5E1,3.3E1,1.2E1,2.2E1,1.1E1,1E1,1.2E1],"tree_param":{"num_deleted":"0","num_feature":"2","num_nodes":"11","size_leaf_vector":"0"}},{"base_weights":[-2.5624832E-2,-1.0343064E-2,5.7915063E-3,7.904734E-3,-4.5436457E-2,-1.1822621E-2,-1.3116346E-3,6.8420847E-3,-5.3999946E-3],"categories":[],"categories_nodes":[],"categories_segments":[],"categories_sizes":[],"default_left":[0,0,0,0,0,0,0,0,0],"id":41,"left_children":[1,-1,3,-1,5,-1,7,-1,-1],"loss_changes":[2.5830692E-1,0E0,3.0073726E-1,0E0,1.9287202E-1,0E0,1.9627056E-1,0E0,0E0],"parents":[2147483647,0,0,2,2,4,4,6,6],"right_children":[2,-1,4,-1,6,-1,8,-1,-1],"split_conditions":[3.3776E-1,-1.0343064E-2,4.8622E-1,7.904734E-3,5.4431E-1,-1.1822621E-2,6.0974E-1,6.8420847E-3,-5.3999946E-3],"split_indices":[0,0,0,0,0,0,0,0,0],"split_type":[0,0,0,0,0,0,0,0,0],"sum_hessian":[7.2E1,1.5E1,5.7E1,1.9E1,3.8E1,1E1,2.8E1,1.2E1,1.6E1],"tree_param":{"num_deleted":"0","num_feature":"2","num_nodes":"9","size_leaf_vector":"0"}},{"base_weights":[-2.3878573E-2,-5.172728E-2,8.147472E-3,3.8005041E-3,-8.926248E-2,-2.227185E-2,-2.207248E-2,-8.7729454E-2,7.143824E-3,8.304499E-4,-1.4739015E-2],"categories":[],"categories_nodes":[],"categories_segments":[],"categories_sizes":[],"default_left":[0,0,0,0,0,0,0,0,0,0,0],"id":42,"left_children":[1,3,-1,-1,5,7,-1,9,-1,-1,-1],"loss_changes":[2.750093E-1,2.3898463E-1,0E0,0E0,6.115462E-1,2.7760303E-1,0E0,2.4939737E-1,0E0,0E0,0E0],"parents":[2147483647,0,0,1,1,4,4,5,5,7,7],"right_children":[2,4,-1,-1,6,8,-1,10,-1,-1,-1],"split_conditions":[5.9698E-1,2.7448E-1,8.147472E-3,3.8005041E-3,6.0612E-1,5.3034E-1,-2.207248E-2,4.0369E-1,7.143824E-3,8.304499E-4,-1.4739015E-2],"split_indices":[1,1,0,0,0,0,0,0,0,0,0],"split_type":[0,0,0,0,0,0,0,0,0,0,0],"sum_hessian":[7.2E1,6E1,1.2E1,1.6E1,4.4E1,3.4E1,1E1,2.2E1,1.2E1,1.2E1,1E1],"tree_param":{"num_deleted":"0","num_feature":"2","num_nodes":"11","size_leaf_vector":"0"}},{"base_weights":[-2.2319041E-2,-9.867091E-3,8.201538E-3,7.510963E-3,-3.915985E-2,-8.687198E-2,4.7210157E-3,-1.4023253E-2,4.0380224E-3],"categories":[],"categories_nodes":[],"categories_segments":[],"categories_sizes":[],"default_left":[0,0,0,0,0,0,0,0,0],"id":43,"left_children":[1,-1,3,-1,5,7,-1,-1,-1],"loss_changes":[2.444708E-1,0E0,2.5648996E-1,0E0,1.9546577E-1,3.9038786E-1,0E0,0E0,0E0],"parents":[2147483647,0,0,2,2,4,4,5,5],"right_children":[2,-1,4,-1,6,8,-1,-1,-1],"split_conditions":[3.3776E-1,-9.867091E-3,4.8622E-1,7.510963E-3,6.2697E-1,4.432E-1,4.7210157E-3,-1.4023253E-2,4.0380224E-3],"split_indices":[0,0,0,0,0,1,0,0,0],"split_type":[0,0,0,0,0,0,0,0,0],"sum_hessian":[7.2E1,1.5E1,5.7E1,1.9E1,3.8E1,2.6E1,1.2E1,1.5E1,1.1E1],"tree_param":{"num_deleted":"0","num_feature":"2","num_nodes":"9","size_leaf_vector":"0"}},{"base_weights":[-2.0749494E-2,9.206756E-3,-4.547678E-2,-1.3912162E-2,1.0301771E-2,6.1935827E-2,-9.415019E-3,1.1221219E-1,-2.9691393E-3,-1.580416E-3,1.622697E-2],"categories":[],"categories_nodes":[],"categories_segments":[],"categories_sizes":[],"default_left":[0,0,0,0,0,0,0,0,0,0,0],"id":44,"left_children":[1,-1,3,-1,5,7,-1,9,-1,-1,-1],"loss_changes":[2.6462454E-1,0E0,4.9394345E-1,0E0,3.3040658E-1,1.7798766E-1,0E0,3.238274E-1,0E0,0E0,0E0],"parents":[2147483647,0,0,2,2,4,4,5,5,7,7],"right_children":[2,-1,4,-1,6,8,-1,10,-1,-1,-1],"split_conditions":[3.1741E-1,9.206756E-3,4.565E-1,-1.3912162E-2,5.0995E-1,6.0974E-1,-9.415019E-3,5.3034E-1,-2.9691393E-3,-1.580416E-3,1.622697E-2],"split_indices":[0,0,0,0,1,0,0,0,0,0,0],"split_type":[0,0,0,0,0,0,0,0,0,0,0],"sum_hessian":[7.2E1,1E1,6.2E1,1.7E1,4.5E1,3.3E1,1.2E1,2.2E1,1.1E1,1E1,1.2E1],"tree_param":{"num_deleted":"0","num_feature":"2","num_nodes":"11","size_leaf_vector":"0"}},{"base_weights":[-1.922676E-2,-4.5990314E-2,8.08763E-3,3.3656668E-3,-1.2768131E-1,-7.5592496E-2,1.5841661E-2,-4.538075E-3,-1.4659572E-2,3.9387066E-3,-1.7797824E-2],"categories":[],"categories_nodes":[],"categories_segments":[],"categories_sizes":[],"default_left":[0,0,0,0,0,0,0,0,0,0,0],"id":45,"left_children":[1,3,-1,5,7,9,-1,-1,-1,-1,-1],"loss_changes":[2.5320506E-1,2.4637805E-1,0E0,6.5603346E-1,9.289223E-2,6.132458E-1,0E0,0E0,0E0,0E0,0E0],"parents":[2147483647,0,0,1,1,3,3,4,4,5,5],"right_children":[2,4,-1,6,8,10,-1,-1,-1,-1,-1],"split_conditions":[5.9698E-1,4.2546E-1,8.08763E-3,3.5137E-1,5.2395E-1,2.7448E-1,1.5841661E-2,-4.538075E-3,-1.4659572E-2,3.9387066E-3,-1.7797824E-2],"split_indices":[1,1,0,1,0,1,0,0,0,0,0],"split_type":[0,0,0,0,0,0,0,0,0,0,0],"sum_hessian":[7.2E1,6E1,1.2E1,3.8E1,2.2E1,2.8E1,1E1,1.2E1,1E1,1.6E1,1.2E1],"tree_param":{"num_deleted":"0","num_feature":"2","num_nodes":"11","size_leaf_vector":"0"}},{"base_weights":[-1.7909788E-2,-9.359996E-3,1.188594E-2,7.636893E-3,-3.4541544E-2,-7.970565E-2,4.6438402E-3,-1.318039E-2,4.1235248E-3],"categories":[],"categories_nodes":[],"categories_segments":[],"categories_sizes":[],"default_left":[0,0,0,0,0,0,0,0,0],"id":46,"left_children":[1,-1,3,-1,5,7,-1,-1,-1],"loss_changes":[2.3397888E-1,0E0,2.457052E-1,0E0,1.7483881E-1,3.5888773E-1,0E0,0E0,0E0],"parents":[2147483647,0,0,2,2,4,4,5,5],"right_children":[2,-1,4,-1,6,8,-1,-1,-1],"split_conditions":[3.3776E-1,-9.359996E-3,4.8622E-1,7.636893E-3,6.2697E-1,4.432E-1,4.6438402E-3,-1.318039E-2,4.1235248E-3],"split_indices":[0,0,0,0,0,1,0,0,0],"split_type":[0,0,0,0,0,0,0,0,0],"sum_hessian":[7.2E1,1.5E1,5.7E1,1.9E1,3.8E1,2.6E1,1.2E1,1.5E1,1.1E1],"tree_param":{"num_deleted":"0","num_feature":"2","num_nodes":"9","size_leaf_vector":"0"}},{"base_weights":[-1.6650613E-2,9.289971E-3,-4.0921014E-2,-1.41401915E-2,9.136464E-3,1.0738052E-2,-3.4582105E-2,-8.114977E-2,4.3223444E-3,-1.3367265E-2,-3.410603E-4],"categories":[],"categories_nodes":[],"categories_segments":[],"categories_sizes":[],"default_left":[0,0,0,0,0,0,0,0,0,0,0],"id":47,"left_children":[1,-1,3,-1,5,-1,7,9,-1,-1,-1],"loss_changes":[2.54028E-1,0E0,4.672439E-1,0E0,2.8622788E-1,0E0,1.6356072E-1,1.8510409E-1,0E0,0E0,0E0],"parents":[2147483647,0,0,2,2,4,4,6,6,7,7],"right_children":[2,-1,4,-1,6,-1,8,10,-1,-1,-1],"split_conditions":[3.1741E-1,9.289971E-3,4.334E-1,-1.41401915E-2,5.0468E-1,1.0738052E-2,6.2697E-1,3.6466E-1,4.3223444E-3,-1.3367265E-2,-3.410603E-4],"split_indices":[0,0,0,0,0,0,0,1,0,0,0],"split_type":[0,0,0,0,0,0,0,0,0,0,0],"sum_hessian":[7.2E1,1E1,6.2E1,1.5E1,4.7E1,1.1E1,3.6E1,2.4E1,1.2E1,1E1,1.4E1],"tree_param":{"num_deleted":"0","num_feature":"2","num_nodes":"11","size_leaf_vector":"0"}},{"base_weights":[-1.544974E-2,8.656563E-3,-3.8054924E-2,-1.2432567E-2,1.2746859E-2,6.53353E-2,-9.432952E-3,1.1415172E-1,-2.5255578E-3,-1.5399643E-3,1.6450103E-2],"categories":[],"categories_nodes":[],"categories_segments":[],"categories_sizes":[],"default_left":[0,0,0,0,0,0,0,0,0,0,0],"id":48,"left_children":[1,-1,3,-1,5,7,-1,9,-1,-1,-1],"loss_changes":[2.2035214E-1,0E0,4.108588E-1,0E0,3.4330565E-1,1.6817565E-1,0E0,3.3033362E-1,0E0,0E0,0E0],"parents":[2147483647,0,0,2,2,4,4,5,5,7,7],"right_children":[2,-1,4,-1,6,8,-1,10,-1,-1,-1],"split_conditions":[3.1741E-1,8.656563E-3,4.565E-1,-1.2432567E-2,5.0995E-1,6.0974E-1,-9.432952E-3,5.3034E-1,-2.5255578E-3,-1.5399643E-3,1.6450103E-2],"split_indices":[0,0,0,0,1,0,0,0,0,0,0],"split_type":[0,0,0,0,0,0,0,0,0,0,0],"sum_hessian":[7.2E1,1E1,6.2E1,1.7E1,4.5E1,3.3E1,1.2E1,2.2E1,1.1E1,1E1,1.2E1],"tree_param":{"num_deleted":"0","num_feature":"2","num_nodes":"11","size_leaf_vector":"0"}},{"base_weights":[-1.4302294E-2,-8.920316E-3,1.4809191E-2,7.919698E-3,-3.2127853E-2,-1.0317555E-2,8.97431E-3,6.351491E-3,-6.8043247E-3],"categories":[],"categories_nodes":[],"categories_segments":[],"categories_sizes":[],"default_left":[0,0,0,0,0,0,0,0,0],"id":49,"left_children":[1,-1,3,-1,5,-1,7,-1,-1],"loss_changes":[2.2412574E-1,0E0,2.5054583E-1,0E0,1.702525E-1,0E0,2.2658691E-1,0E0,0E0],"parents":[2147483647,0,0,2,2,4,4,6,6],"right_children":[2,-1,4,-1,6,-1,8,-1,-1],"split_conditions":[3.3776E-1,-8.920316E-3,4.8622E-1,7.919698E-3,5.4431E-1,-1.0317555E-2,3.9201E-1,6.351491E-3,-6.8043247E-3],"split_indices":[0,0,0,0,0,0,1,0,0],"split_type":[0,0,0,0,0,0,0,0,0],"sum_hessian":[7.2E1,1.5E1,5.7E1,1.9E1,3.8E1,1E1,2.8E1,1.6E1,1.2E1],"tree_param":{"num_deleted":"0","num_feature":"2","num_nodes":"9","size_leaf_vector":"0"}},{"base_weights":[-1.3390858E-2,-3.958073E-2,8.289761E-3,8.257368E-3,-1.189766E-1,-6.307037E-2,1.4666441E-2,-4.3355403E-3,-1.3533874E-2,4.1919947E-3,-1.6033998E-2],"categories":[],"categories_nodes":[],"categories_segments":[],"categories_sizes":[],"default_left":[0,0,0,0,0,0,0,0,0,0,0],"id":50,"left_children":[1,3,-1,5,7,9,-1,-1,-1,-1,-1],"loss_changes":[2.4129452E-1,2.326694E-1,0E0,5.3334785E-1,7.605758E-2,5.31912E-1,0E0,0E0,0E0,0E0,0E0],"parents":[2147483647,0,0,1,1,3,3,4,4,5,5],"right_children":[2,4,-1,6,8,10,-1,-1,-1,-1,-1],"split_conditions":[5.9698E-1,4.2546E-1,8.289761E-3,3.5137E-1,5.2395E-1,2.7448E-1,1.4666441E-2,-4.3355403E-3,-1.3533874E-2,4.1919947E-3,-1.6033998E-2],"split_indices":[1,1,0,1,0,1,0,0,0,0,0],"split_type":[0,0,0,0,0,0,0,0,0,0,0],"sum_hessian":[7.2E1,6E1,1.2E1,3.8E1,2.2E1,2.8E1,1E1,1.2E1,1E1,1.6E1,1.2E1],"tree_param":{"num_deleted":"0","num_feature":"2","num_nodes":"11","size_leaf_vector":"0"}},{"base_weights":[-1.2479083E-2,8.720015E-3,-3.4760453E-2,-1.2675541E-2,1.0712645E-2,1.0031756E-2,-2.9483078E-2,-7.258994E-2,4.1761994E-3,-1.0797274E-2,2.3502703E-3],"categories":[],"categories_nodes":[],"categories_segments":[],"categories_sizes":[],"default_left":[0,0,0,0,0,0,0,0,0,0,0],"id":51,"left_children":[1,-1,3,-1,5,-1,7,9,-1,-1,-1],"loss_changes":[2.1345194E-1,0E0,3.8640133E-1,0E0,2.4134418E-1,0E0,1.3987742E-1,1.8995254E-1,0E0,0E0,0E0],"parents":[2147483647,0,0,2,2,4,4,6,6,7,7],"right_children":[2,-1,4,-1,6,-1,8,10,-1,-1,-1],"split_conditions":[3.1741E-1,8.720015E-3,4.334E-1,-1.2675541E-2,5.0468E-1,1.0031756E-2,6.2697E-1,4.3931E-1,4.1761994E-3,-1.0797274E-2,2.3502703E-3],"split_indices":[0,0,0,0,0,0,0,1,0,0,0],"split_type":[0,0,0,0,0,0,0,0,0,0,0],"sum_hessian":[7.2E1,1E1,6.2E1,1.5E1,4.7E1,1.1E1,3.6E1,2.4E1,1.2E1,1.4E1,1E1],"tree_param":{"num_deleted":"0","num_feature":"2","num_nodes":"11","size_leaf_vector":"0"}},{"base_weights":[-1.1518414E-2,-8.51018E-3,1.6804498E-2,7.415884E-3,-2.5715593E-2,-9.465654E-3,1.3289235E-2,6.3467734E-3,-6.076236E-3],"categories":[],"categories_nodes":[],"categories_segments":[],"categories_sizes":[],"default_left":[0,0,0,0,0,0,0,0,0],"id":52,"left_children":[1,-1,3,-1,5,-1,7,-1,-1],"loss_changes":[2.1269716E-1,0E0,2.0495066E-1,0E0,1.545462E-1,0E0,2.0194592E-1,0E0,0E0],"parents":[2147483647,0,0,2,2,4,4,6,6],"right_children":[2,-1,4,-1,6,-1,8,-1,-1],"split_conditions":[3.3776E-1,-8.51018E-3,4.8622E-1,7.415884E-3,5.4431E-1,-9.465654E-3,3.9201E-1,6.3467734E-3,-6.076236E-3],"split_indices":[0,0,0,0,0,0,1,0,0],"split_type":[0,0,0,0,0,0,0,0,0],"sum_hessian":[7.2E1,1.5E1,5.7E1,1.9E1,3.8E1,1E1,2.8E1,1.6E1,1.2E1],"tree_param":{"num_deleted":"0","num_feature":"2","num_nodes":"9","size_leaf_vector":"0"}},{"base_weights":[-1.0795491E-2,-3.5523485E-2,7.954972E-3,9.322324E-3,-1.10021874E-1,-5.7007823E-2,1.3750893E-2,-4.2369696E-3,-1.2246103E-2,4.0377593E-3,-1.4817995E-2],"categories":[],"categories_nodes":[],"categories_segments":[],"categories_sizes":[],"default_left":[0,0,0,0,0,0,0,0,0,0,0],"id":53,"left_children":[1,3,-1,5,7,9,-1,-1,-1,-1,-1],"loss_changes":[2.1472013E-1,2.0482305E-1,0E0,4.6062776E-1,5.6347013E-2,4.624834E-1,0E0,0E0,0E0,0E0,0E0],"parents":[2147483647,0,0,1,1,3,3,4,4,5,5],"right_children":[2,4,-1,6,8,10,-1,-1,-1,-1,-1],"split_conditions":[5.9698E-1,4.2546E-1,7.954972E-3,3.5137E-1,5.2395E-1,2.7448E-1,1.3750893E-2,-4.2369696E-3,-1.2246103E-2,4.0377593E-3,-1.4817995E-2],"split_indices":[1,1,0,1,0,1,0,0,0,0,0],"split_type":[0,0,0,0,0,0,0,0,0,0,0],"sum_hessian":[7.2E1,6E1,1.2E1,3.8E1,2.2E1,2.8E1,1E1,1.2E1,1E1,1.6E1,1.2E1],"tree_param":{"num_deleted":"0","num_feature":"2","num_nodes":"11","size_leaf_vector":"0"}},{"base_weights":[-1.0061951E-2,8.74306E-3,-3.20133E-2,-1.15013E-2,1.616248E-2,6.519295E-2,-8.498576E-3,1.168599E-1,-2.9451079E-3,-1.1786977E-3,1.650377E-2],"categories":[],"categories_nodes":[],"categories_segments":[],"categories_sizes":[],"default_left":[0,0,0,0,0,0,0,0,0,0,0],"id":54,"left_children":[1,-1,3,-1,5,7,-1,9,-1,-1,-1],"loss_changes":[2.0665972E-1,0E0,3.7074643E-1,0E0,2.994095E-1,1.8809311E-1,0E0,3.1811094E-1,0E0,0E0,0E0],"parents":[2147483647,0,0,2,2,4,4,5,5,7,7],"right_children":[2,-1,4,-1,6,8,-1,10,-1,-1,-1],"split_conditions":[3.1741E-1,8.74306E-3,4.565E-1,-1.15013E-2,5.0995E-1,6.0974E-1,-8.498576E-3,5.3034E-1,-2.9451079E-3,-1.1786977E-3,1.650377E-2],"split_indices":[0,0,0,0,1,0,0,0,0,0,0],"split_type":[0,0,0,0,0,0,0,0,0,0,0],"sum_hessian":[7.2E1,1E1,6.2E1,1.7E1,4.5E1,3.3E1,1.2E1,2.2E1,1.1E1,1E1,1.2E1],"tree_param":{"num_deleted":"0","num_feature":"2","num_nodes":"11","size_leaf_vector":"0"}},{"base_weights":[-9.29192E-3,-3.3413444E-2,7.845635E-3,4.064119E-3,-6.57649E-2,-5.631633E-3,-1.8833954E-2,-6.6394724E-2,7.6729124E-3,-1.3110133E-2,2.2831205E-3],"categories":[],"categories_nodes":[],"categories_segments":[],"categories_sizes":[],"default_left":[0,0,0,0,0,0,0,0,0,0,0],"id":55,"left_children":[1,3,-1,-1,5,7,-1,9,-1,-1,-1],"loss_changes":[2.0405921E-1,1.7644024E-1,0E0,0E0,5.001544E-1,2.3634332E-1,0E0,2.4676926E-1,0E0,0E0,0E0],"parents":[2147483647,0,0,1,1,4,4,5,5,7,7],"right_children":[2,4,-1,-1,6,8,-1,10,-1,-1,-1],"split_conditions":[5.9698E-1,2.7448E-1,7.845635E-3,4.064119E-3,6.0612E-1,5.3034E-1,-1.8833954E-2,4.2582E-1,7.6729124E-3,-1.3110133E-2,2.2831205E-3],"split_indices":[1,1,0,0,0,0,0,1,0,0,0],"split_type":[0,0,0,0,0,0,0,0,0,0,0],"sum_hessian":[7.2E1,6E1,1.2E1,1.6E1,4.4E1,3.4E1,1E1,2.2E1,1.2E1,1E1,1.2E1],"tree_param":{"num_deleted":"0","num_feature":"2","num_nodes":"11","size_leaf_vector":"0"}},{"base_weights":[-8.7330835E-3,-8.095199E-3,1.8783804E-2,7.4063693E-3,-2.2706952E-2,-9.039636E-3,1.5180761E-2,6.0742986E-3,-5.403455E-3],"categories":[],"categories_nodes":[],"categories_segments":[],"categories_sizes":[],"default_left":[0,0,0,0,0,0,0,0,0],"id":56,"left_children":[1,-1,3,-1,5,-1,7,-1,-1],"loss_changes":[2.0129955E-1,0E0,1.9468193E-1,0E0,1.4637282E-1,0E0,1.7230628E-1,0E0,0E0],"parents":[2147483647,0,0,2,2,4,4,6,6],"right_children":[2,-1,4,-1,6,-1,8,-1,-1],"split_conditions":[3.3776E-1,-8.095199E-3,4.8622E-1,7.4063693E-3,5.4431E-1,-9.039636E-3,3.9201E-1,6.0742986E-3,-5.403455E-3],"split_indices":[0,0,0,0,0,0,1,0,0],"split_type":[0,0,0,0,0,0,0,0,0],"sum_hessian":[7.2E1,1.5E1,5.7E1,1.9E1,3.8E1,1E1,2.8E1,1.6E1,1.2E1],"tree_param":{"num_deleted":"0","num_feature":"2","num_nodes":"9","size_leaf_vector":"0"}},{"base_weights":[-8.202174E-3,8.979997E-3,-3.0409917E-2,-1.0979075E-2,1.5633764E-2,6.1029606E-2,-7.822231E-3,1.0667765E-1,-2.3661212E-3,-1.024839E-3,1.5022475E-2],"categories":[],"categories_nodes":[],"categories_segments":[],"categories_sizes":[],"default_left":[0,0,0,0,0,0,0,0,0,0,0],"id":57,"left_children":[1,-1,3,-1,5,7,-1,9,-1,-1,-1],"loss_changes":[2.1104558E-1,0E0,3.3871126E-1,0E0,2.5680444E-1,1.4704947E-1,0E0,2.618706E-1,0E0,0E0,0E0],"parents":[2147483647,0,0,2,2,4,4,5,5,7,7],"right_children":[2,-1,4,-1,6,8,-1,10,-1,-1,-1],"split_conditions":[3.1741E-1,8.979997E-3,4.565E-1,-1.0979075E-2,5.0995E-1,6.0974E-1,-7.822231E-3,5.3034E-1,-2.3661212E-3,-1.024839E-3,1.5022475E-2],"split_indices":[0,0,0,0,1,0,0,0,0,0,0],"split_type":[0,0,0,0,0,0,0,0,0,0,0],"sum_hessian":[7.2E1,1E1,6.2E1,1.7E1,4.5E1,3.3E1,1.2E1,2.2E1,1.1E1,1E1,1.2E1],"tree_param":{"num_deleted":"0","num_feature":"2","num_nodes":"11","size_leaf_vector":"0"}},{"base_weights":[-7.5622187E-3,-3.1941544E-2,8.05611E-3,1.00210775E-2,-1.01706795E-1,-5.182805E-2,1.2912515E-2,-3.568032E-3,-1.17327105E-2,3.9184196E-3,-1.3795319E-2],"categories":[],"categories_nodes":[],"categories_segments":[],"categories_sizes":[],"default_left":[0,0,0,0,0,0,0,0,0,0,0],"id":58,"left_children":[1,3,-1,5,7,9,-1,-1,-1,-1,-1],"loss_changes":[2.0805453E-1,1.7959872E-1,0E0,4.000375E-1,6.0699E-2,4.0833443E-1,0E0,0E0,0E0,0E0,0E0],"parents":[2147483647,0,0,1,1,3,3,4,4,5,5],"right_children":[2,4,-1,6,8,10,-1,-1,-1,-1,-1],"split_conditions":[5.9698E-1,4.2546E-1,8.05611E-3,3.5137E-1,5.2395E-1,2.7448E-1,1.2912515E-2,-3.568032E-3,-1.17327105E-2,3.9184196E-3,-1.3795319E-2],"split_indices":[1,1,0,1,0,1,0,0,0,0,0],"split_type":[0,0,0,0,0,0,0,0,0,0,0],"sum_hessian":[7.2E1,6E1,1.2E1,3.8E1,2.2E1,2.8E1,1E1,1.2E1,1E1,1.6E1,1.2E1],"tree_param":{"num_deleted":"0","num_feature":"2","num_nodes":"11","size_leaf_vector":"0"}},{"base_weights":[-7.052702E-3,-7.80775E-3,1.9841483E-2,7.363952E-3,-2.084396E-2,-8.410046E-3,1.4502028E-2,5.4639876E-3,-4.7189137E-3],"categories":[],"categories_nodes":[],"categories_segments":[],"categories_sizes":[],"default_left":[0,0,0,0,0,0,0,0,0],"id":59,"left_children":[1,-1,3,-1,5,-1,7,-1,-1],"loss_changes":[1.9260268E-1,0E0,1.8692057E-1,0E0,1.2746881E-1,0E0,1.3559413E-1,0E0,0E0],"parents":[2147483647,0,0,2,2,4,4,6,6],"right_children":[2,-1,4,-1,6,-1,8,-1,-1],"split_conditions":[3.3776E-1,-7.80775E-3,4.8622E-1,7.363952E-3,5.4431E-1,-8.410046E-3,3.9201E-1,5.4639876E-3,-4.7189137E-3],"split_indices":[0,0,0,0,0,0,1,0,0],"split_type":[0,0,0,0,0,0,0,0,0],"sum_hessian":[7.2E1,1.5E1,5.7E1,1.9E1,3.8E1,1E1,2.8E1,1.6E1,1.2E1],"tree_param":{"num_deleted":"0","num_feature":"2","num_nodes":"9","size_leaf_vector":"0"}},{"base_weights":[-6.634832E-3,8.91825E-3,-2.8450044E-2,-1.1289177E-2,1.2833441E-2,8.90497E-3,-2.185919E-2,-6.2195722E-2,4.3044407E-3,-1.0390082E-2,3.5667494E-3],"categories":[],"categories_nodes":[],"categories_segments":[],"categories_sizes":[],"default_left":[0,0,0,0,0,0,0,0,0,0,0],"id":60,"left_children":[1,-1,3,-1,5,-1,7,9,-1,-1,-1],"loss_changes":[2.0331445E-1,0E0,3.1942466E-1,0E0,1.7894413E-1,0E0,1.21848956E-1,2.1604708E-1,0E0,0E0,0E0],"parents":[2147483647,0,0,2,2,4,4,6,6,7,7],"right_children":[2,-1,4,-1,6,-1,8,10,-1,-1,-1],"split_conditions":[3.1741E-1,8.91825E-3,4.334E-1,-1.1289177E-2,5.0468E-1,8.90497E-3,6.2697E-1,4.3931E-1,4.3044407E-3,-1.0390082E-2,3.5667494E-3],"split_indices":[0,0,0,0,0,0,0,1,0,0,0],"split_type":[0,0,0,0,0,0,0,0,0,0,0],"sum_hessian":[7.2E1,1E1,6.2E1,1.5E1,4.7E1,1.1E1,3.6E1,2.4E1,1.2E1,1.4E1,1E1],"tree_param":{"num_deleted":"0","num_feature":"2","num_nodes":"11","size_leaf_vector":"0"}},{"base_weights":[-6.0822195E-3,-2.9056508E-2,7.664106E-3,2.1064775E-2,-8.155066E-2,-7.302972E-2,1.3798106E-2,-1.4022568E-2,-6.6422675E-5,3.4538745E-3,-1.39104035E-2],"categories":[],"categories_nodes":[],"categories_segments":[],"categories_sizes":[],"default_left":[0,0,0,0,0,0,0,0,0,0,0],"id":61,"left_children":[1,3,-1,5,7,9,-1,-1,-1,-1,-1],"loss_changes":[1.8455182E-1,1.6221339E-1,0E0,5.0396144E-1,2.5493813E-1,2.897268E-1,0E0,0E0,0E0,0E0,0E0],"parents":[2147483647,0,0,1,1,3,3,4,4,5,5],"right_children":[2,4,-1,6,8,10,-1,-1,-1,-1,-1],"split_conditions":[5.9698E-1,3.7894E-1,7.664106E-3,2.9855E-1,4.432E-1,2.0388E-1,1.3798106E-2,-1.4022568E-2,-6.6422675E-5,3.4538745E-3,-1.39104035E-2],"split_indices":[1,1,0,1,1,1,0,0,0,0,0],"split_type":[0,0,0,0,0,0,0,0,0,0,0],"sum_hessian":[7.2E1,6E1,1.2E1,3.1E1,2.9E1,2E1,1.1E1,1.2E1,1.7E1,1E1,1E1],"tree_param":{"num_deleted":"0","num_feature":"2","num_nodes":"11","size_leaf_vector":"0"}},{"base_weights":[-5.668289E-3,8.3760945E-3,-2.6067918E-2,-1.2225512E-1,2.1513456E-2,-1.71538E-2,-3.5091117E-4,7.459681E-3,-2.8362311E-2,-7.5880284E-3,4.3374416E-3],"categories":[],"categories_nodes":[],"categories_segments":[],"categories_sizes":[],"default_left":[0,0,0,0,0,0,0,0,0,0,0],"id":62,"left_children":[1,-1,3,5,7,-1,-1,-1,9,-1,-1],"loss_changes":[1.7766504E-1,0E0,2.9096344E-1,2.6179597E-1,1.6999486E-1,0E0,0E0,0E0,1.7530227E-1,0E0,0E0],"parents":[2147483647,0,0,2,2,3,3,4,4,8,8],"right_children":[2,-1,4,6,8,-1,-1,-1,10,-1,-1],"split_conditions":[3.1741E-1,8.3760945E-3,4.732E-1,4.2582E-1,5.4705E-1,-1.71538E-2,-3.5091117E-4,7.459681E-3,6.2697E-1,-7.5880284E-3,4.3374416E-3],"split_indices":[0,0,0,1,0,0,0,0,0,0,0],"split_type":[0,0,0,0,0,0,0,0,0,0,0],"sum_hessian":[7.2E1,1E1,6.2E1,2E1,4.2E1,1E1,1E1,1.6E1,2.6E1,1.4E1,1.2E1],"tree_param":{"num_deleted":"0","num_feature":"2","num_nodes":"11","size_leaf_vector":"0"}},{"base_weights":[-5.3105587E-3,-7.5540515E-3,2.1101035E-2,7.3617925E-3,-1.8956015E-2,-8.363171E-3,1.6803922E-2,5.555583E-3,-4.453568E-3],"categories":[],"categories_nodes":[],"categories_segments":[],"categories_sizes":[],"default_left":[0,0,0,0,0,0,0,0,0],"id":63,"left_children":[1,-1,3,-1,5,-1,7,-1,-1],"loss_changes":[1.8608044E-1,0E0,1.8088602E-1,0E0,1.3095157E-1,0E0,1.309298E-1,0E0,0E0],"parents":[2147483647,0,0,2,2,4,4,6,6],"right_children":[2,-1,4,-1,6,-1,8,-1,-1],"split_conditions":[3.3776E-1,-7.5540515E-3,4.8622E-1,7.3617925E-3,5.4431E-1,-8.363171E-3,3.9201E-1,5.555583E-3,-4.453568E-3],"split_indices":[0,0,0,0,0,0,1,0,0],"split_type":[0,0,0,0,0,0,0,0,0],"sum_hessian":[7.2E1,1.5E1,5.7E1,1.9E1,3.8E1,1E1,2.8E1,1.6E1,1.2E1],"tree_param":{"num_deleted":"0","num_feature":"2","num_nodes":"9","size_leaf_vector":"0"}},{"base_weights":[-5.014366E-3,8.320046E-3,-2.5179714E-2,1.5735058E-2,-9.625562E-3,-8.747623E-3,1.04995616E-1,1.3269355E-2,2.3146549E-3],"categories":[],"categories_nodes":[],"categories_segments":[],"categories_sizes":[],"default_left":[0,0,0,0,0,0,0,0,0],"id":64,"left_children":[1,-1,3,5,-1,-1,7,-1,-1],"loss_changes":[1.7347735E-1,0E0,2.679307E-1,5.5575556E-1,0E0,0E0,1.4384586E-1,0E0,0E0],"parents":[2147483647,0,0,2,2,3,3,6,6],"right_children":[2,-1,4,6,-1,-1,8,-1,-1],"split_conditions":[3.1741E-1,8.320046E-3,5.1093E-1,2.9855E-1,-9.625562E-3,-8.747623E-3,3.9537E-1,1.3269355E-2,2.3146549E-3],"split_indices":[0,0,1,1,0,0,1,0,0],"split_type":[0,0,0,0,0,0,0,0,0],"sum_hessian":[7.2E1,1E1,6.2E1,4.5E1,1.7E1,1.8E1,2.7E1,1.3E1,1.4E1],"tree_param":{"num_deleted":"0","num_feature":"2","num_nodes":"9","size_leaf_vector":"0"}},{"base_weights":[-4.5625214E-3,-2.6959797E-2,7.5662523E-3,4.7094924E-3,-6.0267393E-2,-5.072148E-3,-1.7280733E-2,-6.060204E-2,7.017241E-3,2.5138129E-3,-1.2474371E-2],"categories":[],"categories_nodes":[],"categories_segments":[],"categories_sizes":[],"default_left":[0,0,0,0,0,0,0,0,0,0,0],"id":65,"left_children":[1,3,-1,-1,5,7,-1,9,-1,-1,-1],"loss_changes":[1.7512394E-1,1.8614128E-1,0E0,0E0,4.2142856E-1,1.9737248E-1,0E0,2.344384E-1,0E0,0E0,0E0],"parents":[2147483647,0,0,1,1,4,4,5,5,7,7],"right_children":[2,4,-1,-1,6,8,-1,10,-1,-1,-1],"split_conditions":[5.9698E-1,2.7448E-1,7.5662523E-3,4.7094924E-3,6.0612E-1,5.3034E-1,-1.7280733E-2,4.0369E-1,7.017241E-3,2.5138129E-3,-1.2474371E-2],"split_indices":[1,1,0,0,0,0,0,0,0,0,0],"split_type":[0,0,0,0,0,0,0,0,0,0,0],"sum_hessian":[7.2E1,6E1,1.2E1,1.6E1,4.4E1,3.4E1,1E1,2.2E1,1.2E1,1.2E1,1E1],"tree_param":{"num_deleted":"0","num_feature":"2","num_nodes":"11","size_leaf_vector":"0"}},{"base_weights":[-4.3292153E-3,-7.51231E-3,2.2182645E-2,7.0927152E-3,-1.5507624E-2,-7.5727357E-3,1.7443812E-2,5.2126506E-3,-3.8980593E-3],"categories":[],"categories_nodes":[],"categories_segments":[],"categories_sizes":[],"default_left":[0,0,0,0,0,0,0,0,0],"id":66,"left_children":[1,-1,3,-1,5,-1,7,-1,-1],"loss_changes":[1.8769753E-1,0E0,1.5970688E-1,0E0,1.1158926E-1,0E0,1.0841171E-1,0E0,0E0],"parents":[2147483647,0,0,2,2,4,4,6,6],"right_children":[2,-1,4,-1,6,-1,8,-1,-1],"split_conditions":[3.3776E-1,-7.51231E-3,4.8622E-1,7.0927152E-3,5.4431E-1,-7.5727357E-3,3.9201E-1,5.2126506E-3,-3.8980593E-3],"split_indices":[0,0,0,0,0,0,1,0,0],"split_type":[0,0,0,0,0,0,0,0,0],"sum_hessian":[7.2E1,1.5E1,5.7E1,1.9E1,3.8E1,1E1,2.8E1,1.6E1,1.2E1],"tree_param":{"num_deleted":"0","num_feature":"2","num_nodes":"9","size_leaf_vector":"0"}},{"base_weights":[-4.0960032E-3,-2.573726E-2,7.332488E-3,4.240304E-3,-5.6246854E-2,-4.1318242E-3,-1.6271554E-2,-5.627877E-2,6.63345E-3,-1.2072305E-2,2.7472673E-3],"categories":[],"categories_nodes":[],"categories_segments":[],"categories_sizes":[],"default_left":[0,0,0,0,0,0,0,0,0,0,0],"id":67,"left_children":[1,3,-1,-1,5,7,-1,9,-1,-1,-1],"loss_changes":[1.6343983E-1,1.5630019E-1,0E0,0E0,3.7599033E-1,1.739454E-1,0E0,2.2959888E-1,0E0,0E0,0E0],"parents":[2147483647,0,0,1,1,4,4,5,5,7,7],"right_children":[2,4,-1,-1,6,8,-1,10,-1,-1,-1],"split_conditions":[5.9698E-1,2.7448E-1,7.332488E-3,4.240304E-3,6.0612E-1,5.3034E-1,-1.6271554E-2,4.2582E-1,6.63345E-3,-1.2072305E-2,2.7472673E-3],"split_indices":[1,1,0,0,0,0,0,1,0,0,0],"split_type":[0,0,0,0,0,0,0,0,0,0,0],"sum_hessian":[7.2E1,6E1,1.2E1,1.6E1,4.4E1,3.4E1,1E1,2.2E1,1.2E1,1E1,1.2E1],"tree_param":{"num_deleted":"0","num_feature":"2","num_nodes":"11","size_leaf_vector":"0"}},{"base_weights":[-3.8900329E-3,8.254903E-3,-2.3725262E-2,-1.1873701E-1,2.3227576E-2,-1.627459E-2,-7.2639243E-4,7.1910433E-3,-2.3377182E-2,-7.2496594E-3,4.723545E-3],"categories":[],"categories_nodes":[],"categories_segments":[],"categories_sizes":[],"default_left":[0,0,0,0,0,0,0,0,0,0,0],"id":68,"left_children":[1,-1,3,5,7,-1,-1,-1,9,-1,-1],"loss_changes":[1.6761553E-1,0E0,2.838055E-1,2.2291663E-1,1.4783835E-1,0E0,0E0,0E0,1.7696339E-1,0E0,0E0],"parents":[2147483647,0,0,2,2,3,3,4,4,8,8],"right_children":[2,-1,4,6,8,-1,-1,-1,10,-1,-1],"split_conditions":[3.1741E-1,8.254903E-3,4.732E-1,4.2582E-1,5.4705E-1,-1.627459E-2,-7.2639243E-4,7.1910433E-3,6.2697E-1,-7.2496594E-3,4.723545E-3],"split_indices":[0,0,0,1,0,0,0,0,0,0,0],"split_type":[0,0,0,0,0,0,0,0,0,0,0],"sum_hessian":[7.2E1,1E1,6.2E1,2E1,4.2E1,1E1,1E1,1.6E1,2.6E1,1.4E1,1.2E1],"tree_param":{"num_deleted":"0","num_feature":"2","num_nodes":"11","size_leaf_vector":"0"}},{"base_weights":[-3.654187E-3,-7.0951786E-3,2.1497972E-2,6.887062E-3,-1.5119677E-2,-7.7899443E-3,1.9064061E-2,5.2148774E-3,-3.6298905E-3],"categories":[],"categories_nodes":[],"categories_segments":[],"categories_sizes":[],"default_left":[0,0,0,0,0,0,0,0,0],"id":69,"left_children":[1,-1,3,-1,5,-1,7,-1,-1],"loss_changes":[1.6902442E-1,0E0,1.507559E-1,0E0,1.20293565E-1,0E0,1.0210088E-1,0E0,0E0],"parents":[2147483647,0,0,2,2,4,4,6,6],"right_children":[2,-1,4,-1,6,-1,8,-1,-1],"split_conditions":[3.3776E-1,-7.0951786E-3,4.8622E-1,6.887062E-3,5.4431E-1,-7.7899443E-3,3.9201E-1,5.2148774E-3,-3.6298905E-3],"split_indices":[0,0,0,0,0,0,1,0,0],"split_type":[0,0,0,0,0,0,0,0,0],"sum_hessian":[7.2E1,1.5E1,5.7E1,1.9E1,3.8E1,1E1,2.8E1,1.6E1,1.2E1],"tree_param":{"num_deleted":"0","num_feature":"2","num_nodes":"9","size_leaf_vector":"0"}},{"base_weights":[-3.4679722E-3,8.17583E-3,-2.3052122E-2,-1.1387132E-1,2.1837534E-2,-1.5348531E-2,-9.557712E-4,6.898585E-3,-2.313575E-2,-6.8418803E-3,4.290639E-3],"categories":[],"categories_nodes":[],"categories_segments":[],"categories_sizes":[],"default_left":[0,0,0,0,0,0,0,0,0,0,0],"id":70,"left_children":[1,-1,3,5,7,-1,-1,-1,9,-1,-1],"loss_changes":[1.6331781E-1,0E0,2.5932774E-1,1.9017094E-1,1.3777533E-1,0E0,0E0,0E0,1.5292469E-1,0E0,0E0],"parents":[2147483647,0,0,2,2,3,3,4,4,8,8],"right_children":[2,-1,4,6,8,-1,-1,-1,10,-1,-1],"split_conditions":[3.1741E-1,8.17583E-3,4.732E-1,4.2582E-1,5.4705E-1,-1.5348531E-2,-9.557712E-4,6.898585E-3,6.2697E-1,-6.8418803E-3,4.290639E-3],"split_indices":[0,0,0,1,0,0,0,0,0,0,0],"split_type":[0,0,0,0,0,0,0,0,0,0,0],"sum_hessian":[7.2E1,1E1,6.2E1,2E1,4.2E1,1E1,1E1,1.6E1,2.6E1,1.4E1,1.2E1],"tree_param":{"num_deleted":"0","num_feature":"2","num_nodes":"11","size_leaf_vector":"0"}},{"base_weights":[-3.2596746E-3,-6.7547425E-3,2.0742336E-2,-4.6698763E-3,5.114641E-2,1.3016134E-2,-7.6794205E-3,-5.6981584E-3,8.7894965E-3],"categories":[],"categories_nodes":[],"categories_segments":[],"categories_sizes":[],"default_left":[0,0,0,0,0,0,0,0,0],"id":71,"left_children":[1,-1,3,-1,5,-1,7,-1,-1],"loss_changes":[1.5396069E-1,0E0,1.4956282E-1,0E0,3.1095E-1,0E0,2.6475304E-1,0E0,0E0],"parents":[2147483647,0,0,2,2,4,4,6,6],"right_children":[2,-1,4,-1,6,-1,8,-1,-1],"split_conditions":[3.3776E-1,-6.7547425E-3,2.9855E-1,-4.6698763E-3,3.9537E-1,1.3016134E-2,5.7236E-1,-5.6981584E-3,8.7894965E-3],"split_indices":[0,0,1,0,1,0,1,0,0],"split_type":[0,0,0,0,0,0,0,0,0],"sum_hessian":[7.2E1,1.5E1,5.7E1,1.5E1,4.2E1,1.3E1,2.9E1,1.9E1,1E1],"tree_param":{"num_deleted":"0","num_feature":"2","num_nodes":"9","size_leaf_vector":"0"}},{"base_weights":[-2.9510418E-3,8.078938E-3,-2.222757E-2,1.939354E-2,-9.551832E-3,-7.8067146E-2,1.2926279E-1,-1.4669989E-2,3.4103051E-3,5.5583473E-3,1.33257685E-2],"categories":[],"categories_nodes":[],"categories_segments":[],"categories_sizes":[],"default_left":[0,0,0,0,0,0,0,0,0,0,0],"id":72,"left_children":[1,-1,3,5,-1,7,9,-1,-1,-1,-1],"loss_changes":[1.5812796E-1,0E0,2.7813494E-1,5.026561E-1,0E0,3.7188756E-1,4.5574516E-2,0E0,0E0,0E0,0E0],"parents":[2147483647,0,0,2,2,3,3,5,5,6,6],"right_children":[2,-1,4,6,-1,8,10,-1,-1,-1,-1],"split_conditions":[3.1741E-1,8.078938E-3,5.1093E-1,3.5137E-1,-9.551832E-3,5.2988E-1,4.3931E-1,-1.4669989E-2,3.4103051E-3,5.5583473E-3,1.33257685E-2],"split_indices":[0,0,1,1,0,0,1,0,0,0,0],"split_type":[0,0,0,0,0,0,0,0,0,0,0],"sum_hessian":[7.2E1,1E1,6.2E1,4.5E1,1.7E1,2.4E1,2.1E1,1.2E1,1.2E1,1.1E1,1E1],"tree_param":{"num_deleted":"0","num_feature":"2","num_nodes":"11","size_leaf_vector":"0"}},{"base_weights":[-2.6454532E-3,-6.3626543E-3,2.0073242E-2,7.064681E-3,-1.8452996E-2,-7.731561E-3,1.4286049E-2,5.482364E-3,-2.364622E-3],"categories":[],"categories_nodes":[],"categories_segments":[],"categories_sizes":[],"default_left":[0,0,0,0,0,0,0,0,0],"id":73,"left_children":[1,-1,3,-1,5,-1,7,-1,-1],"loss_changes":[1.3801204E-1,0E0,1.6736653E-1,0E0,1.0953595E-1,0E0,8.044338E-2,0E0,0E0],"parents":[2147483647,0,0,2,2,4,4,6,6],"right_children":[2,-1,4,-1,6,-1,8,-1,-1],"split_conditions":[3.3776E-1,-6.3626543E-3,4.8622E-1,7.064681E-3,5.4431E-1,-7.731561E-3,6.0974E-1,5.482364E-3,-2.364622E-3],"split_indices":[0,0,0,0,0,0,0,0,0],"split_type":[0,0,0,0,0,0,0,0,0],"sum_hessian":[7.2E1,1.5E1,5.7E1,1.9E1,3.8E1,1E1,2.8E1,1.2E1,1.6E1],"tree_param":{"num_deleted":"0","num_feature":"2","num_nodes":"9","size_leaf_vector":"0"}},{"base_weights":[-2.5006253E-3,7.9619195E-3,-2.1433236E-2,1.6919784E-2,-8.869183E-3,-7.3379055E-2,1.1876302E-1,-1.3740345E-2,3.1568275E-3,5.072045E-3,1.2281314E-2],"categories":[],"categories_nodes":[],"categories_segments":[],"categories_sizes":[],"default_left":[0,0,0,0,0,0,0,0,0,0,0],"id":74,"left_children":[1,-1,3,5,-1,7,9,-1,-1,-1,-1],"loss_changes":[1.5245159E-1,0E0,2.3594739E-1,4.317457E-1,0E0,3.2475036E-1,3.9536655E-2,0E0,0E0,0E0,0E0],"parents":[2147483647,0,0,2,2,3,3,5,5,6,6],"right_children":[2,-1,4,6,-1,8,10,-1,-1,-1,-1],"split_conditions":[3.1741E-1,7.9619195E-3,5.1093E-1,3.5137E-1,-8.869183E-3,5.2988E-1,4.3931E-1,-1.3740345E-2,3.1568275E-3,5.072045E-3,1.2281314E-2],"split_indices":[0,0,1,1,0,0,1,0,0,0,0],"split_type":[0,0,0,0,0,0,0,0,0,0,0],"sum_hessian":[7.2E1,1E1,6.2E1,4.5E1,1.7E1,2.4E1,2.1E1,1.2E1,1.2E1,1.1E1,1E1],"tree_param":{"num_deleted":"0","num_feature":"2","num_nodes":"11","size_leaf_vector":"0"}},{"base_weights":[-2.2327683E-3,-2.3509149E-2,7.3330733E-3,5.8050724E-3,-6.1108317E-2,-1.34592205E-2,-1.5537284E-2,-6.0997654E-2,5.3761927E-3,2.1742738E-3,-1.2135138E-2],"categories":[],"categories_nodes":[],"categories_segments":[],"categories_sizes":[],"default_left":[0,0,0,0,0,0,0,0,0,0,0],"id":75,"left_children":[1,3,-1,-1,5,7,-1,9,-1,-1,-1],"loss_changes":[1.5762715E-1,2.3617217E-1,0E0,0E0,3.1038523E-1,1.4603522E-1,0E0,2.1332747E-1,0E0,0E0,0E0],"parents":[2147483647,0,0,1,1,4,4,5,5,7,7],"right_children":[2,4,-1,-1,6,8,-1,10,-1,-1,-1],"split_conditions":[5.9698E-1,2.7448E-1,7.3330733E-3,5.8050724E-3,6.0612E-1,5.3034E-1,-1.5537284E-2,4.0369E-1,5.3761927E-3,2.1742738E-3,-1.2135138E-2],"split_indices":[1,1,0,0,0,0,0,0,0,0,0],"split_type":[0,0,0,0,0,0,0,0,0,0,0],"sum_hessian":[7.2E1,6E1,1.2E1,1.6E1,4.4E1,3.4E1,1E1,2.2E1,1.2E1,1.2E1,1E1],"tree_param":{"num_deleted":"0","num_feature":"2","num_nodes":"11","size_leaf_vector":"0"}},{"base_weights":[-2.160985E-3,-6.3298056E-3,2.0562183E-2,6.9207186E-3,-1.6741494E-2,-5.2827302E-2,4.462032E-3,-1.0740173E-2,5.4056244E-3],"categories":[],"categories_nodes":[],"categories_segments":[],"categories_sizes":[],"default_left":[0,0,0,0,0,0,0,0,0],"id":76,"left_children":[1,-1,3,-1,5,7,-1,-1,-1],"loss_changes":[1.3814846E-1,0E0,1.5670632E-1,0E0,1.10432304E-1,3.1509852E-1,0E0,0E0,0E0],"parents":[2147483647,0,0,2,2,4,4,5,5],"right_children":[2,-1,4,-1,6,8,-1,-1,-1],"split_conditions":[3.3776E-1,-6.3298056E-3,4.8622E-1,6.9207186E-3,6.2697E-1,4.432E-1,4.462032E-3,-1.0740173E-2,5.4056244E-3],"split_indices":[0,0,0,0,0,1,0,0,0],"split_type":[0,0,0,0,0,0,0,0,0],"sum_hessian":[7.2E1,1.5E1,5.7E1,1.9E1,3.8E1,2.6E1,1.2E1,1.5E1,1.1E1],"tree_param":{"num_deleted":"0","num_feature":"2","num_nodes":"9","size_leaf_vector":"0"}},{"base_weights":[-2.0027615E-3,7.607291E-3,-2.0030756E-2,1.778446E-2,-8.666762E-3,-6.717455E-2,1.135204E-1,-1.3029989E-2,3.3413514E-3,5.2623316E-3,1.1287335E-2],"categories":[],"categories_nodes":[],"categories_segments":[],"categories_sizes":[],"default_left":[0,0,0,0,0,0,0,0,0,0,0],"id":77,"left_children":[1,-1,3,5,-1,7,9,-1,-1,-1,-1],"loss_changes":[1.3815448E-1,0E0,2.2963245E-1,3.8177267E-1,0E0,3.05374E-1,2.4710625E-2,0E0,0E0,0E0,0E0],"parents":[2147483647,0,0,2,2,3,3,5,5,6,6],"right_children":[2,-1,4,6,-1,8,10,-1,-1,-1,-1],"split_conditions":[3.1741E-1,7.607291E-3,5.1093E-1,3.5137E-1,-8.666762E-3,5.2988E-1,4.3931E-1,-1.3029989E-2,3.3413514E-3,5.2623316E-3,1.1287335E-2],"split_indices":[0,0,1,1,0,0,1,0,0,0,0],"split_type":[0,0,0,0,0,0,0,0,0,0,0],"sum_hessian":[7.2E1,1E1,6.2E1,4.5E1,1.7E1,2.4E1,2.1E1,1.2E1,1.2E1,1.1E1,1E1],"tree_param":{"num_deleted":"0","num_feature":"2","num_nodes":"11","size_leaf_vector":"0"}},{"base_weights":[-1.773084E-3,-2.2390688E-2,7.133059E-3,5.8074184E-3,-5.9604004E-2,-1.6373163E-2,-1.438036E-2,5.4074274E-3,-5.9927046E-2,-9.802999E-3,1.630859E-3],"categories":[],"categories_nodes":[],"categories_segments":[],"categories_sizes":[],"default_left":[0,0,0,0,0,0,0,0,0,0,0],"id":78,"left_children":[1,3,-1,-1,5,7,-1,-1,9,-1,-1],"loss_changes":[1.4794298E-1,2.3121455E-1,0E0,0E0,2.5391275E-1,1.3918644E-1,0E0,0E0,1.4157902E-1,0E0,0E0],"parents":[2147483647,0,0,1,1,4,4,5,5,8,8],"right_children":[2,4,-1,-1,6,8,-1,-1,10,-1,-1],"split_conditions":[5.9698E-1,2.7448E-1,7.133059E-3,5.8074184E-3,6.0612E-1,3.7894E-1,-1.438036E-2,5.4074274E-3,4.8209E-1,-9.802999E-3,1.630859E-3],"split_indices":[1,1,0,0,0,1,0,0,1,0,0],"split_type":[0,0,0,0,0,0,0,0,0,0,0],"sum_hessian":[7.2E1,6E1,1.2E1,1.6E1,4.4E1,3.4E1,1E1,1.1E1,2.3E1,1.2E1,1.1E1],"tree_param":{"num_deleted":"0","num_feature":"2","num_nodes":"11","size_leaf_vector":"0"}},{"base_weights":[-1.6977005E-3,-6.165313E-3,2.054025E-2,6.617986E-3,-1.47041455E-2,-4.950783E-2,4.4033644E-3,-9.926319E-3,4.8806453E-3],"categories":[],"categories_nodes":[],"categories_segments":[],"categories_sizes":[],"default_left":[0,0,0,0,0,0,0,0,0],"id":79,"left_children":[1,-1,3,-1,5,7,-1,-1,-1],"loss_changes":[1.323803E-1,0E0,1.3968724E-1,0E0,1.0255698E-1,2.6490805E-1,0E0,0E0,0E0],"parents":[2147483647,0,0,2,2,4,4,5,5],"right_children":[2,-1,4,-1,6,8,-1,-1,-1],"split_conditions":[3.3776E-1,-6.165313E-3,4.8622E-1,6.617986E-3,6.2697E-1,4.432E-1,4.4033644E-3,-9.926319E-3,4.8806453E-3],"split_indices":[0,0,0,0,0,1,0,0,0],"split_type":[0,0,0,0,0,0,0,0,0],"sum_hessian":[7.2E1,1.5E1,5.7E1,1.9E1,3.8E1,2.6E1,1.2E1,1.5E1,1.1E1],"tree_param":{"num_deleted":"0","num_feature":"2","num_nodes":"9","size_leaf_vector":"0"}},{"base_weights":[-1.5729684E-3,7.4508996E-3,-1.9168654E-2,1.832535E-2,-8.544131E-3,-6.5951752E-3,8.977656E-2,1.2500577E-2,9.0151496E-4],"categories":[],"categories_nodes":[],"categories_segments":[],"categories_sizes":[],"default_left":[0,0,0,0,0,0,0,0,0],"id":80,"left_children":[1,-1,3,5,-1,-1,7,-1,-1],"loss_changes":[1.3153237E-1,0E0,2.2590604E-1,3.5714856E-1,0E0,0E0,1.654167E-1,0E0,0E0],"parents":[2147483647,0,0,2,2,3,3,6,6],"right_children":[2,-1,4,6,-1,-1,8,-1,-1],"split_conditions":[3.1741E-1,7.4508996E-3,5.1093E-1,2.9855E-1,-8.544131E-3,-6.5951752E-3,3.9537E-1,1.2500577E-2,9.0151496E-4],"split_indices":[0,0,1,1,0,0,1,0,0],"split_type":[0,0,0,0,0,0,0,0,0],"sum_hessian":[7.2E1,1E1,6.2E1,4.5E1,1.7E1,1.8E1,2.7E1,1.3E1,1.4E1],"tree_param":{"num_deleted":"0","num_feature":"2","num_nodes":"9","size_leaf_vector":"0"}},{"base_weights":[-1.37672E-3,-2.140022E-2,6.951421E-3,5.7445536E-3,-5.794472E-2,-1.3398616E-2,-1.2492451E-2,-6.315652E-2,6.8894033E-3,-1.1784606E-2,1.5912034E-3],"categories":[],"categories_nodes":[],"categories_segments":[],"categories_sizes":[],"default_left":[0,0,0,0,0,0,0,0,0,0,0],"id":81,"left_children":[1,3,-1,-1,5,7,-1,9,-1,-1,-1],"loss_changes":[1.3947587E-1,2.2288844E-1,0E0,0E0,2.155077E-1,1.7863517E-1,0E0,1.856919E-1,0E0,0E0,0E0],"parents":[2147483647,0,0,1,1,4,4,5,5,7,7],"right_children":[2,4,-1,-1,6,8,-1,10,-1,-1,-1],"split_conditions":[5.9698E-1,2.7448E-1,6.951421E-3,5.7445536E-3,5.9612E-1,5.3034E-1,-1.2492451E-2,4.2582E-1,6.8894033E-3,-1.1784606E-2,1.5912034E-3],"split_indices":[1,1,0,0,0,0,0,1,0,0,0],"split_type":[0,0,0,0,0,0,0,0,0,0,0],"sum_hessian":[7.2E1,6E1,1.2E1,1.6E1,4.4E1,3.2E1,1.2E1,2.2E1,1E1,1E1,1.2E1],"tree_param":{"num_deleted":"0","num_feature":"2","num_nodes":"11","size_leaf_vector":"0"}},{"base_weights":[-1.3159413E-3,7.1889735E-3,-1.8261055E-2,-9.961757E-2,2.1895872E-2,-1.313211E-2,-1.1313151E-3,6.3592177E-3,-1.8514821E-2,-6.3981744E-3,4.4984696E-3],"categories":[],"categories_nodes":[],"categories_segments":[],"categories_sizes":[],"default_left":[0,0,0,0,0,0,0,0,0,0,0],"id":82,"left_children":[1,-1,3,5,7,-1,-1,-1,9,-1,-1],"loss_changes":[1.21947676E-1,0E0,2.0800395E-1,1.3134603E-1,1.10857695E-1,0E0,0E0,0E0,1.4667697E-1,0E0,0E0],"parents":[2147483647,0,0,2,2,3,3,4,4,8,8],"right_children":[2,-1,4,6,8,-1,-1,-1,10,-1,-1],"split_conditions":[3.1741E-1,7.1889735E-3,4.732E-1,4.2582E-1,5.4705E-1,-1.313211E-2,-1.1313151E-3,6.3592177E-3,6.2697E-1,-6.3981744E-3,4.4984696E-3],"split_indices":[0,0,0,1,0,0,0,0,0,0,0],"split_type":[0,0,0,0,0,0,0,0,0,0,0],"sum_hessian":[7.2E1,1E1,6.2E1,2E1,4.2E1,1E1,1E1,1.6E1,2.6E1,1.4E1,1.2E1],"tree_param":{"num_deleted":"0","num_feature":"2","num_nodes":"11","size_leaf_vector":"0"}},{"base_weights":[-1.2530658E-3,-6.0266997E-3,2.0590037E-2,6.5343953E-3,-1.405854E-2,-7.5467792E-3,1.9261304E-2,4.634814E-3,-2.8383464E-3],"categories":[],"categories_nodes":[],"categories_segments":[],"categories_sizes":[],"default_left":[0,0,0,0,0,0,0,0,0],"id":83,"left_children":[1,-1,3,-1,5,-1,7,-1,-1],"loss_changes":[1.2778784E-1,0E0,1.349352E-1,0E0,1.14427336E-1,0E0,7.278173E-2,0E0,0E0],"parents":[2147483647,0,0,2,2,4,4,6,6],"right_children":[2,-1,4,-1,6,-1,8,-1,-1],"split_conditions":[3.3776E-1,-6.0266997E-3,4.8622E-1,6.5343953E-3,5.4431E-1,-7.5467792E-3,3.9201E-1,4.634814E-3,-2.8383464E-3],"split_indices":[0,0,0,0,0,0,1,0,0],"split_type":[0,0,0,0,0,0,0,0,0],"sum_hessian":[7.2E1,1.5E1,5.7E1,1.9E1,3.8E1,1E1,2.8E1,1.6E1,1.2E1],"tree_param":{"num_deleted":"0","num_feature":"2","num_nodes":"9","size_leaf_vector":"0"}},{"base_weights":[-1.2309026E-3,5.4420074E-3,-2.321715E-2,-1.1725833E-2,1.5757779E-2,1.200684E-2,-3.0054374E-2,-1.0545595E-1,5.8133593E-3,-1.127596E-2,-3.8234144E-3],"categories":[],"categories_nodes":[],"categories_segments":[],"categories_sizes":[],"default_left":[0,0,0,0,0,0,0,0,0,0,0],"id":84,"left_children":[1,-1,3,-1,5,-1,7,9,-1,-1,-1],"loss_changes":[1.2011889E-1,0E0,2.982153E-1,0E0,3.0236155E-1,0E0,2.920462E-1,4.3690726E-2,0E0,0E0,0E0],"parents":[2147483647,0,0,2,2,4,4,6,6,7,7],"right_children":[2,-1,4,-1,6,-1,8,10,-1,-1,-1],"split_conditions":[2.7448E-1,5.4420074E-3,3.5137E-1,-1.1725833E-2,4.2546E-1,1.200684E-2,5.8305E-1,5.0974E-1,5.8133593E-3,-1.127596E-2,-3.8234144E-3],"split_indices":[1,0,1,0,1,0,1,0,0,0,0],"split_type":[0,0,0,0,0,0,0,0,0,0,0],"sum_hessian":[7.2E1,1.6E1,5.6E1,1.2E1,4.4E1,1E1,3.4E1,2E1,1.4E1,1E1,1E1],"tree_param":{"num_deleted":"0","num_feature":"2","num_nodes":"11","size_leaf_vector":"0"}},{"base_weights":[-1.1873986E-3,7.2232313E-3,-1.8191861E-2,1.837275E-2,-8.296807E-3,-6.432635E-3,8.838383E-2,1.2326523E-2,1.5850796E-3],"categories":[],"categories_nodes":[],"categories_segments":[],"categories_sizes":[],"default_left":[0,0,0,0,0,0,0,0,0],"id":85,"left_children":[1,-1,3,5,-1,-1,7,-1,-1],"loss_changes":[1.2277777E-1,0E0,2.1495664E-1,3.4296834E-1,0E0,0E0,1.3957639E-1,0E0,0E0],"parents":[2147483647,0,0,2,2,3,3,6,6],"right_children":[2,-1,4,6,-1,-1,8,-1,-1],"split_conditions":[3.1741E-1,7.2232313E-3,5.1093E-1,2.9855E-1,-8.296807E-3,-6.432635E-3,3.9201E-1,1.2326523E-2,1.5850796E-3],"split_indices":[0,0,1,1,0,0,1,0,0],"split_type":[0,0,0,0,0,0,0,0,0],"sum_hessian":[7.2E1,1E1,6.2E1,4.5E1,1.7E1,1.8E1,2.7E1,1.2E1,1.5E1],"tree_param":{"num_deleted":"0","num_feature":"2","num_nodes":"9","size_leaf_vector":"0"}},{"base_weights":[-1.0106012E-3,-5.826291E-3,2.0158073E-2,-2.4222152E-3,8.764327E-3,6.5768003E-3,-5.0218992E-2,-6.796689E-3,-3.1136704E-4],"categories":[],"categories_nodes":[],"categories_segments":[],"categories_sizes":[],"default_left":[0,0,0,0,0,0,0,0,0],"id":86,"left_children":[1,-1,3,5,-1,-1,7,-1,-1],"loss_changes":[1.20050184E-1,0E0,1.2692635E-1,2.1114479E-1,0E0,0E0,5.918494E-2,0E0,0E0],"parents":[2147483647,0,0,2,2,3,3,6,6],"right_children":[2,-1,4,6,-1,-1,8,-1,-1],"split_conditions":[3.3776E-1,-5.826291E-3,5.7236E-1,4.8622E-1,8.764327E-3,6.5768003E-3,6.0276E-1,-6.796689E-3,-3.1136704E-4],"split_indices":[0,0,1,0,0,0,0,0,0],"split_type":[0,0,0,0,0,0,0,0,0],"sum_hessian":[7.2E1,1.5E1,5.7E1,4.7E1,1E1,1.6E1,3.1E1,1.6E1,1.5E1],"tree_param":{"num_deleted":"0","num_feature":"2","num_nodes":"9","size_leaf_vector":"0"}},{"base_weights":[-9.018283E-4,5.4458785E-3,-2.2811098E-2,-1.1127485E-2,1.3967368E-2,1.065475E-2,-2.6690435E-2,-9.696319E-2,5.510309E-3,-1.0745451E-2,-3.1379154E-3],"categories":[],"categories_nodes":[],"categories_segments":[],"categories_sizes":[],"default_left":[0,0,0,0,0,0,0,0,0,0,0],"id":87,"left_children":[1,-1,3,-1,5,-1,7,9,-1,-1,-1],"loss_changes":[1.1923219E-1,0E0,2.6528314E-1,0E0,2.3815627E-1,0E0,2.5347513E-1,4.761398E-2,0E0,0E0,0E0],"parents":[2147483647,0,0,2,2,4,4,6,6,7,7],"right_children":[2,-1,4,-1,6,-1,8,10,-1,-1,-1],"split_conditions":[2.7448E-1,5.4458785E-3,3.5137E-1,-1.1127485E-2,4.2546E-1,1.065475E-2,5.8305E-1,5.0974E-1,5.510309E-3,-1.0745451E-2,-3.1379154E-3],"split_indices":[1,0,1,0,1,0,1,0,0,0,0],"split_type":[0,0,0,0,0,0,0,0,0,0,0],"sum_hessian":[7.2E1,1.6E1,5.6E1,1.2E1,4.4E1,1E1,3.4E1,2E1,1.4E1,1E1,1E1],"tree_param":{"num_deleted":"0","num_feature":"2","num_nodes":"11","size_leaf_vector":"0"}},{"base_weights":[-8.8077167E-4,7.2445567E-3,-1.7886212E-2,1.826741E-2,-8.196384E-3,-3.5175763E-2,1.174775E-2,-1.2860133E-2,2.8757367E-2,7.510658E-3,-2.2038552E-3],"categories":[],"categories_nodes":[],"categories_segments":[],"categories_sizes":[],"default_left":[0,0,0,0,0,0,0,0,0,0,0],"id":88,"left_children":[1,-1,3,5,-1,7,-1,-1,9,-1,-1],"loss_changes":[1.2273271E-1,0E0,2.1017365E-1,3.4567484E-1,0E0,3.0119392E-1,0E0,0E0,1.0255365E-1,0E0,0E0],"parents":[2147483647,0,0,2,2,3,3,5,5,8,8],"right_children":[2,-1,4,6,-1,8,-1,-1,10,-1,-1],"split_conditions":[3.1741E-1,7.2445567E-3,5.1093E-1,4.2582E-1,-8.196384E-3,4.565E-1,1.174775E-2,-1.2860133E-2,2.8055E-1,7.510658E-3,-2.2038552E-3],"split_indices":[0,0,1,1,0,0,0,0,1,0,0],"split_type":[0,0,0,0,0,0,0,0,0,0,0],"sum_hessian":[7.2E1,1E1,6.2E1,4.5E1,1.7E1,3.3E1,1.2E1,1E1,2.3E1,1E1,1.3E1],"tree_param":{"num_deleted":"0","num_feature":"2","num_nodes":"11","size_leaf_vector":"0"}},{"base_weights":[-7.7030173E-4,-5.5466304E-3,1.9431882E-2,6.136208E-3,-1.3058281E-2,-6.942868E-3,1.7552217E-2,4.1031456E-3,-2.4290306E-3],"categories":[],"categories_nodes":[],"categories_segments":[],"categories_sizes":[],"default_left":[0,0,0,0,0,0,0,0,0],"id":89,"left_children":[1,-1,3,-1,5,-1,7,-1,-1],"loss_changes":[1.09367006E-1,0E0,1.1862703E-1,0E0,9.654855E-2,0E0,5.5583198E-2,0E0,0E0],"parents":[2147483647,0,0,2,2,4,4,6,6],"right_children":[2,-1,4,-1,6,-1,8,-1,-1],"split_conditions":[3.3776E-1,-5.5466304E-3,4.8622E-1,6.136208E-3,5.4431E-1,-6.942868E-3,3.9201E-1,4.1031456E-3,-2.4290306E-3],"split_indices":[0,0,0,0,0,0,1,0,0],"split_type":[0,0,0,0,0,0,0,0,0],"sum_hessian":[7.2E1,1.5E1,5.7E1,1.9E1,3.8E1,1E1,2.8E1,1.6E1,1.2E1],"tree_param":{"num_deleted":"0","num_feature":"2","num_nodes":"9","size_leaf_vector":"0"}},{"base_weights":[-7.7662535E-4,7.1287896E-3,-1.7496021E-2,-7.043698E-2,3.5991684E-2,-1.1742663E-2,-8.1970665E-4,9.554945E-3,-1.1348097E-2,-2.9559785E-3,1.1492836E-3],"categories":[],"categories_nodes":[],"categories_segments":[],"categories_sizes":[],"default_left":[0,0,0,0,0,0,0,0,0,0,0],"id":90,"left_children":[1,-1,3,5,7,-1,-1,-1,9,-1,-1],"loss_changes":[1.1862156E-1,0E0,1.8093161E-1,1.6230465E-1,1.3991661E-1,0E0,0E0,0E0,1.7071942E-2,0E0,0E0],"parents":[2147483647,0,0,2,2,3,3,4,4,8,8],"right_children":[2,-1,4,6,8,-1,-1,-1,10,-1,-1],"split_conditions":[3.1741E-1,7.1287896E-3,5.3034E-1,3.5137E-1,5.8327E-1,-1.1742663E-2,-8.1970665E-4,9.554945E-3,3.8642E-1,-2.9559785E-3,1.1492836E-3],"split_indices":[0,0,0,1,0,0,0,0,1,0,0],"split_type":[0,0,0,0,0,0,0,0,0,0,0],"sum_hessian":[7.2E1,1E1,6.2E1,3.1E1,3.1E1,1.2E1,1.9E1,1E1,2.1E1,1E1,1.1E1],"tree_param":{"num_deleted":"0","num_feature":"2","num_nodes":"11","size_leaf_vector":"0"}},{"base_weights":[-6.866729E-4,5.5337623E-3,-2.2885026E-2,-1.0568789E-2,1.172171E-2,-8.121745E-3,4.9104746E-2,8.05473E-3,-2.0121643E-3],"categories":[],"categories_nodes":[],"categories_segments":[],"categories_sizes":[],"default_left":[0,0,0,0,0,0,0,0,0],"id":91,"left_children":[1,-1,3,-1,5,-1,7,-1,-1],"loss_changes":[1.2236594E-1,0E0,2.3448016E-1,0E0,2.0720547E-1,0E0,1.5780163E-1,0E0,0E0],"parents":[2147483647,0,0,2,2,4,4,6,6],"right_children":[2,-1,4,-1,6,-1,8,-1,-1],"split_conditions":[2.7448E-1,5.5337623E-3,3.5137E-1,-1.0568789E-2,3.7168E-1,-8.121745E-3,5.1093E-1,8.05473E-3,-2.0121643E-3],"split_indices":[1,0,1,0,0,0,1,0,0],"split_type":[0,0,0,0,0,0,0,0,0],"sum_hessian":[7.2E1,1.6E1,5.6E1,1.2E1,4.4E1,1E1,3.4E1,1.9E1,1.5E1],"tree_param":{"num_deleted":"0","num_feature":"2","num_nodes":"9","size_leaf_vector":"0"}},{"base_weights":[-7.326293E-4,-1.9423435E-2,6.527005E-3,3.7740935E-2,-7.975131E-2,-3.41832E-2,1.2034733E-2,-1.3885749E-2,5.9682134E-5,4.8054745E-3,-9.699888E-3],"categories":[],"categories_nodes":[],"categories_segments":[],"categories_sizes":[],"default_left":[0,0,0,0,0,0,0,0,0,0,0],"id":92,"left_children":[1,3,-1,5,7,9,-1,-1,-1,-1,-1],"loss_changes":[1.21431746E-1,2.1337478E-1,0E0,2.8793907E-1,2.5481784E-1,2.0461445E-1,0E0,0E0,0E0,0E0,0E0],"parents":[2147483647,0,0,1,1,3,3,4,4,5,5],"right_children":[2,4,-1,6,8,10,-1,-1,-1,-1,-1],"split_conditions":[5.9698E-1,3.7894E-1,6.527005E-3,2.9855E-1,4.432E-1,2.0388E-1,1.2034733E-2,-1.3885749E-2,5.9682134E-5,4.8054745E-3,-9.699888E-3],"split_indices":[1,1,0,1,1,1,0,0,0,0,0],"split_type":[0,0,0,0,0,0,0,0,0,0,0],"sum_hessian":[7.2E1,6E1,1.2E1,3.1E1,2.9E1,2E1,1.1E1,1.2E1,1.7E1,1E1,1E1],"tree_param":{"num_deleted":"0","num_feature":"2","num_nodes":"11","size_leaf_vector":"0"}},{"base_weights":[-6.7986065E-4,7.217315E-3,-1.758999E-2,1.5888369E-2,-7.6626427E-3,-3.2006275E-2,1.0494683E-2,-1.1594416E-2,2.5512537E-2,7.071501E-3,-2.2759961E-3],"categories":[],"categories_nodes":[],"categories_segments":[],"categories_sizes":[],"default_left":[0,0,0,0,0,0,0,0,0,0,0],"id":93,"left_children":[1,-1,3,5,-1,7,-1,-1,9,-1,-1],"loss_changes":[1.2132311E-1,0E0,1.8001106E-1,2.7775937E-1,0E0,2.4367791E-1,0E0,0E0,9.506124E-2,0E0,0E0],"parents":[2147483647,0,0,2,2,3,3,5,5,8,8],"right_children":[2,-1,4,6,-1,8,-1,-1,10,-1,-1],"split_conditions":[3.1741E-1,7.217315E-3,5.1093E-1,4.2582E-1,-7.6626427E-3,4.565E-1,1.0494683E-2,-1.1594416E-2,2.8055E-1,7.071501E-3,-2.2759961E-3],"split_indices":[0,0,1,1,0,0,0,0,1,0,0],"split_type":[0,0,0,0,0,0,0,0,0,0,0],"sum_hessian":[7.2E1,1E1,6.2E1,4.5E1,1.7E1,3.3E1,1.2E1,1E1,2.3E1,1E1,1.3E1],"tree_param":{"num_deleted":"0","num_feature":"2","num_nodes":"11","size_leaf_vector":"0"}},{"base_weights":[-5.8434624E-4,-1.8981516E-2,6.4339344E-3,3.585142E-2,-7.6837264E-2,-3.1934083E-2,1.13616325E-2,-1.3098437E-2,-1.446755E-4,4.503757E-3,-9.076137E-3],"categories":[],"categories_nodes":[],"categories_segments":[],"categories_sizes":[],"default_left":[0,0,0,0,0,0,0,0,0,0,0],"id":94,"left_children":[1,3,-1,5,7,9,-1,-1,-1,-1,-1],"loss_changes":[1.1762287E-1,1.9627115E-1,0E0,2.5567007E-1,2.1946317E-1,1.7934199E-1,0E0,0E0,0E0,0E0,0E0],"parents":[2147483647,0,0,1,1,3,3,4,4,5,5],"right_children":[2,4,-1,6,8,10,-1,-1,-1,-1,-1],"split_conditions":[5.9698E-1,3.7894E-1,6.4339344E-3,2.9855E-1,4.432E-1,2.0388E-1,1.13616325E-2,-1.3098437E-2,-1.446755E-4,4.503757E-3,-9.076137E-3],"split_indices":[1,1,0,1,1,1,0,0,0,0,0],"split_type":[0,0,0,0,0,0,0,0,0,0,0],"sum_hessian":[7.2E1,6E1,1.2E1,3.1E1,2.9E1,2E1,1.1E1,1.2E1,1.7E1,1E1,1E1],"tree_param":{"num_deleted":"0","num_feature":"2","num_nodes":"11","size_leaf_vector":"0"}}]},"name":"gbtree"},"learner_model_param":{"base_score":"5E-1","boost_from_average":"1","num_class":"0","num_feature":"2","num_target":"1"},"objective":{"name":"reg:squarederror","reg_loss_param":{"scale_pos_weight":"1"}}},"version":[1,7,3]}