{"learner":{"attributes":{"best_iteration":"16","best_ntree_limit":"17","best_score":"0.9398754211758295"},"feature_names":[],"feature_types":[],"gradient_booster":{"model":{"gbtree_model_param":{"num_parallel_tree":"1","num_trees":"67","size_leaf_vector":"0"},"tree_info":[0,0,0,0,0,0,0,0,0,0,0,0,0,0,0,0,0,0,0,0,0,0,0,0,0,0,0,0,0,0,0,0,0,0,0,0,0,0,0,0,0,0,0,0,0,0,0,0,0,0,0,0,0,0,0,0,0,0,0,0,0,0,0,0,0,0,0],"trees":[{"base_weights":[-4.9324325E-1,-9.2697114E-1,-2.2435762E-1,-2.364196E-2,-1.0794822E0,-5.1055685E-2,-6.599718E-2,-9.321936E-2,-4.785691E-2,2.0595491E-1,-5.629859E-1,4.3500686E-1,-1.04288936E-1,-7.184003E-2,-6.5758587E-3,7.4854903E-3,5.054485E-2,-1.9468272E-2,5.128543E-3],"categories":[],"categories_nodes":[],"categories_segments":[],"categories_sizes":[],"default_left":[0,0,0,0,0,0,0,0,0,0,0,0,0,0,0,0,0,0,0],"id":0,"left_children":[1,3,5,-1,7,-1,9,-1,-1,11,13,15,17,-1,-1,-1,-1,-1,-1],"loss_changes":[8.422142E0,2.2720604E0,3.3519177E0,0E0,7.940235E-1,0E0,4.981606E0,0E0,0E0,1.7508534E0,2.355987E0,1.053963E0,3.126986E-1,0E0,0E0,0E0,0E0,0E0,0E0],"parents":[2147483647,0,0,1,1,2,2,4,4,6,6,9,9,10,10,11,11,12,12],"right_children":[2,4,6,-1,8,-1,10,-1,-1,12,14,16,18,-1,-1,-1,-1,-1,-1],"split_conditions":[3.4366E-1,1.7957E-1,3.7168E-1,-2.364196E-2,2.9723E-1,-5.1055685E-2,5.9612E-1,-9.321936E-2,-4.785691E-2,5.0995E-1,6.7971E-1,4.3458E-1,4.732E-1,-7.184003E-2,-6.5758587E-3,7.4854903E-3,5.054485E-2,-1.9468272E-2,5.128543E-3],"split_indices":[1,1,0,0,1,0,0,0,0,1,0,1,0,0,0,0,0,0,0],"split_type":[0,0,0,0,0,0,0,0,0,0,0,0,0,0,0,0,0,0,0],"sum_hessian":[7.3E1,2.7E1,4.6E1,6E0,2.1E1,1.1E1,3.5E1,1.4E1,7E0,2.3E1,1.2E1,1.3E1,1E1,6E0,6E0,6E0,7E0,5E0,5E0],"tree_param":{"num_deleted":"0","num_feature":"2","num_nodes":"19","size_leaf_vector":"0"}},{"base_weights":[-4.5963514E-1,-8.633311E-1,-2.0935594E-1,-2.212212E-2,-1.0049336E0,-4.7545608E-2,-6.2012E-2,-8.6694E-2,-4.4716302E-2,1.9232872E-1,-5.2679396E-1,4.0652636E-1,-9.7770885E-2,-6.7221746E-2,-6.153126E-3,7.0042773E-3,4.722784E-2,-1.8251507E-2,4.808009E-3],"categories":[],"categories_nodes":[],"categories_segments":[],"categories_sizes":[],"default_left":[0,0,0,0,0,0,0,0,0,0,0,0,0,0,0,0,0,0,0],"id":1,"left_children":[1,3,5,-1,7,-1,9,-1,-1,11,13,15,17,-1,-1,-1,-1,-1,-1],"loss_changes":[7.295971E0,1.9570942E0,2.901013E0,0E0,6.684532E-1,0E0,4.3569846E0,0E0,0E0,1.531074E0,2.062811E0,9.195833E-1,2.748328E-1,0E0,0E0,0E0,0E0,0E0,0E0],"parents":[2147483647,0,0,1,1,2,2,4,4,6,6,9,9,10,10,11,11,12,12],"right_children":[2,4,6,-1,8,-1,10,-1,-1,12,14,16,18,-1,-1,-1,-1,-1,-1],"split_conditions":[3.4366E-1,1.7957E-1,3.7168E-1,-2.212212E-2,2.9723E-1,-4.7545608E-2,5.9612E-1,-8.6694E-2,-4.4716302E-2,5.0995E-1,6.7971E-1,4.3458E-1,4.732E-1,-6.7221746E-2,-6.153126E-3,7.0042773E-3,4.722784E-2,-1.8251507E-2,4.808009E-3],"split_indices":[1,1,0,0,1,0,0,0,0,1,0,1,0,0,0,0,0,0,0],"split_type":[0,0,0,0,0,0,0,0,0,0,0,0,0,0,0,0,0,0,0],"sum_hessian":[7.3E1,2.7E1,4.6E1,6E0,2.1E1,1.1E1,3.5E1,1.4E1,7E0,2.3E1,1.2E1,1.3E1,1E1,6E0,6E0,6E0,7E0,5E0,5E0],"tree_param":{"num_deleted":"0","num_feature":"2","num_nodes":"19","size_leaf_vector":"0"}},{"base_weights":[-4.283201E-1,-8.040646E-1,-1.9535916E-1,-2.0699985E-2,-9.355368E-1,-4.4276845E-2,-5.826626E-2,-1.0750057E0,-4.178179E-2,1.7960359E-1,-4.9292856E-1,-9.29641E-2,-5.32435E-2,3.799106E-1,-9.16602E-2,-6.290034E-2,-5.757567E-3,6.554004E-3,4.4128515E-2,-1.7110785E-2,4.5075077E-3],"categories":[],"categories_nodes":[],"categories_segments":[],"categories_sizes":[],"default_left":[0,0,0,0,0,0,0,0,0,0,0,0,0,0,0,0,0,0,0,0,0],"id":2,"left_children":[1,3,5,-1,7,-1,9,11,-1,13,15,-1,-1,17,19,-1,-1,-1,-1,-1,-1],"loss_changes":[6.3204184E0,1.6857166E0,2.5107236E0,0E0,5.623188E-1,0E0,3.810682E0,2.0996094E-2,0E0,1.3388875E0,1.8061173E0,0E0,0E0,8.023362E-1,2.4155216E-1,0E0,0E0,0E0,0E0,0E0,0E0],"parents":[2147483647,0,0,1,1,2,2,4,4,6,6,7,7,9,9,10,10,13,13,14,14],"right_children":[2,4,6,-1,8,-1,10,12,-1,14,16,-1,-1,18,20,-1,-1,-1,-1,-1,-1],"split_conditions":[3.4366E-1,1.7957E-1,3.7168E-1,-2.0699985E-2,2.9723E-1,-4.4276845E-2,5.9612E-1,5.6478E-1,-4.178179E-2,5.0995E-1,6.7971E-1,-9.29641E-2,-5.32435E-2,4.3458E-1,4.732E-1,-6.290034E-2,-5.757567E-3,6.554004E-3,4.4128515E-2,-1.7110785E-2,4.5075077E-3],"split_indices":[1,1,0,0,1,0,0,0,0,1,0,0,0,1,0,0,0,0,0,0,0],"split_type":[0,0,0,0,0,0,0,0,0,0,0,0,0,0,0,0,0,0,0,0,0],"sum_hessian":[7.3E1,2.7E1,4.6E1,6E0,2.1E1,1.1E1,3.5E1,1.4E1,7E0,2.3E1,1.2E1,8E0,6E0,1.3E1,1E1,6E0,6E0,6E0,7E0,5E0,5E0],"tree_param":{"num_deleted":"0","num_feature":"2","num_nodes":"21","size_leaf_vector":"0"}},{"base_weights":[-4.0002778E-1,-7.512129E-1,-1.822999E-1,-1.936927E-2,-8.739165E-1,-4.1232813E-2,-5.4745696E-2,-1.0041274E0,-3.903986E-2,1.6771996E-1,-4.6124032E-1,-8.67665E-2,-4.9820703E-2,3.5503748E-1,-8.593142E-2,-5.885675E-2,-5.387437E-3,6.132676E-3,4.123258E-2,-1.6041363E-2,4.2257905E-3],"categories":[],"categories_nodes":[],"categories_segments":[],"categories_sizes":[],"default_left":[0,0,0,0,0,0,0,0,0,0,0,0,0,0,0,0,0,0,0,0,0],"id":3,"left_children":[1,3,5,-1,7,-1,9,11,-1,13,15,-1,-1,17,19,-1,-1,-1,-1,-1,-1],"loss_changes":[5.5213003E0,1.4679556E0,2.1729083E0,0E0,4.896412E-1,0E0,3.3328784E0,1.0238647E-2,0E0,1.1708293E0,1.5813665E0,0E0,0E0,7.0003676E-1,2.1230176E-1,0E0,0E0,0E0,0E0,0E0,0E0],"parents":[2147483647,0,0,1,1,2,2,4,4,6,6,7,7,9,9,10,10,13,13,14,14],"right_children":[2,4,6,-1,8,-1,10,12,-1,14,16,-1,-1,18,20,-1,-1,-1,-1,-1,-1],"split_conditions":[3.4366E-1,1.7957E-1,3.7168E-1,-1.936927E-2,2.9723E-1,-4.1232813E-2,5.9612E-1,5.6478E-1,-3.903986E-2,5.0995E-1,6.7971E-1,-8.67665E-2,-4.9820703E-2,4.3458E-1,4.732E-1,-5.885675E-2,-5.387437E-3,6.132676E-3,4.123258E-2,-1.6041363E-2,4.2257905E-3],"split_indices":[1,1,0,0,1,0,0,0,0,1,0,0,0,1,0,0,0,0,0,0,0],"split_type":[0,0,0,0,0,0,0,0,0,0,0,0,0,0,0,0,0,0,0,0,0],"sum_hessian":[7.3E1,2.7E1,4.6E1,6E0,2.1E1,1.1E1,3.5E1,1.4E1,7E0,2.3E1,1.2E1,8E0,6E0,1.3E1,1E1,6E0,6E0,6E0,7E0,5E0,5E0],"tree_param":{"num_deleted":"0","num_feature":"2","num_nodes":"21","size_leaf_vector":"0"}},{"base_weights":[-3.7360576E-1,-7.018361E-1,-1.7011522E-1,-1.8124105E-2,-8.163558E-1,-3.8398057E-2,-5.1436845E-2,-9.3792367E-1,-3.647787E-2,1.5662219E-1,-4.3158916E-1,-8.098206E-2,-4.6617944E-2,3.317929E-1,-8.056071E-2,-5.50731E-2,-5.041103E-3,4.7423965E-3,3.939822E-2,-1.5038775E-2,3.961678E-3],"categories":[],"categories_nodes":[],"categories_segments":[],"categories_sizes":[],"default_left":[0,0,0,0,0,0,0,0,0,0,0,0,0,0,0,0,0,0,0,0,0],"id":4,"left_children":[1,3,5,-1,7,-1,9,11,-1,13,15,-1,-1,17,19,-1,-1,-1,-1,-1,-1],"loss_changes":[4.8231983E0,1.2783194E0,1.8805147E0,0E0,4.2636108E-1,0E0,2.9149847E0,1.9044876E-3,0E0,1.0238693E0,1.3845832E0,0E0,0E0,6.94378E-1,1.8659332E-1,0E0,0E0,0E0,0E0,0E0,0E0],"parents":[2147483647,0,0,1,1,2,2,4,4,6,6,7,7,9,9,10,10,13,13,14,14],"right_children":[2,4,6,-1,8,-1,10,12,-1,14,16,-1,-1,18,20,-1,-1,-1,-1,-1,-1],"split_conditions":[3.4366E-1,1.7957E-1,3.7168E-1,-1.8124105E-2,2.9723E-1,-3.8398057E-2,5.9612E-1,5.6478E-1,-3.647787E-2,5.0995E-1,6.7971E-1,-8.098206E-2,-4.6617944E-2,5.0974E-1,4.732E-1,-5.50731E-2,-5.041103E-3,4.7423965E-3,3.939822E-2,-1.5038775E-2,3.961678E-3],"split_indices":[1,1,0,0,1,0,0,0,0,1,0,0,0,0,0,0,0,0,0,0,0],"split_type":[0,0,0,0,0,0,0,0,0,0,0,0,0,0,0,0,0,0,0,0,0],"sum_hessian":[7.3E1,2.7E1,4.6E1,6E0,2.1E1,1.1E1,3.5E1,1.4E1,7E0,2.3E1,1.2E1,8E0,6E0,1.3E1,1E1,6E0,6E0,6E0,7E0,5E0,5E0],"tree_param":{"num_deleted":"0","num_feature":"2","num_nodes":"21","size_leaf_vector":"0"}},{"base_weights":[-3.4893197E-1,-6.5570563E-1,-1.587491E-1,-1.6958985E-2,-7.625872E-1,-3.575819E-2,-4.833049E-2,-6.5706454E-2,-3.4084015E-2,1.4625318E-1,-4.0384415E-1,3.1006134E-1,-7.552566E-2,-5.153269E-2,-4.717033E-3,4.3196264E-3,3.691588E-2,-1.4098851E-2,3.7140728E-3],"categories":[],"categories_nodes":[],"categories_segments":[],"categories_sizes":[],"default_left":[0,0,0,0,0,0,0,0,0,0,0,0,0,0,0,0,0,0,0],"id":5,"left_children":[1,3,5,-1,7,-1,9,-1,-1,11,13,15,17,-1,-1,-1,-1,-1,-1],"loss_changes":[4.213296E0,1.1131783E0,1.6274124E0,0E0,3.7126255E-1,0E0,2.549441E0,0E0,0E0,8.9531785E-1,1.2122872E0,6.154667E-1,1.6399802E-1,0E0,0E0,0E0,0E0,0E0,0E0],"parents":[2147483647,0,0,1,1,2,2,4,4,6,6,9,9,10,10,11,11,12,12],"right_children":[2,4,6,-1,8,-1,10,-1,-1,12,14,16,18,-1,-1,-1,-1,-1,-1],"split_conditions":[3.4366E-1,1.7957E-1,3.7168E-1,-1.6958985E-2,2.9723E-1,-3.575819E-2,5.9612E-1,-6.5706454E-2,-3.4084015E-2,5.0995E-1,6.7971E-1,4.3458E-1,4.732E-1,-5.153269E-2,-4.717033E-3,4.3196264E-3,3.691588E-2,-1.4098851E-2,3.7140728E-3],"split_indices":[1,1,0,0,1,0,0,0,0,1,0,1,0,0,0,0,0,0,0],"split_type":[0,0,0,0,0,0,0,0,0,0,0,0,0,0,0,0,0,0,0],"sum_hessian":[7.3E1,2.7E1,4.6E1,6E0,2.1E1,1.1E1,3.5E1,1.4E1,7E0,2.3E1,1.2E1,1.3E1,1E1,6E0,6E0,6E0,7E0,5E0,5E0],"tree_param":{"num_deleted":"0","num_feature":"2","num_nodes":"19","size_leaf_vector":"0"}},{"base_weights":[-3.251662E-1,-6.106973E-1,-1.4814414E-1,-1.5868763E-2,-7.099291E-1,1.6993938E-2,-3.365735E-1,-8.1476E-1,-3.184725E-2,-1.936241E-1,2.8000891E-2,-5.3425204E-2,-1.1372859E-1,-7.120283E-2,-3.939709E-2,9.062996E-3,-3.3472076E-1,1.4657111E-2,-3.7122667E-2,-4.313049E-3,-4.5176223E-2],"categories":[],"categories_nodes":[],"categories_segments":[],"categories_sizes":[],"default_left":[0,0,0,0,0,0,0,0,0,0,0,0,0,0,0,0,0,0,0,0,0],"id":6,"left_children":[1,3,5,-1,7,9,11,13,-1,15,-1,-1,17,-1,-1,-1,19,-1,-1,-1,-1],"loss_changes":[3.649881E0,9.58724E-1,1.4682125E0,0E0,3.120079E-1,2.0236924E0,1.7611961E0,8.577919E-2,0E0,7.9473466E-1,0E0,0E0,1.8646758E0,0E0,0E0,0E0,8.556446E-1,0E0,0E0,0E0,0E0],"parents":[2147483647,0,0,1,1,2,2,4,4,5,5,6,6,7,7,9,9,12,12,16,16],"right_children":[2,4,6,-1,8,10,12,14,-1,16,-1,-1,18,-1,-1,-1,20,-1,-1,-1,-1],"split_conditions":[3.4366E-1,1.7957E-1,5.1093E-1,-1.5868763E-2,2.9723E-1,4.4706E-1,5.8305E-1,5.6478E-1,-3.184725E-2,3.9024E-1,2.8000891E-2,-5.3425204E-2,6.4269E-1,-7.120283E-2,-3.939709E-2,9.062996E-3,4.8622E-1,1.4657111E-2,-3.7122667E-2,-4.313049E-3,-4.5176223E-2],"split_indices":[1,1,1,0,1,1,1,0,0,1,0,0,1,0,0,0,0,0,0,0,0],"split_type":[0,0,0,0,0,0,0,0,0,0,0,0,0,0,0,0,0,0,0,0,0],"sum_hessian":[7.3E1,2.7E1,4.6E1,6E0,2.1E1,2.5E1,2.1E1,1.4E1,7E0,1.6E1,9E0,7E0,1.4E1,8E0,6E0,5E0,1.1E1,8E0,6E0,6E0,5E0],"tree_param":{"num_deleted":"0","num_feature":"2","num_nodes":"21","size_leaf_vector":"0"}},{"base_weights":[-3.041116E-1,-5.7054913E-1,-1.389124E-1,-1.484863E-2,-6.6315925E-1,-3.2690547E-2,-3.6066532E-2,-7.610263E-1,-2.9757272E-2,1.3509695E-1,-3.492863E-1,-6.645597E-2,-3.686442E-2,-2.5945963E-2,3.277791E-1,-4.513683E-2,-3.5137625E-3,2.0949252E-2,-2.1736003E-2,3.6623634E-2,8.445995E-3],"categories":[],"categories_nodes":[],"categories_segments":[],"categories_sizes":[],"default_left":[0,0,0,0,0,0,0,0,0,0,0,0,0,0,0,0,0,0,0,0,0],"id":7,"left_children":[1,3,5,-1,7,-1,9,11,-1,13,15,-1,-1,17,19,-1,-1,-1,-1,-1,-1],"loss_changes":[3.1778736E0,8.348036E-1,1.4197191E0,0E0,2.716236E-1,0E0,1.9772116E0,6.999779E-2,0E0,7.532269E-1,9.6470094E-1,0E0,0E0,1.2086604E0,3.2496965E-1,0E0,0E0,0E0,0E0,0E0,0E0],"parents":[2147483647,0,0,1,1,2,2,4,4,6,6,7,7,9,9,10,10,13,13,14,14],"right_children":[2,4,6,-1,8,-1,10,12,-1,14,16,-1,-1,18,20,-1,-1,-1,-1,-1,-1],"split_conditions":[3.4366E-1,1.7957E-1,3.7168E-1,-1.484863E-2,2.9723E-1,-3.2690547E-2,5.9612E-1,5.6478E-1,-2.9757272E-2,5.0974E-1,6.7971E-1,-6.645597E-2,-3.686442E-2,4.5884E-1,4.8893E-1,-4.513683E-2,-3.5137625E-3,2.0949252E-2,-2.1736003E-2,3.6623634E-2,8.445995E-3],"split_indices":[1,1,0,0,1,0,0,0,0,0,0,0,0,0,1,0,0,0,0,0,0],"split_type":[0,0,0,0,0,0,0,0,0,0,0,0,0,0,0,0,0,0,0,0,0],"sum_hessian":[7.3E1,2.7E1,4.6E1,6E0,2.1E1,1.1E1,3.5E1,1.4E1,7E0,2.3E1,1.2E1,8E0,6E0,1.3E1,1E1,6E0,6E0,6E0,7E0,5E0,5E0],"tree_param":{"num_deleted":"0","num_feature":"2","num_nodes":"21","size_leaf_vector":"0"}},{"base_weights":[-2.8380302E-1,-5.3304106E-1,-1.2928243E-1,-1.3894074E-2,-6.194713E-1,-3.0443074E-2,-3.348286E-2,-7.108374E-1,-2.7804451E-2,1.268098E-1,-3.2683218E-1,-6.2025573E-2,-3.4494564E-2,-2.405619E-2,3.072929E-1,-4.2235177E-2,-3.2878793E-3,1.9602515E-2,-2.0309575E-2,3.4334656E-2,7.91812E-3],"categories":[],"categories_nodes":[],"categories_segments":[],"categories_sizes":[],"default_left":[0,0,0,0,0,0,0,0,0,0,0,0,0,0,0,0,0,0,0,0,0],"id":8,"left_children":[1,3,5,-1,7,-1,9,11,-1,13,15,-1,-1,17,19,-1,-1,-1,-1,-1,-1],"loss_changes":[2.7810044E0,7.2690153E-1,1.231936E0,0E0,2.3646545E-1,0E0,1.7342285E0,5.6860447E-2,0E0,6.608827E-1,8.446543E-1,0E0,0E0,1.0567232E0,2.8561783E-1,0E0,0E0,0E0,0E0,0E0,0E0],"parents":[2147483647,0,0,1,1,2,2,4,4,6,6,7,7,9,9,10,10,13,13,14,14],"right_children":[2,4,6,-1,8,-1,10,12,-1,14,16,-1,-1,18,20,-1,-1,-1,-1,-1,-1],"split_conditions":[3.4366E-1,1.7957E-1,3.7168E-1,-1.3894074E-2,2.9723E-1,-3.0443074E-2,5.9612E-1,5.6478E-1,-2.7804451E-2,5.0974E-1,6.7971E-1,-6.2025573E-2,-3.4494564E-2,4.5884E-1,4.8893E-1,-4.2235177E-2,-3.2878793E-3,1.9602515E-2,-2.0309575E-2,3.4334656E-2,7.91812E-3],"split_indices":[1,1,0,0,1,0,0,0,0,0,0,0,0,0,1,0,0,0,0,0,0],"split_type":[0,0,0,0,0,0,0,0,0,0,0,0,0,0,0,0,0,0,0,0,0],"sum_hessian":[7.3E1,2.7E1,4.6E1,6E0,2.1E1,1.1E1,3.5E1,1.4E1,7E0,2.3E1,1.2E1,8E0,6E0,1.3E1,1E1,6E0,6E0,6E0,7E0,5E0,5E0],"tree_param":{"num_deleted":"0","num_feature":"2","num_nodes":"21","size_leaf_vector":"0"}},{"base_weights":[-2.6485077E-1,-4.9799934E-1,-1.2031861E-1,-1.3000883E-2,-5.786621E-1,2.1024596E-2,-2.8189152E-1,-6.6395926E-1,-2.5979783E-2,-1.5807949E-1,2.4254933E-2,-4.656543E-2,-8.230899E-2,-5.7890534E-2,-3.2277055E-2,-1.651149E-2,-3.111517E-2,1.5365718E-2,-3.2984152E-2,2.0036066E-2,-1.9296678E-2],"categories":[],"categories_nodes":[],"categories_segments":[],"categories_sizes":[],"default_left":[0,0,0,0,0,0,0,0,0,0,0,0,0,0,0,0,0,0,0,0,0],"id":9,"left_children":[1,3,5,-1,7,9,11,13,-1,15,-1,-1,17,-1,-1,19,-1,-1,-1,-1,-1],"loss_changes":[2.4336944E0,6.3294125E-1,1.0792766E0,0E0,2.0586014E-1,1.459192E0,1.4372991E0,4.594612E-2,0E0,6.111537E-1,0E0,0E0,1.6300457E0,0E0,0E0,8.883188E-1,0E0,0E0,0E0,0E0,0E0],"parents":[2147483647,0,0,1,1,2,2,4,4,5,5,6,6,7,7,9,9,12,12,15,15],"right_children":[2,4,6,-1,8,10,12,14,-1,16,-1,-1,18,-1,-1,20,-1,-1,-1,-1,-1],"split_conditions":[3.4366E-1,1.7957E-1,5.1093E-1,-1.3000883E-2,2.9723E-1,4.4706E-1,5.8305E-1,5.6478E-1,-2.5979783E-2,4.2546E-1,2.4254933E-2,-4.656543E-2,6.4269E-1,-5.7890534E-2,-3.2277055E-2,4.8622E-1,-3.111517E-2,1.5365718E-2,-3.2984152E-2,2.0036066E-2,-1.9296678E-2],"split_indices":[1,1,1,0,1,1,1,0,0,1,0,0,1,0,0,0,0,0,0,0,0],"split_type":[0,0,0,0,0,0,0,0,0,0,0,0,0,0,0,0,0,0,0,0,0],"sum_hessian":[7.3E1,2.7E1,4.6E1,6E0,2.1E1,2.5E1,2.1E1,1.4E1,7E0,1.6E1,9E0,7E0,1.4E1,8E0,6E0,1.1E1,5E0,8E0,6E0,5E0,6E0],"tree_param":{"num_deleted":"0","num_feature":"2","num_nodes":"21","size_leaf_vector":"0"}},{"base_weights":[-2.4768226E-1,-4.6526182E-1,-1.1279056E-1,-1.33718075E-2,-5.5242884E-1,-2.7950812E-2,-2.3028519E-2,-4.931808E-2,-1.8614892E-2,1.1854328E-1,-2.8262043E-1,-2.5770867E-2,2.9143918E-1,-3.725641E-2,-2.108578E-3,1.8084876E-2,-1.9206693E-2,3.2453723E-2,7.619163E-3],"categories":[],"categories_nodes":[],"categories_segments":[],"categories_sizes":[],"default_left":[0,0,0,0,0,0,0,0,0,0,0,0,0,0,0,0,0,0,0],"id":10,"left_children":[1,3,5,-1,7,-1,9,-1,-1,11,13,15,17,-1,-1,-1,-1,-1,-1],"loss_changes":[2.1193995E0,6.0190964E-1,1.0878327E0,0E0,5.0854874E-1,0E0,1.3565348E0,0E0,0E0,6.063423E-1,6.945058E-1,9.2236704E-1,2.5107747E-1,0E0,0E0,0E0,0E0,0E0,0E0],"parents":[2147483647,0,0,1,1,2,2,4,4,6,6,9,9,10,10,11,11,12,12],"right_children":[2,4,6,-1,8,-1,10,-1,-1,12,14,16,18,-1,-1,-1,-1,-1,-1],"split_conditions":[3.4366E-1,4.8558E-1,3.7168E-1,-1.33718075E-2,2.9723E-1,-2.7950812E-2,5.9612E-1,-4.931808E-2,-1.8614892E-2,5.0974E-1,6.7971E-1,4.5884E-1,4.8893E-1,-3.725641E-2,-2.108578E-3,1.8084876E-2,-1.9206693E-2,3.2453723E-2,7.619163E-3],"split_indices":[1,0,0,0,1,0,0,0,0,0,0,0,1,0,0,0,0,0,0],"split_type":[0,0,0,0,0,0,0,0,0,0,0,0,0,0,0,0,0,0,0],"sum_hessian":[7.3E1,2.7E1,4.6E1,7E0,2E1,1.1E1,3.5E1,1.4E1,6E0,2.3E1,1.2E1,1.3E1,1E1,6E0,6E0,6E0,7E0,5E0,5E0],"tree_param":{"num_deleted":"0","num_feature":"2","num_nodes":"19","size_leaf_vector":"0"}},{"base_weights":[-2.3058811E-1,-4.3327093E-1,-1.0493477E-1,-9.764942E-3,-5.100087E-1,-2.6029192E-2,-2.1312876E-2,-5.8372897E-1,-2.3102412E-2,1.5462838E-1,-2.058446E-1,-5.1941503E-2,-2.7031654E-2,-7.4485964E-3,3.11038E-1,-3.9356362E-2,4.480085E-2,3.0405773E-2,1.3928512E-2,9.640142E-3,-3.4800253E-3],"categories":[],"categories_nodes":[],"categories_segments":[],"categories_sizes":[],"default_left":[0,0,0,0,0,0,0,0,0,0,0,0,0,0,0,0,0,0,0,0,0],"id":11,"left_children":[1,3,5,-1,7,-1,9,11,-1,13,15,-1,-1,-1,17,-1,19,-1,-1,-1,-1],"loss_changes":[1.8391502E0,5.847945E-1,9.441946E-1,0E0,1.4776754E-1,0E0,1.2006321E0,1.14907265E-1,0E0,7.8555405E-1,1.4622954E0,0E0,0E0,0E0,6.663585E-2,0E0,8.99675E-2,0E0,0E0,0E0,0E0],"parents":[2147483647,0,0,1,1,2,2,4,4,6,6,7,7,9,9,10,10,14,14,16,16],"right_children":[2,4,6,-1,8,-1,10,12,-1,14,16,-1,-1,-1,18,-1,20,-1,-1,-1,-1],"split_conditions":[3.4366E-1,1.7957E-1,3.7168E-1,-9.764942E-3,2.9723E-1,-2.6029192E-2,5.0995E-1,5.6478E-1,-2.3102412E-2,4.0961E-1,5.8305E-1,-5.1941503E-2,-2.7031654E-2,-7.4485964E-3,4.6716E-1,-3.9356362E-2,6.3961E-1,3.0405773E-2,1.3928512E-2,9.640142E-3,-3.4800253E-3],"split_indices":[1,1,0,0,1,0,1,0,0,1,1,0,0,0,1,0,1,0,0,0,0],"split_type":[0,0,0,0,0,0,0,0,0,0,0,0,0,0,0,0,0,0,0,0,0],"sum_hessian":[7.3E1,2.7E1,4.6E1,6E0,2.1E1,1.1E1,3.5E1,1.4E1,7E0,1.8E1,1.7E1,8E0,6E0,7E0,1.1E1,7E0,1E1,5E0,6E0,5E0,5E0],"tree_param":{"num_deleted":"0","num_feature":"2","num_nodes":"21","size_leaf_vector":"0"}},{"base_weights":[-2.1510725E-1,-4.0476993E-1,-9.7539976E-2,-1.01467995E-2,-4.8815393E-1,-3.231958E-1,-1.9611923E-2,-4.3820735E-2,-1.5933067E-2,-1.6030686E-2,-2.9776905E-2,1.0829539E-1,-2.542399E-1,-2.513382E-2,2.6826936E-1,-3.3399433E-2,-2.0125564E-3,1.6477166E-2,-1.7716333E-2,2.9677331E-2,7.2097047E-3],"categories":[],"categories_nodes":[],"categories_segments":[],"categories_sizes":[],"default_left":[0,0,0,0,0,0,0,0,0,0,0,0,0,0,0,0,0,0,0,0,0],"id":12,"left_children":[1,3,5,-1,7,9,11,-1,-1,-1,-1,13,15,17,19,-1,-1,-1,-1,-1,-1],"loss_changes":[1.61058E0,5.6312466E-1,8.201527E-1,0E0,4.3242264E-1,1.2109518E-2,1.1079158E0,0E0,0E0,0E0,0E0,5.1902735E-1,5.5295247E-1,7.754096E-1,2.032525E-1,0E0,0E0,0E0,0E0,0E0,0E0],"parents":[2147483647,0,0,1,1,2,2,4,4,5,5,6,6,11,11,12,12,13,13,14,14],"right_children":[2,4,6,-1,8,10,12,-1,-1,-1,-1,14,16,18,20,-1,-1,-1,-1,-1,-1],"split_conditions":[3.4366E-1,4.8558E-1,3.7168E-1,-1.01467995E-2,2.9723E-1,2.9531E-1,5.9612E-1,-4.3820735E-2,-1.5933067E-2,-1.6030686E-2,-2.9776905E-2,5.0974E-1,6.7971E-1,4.5884E-1,4.8893E-1,-3.3399433E-2,-2.0125564E-3,1.6477166E-2,-1.7716333E-2,2.9677331E-2,7.2097047E-3],"split_indices":[1,0,0,0,1,0,0,0,0,0,0,0,0,0,1,0,0,0,0,0,0],"split_type":[0,0,0,0,0,0,0,0,0,0,0,0,0,0,0,0,0,0,0,0,0],"sum_hessian":[7.3E1,2.7E1,4.6E1,7E0,2E1,1.1E1,3.5E1,1.4E1,6E0,6E0,5E0,2.3E1,1.2E1,1.3E1,1E1,6E0,6E0,6E0,7E0,5E0,5E0],"tree_param":{"num_deleted":"0","num_feature":"2","num_nodes":"21","size_leaf_vector":"0"}},{"base_weights":[-2.0053464E-1,-3.7690863E-1,-9.119409E-2,-7.041735E-3,-4.4982785E-1,-4.148295E-2,-3.1797983E-2,-4.561173E-2,-3.3539745E-1,-1.0629796E-1,1.3241617E-2,-3.9199978E-2,-1.1435812E-2,2.2648329E-2,-3.840646E-2,-1.2383835E-1,2.0205814E-2,2.1533962E-2,-2.9545745E-2,2.301082E-2,-1.6954906E-2],"categories":[],"categories_nodes":[],"categories_segments":[],"categories_sizes":[],"default_left":[0,0,0,0,0,0,0,0,0,0,0,0,0,0,0,0,0,0,0,0,0],"id":13,"left_children":[1,3,5,-1,7,9,-1,-1,11,13,-1,-1,-1,15,-1,17,-1,19,-1,-1,-1],"loss_changes":[1.3927052E0,5.3561616E-1,7.599251E-1,0E0,1.9461346E-1,6.123167E-1,0E0,0E0,4.341334E-1,1.7383192E0,0E0,0E0,0E0,9.7319645E-1,0E0,6.760012E-1,0E0,9.169721E-1,0E0,0E0,0E0],"parents":[2147483647,0,0,1,1,2,2,4,4,5,5,8,8,9,9,13,13,15,15,17,17],"right_children":[2,4,6,-1,8,10,-1,-1,12,14,-1,-1,-1,16,-1,18,-1,20,-1,-1,-1],"split_conditions":[3.4366E-1,1.7957E-1,6.9361E-1,-7.041735E-3,5.2988E-1,5.8305E-1,-3.1797983E-2,-4.561173E-2,2.6828E-1,5.1093E-1,1.3241617E-2,-3.9199978E-2,-1.1435812E-2,4.4706E-1,-3.840646E-2,4.2546E-1,2.0205814E-2,4.8622E-1,-2.9545745E-2,2.301082E-2,-1.6954906E-2],"split_indices":[1,1,1,0,0,1,0,0,1,1,0,0,0,1,0,1,0,0,0,0,0],"split_type":[0,0,0,0,0,0,0,0,0,0,0,0,0,0,0,0,0,0,0,0,0],"sum_hessian":[7.3E1,2.7E1,4.6E1,6E0,2.1E1,4.1E1,5E0,7E0,1.4E1,3.2E1,9E0,6E0,8E0,2.5E1,7E0,1.6E1,9E0,1.1E1,5E0,5E0,6E0],"tree_param":{"num_deleted":"0","num_feature":"2","num_nodes":"21","size_leaf_vector":"0"}},{"base_weights":[-1.8770449E-1,-3.2742473E-1,-6.726076E-2,-6.5890513E-3,-3.756237E-1,5.656245E-2,-3.1010282E-1,-6.6016287E-1,-1.8087067E-1,-2.1687152E-2,2.3554572E-1,-3.078447E-2,-8.091292E-3,-2.303399E-2,-6.773841E-2,-3.667998E-2,1.3982712E-2,3.3067517E-2,4.6115167E-2,1.820111E-2,-1.9137222E-2,-1.1002275E-2,1.7343111E-2],"categories":[],"categories_nodes":[],"categories_segments":[],"categories_sizes":[],"default_left":[0,0,0,0,0,0,0,0,0,0,0,0,0,0,0,0,0,0,0,0,0,0,0],"id":14,"left_children":[1,3,5,-1,7,9,11,13,15,-1,17,-1,-1,-1,-1,-1,19,-1,21,-1,-1,-1,-1],"loss_changes":[1.2232809E0,3.5960007E-1,1.2503889E0,0E0,1.4322116E0,1.8007199E0,2.3983455E-1,6.6636133E-1,1.0877919E0,0E0,7.1877575E-1,0E0,0E0,0E0,0E0,0E0,8.005627E-1,0E0,4.265631E-1,0E0,0E0,0E0,0E0],"parents":[2147483647,0,0,1,1,2,2,4,4,5,5,6,6,7,7,8,8,10,10,16,16,18,18],"right_children":[2,4,6,-1,8,10,12,14,16,-1,18,-1,-1,-1,-1,-1,20,-1,22,-1,-1,-1,-1],"split_conditions":[3.9201E-1,1.7957E-1,5.4705E-1,-6.5890513E-3,5.2988E-1,3.7168E-1,6.7971E-1,2.9147E-1,2.6828E-1,-2.1687152E-2,4.9235E-1,-3.078447E-2,-8.091292E-3,-2.303399E-2,-6.773841E-2,-3.667998E-2,5.9612E-1,3.3067517E-2,4.5998E-1,1.820111E-2,-1.9137222E-2,-1.1002275E-2,1.7343111E-2],"split_indices":[1,1,0,0,0,0,0,1,1,0,1,0,0,0,0,0,0,0,0,0,0,0,0],"split_type":[0,0,0,0,0,0,0,0,0,0,0,0,0,0,0,0,0,0,0,0,0,0,0],"sum_hessian":[7.3E1,3.3E1,4E1,6E0,2.7E1,2.7E1,1.3E1,1E1,1.7E1,9E0,1.8E1,8E0,5E0,5E0,5E0,6E0,1.1E1,8E0,1E1,6E0,5E0,5E0,5E0],"tree_param":{"num_deleted":"0","num_feature":"2","num_nodes":"23","size_leaf_vector":"0"}},{"base_weights":[-1.7573655E-1,-3.3397204E-1,-7.772951E-2,-5.5884663E-3,-4.169102E-1,-3.1275313E-2,-2.9246548E-2,-4.9318075E-1,-1.4543601E-2,-9.273607E-2,1.31004555E-2,-4.5075268E-2,-2.6589055E-2,2.4306938E-2,-3.461504E-2,-1.9452281E-2,1.2237632E-1,2.7355654E-2,1.727161E-2,-1.9588517E-2,1.3696167E-2],"categories":[],"categories_nodes":[],"categories_segments":[],"categories_sizes":[],"default_left":[0,0,0,0,0,0,0,0,0,0,0,0,0,0,0,0,0,0,0,0,0],"id":15,"left_children":[1,3,5,-1,7,9,-1,11,-1,13,-1,-1,-1,15,-1,-1,17,-1,19,-1,-1],"loss_changes":[1.1216466E0,5.7146883E-1,6.6949856E-1,0E0,2.6153255E-1,5.478229E-1,0E0,1.119256E-2,0E0,1.4356703E0,0E0,0E0,0E0,7.5504464E-1,0E0,0E0,5.03176E-1,0E0,7.3830044E-1,0E0,0E0],"parents":[2147483647,0,0,1,1,2,2,4,4,5,5,7,7,9,9,13,13,16,16,18,18],"right_children":[2,4,6,-1,8,10,-1,12,-1,14,-1,-1,-1,16,-1,-1,18,-1,20,-1,-1],"split_conditions":[3.4366E-1,4.8558E-1,6.9361E-1,-5.5884663E-3,2.9723E-1,5.8305E-1,-2.9246548E-2,5.6478E-1,-1.4543601E-2,5.1093E-1,1.31004555E-2,-4.5075268E-2,-2.6589055E-2,3.7168E-1,-3.461504E-2,-1.9452281E-2,4.8622E-1,2.7355654E-2,5.3641E-1,-1.9588517E-2,1.3696167E-2],"split_indices":[1,0,1,0,1,1,0,0,0,1,0,0,0,0,0,0,0,0,0,0,0],"split_type":[0,0,0,0,0,0,0,0,0,0,0,0,0,0,0,0,0,0,0,0,0],"sum_hessian":[7.3E1,2.7E1,4.6E1,7E0,2E1,4.1E1,5E0,1.4E1,6E0,3.2E1,9E0,6E0,8E0,2.5E1,7E0,6E0,1.9E1,5E0,1.4E1,5E0,9E0],"tree_param":{"num_deleted":"0","num_feature":"2","num_nodes":"21","size_leaf_vector":"0"}},{"base_weights":[-1.6445558E-1,-3.1220257E-1,-7.2937034E-2,-2.2485419E-1,-4.462533E-2,-2.9394038E-2,-2.741864E-2,-6.8501286E-2,-3.820899E-2,-8.676887E-2,1.2216175E-2,-1.7896105E-2,1.3822784E-2,2.2561258E-2,-3.234343E-2,-1.00511104E-1,1.7214611E-2,4.2039163E-2,-2.7664486E-2,2.4025606E-2,-1.5188341E-2],"categories":[],"categories_nodes":[],"categories_segments":[],"categories_sizes":[],"default_left":[0,0,0,0,0,0,0,0,0,0,0,0,0,0,0,0,0,0,0,0,0],"id":16,"left_children":[1,3,5,7,-1,9,-1,11,-1,13,-1,-1,-1,15,-1,17,-1,19,-1,-1,-1],"loss_changes":[9.778271E-1,5.5787444E-1,5.8815783E-1,9.885529E-1,0E0,4.7746977E-1,0E0,7.3206615E-1,0E0,1.2525655E0,0E0,0E0,0E0,6.853397E-1,0E0,6.658106E-1,0E0,8.815797E-1,0E0,0E0,0E0],"parents":[2147483647,0,0,1,1,2,2,3,3,5,5,7,7,9,9,13,13,15,15,17,17],"right_children":[2,4,6,8,-1,10,-1,12,-1,14,-1,-1,-1,16,-1,18,-1,20,-1,-1,-1],"split_conditions":[3.4366E-1,2.9888E-1,6.9361E-1,6.3497E-1,-4.462533E-2,5.8305E-1,-2.741864E-2,5.2988E-1,-3.820899E-2,5.1093E-1,1.2216175E-2,-1.7896105E-2,1.3822784E-2,4.4706E-1,-3.234343E-2,4.2546E-1,1.7214611E-2,4.8622E-1,-2.7664486E-2,2.4025606E-2,-1.5188341E-2],"split_indices":[1,1,1,0,0,1,0,0,0,1,0,0,0,1,0,1,0,0,0,0,0],"split_type":[0,0,0,0,0,0,0,0,0,0,0,0,0,0,0,0,0,0,0,0,0],"sum_hessian":[7.3E1,2.7E1,4.6E1,2.2E1,5E0,4.1E1,5E0,1.5E1,7E0,3.2E1,9E0,9E0,6E0,2.5E1,7E0,1.6E1,9E0,1.1E1,5E0,5E0,6E0],"tree_param":{"num_deleted":"0","num_feature":"2","num_nodes":"21","size_leaf_vector":"0"}},{"base_weights":[-1.5396014E-1,-2.7129754E-1,-5.2900836E-2,-3.264157E-3,-3.185522E-1,5.657941E-2,-2.680827E-1,-5.097174E-1,-5.8767937E-2,-1.8612701E-2,2.1399562E-1,-2.6897296E-2,-6.568529E-3,-5.9201854E-1,-2.0540927E-2,1.2223243E-2,-2.0408778E-2,2.9984152E-2,4.2528957E-2,-1.9632995E-2,-6.176956E-2,-1.1353491E-2,1.7201222E-2],"categories":[],"categories_nodes":[],"categories_segments":[],"categories_sizes":[],"default_left":[0,0,0,0,0,0,0,0,0,0,0,0,0,0,0,0,0,0,0,0,0,0,0],"id":17,"left_children":[1,3,5,-1,7,9,11,13,15,-1,17,-1,-1,19,-1,-1,-1,-1,21,-1,-1,-1,-1],"loss_changes":[8.6314297E-1,3.5209322E-1,9.8105264E-1,0E0,1.3605726E0,1.3963342E0,1.9740856E-1,1.4841509E-1,6.593655E-1,0E0,5.8828634E-1,0E0,0E0,6.2564945E-1,0E0,0E0,0E0,0E0,4.3320683E-1,0E0,0E0,0E0,0E0],"parents":[2147483647,0,0,1,1,2,2,4,4,5,5,6,6,7,7,8,8,10,10,13,13,18,18],"right_children":[2,4,6,-1,8,10,12,14,16,-1,18,-1,-1,20,-1,-1,-1,-1,22,-1,-1,-1,-1],"split_conditions":[3.9201E-1,1.7957E-1,5.4705E-1,-3.264157E-3,5.6478E-1,3.7168E-1,6.7971E-1,5.2988E-1,6.3497E-1,-1.8612701E-2,4.9235E-1,-2.6897296E-2,-6.568529E-3,2.9147E-1,-2.0540927E-2,1.2223243E-2,-2.0408778E-2,2.9984152E-2,4.5998E-1,-1.9632995E-2,-6.176956E-2,-1.1353491E-2,1.7201222E-2],"split_indices":[1,1,0,0,0,0,0,0,0,0,1,0,0,1,0,0,0,0,0,0,0,0,0],"split_type":[0,0,0,0,0,0,0,0,0,0,0,0,0,0,0,0,0,0,0,0,0,0,0],"sum_hessian":[7.3E1,3.3E1,4E1,6E0,2.7E1,2.7E1,1.3E1,1.5E1,1.2E1,9E0,1.8E1,8E0,5E0,1E1,5E0,6E0,6E0,8E0,1E1,5E0,5E0,5E0,5E0],"tree_param":{"num_deleted":"0","num_feature":"2","num_nodes":"23","size_leaf_vector":"0"}},{"base_weights":[-1.4416502E-1,-2.777075E-1,-6.1540462E-2,-2.4201747E-3,-3.579837E-1,-2.0808334E-2,-2.5230648E-2,-4.282217E-1,-1.172499E-2,-7.511275E-2,1.2035782E-2,-4.0664364E-2,-2.1899875E-2,2.4202753E-2,-2.913743E-2,-1.2453237E-1,1.8251729E-1,5.301003E-3,-1.806278E-2,2.3123119E-2,-1.1717653E-3],"categories":[],"categories_nodes":[],"categories_segments":[],"categories_sizes":[],"default_left":[0,0,0,0,0,0,0,0,0,0,0,0,0,0,0,0,0,0,0,0,0],"id":18,"left_children":[1,3,5,-1,7,9,-1,11,-1,13,-1,-1,-1,15,-1,17,19,-1,-1,-1,-1],"loss_changes":[7.994175E-1,5.401287E-1,5.1921034E-1,0E0,2.3048854E-1,4.255271E-1,0E0,7.456136E-2,0E0,1.0364987E0,0E0,0E0,0E0,6.3494956E-1,0E0,3.3488E-1,3.2883307E-1,0E0,0E0,0E0,0E0],"parents":[2147483647,0,0,1,1,2,2,4,4,5,5,7,7,9,9,13,13,15,15,16,16],"right_children":[2,4,6,-1,8,10,-1,12,-1,14,-1,-1,-1,16,-1,18,20,-1,-1,-1,-1],"split_conditions":[3.4366E-1,4.8558E-1,6.9361E-1,-2.4201747E-3,2.9723E-1,5.8305E-1,-2.5230648E-2,5.6478E-1,-1.172499E-2,5.1093E-1,1.2035782E-2,-4.0664364E-2,-2.1899875E-2,5.0974E-1,-2.913743E-2,3.0661E-1,5.9612E-1,5.301003E-3,-1.806278E-2,2.3123119E-2,-1.1717653E-3],"split_indices":[1,0,1,0,1,1,0,0,0,1,0,0,0,0,0,0,0,0,0,0,0],"split_type":[0,0,0,0,0,0,0,0,0,0,0,0,0,0,0,0,0,0,0,0,0],"sum_hessian":[7.3E1,2.7E1,4.6E1,7E0,2E1,4.1E1,5E0,1.4E1,6E0,3.2E1,9E0,6E0,8E0,2.5E1,7E0,1.3E1,1.2E1,5E0,8E0,7E0,5E0],"tree_param":{"num_deleted":"0","num_feature":"2","num_nodes":"21","size_leaf_vector":"0"}},{"base_weights":[-1.3483714E-1,-9.864373E-2,-3.1582672E-2,1.8932346E-2,-1.310277E-1,-3.2071105E-1,-1.09398E-2,-5.4584557E-1,-1.2091171E-1,-1.6923692E-2,6.0994662E-2,-1.777662E-2,-5.727715E-2,4.441462E-3,-2.7821742E-2,2.0110638E-1,-1.6593178E-1,2.7816528E-2,4.3912534E-2,-2.3044696E-2,1.9957088E-3,-1.017784E-2,1.6215812E-2],"categories":[],"categories_nodes":[],"categories_segments":[],"categories_sizes":[],"default_left":[0,0,0,0,0,0,0,0,0,0,0,0,0,0,0,0,0,0,0,0,0,0,0],"id":19,"left_children":[1,3,-1,-1,5,7,9,11,13,-1,15,-1,-1,-1,-1,17,19,-1,21,-1,-1,-1,-1],"loss_changes":[7.251682E-1,7.9481196E-1,0E0,0E0,1.4087694E0,1.0135622E0,6.1611867E-1,5.590372E-1,6.5254015E-1,0E0,9.8722154E-1,0E0,0E0,0E0,0E0,4.9079442E-1,3.3472016E-1,0E0,3.6976558E-1,0E0,0E0,0E0,0E0],"parents":[2147483647,0,0,1,1,4,4,5,5,6,6,7,7,8,8,10,10,15,15,16,16,18,18],"right_children":[2,4,-1,-1,6,8,10,12,14,-1,16,-1,-1,-1,-1,18,20,-1,22,-1,-1,-1,-1],"split_conditions":[7.282E-1,1.7957E-1,-3.1582672E-2,1.8932346E-2,3.9201E-1,5.2988E-1,3.7168E-1,2.9147E-1,5.9612E-1,-1.6923692E-2,5.4705E-1,-1.777662E-2,-5.727715E-2,4.441462E-3,-2.7821742E-2,4.9235E-1,6.7697E-1,2.7816528E-2,4.5998E-1,-2.3044696E-2,1.9957088E-3,-1.017784E-2,1.6215812E-2],"split_indices":[0,1,0,0,1,0,0,1,0,0,0,0,0,0,0,1,0,0,0,0,0,0,0],"split_type":[0,0,0,0,0,0,0,0,0,0,0,0,0,0,0,0,0,0,0,0,0,0,0],"sum_hessian":[7.3E1,6.6E1,7E0,5E0,6.1E1,2.3E1,3.8E1,1E1,1.3E1,9E0,2.9E1,5E0,5E0,8E0,5E0,1.8E1,1.1E1,8E0,1E1,6E0,5E0,5E0,5E0],"tree_param":{"num_deleted":"0","num_feature":"2","num_nodes":"23","size_leaf_vector":"0"}},{"base_weights":[-1.2628113E-1,-2.4720596E-1,-5.1553976E-2,-1.6550566E-1,-3.893921E-2,-1.4050726E-2,-2.2911329E-2,-2.64613E-2,-3.1717964E-2,1.5855199E-2,-5.749858E-2,-1.3721083E-2,1.50653245E-2,-1.6972488E-2,7.1499785E-3,1.8605312E-2,-1.2709215E-1,-2.0147065E-2,3.321803E-3],"categories":[],"categories_nodes":[],"categories_segments":[],"categories_sizes":[],"default_left":[0,0,0,0,0,0,0,0,0,0,0,0,0,0,0,0,0,0,0],"id":20,"left_children":[1,3,5,7,-1,9,-1,11,-1,-1,13,-1,-1,-1,15,-1,17,-1,-1],"loss_changes":[6.559466E-1,5.362631E-1,4.432989E-1,8.119813E-1,0E0,4.2356494E-1,0E0,6.059397E-1,0E0,0E0,3.9447737E-1,0E0,0E0,0E0,9.047545E-1,0E0,4.4851893E-1,0E0,0E0],"parents":[2147483647,0,0,1,1,2,2,3,3,5,5,7,7,10,10,14,14,16,16],"right_children":[2,4,6,8,-1,10,-1,12,-1,-1,14,-1,-1,-1,16,-1,18,-1,-1],"split_conditions":[3.4366E-1,2.9888E-1,6.9361E-1,6.3497E-1,-3.893921E-2,3.046E-1,-2.2911329E-2,5.2988E-1,-3.1717964E-2,1.5855199E-2,4.2582E-1,-1.3721083E-2,1.50653245E-2,-1.6972488E-2,4.9235E-1,1.8605312E-2,5.8305E-1,-2.0147065E-2,3.321803E-3],"split_indices":[1,1,1,0,0,0,0,0,0,0,1,0,0,0,1,0,1,0,0],"split_type":[0,0,0,0,0,0,0,0,0,0,0,0,0,0,0,0,0,0,0],"sum_hessian":[7.3E1,2.7E1,4.6E1,2.2E1,5E0,4.1E1,5E0,1.5E1,7E0,6E0,3.5E1,9E0,6E0,9E0,2.6E1,9E0,1.7E1,9E0,8E0],"tree_param":{"num_deleted":"0","num_feature":"2","num_nodes":"19","size_leaf_vector":"0"}},{"base_weights":[-1.1804737E-1,-2.3114097E-1,-4.8160814E-2,-2.7586857E-4,-3.0678672E-1,-2.05678E-1,5.6827147E-3,-3.7213618E-1,-9.219415E-3,-8.170424E-3,-2.1319538E-2,1.1054473E-1,-1.0532068E-1,-3.7790153E-2,-1.7124683E-2,-2.643599E-3,1.9852781E-1,-2.4131484E-2,6.165935E-2,2.2145335E-2,6.54329E-3,-4.3460615E-3,1.2824223E-2],"categories":[],"categories_nodes":[],"categories_segments":[],"categories_sizes":[],"default_left":[0,0,0,0,0,0,0,0,0,0,0,0,0,0,0,0,0,0,0,0,0,0,0],"id":21,"left_children":[1,3,5,-1,7,9,11,13,-1,-1,-1,15,17,-1,-1,-1,19,-1,21,-1,-1,-1,-1],"loss_changes":[5.7374346E-1,4.8065603E-1,3.9978898E-1,0E0,2.0657492E-1,6.02569E-2,4.3068406E-1,1.6911316E-1,0E0,0E0,0E0,2.5071627E-1,6.703572E-1,0E0,0E0,0E0,1.03431106E-1,0E0,1.5375155E-1,0E0,0E0,0E0,0E0],"parents":[2147483647,0,0,1,1,2,2,4,4,5,5,6,6,7,7,11,11,12,12,16,16,18,18],"right_children":[2,4,6,-1,8,10,12,14,-1,-1,-1,16,18,-1,-1,-1,20,-1,22,-1,-1,-1,-1],"split_conditions":[3.4366E-1,4.8558E-1,3.7168E-1,-2.7586857E-4,2.9723E-1,2.9531E-1,5.0995E-1,5.6478E-1,-9.219415E-3,-8.170424E-3,-2.1319538E-2,4.0961E-1,5.8305E-1,-3.7790153E-2,-1.7124683E-2,-2.643599E-3,4.6716E-1,-2.4131484E-2,4.9209E-1,2.2145335E-2,6.54329E-3,-4.3460615E-3,1.2824223E-2],"split_indices":[1,0,0,0,1,0,1,0,0,0,0,1,1,0,0,0,1,0,0,0,0,0,0],"split_type":[0,0,0,0,0,0,0,0,0,0,0,0,0,0,0,0,0,0,0,0,0,0,0],"sum_hessian":[7.3E1,2.7E1,4.6E1,7E0,2E1,1.1E1,3.5E1,1.4E1,6E0,6E0,5E0,1.8E1,1.7E1,6E0,8E0,7E0,1.1E1,7E0,1E1,5E0,6E0,5E0,5E0],"tree_param":{"num_deleted":"0","num_feature":"2","num_nodes":"23","size_leaf_vector":"0"}},{"base_weights":[-1.1032231E-1,8.7677E-3,-1.4358273E-1,-4.884015E-2,-8.092311E-2,1.9536623E-1,-1.6325198E-1,3.255162E-2,-2.8408477E-3,-2.0912182E-1,1.3305048E-2,-3.2553155E-2,-1.5004878E-1,3.5556894E-2,-2.817506E-1,-5.8420375E-3,1.6403647E-2,-1.0415712E-2,-3.480002E-1,-3.557241E-2,-9.120153E-3],"categories":[],"categories_nodes":[],"categories_segments":[],"categories_sizes":[],"default_left":[0,0,0,0,0,0,0,0,0,0,0,0,0,0,0,0,0,0,0,0,0],"id":22,"left_children":[1,-1,3,-1,5,7,9,-1,-1,11,-1,-1,13,15,17,-1,-1,-1,19,-1,-1],"loss_changes":[5.760475E-1,0E0,2.0147727E0,0E0,1.3739426E0,7.957496E-1,7.558799E-1,0E0,0E0,4.796281E-1,0E0,0E0,8.411346E-1,3.2872835E-1,1.4097857E-1,0E0,0E0,0E0,3.140434E-1,0E0,0E0],"parents":[2147483647,0,0,2,2,4,4,5,5,6,6,9,9,12,12,13,13,14,14,18,18],"right_children":[2,-1,4,-1,6,8,10,-1,-1,12,-1,-1,14,16,18,-1,-1,-1,20,-1,-1],"split_conditions":[3.0661E-1,8.7677E-3,3.7168E-1,-4.884015E-2,4.8622E-1,4.5884E-1,5.9698E-1,3.255162E-2,-2.8408477E-3,5.2988E-1,1.3305048E-2,-3.2553155E-2,5.9612E-1,5.6478E-1,2.7757E-1,-5.8420375E-3,1.6403647E-2,-1.0415712E-2,6.7697E-1,-3.557241E-2,-9.120153E-3],"split_indices":[0,0,0,0,0,1,1,0,0,0,0,0,0,0,1,0,0,0,0,0,0],"split_type":[0,0,0,0,0,0,0,0,0,0,0,0,0,0,0,0,0,0,0,0,0],"sum_hessian":[7.3E1,9E0,6.4E1,6E0,5.8E1,1.3E1,4.5E1,6E0,7E0,4E1,5E0,7E0,3.3E1,1.4E1,1.9E1,9E0,5E0,7E0,1.2E1,7E0,5E0],"tree_param":{"num_deleted":"0","num_feature":"2","num_nodes":"21","size_leaf_vector":"0"}},{"base_weights":[-1.03050254E-1,-7.155118E-2,-2.6548026E-2,1.9731127E-2,-1.0278096E-1,-2.6397133E-1,-9.514718E-4,-3.9504352E-1,3.566512E-3,2.0782977E-2,-4.9992513E-2,-4.744584E-1,-1.6036047E-2,-3.3081334E-2,6.7738146E-2,-1.3490317E-2,-5.1747713E-2,1.5514679E-1,-7.2278427E-3,4.287491E-2,2.440868E-2,1.4027184E-2,-9.933811E-3],"categories":[],"categories_nodes":[],"categories_segments":[],"categories_sizes":[],"default_left":[0,0,0,0,0,0,0,0,0,0,0,0,0,0,0,0,0,0,0,0,0,0,0],"id":23,"left_children":[1,3,-1,-1,5,7,9,11,-1,-1,13,15,-1,-1,17,-1,-1,19,-1,21,-1,-1,-1],"loss_changes":[5.5955786E-1,7.272238E-1,0E0,0E0,1.0174127E0,9.987594E-1,5.456668E-1,1.4322376E-1,0E0,0E0,1.5953575E0,5.7425E-1,0E0,0E0,4.022553E-1,0E0,0E0,3.3020923E-1,0E0,3.2805943E-1,0E0,0E0,0E0],"parents":[2147483647,0,0,1,1,4,4,5,5,6,6,7,7,10,10,11,11,14,14,17,17,19,19],"right_children":[2,4,-1,-1,6,8,10,12,-1,-1,14,16,-1,-1,18,-1,-1,20,-1,22,-1,-1,-1],"split_conditions":[7.282E-1,1.7957E-1,-2.6548026E-2,1.9731127E-2,3.9201E-1,5.7008E-1,4.2546E-1,5.2988E-1,3.566512E-3,2.0782977E-2,3.7168E-1,2.9147E-1,-1.6036047E-2,-3.3081334E-2,5.4705E-1,-1.3490317E-2,-5.1747713E-2,5.0974E-1,-7.2278427E-3,4.5884E-1,2.440868E-2,1.4027184E-2,-9.933811E-3],"split_indices":[0,1,0,0,1,0,1,0,0,0,0,1,0,0,0,0,0,0,0,0,0,0,0],"split_type":[0,0,0,0,0,0,0,0,0,0,0,0,0,0,0,0,0,0,0,0,0,0,0],"sum_hessian":[7.3E1,6.6E1,7E0,5E0,6.1E1,2.3E1,3.8E1,1.6E1,7E0,5E0,3.3E1,1E1,6E0,7E0,2.6E1,5E0,5E0,1.7E1,9E0,1.1E1,6E0,6E0,5E0],"tree_param":{"num_deleted":"0","num_feature":"2","num_nodes":"23","size_leaf_vector":"0"}},{"base_weights":[-9.634241E-2,9.484808E-3,-1.2913814E-1,-4.4203483E-2,-7.234443E-2,1.8071899E-1,-1.4779103E-1,3.0423332E-2,-2.9010472E-3,-3.2406846E-1,-6.054251E-2,-3.3506855E-2,-1.4447671E-2,7.150179E-2,-2.149595E-1,-1.7172966E-2,2.4082018E-1,-2.97111E-2,3.6529216E-3,2.5749864E-2,8.891283E-3],"categories":[],"categories_nodes":[],"categories_segments":[],"categories_sizes":[],"default_left":[0,0,0,0,0,0,0,0,0,0,0,0,0,0,0,0,0,0,0,0,0],"id":24,"left_children":[1,-1,3,-1,5,7,9,-1,-1,11,13,-1,-1,15,17,-1,19,-1,-1,-1,-1],"loss_changes":[5.5705684E-1,0E0,1.6563855E0,0E0,1.1531823E0,7.065704E-1,6.878575E-1,0E0,0E0,1.5582013E-1,6.678462E-1,0E0,0E0,9.709073E-1,7.358908E-1,0E0,1.0970634E-1,0E0,0E0,0E0,0E0],"parents":[2147483647,0,0,2,2,4,4,5,5,6,6,9,9,10,10,13,13,14,14,16,16],"right_children":[2,-1,4,-1,6,8,10,-1,-1,12,14,-1,-1,16,18,-1,20,-1,-1,-1,-1],"split_conditions":[3.0661E-1,9.484808E-3,3.7168E-1,-4.4203483E-2,4.8622E-1,4.5884E-1,2.9723E-1,3.0423332E-2,-2.9010472E-3,5.6478E-1,5.9612E-1,-3.3506855E-2,-1.4447671E-2,5.3641E-1,6.7971E-1,-1.7172966E-2,3.7894E-1,-2.97111E-2,3.6529216E-3,2.5749864E-2,8.891283E-3],"split_indices":[0,0,0,0,0,1,1,0,0,0,0,0,0,0,0,0,1,0,0,0,0],"split_type":[0,0,0,0,0,0,0,0,0,0,0,0,0,0,0,0,0,0,0,0,0],"sum_hessian":[7.3E1,9E0,6.4E1,6E0,5.8E1,1.3E1,4.5E1,6E0,7E0,1.4E1,3.1E1,6E0,8E0,1.7E1,1.4E1,6E0,1.1E1,8E0,6E0,5E0,6E0],"tree_param":{"num_deleted":"0","num_feature":"2","num_nodes":"21","size_leaf_vector":"0"}},{"base_weights":[-8.997809E-2,-6.0585935E-2,-2.436676E-2,1.9017346E-2,-9.0010405E-2,-2.4036466E-1,4.823249E-3,-3.6326352E-1,3.8130733E-3,1.9609407E-2,-4.060723E-2,-1.5511023E-2,-3.390728E-2,-3.0022828E-2,6.7473665E-2,1.4613043E-1,-6.064191E-3,3.9484285E-2,2.3105748E-2,1.25978375E-2,-8.774835E-3],"categories":[],"categories_nodes":[],"categories_segments":[],"categories_sizes":[],"default_left":[0,0,0,0,0,0,0,0,0,0,0,0,0,0,0,0,0,0,0,0,0],"id":25,"left_children":[1,3,-1,-1,5,7,9,11,-1,-1,13,-1,-1,-1,15,17,-1,19,-1,-1,-1],"loss_changes":[4.9125457E-1,6.421523E-1,0E0,0E0,8.851954E-1,8.7740076E-1,4.6532103E-1,1.42766E-1,0E0,0E0,1.3488071E0,0E0,0E0,0E0,3.268278E-1,2.9871273E-1,0E0,2.6092297E-1,0E0,0E0,0E0],"parents":[2147483647,0,0,1,1,4,4,5,5,6,6,7,7,10,10,14,14,15,15,17,17],"right_children":[2,4,-1,-1,6,8,10,12,-1,-1,14,-1,-1,-1,16,18,-1,20,-1,-1,-1],"split_conditions":[7.282E-1,1.7957E-1,-2.436676E-2,1.9017346E-2,3.9201E-1,5.7008E-1,4.2546E-1,4.7568E-1,3.8130733E-3,1.9609407E-2,3.7168E-1,-1.5511023E-2,-3.390728E-2,-3.0022828E-2,5.4705E-1,5.0974E-1,-6.064191E-3,4.5884E-1,2.3105748E-2,1.25978375E-2,-8.774835E-3],"split_indices":[0,1,0,0,1,0,1,0,0,0,0,0,0,0,0,0,0,0,0,0,0],"split_type":[0,0,0,0,0,0,0,0,0,0,0,0,0,0,0,0,0,0,0,0,0],"sum_hessian":[7.3E1,6.6E1,7E0,5E0,6.1E1,2.3E1,3.8E1,1.6E1,7E0,5E0,3.3E1,7E0,9E0,7E0,2.6E1,1.7E1,9E0,1.1E1,6E0,6E0,5E0],"tree_param":{"num_deleted":"0","num_feature":"2","num_nodes":"21","size_leaf_vector":"0"}},{"base_weights":[-8.377708E-2,9.541163E-3,-1.1494859E-1,-3.9898235E-2,-6.352243E-2,1.6506898E-1,-1.3171281E-1,-1.3318653E-3,3.0884873E-2,-1.7404994E-1,1.3465732E-2,-2.6875658E-2,-1.1851422E-1,5.943288E-2,-2.3715147E-1,-3.1817309E-3,1.517335E-2,-7.376383E-3,-3.0432424E-1,-3.1643666E-2,-7.261136E-3],"categories":[],"categories_nodes":[],"categories_segments":[],"categories_sizes":[],"default_left":[0,0,0,0,0,0,0,0,0,0,0,0,0,0,0,0,0,0,0,0,0],"id":26,"left_children":[1,-1,3,-1,5,7,9,-1,-1,11,-1,-1,13,15,17,-1,-1,-1,19,-1,-1],"loss_changes":[5.013182E-1,0E0,1.3602071E0,0E0,9.414182E-1,6.3883626E-1,6.3742286E-1,0E0,0E0,3.7715805E-1,0E0,0E0,7.1076274E-1,2.1232498E-1,1.565404E-1,0E0,0E0,0E0,2.7636862E-1,0E0,0E0],"parents":[2147483647,0,0,2,2,4,4,5,5,6,6,9,9,12,12,13,13,14,14,18,18],"right_children":[2,-1,4,-1,6,8,10,-1,-1,12,-1,-1,14,16,18,-1,-1,-1,20,-1,-1],"split_conditions":[3.0661E-1,9.541163E-3,3.7168E-1,-3.9898235E-2,4.8622E-1,4.5998E-1,5.9698E-1,-1.3318653E-3,3.0884873E-2,5.3641E-1,1.3465732E-2,-2.6875658E-2,5.9612E-1,5.6478E-1,2.7757E-1,-3.1817309E-3,1.517335E-2,-7.376383E-3,6.7697E-1,-3.1643666E-2,-7.261136E-3],"split_indices":[0,0,0,0,0,0,1,0,0,0,0,0,0,0,1,0,0,0,0,0,0],"split_type":[0,0,0,0,0,0,0,0,0,0,0,0,0,0,0,0,0,0,0,0,0],"sum_hessian":[7.3E1,9E0,6.4E1,6E0,5.8E1,1.3E1,4.5E1,8E0,5E0,4E1,5E0,8E0,3.2E1,1.3E1,1.9E1,8E0,5E0,7E0,1.2E1,7E0,5E0],"tree_param":{"num_deleted":"0","num_feature":"2","num_nodes":"21","size_leaf_vector":"0"}},{"base_weights":[-7.814925E-2,1.0471919E-1,-1.1174088E-1,-5.0425543E-3,2.159086E-2,-3.8452484E-2,-6.83358E-2,1.2989254E-1,-1.22871295E-1,-5.8852728E-3,2.8954567E-2,-1.6248804E-1,1.2624125E-2,-2.6095157E-2,-1.140743E-1,3.7003808E-2,-2.2167917E-1,-4.37208E-3,1.42250145E-2,-6.892307E-3,-2.844926E-1,-2.956705E-2,-6.8073156E-3],"categories":[],"categories_nodes":[],"categories_segments":[],"categories_sizes":[],"default_left":[0,0,0,0,0,0,0,0,0,0,0,0,0,0,0,0,0,0,0,0,0,0,0],"id":27,"left_children":[1,3,5,-1,-1,-1,7,9,11,-1,-1,13,-1,-1,15,17,19,-1,-1,-1,21,-1,-1],"loss_changes":[4.6627215E-1,3.9729246E-1,1.0613942E0,0E0,0E0,0E0,6.4296794E-1,7.2418183E-1,5.580116E-1,0E0,0E0,3.2841563E-1,0E0,0E0,5.6093216E-1,2.2928421E-1,1.3689673E-1,0E0,0E0,0E0,2.4058175E-1,0E0,0E0],"parents":[2147483647,0,0,1,1,2,2,6,6,7,7,8,8,11,11,14,14,15,15,16,16,20,20],"right_children":[2,4,6,-1,-1,-1,8,10,12,-1,-1,14,-1,-1,16,18,20,-1,-1,-1,22,-1,-1],"split_conditions":[3.2138E-1,2.9328E-1,3.767E-1,-5.0425543E-3,2.159086E-2,-3.8452484E-2,4.8622E-1,4.5998E-1,5.9698E-1,-5.8852728E-3,2.8954567E-2,5.2988E-1,1.2624125E-2,-2.6095157E-2,5.9612E-1,5.6478E-1,2.7757E-1,-4.37208E-3,1.42250145E-2,-6.892307E-3,6.7697E-1,-2.956705E-2,-6.8073156E-3],"split_indices":[0,0,0,0,0,0,0,0,1,0,0,0,0,0,0,0,1,0,0,0,0,0,0],"split_type":[0,0,0,0,0,0,0,0,0,0,0,0,0,0,0,0,0,0,0,0,0,0,0],"sum_hessian":[7.3E1,1.1E1,6.2E1,6E0,5E0,5E0,5.7E1,1.2E1,4.5E1,7E0,5E0,4E1,5E0,7E0,3.3E1,1.4E1,1.9E1,9E0,5E0,7E0,1.2E1,7E0,5E0],"tree_param":{"num_deleted":"0","num_feature":"2","num_nodes":"23","size_leaf_vector":"0"}},{"base_weights":[-7.290589E-2,-4.5158263E-2,-2.2213425E-2,1.7959455E-2,-7.197355E-2,-2.0726202E-1,1.3126378E-2,-3.2398224E-1,5.0007105E-3,1.8131433E-2,-2.7605465E-2,-1.3679775E-2,-3.0363915E-2,-2.6830258E-2,7.123364E-2,1.866438E-2,-3.3779435E-3,-8.728026E-2,6.69393E-3,3.1956588E-3,-1.5196695E-2],"categories":[],"categories_nodes":[],"categories_segments":[],"categories_sizes":[],"default_left":[0,0,0,0,0,0,0,0,0,0,0,0,0,0,0,0,0,0,0,0,0],"id":28,"left_children":[1,3,-1,-1,5,7,9,11,-1,-1,13,-1,-1,-1,15,-1,17,19,-1,-1,-1],"loss_changes":[4.450771E-1,5.285857E-1,0E0,0E0,7.1652913E-1,7.889806E-1,3.6985576E-1,1.208061E-1,0E0,0E0,1.1348988E0,0E0,0E0,0E0,3.5866794E-1,0E0,1.6322796E-1,1.7343228E-1,0E0,0E0,0E0],"parents":[2147483647,0,0,1,1,4,4,5,5,6,6,7,7,10,10,14,14,16,16,17,17],"right_children":[2,4,-1,-1,6,8,10,12,-1,-1,14,-1,-1,-1,16,-1,18,20,-1,-1,-1],"split_conditions":[7.282E-1,1.7957E-1,-2.2213425E-2,1.7959455E-2,3.9201E-1,5.7008E-1,4.2546E-1,4.7568E-1,5.0007105E-3,1.8131433E-2,3.7168E-1,-1.3679775E-2,-3.0363915E-2,-2.6830258E-2,4.8893E-1,1.866438E-2,5.8305E-1,5.1093E-1,6.69393E-3,3.1956588E-3,-1.5196695E-2],"split_indices":[0,1,0,0,1,0,1,0,0,0,0,0,0,0,1,0,1,1,0,0,0],"split_type":[0,0,0,0,0,0,0,0,0,0,0,0,0,0,0,0,0,0,0,0,0],"sum_hessian":[7.3E1,6.6E1,7E0,5E0,6.1E1,2.3E1,3.8E1,1.6E1,7E0,5E0,3.3E1,7E0,9E0,7E0,2.6E1,7E0,1.9E1,1E1,9E0,5E0,5E0],"tree_param":{"num_deleted":"0","num_feature":"2","num_nodes":"21","size_leaf_vector":"0"}},{"base_weights":[-6.796009E-2,1.0832497E-1,-1.00459464E-1,-4.0961085E-3,2.1027539E-2,-3.5269756E-2,-6.0471825E-2,1.1843546E-1,-1.0971797E-1,-5.793968E-3,2.6971051E-2,-2.5971368E-1,-3.5978805E-2,-2.7445287E-2,-1.1117876E-2,7.7696644E-2,-1.6999076E-1,-1.4315466E-2,2.2788747E-1,-2.5019638E-2,4.8481612E-3,2.587863E-2,7.1181348E-3],"categories":[],"categories_nodes":[],"categories_segments":[],"categories_sizes":[],"default_left":[0,0,0,0,0,0,0,0,0,0,0,0,0,0,0,0,0,0,0,0,0,0,0],"id":29,"left_children":[1,3,5,-1,-1,-1,7,9,11,-1,-1,13,15,-1,-1,17,19,-1,21,-1,-1,-1,-1],"loss_changes":[4.3483967E-1,3.5170233E-1,9.0318006E-1,0E0,0E0,0E0,5.240032E-1,6.4132714E-1,4.994415E-1,0E0,0E0,1.2337351E-1,5.006915E-1,0E0,0E0,7.695577E-1,5.9736896E-1,0E0,1.5421134E-1,0E0,0E0,0E0,0E0],"parents":[2147483647,0,0,1,1,2,2,6,6,7,7,8,8,11,11,12,12,15,15,16,16,18,18],"right_children":[2,4,6,-1,-1,-1,8,10,12,-1,-1,14,16,-1,-1,18,20,-1,22,-1,-1,-1,-1],"split_conditions":[3.2138E-1,2.9328E-1,3.767E-1,-4.0961085E-3,2.1027539E-2,-3.5269756E-2,4.8622E-1,4.5998E-1,2.9723E-1,-5.793968E-3,2.6971051E-2,5.6478E-1,5.9612E-1,-2.7445287E-2,-1.1117876E-2,5.3641E-1,6.7971E-1,-1.4315466E-2,3.7894E-1,-2.5019638E-2,4.8481612E-3,2.587863E-2,7.1181348E-3],"split_indices":[0,0,0,0,0,0,0,0,1,0,0,0,0,0,0,0,0,0,1,0,0,0,0],"split_type":[0,0,0,0,0,0,0,0,0,0,0,0,0,0,0,0,0,0,0,0,0,0,0],"sum_hessian":[7.3E1,1.1E1,6.2E1,6E0,5E0,5E0,5.7E1,1.2E1,4.5E1,7E0,5E0,1.4E1,3.1E1,6E0,8E0,1.7E1,1.4E1,6E0,1.1E1,8E0,6E0,5E0,6E0],"tree_param":{"num_deleted":"0","num_feature":"2","num_nodes":"23","size_leaf_vector":"0"}},{"base_weights":[-6.336597E-2,-3.7389126E-2,-2.0475104E-2,1.7376157E-2,-6.2825225E-2,-1.8991159E-1,1.6992677E-2,-2.992893E-1,4.969122E-3,1.7074928E-2,-2.0684699E-2,-3.6658582E-1,-1.130865E-2,-2.4687277E-2,7.1482584E-2,-5.9614875E-3,-4.4444066E-2,1.8114943E-2,-1.11537796E-4,-7.68337E-2,6.32205E-3,3.1701452E-3,-1.3734779E-2],"categories":[],"categories_nodes":[],"categories_segments":[],"categories_sizes":[],"default_left":[0,0,0,0,0,0,0,0,0,0,0,0,0,0,0,0,0,0,0,0,0,0,0],"id":30,"left_children":[1,3,-1,-1,5,7,9,11,-1,-1,13,15,-1,-1,17,-1,-1,-1,19,21,-1,-1,-1],"loss_changes":[3.927721E-1,4.7311163E-1,0E0,0E0,6.3214064E-1,6.922833E-1,3.1427586E-1,1.14623785E-1,0E0,0E0,9.9020624E-1,6.666316E-1,0E0,0E0,3.2874054E-1,0E0,0E0,0E0,1.3599212E-1,1.4700264E-1,0E0,0E0,0E0],"parents":[2147483647,0,0,1,1,4,4,5,5,6,6,7,7,10,10,11,11,14,14,18,18,19,19],"right_children":[2,4,-1,-1,6,8,10,12,-1,-1,14,16,-1,-1,18,-1,-1,-1,20,22,-1,-1,-1],"split_conditions":[7.282E-1,1.7957E-1,-2.0475104E-2,1.7376157E-2,3.9201E-1,5.7008E-1,4.2546E-1,5.2988E-1,4.969122E-3,1.7074928E-2,3.7168E-1,2.9147E-1,-1.130865E-2,-2.4687277E-2,4.8893E-1,-5.9614875E-3,-4.4444066E-2,1.8114943E-2,5.8305E-1,5.1093E-1,6.32205E-3,3.1701452E-3,-1.3734779E-2],"split_indices":[0,1,0,0,1,0,1,0,0,0,0,1,0,0,1,0,0,0,1,1,0,0,0],"split_type":[0,0,0,0,0,0,0,0,0,0,0,0,0,0,0,0,0,0,0,0,0,0,0],"sum_hessian":[7.3E1,6.6E1,7E0,5E0,6.1E1,2.3E1,3.8E1,1.6E1,7E0,5E0,3.3E1,1E1,6E0,7E0,2.6E1,5E0,5E0,7E0,1.9E1,1E1,9E0,5E0,5E0],"tree_param":{"num_deleted":"0","num_feature":"2","num_nodes":"23","size_leaf_vector":"0"}},{"base_weights":[-5.9337635E-2,1.1550821E-1,-9.169974E-2,-2.9321986E-3,2.074713E-2,-3.2525614E-2,-5.4741975E-2,1.09639175E-1,-1.00007474E-1,-5.404151E-3,2.5021901E-2,-1.3561703E-1,1.1999431E-2,-2.1960165E-2,-8.8638745E-2,-2.4907408E-2,-2.2236565E-2,1.6323317E-2,-1.1707705E-1,9.382833E-4,-1.6818037E-2],"categories":[],"categories_nodes":[],"categories_segments":[],"categories_sizes":[],"default_left":[0,0,0,0,0,0,0,0,0,0,0,0,0,0,0,0,0,0,0,0,0],"id":31,"left_children":[1,3,5,-1,-1,-1,7,9,11,-1,-1,13,-1,-1,15,-1,17,-1,19,-1,-1],"loss_changes":[4.2931217E-1,3.097334E-1,7.7249366E-1,0E0,0E0,0E0,4.425308E-1,5.531013E-1,4.4758782E-1,0E0,0E0,2.7680224E-1,0E0,0E0,5.261024E-1,0E0,6.397422E-1,0E0,2.805462E-1,0E0,0E0],"parents":[2147483647,0,0,1,1,2,2,6,6,7,7,8,8,11,11,14,14,16,16,18,18],"right_children":[2,4,6,-1,-1,-1,8,10,12,-1,-1,14,-1,-1,16,-1,18,-1,20,-1,-1],"split_conditions":[3.2138E-1,2.9328E-1,3.767E-1,-2.9321986E-3,2.074713E-2,-3.2525614E-2,4.8622E-1,4.5998E-1,5.9698E-1,-5.404151E-3,2.5021901E-2,5.3641E-1,1.1999431E-2,-2.1960165E-2,2.3262E-1,-2.4907408E-2,2.9888E-1,1.6323317E-2,6.0974E-1,9.382833E-4,-1.6818037E-2],"split_indices":[0,0,0,0,0,0,0,0,1,0,0,0,0,0,1,0,1,0,0,0,0],"split_type":[0,0,0,0,0,0,0,0,0,0,0,0,0,0,0,0,0,0,0,0,0],"sum_hessian":[7.3E1,1.1E1,6.2E1,6E0,5E0,5E0,5.7E1,1.2E1,4.5E1,7E0,5E0,4E1,5E0,8E0,3.2E1,6E0,2.6E1,7E0,1.9E1,9E0,1E1],"tree_param":{"num_deleted":"0","num_feature":"2","num_nodes":"21","size_leaf_vector":"0"}},{"base_weights":[-5.5286203E-2,9.63887E-3,-8.2713254E-2,-3.185046E-2,-4.0739868E-2,1.3472077E-1,-9.325528E-2,2.5358014E-2,-4.506162E-3,-2.2803298E-1,-2.7164008E-2,-2.3764446E-2,-1.0020664E-2,7.520494E-2,-1.4819582E-1,-1.2555094E-2,2.1045813E-1,-2.2695288E-2,5.362473E-3,2.4117796E-2,6.386507E-3],"categories":[],"categories_nodes":[],"categories_segments":[],"categories_sizes":[],"default_left":[0,0,0,0,0,0,0,0,0,0,0,0,0,0,0,0,0,0,0,0,0],"id":32,"left_children":[1,-1,3,-1,5,7,9,-1,-1,11,13,-1,-1,15,17,-1,19,-1,-1,-1,-1],"loss_changes":[3.8368005E-1,0E0,9.1565675E-1,0E0,5.562123E-1,5.7499707E-1,4.0355664E-1,0E0,0E0,8.3474934E-2,4.076218E-1,0E0,0E0,6.258697E-1,5.3047717E-1,0E0,1.3969213E-1,0E0,0E0,0E0,0E0],"parents":[2147483647,0,0,2,2,4,4,5,5,6,6,9,9,10,10,13,13,14,14,16,16],"right_children":[2,-1,4,-1,6,8,10,-1,-1,12,14,-1,-1,16,18,-1,20,-1,-1,-1,-1],"split_conditions":[3.0661E-1,9.63887E-3,3.7168E-1,-3.185046E-2,4.8622E-1,4.5884E-1,2.9723E-1,2.5358014E-2,-4.506162E-3,5.6478E-1,5.9612E-1,-2.3764446E-2,-1.0020664E-2,5.3641E-1,6.7971E-1,-1.2555094E-2,3.7894E-1,-2.2695288E-2,5.362473E-3,2.4117796E-2,6.386507E-3],"split_indices":[0,0,0,0,0,1,1,0,0,0,0,0,0,0,0,0,1,0,0,0,0],"split_type":[0,0,0,0,0,0,0,0,0,0,0,0,0,0,0,0,0,0,0,0,0],"sum_hessian":[7.3E1,9E0,6.4E1,6E0,5.8E1,1.3E1,4.5E1,6E0,7E0,1.4E1,3.1E1,6E0,8E0,1.7E1,1.4E1,6E0,1.1E1,8E0,6E0,5E0,6E0],"tree_param":{"num_deleted":"0","num_feature":"2","num_nodes":"21","size_leaf_vector":"0"}},{"base_weights":[-5.160633E-2,-2.6861977E-2,-1.8929213E-2,1.7193122E-2,-5.1212937E-2,-1.699613E-1,2.3176126E-2,-2.71187E-1,4.979139E-3,6.1427653E-2,-1.2034754E-2,-9.853424E-3,-2.6693607E-2,2.1763723E-2,-1.5437989E-4,-1.3788872E-2,6.1085388E-2,1.9847613E-2,-1.906348E-2,-4.5063933E-3,4.449025E-3],"categories":[],"categories_nodes":[],"categories_segments":[],"categories_sizes":[],"default_left":[0,0,0,0,0,0,0,0,0,0,0,0,0,0,0,0,0,0,0,0,0],"id":33,"left_children":[1,3,-1,-1,5,7,9,11,-1,13,-1,-1,-1,-1,15,-1,17,-1,19,-1,-1],"loss_changes":[3.6087075E-1,4.2957687E-1,0E0,0E0,5.5162096E-1,5.9219605E-1,2.8381205E-1,1.5461576E-1,0E0,4.6492302E-1,0E0,0E0,0E0,0E0,3.149692E-1,0E0,3.4764427E-1,0E0,5.5011354E-2,0E0,0E0],"parents":[2147483647,0,0,1,1,4,4,5,5,6,6,7,7,9,9,14,14,16,16,18,18],"right_children":[2,4,-1,-1,6,8,10,12,-1,14,-1,-1,-1,-1,16,-1,18,-1,20,-1,-1],"split_conditions":[7.282E-1,1.7957E-1,-1.8929213E-2,1.7193122E-2,3.9201E-1,5.7008E-1,6.417E-1,2.9147E-1,4.979139E-3,3.2138E-1,-1.2034754E-2,-9.853424E-3,-2.6693607E-2,2.1763723E-2,4.3458E-1,-1.3788872E-2,4.8893E-1,1.9847613E-2,5.8305E-1,-4.5063933E-3,4.449025E-3],"split_indices":[0,1,0,0,1,0,1,1,0,0,0,0,0,0,1,0,1,0,1,0,0],"split_type":[0,0,0,0,0,0,0,0,0,0,0,0,0,0,0,0,0,0,0,0,0],"sum_hessian":[7.3E1,6.6E1,7E0,5E0,6.1E1,2.3E1,3.8E1,1.6E1,7E0,3.2E1,6E0,7E0,9E0,6E0,2.6E1,6E0,2E1,5E0,1.5E1,1E1,5E0],"tree_param":{"num_deleted":"0","num_feature":"2","num_nodes":"21","size_leaf_vector":"0"}},{"base_weights":[-4.7973335E-2,-2.4827095E-2,-1.7686984E-2,1.611855E-2,-4.762741E-2,-1.5852953E-1,2.1841262E-2,-2.5299782E-1,4.6523837E-3,1.587516E-2,-1.2300107E-2,-9.206792E-3,-2.489179E-2,-2.269074E-2,7.41534E-2,1.7143931E-2,8.672803E-3,-7.7657397E-3,6.4161316E-2,-6.3801752E-3,2.0798493E-2],"categories":[],"categories_nodes":[],"categories_segments":[],"categories_sizes":[],"default_left":[0,0,0,0,0,0,0,0,0,0,0,0,0,0,0,0,0,0,0,0,0],"id":34,"left_children":[1,3,-1,-1,5,7,9,11,-1,-1,13,-1,-1,-1,15,-1,17,-1,19,-1,-1],"loss_changes":[3.1590396E-1,3.7646937E-1,0E0,0E0,4.8112428E-1,5.1575905E-1,2.5536147E-1,1.3393366E-1,0E0,0E0,8.755808E-1,0E0,0E0,0E0,2.710502E-1,0E0,1.3117744E-1,0E0,4.68913E-1,0E0,0E0],"parents":[2147483647,0,0,1,1,4,4,5,5,6,6,7,7,10,10,14,14,16,16,18,18],"right_children":[2,4,-1,-1,6,8,10,12,-1,-1,14,-1,-1,-1,16,-1,18,-1,20,-1,-1],"split_conditions":[7.282E-1,1.7957E-1,-1.7686984E-2,1.611855E-2,3.9201E-1,5.7008E-1,4.2546E-1,2.9147E-1,4.6523837E-3,1.587516E-2,3.7168E-1,-9.206792E-3,-2.489179E-2,-2.269074E-2,4.8893E-1,1.7143931E-2,4.732E-1,-7.7657397E-3,5.9698E-1,-6.3801752E-3,2.0798493E-2],"split_indices":[0,1,0,0,1,0,1,1,0,0,0,0,0,0,1,0,0,0,1,0,0],"split_type":[0,0,0,0,0,0,0,0,0,0,0,0,0,0,0,0,0,0,0,0,0],"sum_hessian":[7.3E1,6.6E1,7E0,5E0,6.1E1,2.3E1,3.8E1,1.6E1,7E0,5E0,3.3E1,7E0,9E0,7E0,2.6E1,7E0,1.9E1,6E0,1.3E1,8E0,5E0],"tree_param":{"num_deleted":"0","num_feature":"2","num_nodes":"21","size_leaf_vector":"0"}},{"base_weights":[-4.4564985E-2,1.03704154E-1,-7.4934885E-2,-3.1789022E-3,1.762341E-2,-2.8588573E-2,-4.138381E-2,1.0962899E-1,-7.987881E-2,-4.979141E-3,2.2253348E-2,-1.1164875E-1,1.1289673E-2,-1.9191684E-2,-6.892718E-2,-2.2236535E-2,-7.3773004E-3,1.6512167E-2,-9.8024234E-2,-1.2495155E-3,-1.8506164E-2],"categories":[],"categories_nodes":[],"categories_segments":[],"categories_sizes":[],"default_left":[0,0,0,0,0,0,0,0,0,0,0,0,0,0,0,0,0,0,0,0,0],"id":35,"left_children":[1,3,5,-1,-1,-1,7,9,11,-1,-1,13,-1,-1,15,-1,17,-1,19,-1,-1],"loss_changes":[3.4098703E-1,2.5927165E-1,6.2126815E-1,0E0,0E0,0E0,3.4011158E-1,4.1485542E-1,3.5352838E-1,0E0,0E0,2.3501152E-1,0E0,0E0,4.6002018E-1,0E0,5.7847667E-1,0E0,2.3790579E-1,0E0,0E0],"parents":[2147483647,0,0,1,1,2,2,6,6,7,7,8,8,11,11,14,14,16,16,18,18],"right_children":[2,4,6,-1,-1,-1,8,10,12,-1,-1,14,-1,-1,16,-1,18,-1,20,-1,-1],"split_conditions":[3.2406E-1,2.9328E-1,3.8449E-1,-3.1789022E-3,1.762341E-2,-2.8588573E-2,4.8622E-1,4.5998E-1,5.9698E-1,-4.979141E-3,2.2253348E-2,5.3641E-1,1.1289673E-2,-1.9191684E-2,2.3262E-1,-2.2236535E-2,2.9888E-1,1.6512167E-2,4.9235E-1,-1.2495155E-3,-1.8506164E-2],"split_indices":[0,0,0,0,0,0,0,0,1,0,0,0,0,0,1,0,1,0,1,0,0],"split_type":[0,0,0,0,0,0,0,0,0,0,0,0,0,0,0,0,0,0,0,0,0],"sum_hessian":[7.3E1,1.2E1,6.1E1,6E0,6E0,5E0,5.6E1,1.1E1,4.5E1,6E0,5E0,4E1,5E0,8E0,3.2E1,6E0,2.6E1,7E0,1.9E1,1.3E1,6E0],"tree_param":{"num_deleted":"0","num_feature":"2","num_nodes":"21","size_leaf_vector":"0"}},{"base_weights":[-4.1631415E-2,1.0499489E-1,-6.8899415E-2,-2.974545E-3,1.9219536E-2,-2.6683448E-2,-3.8034268E-2,2.085216E-2,-1.353417E-1,-4.6005335E-2,1.11477956E-1,-2.3123418E-1,-3.616179E-2,9.432596E-2,-1.6787661E-2,2.3622677E-2,-9.651521E-3,-5.852545E-3,-2.5942156E-2,-1.2005447E-2,5.6410097E-3,-4.1509084E-3,2.0862512E-2,-1.5000065E-2,1.36729805E-2],"categories":[],"categories_nodes":[],"categories_segments":[],"categories_sizes":[],"default_left":[0,0,0,0,0,0,0,0,0,0,0,0,0,0,0,0,0,0,0,0,0,0,0,0,0],"id":36,"left_children":[1,3,5,-1,-1,-1,7,9,11,13,15,17,19,21,-1,-1,23,-1,-1,-1,-1,-1,-1,-1,-1],"loss_changes":[3.0310136E-1,2.727402E-1,5.443075E-1,0E0,0E0,0E0,3.351672E-1,2.2931208E-1,2.0087156E-1,5.701265E-1,3.9742017E-1,1.6623586E-1,1.7764682E-1,3.7309965E-1,0E0,0E0,4.3839112E-1,0E0,0E0,0E0,0E0,0E0,0E0,0E0,0E0],"parents":[2147483647,0,0,1,1,2,2,6,6,7,7,8,8,9,9,10,10,11,11,12,12,13,13,16,16],"right_children":[2,4,6,-1,-1,-1,8,10,12,14,16,18,20,22,-1,-1,24,-1,-1,-1,-1,-1,-1,-1,-1],"split_conditions":[3.2138E-1,2.9328E-1,3.767E-1,-2.974545E-3,1.9219536E-2,-2.6683448E-2,6.0974E-1,5.3641E-1,3.2827E-1,4.8622E-1,5.4875E-1,2.5566E-1,6.7971E-1,4.5998E-1,-1.6787661E-2,2.3622677E-2,5.7008E-1,-5.852545E-3,-2.5942156E-2,-1.2005447E-2,5.6410097E-3,-4.1509084E-3,2.0862512E-2,-1.5000065E-2,1.36729805E-2],"split_indices":[0,0,0,0,0,0,0,0,1,0,0,1,0,0,0,0,0,0,0,0,0,0,0,0,0],"split_type":[0,0,0,0,0,0,0,0,0,0,0,0,0,0,0,0,0,0,0,0,0,0,0,0,0],"sum_hessian":[7.3E1,1.1E1,6.2E1,6E0,5E0,5E0,5.7E1,3.6E1,2.1E1,2.1E1,1.5E1,1E1,1.1E1,1.2E1,9E0,5E0,1E1,5E0,5E0,5E0,6E0,7E0,5E0,5E0,5E0],"tree_param":{"num_deleted":"0","num_feature":"2","num_nodes":"25","size_leaf_vector":"0"}},{"base_weights":[-3.8865525E-2,-1.673118E-2,-1.6453685E-2,1.5432641E-2,-3.7993554E-2,-1.1165445E-1,4.967762E-2,6.0069514E-3,-1.4747612E-1,1.0691641E-1,-1.09117115E-2,-2.8168985E-1,-3.6167018E-2,2.0185532E-2,1.9122131E-2,-2.4532236E-3,-3.2491036E-2,9.655993E-3,-1.4779654E-2,1.3439343E-2,-7.1128844E-3],"categories":[],"categories_nodes":[],"categories_segments":[],"categories_sizes":[],"default_left":[0,0,0,0,0,0,0,0,0,0,0,0,0,0,0,0,0,0,0,0,0],"id":37,"left_children":[1,3,-1,-1,5,7,9,-1,11,13,-1,15,17,-1,19,-1,-1,-1,-1,-1,-1],"loss_changes":[2.9200566E-1,3.247863E-1,0E0,0E0,4.0593883E-1,2.4534768E-1,3.3951798E-1,0E0,4.2304915E-1,3.2242727E-1,0E0,4.7627378E-1,4.7644523E-1,0E0,3.0885932E-1,0E0,0E0,0E0,0E0,0E0,0E0],"parents":[2147483647,0,0,1,1,4,4,5,5,6,6,8,8,9,9,11,11,12,12,14,14],"right_children":[2,4,-1,-1,6,8,10,-1,12,14,-1,16,18,-1,20,-1,-1,-1,-1,-1,-1],"split_conditions":[7.282E-1,1.7957E-1,-1.6453685E-2,1.5432641E-2,4.4706E-1,3.0661E-1,6.417E-1,6.0069514E-3,5.3641E-1,4.5884E-1,-1.09117115E-2,2.9147E-1,5.9612E-1,2.0185532E-2,5.0995E-1,-2.4532236E-3,-3.2491036E-2,9.655993E-3,-1.4779654E-2,1.3439343E-2,-7.1128844E-3],"split_indices":[0,1,0,0,1,0,1,0,0,0,0,1,0,0,1,0,0,0,0,0,0],"split_type":[0,0,0,0,0,0,0,0,0,0,0,0,0,0,0,0,0,0,0,0,0],"sum_hessian":[7.3E1,6.6E1,7E0,5E0,6.1E1,3.3E1,2.8E1,5E0,2.8E1,2.2E1,6E0,1.2E1,1.6E1,7E0,1.5E1,5E0,7E0,8E0,8E0,6E0,9E0],"tree_param":{"num_deleted":"0","num_feature":"2","num_nodes":"21","size_leaf_vector":"0"}},{"base_weights":[-3.621388E-2,-1.5521539E-2,-1.5373913E-2,1.4468101E-2,-3.5441794E-2,-1.3507766E-1,2.678135E-2,-2.2463891E-1,5.4093525E-3,6.0528148E-2,-1.0210245E-2,-7.779662E-3,-2.2417732E-2,1.9168556E-2,7.717175E-3,-1.0435821E-2,5.6303505E-2,1.3194235E-2,-4.8071474E-2,-9.23745E-3,3.5663033E-3],"categories":[],"categories_nodes":[],"categories_segments":[],"categories_sizes":[],"default_left":[0,0,0,0,0,0,0,0,0,0,0,0,0,0,0,0,0,0,0,0,0],"id":38,"left_children":[1,3,-1,-1,5,7,9,11,-1,13,-1,-1,-1,-1,15,-1,17,-1,19,-1,-1],"loss_changes":[2.5524697E-1,2.8501895E-1,0E0,0E0,3.879963E-1,4.6157727E-1,2.226605E-1,1.2164301E-1,0E0,3.379579E-1,0E0,0E0,0E0,0E0,2.004917E-1,0E0,2.706481E-1,0E0,9.202504E-2,0E0,0E0],"parents":[2147483647,0,0,1,1,4,4,5,5,6,6,7,7,9,9,14,14,16,16,18,18],"right_children":[2,4,-1,-1,6,8,10,12,-1,14,-1,-1,-1,-1,16,-1,18,-1,20,-1,-1],"split_conditions":[7.282E-1,1.7957E-1,-1.5373913E-2,1.4468101E-2,3.9201E-1,5.7008E-1,6.417E-1,2.9147E-1,5.4093525E-3,3.2138E-1,-1.0210245E-2,-7.779662E-3,-2.2417732E-2,1.9168556E-2,4.3458E-1,-1.0435821E-2,5.0995E-1,1.3194235E-2,5.8305E-1,-9.23745E-3,3.5663033E-3],"split_indices":[0,1,0,0,1,0,1,1,0,0,0,0,0,0,1,0,1,0,1,0,0],"split_type":[0,0,0,0,0,0,0,0,0,0,0,0,0,0,0,0,0,0,0,0,0],"sum_hessian":[7.3E1,6.6E1,7E0,5E0,6.1E1,2.3E1,3.8E1,1.6E1,7E0,3.2E1,6E0,7E0,9E0,6E0,2.6E1,6E0,2E1,9E0,1.1E1,6E0,5E0],"tree_param":{"num_deleted":"0","num_feature":"2","num_nodes":"21","size_leaf_vector":"0"}},{"base_weights":[-3.3763357E-2,-1.442122E-2,-1.4365E-2,1.3563844E-2,-3.3085953E-2,-1.2597966E-1,2.4927761E-2,-2.6812097E-1,-5.2986494E-3,-7.917456E-3,6.759478E-2,-1.8136689E-3,-3.505297E-2,9.799023E-3,-1.56258E-2,1.5110354E-1,-7.026031E-2,2.0269033E-2,3.9880313E-2,-9.685736E-3,7.6097925E-4,-7.4447175E-3,1.29282605E-2],"categories":[],"categories_nodes":[],"categories_segments":[],"categories_sizes":[],"default_left":[0,0,0,0,0,0,0,0,0,0,0,0,0,0,0,0,0,0,0,0,0,0,0],"id":39,"left_children":[1,3,-1,-1,5,7,9,11,13,-1,15,-1,-1,-1,-1,17,19,-1,21,-1,-1,-1,-1],"loss_changes":[2.2305688E-1,2.5017914E-1,0E0,0E0,3.3726513E-1,4.1026947E-1,2.2427927E-1,5.233557E-1,4.136835E-1,0E0,3.559798E-1,0E0,0E0,0E0,0E0,2.410154E-1,5.8125235E-2,0E0,2.1990648E-1,0E0,0E0,0E0,0E0],"parents":[2147483647,0,0,1,1,4,4,5,5,6,6,7,7,8,8,10,10,15,15,16,16,18,18],"right_children":[2,4,-1,-1,6,8,10,12,14,-1,16,-1,-1,-1,-1,18,20,-1,22,-1,-1,-1,-1],"split_conditions":[7.282E-1,1.7957E-1,-1.4365E-2,1.3563844E-2,3.9201E-1,5.2988E-1,3.7168E-1,2.9147E-1,5.9612E-1,-7.917456E-3,5.4705E-1,-1.8136689E-3,-3.505297E-2,9.799023E-3,-1.56258E-2,4.9235E-1,6.7697E-1,2.0269033E-2,4.5998E-1,-9.685736E-3,7.6097925E-4,-7.4447175E-3,1.29282605E-2],"split_indices":[0,1,0,0,1,0,0,1,0,0,0,0,0,0,0,1,0,0,0,0,0,0,0],"split_type":[0,0,0,0,0,0,0,0,0,0,0,0,0,0,0,0,0,0,0,0,0,0,0],"sum_hessian":[7.3E1,6.6E1,7E0,5E0,6.1E1,2.3E1,3.8E1,1E1,1.3E1,9E0,2.9E1,5E0,5E0,8E0,5E0,1.8E1,1.1E1,8E0,1E1,6E0,5E0,5E0,5E0],"tree_param":{"num_deleted":"0","num_feature":"2","num_nodes":"23","size_leaf_vector":"0"}},{"base_weights":[-3.1698454E-2,8.480756E-3,-5.3483892E-2,-2.6426971E-2,-1.7117556E-2,1.259761E-1,-6.029568E-2,2.3613172E-2,-4.1271616E-3,-9.024248E-2,1.1579256E-2,-1.6497701E-2,-5.2127805E-2,-2.0944217E-2,8.687997E-3,1.7480783E-2,-8.150204E-2,-8.290504E-4,-1.5806625E-2],"categories":[],"categories_nodes":[],"categories_segments":[],"categories_sizes":[],"default_left":[0,0,0,0,0,0,0,0,0,0,0,0,0,0,0,0,0,0,0],"id":40,"left_children":[1,-1,3,-1,5,7,9,-1,-1,11,-1,-1,13,-1,15,-1,17,-1,-1],"loss_changes":[2.3944311E-1,0E0,7.004543E-1,0E0,3.7212822E-1,4.959253E-1,3.0967352E-1,0E0,0E0,1.9125783E-1,0E0,0E0,4.5825508E-1,0E0,5.654131E-1,0E0,1.7978263E-1,0E0,0E0],"parents":[2147483647,0,0,2,2,4,4,5,5,6,6,9,9,12,12,14,14,16,16],"right_children":[2,-1,4,-1,6,8,10,-1,-1,12,-1,-1,14,-1,16,-1,18,-1,-1],"split_conditions":[3.0661E-1,8.480756E-3,3.7168E-1,-2.6426971E-2,4.8622E-1,4.5884E-1,5.9698E-1,2.3613172E-2,-4.1271616E-3,2.3262E-1,1.1579256E-2,-1.6497701E-2,5.3641E-1,-2.0944217E-2,2.9888E-1,1.7480783E-2,4.9235E-1,-8.290504E-4,-1.5806625E-2],"split_indices":[0,0,0,0,0,1,1,0,0,1,0,0,0,0,1,0,1,0,0],"split_type":[0,0,0,0,0,0,0,0,0,0,0,0,0,0,0,0,0,0,0],"sum_hessian":[7.3E1,9E0,6.4E1,6E0,5.8E1,1.3E1,4.5E1,6E0,7E0,4E1,5E0,8E0,3.2E1,6E0,2.6E1,7E0,1.9E1,1.3E1,6E0],"tree_param":{"num_deleted":"0","num_feature":"2","num_nodes":"19","size_leaf_vector":"0"}},{"base_weights":[-2.9638343E-2,9.072195E-2,-5.439714E-2,-3.63831E-3,1.6274583E-2,-2.327973E-2,-2.6495514E-2,-9.528878E-4,-1.3711875E-2,1.03512285E-2,-3.914561E-2,-2.2826183E-1,5.0056405E-2,-3.3901315E-2,-2.3934264E-3,1.2536487E-1,-6.080195E-2,1.4875674E-2,2.108111E-2,-8.207416E-3,4.55026E-4,7.0693637E-3,-5.0239586E-3],"categories":[],"categories_nodes":[],"categories_segments":[],"categories_sizes":[],"default_left":[0,0,0,0,0,0,0,0,0,0,0,0,0,0,0,0,0,0,0,0,0,0,0],"id":41,"left_children":[1,3,5,-1,-1,-1,7,9,-1,-1,11,13,15,-1,-1,17,19,21,-1,-1,-1,-1,-1],"loss_changes":[2.2545327E-1,2.3908299E-1,4.3462917E-1,0E0,0E0,0E0,2.2743051E-1,2.7078345E-1,0E0,0E0,6.862079E-1,5.567212E-1,2.4138242E-1,0E0,0E0,2.883038E-1,3.9686177E-2,7.779632E-2,0E0,0E0,0E0,0E0,0E0],"parents":[2147483647,0,0,1,1,2,2,6,6,7,7,10,10,11,11,12,12,15,15,16,16,17,17],"right_children":[2,4,6,-1,-1,-1,8,10,-1,-1,12,14,16,-1,-1,18,20,22,-1,-1,-1,-1,-1],"split_conditions":[3.2406E-1,2.9328E-1,3.8449E-1,-3.63831E-3,1.6274583E-2,-2.327973E-2,7.282E-1,2.7757E-1,-1.3711875E-2,1.03512285E-2,3.9201E-1,5.4958E-1,5.4705E-1,-3.3901315E-2,-2.3934264E-3,5.0974E-1,6.7697E-1,5.4501E-1,2.108111E-2,-8.207416E-3,4.55026E-4,7.0693637E-3,-5.0239586E-3],"split_indices":[0,0,0,0,0,0,0,1,0,0,1,0,0,0,0,0,0,1,0,0,0,0,0],"split_type":[0,0,0,0,0,0,0,0,0,0,0,0,0,0,0,0,0,0,0,0,0,0,0],"sum_hessian":[7.3E1,1.2E1,6.1E1,6E0,6E0,5E0,5.6E1,4.9E1,7E0,1E1,3.9E1,1.2E1,2.7E1,5E0,7E0,1.6E1,1.1E1,1E1,6E0,6E0,5E0,5E0,5E0],"tree_param":{"num_deleted":"0","num_feature":"2","num_nodes":"23","size_leaf_vector":"0"}},{"base_weights":[-2.7887417E-2,8.488982E-2,-5.108446E-2,1.3993891E-2,-4.8639234E-3,-2.1824747E-2,-2.493433E-2,2.1755733E-2,-1.0020287E-1,-1.025871E-2,1.376533E-2,-1.5674298E-1,5.752093E-3,-1.5416728E-1,1.173229E-1,-1.9232532E-2,-9.4024657E-4,9.800654E-3,-2.3224212E-2,1.3945948E-2,1.9725898E-2,6.6275294E-3,-4.7099614E-3],"categories":[],"categories_nodes":[],"categories_segments":[],"categories_sizes":[],"default_left":[0,0,0,0,0,0,0,0,0,0,0,0,0,0,0,0,0,0,0,0,0,0,0],"id":42,"left_children":[1,3,5,-1,-1,-1,7,9,11,13,-1,15,-1,17,19,-1,-1,-1,-1,21,-1,-1,-1],"loss_changes":[1.9792783E-1,2.1006557E-1,3.8171566E-1,0E0,0E0,0E0,2.0249467E-1,1.8833984E-1,2.3206097E-1,5.8725005E-1,0E0,2.4117798E-1,0E0,7.048124E-1,2.5236723E-1,0E0,0E0,0E0,0E0,6.8375684E-2,0E0,0E0,0E0],"parents":[2147483647,0,0,1,1,2,2,6,6,7,7,8,8,9,9,11,11,13,13,14,14,19,19],"right_children":[2,4,6,-1,-1,-1,8,10,12,14,-1,16,-1,18,20,-1,-1,-1,-1,22,-1,-1,-1],"split_conditions":[3.2406E-1,4.2546E-1,3.8449E-1,1.3993891E-2,-4.8639234E-3,-2.1824747E-2,6.0974E-1,5.7008E-1,7.4217E-1,3.9201E-1,1.376533E-2,4.0961E-1,5.752093E-3,2.0167E-1,5.0974E-1,-1.9232532E-2,-9.4024657E-4,9.800654E-3,-2.3224212E-2,5.4501E-1,1.9725898E-2,6.6275294E-3,-4.7099614E-3],"split_indices":[0,1,0,0,0,0,0,0,0,1,0,1,0,1,0,0,0,0,0,1,0,0,0],"split_type":[0,0,0,0,0,0,0,0,0,0,0,0,0,0,0,0,0,0,0,0,0,0,0],"sum_hessian":[7.3E1,1.2E1,6.1E1,7E0,5E0,5E0,5.6E1,3.5E1,2.1E1,3E1,5E0,1.6E1,5E0,1.4E1,1.6E1,9E0,7E0,5E0,9E0,1E1,6E0,5E0,5E0],"tree_param":{"num_deleted":"0","num_feature":"2","num_nodes":"23","size_leaf_vector":"0"}},{"base_weights":[-2.586519E-2,-8.042082E-3,-1.2892543E-2,9.694332E-2,-3.511159E-2,1.2159469E-2,3.2037413E-3,-1.7748265E-1,2.4197342E-2,-2.8671278E-2,-1.2280232E-3,1.4297738E-2,-5.88596E-3,-1.9411732E-2,6.927637E-2,1.5178845E-2,1.2569262E-2,-6.2480816E-3,5.960996E-2,-5.034966E-3,1.7984193E-2],"categories":[],"categories_nodes":[],"categories_segments":[],"categories_sizes":[],"default_left":[0,0,0,0,0,0,0,0,0,0,0,0,0,0,0,0,0,0,0,0,0],"id":43,"left_children":[1,3,-1,5,7,-1,-1,9,11,-1,-1,-1,13,-1,15,-1,17,-1,19,-1,-1],"loss_changes":[1.9122507E-1,1.9381136E-1,0E0,4.2559758E-2,4.602639E-1,0E0,0E0,5.216654E-1,1.9639662E-1,0E0,0E0,0E0,6.64316E-1,0E0,2.0125712E-1,0E0,9.5168404E-2,0E0,3.3580777E-1,0E0,0E0],"parents":[2147483647,0,0,1,1,3,3,4,4,7,7,8,8,12,12,14,14,16,16,18,18],"right_children":[2,4,-1,6,8,-1,-1,10,12,-1,-1,-1,14,-1,16,-1,18,-1,20,-1,-1],"split_conditions":[7.282E-1,2.7757E-1,-1.2892543E-2,1.7957E-1,3.9201E-1,1.2159469E-2,3.2037413E-3,5.2988E-1,4.2546E-1,-2.8671278E-2,-1.2280232E-3,1.4297738E-2,3.7168E-1,-1.9411732E-2,4.8893E-1,1.5178845E-2,4.732E-1,-6.2480816E-3,5.9698E-1,-5.034966E-3,1.7984193E-2],"split_indices":[0,1,0,1,1,0,0,0,1,0,0,0,0,0,1,0,0,0,1,0,0],"split_type":[0,0,0,0,0,0,0,0,0,0,0,0,0,0,0,0,0,0,0,0,0],"sum_hessian":[7.3E1,6.6E1,7E0,1.3E1,5.3E1,5E0,8E0,1.5E1,3.8E1,6E0,9E0,5E0,3.3E1,7E0,2.6E1,7E0,1.9E1,6E0,1.3E1,8E0,5E0],"tree_param":{"num_deleted":"0","num_feature":"2","num_nodes":"21","size_leaf_vector":"0"}},{"base_weights":[-2.4069386E-2,8.992645E-2,-4.7583524E-2,-1.9354973E-3,1.7193712E-2,-2.0127088E-2,-2.3508973E-2,8.986769E-2,-5.257443E-2,1.8272636E-2,-4.1078413E-3,-1.9166522E-2,-2.1587856E-2,-1.9531041E-2,2.6794147E-2,1.1888475E-1,-4.821804E-2,-3.544167E-3,1.9869903E-1,-1.3723989E-1,5.687649E-3,2.4300419E-2,3.020698E-3,-1.6930499E-3,-1.6193943E-2],"categories":[],"categories_nodes":[],"categories_segments":[],"categories_sizes":[],"default_left":[0,0,0,0,0,0,0,0,0,0,0,0,0,0,0,0,0,0,0,0,0,0,0,0,0],"id":44,"left_children":[1,3,5,-1,-1,-1,7,9,11,-1,-1,-1,13,-1,15,17,19,-1,21,23,-1,-1,-1,-1,-1],"loss_changes":[2.0263702E-1,2.1553186E-1,3.232287E-1,0E0,0E0,0E0,1.9255938E-1,2.8023326E-1,2.838061E-1,0E0,0E0,0E0,4.8072773E-1,0E0,2.475095E-1,2.2155555E-1,2.3127683E-1,0E0,2.0531625E-1,1.0338788E-1,0E0,0E0,0E0,0E0,0E0],"parents":[2147483647,0,0,1,1,2,2,6,6,7,7,8,8,12,12,14,14,15,15,16,16,18,18,19,19],"right_children":[2,4,6,-1,-1,-1,8,10,12,-1,-1,-1,14,-1,16,18,20,-1,22,24,-1,-1,-1,-1,-1],"split_conditions":[3.2406E-1,2.9531E-1,3.8449E-1,-1.9354973E-3,1.7193712E-2,-2.0127088E-2,4.8622E-1,4.5884E-1,5.0974E-1,1.8272636E-2,-4.1078413E-3,-1.9166522E-2,2.3262E-1,-1.9531041E-2,5.9612E-1,5.3975E-1,6.8303E-1,-3.544167E-3,3.7894E-1,6.3497E-1,5.687649E-3,2.4300419E-2,3.020698E-3,-1.6930499E-3,-1.6193943E-2],"split_indices":[0,0,0,0,0,0,0,1,0,0,0,0,1,0,0,0,0,0,1,0,0,0,0,0,0],"split_type":[0,0,0,0,0,0,0,0,0,0,0,0,0,0,0,0,0,0,0,0,0,0,0,0,0],"sum_hessian":[7.3E1,1.2E1,6.1E1,7E0,5E0,5E0,5.6E1,1.1E1,4.5E1,5E0,6E0,5E0,4E1,6E0,3.4E1,1.5E1,1.9E1,5E0,1E1,1.1E1,8E0,5E0,5E0,5E0,6E0],"tree_param":{"num_deleted":"0","num_feature":"2","num_nodes":"25","size_leaf_vector":"0"}},{"base_weights":[-2.2505047E-2,7.877464E-3,-4.1780032E-2,-2.3092398E-2,-9.498502E-3,1.2169645E-1,-4.9220912E-2,2.1366064E-2,-2.7226473E-3,-1.7968616E-2,-2.0162752E-2,-1.3239914E-1,7.343091E-2,-1.8275475E-2,-6.229791E-2,1.7972281E-2,6.763549E-4,3.644004E-3,-1.4982083E-2,1.2654866E-2,-7.974701E-3],"categories":[],"categories_nodes":[],"categories_segments":[],"categories_sizes":[],"default_left":[0,0,0,0,0,0,0,0,0,0,0,0,0,0,0,0,0,0,0,0,0],"id":45,"left_children":[1,-1,3,-1,5,7,9,-1,-1,-1,11,13,15,-1,17,-1,19,-1,-1,-1,-1],"loss_changes":[1.8630181E-1,0E0,5.554719E-1,0E0,3.134614E-1,3.7130195E-1,2.4961972E-1,0E0,0E0,0E0,4.4041142E-1,1.3302794E-1,2.7794865E-1,0E0,2.0785893E-1,0E0,3.2364973E-1,0E0,0E0,0E0,0E0],"parents":[2147483647,0,0,2,2,4,4,5,5,6,6,10,10,11,11,12,12,14,14,16,16],"right_children":[2,-1,4,-1,6,8,10,-1,-1,-1,12,14,16,-1,18,-1,20,-1,-1,-1,-1],"split_conditions":[3.0661E-1,7.877464E-3,3.7168E-1,-2.3092398E-2,4.8622E-1,4.5884E-1,5.0974E-1,2.1366064E-2,-2.7226473E-3,-1.7968616E-2,3.2827E-1,2.3262E-1,5.4705E-1,-1.8275475E-2,2.9855E-1,1.7972281E-2,4.3931E-1,3.644004E-3,-1.4982083E-2,1.2654866E-2,-7.974701E-3],"split_indices":[0,0,0,0,0,1,0,0,0,0,1,1,0,0,1,0,1,0,0,0,0],"split_type":[0,0,0,0,0,0,0,0,0,0,0,0,0,0,0,0,0,0,0,0,0],"sum_hessian":[7.3E1,9E0,6.4E1,6E0,5.8E1,1.3E1,4.5E1,6E0,7E0,5E0,4E1,1.8E1,2.2E1,6E0,1.2E1,6E0,1.6E1,7E0,5E0,6E0,1E1],"tree_param":{"num_deleted":"0","num_feature":"2","num_nodes":"21","size_leaf_vector":"0"}},{"base_weights":[-2.1107726E-2,-4.075497E-3,-1.2083565E-2,1.06859274E-1,-3.2760892E-2,1.2239097E-2,4.3075187E-3,-1.7168689E-1,2.5074413E-2,-2.7125103E-2,-1.6148564E-3,5.3857837E-2,-8.56507E-3,1.7841985E-2,4.150247E-3,-1.0124813E-2,5.03352E-2,1.3036159E-2,8.8415295E-4,-3.855444E-3,7.245145E-3],"categories":[],"categories_nodes":[],"categories_segments":[],"categories_sizes":[],"default_left":[0,0,0,0,0,0,0,0,0,0,0,0,0,0,0,0,0,0,0,0,0],"id":46,"left_children":[1,3,-1,5,7,-1,-1,9,11,-1,-1,13,-1,-1,15,-1,17,-1,19,-1,-1],"loss_changes":[1.7580542E-1,2.1670872E-1,0E0,2.9604703E-2,4.3818566E-1,0E0,0E0,4.4864E-1,1.6249464E-1,0E0,0E0,3.008951E-1,0E0,0E0,1.8031147E-1,0E0,1.2807709E-1,0E0,8.5047334E-2,0E0,0E0],"parents":[2147483647,0,0,1,1,3,3,4,4,7,7,8,8,11,11,14,14,16,16,18,18],"right_children":[2,4,-1,6,8,-1,-1,10,12,-1,-1,14,-1,-1,16,-1,18,-1,20,-1,-1],"split_conditions":[7.282E-1,2.7757E-1,-1.2083565E-2,1.7957E-1,3.9201E-1,1.2239097E-2,4.3075187E-3,5.2988E-1,6.417E-1,-2.7125103E-2,-1.6148564E-3,3.2138E-1,-8.56507E-3,1.7841985E-2,4.3458E-1,-1.0124813E-2,4.8893E-1,1.3036159E-2,5.8785E-1,-3.855444E-3,7.245145E-3],"split_indices":[0,1,0,1,1,0,0,0,1,0,0,0,0,0,1,0,1,0,0,0,0],"split_type":[0,0,0,0,0,0,0,0,0,0,0,0,0,0,0,0,0,0,0,0,0],"sum_hessian":[7.3E1,6.6E1,7E0,1.3E1,5.3E1,5E0,8E0,1.5E1,3.8E1,6E0,9E0,3.2E1,6E0,6E0,2.6E1,6E0,2E1,5E0,1.5E1,1E1,5E0],"tree_param":{"num_deleted":"0","num_feature":"2","num_nodes":"21","size_leaf_vector":"0"}},{"base_weights":[-1.9642193E-2,8.164196E-2,-4.0562384E-2,-2.7746607E-3,1.6966367E-2,-1.788169E-2,-1.902338E-2,2.3999158E-3,-1.1290579E-2,1.029016E-2,-3.473069E-2,-1.6102959E-1,5.617815E-2,-2.5763558E-2,-3.0354256E-2,-1.7031695E-3,1.0502432E-1,-2.5951939E-2,1.893206E-2,2.2051718E-2,-1.4157938E-3],"categories":[],"categories_nodes":[],"categories_segments":[],"categories_sizes":[],"default_left":[0,0,0,0,0,0,0,0,0,0,0,0,0,0,0,0,0,0,0,0,0],"id":47,"left_children":[1,3,5,-1,-1,-1,7,9,-1,-1,11,13,15,17,-1,-1,19,-1,-1,-1,-1],"loss_changes":[1.6010898E-1,2.3134707E-1,2.5969046E-1,0E0,0E0,0E0,1.6096118E-1,2.5502953E-1,0E0,0E0,4.683138E-1,5.499524E-1,9.486494E-2,1.1564755E0,0E0,0E0,3.5680863E-1,0E0,0E0,0E0,0E0],"parents":[2147483647,0,0,1,1,2,2,6,6,7,7,10,10,11,11,12,12,13,13,16,16],"right_children":[2,4,6,-1,-1,-1,8,10,-1,-1,12,14,16,18,-1,-1,20,-1,-1,-1,-1],"split_conditions":[3.2406E-1,2.9531E-1,3.8449E-1,-2.7746607E-3,1.6966367E-2,-1.788169E-2,7.282E-1,2.7757E-1,-1.1290579E-2,1.029016E-2,4.3458E-1,5.9612E-1,5.0974E-1,5.3641E-1,-3.0354256E-2,-1.7031695E-3,5.4705E-1,-2.5951939E-2,1.893206E-2,2.2051718E-2,-1.4157938E-3],"split_indices":[0,0,0,0,0,0,0,1,0,0,1,0,0,0,0,0,0,0,0,0,0],"split_type":[0,0,0,0,0,0,0,0,0,0,0,0,0,0,0,0,0,0,0,0,0],"sum_hessian":[7.3E1,1.2E1,6.1E1,7E0,5E0,5E0,5.6E1,4.9E1,7E0,1E1,3.9E1,1.6E1,2.3E1,1.1E1,5E0,9E0,1.4E1,5E0,6E0,5E0,9E0],"tree_param":{"num_deleted":"0","num_feature":"2","num_nodes":"21","size_leaf_vector":"0"}},{"base_weights":[-1.8481622E-2,8.150656E-2,-3.723363E-2,-3.5760547E-3,1.6398048E-2,-1.7700808E-2,-1.6028518E-2,8.405787E-2,-4.3965355E-2,1.630389E-2,-1.9833636E-3,-7.0215985E-2,1.0705613E-2,-1.4447996E-2,-3.4699872E-2,-1.7802166E-2,1.9127391E-2,1.7622659E-2,-6.816553E-2,-6.634045E-4,-1.3280091E-2],"categories":[],"categories_nodes":[],"categories_segments":[],"categories_sizes":[],"default_left":[0,0,0,0,0,0,0,0,0,0,0,0,0,0,0,0,0,0,0,0,0],"id":48,"left_children":[1,3,5,-1,-1,-1,7,9,11,-1,-1,13,-1,-1,15,-1,17,-1,19,-1,-1],"loss_changes":[1.4178325E-1,2.2301668E-1,2.6176786E-1,0E0,0E0,0E0,1.6586924E-1,1.9727811E-1,2.3547667E-1,0E0,0E0,1.715844E-1,0E0,0E0,3.645291E-1,0E0,5.247352E-1,0E0,1.276358E-1,0E0,0E0],"parents":[2147483647,0,0,1,1,2,2,6,6,7,7,8,8,11,11,14,14,16,16,18,18],"right_children":[2,4,6,-1,-1,-1,8,10,12,-1,-1,14,-1,-1,16,-1,18,-1,20,-1,-1],"split_conditions":[3.2138E-1,2.9328E-1,3.767E-1,-3.5760547E-3,1.6398048E-2,-1.7700808E-2,4.8622E-1,4.5884E-1,5.9698E-1,1.630389E-2,-1.9833636E-3,5.3641E-1,1.0705613E-2,-1.4447996E-2,2.3262E-1,-1.7802166E-2,2.9888E-1,1.7622659E-2,4.9235E-1,-6.634045E-4,-1.3280091E-2],"split_indices":[0,0,0,0,0,0,0,1,1,0,0,0,0,0,1,0,1,0,1,0,0],"split_type":[0,0,0,0,0,0,0,0,0,0,0,0,0,0,0,0,0,0,0,0,0],"sum_hessian":[7.3E1,1.1E1,6.2E1,6E0,5E0,5E0,5.7E1,1.2E1,4.5E1,5E0,7E0,4E1,5E0,8E0,3.2E1,6E0,2.6E1,7E0,1.9E1,1.3E1,6E0],"tree_param":{"num_deleted":"0","num_feature":"2","num_nodes":"21","size_leaf_vector":"0"}},{"base_weights":[-1.7209332E-2,-1.7368402E-3,-1.0848023E-2,1.0055834E-1,-2.822565E-2,1.1460884E-2,4.0912176E-3,-1.6319083E-1,2.7868414E-2,-2.505917E-2,-2.041481E-3,1.34060765E-2,4.2300188E-4,-1.7867686E-2,7.112106E-2,1.4531999E-2,2.68547E-2,-1.0323795E-2,8.686577E-2,1.628107E-2,-9.728574E-4],"categories":[],"categories_nodes":[],"categories_segments":[],"categories_sizes":[],"default_left":[0,0,0,0,0,0,0,0,0,0,0,0,0,0,0,0,0,0,0,0,0],"id":49,"left_children":[1,3,-1,5,7,-1,-1,9,11,-1,-1,-1,13,-1,15,-1,17,-1,19,-1,-1],"loss_changes":[1.4565271E-1,1.8438672E-1,0E0,2.5321797E-2,4.133681E-1,0E0,0E0,3.627729E-1,1.6142118E-1,0E0,0E0,0E0,5.9061587E-1,0E0,1.4137366E-1,0E0,2.1927203E-1,0E0,2.1082097E-1,0E0,0E0],"parents":[2147483647,0,0,1,1,3,3,4,4,7,7,8,8,12,12,14,14,16,16,18,18],"right_children":[2,4,-1,6,8,-1,-1,10,12,-1,-1,-1,14,-1,16,-1,18,-1,20,-1,-1],"split_conditions":[7.282E-1,2.7757E-1,-1.0848023E-2,1.7957E-1,3.9201E-1,1.1460884E-2,4.0912176E-3,5.2988E-1,4.2546E-1,-2.505917E-2,-2.041481E-3,1.34060765E-2,3.7168E-1,-1.7867686E-2,4.5884E-1,1.4531999E-2,5.0974E-1,-1.0323795E-2,5.4705E-1,1.628107E-2,-9.728574E-4],"split_indices":[0,1,0,1,1,0,0,0,1,0,0,0,0,0,0,0,0,0,0,0,0],"split_type":[0,0,0,0,0,0,0,0,0,0,0,0,0,0,0,0,0,0,0,0,0],"sum_hessian":[7.3E1,6.6E1,7E0,1.3E1,5.3E1,5E0,8E0,1.5E1,3.8E1,6E0,9E0,5E0,3.3E1,7E0,2.6E1,6E0,2E1,5E0,1.5E1,6E0,9E0],"tree_param":{"num_deleted":"0","num_feature":"2","num_nodes":"21","size_leaf_vector":"0"}},{"base_weights":[-1.6017845E-2,8.271192E-2,-3.6460895E-2,-2.1665026E-3,1.6329357E-2,-1.4829321E-2,-1.5651885E-2,9.250832E-2,-4.1176025E-2,-2.7748428E-3,1.5494738E-2,-6.5947674E-2,1.01219695E-2,-1.3517739E-2,-3.2779578E-2,-1.6918605E-2,1.8420137E-2,1.6790336E-2,-6.468126E-2,-8.0112356E-4,-1.2258024E-2],"categories":[],"categories_nodes":[],"categories_segments":[],"categories_sizes":[],"default_left":[0,0,0,0,0,0,0,0,0,0,0,0,0,0,0,0,0,0,0,0,0],"id":50,"left_children":[1,3,5,-1,-1,-1,7,9,11,-1,-1,13,-1,-1,15,-1,17,-1,19,-1,-1],"loss_changes":[1.5237272E-1,2.0216356E-1,2.0496057E-1,0E0,0E0,0E0,1.584081E-1,1.7017005E-1,2.0960608E-1,0E0,0E0,1.4951238E-1,0E0,0E0,3.2991135E-1,0E0,4.7545844E-1,0E0,1.0491321E-1,0E0,0E0],"parents":[2147483647,0,0,1,1,2,2,6,6,7,7,8,8,11,11,14,14,16,16,18,18],"right_children":[2,4,6,-1,-1,-1,8,10,12,-1,-1,14,-1,-1,16,-1,18,-1,20,-1,-1],"split_conditions":[3.2406E-1,2.9531E-1,4.334E-1,-2.1665026E-3,1.6329357E-2,-1.4829321E-2,4.8622E-1,4.5998E-1,5.9698E-1,-2.7748428E-3,1.5494738E-2,5.3641E-1,1.01219695E-2,-1.3517739E-2,2.3262E-1,-1.6918605E-2,2.9888E-1,1.6790336E-2,4.9235E-1,-8.0112356E-4,-1.2258024E-2],"split_indices":[0,0,0,0,0,0,0,0,1,0,0,0,0,0,1,0,1,0,1,0,0],"split_type":[0,0,0,0,0,0,0,0,0,0,0,0,0,0,0,0,0,0,0,0,0],"sum_hessian":[7.3E1,1.2E1,6.1E1,7E0,5E0,6E0,5.5E1,1E1,4.5E1,5E0,5E0,4E1,5E0,8E0,3.2E1,6E0,2.6E1,7E0,1.9E1,1.3E1,6E0],"tree_param":{"num_deleted":"0","num_feature":"2","num_nodes":"21","size_leaf_vector":"0"}},{"base_weights":[-1.4877718E-2,7.232793E-3,-3.1774208E-2,-2.0256914E-2,-2.9606468E-3,1.13853194E-1,-3.8448323E-2,1.941196E-2,-2.042233E-3,-1.5144633E-2,-1.3586641E-2,-1.18002765E-1,7.326088E-2,-3.8118456E-2,-1.5189581E-2,1.3339086E-2,-6.6817477E-3,-1.5407811E-2,1.0166522E-2,-6.1076796E-3,7.992214E-3],"categories":[],"categories_nodes":[],"categories_segments":[],"categories_sizes":[],"default_left":[0,0,0,0,0,0,0,0,0,0,0,0,0,0,0,0,0,0,0,0,0],"id":51,"left_children":[1,-1,3,-1,5,7,9,-1,-1,-1,11,13,15,17,-1,-1,19,-1,-1,-1,-1],"loss_changes":[1.4224578E-1,0E0,4.4554177E-1,0E0,2.4895914E-1,2.9339272E-1,1.8421844E-1,0E0,0E0,0E0,3.8044453E-1,1.2057209E-1,1.9350259E-1,3.4749284E-1,0E0,0E0,1.2719479E-1,0E0,0E0,0E0,0E0],"parents":[2147483647,0,0,2,2,4,4,5,5,6,6,10,10,11,11,12,12,13,13,16,16],"right_children":[2,-1,4,-1,6,8,10,-1,-1,-1,12,14,16,18,-1,-1,20,-1,-1,-1,-1],"split_conditions":[3.0661E-1,7.232793E-3,3.7168E-1,-2.0256914E-2,4.8622E-1,4.5884E-1,5.0974E-1,1.941196E-2,-2.042233E-3,-1.5144633E-2,3.2827E-1,2.7757E-1,4.8893E-1,2.0897E-1,-1.5189581E-2,1.3339086E-2,5.8305E-1,-1.5407811E-2,1.0166522E-2,-6.1076796E-3,7.992214E-3],"split_indices":[0,0,0,0,0,1,0,0,0,0,1,1,1,1,0,0,1,0,0,0,0],"split_type":[0,0,0,0,0,0,0,0,0,0,0,0,0,0,0,0,0,0,0,0,0],"sum_hessian":[7.3E1,9E0,6.4E1,6E0,5.8E1,1.3E1,4.5E1,6E0,7E0,5E0,4E1,1.8E1,2.2E1,1E1,8E0,9E0,1.3E1,5E0,5E0,8E0,5E0],"tree_param":{"num_deleted":"0","num_feature":"2","num_nodes":"21","size_leaf_vector":"0"}},{"base_weights":[-1.3978187E-2,1.6064313E-3,-1.0706408E-2,1.0345301E-1,-2.4827985E-2,3.1023736E-3,1.0863631E-2,-1.4951302E-1,2.6961468E-2,-2.3276454E-2,-1.6480467E-3,5.372843E-2,-7.7307965E-3,1.6089203E-2,1.00510875E-2,-8.394101E-3,5.0229937E-2,1.1296003E-2,9.446782E-3,-3.2582094E-3,7.86274E-3],"categories":[],"categories_nodes":[],"categories_segments":[],"categories_sizes":[],"default_left":[0,0,0,0,0,0,0,0,0,0,0,0,0,0,0,0,0,0,0,0,0],"id":52,"left_children":[1,3,-1,5,7,-1,-1,9,11,-1,-1,13,-1,-1,15,-1,17,-1,19,-1,-1],"loss_changes":[1.4873934E-1,1.8294962E-1,0E0,2.9990569E-2,3.5272905E-1,0E0,0E0,3.2139385E-1,1.4128715E-1,0E0,0E0,2.2960502E-1,0E0,0E0,1.37941E-1,0E0,8.455021E-2,0E0,8.5276365E-2,0E0,0E0],"parents":[2147483647,0,0,1,1,3,3,4,4,7,7,8,8,11,11,14,14,16,16,18,18],"right_children":[2,4,-1,6,8,-1,-1,10,12,-1,-1,14,-1,-1,16,-1,18,-1,20,-1,-1],"split_conditions":[7.282E-1,2.7757E-1,-1.0706408E-2,5.0468E-1,3.9201E-1,3.1023736E-3,1.0863631E-2,5.2988E-1,6.417E-1,-2.3276454E-2,-1.6480467E-3,3.2138E-1,-7.7307965E-3,1.6089203E-2,4.3458E-1,-8.394101E-3,4.8893E-1,1.1296003E-2,5.8785E-1,-3.2582094E-3,7.86274E-3],"split_indices":[0,1,0,0,1,0,0,0,1,0,0,0,0,0,1,0,1,0,0,0,0],"split_type":[0,0,0,0,0,0,0,0,0,0,0,0,0,0,0,0,0,0,0,0,0],"sum_hessian":[7.3E1,6.6E1,7E0,1.3E1,5.3E1,6E0,7E0,1.5E1,3.8E1,6E0,9E0,3.2E1,6E0,6E0,2.6E1,6E0,2E1,5E0,1.5E1,1E1,5E0],"tree_param":{"num_deleted":"0","num_feature":"2","num_nodes":"21","size_leaf_vector":"0"}},{"base_weights":[-1.3008204E-2,1.5591753E-3,-1.00038E-2,9.669161E-2,-2.3133662E-2,2.902935E-3,1.0150705E-2,-1.7716447E-1,1.5899805E-2,-3.16267E-3,-2.1197446E-2,-3.2191444E-2,7.521887E-2,3.2420862E-2,-1.30158905E-2,1.5194666E-2,6.1577684E-3,-6.0192794E-2,1.3991669E-2,2.7230645E-3,-1.0969699E-3,-8.855128E-3,-1.48964E-4],"categories":[],"categories_nodes":[],"categories_segments":[],"categories_sizes":[],"default_left":[0,0,0,0,0,0,0,0,0,0,0,0,0,0,0,0,0,0,0,0,0,0,0],"id":53,"left_children":[1,3,-1,5,7,-1,-1,9,11,-1,-1,13,15,17,-1,-1,19,21,-1,-1,-1,-1,-1],"loss_changes":[1.2997139E-1,1.5962583E-1,0E0,2.6138484E-2,3.274841E-1,0E0,0E0,1.4469671E-1,1.2794143E-1,0E0,0E0,2.339563E-1,1.746879E-1,2.681789E-1,0E0,0E0,9.3039125E-3,4.019038E-2,0E0,0E0,0E0,0E0,0E0],"parents":[2147483647,0,0,1,1,3,3,4,4,7,7,8,8,11,11,12,12,13,13,16,16,17,17],"right_children":[2,4,-1,6,8,-1,-1,10,12,-1,-1,14,16,18,-1,-1,20,22,-1,-1,-1,-1,-1],"split_conditions":[7.282E-1,2.7757E-1,-1.00038E-2,5.0468E-1,3.4366E-1,2.902935E-3,1.0150705E-2,2.9888E-1,5.0974E-1,-3.16267E-3,-2.1197446E-2,4.5884E-1,5.4705E-1,3.7168E-1,-1.30158905E-2,1.5194666E-2,4.3931E-1,2.9328E-1,1.3991669E-2,2.7230645E-3,-1.0969699E-3,-8.855128E-3,-1.48964E-4],"split_indices":[0,1,0,0,1,0,0,1,0,0,0,0,0,0,0,0,1,0,0,0,0,0,0],"split_type":[0,0,0,0,0,0,0,0,0,0,0,0,0,0,0,0,0,0,0,0,0,0,0],"sum_hessian":[7.3E1,6.6E1,7E0,1.3E1,5.3E1,6E0,7E0,1E1,4.3E1,5E0,5E0,2.4E1,1.9E1,1.7E1,7E0,6E0,1.3E1,1.1E1,6E0,5E0,8E0,5E0,6E0],"tree_param":{"num_deleted":"0","num_feature":"2","num_nodes":"23","size_leaf_vector":"0"}},{"base_weights":[-1.2201748E-2,1.3240352E-3,-1.0638897E-2,1.4259558E-2,-2.7018541E-2,-1.8858045E-2,-2.0448896E-3,1.2560129E-1,-4.058804E-2,1.8410347E-2,-9.1588264E-4,-1.216253E-2,-8.165203E-3,-1.4185053E-2,4.383179E-2,1.6255198E-2,-2.4123697E-2,-7.2351242E-3,1.2961195E-2],"categories":[],"categories_nodes":[],"categories_segments":[],"categories_sizes":[],"default_left":[0,0,0,0,0,0,0,0,0,0,0,0,0,0,0,0,0,0,0],"id":54,"left_children":[1,3,-1,-1,5,-1,7,9,11,-1,-1,-1,13,-1,15,-1,17,-1,-1],"loss_changes":[1.2995575E-1,3.6901686E-1,0E0,0E0,3.3576414E-1,0E0,2.756916E-1,2.1775314E-1,1.6817914E-1,0E0,0E0,0E0,3.3763433E-1,0E0,3.3422256E-1,0E0,3.1586924E-1,0E0,0E0],"parents":[2147483647,0,0,1,1,4,4,6,6,7,7,8,8,12,12,14,14,16,16],"right_children":[2,4,-1,-1,6,-1,8,10,12,-1,-1,-1,14,-1,16,-1,18,-1,-1],"split_conditions":[6.4269E-1,3.0661E-1,-1.0638897E-2,1.4259558E-2,3.7168E-1,-1.8858045E-2,4.8622E-1,4.5884E-1,2.3262E-1,1.8410347E-2,-9.1588264E-4,-1.216253E-2,5.3641E-1,-1.4185053E-2,2.9888E-1,1.6255198E-2,6.7971E-1,-7.2351242E-3,1.2961195E-2],"split_indices":[1,0,0,0,0,0,0,1,1,0,0,0,0,0,1,0,0,0,0],"split_type":[0,0,0,0,0,0,0,0,0,0,0,0,0,0,0,0,0,0,0],"sum_hessian":[7.3E1,6.7E1,6E0,8E0,5.9E1,5E0,5.4E1,1.2E1,4.2E1,6E0,6E0,8E0,3.4E1,7E0,2.7E1,7E0,2E1,1.5E1,5E0],"tree_param":{"num_deleted":"0","num_feature":"2","num_nodes":"19","size_leaf_vector":"0"}},{"base_weights":[-1.1315118E-2,3.1584047E-3,-9.833736E-3,9.433774E-2,-2.053917E-2,2.703443E-3,1.0016316E-2,-9.783648E-2,4.947011E-2,-1.5292934E-2,-2.3977391E-2,8.5488364E-2,-7.713594E-3,-1.4230087E-1,1.8068075E-2,1.8841013E-2,2.8654728E-2,2.8221481E-3,-2.1146372E-2,8.233077E-3,-4.0320847E-2,-1.1535028E-2,5.9909113E-3],"categories":[],"categories_nodes":[],"categories_segments":[],"categories_sizes":[],"default_left":[0,0,0,0,0,0,0,0,0,0,0,0,0,0,0,0,0,0,0,0,0,0,0],"id":55,"left_children":[1,3,-1,5,7,-1,-1,9,11,13,-1,15,-1,17,-1,-1,19,-1,-1,-1,21,-1,-1],"loss_changes":[1.2872624E-1,1.4670646E-1,0E0,2.718731E-2,2.9706255E-1,0E0,0E0,4.712562E-1,1.6789296E-1,6.8507165E-1,0E0,2.1885179E-1,0E0,3.6239147E-1,0E0,0E0,1.1073636E-1,0E0,0E0,0E0,1.6232759E-1,0E0,0E0],"parents":[2147483647,0,0,1,1,3,3,4,4,7,7,8,8,9,9,11,11,13,13,16,16,20,20],"right_children":[2,4,-1,6,8,-1,-1,10,12,14,-1,16,-1,18,-1,-1,20,-1,-1,-1,22,-1,-1],"split_conditions":[7.282E-1,2.7757E-1,-9.833736E-3,5.0468E-1,4.4706E-1,2.703443E-3,1.0016316E-2,5.9612E-1,6.4269E-1,5.3641E-1,-2.3977391E-2,4.5032E-1,-7.713594E-3,3.1454E-1,1.8068075E-2,1.8841013E-2,5.0995E-1,2.8221481E-3,-2.1146372E-2,8.233077E-3,5.8327E-1,-1.1535028E-2,5.9909113E-3],"split_indices":[0,1,0,0,1,0,0,0,1,0,0,0,0,0,0,0,1,0,0,0,0,0,0],"split_type":[0,0,0,0,0,0,0,0,0,0,0,0,0,0,0,0,0,0,0,0,0,0,0],"sum_hessian":[7.3E1,6.6E1,7E0,1.3E1,5.3E1,6E0,7E0,2.5E1,2.8E1,1.9E1,6E0,2.3E1,5E0,1.3E1,6E0,5E0,1.8E1,6E0,7E0,8E0,1E1,5E0,5E0],"tree_param":{"num_deleted":"0","num_feature":"2","num_nodes":"23","size_leaf_vector":"0"}},{"base_weights":[-1.0568254E-2,2.9558921E-3,-9.188396E-3,8.817096E-2,-1.9191643E-2,1.0356734E-2,3.3821235E-3,-1.630064E-1,1.719822E-2,-3.0844656E-3,-1.9328915E-2,-9.126598E-3,3.8124345E-2,-9.447588E-3,9.1550924E-2,2.002579E-2,4.5778587E-2,-2.7077312E-3,7.353612E-2,1.1830139E-5,1.7437225E-2],"categories":[],"categories_nodes":[],"categories_segments":[],"categories_sizes":[],"default_left":[0,0,0,0,0,0,0,0,0,0,0,0,0,0,0,0,0,0,0,0,0],"id":56,"left_children":[1,3,-1,5,7,-1,-1,9,11,-1,-1,-1,13,-1,15,-1,17,-1,19,-1,-1],"loss_changes":[1.123939E-1,1.281415E-1,0E0,2.3877077E-2,2.8540695E-1,0E0,0E0,1.16380304E-1,1.3251865E-1,0E0,0E0,0E0,3.5344094E-1,0E0,2.2871247E-1,0E0,5.9475698E-2,0E0,2.2158396E-1,0E0,0E0],"parents":[2147483647,0,0,1,1,3,3,4,4,7,7,8,8,12,12,14,14,16,16,18,18],"right_children":[2,4,-1,6,8,-1,-1,10,12,-1,-1,-1,14,-1,16,-1,18,-1,20,-1,-1],"split_conditions":[7.282E-1,2.7757E-1,-9.188396E-3,1.7957E-1,3.4366E-1,1.0356734E-2,3.3821235E-3,2.9888E-1,2.9328E-1,-3.0844656E-3,-1.9328915E-2,-9.126598E-3,4.2582E-1,-9.447588E-3,3.8449E-1,2.002579E-2,4.732E-1,-2.7077312E-3,5.9698E-1,1.1830139E-5,1.7437225E-2],"split_indices":[0,1,0,1,1,0,0,1,0,0,0,0,1,0,0,0,0,0,1,0,0],"split_type":[0,0,0,0,0,0,0,0,0,0,0,0,0,0,0,0,0,0,0,0,0],"sum_hessian":[7.3E1,6.6E1,7E0,1.3E1,5.3E1,5E0,8E0,1E1,4.3E1,5E0,5E0,5E0,3.8E1,9E0,2.9E1,5E0,2.4E1,6E0,1.8E1,1.3E1,5E0],"tree_param":{"num_deleted":"0","num_feature":"2","num_nodes":"21","size_leaf_vector":"0"}},{"base_weights":[-9.798198E-3,2.7873449E-3,-9.799352E-3,1.3063278E-2,-2.2967564E-2,-1.7931689E-2,1.0269288E-3,1.1826359E-1,-3.4440596E-2,1.7735956E-2,-1.263527E-3,-1.2088178E-2,-8.6755026E-4,-1.282926E-2,4.7788933E-2,1.5570602E-2,-1.5370198E-2,-6.2118773E-3,1.253033E-2],"categories":[],"categories_nodes":[],"categories_segments":[],"categories_sizes":[],"default_left":[0,0,0,0,0,0,0,0,0,0,0,0,0,0,0,0,0,0,0],"id":57,"left_children":[1,3,-1,-1,5,-1,7,9,11,-1,-1,-1,13,-1,15,-1,17,-1,-1],"loss_changes":[1.1292459E-1,3.0416098E-1,0E0,0E0,3.1138918E-1,0E0,2.3276824E-1,2.1162271E-1,1.8282014E-1,0E0,0E0,0E0,2.9800296E-1,0E0,2.8582397E-1,0E0,2.722751E-1,0E0,0E0],"parents":[2147483647,0,0,1,1,4,4,6,6,7,7,8,8,12,12,14,14,16,16],"right_children":[2,4,-1,-1,6,-1,8,10,12,-1,-1,-1,14,-1,16,-1,18,-1,-1],"split_conditions":[6.4269E-1,3.0661E-1,-9.799352E-3,1.3063278E-2,3.7168E-1,-1.7931689E-2,4.8622E-1,4.5884E-1,2.3262E-1,1.7735956E-2,-1.263527E-3,-1.2088178E-2,5.3641E-1,-1.282926E-2,2.9888E-1,1.5570602E-2,6.7971E-1,-6.2118773E-3,1.253033E-2],"split_indices":[1,0,0,0,0,0,0,1,1,0,0,0,0,0,1,0,0,0,0],"split_type":[0,0,0,0,0,0,0,0,0,0,0,0,0,0,0,0,0,0,0],"sum_hessian":[7.3E1,6.7E1,6E0,8E0,5.9E1,5E0,5.4E1,1.2E1,4.2E1,6E0,6E0,8E0,3.4E1,7E0,2.7E1,7E0,2E1,1.5E1,5E0],"tree_param":{"num_deleted":"0","num_feature":"2","num_nodes":"19","size_leaf_vector":"0"}},{"base_weights":[-9.079871E-3,1.3404086E-2,-7.977463E-2,-7.691E-3,8.499008E-3,-1.5250555E-1,6.832858E-3,-8.890834E-2,5.3496685E-2,-2.4001533E-2,-5.8546255E-4,2.123926E-3,-1.7918877E-1,-5.9307814E-3,1.2045673E-1,-6.7876806E-3,-1.7220546E-2,1.52025735E-2,5.5589188E-2,-4.5156283E-3,1.3606611E-2],"categories":[],"categories_nodes":[],"categories_segments":[],"categories_sizes":[],"default_left":[0,0,0,0,0,0,0,0,0,0,0,0,0,0,0,0,0,0,0,0,0],"id":58,"left_children":[1,3,5,7,-1,9,-1,11,13,-1,-1,-1,15,-1,17,-1,-1,-1,19,-1,-1],"loss_changes":[1.1869217E-1,1.2101254E-1,2.3760182E-1,2.4329235E-1,0E0,3.1261283E-1,0E0,2.2732452E-1,2.5808543E-1,0E0,0E0,0E0,3.2877177E-2,0E0,9.009668E-2,0E0,0E0,0E0,1.8577595E-1,0E0,0E0],"parents":[2147483647,0,0,1,1,2,2,3,3,5,5,7,7,8,8,12,12,14,14,18,18],"right_children":[2,4,6,8,-1,10,-1,12,14,-1,-1,-1,16,-1,18,-1,-1,-1,20,-1,-1],"split_conditions":[6.3497E-1,5.7008E-1,7.4217E-1,3.9201E-1,8.499008E-3,4.0961E-1,6.832858E-3,4.8558E-1,3.7168E-1,-2.4001533E-2,-5.8546255E-4,2.123926E-3,2.3262E-1,-5.9307814E-3,4.8893E-1,-6.7876806E-3,-1.7220546E-2,1.52025735E-2,4.732E-1,-4.5156283E-3,1.3606611E-2],"split_indices":[0,0,0,1,0,1,0,0,0,0,0,0,1,0,1,0,0,0,0,0,0],"split_type":[0,0,0,0,0,0,0,0,0,0,0,0,0,0,0,0,0,0,0,0,0],"sum_hessian":[7.3E1,5.6E1,1.7E1,4.7E1,9E0,1.2E1,5E0,2E1,2.7E1,5E0,7E0,9E0,1.1E1,9E0,1.8E1,5E0,6E0,7E0,1.1E1,6E0,5E0],"tree_param":{"num_deleted":"0","num_feature":"2","num_nodes":"21","size_leaf_vector":"0"}},{"base_weights":[-8.571542E-3,5.0887275E-3,-9.1428645E-3,9.10536E-2,-1.7292695E-2,2.040735E-3,1.0165141E-2,-1.4788218E-1,1.574769E-2,-2.4933266E-3,-1.7840473E-2,-3.291069E-2,7.578328E-2,2.137727E-2,-1.1320858E-2,1.4436216E-2,1.2020398E-2,-6.041505E-2,1.1890409E-2,4.136379E-3,-1.3552061E-3,-8.816867E-3,-2.1033533E-4],"categories":[],"categories_nodes":[],"categories_segments":[],"categories_sizes":[],"default_left":[0,0,0,0,0,0,0,0,0,0,0,0,0,0,0,0,0,0,0,0,0,0,0],"id":59,"left_children":[1,3,-1,5,7,-1,-1,9,11,-1,-1,13,15,17,-1,-1,19,21,-1,-1,-1,-1,-1],"loss_changes":[1.1518444E-1,1.3048366E-1,0E0,3.607037E-2,2.3532407E-1,0E0,0E0,1.05571955E-1,1.3102841E-1,0E0,0E0,1.6342252E-1,1.4650834E-1,2.1151577E-1,0E0,0E0,1.9165944E-2,3.9174918E-2,0E0,0E0,0E0,0E0,0E0],"parents":[2147483647,0,0,1,1,3,3,4,4,7,7,8,8,11,11,12,12,13,13,16,16,17,17],"right_children":[2,4,-1,6,8,-1,-1,10,12,-1,-1,14,16,18,-1,-1,20,22,-1,-1,-1,-1,-1],"split_conditions":[7.282E-1,2.7757E-1,-9.1428645E-3,5.0468E-1,3.4366E-1,2.040735E-3,1.0165141E-2,2.9888E-1,5.0974E-1,-2.4933266E-3,-1.7840473E-2,4.5884E-1,5.4705E-1,3.7168E-1,-1.1320858E-2,1.4436216E-2,4.3931E-1,2.9328E-1,1.1890409E-2,4.136379E-3,-1.3552061E-3,-8.816867E-3,-2.1033533E-4],"split_indices":[0,1,0,0,1,0,0,1,0,0,0,0,0,0,0,0,1,0,0,0,0,0,0],"split_type":[0,0,0,0,0,0,0,0,0,0,0,0,0,0,0,0,0,0,0,0,0,0,0],"sum_hessian":[7.3E1,6.6E1,7E0,1.3E1,5.3E1,6E0,7E0,1E1,4.3E1,5E0,5E0,2.4E1,1.9E1,1.7E1,7E0,6E0,1.3E1,1.1E1,6E0,5E0,8E0,5E0,6E0],"tree_param":{"num_deleted":"0","num_feature":"2","num_nodes":"23","size_leaf_vector":"0"}},{"base_weights":[-8.043691E-3,3.9831633E-3,-9.2795165E-3,1.2668557E-2,-2.0822864E-2,-1.675693E-2,1.6578636E-3,1.073211E-1,-3.032539E-2,1.605278E-2,-1.1044844E-3,-1.1391985E-1,1.3958824E-2,-2.6721016E-3,-1.3347877E-2,1.1852952E-2,-5.8779377E-2,-1.717934E-2,1.3250637E-2,7.3346337E-3,-4.0483857E-3],"categories":[],"categories_nodes":[],"categories_segments":[],"categories_sizes":[],"default_left":[0,0,0,0,0,0,0,0,0,0,0,0,0,0,0,0,0,0,0,0,0],"id":60,"left_children":[1,3,-1,-1,5,-1,7,9,11,-1,-1,13,15,-1,-1,-1,17,-1,19,-1,-1],"loss_changes":[1.03449374E-1,2.8172436E-1,0E0,0E0,2.7365E-1,0E0,1.8912454E-1,1.7246948E-1,1.6077252E-1,0E0,0E0,6.888026E-2,3.1321403E-1,0E0,0E0,0E0,2.4833839E-1,0E0,9.053658E-2,0E0,0E0],"parents":[2147483647,0,0,1,1,4,4,6,6,7,7,8,8,11,11,12,12,16,16,18,18],"right_children":[2,4,-1,-1,6,-1,8,10,12,-1,-1,14,16,-1,-1,-1,18,-1,20,-1,-1],"split_conditions":[6.4269E-1,3.0661E-1,-9.2795165E-3,1.2668557E-2,3.7168E-1,-1.675693E-2,4.8622E-1,4.5884E-1,2.9723E-1,1.605278E-2,-1.1044844E-3,6.3497E-1,3.9024E-1,-2.6721016E-3,-1.3347877E-2,1.1852952E-2,4.3931E-1,-1.717934E-2,5.4705E-1,7.3346337E-3,-4.0483857E-3],"split_indices":[1,0,0,0,0,0,0,1,1,0,0,0,1,0,0,0,1,0,0,0,0],"split_type":[0,0,0,0,0,0,0,0,0,0,0,0,0,0,0,0,0,0,0,0,0],"sum_hessian":[7.3E1,6.7E1,6E0,8E0,5.9E1,5E0,5.4E1,1.2E1,4.2E1,6E0,6E0,1.4E1,2.8E1,7E0,7E0,9E0,1.9E1,5E0,1.4E1,6E0,8E0],"tree_param":{"num_deleted":"0","num_feature":"2","num_nodes":"21","size_leaf_vector":"0"}},{"base_weights":[-7.6631107E-3,6.991007E-2,-2.3804856E-2,-3.6042563E-3,1.6166063E-2,-1.3976631E-2,-6.2766797E-3,9.972032E-3,-8.028491E-3,8.613646E-3,-1.9118326E-2,-1.3686694E-1,3.623347E-2,-2.2373164E-2,9.9215475E-5,8.31107E-2,-3.3195395E-2,-2.7777571E-3,1.140095E-2,-5.2082594E-3,1.9624287E-4],"categories":[],"categories_nodes":[],"categories_segments":[],"categories_sizes":[],"default_left":[0,0,0,0,0,0,0,0,0,0,0,0,0,0,0,0,0,0,0,0,0],"id":61,"left_children":[1,3,5,-1,-1,-1,7,9,-1,-1,11,13,15,-1,-1,17,19,-1,-1,-1,-1],"loss_changes":[9.432453E-2,2.337035E-1,1.7548124E-1,0E0,0E0,0E0,9.439816E-2,1.5474057E-1,0E0,0E0,2.6566306E-1,2.904198E-1,9.388862E-2,0E0,0E0,1.4636277E-1,1.5759079E-2,0E0,0E0,0E0,0E0],"parents":[2147483647,0,0,1,1,2,2,6,6,7,7,10,10,11,11,12,12,15,15,16,16],"right_children":[2,4,6,-1,-1,-1,8,10,-1,-1,12,14,16,-1,-1,18,20,-1,-1,-1,-1],"split_conditions":[3.2406E-1,2.9531E-1,3.8449E-1,-3.6042563E-3,1.6166063E-2,-1.3976631E-2,7.282E-1,2.7757E-1,-8.028491E-3,8.613646E-3,3.9201E-1,5.4958E-1,5.4705E-1,-2.2373164E-2,9.9215475E-5,4.732E-1,6.7039E-1,-2.7777571E-3,1.140095E-2,-5.2082594E-3,1.9624287E-4],"split_indices":[0,0,0,0,0,0,0,1,0,0,1,0,0,0,0,0,0,0,0,0,0],"split_type":[0,0,0,0,0,0,0,0,0,0,0,0,0,0,0,0,0,0,0,0,0],"sum_hessian":[7.3E1,1.2E1,6.1E1,7E0,5E0,5E0,5.6E1,4.9E1,7E0,1E1,3.9E1,1.2E1,2.7E1,5E0,7E0,1.6E1,1.1E1,6E0,1E1,5E0,6E0],"tree_param":{"num_deleted":"0","num_feature":"2","num_nodes":"21","size_leaf_vector":"0"}},{"base_weights":[-7.3517873E-3,3.6704252E-3,-8.503085E-3,1.1734767E-2,-1.9309718E-2,-1.5966434E-2,2.1587564E-3,1.0228236E-1,-2.8161373E-2,1.5133311E-2,-8.86839E-4,-1.08390385E-2,2.564157E-3,-1.2454203E-2,5.0649777E-2,1.5471969E-2,-1.1054738E-2,-5.705779E-3,1.2313542E-2],"categories":[],"categories_nodes":[],"categories_segments":[],"categories_sizes":[],"default_left":[0,0,0,0,0,0,0,0,0,0,0,0,0,0,0,0,0,0,0],"id":62,"left_children":[1,3,-1,-1,5,-1,7,9,11,-1,-1,-1,13,-1,15,-1,17,-1,-1],"loss_changes":[8.689286E-2,2.4178341E-1,0E0,0E0,2.4980652E-1,0E0,1.6984725E-1,1.4997593E-1,1.54104E-1,0E0,0E0,0E0,2.9219794E-1,0E0,2.7118927E-1,0E0,2.5176865E-1,0E0,0E0],"parents":[2147483647,0,0,1,1,4,4,6,6,7,7,8,8,12,12,14,14,16,16],"right_children":[2,4,-1,-1,6,-1,8,10,12,-1,-1,-1,14,-1,16,-1,18,-1,-1],"split_conditions":[6.4269E-1,3.0661E-1,-8.503085E-3,1.1734767E-2,3.7168E-1,-1.5966434E-2,4.8622E-1,4.5884E-1,2.3262E-1,1.5133311E-2,-8.86839E-4,-1.08390385E-2,5.3641E-1,-1.2454203E-2,2.9888E-1,1.5471969E-2,6.7971E-1,-5.705779E-3,1.2313542E-2],"split_indices":[1,0,0,0,0,0,0,1,1,0,0,0,0,0,1,0,0,0,0],"split_type":[0,0,0,0,0,0,0,0,0,0,0,0,0,0,0,0,0,0,0],"sum_hessian":[7.3E1,6.7E1,6E0,8E0,5.9E1,5E0,5.4E1,1.2E1,4.2E1,6E0,6E0,8E0,3.4E1,7E0,2.7E1,7E0,2E1,1.5E1,5E0],"tree_param":{"num_deleted":"0","num_feature":"2","num_nodes":"19","size_leaf_vector":"0"}},{"base_weights":[-6.796377E-3,5.2080886E-3,-7.986317E-3,8.488778E-2,-1.5546055E-2,1.5640735E-3,9.772957E-3,-1.3790034E-1,1.5395834E-2,-2.0942749E-3,-1.6867021E-2,-3.3632547E-2,7.5911514E-2,1.6139606E-2,-1.0606186E-2,1.3358086E-2,1.9391118E-2,-6.236374E-2,1.1130834E-2,4.414841E-3,-6.809302E-4,-9.03843E-3,-2.7096993E-4],"categories":[],"categories_nodes":[],"categories_segments":[],"categories_sizes":[],"default_left":[0,0,0,0,0,0,0,0,0,0,0,0,0,0,0,0,0,0,0,0,0,0,0],"id":63,"left_children":[1,3,-1,5,7,-1,-1,9,11,-1,-1,13,15,17,-1,-1,19,21,-1,-1,-1,-1,-1],"loss_changes":[8.911033E-2,1.1211648E-1,0E0,3.7998654E-2,2.0656022E-1,0E0,0E0,9.89597E-2,1.3310048E-1,0E0,0E0,1.3639753E-1,1.12069815E-1,1.9616307E-1,0E0,0E0,1.6267855E-2,4.055996E-2,0E0,0E0,0E0,0E0,0E0],"parents":[2147483647,0,0,1,1,3,3,4,4,7,7,8,8,11,11,12,12,13,13,16,16,17,17],"right_children":[2,4,-1,6,8,-1,-1,10,12,-1,-1,14,16,18,-1,-1,20,22,-1,-1,-1,-1,-1],"split_conditions":[7.282E-1,2.7757E-1,-7.986317E-3,5.0468E-1,3.4366E-1,1.5640735E-3,9.772957E-3,2.9888E-1,5.0974E-1,-2.0942749E-3,-1.6867021E-2,4.5884E-1,5.4705E-1,3.7168E-1,-1.0606186E-2,1.3358086E-2,4.3931E-1,2.9328E-1,1.1130834E-2,4.414841E-3,-6.809302E-4,-9.03843E-3,-2.7096993E-4],"split_indices":[0,1,0,0,1,0,0,1,0,0,0,0,0,0,0,0,1,0,0,0,0,0,0],"split_type":[0,0,0,0,0,0,0,0,0,0,0,0,0,0,0,0,0,0,0,0,0,0,0],"sum_hessian":[7.3E1,6.6E1,7E0,1.3E1,5.3E1,6E0,7E0,1E1,4.3E1,5E0,5E0,2.4E1,1.9E1,1.7E1,7E0,6E0,1.3E1,1.1E1,6E0,5E0,8E0,5E0,6E0],"tree_param":{"num_deleted":"0","num_feature":"2","num_nodes":"23","size_leaf_vector":"0"}},{"base_weights":[-6.385344E-3,6.6230506E-2,-2.150826E-2,-3.5365382E-3,1.5477842E-2,-1.306677E-2,-5.055623E-3,-6.9542706E-2,2.1806233E-2,1.1115168E-3,-1.24727655E-2,1.3209824E-1,-1.8033067E-2,8.2525203E-4,1.7338255E-2,-1.1850057E-2,1.4960746E-2,7.689463E-2,-6.370334E-2,-1.249009E-3,1.6499426E-2,-6.142559E-3,-2.3891828E-3],"categories":[],"categories_nodes":[],"categories_segments":[],"categories_sizes":[],"default_left":[0,0,0,0,0,0,0,0,0,0,0,0,0,0,0,0,0,0,0,0,0,0,0],"id":64,"left_children":[1,3,5,-1,-1,-1,7,9,11,-1,-1,13,15,-1,-1,-1,17,19,21,-1,-1,-1,-1],"loss_changes":[8.268859E-2,2.1629813E-1,1.5489854E-1,0E0,0E0,0E0,1.002543E-1,1.4123613E-1,1.8253434E-1,0E0,0E0,1.2943314E-1,1.455239E-1,0E0,0E0,0E0,1.3156973E-1,2.044614E-1,4.3455213E-3,0E0,0E0,0E0,0E0],"parents":[2147483647,0,0,1,1,2,2,6,6,7,7,8,8,11,11,12,12,16,16,17,17,18,18],"right_children":[2,4,6,-1,-1,-1,8,10,12,-1,-1,14,16,-1,-1,-1,18,20,22,-1,-1,-1,-1],"split_conditions":[3.2406E-1,2.9531E-1,3.8449E-1,-3.5365382E-3,1.5477842E-2,-1.306677E-2,2.9723E-1,6.3497E-1,3.9024E-1,1.1115168E-3,-1.24727655E-2,5.7008E-1,4.3458E-1,8.2525203E-4,1.7338255E-2,-1.1850057E-2,5.4705E-1,5.0974E-1,6.7851E-1,-1.249009E-3,1.6499426E-2,-6.142559E-3,-2.3891828E-3],"split_indices":[0,0,0,0,0,0,1,0,1,0,0,0,1,0,0,0,0,0,0,0,0,0,0],"split_type":[0,0,0,0,0,0,0,0,0,0,0,0,0,0,0,0,0,0,0,0,0,0,0],"sum_hessian":[7.3E1,1.2E1,6.1E1,7E0,5E0,5E0,5.6E1,1.6E1,4E1,9E0,7E0,1E1,3E1,5E0,5E0,5E0,2.5E1,1.4E1,1.1E1,9E0,5E0,6E0,5E0],"tree_param":{"num_deleted":"0","num_feature":"2","num_nodes":"23","size_leaf_vector":"0"}},{"base_weights":[-5.8990726E-3,-1.5717348E-2,8.099572E-3,1.015353E-2,-1.2794217E-1,-1.0130126E-2,7.987481E-3,-2.1015715E-2,1.6883248E-4,-8.124596E-2,4.356854E-2,2.915857E-3,-1.4408499E-1,-4.935509E-3,9.884142E-2,-2.2159354E-3,-1.5332626E-2,1.2565499E-2,4.4805586E-2,-3.93942E-3,1.1316828E-2],"categories":[],"categories_nodes":[],"categories_segments":[],"categories_sizes":[],"default_left":[0,0,0,0,0,0,0,0,0,0,0,0,0,0,0,0,0,0,0,0,0],"id":65,"left_children":[1,3,-1,5,7,9,-1,-1,-1,11,13,-1,15,-1,17,-1,-1,-1,19,-1,-1],"loss_changes":[8.444688E-2,2.0163055E-1,0E0,1.1247128E-1,2.5834516E-1,1.8684338E-1,0E0,0E0,0E0,1.6411982E-1,1.7577812E-1,0E0,9.0734005E-2,0E0,6.302479E-2,0E0,0E0,0E0,1.3183069E-1,0E0,0E0],"parents":[2147483647,0,0,1,1,3,3,4,4,5,5,9,9,10,10,12,12,14,14,18,18],"right_children":[2,4,-1,6,8,10,-1,-1,-1,12,14,-1,16,-1,18,-1,-1,-1,20,-1,-1],"split_conditions":[7.4217E-1,6.3497E-1,8.099572E-3,5.7008E-1,4.0961E-1,3.9201E-1,7.987481E-3,-2.1015715E-2,1.6883248E-4,2.0167E-1,3.7168E-1,2.915857E-3,4.565E-1,-4.935509E-3,4.8893E-1,-2.2159354E-3,-1.5332626E-2,1.2565499E-2,4.732E-1,-3.93942E-3,1.1316828E-2],"split_indices":[0,0,0,0,1,1,0,0,0,1,0,0,0,0,1,0,0,0,0,0,0],"split_type":[0,0,0,0,0,0,0,0,0,0,0,0,0,0,0,0,0,0,0,0,0],"sum_hessian":[7.3E1,6.8E1,5E0,5.6E1,1.2E1,4.7E1,9E0,5E0,7E0,2E1,2.7E1,7E0,1.3E1,9E0,1.8E1,5E0,8E0,7E0,1.1E1,6E0,5E0],"tree_param":{"num_deleted":"0","num_feature":"2","num_nodes":"21","size_leaf_vector":"0"}},{"base_weights":[-5.5159032E-3,4.953358E-3,-7.982198E-3,-1.7873418E-2,1.1743613E-2,1.289662E-2,-7.160787E-2,1.5986701E-2,-2.2822587E-2,-1.6002152E-2,-1.736477E-2,-8.2425095E-2,4.9381807E-2,4.4351607E-3,-8.311461E-3,1.9664029E-3,-1.4798555E-1,1.6135665E-2,-5.3691473E-3,-1.3327194E-2,-6.6494388E-3],"categories":[],"categories_nodes":[],"categories_segments":[],"categories_sizes":[],"default_left":[0,0,0,0,0,0,0,0,0,0,0,0,0,0,0,0,0,0,0,0,0],"id":66,"left_children":[1,3,-1,5,-1,7,9,-1,11,-1,13,15,17,-1,-1,-1,19,-1,-1,-1,-1],"loss_changes":[7.870735E-2,2.3815897E-1,0E0,1.0012818E-1,0E0,2.8383592E-1,1.6545708E-1,0E0,1.5039144E-1,0E0,1.2809159E-1,1.3921197E-1,3.362354E-1,0E0,0E0,0E0,5.3969324E-3,0E0,0E0,0E0,0E0],"parents":[2147483647,0,0,1,1,3,3,5,5,6,6,8,8,10,10,11,11,12,12,16,16],"right_children":[2,4,-1,6,-1,8,10,-1,12,-1,14,16,18,-1,-1,-1,20,-1,-1,-1,-1],"split_conditions":[6.4269E-1,5.8305E-1,-7.982198E-3,4.2546E-1,1.1743613E-2,3.0661E-1,4.4706E-1,1.5986701E-2,5.7008E-1,-1.6002152E-2,5.1093E-1,4.8622E-1,6.3497E-1,4.4351607E-3,-8.311461E-3,1.9664029E-3,2.9723E-1,1.6135665E-2,-5.3691473E-3,-1.3327194E-2,-6.6494388E-3],"split_indices":[1,1,0,1,0,0,1,0,0,0,1,0,0,0,0,0,1,0,0,0,0],"split_type":[0,0,0,0,0,0,0,0,0,0,0,0,0,0,0,0,0,0,0,0,0],"sum_hessian":[7.3E1,6.7E1,6E0,5.9E1,8E0,3.8E1,2.1E1,5E0,3.3E1,5E0,1.6E1,1.8E1,1.5E1,9E0,7E0,7E0,1.1E1,6E0,9E0,6E0,5E0],"tree_param":{"num_deleted":"0","num_feature":"2","num_nodes":"21","size_leaf_vector":"0"}}]},"name":"gbtree"},"learner_model_param":{"base_score":"5E-1","boost_from_average":"1","num_class":"0","num_feature":"2","num_target":"1"},"objective":{"name":"reg:squarederror","reg_loss_param":{"scale_pos_weight":"1"}}},"version":[1,7,3]}