{"learner":{"attributes":{"best_iteration":"5","best_ntree_limit":"6","best_score":"1.075799614465242"},"feature_names":[],"feature_types":[],"gradient_booster":{"model":{"gbtree_model_param":{"num_parallel_tree":"1","num_trees":"56","size_leaf_vector":"0"},"tree_info":[0,0,0,0,0,0,0,0,0,0,0,0,0,0,0,0,0,0,0,0,0,0,0,0,0,0,0,0,0,0,0,0,0,0,0,0,0,0,0,0,0,0,0,0,0,0,0,0,0,0,0,0,0,0,0,0],"trees":[{"base_weights":[-4.9324325E-1,-9.2697114E-1,-2.2435762E-1,-3.1522614E-1,-1.0794822E0,-6.8074244E-1,-6.599718E-2,-7.227697E-2,1.3689914E-1,-1.2429248E0,-6.380921E-1,3.1894304E-2,-8.1994766E-1,2.0595491E-1,-5.629859E-1,2.847192E-2,-1.5146035E-1,-9.74058E-2,-1.73046E-2,2.5465593E-1,-7.335881E-2,-5.3515273E-1,-1.0507624E-1,4.3500686E-1,-1.04288936E-1,-7.184003E-2,-8.767811E-2,-1.73046E-2,2.6530848E-4,2.6530848E-4,2.8383486E-2,-7.1265794E-2,-1.3064456E-2,-2.2895922E-1,4.7767725E-2,-1.997693E-1,3.1894304E-2,2.1616614E-1,-3.6960283E-1,-2.055538E-1,2.8383486E-2,-8.0562584E-2,4.1083285E-1,-3.46092E-1,-8.761788E-2,3.5374466E-4,3.1894304E-2,1.7835215E-2,-4.885043E-2,2.6530848E-4,-2.0732254E-2,2.6530848E-4,4.595339E-2,-3.245511E-3,-3.2445524E-2,1.445705E-2,-2.5956897E-2],"categories":[],"categories_nodes":[],"categories_segments":[],"categories_sizes":[],"default_left":[0,0,0,0,0,0,0,0,0,0,0,0,0,0,0,0,0,0,0,0,0,0,0,0,0,0,0,0,0,0,0,0,0,0,0,0,0,0,0,0,0,0,0,0,0,0,0,0,0,0,0,0,0,0,0,0,0],"id":0,"left_children":[1,3,5,7,9,11,13,-1,15,17,19,-1,21,23,25,-1,27,-1,-1,29,-1,31,-1,33,35,-1,37,-1,-1,-1,-1,-1,39,41,-1,43,-1,45,47,49,-1,-1,51,53,55,-1,-1,-1,-1,-1,-1,-1,-1,-1,-1,-1,-1],"loss_changes":[8.422142E0,2.2720604E0,3.3519177E0,2.1842463E0,7.940235E-1,2.1962204E0,4.981606E0,0E0,4.0746057E-1,5.47842E-1,2.677539E0,0E0,1.0705819E0,1.7508534E0,2.355987E0,0E0,3.7675112E-2,0E0,0E0,9.191953E-2,0E0,1.9378574E0,0E0,2.022555E0,6.4112747E-1,0E0,6.7952406E-1,0E0,0E0,0E0,0E0,0E0,4.5459953E-1,2.604334E0,0E0,1.3377914E-1,0E0,1.7484322E-1,8.3940303E-1,6.0256243E-2,0E0,0E0,2.445057E-1,8.607295E-2,5.7400703E-1,0E0,0E0,0E0,0E0,0E0,0E0,0E0,0E0,0E0,0E0,0E0,0E0],"parents":[2147483647,0,0,1,1,2,2,3,3,4,4,5,5,6,6,8,8,9,9,10,10,12,12,13,13,14,14,16,16,19,19,21,21,23,23,24,24,26,26,32,32,33,33,35,35,37,37,38,38,39,39,42,42,43,43,44,44],"right_children":[2,4,6,8,10,12,14,-1,16,18,20,-1,22,24,26,-1,28,-1,-1,30,-1,32,-1,34,36,-1,38,-1,-1,-1,-1,-1,40,42,-1,44,-1,46,48,50,-1,-1,52,54,56,-1,-1,-1,-1,-1,-1,-1,-1,-1,-1,-1,-1],"split_conditions":[3.4366E-1,1.7957E-1,3.7168E-1,1.031E-1,2.9723E-1,2.1951E-1,5.9612E-1,-7.227697E-2,4.8558E-1,7.4999E-1,2.9888E-1,3.1894304E-2,3.2138E-1,5.0995E-1,6.7971E-1,2.847192E-2,5.4875E-1,-9.74058E-2,-1.73046E-2,5.4553E-1,-7.335881E-2,2.9328E-1,-1.0507624E-1,3.9201E-1,7.0881E-1,-7.184003E-2,6.9515E-1,-1.73046E-2,2.6530848E-4,2.6530848E-4,2.8383486E-2,-7.1265794E-2,6.0802E-1,4.9842E-1,4.7767725E-2,5.8305E-1,3.1894304E-2,6.9313E-1,3.9024E-1,2.9531E-1,2.8383486E-2,-8.0562584E-2,5.7008E-1,3.8449E-1,6.0787E-1,3.5374466E-4,3.1894304E-2,1.7835215E-2,-4.885043E-2,2.6530848E-4,-2.0732254E-2,2.6530848E-4,4.595339E-2,-3.245511E-3,-3.2445524E-2,1.445705E-2,-2.5956897E-2],"split_indices":[1,1,0,1,1,0,0,0,0,0,1,0,0,1,0,0,0,0,0,0,0,0,0,1,1,0,0,0,0,0,0,0,1,0,0,1,0,0,1,0,0,0,0,0,1,0,0,0,0,0,0,0,0,0,0,0,0],"split_type":[0,0,0,0,0,0,0,0,0,0,0,0,0,0,0,0,0,0,0,0,0,0,0,0,0,0,0,0,0,0,0,0,0,0,0,0,0,0,0,0,0,0,0,0,0,0,0,0,0,0,0,0,0,0,0,0,0],"sum_hessian":[7.3E1,2.7E1,4.6E1,6E0,2.1E1,1.1E1,3.5E1,2E0,4E0,1.4E1,7E0,1E0,1E1,2.3E1,1.2E1,2E0,2E0,1.3E1,1E0,2E0,5E0,8E0,2E0,1.3E1,1E1,6E0,6E0,1E0,1E0,1E0,1E0,4E0,4E0,3E0,1E1,9E0,1E0,3E0,3E0,3E0,1E0,1E0,2E0,3E0,6E0,2E0,1E0,1E0,2E0,1E0,2E0,1E0,1E0,1E0,2E0,3E0,3E0],"tree_param":{"num_deleted":"0","num_feature":"2","num_nodes":"57","size_leaf_vector":"0"}},{"base_weights":[-4.6205103E-1,-8.653149E-1,-2.1197784E-1,-3.0027625E-1,-1.0057675E0,-6.4106435E-1,-6.306073E-2,-6.866312E-2,1.2891823E-1,-1.1573528E0,-5.9582394E-1,3.0698268E-2,-7.7376294E-1,1.9043025E-1,-5.2619326E-1,2.7048325E-2,-1.4578058E-1,-9.062218E-2,-1.6655676E-2,2.4510634E-1,-6.877389E-2,-5.020551E-1,-9.9822424E-2,4.033402E-1,-9.785786E-2,-6.7221746E-2,-8.092616E-2,-1.6655676E-2,2.5535972E-4,2.5535972E-4,2.7319105E-2,-6.698984E-2,-1.0501313E-2,-2.2037324E-1,5.934778E-1,-1.895057E-1,3.0698268E-2,2.0801568E-1,-3.4963644E-1,-1.95254E-1,2.7319105E-2,-7.7541485E-2,3.9542663E-1,4.805168E-2,1.9051356E-2,-3.2905784E-1,-8.2689375E-2,3.3605695E-4,3.0698268E-2,1.7166395E-2,-4.640791E-2,2.5535972E-4,-1.969564E-2,2.5535972E-4,4.4230137E-2,-3.1238047E-3,-3.0823248E-2,1.3643841E-2,-2.4496822E-2],"categories":[],"categories_nodes":[],"categories_segments":[],"categories_sizes":[],"default_left":[0,0,0,0,0,0,0,0,0,0,0,0,0,0,0,0,0,0,0,0,0,0,0,0,0,0,0,0,0,0,0,0,0,0,0,0,0,0,0,0,0,0,0,0,0,0,0,0,0,0,0,0,0,0,0,0,0,0,0],"id":1,"left_children":[1,3,5,7,9,11,13,-1,15,17,19,-1,21,23,25,-1,27,-1,-1,29,-1,31,-1,33,35,-1,37,-1,-1,-1,-1,-1,39,41,43,45,-1,47,49,51,-1,-1,53,-1,-1,55,57,-1,-1,-1,-1,-1,-1,-1,-1,-1,-1,-1,-1],"loss_changes":[7.2791395E0,1.9201031E0,2.962795E0,1.9664052E0,6.775322E-1,1.9893079E0,4.3266006E0,0E0,3.7084934E-1,4.463539E-1,2.3853521E0,0E0,9.9714184E-1,1.5125759E0,2.0697608E0,0E0,3.4902453E-2,0E0,0E0,8.515482E-2,0E0,1.72103E0,0E0,1.7910657E0,5.8885604E-1,0E0,6.1622137E-1,0E0,0E0,0E0,0E0,0E0,4.173081E-1,2.4126716E0,1.3543367E-2,1.2185487E-1,0E0,1.6204785E-1,7.644311E-1,5.441639E-2,0E0,0E0,2.2651166E-1,0E0,0E0,7.70587E-2,5.112474E-1,0E0,0E0,0E0,0E0,0E0,0E0,0E0,0E0,0E0,0E0,0E0,0E0],"parents":[2147483647,0,0,1,1,2,2,3,3,4,4,5,5,6,6,8,8,9,9,10,10,12,12,13,13,14,14,16,16,19,19,21,21,23,23,24,24,26,26,32,32,33,33,34,34,35,35,37,37,38,38,39,39,42,42,45,45,46,46],"right_children":[2,4,6,8,10,12,14,-1,16,18,20,-1,22,24,26,-1,28,-1,-1,30,-1,32,-1,34,36,-1,38,-1,-1,-1,-1,-1,40,42,44,46,-1,48,50,52,-1,-1,54,-1,-1,56,58,-1,-1,-1,-1,-1,-1,-1,-1,-1,-1,-1,-1],"split_conditions":[3.4366E-1,1.7957E-1,3.7168E-1,1.031E-1,2.9723E-1,2.1951E-1,5.9612E-1,-6.866312E-2,4.8558E-1,7.4999E-1,2.9888E-1,3.0698268E-2,3.2138E-1,5.0995E-1,6.7971E-1,2.7048325E-2,5.4875E-1,-9.062218E-2,-1.6655676E-2,5.4553E-1,-6.877389E-2,2.9328E-1,-9.9822424E-2,3.9201E-1,7.0881E-1,-6.7221746E-2,6.9515E-1,-1.6655676E-2,2.5535972E-4,2.5535972E-4,2.7319105E-2,-6.698984E-2,6.0802E-1,4.9842E-1,4.9235E-1,5.8305E-1,3.0698268E-2,6.9313E-1,3.9024E-1,2.9531E-1,2.7319105E-2,-7.7541485E-2,5.7008E-1,4.805168E-2,1.9051356E-2,3.8449E-1,6.0787E-1,3.3605695E-4,3.0698268E-2,1.7166395E-2,-4.640791E-2,2.5535972E-4,-1.969564E-2,2.5535972E-4,4.4230137E-2,-3.1238047E-3,-3.0823248E-2,1.3643841E-2,-2.4496822E-2],"split_indices":[1,1,0,1,1,0,0,0,0,0,1,0,0,1,0,0,0,0,0,0,0,0,0,1,1,0,0,0,0,0,0,0,1,0,1,1,0,0,1,0,0,0,0,0,0,0,1,0,0,0,0,0,0,0,0,0,0,0,0],"split_type":[0,0,0,0,0,0,0,0,0,0,0,0,0,0,0,0,0,0,0,0,0,0,0,0,0,0,0,0,0,0,0,0,0,0,0,0,0,0,0,0,0,0,0,0,0,0,0,0,0,0,0,0,0,0,0,0,0,0,0],"sum_hessian":[7.3E1,2.7E1,4.6E1,6E0,2.1E1,1.1E1,3.5E1,2E0,4E0,1.4E1,7E0,1E0,1E1,2.3E1,1.2E1,2E0,2E0,1.3E1,1E0,2E0,5E0,8E0,2E0,1.3E1,1E1,6E0,6E0,1E0,1E0,1E0,1E0,4E0,4E0,3E0,1E1,9E0,1E0,3E0,3E0,3E0,1E0,1E0,2E0,8E0,2E0,3E0,6E0,2E0,1E0,1E0,2E0,1E0,2E0,1E0,1E0,1E0,2E0,3E0,3E0],"tree_param":{"num_deleted":"0","num_feature":"2","num_nodes":"59","size_leaf_vector":"0"}},{"base_weights":[-4.3253517E-1,-8.07791E-1,-1.9977564E-1,-2.860434E-1,-9.3708384E-1,-6.036708E-1,-5.959459E-2,-6.522997E-2,1.2137896E-1,-1.0777031E0,-5.5628705E-1,2.9547084E-2,-7.3017925E-1,1.7697905E-1,-4.9176174E-1,2.5695905E-2,-1.403138E-1,-8.431099E-2,-1.6031088E-2,2.3591484E-1,-6.4475514E-2,-4.7096884E-1,-9.483131E-2,3.7552163E-1,-9.18005E-2,-6.290034E-2,-7.460056E-2,-1.6031088E-2,2.4578423E-4,2.4578423E-4,2.6294637E-2,-6.297045E-2,-8.1379535E-3,-2.121093E-1,5.5506724E-1,-1.7977278E-1,2.9547084E-2,2.001731E-1,-3.3072406E-1,-1.8547001E-1,2.6294637E-2,-7.463369E-2,3.805981E-1,4.484824E-2,1.8098786E-2,-3.1286526E-1,-7.8038104E-2,3.192544E-4,2.9547084E-2,1.6522657E-2,-4.408751E-2,2.4578423E-4,-1.871086E-2,2.4578423E-4,4.2571504E-2,-3.0066625E-3,-2.9282086E-2,1.2876374E-2,-2.3118876E-2],"categories":[],"categories_nodes":[],"categories_segments":[],"categories_sizes":[],"default_left":[0,0,0,0,0,0,0,0,0,0,0,0,0,0,0,0,0,0,0,0,0,0,0,0,0,0,0,0,0,0,0,0,0,0,0,0,0,0,0,0,0,0,0,0,0,0,0,0,0,0,0,0,0,0,0,0,0,0,0],"id":2,"left_children":[1,3,5,7,9,11,13,-1,15,17,19,-1,21,23,25,-1,27,-1,-1,29,-1,31,-1,33,35,-1,37,-1,-1,-1,-1,-1,39,41,43,45,-1,47,49,51,-1,-1,53,-1,-1,55,57,-1,-1,-1,-1,-1,-1,-1,-1,-1,-1,-1,-1],"loss_changes":[6.302106E0,1.6207848E0,2.6250913E0,1.7702243E0,5.7853127E-1,1.8021679E0,3.7676482E0,0E0,3.3754873E-1,3.6159134E-1,2.1255565E0,0E0,9.2778015E-1,1.3152134E0,1.8187582E0,0E0,3.2333855E-2,0E0,0E0,7.888794E-2,0E0,1.5287174E0,0E0,1.5948268E0,5.4089254E-1,0E0,5.58834E-1,0E0,0E0,0E0,0E0,0E0,3.830993E-1,2.235114E0,3.7887096E-3,1.10985786E-1,0E0,1.50188E-1,6.96197E-1,4.914294E-2,0E0,0E0,2.0984176E-1,0E0,0E0,6.897715E-2,4.5534965E-1,0E0,0E0,0E0,0E0,0E0,0E0,0E0,0E0,0E0,0E0,0E0,0E0],"parents":[2147483647,0,0,1,1,2,2,3,3,4,4,5,5,6,6,8,8,9,9,10,10,12,12,13,13,14,14,16,16,19,19,21,21,23,23,24,24,26,26,32,32,33,33,34,34,35,35,37,37,38,38,39,39,42,42,45,45,46,46],"right_children":[2,4,6,8,10,12,14,-1,16,18,20,-1,22,24,26,-1,28,-1,-1,30,-1,32,-1,34,36,-1,38,-1,-1,-1,-1,-1,40,42,44,46,-1,48,50,52,-1,-1,54,-1,-1,56,58,-1,-1,-1,-1,-1,-1,-1,-1,-1,-1,-1,-1],"split_conditions":[3.4366E-1,1.7957E-1,3.7168E-1,1.031E-1,2.9723E-1,2.1951E-1,5.9612E-1,-6.522997E-2,4.8558E-1,7.4999E-1,2.9888E-1,2.9547084E-2,3.2138E-1,5.0995E-1,6.7971E-1,2.5695905E-2,5.4875E-1,-8.431099E-2,-1.6031088E-2,5.4553E-1,-6.4475514E-2,2.9328E-1,-9.483131E-2,3.9201E-1,7.0881E-1,-6.290034E-2,6.9515E-1,-1.6031088E-2,2.4578423E-4,2.4578423E-4,2.6294637E-2,-6.297045E-2,6.0802E-1,4.9842E-1,4.9235E-1,5.8305E-1,2.9547084E-2,6.9313E-1,3.9024E-1,2.9531E-1,2.6294637E-2,-7.463369E-2,5.7008E-1,4.484824E-2,1.8098786E-2,3.8449E-1,6.0787E-1,3.192544E-4,2.9547084E-2,1.6522657E-2,-4.408751E-2,2.4578423E-4,-1.871086E-2,2.4578423E-4,4.2571504E-2,-3.0066625E-3,-2.9282086E-2,1.2876374E-2,-2.3118876E-2],"split_indices":[1,1,0,1,1,0,0,0,0,0,1,0,0,1,0,0,0,0,0,0,0,0,0,1,1,0,0,0,0,0,0,0,1,0,1,1,0,0,1,0,0,0,0,0,0,0,1,0,0,0,0,0,0,0,0,0,0,0,0],"split_type":[0,0,0,0,0,0,0,0,0,0,0,0,0,0,0,0,0,0,0,0,0,0,0,0,0,0,0,0,0,0,0,0,0,0,0,0,0,0,0,0,0,0,0,0,0,0,0,0,0,0,0,0,0,0,0,0,0,0,0],"sum_hessian":[7.3E1,2.7E1,4.6E1,6E0,2.1E1,1.1E1,3.5E1,2E0,4E0,1.4E1,7E0,1E0,1E1,2.3E1,1.2E1,2E0,2E0,1.3E1,1E0,2E0,5E0,8E0,2E0,1.3E1,1E1,6E0,6E0,1E0,1E0,1E0,1E0,4E0,4E0,3E0,1E1,9E0,1E0,3E0,3E0,3E0,1E0,1E0,2E0,8E0,2E0,3E0,6E0,2E0,1E0,1E0,2E0,1E0,2E0,1E0,1E0,1E0,2E0,3E0,3E0],"tree_param":{"num_deleted":"0","num_feature":"2","num_nodes":"59","size_leaf_vector":"0"}},{"base_weights":[-4.0491226E-1,-7.541208E-1,-1.8825793E-1,-2.7249292E-1,-8.730879E-1,-5.684309E-1,-5.630423E-2,-6.1968468E-2,1.1425765E-1,-1.003565E0,-5.1930743E-1,2.8439067E-2,-6.890496E-1,1.6446173E-1,-4.5954105E-1,2.441111E-2,-1.3505204E-1,-7.843934E-2,-1.5429922E-2,2.2706802E-1,-6.0445797E-2,-4.4177294E-1,-9.008974E-2,3.4958112E-1,-8.6095855E-2,-5.885675E-2,-6.867673E-2,-1.5429922E-2,2.3656637E-4,2.3656637E-4,2.5308589E-2,-5.9192225E-2,-5.961704E-3,-2.0415518E-1,3.8936976E-2,-1.7054296E-1,2.8439067E-2,1.926267E-1,-3.12811E-1,-1.7617604E-1,2.5308589E-2,-7.183492E-2,3.663257E-1,-2.9747254E-1,-7.3648475E-2,3.032923E-4,2.8439067E-2,1.5903058E-2,-4.1883137E-2,2.3656637E-4,-1.7775316E-2,2.3656637E-4,4.0975075E-2,-2.8939126E-3,-2.781798E-2,1.2152077E-2,-2.1818439E-2],"categories":[],"categories_nodes":[],"categories_segments":[],"categories_sizes":[],"default_left":[0,0,0,0,0,0,0,0,0,0,0,0,0,0,0,0,0,0,0,0,0,0,0,0,0,0,0,0,0,0,0,0,0,0,0,0,0,0,0,0,0,0,0,0,0,0,0,0,0,0,0,0,0,0,0,0,0],"id":3,"left_children":[1,3,5,7,9,11,13,-1,15,17,19,-1,21,23,25,-1,27,-1,-1,29,-1,31,-1,33,35,-1,37,-1,-1,-1,-1,-1,39,41,-1,43,-1,45,47,49,-1,-1,51,53,55,-1,-1,-1,-1,-1,-1,-1,-1,-1,-1,-1,-1],"loss_changes":[5.45669E0,1.3664284E0,2.3257608E0,1.5935557E0,4.943657E-1,1.6328855E0,3.2803319E0,0E0,3.0725765E-1,2.9097366E-1,1.8945112E0,0E0,8.624053E-1,1.1432911E0,1.5986025E0,0E0,2.995428E-2,0E0,0E0,7.308228E-2,0E0,1.3581244E0,0E0,1.4206142E0,4.9687794E-1,0E0,5.068076E-1,0E0,0E0,0E0,0E0,0E0,3.5171634E-1,2.0706236E0,0E0,1.01079375E-1,0E0,1.3919526E-1,6.340916E-1,4.438089E-2,0E0,0E0,1.9439873E-1,6.173265E-2,4.0556356E-1,0E0,0E0,0E0,0E0,0E0,0E0,0E0,0E0,0E0,0E0,0E0,0E0],"parents":[2147483647,0,0,1,1,2,2,3,3,4,4,5,5,6,6,8,8,9,9,10,10,12,12,13,13,14,14,16,16,19,19,21,21,23,23,24,24,26,26,32,32,33,33,35,35,37,37,38,38,39,39,42,42,43,43,44,44],"right_children":[2,4,6,8,10,12,14,-1,16,18,20,-1,22,24,26,-1,28,-1,-1,30,-1,32,-1,34,36,-1,38,-1,-1,-1,-1,-1,40,42,-1,44,-1,46,48,50,-1,-1,52,54,56,-1,-1,-1,-1,-1,-1,-1,-1,-1,-1,-1,-1],"split_conditions":[3.4366E-1,1.7957E-1,3.7168E-1,1.031E-1,2.9723E-1,2.1951E-1,5.9612E-1,-6.1968468E-2,4.8558E-1,7.4999E-1,2.9888E-1,2.8439067E-2,3.2138E-1,5.0995E-1,6.7971E-1,2.441111E-2,5.4875E-1,-7.843934E-2,-1.5429922E-2,5.4553E-1,-6.0445797E-2,2.9328E-1,-9.008974E-2,3.9201E-1,7.0881E-1,-5.885675E-2,6.9515E-1,-1.5429922E-2,2.3656637E-4,2.3656637E-4,2.5308589E-2,-5.9192225E-2,6.0802E-1,4.9842E-1,3.8936976E-2,5.8305E-1,2.8439067E-2,6.9313E-1,3.9024E-1,2.9531E-1,2.5308589E-2,-7.183492E-2,5.7008E-1,3.8449E-1,6.0787E-1,3.032923E-4,2.8439067E-2,1.5903058E-2,-4.1883137E-2,2.3656637E-4,-1.7775316E-2,2.3656637E-4,4.0975075E-2,-2.8939126E-3,-2.781798E-2,1.2152077E-2,-2.1818439E-2],"split_indices":[1,1,0,1,1,0,0,0,0,0,1,0,0,1,0,0,0,0,0,0,0,0,0,1,1,0,0,0,0,0,0,0,1,0,0,1,0,0,1,0,0,0,0,0,1,0,0,0,0,0,0,0,0,0,0,0,0],"split_type":[0,0,0,0,0,0,0,0,0,0,0,0,0,0,0,0,0,0,0,0,0,0,0,0,0,0,0,0,0,0,0,0,0,0,0,0,0,0,0,0,0,0,0,0,0,0,0,0,0,0,0,0,0,0,0,0,0],"sum_hessian":[7.3E1,2.7E1,4.6E1,6E0,2.1E1,1.1E1,3.5E1,2E0,4E0,1.4E1,7E0,1E0,1E1,2.3E1,1.2E1,2E0,2E0,1.3E1,1E0,2E0,5E0,8E0,2E0,1.3E1,1E1,6E0,6E0,1E0,1E0,1E0,1E0,4E0,4E0,3E0,1E1,9E0,1E0,3E0,3E0,3E0,1E0,1E0,2E0,3E0,6E0,2E0,1E0,1E0,2E0,1E0,2E0,1E0,1E0,1E0,2E0,3E0,3E0],"tree_param":{"num_deleted":"0","num_feature":"2","num_nodes":"57","size_leaf_vector":"0"}},{"base_weights":[-3.7933186E-1,-7.0404464E-1,-1.7781503E-1,-2.5959176E-1,-8.1345946E-1,-5.3522134E-1,-5.3740308E-2,-5.8870047E-2,1.0753188E-1,-9.345555E-1,-4.8472196E-1,2.7372604E-2,-6.5023565E-1,1.5197602E-1,-4.2939043E-1,2.3190556E-2,-1.299876E-1,-7.29766E-2,-1.48513E-2,2.1855296E-1,-5.6667935E-2,-4.1435358E-1,-8.558525E-2,3.2395634E-1,-8.072404E-2,-5.50731E-2,-6.3131355E-2,-1.48513E-2,2.2769497E-4,2.2769497E-4,2.4359515E-2,-5.564069E-2,-3.9606094E-3,-1.9649936E-1,4.837624E-1,-1.6179006E-1,2.7372604E-2,1.853653E-1,-2.9584518E-1,-1.6734752E-1,2.4359515E-2,-6.914111E-2,3.5258847E-1,5.2350074E-1,1.5246999E-2,-2.8284007E-1,-6.950574E-2,2.8812885E-4,2.7372604E-2,1.5306693E-2,-3.978898E-2,2.2769497E-4,-1.688655E-2,2.2769497E-4,3.943851E-2,2.016879E-2,4.544797E-2,-2.7853902E-3,-2.6427083E-2,1.1468522E-2,-2.0591151E-2],"categories":[],"categories_nodes":[],"categories_segments":[],"categories_sizes":[],"default_left":[0,0,0,0,0,0,0,0,0,0,0,0,0,0,0,0,0,0,0,0,0,0,0,0,0,0,0,0,0,0,0,0,0,0,0,0,0,0,0,0,0,0,0,0,0,0,0,0,0,0,0,0,0,0,0,0,0,0,0,0,0],"id":4,"left_children":[1,3,5,7,9,11,13,-1,15,17,19,-1,21,23,25,-1,27,-1,-1,29,-1,31,-1,33,35,-1,37,-1,-1,-1,-1,-1,39,41,43,45,-1,47,49,51,-1,-1,53,55,-1,57,59,-1,-1,-1,-1,-1,-1,-1,-1,-1,-1,-1,-1,-1,-1],"loss_changes":[4.7170067E0,1.150465E0,2.0554562E0,1.4344641E0,4.2279434E-1,1.4797313E0,2.847242E0,0E0,2.7970245E-1,2.322979E-1,1.6889913E0,0E0,8.009081E-1,9.866271E-1,1.405467E0,0E0,2.7749833E-2,0E0,0E0,6.770389E-2,0E0,1.2067771E0,0E0,1.2594666E0,4.5648348E-1,0E0,4.596397E-1,0E0,0E0,0E0,0E0,0E0,3.22924E-1,1.9182386E0,1.6175032E-2,9.205118E-2,0E0,1.2900642E-1,5.7756084E-1,4.0080614E-2,0E0,0E0,1.8009219E-1,2.600789E-2,0E0,5.52395E-2,3.612209E-1,0E0,0E0,0E0,0E0,0E0,0E0,0E0,0E0,0E0,0E0,0E0,0E0,0E0,0E0],"parents":[2147483647,0,0,1,1,2,2,3,3,4,4,5,5,6,6,8,8,9,9,10,10,12,12,13,13,14,14,16,16,19,19,21,21,23,23,24,24,26,26,32,32,33,33,34,34,35,35,37,37,38,38,39,39,42,42,43,43,45,45,46,46],"right_children":[2,4,6,8,10,12,14,-1,16,18,20,-1,22,24,26,-1,28,-1,-1,30,-1,32,-1,34,36,-1,38,-1,-1,-1,-1,-1,40,42,44,46,-1,48,50,52,-1,-1,54,56,-1,58,60,-1,-1,-1,-1,-1,-1,-1,-1,-1,-1,-1,-1,-1,-1],"split_conditions":[3.4366E-1,1.7957E-1,3.7168E-1,1.031E-1,2.9723E-1,2.1951E-1,5.9612E-1,-5.8870047E-2,4.8558E-1,7.4999E-1,2.9888E-1,2.7372604E-2,3.2138E-1,5.0995E-1,6.7971E-1,2.3190556E-2,5.4875E-1,-7.29766E-2,-1.48513E-2,5.4553E-1,-5.6667935E-2,2.9328E-1,-8.558525E-2,3.9201E-1,7.0881E-1,-5.50731E-2,6.9515E-1,-1.48513E-2,2.2769497E-4,2.2769497E-4,2.4359515E-2,-5.564069E-2,6.0802E-1,4.9842E-1,4.9235E-1,5.8305E-1,2.7372604E-2,6.9313E-1,3.9024E-1,2.9531E-1,2.4359515E-2,-6.914111E-2,5.7008E-1,4.3458E-1,1.5246999E-2,3.8449E-1,6.0787E-1,2.8812885E-4,2.7372604E-2,1.5306693E-2,-3.978898E-2,2.2769497E-4,-1.688655E-2,2.2769497E-4,3.943851E-2,2.016879E-2,4.544797E-2,-2.7853902E-3,-2.6427083E-2,1.1468522E-2,-2.0591151E-2],"split_indices":[1,1,0,1,1,0,0,0,0,0,1,0,0,1,0,0,0,0,0,0,0,0,0,1,1,0,0,0,0,0,0,0,1,0,1,1,0,0,1,0,0,0,0,1,0,0,1,0,0,0,0,0,0,0,0,0,0,0,0,0,0],"split_type":[0,0,0,0,0,0,0,0,0,0,0,0,0,0,0,0,0,0,0,0,0,0,0,0,0,0,0,0,0,0,0,0,0,0,0,0,0,0,0,0,0,0,0,0,0,0,0,0,0,0,0,0,0,0,0,0,0,0,0,0,0],"sum_hessian":[7.3E1,2.7E1,4.6E1,6E0,2.1E1,1.1E1,3.5E1,2E0,4E0,1.4E1,7E0,1E0,1E1,2.3E1,1.2E1,2E0,2E0,1.3E1,1E0,2E0,5E0,8E0,2E0,1.3E1,1E1,6E0,6E0,1E0,1E0,1E0,1E0,4E0,4E0,3E0,1E1,9E0,1E0,3E0,3E0,3E0,1E0,1E0,2E0,8E0,2E0,3E0,6E0,2E0,1E0,1E0,2E0,1E0,2E0,1E0,1E0,3E0,5E0,1E0,2E0,3E0,3E0],"tree_param":{"num_deleted":"0","num_feature":"2","num_nodes":"61","size_leaf_vector":"0"}},{"base_weights":[-3.5477158E-1,-6.5732026E-1,-1.6698147E-1,-2.4730854E-1,-7.5790036E-1,-5.039258E-1,-5.0028335E-2,-5.5926543E-2,1.01180375E-1,-8.70319E-1,-4.523779E-1,2.634613E-2,-6.1360663E-1,1.4226228E-1,-4.0117806E-1,2.2031028E-2,-1.2511307E-1,-6.78943E-2,-1.42943775E-2,2.1035723E-1,-5.312619E-2,-3.8860372E-1,-8.1305996E-2,3.033303E-1,-7.566633E-2,-5.153269E-2,-5.7942443E-2,-1.42943775E-2,2.191566E-4,2.191566E-4,2.3446033E-2,-5.2302245E-2,-2.1234273E-3,-1.8913062E-1,4.548315E-1,-1.534893E-1,2.634613E-2,1.7837809E-1,-2.7977735E-1,-1.5896116E-1,2.3446033E-2,-6.654832E-2,3.393664E-1,4.9152896E-1,1.448465E-2,-2.6893017E-1,-6.559605E-2,2.7372243E-4,2.634613E-2,1.47326905E-2,-3.7799533E-2,2.191566E-4,-1.6042221E-2,2.191566E-4,3.795957E-2,1.9034296E-2,4.2607483E-2,-2.6809385E-3,-2.5105726E-2,1.0823417E-2,-1.94329E-2],"categories":[],"categories_nodes":[],"categories_segments":[],"categories_sizes":[],"default_left":[0,0,0,0,0,0,0,0,0,0,0,0,0,0,0,0,0,0,0,0,0,0,0,0,0,0,0,0,0,0,0,0,0,0,0,0,0,0,0,0,0,0,0,0,0,0,0,0,0,0,0,0,0,0,0,0,0,0,0,0,0],"id":5,"left_children":[1,3,5,7,9,11,13,-1,15,17,19,-1,21,23,25,-1,27,-1,-1,29,-1,31,-1,33,35,-1,37,-1,-1,-1,-1,-1,39,41,43,45,-1,47,49,51,-1,-1,53,55,-1,57,59,-1,-1,-1,-1,-1,-1,-1,-1,-1,-1,-1,-1,-1,-1],"loss_changes":[4.094599E0,9.6725655E-1,1.8269043E0,1.2912049E0,3.6190796E-1,1.341147E0,2.487893E0,0E0,2.5463444E-1,1.8369198E-1,1.5061357E0,0E0,7.431588E-1,8.6538386E-1,1.2360008E0,0E0,2.5707621E-2,0E0,0E0,6.27213E-2,0E0,1.0724846E0,0E0,1.1305406E0,4.1940802E-1,0E0,4.1687518E-1,0E0,0E0,0E0,0E0,0E0,2.965068E-1,1.7770683E0,1.0713816E-2,8.3823994E-2,0E0,1.195627E-1,5.261016E-1,3.619732E-2,0E0,0E0,1.6683859E-1,1.9655943E-2,0E0,4.9420387E-2,3.2172647E-1,0E0,0E0,0E0,0E0,0E0,0E0,0E0,0E0,0E0,0E0,0E0,0E0,0E0,0E0],"parents":[2147483647,0,0,1,1,2,2,3,3,4,4,5,5,6,6,8,8,9,9,10,10,12,12,13,13,14,14,16,16,19,19,21,21,23,23,24,24,26,26,32,32,33,33,34,34,35,35,37,37,38,38,39,39,42,42,43,43,45,45,46,46],"right_children":[2,4,6,8,10,12,14,-1,16,18,20,-1,22,24,26,-1,28,-1,-1,30,-1,32,-1,34,36,-1,38,-1,-1,-1,-1,-1,40,42,44,46,-1,48,50,52,-1,-1,54,56,-1,58,60,-1,-1,-1,-1,-1,-1,-1,-1,-1,-1,-1,-1,-1,-1],"split_conditions":[3.4366E-1,1.7957E-1,3.7168E-1,1.031E-1,2.9723E-1,2.1951E-1,5.9612E-1,-5.5926543E-2,4.8558E-1,7.4999E-1,2.9888E-1,2.634613E-2,3.2138E-1,5.0995E-1,6.7971E-1,2.2031028E-2,5.4875E-1,-6.78943E-2,-1.42943775E-2,5.4553E-1,-5.312619E-2,2.9328E-1,-8.1305996E-2,3.9201E-1,7.0881E-1,-5.153269E-2,6.9515E-1,-1.42943775E-2,2.191566E-4,2.191566E-4,2.3446033E-2,-5.2302245E-2,6.0802E-1,4.9842E-1,4.9235E-1,5.8305E-1,2.634613E-2,6.9313E-1,3.9024E-1,2.9531E-1,2.3446033E-2,-6.654832E-2,5.7008E-1,4.3458E-1,1.448465E-2,3.8449E-1,6.0787E-1,2.7372243E-4,2.634613E-2,1.47326905E-2,-3.7799533E-2,2.191566E-4,-1.6042221E-2,2.191566E-4,3.795957E-2,1.9034296E-2,4.2607483E-2,-2.6809385E-3,-2.5105726E-2,1.0823417E-2,-1.94329E-2],"split_indices":[1,1,0,1,1,0,0,0,0,0,1,0,0,1,0,0,0,0,0,0,0,0,0,1,1,0,0,0,0,0,0,0,1,0,1,1,0,0,1,0,0,0,0,1,0,0,1,0,0,0,0,0,0,0,0,0,0,0,0,0,0],"split_type":[0,0,0,0,0,0,0,0,0,0,0,0,0,0,0,0,0,0,0,0,0,0,0,0,0,0,0,0,0,0,0,0,0,0,0,0,0,0,0,0,0,0,0,0,0,0,0,0,0,0,0,0,0,0,0,0,0,0,0,0,0],"sum_hessian":[7.3E1,2.7E1,4.6E1,6E0,2.1E1,1.1E1,3.5E1,2E0,4E0,1.4E1,7E0,1E0,1E1,2.3E1,1.2E1,2E0,2E0,1.3E1,1E0,2E0,5E0,8E0,2E0,1.3E1,1E1,6E0,6E0,1E0,1E0,1E0,1E0,4E0,4E0,3E0,1E1,9E0,1E0,3E0,3E0,3E0,1E0,1E0,2E0,8E0,2E0,3E0,6E0,2E0,1E0,1E0,2E0,1E0,2E0,1E0,1E0,3E0,5E0,1E0,2E0,3E0,3E0],"tree_param":{"num_deleted":"0","num_feature":"2","num_nodes":"61","size_leaf_vector":"0"}},{"base_weights":[-3.3180606E-1,-6.13722E-1,-1.5679644E-1,-2.3561335E-1,-7.061328E-1,-4.744346E-1,-4.656158E-2,-5.3130213E-2,9.5183015E-2,-8.1052434E-1,-4.2213216E-1,2.535815E-2,-5.7903934E-1,1.331637E-1,-3.7478045E-1,2.0929476E-2,-1.2042133E-1,-7.218171E-2,-4.9943718E-1,2.0246883E-1,-4.9805798E-2,-3.644228E-1,-7.724069E-2,2.839917E-1,-7.0905E-2,-6.4293164E-1,-5.3089183E-2,-1.3758338E-2,2.1093787E-4,3.2761242E-2,-7.282822E-1,2.1093787E-4,2.2566807E-2,-4.9164116E-2,-4.3957232E-4,-1.8203825E-1,4.2763972E-1,-1.4561723E-1,2.535815E-2,-5.156504E-2,-1.4074443E-2,1.716547E-1,-2.6456076E-1,-6.004207E-2,-1.3758338E-2,-1.5099484E-1,2.2566807E-2,-6.405276E-2,3.2664016E-1,4.6151334E-1,1.3760418E-2,-2.557071E-1,-6.1906278E-2,2.600372E-4,2.535815E-2,1.4180214E-2,-3.5909556E-2,2.1093787E-4,-1.52401095E-2,2.1093787E-4,3.6536083E-2,1.7963616E-2,3.9944507E-2,-2.5804036E-3,-2.3850441E-2,1.02146E-2,-1.83398E-2],"categories":[],"categories_nodes":[],"categories_segments":[],"categories_sizes":[],"default_left":[0,0,0,0,0,0,0,0,0,0,0,0,0,0,0,0,0,0,0,0,0,0,0,0,0,0,0,0,0,0,0,0,0,0,0,0,0,0,0,0,0,0,0,0,0,0,0,0,0,0,0,0,0,0,0,0,0,0,0,0,0,0,0,0,0,0,0],"id":6,"left_children":[1,3,5,7,9,11,13,-1,15,17,19,-1,21,23,25,-1,27,-1,29,31,-1,33,-1,35,37,39,41,-1,-1,-1,43,-1,-1,-1,45,47,49,51,-1,-1,-1,53,55,-1,-1,57,-1,-1,59,61,-1,63,65,-1,-1,-1,-1,-1,-1,-1,-1,-1,-1,-1,-1,-1,-1],"loss_changes":[3.5547829E0,8.119831E-1,1.623605E0,1.1622071E0,3.1009197E-1,1.2157288E0,2.1735194E0,0E0,2.318278E-1,2.2813416E-1,1.3434083E0,0E0,6.8901634E-1,7.5883913E-1,1.0872719E0,0E0,2.3815695E-2,0E0,1.817925E0,5.8105417E-2,0E0,9.5330703E-1,0E0,1.0150665E0,3.8537598E-1,1.312089E-2,3.7810174E-1,0E0,0E0,0E0,8.9422226E-2,0E0,0E0,0E0,2.7226728E-1,1.6462872E0,6.304264E-3,7.632741E-2,0E0,0E0,0E0,1.1080964E-1,4.7925618E-1,0E0,0E0,3.269054E-2,0E0,0E0,1.545603E-1,1.4453173E-2,0E0,4.4206172E-2,2.865502E-1,0E0,0E0,0E0,0E0,0E0,0E0,0E0,0E0,0E0,0E0,0E0,0E0,0E0,0E0],"parents":[2147483647,0,0,1,1,2,2,3,3,4,4,5,5,6,6,8,8,9,9,10,10,12,12,13,13,14,14,16,16,18,18,19,19,21,21,23,23,24,24,25,25,26,26,30,30,34,34,35,35,36,36,37,37,41,41,42,42,45,45,48,48,49,49,51,51,52,52],"right_children":[2,4,6,8,10,12,14,-1,16,18,20,-1,22,24,26,-1,28,-1,30,32,-1,34,-1,36,38,40,42,-1,-1,-1,44,-1,-1,-1,46,48,50,52,-1,-1,-1,54,56,-1,-1,58,-1,-1,60,62,-1,64,66,-1,-1,-1,-1,-1,-1,-1,-1,-1,-1,-1,-1,-1,-1],"split_conditions":[3.4366E-1,1.7957E-1,3.7168E-1,1.031E-1,2.9723E-1,2.1951E-1,5.9612E-1,-5.3130213E-2,4.8558E-1,5.6478E-1,2.9888E-1,2.535815E-2,3.2138E-1,5.0995E-1,6.7971E-1,2.0929476E-2,5.4875E-1,-7.218171E-2,6.3497E-1,5.4553E-1,-4.9805798E-2,2.9328E-1,-7.724069E-2,3.9201E-1,7.0881E-1,5.7236E-1,6.9515E-1,-1.3758338E-2,2.1093787E-4,3.2761242E-2,7.4999E-1,2.1093787E-4,2.2566807E-2,-4.9164116E-2,6.0802E-1,4.9842E-1,4.9235E-1,5.8305E-1,2.535815E-2,-5.156504E-2,-1.4074443E-2,6.9313E-1,3.9024E-1,-6.004207E-2,-1.3758338E-2,2.9531E-1,2.2566807E-2,-6.405276E-2,5.7008E-1,4.3458E-1,1.3760418E-2,3.8449E-1,6.0787E-1,2.600372E-4,2.535815E-2,1.4180214E-2,-3.5909556E-2,2.1093787E-4,-1.52401095E-2,2.1093787E-4,3.6536083E-2,1.7963616E-2,3.9944507E-2,-2.5804036E-3,-2.3850441E-2,1.02146E-2,-1.83398E-2],"split_indices":[1,1,0,1,1,0,0,0,0,0,1,0,0,1,0,0,0,0,0,0,0,0,0,1,1,1,0,0,0,0,0,0,0,0,1,0,1,1,0,0,0,0,1,0,0,0,0,0,0,1,0,0,1,0,0,0,0,0,0,0,0,0,0,0,0,0,0],"split_type":[0,0,0,0,0,0,0,0,0,0,0,0,0,0,0,0,0,0,0,0,0,0,0,0,0,0,0,0,0,0,0,0,0,0,0,0,0,0,0,0,0,0,0,0,0,0,0,0,0,0,0,0,0,0,0,0,0,0,0,0,0,0,0,0,0,0,0],"sum_hessian":[7.3E1,2.7E1,4.6E1,6E0,2.1E1,1.1E1,3.5E1,2E0,4E0,1.4E1,7E0,1E0,1E1,2.3E1,1.2E1,2E0,2E0,8E0,6E0,2E0,5E0,8E0,2E0,1.3E1,1E1,6E0,6E0,1E0,1E0,1E0,5E0,1E0,1E0,4E0,4E0,3E0,1E1,9E0,1E0,5E0,1E0,3E0,3E0,4E0,1E0,3E0,1E0,1E0,2E0,8E0,2E0,3E0,6E0,2E0,1E0,1E0,2E0,1E0,2E0,1E0,1E0,3E0,5E0,1E0,2E0,3E0,3E0],"tree_param":{"num_deleted":"0","num_feature":"2","num_nodes":"67","size_leaf_vector":"0"}},{"base_weights":[-3.1105697E-1,-5.743356E-1,-1.475919E-1,-2.244778E-1,-6.595478E-1,-4.4664446E-1,-4.3807954E-2,-6.729827E-1,8.9520715E-2,-7.572831E-1,-3.9385077E-1,2.4407221E-2,-5.464175E-1,1.24641635E-1,-3.5142195E-1,-1.5011236E-2,-6.069932E-2,1.9883003E-2,-1.1590552E-1,-8.9826125E-1,-4.6784213E-1,1.9487625E-1,-4.6692938E-2,-3.4171626E-1,-7.337866E-2,2.658611E-1,-6.64233E-2,-6.0408884E-1,-4.8551954E-2,-1.3242399E-2,2.0302758E-4,-5.863468E-1,-8.561757E-2,3.1532697E-2,-6.859611E-1,2.0302758E-4,2.1720551E-2,-4.6214268E-2,1.1009246E-3,-1.752118E-1,4.0208206E-1,-1.3815154E-1,2.4407221E-2,-4.8342224E-2,-1.3546651E-2,1.6518514E-1,-2.5015107E-1,-5.574399E-2,-1.8168937E-1,-5.6439545E-2,-1.3242399E-2,-1.4342752E-1,2.1720551E-2,-6.165078E-2,3.1439117E-1,4.3333408E-1,1.30723985E-2,-7.108996E-2,-2.0319896E-2,2.4703445E-4,2.4407221E-2,1.3648455E-2,-3.4114078E-2,3.8390614E-3,-2.4279116E-2,2.0302758E-4,-1.4478104E-2,2.0302758E-4,3.516598E-2,1.6953165E-2,3.7447974E-2,-1.3993992E-2,1.3769989E-2],"categories":[],"categories_nodes":[],"categories_segments":[],"categories_sizes":[],"default_left":[0,0,0,0,0,0,0,0,0,0,0,0,0,0,0,0,0,0,0,0,0,0,0,0,0,0,0,0,0,0,0,0,0,0,0,0,0,0,0,0,0,0,0,0,0,0,0,0,0,0,0,0,0,0,0,0,0,0,0,0,0,0,0,0,0,0,0,0,0,0,0,0,0],"id":7,"left_children":[1,3,5,7,9,11,13,15,17,19,21,-1,23,25,27,-1,-1,-1,29,31,33,35,-1,37,-1,39,41,43,45,-1,-1,47,-1,-1,49,-1,-1,-1,51,53,55,57,-1,-1,-1,59,61,-1,63,-1,-1,65,-1,-1,67,69,-1,71,-1,-1,-1,-1,-1,-1,-1,-1,-1,-1,-1,-1,-1,-1,-1],"loss_changes":[3.0999608E0,6.8668556E-1,1.4391657E0,1.046055E0,2.7303886E-1,1.1022065E0,1.9092301E0,3.141427E-2,2.1107718E-1,1.9182873E-1,1.1985618E0,0E0,6.3833165E-1,6.6522944E-1,9.65498E-1,0E0,0E0,0E0,2.2063006E-2,1.3661861E-2,1.6446548E0,5.382923E-2,0E0,8.4752786E-1,0E0,9.116167E-1,3.5413474E-1,3.5541058E-3,3.4294572E-1,0E0,0E0,2.4591875E-1,0E0,0E0,7.058072E-2,0E0,0E0,0E0,2.500246E-1,1.5251307E0,2.7760267E-3,6.978409E-2,0E0,0E0,0E0,1.0269685E-1,4.3660817E-1,0E0,1.15798496E-1,0E0,0E0,2.952376E-2,0E0,0E0,1.4318562E-1,1.0215402E-2,0E0,2.6958367E-1,0E0,0E0,0E0,0E0,0E0,0E0,0E0,0E0,0E0,0E0,0E0,0E0,0E0,0E0,0E0],"parents":[2147483647,0,0,1,1,2,2,3,3,4,4,5,5,6,6,7,7,8,8,9,9,10,10,12,12,13,13,14,14,18,18,19,19,20,20,21,21,23,23,25,25,26,26,27,27,28,28,31,31,34,34,38,38,39,39,40,40,41,41,45,45,46,46,48,48,51,51,54,54,55,55,57,57],"right_children":[2,4,6,8,10,12,14,16,18,20,22,-1,24,26,28,-1,-1,-1,30,32,34,36,-1,38,-1,40,42,44,46,-1,-1,48,-1,-1,50,-1,-1,-1,52,54,56,58,-1,-1,-1,60,62,-1,64,-1,-1,66,-1,-1,68,70,-1,72,-1,-1,-1,-1,-1,-1,-1,-1,-1,-1,-1,-1,-1,-1,-1],"split_conditions":[3.4366E-1,1.7957E-1,3.7168E-1,1.031E-1,2.9723E-1,2.1951E-1,5.9612E-1,5.0468E-1,4.8558E-1,5.6478E-1,2.9888E-1,2.4407221E-2,3.2138E-1,5.0995E-1,6.7971E-1,-1.5011236E-2,-6.069932E-2,1.9883003E-2,5.4875E-1,5.0638E-1,6.3497E-1,5.4553E-1,-4.6692938E-2,2.9328E-1,-7.337866E-2,3.9201E-1,7.0881E-1,5.7236E-1,6.9515E-1,-1.3242399E-2,2.0302758E-4,3.3036E-1,-8.561757E-2,3.1532697E-2,7.4999E-1,2.0302758E-4,2.1720551E-2,-4.6214268E-2,6.0802E-1,4.9842E-1,4.9235E-1,4.9209E-1,2.4407221E-2,-4.8342224E-2,-1.3546651E-2,6.9313E-1,3.9024E-1,-5.574399E-2,4.7568E-1,-5.6439545E-2,-1.3242399E-2,2.9531E-1,2.1720551E-2,-6.165078E-2,5.7008E-1,4.3458E-1,1.30723985E-2,4.732E-1,-2.0319896E-2,2.4703445E-4,2.4407221E-2,1.3648455E-2,-3.4114078E-2,3.8390614E-3,-2.4279116E-2,2.0302758E-4,-1.4478104E-2,2.0302758E-4,3.516598E-2,1.6953165E-2,3.7447974E-2,-1.3993992E-2,1.3769989E-2],"split_indices":[1,1,0,1,1,0,0,0,0,0,1,0,0,1,0,0,0,0,0,0,0,0,0,0,0,1,1,1,0,0,0,0,0,0,0,0,0,0,1,0,1,0,0,0,0,0,1,0,0,0,0,0,0,0,0,1,0,0,0,0,0,0,0,0,0,0,0,0,0,0,0,0,0],"split_type":[0,0,0,0,0,0,0,0,0,0,0,0,0,0,0,0,0,0,0,0,0,0,0,0,0,0,0,0,0,0,0,0,0,0,0,0,0,0,0,0,0,0,0,0,0,0,0,0,0,0,0,0,0,0,0,0,0,0,0,0,0,0,0,0,0,0,0,0,0,0,0,0,0],"sum_hessian":[7.3E1,2.7E1,4.6E1,6E0,2.1E1,1.1E1,3.5E1,2E0,4E0,1.4E1,7E0,1E0,1E1,2.3E1,1.2E1,1E0,1E0,2E0,2E0,8E0,6E0,2E0,5E0,8E0,2E0,1.3E1,1E1,6E0,6E0,1E0,1E0,5E0,3E0,1E0,5E0,1E0,1E0,4E0,4E0,3E0,1E1,9E0,1E0,5E0,1E0,3E0,3E0,3E0,2E0,4E0,1E0,3E0,1E0,1E0,2E0,8E0,2E0,7E0,2E0,2E0,1E0,1E0,2E0,1E0,1E0,1E0,2E0,1E0,1E0,3E0,5E0,5E0,2E0],"tree_param":{"num_deleted":"0","num_feature":"2","num_nodes":"73","size_leaf_vector":"0"}},{"base_weights":[-2.9305166E-1,-5.4174566E-1,-1.3865837E-1,-2.1748008E-1,-6.202963E-1,-4.2045778E-1,-4.0873613E-2,-6.4774585E-1,8.417539E-2,-7.138169E-1,-3.6740813E-1,2.349195E-2,-5.156314E-1,1.171708E-1,-3.2950377E-1,-1.4448314E-2,-5.84231E-2,1.8888857E-2,-1.1155907E-1,-8.488696E-1,-4.3820387E-1,1.8756841E-1,-4.3774627E-2,-3.2039517E-1,-6.970972E-2,2.4886379E-1,-6.1090346E-2,-4.257176E-2,-4.431218E-2,-1.2745811E-2,1.9541458E-4,-5.5506814E-1,-8.0801584E-2,3.035022E-2,-6.461277E-1,1.9541458E-4,2.0906031E-2,-4.3441407E-2,2.507457E-3,-1.6864136E-1,2.835449E-2,-1.2984458E-1,2.349195E-2,1.589598E-1,-2.3650612E-1,-5.2608393E-2,-1.74876E-1,-2.547205E-2,-6.295643E-2,-1.3623922E-1,2.0906031E-2,-5.9338875E-2,3.026015E-1,-2.310598E-1,-5.3458076E-2,2.3468137E-4,2.349195E-2,1.3136637E-2,-3.240837E-2,3.6950966E-3,-2.336865E-2,1.9541458E-4,-1.3754198E-2,1.9541458E-4,3.3847254E-2,-1.9588643E-3,-2.1800073E-2,1.0025225E-2,-1.7041598E-2],"categories":[],"categories_nodes":[],"categories_segments":[],"categories_sizes":[],"default_left":[0,0,0,0,0,0,0,0,0,0,0,0,0,0,0,0,0,0,0,0,0,0,0,0,0,0,0,0,0,0,0,0,0,0,0,0,0,0,0,0,0,0,0,0,0,0,0,0,0,0,0,0,0,0,0,0,0,0,0,0,0,0,0,0,0,0,0,0,0],"id":8,"left_children":[1,3,5,7,9,11,13,15,17,19,21,-1,23,25,27,-1,-1,-1,29,31,33,35,-1,37,-1,39,41,-1,43,-1,-1,45,-1,-1,47,-1,-1,-1,49,51,-1,53,-1,55,57,-1,59,-1,-1,61,-1,-1,63,65,67,-1,-1,-1,-1,-1,-1,-1,-1,-1,-1,-1,-1,-1,-1],"loss_changes":[2.7662373E0,5.7829285E-1,1.2779316E0,9.630685E-1,2.5804424E-1,9.9943733E-1,1.6807982E0,2.9102206E-2,1.9219619E-1,1.8635654E-1,1.0696018E0,0E0,5.909486E-1,5.7862103E-1,8.5767376E-1,0E0,0E0,0E0,2.043932E-2,6.157398E-3,1.4882426E0,4.9867727E-2,0E0,7.5362575E-1,0E0,8.189168E-1,3.2376483E-1,0E0,3.1106848E-1,0E0,0E0,2.1124244E-1,0E0,0E0,7.0373535E-2,0E0,0E0,0E0,2.2961293E-1,1.4128907E0,0E0,6.496276E-2,0E0,9.517753E-2,3.9777935E-1,0E0,1.0727645E-1,0E0,0E0,2.6663996E-2,0E0,0E0,1.3264805E-1,4.127279E-2,2.57984E-1,0E0,0E0,0E0,0E0,0E0,0E0,0E0,0E0,0E0,0E0,0E0,0E0,0E0,0E0],"parents":[2147483647,0,0,1,1,2,2,3,3,4,4,5,5,6,6,7,7,8,8,9,9,10,10,12,12,13,13,14,14,18,18,19,19,20,20,21,21,23,23,25,25,26,26,28,28,31,31,34,34,38,38,39,39,41,41,43,43,44,44,46,46,49,49,52,52,53,53,54,54],"right_children":[2,4,6,8,10,12,14,16,18,20,22,-1,24,26,28,-1,-1,-1,30,32,34,36,-1,38,-1,40,42,-1,44,-1,-1,46,-1,-1,48,-1,-1,-1,50,52,-1,54,-1,56,58,-1,60,-1,-1,62,-1,-1,64,66,68,-1,-1,-1,-1,-1,-1,-1,-1,-1,-1,-1,-1,-1,-1],"split_conditions":[3.4366E-1,1.7957E-1,3.7168E-1,1.031E-1,2.9723E-1,2.1951E-1,5.9612E-1,5.0468E-1,4.8558E-1,5.6478E-1,2.9888E-1,2.349195E-2,3.2138E-1,5.0995E-1,6.7971E-1,-1.4448314E-2,-5.84231E-2,1.8888857E-2,5.4875E-1,5.0638E-1,6.3497E-1,5.4553E-1,-4.3774627E-2,2.9328E-1,-6.970972E-2,3.9201E-1,7.0881E-1,-4.257176E-2,6.9515E-1,-1.2745811E-2,1.9541458E-4,3.3036E-1,-8.0801584E-2,3.035022E-2,2.5566E-1,1.9541458E-4,2.0906031E-2,-4.3441407E-2,6.0802E-1,4.9842E-1,2.835449E-2,5.8305E-1,2.349195E-2,6.9313E-1,3.9024E-1,-5.2608393E-2,4.7568E-1,-2.547205E-2,-6.295643E-2,2.9531E-1,2.0906031E-2,-5.9338875E-2,5.7008E-1,3.8449E-1,6.0787E-1,2.3468137E-4,2.349195E-2,1.3136637E-2,-3.240837E-2,3.6950966E-3,-2.336865E-2,1.9541458E-4,-1.3754198E-2,1.9541458E-4,3.3847254E-2,-1.9588643E-3,-2.1800073E-2,1.0025225E-2,-1.7041598E-2],"split_indices":[1,1,0,1,1,0,0,0,0,0,1,0,0,1,0,0,0,0,0,0,0,0,0,0,0,1,1,0,0,0,0,0,0,0,1,0,0,0,1,0,0,1,0,0,1,0,0,0,0,0,0,0,0,0,1,0,0,0,0,0,0,0,0,0,0,0,0,0,0],"split_type":[0,0,0,0,0,0,0,0,0,0,0,0,0,0,0,0,0,0,0,0,0,0,0,0,0,0,0,0,0,0,0,0,0,0,0,0,0,0,0,0,0,0,0,0,0,0,0,0,0,0,0,0,0,0,0,0,0,0,0,0,0,0,0,0,0,0,0,0,0],"sum_hessian":[7.3E1,2.7E1,4.6E1,6E0,2.1E1,1.1E1,3.5E1,2E0,4E0,1.4E1,7E0,1E0,1E1,2.3E1,1.2E1,1E0,1E0,2E0,2E0,8E0,6E0,2E0,5E0,8E0,2E0,1.3E1,1E1,6E0,6E0,1E0,1E0,5E0,3E0,1E0,5E0,1E0,1E0,4E0,4E0,3E0,1E1,9E0,1E0,3E0,3E0,3E0,2E0,3E0,2E0,3E0,1E0,1E0,2E0,3E0,6E0,2E0,1E0,1E0,2E0,1E0,1E0,1E0,2E0,1E0,1E0,1E0,2E0,3E0,3E0],"tree_param":{"num_deleted":"0","num_feature":"2","num_nodes":"69","size_leaf_vector":"0"}},{"base_weights":[-2.768163E-1,-5.118422E-1,-1.309112E-1,-2.1067376E-1,-5.844029E-1,-3.9578277E-1,-3.8984247E-2,-6.2345535E-1,7.9129934E-2,-6.7435807E-1,-3.4268665E-1,2.2611E-2,-4.8657757E-1,1.0820696E-1,-3.0772308E-1,-1.3906502E-2,-5.623223E-2,1.7944414E-2,-1.0737562E-1,-8.0221367E-1,-4.1363546E-1,1.8053459E-1,-4.1038714E-2,-3.00376E-1,-6.622423E-2,2.3041748E-1,-5.7170693E-2,-5.3113335E-1,-4.0352352E-2,-1.2267844E-2,1.8808544E-4,-5.25485E-1,-7.625649E-2,2.9212087E-2,-6.124062E-1,1.8808544E-4,2.0122055E-2,-5.4446566E-1,3.7888377E-3,-1.623173E-1,3.5228306E-1,-1.23183765E-1,2.2611E-2,-5.688013E-1,-1.14422105E-2,1.5296948E-1,-2.235861E-1,-4.9649168E-2,-1.6831815E-1,-2.4039246E-2,-5.9808604E-2,-1.2344399E-2,-4.4871457E-2,-1.2941098E-1,2.0122055E-2,-5.7113666E-2,2.9125392E-1,3.8167462E-1,1.1001057E-2,-5.8932066E-2,-1.9009529E-2,-1.2242298E-2,-4.6295196E-2,2.229482E-4,2.2611E-2,1.2644014E-2,-3.0787954E-2,3.5565305E-3,-2.2492323E-2,1.8808544E-4,-1.3066489E-2,1.8808544E-4,3.2577984E-2,1.440461E-2,3.333532E-2,-1.2521656E-2,1.32569E-2],"categories":[],"categories_nodes":[],"categories_segments":[],"categories_sizes":[],"default_left":[0,0,0,0,0,0,0,0,0,0,0,0,0,0,0,0,0,0,0,0,0,0,0,0,0,0,0,0,0,0,0,0,0,0,0,0,0,0,0,0,0,0,0,0,0,0,0,0,0,0,0,0,0,0,0,0,0,0,0,0,0,0,0,0,0,0,0,0,0,0,0,0,0,0,0,0,0],"id":9,"left_children":[1,3,5,7,9,11,13,15,17,19,21,-1,23,25,27,-1,-1,-1,29,31,33,35,-1,37,-1,39,41,43,45,-1,-1,47,-1,-1,49,-1,-1,51,53,55,57,59,-1,61,-1,63,65,-1,67,-1,-1,-1,-1,69,-1,-1,71,73,-1,75,-1,-1,-1,-1,-1,-1,-1,-1,-1,-1,-1,-1,-1,-1,-1,-1,-1],"loss_changes":[2.470564E0,4.887662E-1,1.1289661E0,8.867134E-1,2.4726582E-1,9.063872E-1,1.4573134E0,2.6960611E-2,1.7501524E-1,1.6819859E-1,9.5475936E-1,0E0,5.4670954E-1,4.9823442E-1,7.551012E-1,0E0,0E0,0E0,1.8935107E-2,3.4809113E-5,1.3560001E0,4.6197787E-2,0E0,6.702543E-1,0E0,7.272336E-1,2.9756936E-1,1.3041973E-2,2.8216344E-1,0E0,0E0,1.8110323E-1,0E0,0E0,6.846261E-2,0E0,0E0,3.7516356E-3,2.1088044E-1,1.3089106E0,1.0488272E-2,6.8767995E-2,0E0,1.7185926E-2,0E0,8.820823E-2,3.6242568E-1,0E0,9.938158E-2,0E0,0E0,0E0,0E0,2.4081431E-2,0E0,0E0,1.22886E-1,2.1797419E-2,0E0,2.3319164E-1,0E0,0E0,0E0,0E0,0E0,0E0,0E0,0E0,0E0,0E0,0E0,0E0,0E0,0E0,0E0,0E0,0E0],"parents":[2147483647,0,0,1,1,2,2,3,3,4,4,5,5,6,6,7,7,8,8,9,9,10,10,12,12,13,13,14,14,18,18,19,19,20,20,21,21,23,23,25,25,26,26,27,27,28,28,31,31,34,34,37,37,38,38,39,39,40,40,41,41,43,43,45,45,46,46,48,48,53,53,56,56,57,57,59,59],"right_children":[2,4,6,8,10,12,14,16,18,20,22,-1,24,26,28,-1,-1,-1,30,32,34,36,-1,38,-1,40,42,44,46,-1,-1,48,-1,-1,50,-1,-1,52,54,56,58,60,-1,62,-1,64,66,-1,68,-1,-1,-1,-1,70,-1,-1,72,74,-1,76,-1,-1,-1,-1,-1,-1,-1,-1,-1,-1,-1,-1,-1,-1,-1,-1,-1],"split_conditions":[3.4366E-1,1.7957E-1,3.7168E-1,1.031E-1,2.9723E-1,2.1951E-1,5.9612E-1,5.0468E-1,4.8558E-1,5.6478E-1,2.9888E-1,2.2611E-2,3.2138E-1,5.0995E-1,6.7971E-1,-1.3906502E-2,-5.623223E-2,1.7944414E-2,5.4875E-1,5.0638E-1,6.3497E-1,5.4553E-1,-4.1038714E-2,2.9328E-1,-6.622423E-2,3.9201E-1,7.0881E-1,5.7236E-1,6.9515E-1,-1.2267844E-2,1.8808544E-4,3.3036E-1,-7.625649E-2,2.9212087E-2,2.5566E-1,1.8808544E-4,2.0122055E-2,2.278E-1,6.0802E-1,4.9842E-1,4.9235E-1,4.9209E-1,2.2611E-2,4.0024E-1,-1.14422105E-2,6.9313E-1,3.9024E-1,-4.9649168E-2,4.7568E-1,-2.4039246E-2,-5.9808604E-2,-1.2344399E-2,-4.4871457E-2,2.9531E-1,2.0122055E-2,-5.7113666E-2,5.7008E-1,4.3458E-1,1.1001057E-2,4.732E-1,-1.9009529E-2,-1.2242298E-2,-4.6295196E-2,2.229482E-4,2.2611E-2,1.2644014E-2,-3.0787954E-2,3.5565305E-3,-2.2492323E-2,1.8808544E-4,-1.3066489E-2,1.8808544E-4,3.2577984E-2,1.440461E-2,3.333532E-2,-1.2521656E-2,1.32569E-2],"split_indices":[1,1,0,1,1,0,0,0,0,0,1,0,0,1,0,0,0,0,0,0,0,0,0,0,0,1,1,1,0,0,0,0,0,0,1,0,0,0,1,0,1,0,0,1,0,0,1,0,0,0,0,0,0,0,0,0,0,1,0,0,0,0,0,0,0,0,0,0,0,0,0,0,0,0,0,0,0],"split_type":[0,0,0,0,0,0,0,0,0,0,0,0,0,0,0,0,0,0,0,0,0,0,0,0,0,0,0,0,0,0,0,0,0,0,0,0,0,0,0,0,0,0,0,0,0,0,0,0,0,0,0,0,0,0,0,0,0,0,0,0,0,0,0,0,0,0,0,0,0,0,0,0,0,0,0,0,0],"sum_hessian":[7.3E1,2.7E1,4.6E1,6E0,2.1E1,1.1E1,3.5E1,2E0,4E0,1.4E1,7E0,1E0,1E1,2.3E1,1.2E1,1E0,1E0,2E0,2E0,8E0,6E0,2E0,5E0,8E0,2E0,1.3E1,1E1,6E0,6E0,1E0,1E0,5E0,3E0,1E0,5E0,1E0,1E0,4E0,4E0,3E0,1E1,9E0,1E0,5E0,1E0,3E0,3E0,3E0,2E0,3E0,2E0,1E0,3E0,3E0,1E0,1E0,2E0,8E0,2E0,7E0,2E0,1E0,4E0,2E0,1E0,1E0,2E0,1E0,1E0,1E0,2E0,1E0,1E0,3E0,5E0,5E0,2E0],"tree_param":{"num_deleted":"0","num_feature":"2","num_nodes":"77","size_leaf_vector":"0"}},{"base_weights":[-2.61523E-1,-4.83614E-1,-1.23649135E-1,-2.0405523E-1,-5.5058205E-1,-3.7389785E-1,-3.6798198E-2,-6.000758E-1,7.4368134E-2,-6.370797E-1,-3.1957623E-1,2.1763086E-2,-4.6064755E-1,1.01705186E-1,-2.8966612E-1,-1.3385008E-2,-5.412352E-2,1.7047195E-2,-1.0334903E-1,-5.686059E-2,-3.904179E-1,1.7376453E-1,-3.8473796E-2,-2.8340027E-1,-6.291302E-2,-2.1829685E-2,2.4968547E-1,-5.0129545E-1,-3.665592E-2,-1.18077975E-2,1.8103124E-4,2.8116632E-2,-5.8045036E-1,1.8103124E-4,1.9367479E-2,-5.150739E-1,4.9534114E-3,1.2999743E-1,-4.663962E-2,3.6106914E-1,-3.5503283E-2,-5.358975E-1,-1.1013127E-2,1.4720526E-1,-2.1135312E-1,-2.2687037E-2,-5.6818176E-2,-1.7369347E-2,-4.7014892E-2,-1.2292476E-1,1.9367479E-2,3.437104E-2,-3.0350313E-2,1.3789676E-1,4.6739322E-1,2.1763086E-2,-2.4078737E-1,-1.1783211E-2,-4.351749E-2,2.1180212E-4,2.1763086E-2,1.2169865E-2,-2.9248556E-2,1.8103124E-4,-1.2413164E-2,7.160265E-3,-1.5862012E-2,-7.114528E-3,3.135631E-2,3.9021287E-2,9.593663E-3,-2.1730628E-2,-5.357952E-3],"categories":[],"categories_nodes":[],"categories_segments":[],"categories_sizes":[],"default_left":[0,0,0,0,0,0,0,0,0,0,0,0,0,0,0,0,0,0,0,0,0,0,0,0,0,0,0,0,0,0,0,0,0,0,0,0,0,0,0,0,0,0,0,0,0,0,0,0,0,0,0,0,0,0,0,0,0,0,0,0,0,0,0,0,0,0,0,0,0,0,0,0,0],"id":10,"left_children":[1,3,5,7,9,11,13,15,17,19,21,-1,23,25,27,-1,-1,-1,29,-1,31,33,-1,35,-1,37,39,41,43,-1,-1,-1,45,-1,-1,47,49,51,-1,53,55,57,-1,59,61,-1,-1,-1,-1,63,-1,-1,65,67,69,-1,71,-1,-1,-1,-1,-1,-1,-1,-1,-1,-1,-1,-1,-1,-1,-1,-1],"loss_changes":[2.2061214E0,4.1185284E-1,1.007755E0,8.164561E-1,2.3599672E-1,8.249651E-1,1.2902907E0,2.4976492E-2,1.5938027E-1,1.5192604E-1,8.524657E-1,0E0,4.9964237E-1,4.4418794E-1,6.777016E-1,0E0,0E0,0E0,1.7541591E-2,0E0,1.2356353E0,4.279793E-2,0E0,6.037868E-1,0E0,1.3562559E0,3.622383E-1,7.161498E-3,2.5595254E-1,0E0,0E0,0E0,6.623697E-2,0E0,0E0,1.32780075E-2,1.9368792E-1,6.455824E-1,0E0,1.2537682E-1,3.3729622E-1,9.602904E-3,0E0,8.1748836E-2,3.3023414E-1,0E0,0E0,0E0,0E0,2.1749202E-2,0E0,0E0,2.2531508E-1,3.0052203E-1,2.32234E-2,0E0,4.1719973E-3,0E0,0E0,0E0,0E0,0E0,0E0,0E0,0E0,0E0,0E0,0E0,0E0,0E0,0E0,0E0,0E0],"parents":[2147483647,0,0,1,1,2,2,3,3,4,4,5,5,6,6,7,7,8,8,9,9,10,10,12,12,13,13,14,14,18,18,20,20,21,21,23,23,25,25,26,26,27,27,28,28,32,32,35,35,36,36,37,37,39,39,40,40,41,41,43,43,44,44,49,49,52,52,53,53,54,54,56,56],"right_children":[2,4,6,8,10,12,14,16,18,20,22,-1,24,26,28,-1,-1,-1,30,-1,32,34,-1,36,-1,38,40,42,44,-1,-1,-1,46,-1,-1,48,50,52,-1,54,56,58,-1,60,62,-1,-1,-1,-1,64,-1,-1,66,68,70,-1,72,-1,-1,-1,-1,-1,-1,-1,-1,-1,-1,-1,-1,-1,-1,-1,-1],"split_conditions":[3.4366E-1,1.7957E-1,3.7168E-1,1.031E-1,2.9723E-1,2.1951E-1,5.9612E-1,5.0468E-1,4.8558E-1,5.6478E-1,2.9888E-1,2.1763086E-2,3.2138E-1,5.0974E-1,6.7971E-1,-1.3385008E-2,-5.412352E-2,1.7047195E-2,5.4875E-1,-5.686059E-2,6.3497E-1,5.4553E-1,-3.8473796E-2,2.9328E-1,-6.291302E-2,4.9209E-1,5.0995E-1,5.7236E-1,6.9515E-1,-1.18077975E-2,1.8103124E-4,2.8116632E-2,2.5566E-1,1.8103124E-4,1.9367479E-2,2.6364E-1,6.0802E-1,4.5884E-1,-4.663962E-2,4.3458E-1,5.4431E-1,4.0024E-1,-1.1013127E-2,6.9313E-1,3.9024E-1,-2.2687037E-2,-5.6818176E-2,-1.7369347E-2,-4.7014892E-2,2.9531E-1,1.9367479E-2,3.437104E-2,6.0787E-1,5.7008E-1,4.9235E-1,2.1763086E-2,5.8327E-1,-1.1783211E-2,-4.351749E-2,2.1180212E-4,2.1763086E-2,1.2169865E-2,-2.9248556E-2,1.8103124E-4,-1.2413164E-2,7.160265E-3,-1.5862012E-2,-7.114528E-3,3.135631E-2,3.9021287E-2,9.593663E-3,-2.1730628E-2,-5.357952E-3],"split_indices":[1,1,0,1,1,0,0,0,0,0,1,0,0,0,0,0,0,0,0,0,0,0,0,0,0,0,1,1,0,0,0,0,1,0,0,0,1,1,0,1,0,1,0,0,1,0,0,0,0,0,0,0,1,0,1,0,0,0,0,0,0,0,0,0,0,0,0,0,0,0,0,0,0],"split_type":[0,0,0,0,0,0,0,0,0,0,0,0,0,0,0,0,0,0,0,0,0,0,0,0,0,0,0,0,0,0,0,0,0,0,0,0,0,0,0,0,0,0,0,0,0,0,0,0,0,0,0,0,0,0,0,0,0,0,0,0,0,0,0,0,0,0,0,0,0,0,0,0,0],"sum_hessian":[7.3E1,2.7E1,4.6E1,6E0,2.1E1,1.1E1,3.5E1,2E0,4E0,1.4E1,7E0,1E0,1E1,2.3E1,1.2E1,1E0,1E0,2E0,2E0,8E0,6E0,2E0,5E0,8E0,2E0,1.3E1,1E1,6E0,6E0,1E0,1E0,1E0,5E0,1E0,1E0,4E0,4E0,1.1E1,2E0,7E0,3E0,5E0,1E0,3E0,3E0,3E0,2E0,2E0,2E0,3E0,1E0,3E0,8E0,3E0,4E0,1E0,2E0,1E0,4E0,2E0,1E0,1E0,2E0,1E0,2E0,5E0,3E0,2E0,1E0,3E0,1E0,1E0,1E0],"tree_param":{"num_deleted":"0","num_feature":"2","num_nodes":"73","size_leaf_vector":"0"}},{"base_weights":[-2.4599685E-1,-4.5410234E-1,-1.1678515E-1,5.116582E-3,-4.7597435E-1,-3.5405543E-1,-3.445102E-2,-2.5329798E-1,-5.1506907E-1,2.0946972E-2,-4.370228E-1,9.601734E-2,-2.726656E-1,-5.7757294E-1,5.323273E-2,-5.9651536E-1,-2.979737E-1,-2.6850623E-1,-5.9767377E-2,-2.1690335E-2,2.3709825E-1,-4.731717E-1,-3.320725E-2,-1.2883071E-2,-5.209389E-2,1.9175671E-2,-9.947344E-2,-4.578875E-1,-8.6327E-1,1.6724837E-1,-3.6069185E-2,-4.8932022E-1,6.00898E-3,1.22386746E-1,-5.907685E-1,3.4309605E-1,-3.4171894E-2,-5.04922E-1,-1.0600135E-2,1.416586E-1,-1.9977129E-1,-1.1365005E-2,1.74243E-4,-5.6511915E-1,2.7062258E-2,-1.9732606E-2,-7.3171936E-2,1.74243E-4,1.86412E-2,-1.650088E-2,-4.4664152E-2,-1.1676343E-1,1.86412E-2,3.243767E-2,-2.9040894E-2,-5.322292E-2,-1.3238544E-2,1.3361494E-1,4.4206172E-1,2.0946972E-2,-2.3175782E-1,-1.1341341E-2,-4.0906444E-2,2.0121338E-4,2.0946972E-2,1.17134955E-2,-2.7786126E-2,-4.4614654E-2,-1.0038373E-2,1.74243E-4,-1.1792506E-2,6.712749E-3,-1.49697745E-2,-6.758802E-3,3.0180445E-2,3.682634E-2,9.2339E-3,-2.0915728E-2,-5.1570274E-3],"categories":[],"categories_nodes":[],"categories_segments":[],"categories_sizes":[],"default_left":[0,0,0,0,0,0,0,0,0,0,0,0,0,0,0,0,0,0,0,0,0,0,0,0,0,0,0,0,0,0,0,0,0,0,0,0,0,0,0,0,0,0,0,0,0,0,0,0,0,0,0,0,0,0,0,0,0,0,0,0,0,0,0,0,0,0,0,0,0,0,0,0,0,0,0,0,0,0,0],"id":11,"left_children":[1,3,5,-1,7,9,11,13,15,-1,17,19,21,23,25,27,29,31,-1,33,35,37,39,-1,-1,-1,41,43,45,47,-1,49,51,53,55,57,59,61,-1,63,65,-1,-1,67,-1,-1,-1,-1,-1,-1,-1,69,-1,-1,71,-1,-1,73,75,-1,77,-1,-1,-1,-1,-1,-1,-1,-1,-1,-1,-1,-1,-1,-1,-1,-1,-1,-1],"loss_changes":[1.9368029E0,3.523507E-1,9.0596825E-1,0E0,1.0458231E-1,7.5262475E-1,1.1450412E0,6.271472E-1,2.1124935E-1,0E0,4.5312238E-1,4.0369415E-1,6.084546E-1,2.3138285E-2,1.4909005E-1,1.5941381E-1,7.6132786E-1,5.484914E-1,0E0,1.2201781E0,3.2801855E-1,2.3878813E-3,2.3218386E-1,0E0,0E0,0E0,1.625064E-2,1.2574208E0,1.3041019E-2,3.9648272E-2,0E0,1.1983395E-2,1.7790778E-1,5.760809E-1,2.246654E-2,1.06785476E-1,3.124733E-1,3.467083E-3,0E0,7.576204E-2,3.0092007E-1,0E0,0E0,6.1481953E-2,0E0,0E0,0E0,0E0,0E0,0E0,0E0,1.9643027E-2,0E0,0E0,1.9983053E-1,0E0,0E0,2.7681264E-1,1.7617583E-2,0E0,3.8649738E-3,0E0,0E0,0E0,0E0,0E0,0E0,0E0,0E0,0E0,0E0,0E0,0E0,0E0,0E0,0E0,0E0,0E0,0E0],"parents":[2147483647,0,0,1,1,2,2,4,4,5,5,6,6,7,7,8,8,10,10,11,11,12,12,13,13,14,14,15,15,16,16,17,17,19,19,20,20,21,21,22,22,26,26,27,27,28,28,29,29,31,31,32,32,33,33,34,34,35,35,36,36,37,37,39,39,40,40,43,43,51,51,54,54,57,57,58,58,60,60],"right_children":[2,4,6,-1,8,10,12,14,16,-1,18,20,22,24,26,28,30,32,-1,34,36,38,40,-1,-1,-1,42,44,46,48,-1,50,52,54,56,58,60,62,-1,64,66,-1,-1,68,-1,-1,-1,-1,-1,-1,-1,70,-1,-1,72,-1,-1,74,76,-1,78,-1,-1,-1,-1,-1,-1,-1,-1,-1,-1,-1,-1,-1,-1,-1,-1,-1,-1],"split_conditions":[3.4366E-1,2.0056E-1,3.7168E-1,5.116582E-3,1.644E-1,2.1951E-1,5.9612E-1,1.031E-1,2.9723E-1,2.0946972E-2,3.2138E-1,5.0974E-1,6.7971E-1,5.0468E-1,4.8558E-1,2.7757E-1,2.9888E-1,2.9328E-1,-5.9767377E-2,4.9209E-1,5.0995E-1,5.7236E-1,6.9515E-1,-1.2883071E-2,-5.209389E-2,1.9175671E-2,5.4875E-1,2.6828E-1,3.1454E-1,5.4553E-1,-3.6069185E-2,2.6364E-1,6.0802E-1,4.5884E-1,4.9842E-1,4.3458E-1,5.4431E-1,4.0024E-1,-1.0600135E-2,6.9313E-1,3.9024E-1,-1.1365005E-2,1.74243E-4,7.4999E-1,2.7062258E-2,-1.9732606E-2,-7.3171936E-2,1.74243E-4,1.86412E-2,-1.650088E-2,-4.4664152E-2,2.9531E-1,1.86412E-2,3.243767E-2,6.0787E-1,-5.322292E-2,-1.3238544E-2,5.7008E-1,4.9235E-1,2.0946972E-2,5.8327E-1,-1.1341341E-2,-4.0906444E-2,2.0121338E-4,2.0946972E-2,1.17134955E-2,-2.7786126E-2,-4.4614654E-2,-1.0038373E-2,1.74243E-4,-1.1792506E-2,6.712749E-3,-1.49697745E-2,-6.758802E-3,3.0180445E-2,3.682634E-2,9.2339E-3,-2.0915728E-2,-5.1570274E-3],"split_indices":[1,0,0,0,1,0,0,1,1,0,0,0,0,0,0,1,1,0,0,0,1,1,0,0,0,0,0,1,0,0,0,0,1,1,0,1,0,1,0,0,1,0,0,0,0,0,0,0,0,0,0,0,0,0,1,0,0,0,1,0,0,0,0,0,0,0,0,0,0,0,0,0,0,0,0,0,0,0,0],"split_type":[0,0,0,0,0,0,0,0,0,0,0,0,0,0,0,0,0,0,0,0,0,0,0,0,0,0,0,0,0,0,0,0,0,0,0,0,0,0,0,0,0,0,0,0,0,0,0,0,0,0,0,0,0,0,0,0,0,0,0,0,0,0,0,0,0,0,0,0,0,0,0,0,0,0,0,0,0,0,0],"sum_hessian":[7.3E1,2.7E1,4.6E1,1E0,2.6E1,1.1E1,3.5E1,5E0,2.1E1,1E0,1E1,2.3E1,1.2E1,2E0,3E0,1.4E1,7E0,8E0,2E0,1.3E1,1E1,6E0,6E0,1E0,1E0,1E0,2E0,1.1E1,3E0,2E0,5E0,4E0,4E0,1.1E1,2E0,7E0,3E0,5E0,1E0,3E0,3E0,1E0,1E0,1E1,1E0,1E0,2E0,1E0,1E0,2E0,2E0,3E0,1E0,3E0,8E0,1E0,1E0,3E0,4E0,1E0,2E0,1E0,4E0,2E0,1E0,1E0,2E0,9E0,1E0,1E0,2E0,5E0,3E0,2E0,1E0,3E0,1E0,1E0,1E0],"tree_param":{"num_deleted":"0","num_feature":"2","num_nodes":"79","size_leaf_vector":"0"}},{"base_weights":[-2.3184822E-1,-4.2143944E-1,-1.0728315E-1,4.9247104E-3,-4.4118103E-1,-3.411008E-1,-3.2858778E-2,-4.9299708E-1,-2.7701414E-1,2.016146E-2,-4.289748E-1,8.973584E-2,-2.5665972E-1,-3.866434E-1,-8.217509E-1,1.6097657E-1,-4.2515102E-1,-2.5232348E-1,-5.6779005E-2,-2.3083623E-2,2.2516644E-1,-3.3499658E-2,-2.999164E-2,-4.54221E-1,2.6047425E-2,-1.8992633E-2,-6.9513336E-2,1.677096E-4,1.7942155E-2,-2.5135255E-1,-4.2982355E-2,-4.6485418E-1,7.6420754E-2,1.1522279E-1,-5.686147E-1,3.260491E-1,-3.289044E-2,1.3632125E-1,-1.8880662E-1,-2.6578176E-1,-5.7125354E-1,-2.6775189E-2,6.4217714E-3,-1.5675835E-2,-4.2430937E-2,-5.759147E-2,1.7942155E-2,3.061305E-2,-2.7780274E-2,-5.122706E-2,-1.2742098E-2,1.2944923E-1,4.1811913E-1,2.016146E-2,-2.2306688E-1,1.9115211E-4,2.016146E-2,1.1274239E-2,-2.6396822E-2,-4.282486E-2,-5.1657488E-3,-4.5784034E-2,-9.661934E-3,1.677096E-4,-6.6467505E-3,6.293203E-3,-1.4127727E-2,-6.4208615E-3,2.9048678E-2,3.4754857E-2,8.88763E-3,-2.0131387E-2,-4.9636383E-3],"categories":[],"categories_nodes":[],"categories_segments":[],"categories_sizes":[],"default_left":[0,0,0,0,0,0,0,0,0,0,0,0,0,0,0,0,0,0,0,0,0,0,0,0,0,0,0,0,0,0,0,0,0,0,0,0,0,0,0,0,0,0,0,0,0,0,0,0,0,0,0,0,0,0,0,0,0,0,0,0,0,0,0,0,0,0,0,0,0,0,0,0,0],"id":12,"left_children":[1,3,5,-1,7,9,11,13,15,-1,17,19,21,23,25,27,29,31,-1,33,35,-1,37,39,-1,-1,-1,-1,-1,41,-1,43,45,47,49,51,53,55,57,59,61,-1,-1,-1,-1,63,-1,-1,65,-1,-1,67,69,-1,71,-1,-1,-1,-1,-1,-1,-1,-1,-1,-1,-1,-1,-1,-1,-1,-1,-1,-1],"loss_changes":[1.7024038E0,3.0783796E-1,7.892716E-1,0E0,1.01614475E-1,7.0487404E-1,1.010756E0,3.8155842E-1,6.5238243E-1,0E0,3.8853264E-1,3.7189865E-1,5.464811E-1,1.0009172E0,4.2800903E-3,3.67304E-2,3.5941005E-2,5.944704E-1,0E0,1.1218235E0,2.9709196E-1,0E0,2.106292E-1,2.0102763E-1,0E0,0E0,0E0,0E0,0E0,2.0857543E-1,0E0,1.0815024E-2,1.0105057E-1,5.140542E-1,2.0813227E-2,9.068251E-2,2.8947717E-1,7.0213355E-2,2.7422482E-1,4.4146085E-1,7.7447414E-2,0E0,0E0,0E0,0E0,5.7678586E-3,0E0,0E0,1.7723152E-1,0E0,0E0,2.5498646E-1,1.2918234E-2,0E0,3.5805255E-3,0E0,0E0,0E0,0E0,0E0,0E0,0E0,0E0,0E0,0E0,0E0,0E0,0E0,0E0,0E0,0E0,0E0,0E0],"parents":[2147483647,0,0,1,1,2,2,4,4,5,5,6,6,7,7,8,8,10,10,11,11,12,12,13,13,14,14,15,15,16,16,17,17,19,19,20,20,22,22,23,23,29,29,31,31,32,32,33,33,34,34,35,35,36,36,37,37,38,38,39,39,40,40,45,45,48,48,51,51,52,52,54,54],"right_children":[2,4,6,-1,8,10,12,14,16,-1,18,20,22,24,26,28,30,32,-1,34,36,-1,38,40,-1,-1,-1,-1,-1,42,-1,44,46,48,50,52,54,56,58,60,62,-1,-1,-1,-1,64,-1,-1,66,-1,-1,68,70,-1,72,-1,-1,-1,-1,-1,-1,-1,-1,-1,-1,-1,-1,-1,-1,-1,-1,-1,-1],"split_conditions":[3.5137E-1,2.0056E-1,3.7168E-1,4.9247104E-3,2.9723E-1,2.1951E-1,5.9612E-1,2.7757E-1,2.9888E-1,2.016146E-2,3.2138E-1,5.0974E-1,6.7971E-1,2.6828E-1,3.1454E-1,5.4553E-1,5.5674E-1,2.9328E-1,-5.6779005E-2,4.9209E-1,5.0995E-1,-3.3499658E-2,6.9515E-1,5.4875E-1,2.6047425E-2,-1.8992633E-2,-6.9513336E-2,1.677096E-4,1.7942155E-2,5.4958E-1,-4.2982355E-2,2.6364E-1,6.0802E-1,4.5884E-1,4.9842E-1,4.3458E-1,5.4431E-1,6.9313E-1,3.9024E-1,3.3036E-1,7.4999E-1,-2.6775189E-2,6.4217714E-3,-1.5675835E-2,-4.2430937E-2,2.9531E-1,1.7942155E-2,3.061305E-2,6.0787E-1,-5.122706E-2,-1.2742098E-2,5.7008E-1,4.9235E-1,2.016146E-2,5.8327E-1,1.9115211E-4,2.016146E-2,1.1274239E-2,-2.6396822E-2,-4.282486E-2,-5.1657488E-3,-4.5784034E-2,-9.661934E-3,1.677096E-4,-6.6467505E-3,6.293203E-3,-1.4127727E-2,-6.4208615E-3,2.9048678E-2,3.4754857E-2,8.88763E-3,-2.0131387E-2,-4.9636383E-3],"split_indices":[1,0,0,0,1,0,0,1,1,0,0,0,0,1,0,0,0,0,0,0,1,0,0,0,0,0,0,0,0,0,0,0,1,1,0,1,0,0,1,0,0,0,0,0,0,0,0,0,1,0,0,0,1,0,0,0,0,0,0,0,0,0,0,0,0,0,0,0,0,0,0,0,0],"split_type":[0,0,0,0,0,0,0,0,0,0,0,0,0,0,0,0,0,0,0,0,0,0,0,0,0,0,0,0,0,0,0,0,0,0,0,0,0,0,0,0,0,0,0,0,0,0,0,0,0,0,0,0,0,0,0,0,0,0,0,0,0,0,0,0,0,0,0,0,0,0,0,0,0],"sum_hessian":[7.3E1,2.8E1,4.5E1,1E0,2.7E1,1E1,3.5E1,1.9E1,8E0,1E0,9E0,2.3E1,1.2E1,1.6E1,3E0,2E0,6E0,7E0,2E0,1.3E1,1E1,6E0,6E0,1.5E1,1E0,1E0,2E0,1E0,1E0,4E0,2E0,4E0,3E0,1.1E1,2E0,7E0,3E0,3E0,3E0,7E0,8E0,3E0,1E0,2E0,2E0,2E0,1E0,3E0,8E0,1E0,1E0,3E0,4E0,1E0,2E0,2E0,1E0,1E0,2E0,2E0,5E0,7E0,1E0,1E0,1E0,5E0,3E0,2E0,1E0,3E0,1E0,1E0,1E0],"tree_param":{"num_deleted":"0","num_feature":"2","num_nodes":"73","size_leaf_vector":"0"}},{"base_weights":[-2.1848096E-1,-4.0240055E-1,-1.0426332E-1,4.7400333E-3,-4.219858E-1,-3.1650463E-1,-3.0620018E-2,-2.259551E-1,-4.5626754E-1,1.9405406E-2,-3.9232117E-1,8.384507E-2,-2.3958479E-1,-5.389307E-1,6.5265395E-2,-5.287074E-1,-2.6340944E-1,-2.3977008E-1,-5.3940054E-2,-2.4294535E-2,2.1385501E-1,-4.1794807E-1,-2.699511E-2,-1.220624E-2,-4.842347E-2,1.86503E-2,-7.8759916E-2,-4.313221E-1,-7.0953794E-2,1.5493995E-1,-4.2868257E-1,-4.4161147E-1,1.0025322E-2,1.0847929E-1,-5.4729164E-1,3.0987918E-1,-3.1657055E-2,-4.4784436E-1,-8.946393E-3,1.3118531E-1,-1.7842674E-1,-1.0745102E-2,1.8846106E-3,-4.972888E-1,-1.4208311E-1,1.6141981E-4,1.7269325E-2,-2.3469144E-1,-4.0833242E-2,-1.4892043E-2,-4.0309392E-2,-1.0259718E-1,1.7269325E-2,2.8891064E-2,-2.6567247E-2,-4.9306046E-2,-1.2264269E-2,1.2539749E-1,3.9548868E-1,1.9405406E-2,-2.1470189E-1,-9.659803E-3,-3.644207E-2,1.815945E-4,1.9405406E-2,1.0851456E-2,-2.507698E-2,-3.9166406E-2,-9.299611E-3,2.5070647E-2,-3.0922076E-2,-2.7589781E-2,6.1809546E-3,1.6141981E-4,-1.0367332E-2,-8.224937E-3,1.3213889E-2,-6.099819E-3,2.7959352E-2,3.2799896E-2,8.554343E-3,-1.9376462E-2,-4.777502E-3],"categories":[],"categories_nodes":[],"categories_segments":[],"categories_sizes":[],"default_left":[0,0,0,0,0,0,0,0,0,0,0,0,0,0,0,0,0,0,0,0,0,0,0,0,0,0,0,0,0,0,0,0,0,0,0,0,0,0,0,0,0,0,0,0,0,0,0,0,0,0,0,0,0,0,0,0,0,0,0,0,0,0,0,0,0,0,0,0,0,0,0,0,0,0,0,0,0,0,0,0,0,0,0],"id":13,"left_children":[1,3,5,-1,7,9,11,13,15,-1,17,19,21,23,25,27,29,31,-1,33,35,37,39,-1,-1,-1,41,43,-1,45,47,49,51,53,55,57,59,61,-1,63,65,-1,-1,67,69,-1,-1,71,-1,-1,-1,73,-1,-1,75,-1,-1,77,79,-1,81,-1,-1,-1,-1,-1,-1,-1,-1,-1,-1,-1,-1,-1,-1,-1,-1,-1,-1,-1,-1,-1,-1],"loss_changes":[1.512552E0,2.819991E-1,7.2492564E-1,0E0,7.83515E-2,6.248642E-1,8.8117814E-1,5.8204293E-1,1.6808653E-1,0E0,3.7608135E-1,3.4261692E-1,4.81654E-1,1.5354216E-2,1.2524529E-1,2.015934E-1,6.1955535E-1,4.581988E-1,0E0,1.0315344E0,2.6913583E-1,9.081125E-3,1.9108161E-1,0E0,0E0,0E0,2.3704924E-2,1.9646573E-1,0E0,3.402727E-2,6.9630146E-3,9.760499E-3,1.4763936E-1,4.5869917E-1,1.9281566E-2,7.6753795E-2,2.681735E-1,1.025641E-2,0E0,6.50707E-2,2.4991296E-1,0E0,0E0,3.7615538E-2,6.5268934E-1,0E0,0E0,1.992346E-1,0E0,0E0,0E0,1.5228037E-2,0E0,0E0,1.7095742E-1,0E0,0E0,2.3489279E-1,8.998692E-3,0E0,3.3170283E-3,0E0,0E0,0E0,0E0,0E0,0E0,0E0,0E0,0E0,0E0,0E0,0E0,0E0,0E0,0E0,0E0,0E0,0E0,0E0,0E0,0E0,0E0],"parents":[2147483647,0,0,1,1,2,2,4,4,5,5,6,6,7,7,8,8,10,10,11,11,12,12,13,13,14,14,15,15,16,16,17,17,19,19,20,20,21,21,22,22,26,26,27,27,29,29,30,30,31,31,32,32,33,33,34,34,35,35,36,36,37,37,39,39,40,40,43,43,44,44,47,47,51,51,54,54,57,57,58,58,60,60],"right_children":[2,4,6,-1,8,10,12,14,16,-1,18,20,22,24,26,28,30,32,-1,34,36,38,40,-1,-1,-1,42,44,-1,46,48,50,52,54,56,58,60,62,-1,64,66,-1,-1,68,70,-1,-1,72,-1,-1,-1,74,-1,-1,76,-1,-1,78,80,-1,82,-1,-1,-1,-1,-1,-1,-1,-1,-1,-1,-1,-1,-1,-1,-1,-1,-1,-1,-1,-1,-1,-1],"split_conditions":[3.4366E-1,2.0056E-1,3.7168E-1,4.7400333E-3,1.644E-1,2.1951E-1,5.9612E-1,1.031E-1,2.9723E-1,1.9405406E-2,3.2138E-1,5.0974E-1,6.7971E-1,5.0468E-1,4.8558E-1,2.9147E-1,2.9888E-1,2.9328E-1,-5.3940054E-2,4.9209E-1,5.0995E-1,5.7236E-1,6.9515E-1,-1.220624E-2,-4.842347E-2,1.86503E-2,5.4875E-1,2.6828E-1,-7.0953794E-2,5.4553E-1,5.5674E-1,2.6364E-1,6.0802E-1,4.5884E-1,4.9842E-1,4.3458E-1,5.4431E-1,4.0024E-1,-8.946393E-3,6.9313E-1,3.9024E-1,-1.0745102E-2,1.8846106E-3,7.4999E-1,2.7757E-1,1.6141981E-4,1.7269325E-2,5.4958E-1,-4.0833242E-2,-1.4892043E-2,-4.0309392E-2,2.9531E-1,1.7269325E-2,2.8891064E-2,4.732E-1,-4.9306046E-2,-1.2264269E-2,5.7008E-1,4.9235E-1,1.9405406E-2,5.8327E-1,-9.659803E-3,-3.644207E-2,1.815945E-4,1.9405406E-2,1.0851456E-2,-2.507698E-2,-3.9166406E-2,-9.299611E-3,2.5070647E-2,-3.0922076E-2,-2.7589781E-2,6.1809546E-3,1.6141981E-4,-1.0367332E-2,-8.224937E-3,1.3213889E-2,-6.099819E-3,2.7959352E-2,3.2799896E-2,8.554343E-3,-1.9376462E-2,-4.777502E-3],"split_indices":[1,0,0,0,1,0,0,1,1,0,0,0,0,0,0,1,1,0,0,0,1,1,0,0,0,0,0,1,0,0,0,0,1,1,0,1,0,1,0,0,1,0,0,0,1,0,0,0,0,0,0,0,0,0,0,0,0,0,1,0,0,0,0,0,0,0,0,0,0,0,0,0,0,0,0,0,0,0,0,0,0,0,0],"split_type":[0,0,0,0,0,0,0,0,0,0,0,0,0,0,0,0,0,0,0,0,0,0,0,0,0,0,0,0,0,0,0,0,0,0,0,0,0,0,0,0,0,0,0,0,0,0,0,0,0,0,0,0,0,0,0,0,0,0,0,0,0,0,0,0,0,0,0,0,0,0,0,0,0,0,0,0,0,0,0,0,0,0,0],"sum_hessian":[7.3E1,2.7E1,4.6E1,1E0,2.6E1,1.1E1,3.5E1,5E0,2.1E1,1E0,1E1,2.3E1,1.2E1,2E0,3E0,1.4E1,7E0,8E0,2E0,1.3E1,1E1,6E0,6E0,1E0,1E0,1E0,2E0,1.3E1,1E0,2E0,5E0,4E0,4E0,1.1E1,2E0,7E0,3E0,5E0,1E0,3E0,3E0,1E0,1E0,1E1,3E0,1E0,1E0,3E0,2E0,2E0,2E0,3E0,1E0,3E0,8E0,1E0,1E0,3E0,4E0,1E0,2E0,1E0,4E0,2E0,1E0,1E0,2E0,9E0,1E0,1E0,2E0,2E0,1E0,1E0,2E0,6E0,2E0,2E0,1E0,3E0,1E0,1E0,1E0],"tree_param":{"num_deleted":"0","num_feature":"2","num_nodes":"83","size_leaf_vector":"0"}},{"base_weights":[-2.0638904E-1,-3.799413E-1,-9.860495E-2,4.562281E-3,-3.9851916E-1,-2.9965615E-1,-2.8848847E-2,-2.1748176E-1,-4.297785E-1,1.8677702E-2,-3.721769E-1,7.883899E-2,-2.2543801E-1,-5.187208E-1,6.2817946E-2,-4.9740574E-1,-2.4925512E-1,-2.2713599E-1,-5.1243052E-2,-2.4450323E-2,2.0313093E-1,-3.9446604E-1,-2.4204565E-2,-1.1748507E-2,-4.6607584E-2,1.7950915E-2,-7.580642E-2,-4.0285274E-1,-6.829303E-2,1.491297E-1,-4.0690503E-1,-4.195309E-1,1.0686112E-2,1.0316668E-1,-5.267682E-1,2.9454E-1,-3.0469917E-2,-4.219397E-1,-8.610902E-3,1.2624314E-1,-1.6860113E-1,-1.034216E-2,1.8139378E-3,-4.6439815E-1,-1.3288972E-1,1.5536696E-4,1.6621726E-2,-2.2244178E-1,-3.879158E-2,-1.4147441E-2,-3.829392E-2,-9.745386E-2,1.6621726E-2,2.1620663E-1,-1.7696488E-1,-4.745707E-2,-1.180436E-2,1.2145756E-1,3.740979E-1,1.8677702E-2,-2.0665057E-1,-9.297561E-3,-3.425555E-2,1.7251374E-4,1.8677702E-2,1.0444527E-2,-2.382313E-2,-3.6522675E-2,-8.950875E-3,2.4130497E-2,-2.937597E-2,-2.6210291E-2,5.949169E-3,1.5536696E-4,-9.848964E-3,2.7265942E-2,6.1459527E-3,-2.226124E-2,6.8471287E-3,-5.794828E-3,2.6910877E-2,3.0954903E-2,8.233555E-3,-1.8649844E-2,-4.5983456E-3],"categories":[],"categories_nodes":[],"categories_segments":[],"categories_sizes":[],"default_left":[0,0,0,0,0,0,0,0,0,0,0,0,0,0,0,0,0,0,0,0,0,0,0,0,0,0,0,0,0,0,0,0,0,0,0,0,0,0,0,0,0,0,0,0,0,0,0,0,0,0,0,0,0,0,0,0,0,0,0,0,0,0,0,0,0,0,0,0,0,0,0,0,0,0,0,0,0,0,0,0,0,0,0,0,0],"id":14,"left_children":[1,3,5,-1,7,9,11,13,15,-1,17,19,21,23,25,27,29,31,-1,33,35,37,39,-1,-1,-1,41,43,-1,45,47,49,51,53,55,57,59,61,-1,63,65,-1,-1,67,69,-1,-1,71,-1,-1,-1,73,-1,75,77,-1,-1,79,81,-1,83,-1,-1,-1,-1,-1,-1,-1,-1,-1,-1,-1,-1,-1,-1,-1,-1,-1,-1,-1,-1,-1,-1,-1,-1],"loss_changes":[1.3467927E0,2.535224E-1,6.50509E-1,0E0,5.9327126E-2,5.7018423E-1,7.799027E-1,5.392083E-1,1.4460135E-1,0E0,3.410982E-1,3.130793E-1,4.3263525E-1,1.4224172E-2,1.1602802E-1,2.19167E-1,5.6312424E-1,4.1628504E-1,0E0,9.518052E-1,2.4386016E-1,5.338073E-3,1.7335367E-1,0E0,0E0,0E0,2.1960387E-2,1.7089605E-1,0E0,3.1523086E-2,7.043898E-3,8.808792E-3,1.3565157E-1,4.1825366E-1,1.7862558E-2,6.472361E-2,2.4843758E-1,5.597353E-3,0E0,6.030441E-2,2.2777036E-1,0E0,0E0,2.7552128E-2,5.966332E-1,0E0,0E0,1.810516E-1,0E0,0E0,0E0,1.3754014E-2,0E0,1.4824551E-1,1.5570347E-1,0E0,0E0,2.1639323E-1,5.7483315E-3,0E0,3.0729175E-3,0E0,0E0,0E0,0E0,0E0,0E0,0E0,0E0,0E0,0E0,0E0,0E0,0E0,0E0,0E0,0E0,0E0,0E0,0E0,0E0,0E0,0E0,0E0,0E0],"parents":[2147483647,0,0,1,1,2,2,4,4,5,5,6,6,7,7,8,8,10,10,11,11,12,12,13,13,14,14,15,15,16,16,17,17,19,19,20,20,21,21,22,22,26,26,27,27,29,29,30,30,31,31,32,32,33,33,34,34,35,35,36,36,37,37,39,39,40,40,43,43,44,44,47,47,51,51,53,53,54,54,57,57,58,58,60,60],"right_children":[2,4,6,-1,8,10,12,14,16,-1,18,20,22,24,26,28,30,32,-1,34,36,38,40,-1,-1,-1,42,44,-1,46,48,50,52,54,56,58,60,62,-1,64,66,-1,-1,68,70,-1,-1,72,-1,-1,-1,74,-1,76,78,-1,-1,80,82,-1,84,-1,-1,-1,-1,-1,-1,-1,-1,-1,-1,-1,-1,-1,-1,-1,-1,-1,-1,-1,-1,-1,-1,-1,-1],"split_conditions":[3.4366E-1,2.0056E-1,3.7168E-1,4.562281E-3,1.644E-1,2.1951E-1,5.9612E-1,1.031E-1,2.9723E-1,1.8677702E-2,3.2138E-1,5.0974E-1,6.7971E-1,5.0468E-1,4.8558E-1,2.9147E-1,2.9888E-1,2.9328E-1,-5.1243052E-2,4.9209E-1,5.0995E-1,5.7236E-1,6.9515E-1,-1.1748507E-2,-4.6607584E-2,1.7950915E-2,5.4875E-1,2.6828E-1,-6.829303E-2,5.4553E-1,5.5674E-1,2.6364E-1,6.0802E-1,6.0787E-1,4.9842E-1,4.3458E-1,5.4431E-1,4.0024E-1,-8.610902E-3,6.9313E-1,3.9024E-1,-1.034216E-2,1.8139378E-3,7.4999E-1,2.7757E-1,1.5536696E-4,1.6621726E-2,5.4958E-1,-3.879158E-2,-1.4147441E-2,-3.829392E-2,2.9531E-1,1.6621726E-2,4.5884E-1,4.5998E-1,-4.745707E-2,-1.180436E-2,5.7008E-1,4.9235E-1,1.8677702E-2,5.8327E-1,-9.297561E-3,-3.425555E-2,1.7251374E-4,1.8677702E-2,1.0444527E-2,-2.382313E-2,-3.6522675E-2,-8.950875E-3,2.4130497E-2,-2.937597E-2,-2.6210291E-2,5.949169E-3,1.5536696E-4,-9.848964E-3,2.7265942E-2,6.1459527E-3,-2.226124E-2,6.8471287E-3,-5.794828E-3,2.6910877E-2,3.0954903E-2,8.233555E-3,-1.8649844E-2,-4.5983456E-3],"split_indices":[1,0,0,0,1,0,0,1,1,0,0,0,0,0,0,1,1,0,0,0,1,1,0,0,0,0,0,1,0,0,0,0,1,1,0,1,0,1,0,0,1,0,0,0,1,0,0,0,0,0,0,0,0,1,0,0,0,0,1,0,0,0,0,0,0,0,0,0,0,0,0,0,0,0,0,0,0,0,0,0,0,0,0,0,0],"split_type":[0,0,0,0,0,0,0,0,0,0,0,0,0,0,0,0,0,0,0,0,0,0,0,0,0,0,0,0,0,0,0,0,0,0,0,0,0,0,0,0,0,0,0,0,0,0,0,0,0,0,0,0,0,0,0,0,0,0,0,0,0,0,0,0,0,0,0,0,0,0,0,0,0,0,0,0,0,0,0,0,0,0,0,0,0],"sum_hessian":[7.3E1,2.7E1,4.6E1,1E0,2.6E1,1.1E1,3.5E1,5E0,2.1E1,1E0,1E1,2.3E1,1.2E1,2E0,3E0,1.4E1,7E0,8E0,2E0,1.3E1,1E1,6E0,6E0,1E0,1E0,1E0,2E0,1.3E1,1E0,2E0,5E0,4E0,4E0,1.1E1,2E0,7E0,3E0,5E0,1E0,3E0,3E0,1E0,1E0,1E1,3E0,1E0,1E0,3E0,2E0,2E0,2E0,3E0,1E0,8E0,3E0,1E0,1E0,3E0,4E0,1E0,2E0,1E0,4E0,2E0,1E0,1E0,2E0,9E0,1E0,1E0,2E0,2E0,1E0,1E0,2E0,3E0,5E0,2E0,1E0,2E0,1E0,3E0,1E0,1E0,1E0],"tree_param":{"num_deleted":"0","num_feature":"2","num_nodes":"85","size_leaf_vector":"0"}},{"base_weights":[-1.9517958E-1,-3.5879067E-1,-9.35564E-2,4.3911966E-3,-3.764162E-1,-2.836885E-1,-2.7580244E-2,-4.138237E-1,-2.3584545E-1,1.7977288E-2,-3.5305965E-1,7.352898E-2,-2.1212187E-1,-3.180784E-1,-7.1728534E-1,1.4353734E-1,-3.8622928E-1,-2.1515782E-1,-4.8680898E-2,-2.5563953E-2,1.9296281E-1,-3.7233308E-1,-2.160756E-2,-3.7666762E-1,2.3225602E-2,-1.601923E-2,-6.1049048E-2,1.4953986E-4,1.5998412E-2,-2.1082392E-1,-3.6852E-2,-3.9855435E-1,1.1270273E-2,9.692899E-2,-5.070144E-1,2.799875E-1,-2.9327303E-2,-3.9755306E-1,-8.287994E-3,1.2148747E-1,-1.593007E-1,-2.1294731E-1,-4.8034483E-1,-2.4899777E-2,5.726075E-3,-1.344007E-2,-3.6379226E-2,-9.256823E-2,1.5998412E-2,2.0370357E-1,-1.6754603E-1,-4.5677427E-2,-1.1361697E-2,1.1762725E-1,3.5387823E-1,1.7977288E-2,-1.9890118E-1,-8.948902E-3,-3.2200217E-2,1.6388894E-4,1.7977288E-2,1.0052857E-2,-2.2631975E-2,-3.689916E-2,-2.8451518E-3,-3.8375292E-2,-8.615217E-3,1.4953986E-4,-9.356517E-3,2.5732232E-2,5.7618306E-3,-2.1148177E-2,6.5903612E-3,-5.505087E-3,2.5901718E-2,3.2216202E-2,1.2018577E-2,-1.7950475E-2,-4.425909E-3],"categories":[],"categories_nodes":[],"categories_segments":[],"categories_sizes":[],"default_left":[0,0,0,0,0,0,0,0,0,0,0,0,0,0,0,0,0,0,0,0,0,0,0,0,0,0,0,0,0,0,0,0,0,0,0,0,0,0,0,0,0,0,0,0,0,0,0,0,0,0,0,0,0,0,0,0,0,0,0,0,0,0,0,0,0,0,0,0,0,0,0,0,0,0,0,0,0,0,0],"id":15,"left_children":[1,3,5,-1,7,9,11,13,15,-1,17,19,21,23,25,27,29,31,-1,33,35,37,39,41,-1,-1,-1,-1,-1,43,-1,45,47,49,51,53,55,57,-1,59,61,63,65,-1,-1,-1,-1,67,-1,69,71,-1,-1,73,75,-1,77,-1,-1,-1,-1,-1,-1,-1,-1,-1,-1,-1,-1,-1,-1,-1,-1,-1,-1,-1,-1,-1,-1],"loss_changes":[1.1968071E0,2.2800231E-1,5.817524E-1,0E0,4.4378042E-2,5.203218E-1,6.873162E-1,3.529477E-1,5.118626E-1,0E0,3.093828E-1,2.889741E-1,3.8874757E-1,7.418972E-1,2.097392E-2,2.9203195E-2,7.052481E-3,3.78227E-1,0E0,8.7478447E-1,2.2100332E-1,2.2906065E-3,1.5727545E-1,1.6929674E-1,0E0,0E0,0E0,0E0,0E0,1.6453707E-1,0E0,7.950008E-3,1.2464457E-1,3.7300023E-1,1.6547918E-2,5.434966E-2,2.3015413E-1,1.8311739E-3,0E0,5.588696E-2,2.0760225E-1,3.7202096E-1,4.42636E-2,0E0,0E0,0E0,0E0,1.2422785E-2,0E0,1.3281623E-1,1.4168699E-1,0E0,0E0,1.9936037E-1,4.426956E-3,0E0,2.8467625E-3,0E0,0E0,0E0,0E0,0E0,0E0,0E0,0E0,0E0,0E0,0E0,0E0,0E0,0E0,0E0,0E0,0E0,0E0,0E0,0E0,0E0,0E0],"parents":[2147483647,0,0,1,1,2,2,4,4,5,5,6,6,7,7,8,8,10,10,11,11,12,12,13,13,14,14,15,15,16,16,17,17,19,19,20,20,21,21,22,22,23,23,29,29,31,31,32,32,33,33,34,34,35,35,36,36,37,37,39,39,40,40,41,41,42,42,47,47,49,49,50,50,53,53,54,54,56,56],"right_children":[2,4,6,-1,8,10,12,14,16,-1,18,20,22,24,26,28,30,32,-1,34,36,38,40,42,-1,-1,-1,-1,-1,44,-1,46,48,50,52,54,56,58,-1,60,62,64,66,-1,-1,-1,-1,68,-1,70,72,-1,-1,74,76,-1,78,-1,-1,-1,-1,-1,-1,-1,-1,-1,-1,-1,-1,-1,-1,-1,-1,-1,-1,-1,-1,-1,-1],"split_conditions":[3.4366E-1,2.0056E-1,3.7168E-1,4.3911966E-3,2.9723E-1,2.1951E-1,5.9612E-1,2.7757E-1,2.9888E-1,1.7977288E-2,3.2138E-1,5.0974E-1,6.7971E-1,2.6828E-1,3.1454E-1,5.4553E-1,5.5674E-1,2.9328E-1,-4.8680898E-2,4.9209E-1,5.0995E-1,5.7236E-1,6.9515E-1,5.4875E-1,2.3225602E-2,-1.601923E-2,-6.1049048E-2,1.4953986E-4,1.5998412E-2,5.4958E-1,-3.6852E-2,2.6364E-1,6.0802E-1,6.0787E-1,4.9842E-1,4.3458E-1,5.4431E-1,4.0024E-1,-8.287994E-3,6.9313E-1,3.9024E-1,3.3036E-1,7.4999E-1,-2.4899777E-2,5.726075E-3,-1.344007E-2,-3.6379226E-2,2.9531E-1,1.5998412E-2,4.5884E-1,4.5998E-1,-4.5677427E-2,-1.1361697E-2,5.7008E-1,4.8893E-1,1.7977288E-2,5.8327E-1,-8.948902E-3,-3.2200217E-2,1.6388894E-4,1.7977288E-2,1.0052857E-2,-2.2631975E-2,-3.689916E-2,-2.8451518E-3,-3.8375292E-2,-8.615217E-3,1.4953986E-4,-9.356517E-3,2.5732232E-2,5.7618306E-3,-2.1148177E-2,6.5903612E-3,-5.505087E-3,2.5901718E-2,3.2216202E-2,1.2018577E-2,-1.7950475E-2,-4.425909E-3],"split_indices":[1,0,0,0,1,0,0,1,1,0,0,0,0,1,0,0,0,0,0,0,1,1,0,0,0,0,0,0,0,0,0,0,1,1,0,1,0,1,0,0,1,0,0,0,0,0,0,0,0,1,0,0,0,0,1,0,0,0,0,0,0,0,0,0,0,0,0,0,0,0,0,0,0,0,0,0,0,0,0],"split_type":[0,0,0,0,0,0,0,0,0,0,0,0,0,0,0,0,0,0,0,0,0,0,0,0,0,0,0,0,0,0,0,0,0,0,0,0,0,0,0,0,0,0,0,0,0,0,0,0,0,0,0,0,0,0,0,0,0,0,0,0,0,0,0,0,0,0,0,0,0,0,0,0,0,0,0,0,0,0,0],"sum_hessian":[7.3E1,2.7E1,4.6E1,1E0,2.6E1,1.1E1,3.5E1,1.9E1,7E0,1E0,1E1,2.3E1,1.2E1,1.6E1,3E0,2E0,5E0,8E0,2E0,1.3E1,1E1,6E0,6E0,1.5E1,1E0,1E0,2E0,1E0,1E0,3E0,2E0,4E0,4E0,1.1E1,2E0,7E0,3E0,5E0,1E0,3E0,3E0,7E0,8E0,2E0,1E0,2E0,2E0,3E0,1E0,8E0,3E0,1E0,1E0,3E0,4E0,1E0,2E0,1E0,4E0,2E0,1E0,1E0,2E0,2E0,5E0,7E0,1E0,1E0,2E0,3E0,5E0,2E0,1E0,2E0,1E0,2E0,2E0,1E0,1E0],"tree_param":{"num_deleted":"0","num_feature":"2","num_nodes":"79","size_leaf_vector":"0"}},{"base_weights":[-1.8423761E-1,-3.339056E-1,-8.587654E-2,4.2265267E-3,-3.4985608E-1,-2.7346846E-1,-2.6171325E-2,-3.8981578E-1,-2.2218384E-1,1.7303139E-2,-3.4695703E-1,6.885304E-2,-1.9958775E-1,-3.2129002E-1,-6.34427E-2,1.3815469E-1,-3.4487408E-1,-2.0246203E-1,-4.624685E-2,-2.6511146E-2,1.8396628E-1,-2.636029E-2,-1.9192416E-2,-2.4118459E-1,-4.9734825E-1,1.4393181E-4,1.5398471E-2,-2.0274855E-1,-3.50094E-2,-3.7862664E-1,6.835924E-2,9.1070674E-2,-4.8800138E-1,2.670674E-1,-2.8227538E-2,1.1691119E-1,-1.5049791E-1,6.2454626E-2,-3.2229894E-1,-4.2480327E-2,-8.292146E-3,-2.176335E-2,5.511347E-3,-1.2768066E-2,-3.4560267E-2,-4.572964E-2,1.5398471E-2,1.9192514E-1,-1.5861955E-1,-4.3964524E-2,-1.09356325E-2,1.1390437E-1,3.3618432E-1,1.7303139E-2,-1.9144239E-1,1.556933E-4,1.7303139E-2,9.675875E-3,-2.1500375E-2,-1.1201244E-2,1.3712958E-2,-2.853744E-2,-8.308027E-3,1.4393181E-4,-5.2885166E-3,2.4284793E-2,5.401717E-3,-2.009077E-2,6.343222E-3,-5.229832E-3,2.4930404E-2,3.0605394E-2,1.1417649E-2,-1.7277332E-2,-4.2599384E-3],"categories":[],"categories_nodes":[],"categories_segments":[],"categories_sizes":[],"default_left":[0,0,0,0,0,0,0,0,0,0,0,0,0,0,0,0,0,0,0,0,0,0,0,0,0,0,0,0,0,0,0,0,0,0,0,0,0,0,0,0,0,0,0,0,0,0,0,0,0,0,0,0,0,0,0,0,0,0,0,0,0,0,0,0,0,0,0,0,0,0,0,0,0,0,0],"id":16,"left_children":[1,3,5,-1,7,9,11,13,15,-1,17,19,21,23,-1,25,27,29,-1,31,33,-1,35,37,39,-1,-1,41,-1,43,45,47,49,51,53,55,57,59,61,-1,-1,-1,-1,-1,-1,63,-1,65,67,-1,-1,69,71,-1,73,-1,-1,-1,-1,-1,-1,-1,-1,-1,-1,-1,-1,-1,-1,-1,-1,-1,-1,-1,-1],"loss_changes":[1.0607166E0,2.0023537E-1,5.0805295E-1,0E0,5.6237936E-2,4.8760962E-1,6.069785E-1,3.5329413E-1,4.4553614E-1,0E0,2.6481307E-1,2.6834145E-1,3.4944075E-1,1.4800823E-1,0E0,2.7054023E-2,2.6652157E-2,4.0755564E-1,0E0,8.041226E-1,2.0150769E-1,0E0,1.4269295E-1,3.8957167E-1,7.0927024E-2,0E0,0E0,1.420782E-1,0E0,7.1748495E-3,7.188846E-2,3.326316E-1,1.5330136E-2,4.6396375E-2,2.1321622E-1,5.1792853E-2,1.8923146E-1,1.2929925E-1,1.0558045E-1,0E0,0E0,0E0,0E0,0E0,0E0,3.6780876E-3,0E0,1.1898503E-1,1.289398E-1,0E0,0E0,1.8367714E-1,3.9952993E-3,0E0,2.6372522E-3,0E0,0E0,0E0,0E0,0E0,0E0,0E0,0E0,0E0,0E0,0E0,0E0,0E0,0E0,0E0,0E0,0E0,0E0,0E0,0E0],"parents":[2147483647,0,0,1,1,2,2,4,4,5,5,6,6,7,7,8,8,10,10,11,11,12,12,13,13,15,15,16,16,17,17,19,19,20,20,22,22,23,23,24,24,27,27,29,29,30,30,31,31,32,32,33,33,34,34,35,35,36,36,37,37,38,38,45,45,47,47,48,48,51,51,52,52,54,54],"right_children":[2,4,6,-1,8,10,12,14,16,-1,18,20,22,24,-1,26,28,30,-1,32,34,-1,36,38,40,-1,-1,42,-1,44,46,48,50,52,54,56,58,60,62,-1,-1,-1,-1,-1,-1,64,-1,66,68,-1,-1,70,72,-1,74,-1,-1,-1,-1,-1,-1,-1,-1,-1,-1,-1,-1,-1,-1,-1,-1,-1,-1,-1,-1],"split_conditions":[3.5137E-1,2.0056E-1,3.7168E-1,4.2265267E-3,2.9723E-1,2.1951E-1,5.9612E-1,2.9147E-1,2.9888E-1,1.7303139E-2,3.2138E-1,5.0974E-1,6.7971E-1,7.282E-1,-6.34427E-2,5.4553E-1,5.5674E-1,2.9328E-1,-4.624685E-2,4.9209E-1,5.0995E-1,-2.636029E-2,6.9515E-1,1.5613E-1,7.4999E-1,1.4393181E-4,1.5398471E-2,5.4958E-1,-3.50094E-2,2.6364E-1,6.0802E-1,6.0787E-1,4.9842E-1,4.3458E-1,5.4431E-1,6.9313E-1,3.9024E-1,2.656E-2,2.612E-1,-4.2480327E-2,-8.292146E-3,-2.176335E-2,5.511347E-3,-1.2768066E-2,-3.4560267E-2,2.9531E-1,1.5398471E-2,4.5884E-1,4.5998E-1,-4.3964524E-2,-1.09356325E-2,5.7008E-1,4.8893E-1,1.7303139E-2,5.8327E-1,1.556933E-4,1.7303139E-2,9.675875E-3,-2.1500375E-2,-1.1201244E-2,1.3712958E-2,-2.853744E-2,-8.308027E-3,1.4393181E-4,-5.2885166E-3,2.4284793E-2,5.401717E-3,-2.009077E-2,6.343222E-3,-5.229832E-3,2.4930404E-2,3.0605394E-2,1.1417649E-2,-1.7277332E-2,-4.2599384E-3],"split_indices":[1,0,0,0,1,0,0,1,1,0,0,0,0,0,0,0,0,0,0,0,1,0,0,1,0,0,0,0,0,0,1,1,0,1,0,0,1,1,1,0,0,0,0,0,0,0,0,1,0,0,0,0,1,0,0,0,0,0,0,0,0,0,0,0,0,0,0,0,0,0,0,0,0,0,0],"split_type":[0,0,0,0,0,0,0,0,0,0,0,0,0,0,0,0,0,0,0,0,0,0,0,0,0,0,0,0,0,0,0,0,0,0,0,0,0,0,0,0,0,0,0,0,0,0,0,0,0,0,0,0,0,0,0,0,0,0,0,0,0,0,0,0,0,0,0,0,0,0,0,0,0,0,0],"sum_hessian":[7.3E1,2.8E1,4.5E1,1E0,2.7E1,1E1,3.5E1,1.9E1,8E0,1E0,9E0,2.3E1,1.2E1,1.8E1,1E0,2E0,6E0,7E0,2E0,1.3E1,1E1,6E0,6E0,1.4E1,4E0,1E0,1E0,4E0,2E0,4E0,3E0,1.1E1,2E0,7E0,3E0,3E0,3E0,3E0,1.1E1,3E0,1E0,3E0,1E0,2E0,2E0,2E0,1E0,8E0,3E0,1E0,1E0,3E0,4E0,1E0,2E0,2E0,1E0,1E0,2E0,1E0,2E0,8E0,3E0,1E0,1E0,3E0,5E0,2E0,1E0,2E0,1E0,2E0,2E0,1E0,1E0],"tree_param":{"num_deleted":"0","num_feature":"2","num_nodes":"75","size_leaf_vector":"0"}},{"base_weights":[-1.7377463E-1,-3.1943935E-1,-8.3298296E-2,4.068033E-3,-3.3528826E-1,-2.534431E-1,-2.4269525E-2,-1.859797E-1,-3.607684E-1,1.665427E-2,-3.1685737E-1,6.446106E-2,-1.8621296E-1,-4.676348E-1,7.175656E-2,-4.857792E-1,-2.7004474E-1,-1.9200562E-1,-4.393451E-2,-2.730577E-2,1.7539512E-1,-3.28876E-1,-1.6948085E-2,-1.0781197E-2,-4.182772E-2,1.7369747E-1,-8.777483E-3,-3.22553E-1,-6.10636E-2,-3.9914897E-1,-1.3962539E-1,-3.5969532E-1,1.4085186E-2,8.55686E-2,-4.6970132E-1,2.5475278E-1,-2.7169012E-2,-3.526278E-1,-6.9886837E-3,1.1250755E-1,-1.421667E-1,1.6870216E-2,2.6707517E-3,-3.2989167E-2,-1.9531101E-2,-3.226514E-2,-7.981191E-3,2.2666194E-2,-2.3263253E-1,-1.2129662E-2,-3.2832254E-2,-8.1200376E-2,1.4821029E-2,1.8082923E-1,-1.5015997E-1,-4.2315856E-2,-1.0525547E-2,1.102867E-1,3.193751E-1,1.665427E-2,-1.842633E-1,-7.624807E-3,-2.8686581E-2,1.4790894E-4,1.665427E-2,9.31303E-3,-2.0425357E-2,1.1437386E-2,-1.3634636E-2,1.3357077E-3,-3.6564514E-2,1.3853387E-4,-8.212394E-3,2.291877E-2,5.0641093E-3,-1.908623E-2,6.1053517E-3,-4.968341E-3,2.3995517E-2,2.6418447E-2,7.04594E-3,-1.6629431E-2,-4.1001905E-3],"categories":[],"categories_nodes":[],"categories_segments":[],"categories_sizes":[],"default_left":[0,0,0,0,0,0,0,0,0,0,0,0,0,0,0,0,0,0,0,0,0,0,0,0,0,0,0,0,0,0,0,0,0,0,0,0,0,0,0,0,0,0,0,0,0,0,0,0,0,0,0,0,0,0,0,0,0,0,0,0,0,0,0,0,0,0,0,0,0,0,0,0,0,0,0,0,0,0,0,0,0,0,0],"id":17,"left_children":[1,3,5,-1,7,9,11,13,15,-1,17,19,21,23,25,27,29,31,-1,33,35,37,39,-1,-1,41,-1,43,-1,45,47,49,51,53,55,57,59,61,-1,63,65,-1,-1,-1,67,-1,-1,-1,69,-1,-1,71,-1,73,75,-1,-1,77,79,-1,81,-1,-1,-1,-1,-1,-1,-1,-1,-1,-1,-1,-1,-1,-1,-1,-1,-1,-1,-1,-1,-1,-1],"loss_changes":[9.4865274E-1,1.840136E-1,4.6589062E-1,0E0,3.5623312E-2,4.3220216E-1,5.292996E-1,4.6911222E-1,1.18329525E-1,0E0,2.568729E-1,2.491109E-1,3.0834803E-1,7.345915E-3,9.730992E-2,1.6621399E-1,1.9683409E-1,3.161001E-1,0E0,7.392834E-1,1.8374658E-1,6.328404E-3,1.2946662E-1,0E0,0E0,1.3216294E-2,0E0,2.4022579E-1,0E0,1.7851114E-2,4.4015482E-1,6.47527E-3,1.0348441E-1,2.966211E-1,1.42018795E-2,3.9463103E-2,1.9752483E-1,6.0772896E-3,0E0,4.799843E-2,1.7249686E-1,0E0,0E0,0E0,1.11466125E-1,0E0,0E0,0E0,5.1937246E-1,0E0,0E0,9.602636E-3,0E0,1.0658732E-1,1.173463E-1,0E0,0E0,1.6923587E-1,3.9582253E-3,0E0,2.4431646E-3,0E0,0E0,0E0,0E0,0E0,0E0,0E0,0E0,0E0,0E0,0E0,0E0,0E0,0E0,0E0,0E0,0E0,0E0,0E0,0E0,0E0,0E0],"parents":[2147483647,0,0,1,1,2,2,4,4,5,5,6,6,7,7,8,8,10,10,11,11,12,12,13,13,14,14,15,15,16,16,17,17,19,19,20,20,21,21,22,22,25,25,27,27,29,29,30,30,31,31,32,32,33,33,34,34,35,35,36,36,37,37,39,39,40,40,44,44,48,48,51,51,53,53,54,54,57,57,58,58,60,60],"right_children":[2,4,6,-1,8,10,12,14,16,-1,18,20,22,24,26,28,30,32,-1,34,36,38,40,-1,-1,42,-1,44,-1,46,48,50,52,54,56,58,60,62,-1,64,66,-1,-1,-1,68,-1,-1,-1,70,-1,-1,72,-1,74,76,-1,-1,78,80,-1,82,-1,-1,-1,-1,-1,-1,-1,-1,-1,-1,-1,-1,-1,-1,-1,-1,-1,-1,-1,-1,-1,-1],"split_conditions":[3.4366E-1,2.0056E-1,3.7168E-1,4.068033E-3,1.644E-1,2.1951E-1,5.9612E-1,1.031E-1,5.2988E-1,1.665427E-2,3.2138E-1,5.0974E-1,6.7971E-1,5.0468E-1,1.5613E-1,5.0638E-1,2.6828E-1,2.9328E-1,-4.393451E-2,4.9209E-1,5.0995E-1,5.7236E-1,6.9515E-1,-1.0781197E-2,-4.182772E-2,4.8558E-1,-8.777483E-3,4.565E-1,-6.10636E-2,7.4999E-1,2.7757E-1,2.6364E-1,6.0802E-1,6.0787E-1,4.9842E-1,4.3458E-1,5.4431E-1,4.0024E-1,-6.9886837E-3,6.9313E-1,3.9024E-1,1.6870216E-2,2.6707517E-3,-3.2989167E-2,4.7568E-1,-3.226514E-2,-7.981191E-3,2.2666194E-2,5.7796E-1,-1.2129662E-2,-3.2832254E-2,2.9531E-1,1.4821029E-2,4.5884E-1,4.5998E-1,-4.2315856E-2,-1.0525547E-2,5.7008E-1,4.9235E-1,1.665427E-2,5.8327E-1,-7.624807E-3,-2.8686581E-2,1.4790894E-4,1.665427E-2,9.31303E-3,-2.0425357E-2,1.1437386E-2,-1.3634636E-2,1.3357077E-3,-3.6564514E-2,1.3853387E-4,-8.212394E-3,2.291877E-2,5.0641093E-3,-1.908623E-2,6.1053517E-3,-4.968341E-3,2.3995517E-2,2.6418447E-2,7.04594E-3,-1.6629431E-2,-4.1001905E-3],"split_indices":[1,0,0,0,1,0,0,1,0,0,0,0,0,0,1,0,1,0,0,0,1,1,0,0,0,0,0,0,0,0,1,0,1,1,0,1,0,1,0,0,1,0,0,0,0,0,0,0,0,0,0,0,0,1,0,0,0,0,1,0,0,0,0,0,0,0,0,0,0,0,0,0,0,0,0,0,0,0,0,0,0,0,0],"split_type":[0,0,0,0,0,0,0,0,0,0,0,0,0,0,0,0,0,0,0,0,0,0,0,0,0,0,0,0,0,0,0,0,0,0,0,0,0,0,0,0,0,0,0,0,0,0,0,0,0,0,0,0,0,0,0,0,0,0,0,0,0,0,0,0,0,0,0,0,0,0,0,0,0,0,0,0,0,0,0,0,0,0,0],"sum_hessian":[7.3E1,2.7E1,4.6E1,1E0,2.6E1,1.1E1,3.5E1,5E0,2.1E1,1E0,1E1,2.3E1,1.2E1,2E0,3E0,7E0,1.4E1,8E0,2E0,1.3E1,1E1,6E0,6E0,1E0,1E0,2E0,1E0,6E0,1E0,6E0,8E0,4E0,4E0,1.1E1,2E0,7E0,3E0,5E0,1E0,3E0,3E0,1E0,1E0,4E0,2E0,5E0,1E0,1E0,7E0,2E0,2E0,3E0,1E0,8E0,3E0,1E0,1E0,3E0,4E0,1E0,2E0,1E0,4E0,2E0,1E0,1E0,2E0,1E0,1E0,4E0,3E0,1E0,2E0,3E0,5E0,2E0,1E0,2E0,1E0,3E0,1E0,1E0,1E0],"tree_param":{"num_deleted":"0","num_feature":"2","num_nodes":"83","size_leaf_vector":"0"}},{"base_weights":[-1.6451673E-1,-3.0215412E-1,-7.901962E-2,3.915482E-3,-3.1721216E-1,-2.3989277E-1,-2.3200247E-2,-3.486431E-1,-1.9898336E-1,1.6029736E-2,-3.0056116E-1,6.0067177E-2,-1.7514008E-1,-2.845033E-1,-5.877371E-2,1.3208343E-1,-3.3135286E-1,-1.8185128E-1,-4.1737784E-2,-2.796067E-2,1.6664197E-1,-3.1039602E-1,-1.4864147E-2,-2.1125959E-1,-4.4733378E-1,8.844584E-5,1.4770941E-2,-3.1718418E-2,-1.7984514E-1,-3.4171054E-1,1.4378225E-2,8.040111E-2,-4.5208755E-1,2.4220778E-1,-2.6150167E-2,-3.3223265E-1,-6.7266077E-3,1.0827002E-1,-1.3428228E-1,5.620852E-2,-2.8281066E-1,-3.8096596E-2,-7.681896E-3,5.2545825E-3,-2.1487571E-2,-1.1523178E-2,-3.119064E-2,-7.712881E-2,1.426524E-2,1.7037623E-1,-1.4214319E-1,-4.072901E-2,-1.013084E-2,1.0677199E-1,3.0211484E-1,1.6029736E-2,-1.7735343E-1,-7.338877E-3,-2.6965389E-2,1.40512E-4,1.6029736E-2,8.963791E-3,-2.5872117E-1,-1.0376901E-2,1.2538787E-2,-2.5275057E-2,-6.76352E-3,1.3333932E-4,-7.8017744E-3,2.1629587E-2,4.747601E-3,-1.8131921E-2,5.8764005E-3,-4.7199237E-3,2.3095684E-2,2.77542E-2,1.0010158E-2,-1.6005829E-2,-3.946433E-3,-2.333802E-2,-5.768113E-3],"categories":[],"categories_nodes":[],"categories_segments":[],"categories_sizes":[],"default_left":[0,0,0,0,0,0,0,0,0,0,0,0,0,0,0,0,0,0,0,0,0,0,0,0,0,0,0,0,0,0,0,0,0,0,0,0,0,0,0,0,0,0,0,0,0,0,0,0,0,0,0,0,0,0,0,0,0,0,0,0,0,0,0,0,0,0,0,0,0,0,0,0,0,0,0,0,0,0,0,0,0],"id":18,"left_children":[1,3,5,-1,7,9,11,13,15,-1,17,19,21,23,-1,25,27,29,-1,31,33,35,37,39,41,-1,-1,-1,43,45,47,49,51,53,55,57,-1,59,61,63,65,-1,-1,-1,-1,-1,-1,67,-1,69,71,-1,-1,73,75,-1,77,-1,-1,-1,-1,-1,79,-1,-1,-1,-1,-1,-1,-1,-1,-1,-1,-1,-1,-1,-1,-1,-1,-1,-1],"loss_changes":[8.4692645E-1,1.659677E-1,4.1648686E-1,0E0,3.095889E-2,3.9448547E-1,4.659792E-1,3.3507347E-1,3.9435145E-1,0E0,2.3301119E-1,2.2981662E-1,2.7720377E-1,1.3209629E-1,0E0,2.524003E-2,7.1730018E-3,2.8723514E-1,0E0,6.797763E-1,1.665872E-1,3.939271E-3,1.1746991E-1,3.029608E-1,5.2515745E-2,0E0,0E0,0E0,1.2668833E-1,5.8439374E-3,9.511626E-2,2.6449922E-1,1.3156652E-2,3.2651097E-2,1.8298823E-1,3.2184124E-3,0E0,4.448179E-2,1.5725175E-1,1.0949994E-1,9.487325E-2,0E0,0E0,0E0,0E0,0E0,0E0,8.673672E-3,0E0,9.5475346E-2,1.0680147E-1,0E0,0E0,1.559375E-1,7.899106E-3,0E0,2.2633746E-3,0E0,0E0,0E0,0E0,0E0,4.6778023E-3,0E0,0E0,0E0,0E0,0E0,0E0,0E0,0E0,0E0,0E0,0E0,0E0,0E0,0E0,0E0,0E0,0E0,0E0],"parents":[2147483647,0,0,1,1,2,2,4,4,5,5,6,6,7,7,8,8,10,10,11,11,12,12,13,13,15,15,16,16,17,17,19,19,20,20,21,21,22,22,23,23,24,24,28,28,29,29,30,30,31,31,32,32,33,33,34,34,35,35,37,37,38,38,39,39,40,40,47,47,49,49,50,50,53,53,54,54,56,56,62,62],"right_children":[2,4,6,-1,8,10,12,14,16,-1,18,20,22,24,-1,26,28,30,-1,32,34,36,38,40,42,-1,-1,-1,44,46,48,50,52,54,56,58,-1,60,62,64,66,-1,-1,-1,-1,-1,-1,68,-1,70,72,-1,-1,74,76,-1,78,-1,-1,-1,-1,-1,80,-1,-1,-1,-1,-1,-1,-1,-1,-1,-1,-1,-1,-1,-1,-1,-1,-1,-1],"split_conditions":[3.4366E-1,2.0056E-1,3.7168E-1,3.915482E-3,2.9723E-1,2.1951E-1,5.9612E-1,2.9147E-1,2.9888E-1,1.6029736E-2,3.2138E-1,5.0974E-1,6.7971E-1,7.282E-1,-5.877371E-2,5.4553E-1,3.1372E-1,2.9328E-1,-4.1737784E-2,4.9209E-1,5.0995E-1,5.7236E-1,6.9515E-1,1.5613E-1,7.4999E-1,8.844584E-5,1.4770941E-2,-3.1718418E-2,3.1789E-1,2.6364E-1,6.0802E-1,6.0787E-1,4.9842E-1,4.3458E-1,5.4431E-1,4.0024E-1,-6.7266077E-3,6.9313E-1,3.9024E-1,2.656E-2,5.6478E-1,-3.8096596E-2,-7.681896E-3,5.2545825E-3,-2.1487571E-2,-1.1523178E-2,-3.119064E-2,2.9531E-1,1.426524E-2,4.5884E-1,4.5998E-1,-4.072901E-2,-1.013084E-2,5.7008E-1,4.8893E-1,1.6029736E-2,5.8327E-1,-7.338877E-3,-2.6965389E-2,1.40512E-4,1.6029736E-2,8.963791E-3,7.4217E-1,-1.0376901E-2,1.2538787E-2,-2.5275057E-2,-6.76352E-3,1.3333932E-4,-7.8017744E-3,2.1629587E-2,4.747601E-3,-1.8131921E-2,5.8764005E-3,-4.7199237E-3,2.3095684E-2,2.77542E-2,1.0010158E-2,-1.6005829E-2,-3.946433E-3,-2.333802E-2,-5.768113E-3],"split_indices":[1,0,0,0,1,0,0,1,1,0,0,0,0,0,0,0,1,0,0,0,1,1,0,1,0,0,0,0,1,0,1,1,0,1,0,1,0,0,1,1,0,0,0,0,0,0,0,0,0,1,0,0,0,0,1,0,0,0,0,0,0,0,0,0,0,0,0,0,0,0,0,0,0,0,0,0,0,0,0,0,0],"split_type":[0,0,0,0,0,0,0,0,0,0,0,0,0,0,0,0,0,0,0,0,0,0,0,0,0,0,0,0,0,0,0,0,0,0,0,0,0,0,0,0,0,0,0,0,0,0,0,0,0,0,0,0,0,0,0,0,0,0,0,0,0,0,0,0,0,0,0,0,0,0,0,0,0,0,0,0,0,0,0,0,0],"sum_hessian":[7.3E1,2.7E1,4.6E1,1E0,2.6E1,1.1E1,3.5E1,1.9E1,7E0,1E0,1E1,2.3E1,1.2E1,1.8E1,1E0,2E0,5E0,8E0,2E0,1.3E1,1E1,6E0,6E0,1.4E1,4E0,1E0,1E0,2E0,3E0,4E0,4E0,1.1E1,2E0,7E0,3E0,5E0,1E0,3E0,3E0,3E0,1.1E1,3E0,1E0,1E0,2E0,2E0,2E0,3E0,1E0,8E0,3E0,1E0,1E0,3E0,4E0,1E0,2E0,1E0,4E0,2E0,1E0,1E0,2E0,1E0,2E0,8E0,3E0,1E0,2E0,3E0,5E0,2E0,1E0,2E0,1E0,2E0,2E0,1E0,1E0,1E0,1E0],"tree_param":{"num_deleted":"0","num_feature":"2","num_nodes":"81","size_leaf_vector":"0"}},{"base_weights":[-1.556233E-1,-2.8533563E-1,-7.503674E-2,3.7686513E-3,-2.9962575E-1,-2.270529E-1,-2.228033E-2,-1.7581578E-1,-3.2662782E-1,1.5428621E-2,-2.850968E-1,5.6207106E-2,-1.6546634E-1,-2.9550128E-2,1.848245E-2,-3.8336477E-1,-1.583876E-1,-1.921327E-1,-4.5552667E-2,-2.8487783E-2,1.5889086E-1,-2.9297787E-1,-1.4316766E-2,-2.8196338E-1,-5.212369E-2,1.2713031E-1,-2.9802084E-1,-3.2462502E-1,-4.970031E-2,7.554783E-2,-4.351343E-1,2.310597E-1,-2.5169536E-2,-3.130326E-1,-6.47436E-3,1.0419235E-1,-1.2924668E-1,-3.545044E-1,2.2069842E-2,8.512885E-5,1.4217031E-2,-3.0132497E-2,-9.493479E-2,-7.0647383E-3,-2.6901228E-2,1.2318784E-1,-1.2520601E-2,2.4236718E-1,-3.815775E-2,-3.9201677E-2,-9.750934E-3,1.03358015E-1,2.8700912E-1,1.5428621E-2,-1.7070268E-1,-7.0636687E-3,-2.5347466E-2,1.3348759E-4,1.5428621E-2,8.627649E-3,-2.4901913E-1,-2.7660577E-2,-7.3938253E-3,5.0575356E-3,-1.57377E-2,1.2833923E-4,1.3730293E-2,2.0412924E-2,4.618002E-3,-9.3563255E-3,1.1081101E-2,-4.483928E-3,2.2229595E-2,2.636649E-2,9.509651E-3,-1.540561E-2,-3.7984417E-3,-2.2462845E-2,-5.551809E-3],"categories":[],"categories_nodes":[],"categories_segments":[],"categories_sizes":[],"default_left":[0,0,0,0,0,0,0,0,0,0,0,0,0,0,0,0,0,0,0,0,0,0,0,0,0,0,0,0,0,0,0,0,0,0,0,0,0,0,0,0,0,0,0,0,0,0,0,0,0,0,0,0,0,0,0,0,0,0,0,0,0,0,0,0,0,0,0,0,0,0,0,0,0,0,0,0,0,0,0],"id":19,"left_children":[1,3,5,-1,7,9,11,13,15,-1,17,19,21,-1,-1,23,25,27,-1,29,31,33,35,37,-1,39,41,43,45,47,49,51,53,55,-1,57,59,61,-1,-1,-1,-1,63,-1,-1,65,-1,67,69,-1,-1,71,73,-1,75,-1,-1,-1,-1,-1,77,-1,-1,-1,-1,-1,-1,-1,-1,-1,-1,-1,-1,-1,-1,-1,-1,-1,-1],"loss_changes":[7.5211656E-1,1.493311E-1,3.7187308E-1,0E0,3.2838106E-2,3.6008304E-1,4.1387928E-1,7.419955E-1,1.3973403E-1,0E0,2.128616E-1,2.1324939E-1,2.4635857E-1,0E0,0E0,2.7801728E-1,3.16962E-1,1.7257807E-1,0E0,6.251534E-1,1.5193337E-1,1.9881725E-3,1.0880822E-1,6.477202E-1,0E0,2.3382533E-2,6.720495E-2,5.452931E-3,1.4218265E-1,2.3686767E-1,1.2188494E-2,2.7494013E-2,1.6952147E-1,9.099841E-4,0E0,4.1222602E-2,1.45679E-1,7.5672865E-3,0E0,0E0,0E0,0E0,7.0119075E-2,0E0,0E0,2.1509796E-2,0E0,1.0184348E-2,1.4721718E-1,0E0,0E0,1.4369097E-1,7.1288943E-3,0E0,2.0968094E-3,0E0,0E0,0E0,0E0,0E0,4.333541E-3,0E0,0E0,0E0,0E0,0E0,0E0,0E0,0E0,0E0,0E0,0E0,0E0,0E0,0E0,0E0,0E0,0E0,0E0],"parents":[2147483647,0,0,1,1,2,2,4,4,5,5,6,6,7,7,8,8,10,10,11,11,12,12,15,15,16,16,17,17,19,19,20,20,21,21,22,22,23,23,25,25,26,26,27,27,28,28,29,29,30,30,31,31,32,32,33,33,35,35,36,36,37,37,42,42,45,45,47,47,48,48,51,51,52,52,54,54,60,60],"right_children":[2,4,6,-1,8,10,12,14,16,-1,18,20,22,-1,-1,24,26,28,-1,30,32,34,36,38,-1,40,42,44,46,48,50,52,54,56,-1,58,60,62,-1,-1,-1,-1,64,-1,-1,66,-1,68,70,-1,-1,72,74,-1,76,-1,-1,-1,-1,-1,78,-1,-1,-1,-1,-1,-1,-1,-1,-1,-1,-1,-1,-1,-1,-1,-1,-1,-1],"split_conditions":[3.4366E-1,2.0056E-1,3.7168E-1,3.7686513E-3,4.8558E-1,2.1951E-1,5.9612E-1,4.565E-1,2.9723E-1,1.5428621E-2,3.4516E-1,5.0974E-1,6.7971E-1,-2.9550128E-2,1.848245E-2,2.7757E-1,2.9888E-1,2.9328E-1,-4.5552667E-2,4.9209E-1,5.0995E-1,5.7236E-1,6.9515E-1,2.6828E-1,-5.212369E-2,5.4553E-1,3.1372E-1,2.278E-1,3.046E-1,5.0024E-1,4.9842E-1,4.3458E-1,5.4431E-1,4.0024E-1,-6.47436E-3,6.9313E-1,3.9024E-1,7.4999E-1,2.2069842E-2,8.512885E-5,1.4217031E-2,-3.0132497E-2,5.5674E-1,-7.0647383E-3,-2.6901228E-2,2.9531E-1,-1.2520601E-2,4.5884E-1,4.732E-1,-3.9201677E-2,-9.750934E-3,5.7008E-1,4.8893E-1,1.5428621E-2,5.8327E-1,-7.0636687E-3,-2.5347466E-2,1.3348759E-4,1.5428621E-2,8.627649E-3,7.4217E-1,-2.7660577E-2,-7.3938253E-3,5.0575356E-3,-1.57377E-2,1.2833923E-4,1.3730293E-2,2.0412924E-2,4.618002E-3,-9.3563255E-3,1.1081101E-2,-4.483928E-3,2.2229595E-2,2.636649E-2,9.509651E-3,-1.540561E-2,-3.7984417E-3,-2.2462845E-2,-5.551809E-3],"split_indices":[1,0,0,0,0,0,0,0,1,0,0,0,0,0,0,1,1,0,0,0,1,1,0,1,0,0,1,0,0,1,0,1,0,1,0,0,1,0,0,0,0,0,0,0,0,0,0,1,0,0,0,0,1,0,0,0,0,0,0,0,0,0,0,0,0,0,0,0,0,0,0,0,0,0,0,0,0,0,0],"split_type":[0,0,0,0,0,0,0,0,0,0,0,0,0,0,0,0,0,0,0,0,0,0,0,0,0,0,0,0,0,0,0,0,0,0,0,0,0,0,0,0,0,0,0,0,0,0,0,0,0,0,0,0,0,0,0,0,0,0,0,0,0,0,0,0,0,0,0,0,0,0,0,0,0,0,0,0,0,0,0],"sum_hessian":[7.3E1,2.7E1,4.6E1,1E0,2.6E1,1.1E1,3.5E1,6E0,2E1,1E0,1E1,2.3E1,1.2E1,4E0,2E0,1.4E1,6E0,9E0,1E0,1.3E1,1E1,6E0,6E0,1.2E1,2E0,2E0,4E0,4E0,5E0,1.1E1,2E0,7E0,3E0,5E0,1E0,3E0,3E0,1.1E1,1E0,1E0,1E0,2E0,2E0,1E0,3E0,2E0,3E0,4E0,7E0,1E0,1E0,3E0,4E0,1E0,2E0,1E0,4E0,2E0,1E0,1E0,2E0,1E1,1E0,1E0,1E0,1E0,1E0,3E0,1E0,5E0,2E0,2E0,1E0,2E0,2E0,1E0,1E0,1E0,1E0],"tree_param":{"num_deleted":"0","num_feature":"2","num_nodes":"79","size_leaf_vector":"0"}},{"base_weights":[-1.463398E-1,-2.6746824E-1,-7.106458E-2,3.627328E-3,-2.80957E-1,-2.1525326E-1,-2.102766E-2,-2.418051E-1,-4.0486434E-1,-1.05507664E-1,-3.8199067E-2,5.3143643E-2,-1.5634178E-1,6.174303E-2,-2.904245E-1,-3.4397755E-2,-7.1165566E-3,1.4850048E-2,-1.6123088E-1,-2.7936688E-2,1.5150554E-1,-2.765596E-1,-1.3789428E-2,-8.950496E-3,1.61884E-1,-4.1310966E-1,-1.9258556E-1,-3.0707133E-1,1.6855735E-2,7.211138E-2,-4.1881672E-1,2.2043297E-1,-2.4225675E-2,-2.2121774E-2,-6.2315715E-3,1.0026844E-1,-1.2439994E-1,1.5074286E-2,3.137665E-3,-2.6406798E-1,-5.461506E-2,-2.9874057E-1,-1.12212166E-1,-1.0097872E-2,-2.8286045E-2,-6.7033045E-2,1.3215408E-2,1.5509893E-1,-1.3263845E-1,-3.773161E-2,-9.385273E-3,1.000426E-1,2.7265868E-1,1.4850048E-2,-1.6430132E-1,1.2681186E-4,1.4850048E-2,8.304113E-3,-2.3968092E-1,-2.777712E-2,8.330345E-5,-6.4632418E-3,-2.477531E-2,2.1242224E-2,-1.47784585E-2,1.235269E-4,-6.785656E-3,1.9264696E-2,4.605499E-3,-2.1353085E-2,9.7154453E-4,-4.259731E-3,2.1395987E-2,2.5048168E-2,9.034168E-3,-1.4827899E-2,-3.6560008E-3,-2.1620488E-2,-5.3436165E-3],"categories":[],"categories_nodes":[],"categories_segments":[],"categories_sizes":[],"default_left":[0,0,0,0,0,0,0,0,0,0,0,0,0,0,0,0,0,0,0,0,0,0,0,0,0,0,0,0,0,0,0,0,0,0,0,0,0,0,0,0,0,0,0,0,0,0,0,0,0,0,0,0,0,0,0,0,0,0,0,0,0,0,0,0,0,0,0,0,0,0,0,0,0,0,0,0,0,0,0],"id":20,"left_children":[1,3,5,-1,7,9,11,13,15,17,-1,19,21,23,25,-1,-1,-1,27,29,31,33,35,-1,37,39,41,43,45,47,49,51,53,-1,-1,55,57,-1,-1,59,-1,61,63,-1,-1,65,-1,67,69,-1,-1,71,73,-1,75,-1,-1,-1,77,-1,-1,-1,-1,-1,-1,-1,-1,-1,-1,-1,-1,-1,-1,-1,-1,-1,-1,-1,-1],"loss_changes":[6.5572226E-1,1.3287377E-1,3.345673E-1,0E0,3.3084393E-2,3.3353418E-1,3.696199E-1,3.57373E-1,3.982216E-2,2.010484E-1,0E0,1.9563776E-1,2.1897167E-1,9.185453E-2,1.6050887E-1,0E0,0E0,0E0,2.3892601E-1,5.7769656E-1,1.3857982E-1,4.0841103E-4,1.0078538E-1,0E0,5.6754723E-3,1.833992E-1,7.739416E-2,9.638548E-3,7.864984E-2,2.2447231E-1,1.1291504E-2,2.3022294E-2,1.5704575E-1,0E0,0E0,3.8202047E-2,1.3495795E-1,0E0,0E0,1.9771898E-1,0E0,5.114436E-3,3.5773125E-1,0E0,0E0,6.589107E-3,0E0,7.0037186E-2,9.2248626E-2,0E0,0E0,1.3241255E-1,6.4338744E-3,0E0,1.9424856E-3,0E0,0E0,0E0,4.014626E-3,0E0,0E0,0E0,0E0,0E0,0E0,0E0,0E0,0E0,0E0,0E0,0E0,0E0,0E0,0E0,0E0,0E0,0E0,0E0,0E0],"parents":[2147483647,0,0,1,1,2,2,4,4,5,5,6,6,7,7,8,8,9,9,11,11,12,12,13,13,14,14,18,18,19,19,20,20,21,21,22,22,24,24,25,25,26,26,27,27,28,28,29,29,30,30,31,31,32,32,35,35,36,36,39,39,41,41,42,42,45,45,47,47,48,48,51,51,52,52,54,54,58,58],"right_children":[2,4,6,-1,8,10,12,14,16,18,-1,20,22,24,26,-1,-1,-1,28,30,32,34,36,-1,38,40,42,44,46,48,50,52,54,-1,-1,56,58,-1,-1,60,-1,62,64,-1,-1,66,-1,68,70,-1,-1,72,74,-1,76,-1,-1,-1,78,-1,-1,-1,-1,-1,-1,-1,-1,-1,-1,-1,-1,-1,-1,-1,-1,-1,-1,-1,-1],"split_conditions":[3.4366E-1,2.0056E-1,3.7168E-1,3.627328E-3,7.282E-1,3.2138E-1,5.9612E-1,1.5613E-1,7.4999E-1,2.1951E-1,-3.8199067E-2,5.0974E-1,6.7971E-1,2.656E-2,5.2988E-1,-3.4397755E-2,-7.1165566E-3,1.4850048E-2,2.9328E-1,4.9209E-1,5.0995E-1,5.7236E-1,6.9515E-1,-8.950496E-3,4.8558E-1,5.0638E-1,2.3262E-1,2.6364E-1,6.0802E-1,6.0787E-1,4.9842E-1,4.3458E-1,5.4431E-1,-2.2121774E-2,-6.2315715E-3,6.9313E-1,3.9024E-1,1.5074286E-2,3.137665E-3,4.565E-1,-5.461506E-2,5.4875E-1,2.7757E-1,-1.0097872E-2,-2.8286045E-2,2.9531E-1,1.3215408E-2,4.5884E-1,6.3961E-1,-3.773161E-2,-9.385273E-3,5.7008E-1,4.8893E-1,1.4850048E-2,5.8327E-1,1.2681186E-4,1.4850048E-2,8.304113E-3,7.4217E-1,-2.777712E-2,8.330345E-5,-6.4632418E-3,-2.477531E-2,2.1242224E-2,-1.47784585E-2,1.235269E-4,-6.785656E-3,1.9264696E-2,4.605499E-3,-2.1353085E-2,9.7154453E-4,-4.259731E-3,2.1395987E-2,2.5048168E-2,9.034168E-3,-1.4827899E-2,-3.6560008E-3,-2.1620488E-2,-5.3436165E-3],"split_indices":[1,0,0,0,0,0,0,1,0,0,0,0,0,1,0,0,0,0,0,0,1,1,0,0,0,0,1,0,1,1,0,1,0,0,0,0,1,0,0,0,0,0,1,0,0,0,0,1,1,0,0,0,1,0,0,0,0,0,0,0,0,0,0,0,0,0,0,0,0,0,0,0,0,0,0,0,0,0,0],"split_type":[0,0,0,0,0,0,0,0,0,0,0,0,0,0,0,0,0,0,0,0,0,0,0,0,0,0,0,0,0,0,0,0,0,0,0,0,0,0,0,0,0,0,0,0,0,0,0,0,0,0,0,0,0,0,0,0,0,0,0,0,0,0,0,0,0,0,0,0,0,0,0,0,0,0,0,0,0,0,0],"sum_hessian":[7.3E1,2.7E1,4.6E1,1E0,2.6E1,1.1E1,3.5E1,2.2E1,4E0,9E0,2E0,2.3E1,1.2E1,3E0,1.9E1,3E0,1E0,1E0,8E0,1.3E1,1E1,6E0,6E0,1E0,2E0,7E0,1.2E1,4E0,4E0,1.1E1,2E0,7E0,3E0,5E0,1E0,3E0,3E0,1E0,1E0,6E0,1E0,4E0,8E0,2E0,2E0,3E0,1E0,8E0,3E0,1E0,1E0,3E0,4E0,1E0,2E0,2E0,1E0,1E0,2E0,4E0,2E0,1E0,3E0,1E0,7E0,1E0,2E0,3E0,5E0,1E0,2E0,2E0,1E0,2E0,2E0,1E0,1E0,1E0,1E0],"tree_param":{"num_deleted":"0","num_feature":"2","num_nodes":"79","size_leaf_vector":"0"}},{"base_weights":[-1.3832335E-1,-2.5225487E-1,-6.75062E-2,3.491304E-3,-2.6504585E-1,-2.0370756E-1,-2.023058E-2,-1.5050341E-1,-2.9060543E-1,-9.929265E-2,-3.6289107E-2,4.932273E-2,-1.470805E-1,-3.4813988E-1,1.7179389E-2,-4.8215482E-1,-2.3189415E-1,1.4293172E-2,-1.5267532E-1,-2.8957732E-2,1.4446853E-1,-1.9490108E-2,-1.3281384E-2,-1.1732672E-2,-3.1784814E-2,-1.3170818E-2,-5.2566998E-2,-3.246392E-1,-1.0307806E-1,-2.9171777E-1,1.6902214E-2,6.699376E-2,-4.031111E-1,2.1030281E-1,-2.3317195E-2,9.6492514E-2,-1.19734935E-1,-6.22087E-3,-3.4227803E-1,2.044564E-2,-1.8411495E-1,-9.592976E-3,-2.6871746E-2,-6.367109E-2,1.271983E-2,1.4611876E-1,-1.2778594E-1,-3.6316674E-2,-9.033325E-3,9.682345E-2,2.5902575E-1,1.4293172E-2,-1.5814002E-1,1.2046993E-4,1.4293172E-2,7.992708E-3,-2.3069288E-1,-2.7167289E-2,-6.849686E-3,2.4779327E-3,-3.0714659E-2,1.1889562E-4,-6.4463727E-3,1.8181058E-2,4.317656E-3,-2.0552343E-2,9.2296716E-4,-4.046745E-3,2.0593636E-2,2.3795761E-2,8.58246E-3,-1.4271853E-2,-3.5188997E-3,-2.0809717E-2,-5.143231E-3],"categories":[],"categories_nodes":[],"categories_segments":[],"categories_sizes":[],"default_left":[0,0,0,0,0,0,0,0,0,0,0,0,0,0,0,0,0,0,0,0,0,0,0,0,0,0,0,0,0,0,0,0,0,0,0,0,0,0,0,0,0,0,0,0,0,0,0,0,0,0,0,0,0,0,0,0,0,0,0,0,0,0,0,0,0,0,0,0,0,0,0,0,0,0,0],"id":21,"left_children":[1,3,5,-1,7,9,11,13,15,17,-1,19,21,23,-1,25,27,-1,29,31,33,-1,35,-1,-1,-1,-1,37,39,41,43,45,47,49,51,53,55,-1,57,-1,59,-1,-1,61,-1,63,65,-1,-1,67,69,-1,71,-1,-1,-1,73,-1,-1,-1,-1,-1,-1,-1,-1,-1,-1,-1,-1,-1,-1,-1,-1,-1,-1],"loss_changes":[5.800258E-1,1.1935437E-1,2.9851207E-1,0E0,3.530979E-2,3.0297533E-1,3.2487634E-1,6.0485137E-1,1.2435937E-1,1.8383557E-1,0E0,1.8293683E-1,1.9273004E-1,6.2223673E-3,0E0,1.4512724E-1,1.8158376E-1,0E0,2.1713695E-1,5.296139E-1,1.2641028E-1,0E0,9.335427E-2,0E0,0E0,0E0,0E0,1.4241815E-2,3.2419157E-1,8.698851E-3,7.2314374E-2,2.0361525E-1,1.0460526E-2,1.9152611E-2,1.4548817E-1,3.540266E-2,1.2502588E-1,0E0,1.1981249E-2,0E0,4.0512666E-1,0E0,0E0,5.9520453E-3,0E0,6.2787086E-2,8.532358E-2,0E0,0E0,1.2202515E-1,5.806595E-3,0E0,1.7995313E-3,0E0,0E0,0E0,3.719151E-3,0E0,0E0,0E0,0E0,0E0,0E0,0E0,0E0,0E0,0E0,0E0,0E0,0E0,0E0,0E0,0E0,0E0,0E0],"parents":[2147483647,0,0,1,1,2,2,4,4,5,5,6,6,7,7,8,8,9,9,11,11,12,12,13,13,15,15,16,16,18,18,19,19,20,20,22,22,27,27,28,28,29,29,30,30,31,31,32,32,33,33,34,34,35,35,36,36,38,38,40,40,43,43,45,45,46,46,49,49,50,50,52,52,56,56],"right_children":[2,4,6,-1,8,10,12,14,16,18,-1,20,22,24,-1,26,28,-1,30,32,34,-1,36,-1,-1,-1,-1,38,40,42,44,46,48,50,52,54,56,-1,58,-1,60,-1,-1,62,-1,64,66,-1,-1,68,70,-1,72,-1,-1,-1,74,-1,-1,-1,-1,-1,-1,-1,-1,-1,-1,-1,-1,-1,-1,-1,-1,-1,-1],"split_conditions":[3.4366E-1,2.0056E-1,3.7168E-1,3.491304E-3,4.8558E-1,3.2138E-1,5.9612E-1,4.565E-1,5.2988E-1,2.1951E-1,-3.6289107E-2,5.0974E-1,6.7971E-1,3.2406E-1,1.7179389E-2,5.0638E-1,2.6828E-1,1.4293172E-2,2.9328E-1,4.9209E-1,5.0995E-1,-1.9490108E-2,6.9515E-1,-1.1732672E-2,-3.1784814E-2,-1.3170818E-2,-5.2566998E-2,5.4875E-1,2.7757E-1,2.6364E-1,6.0802E-1,6.0787E-1,4.9842E-1,4.3458E-1,5.4431E-1,6.9313E-1,3.9024E-1,-6.22087E-3,7.4999E-1,2.044564E-2,5.7796E-1,-9.592976E-3,-2.6871746E-2,2.9531E-1,1.271983E-2,4.5884E-1,6.3961E-1,-3.6316674E-2,-9.033325E-3,5.7008E-1,4.8893E-1,1.4293172E-2,5.8327E-1,1.2046993E-4,1.4293172E-2,7.992708E-3,7.4217E-1,-2.7167289E-2,-6.849686E-3,2.4779327E-3,-3.0714659E-2,1.1889562E-4,-6.4463727E-3,1.8181058E-2,4.317656E-3,-2.0552343E-2,9.2296716E-4,-4.046745E-3,2.0593636E-2,2.3795761E-2,8.58246E-3,-1.4271853E-2,-3.5188997E-3,-2.0809717E-2,-5.143231E-3],"split_indices":[1,0,0,0,0,0,0,0,0,0,0,0,0,0,0,0,1,0,0,0,1,0,0,0,0,0,0,0,1,0,1,1,0,1,0,0,1,0,0,0,0,0,0,0,0,1,1,0,0,0,1,0,0,0,0,0,0,0,0,0,0,0,0,0,0,0,0,0,0,0,0,0,0,0,0],"split_type":[0,0,0,0,0,0,0,0,0,0,0,0,0,0,0,0,0,0,0,0,0,0,0,0,0,0,0,0,0,0,0,0,0,0,0,0,0,0,0,0,0,0,0,0,0,0,0,0,0,0,0,0,0,0,0,0,0,0,0,0,0,0,0,0,0,0,0,0,0,0,0,0,0,0,0],"sum_hessian":[7.3E1,2.7E1,4.6E1,1E0,2.6E1,1.1E1,3.5E1,6E0,2E1,9E0,2E0,2.3E1,1.2E1,4E0,2E0,3E0,1.7E1,1E0,8E0,1.3E1,1E1,6E0,6E0,2E0,2E0,2E0,1E0,9E0,8E0,4E0,4E0,1.1E1,2E0,7E0,3E0,3E0,3E0,1E0,8E0,1E0,7E0,2E0,2E0,3E0,1E0,8E0,3E0,1E0,1E0,3E0,4E0,1E0,2E0,2E0,1E0,1E0,2E0,7E0,1E0,4E0,3E0,1E0,2E0,3E0,5E0,1E0,2E0,2E0,1E0,2E0,2E0,1E0,1E0,1E0,1E0],"tree_param":{"num_deleted":"0","num_feature":"2","num_nodes":"75","size_leaf_vector":"0"}},{"base_weights":[-1.3077034E-1,-2.3520708E-1,-6.2086962E-2,3.3603811E-3,-2.468077E-1,-1.9656655E-1,-1.927134E-2,-1.4397974E-1,-2.742275E-1,-1.067535E-1,-4.105114E-2,4.5746308E-2,-1.3782151E-1,-3.007758E-1,1.6320419E-2,-4.6242768E-1,-2.1717037E-1,-1.0653529E-2,-2.455767E-2,-2.9820237E-2,1.3776316E-1,-2.431623E-1,-1.2791942E-2,-1.1190598E-2,-3.0195573E-2,-1.2512278E-2,-5.0595734E-2,-3.0431506E-1,-9.621288E-2,1.3757178E-2,-6.4583756E-2,6.220833E-2,-3.8799444E-1,2.0064574E-1,-2.244281E-2,-5.2383356E-3,-2.6040787E-1,9.2858985E-2,-1.1524488E-1,-5.987587E-3,-3.2038686E-1,1.967893E-2,-1.7383592E-1,-1.2976032E-1,1.2242836E-2,1.376597E-1,-1.2310934E-1,-3.49548E-2,-8.694575E-3,9.295565E-2,1.8500151E-2,1.3757178E-2,-1.5220977E-1,-2.1329906E-2,-5.267008E-3,1.14446884E-4,1.3757178E-2,7.6929824E-3,-2.220419E-1,-2.5384435E-2,-6.5928227E-3,2.3292562E-3,-2.898696E-2,-1.2893283E-2,-2.2730043E-3,1.715837E-2,4.047803E-3,-1.5757235E-2,5.1694494E-3,1.4895721E-2,-8.400234E-3,-1.3736658E-2,-3.3869417E-3,-2.0029357E-2,-4.9503595E-3],"categories":[],"categories_nodes":[],"categories_segments":[],"categories_sizes":[],"default_left":[0,0,0,0,0,0,0,0,0,0,0,0,0,0,0,0,0,0,0,0,0,0,0,0,0,0,0,0,0,0,0,0,0,0,0,0,0,0,0,0,0,0,0,0,0,0,0,0,0,0,0,0,0,0,0,0,0,0,0,0,0,0,0,0,0,0,0,0,0,0,0,0,0,0,0],"id":22,"left_children":[1,3,5,-1,7,9,11,13,15,17,-1,19,21,23,-1,25,27,29,-1,31,33,35,37,-1,-1,-1,-1,39,41,-1,43,45,47,49,51,-1,53,55,57,-1,59,-1,61,63,-1,65,67,-1,-1,69,-1,-1,71,-1,-1,-1,-1,-1,73,-1,-1,-1,-1,-1,-1,-1,-1,-1,-1,-1,-1,-1,-1,-1,-1],"loss_changes":[5.1620376E-1,1.052593E-1,2.6107198E-1,0E0,3.94634E-2,2.881214E-1,2.8378755E-1,5.190117E-1,1.2507582E-1,2.0858708E-1,0E0,1.7098963E-1,1.6810875E-1,3.25343E-2,0E0,1.3833648E-1,1.6045535E-1,9.5581874E-2,0E0,4.856081E-1,1.15318894E-1,2.734661E-3,8.647126E-2,0E0,0E0,0E0,0E0,1.0500252E-2,2.961317E-1,0E0,1.2512219E-1,1.8473685E-1,9.690672E-3,1.6720444E-2,1.3478115E-1,0E0,7.4032545E-3,3.2808248E-2,1.1582479E-1,0E0,8.061349E-3,0E0,3.6057788E-1,1.9941844E-2,0E0,5.628328E-2,8.1299506E-2,0E0,0E0,1.0886372E-1,0E0,0E0,1.6670898E-3,0E0,0E0,0E0,0E0,0E0,3.4454465E-3,0E0,0E0,0E0,0E0,0E0,0E0,0E0,0E0,0E0,0E0,0E0,0E0,0E0,0E0,0E0,0E0],"parents":[2147483647,0,0,1,1,2,2,4,4,5,5,6,6,7,7,8,8,9,9,11,11,12,12,13,13,15,15,16,16,17,17,19,19,20,20,21,21,22,22,27,27,28,28,30,30,31,31,32,32,33,33,34,34,36,36,37,37,38,38,40,40,42,42,43,43,45,45,46,46,49,49,52,52,58,58],"right_children":[2,4,6,-1,8,10,12,14,16,18,-1,20,22,24,-1,26,28,30,-1,32,34,36,38,-1,-1,-1,-1,40,42,-1,44,46,48,50,52,-1,54,56,58,-1,60,-1,62,64,-1,66,68,-1,-1,70,-1,-1,72,-1,-1,-1,-1,-1,74,-1,-1,-1,-1,-1,-1,-1,-1,-1,-1,-1,-1,-1,-1,-1,-1],"split_conditions":[3.5137E-1,2.0056E-1,3.7168E-1,3.3603811E-3,4.8558E-1,3.4516E-1,5.9612E-1,4.565E-1,5.2988E-1,6.417E-1,-4.105114E-2,5.0974E-1,6.7971E-1,3.2406E-1,1.6320419E-2,5.0638E-1,2.6828E-1,2.1951E-1,-2.455767E-2,4.9209E-1,5.0995E-1,4.0024E-1,6.9515E-1,-1.1190598E-2,-3.0195573E-2,-1.2512278E-2,-5.0595734E-2,5.4875E-1,2.7757E-1,1.3757178E-2,6.0802E-1,6.0787E-1,4.9842E-1,5.3641E-1,5.4431E-1,-5.2383356E-3,5.7236E-1,6.9313E-1,3.9024E-1,-5.987587E-3,7.4999E-1,1.967893E-2,5.7796E-1,2.9328E-1,1.2242836E-2,4.5884E-1,4.5998E-1,-3.49548E-2,-8.694575E-3,5.2395E-1,1.8500151E-2,1.3757178E-2,5.8327E-1,-2.1329906E-2,-5.267008E-3,1.14446884E-4,1.3757178E-2,7.6929824E-3,7.4217E-1,-2.5384435E-2,-6.5928227E-3,2.3292562E-3,-2.898696E-2,-1.2893283E-2,-2.2730043E-3,1.715837E-2,4.047803E-3,-1.5757235E-2,5.1694494E-3,1.4895721E-2,-8.400234E-3,-1.3736658E-2,-3.3869417E-3,-2.0029357E-2,-4.9503595E-3],"split_indices":[1,0,0,0,0,0,0,0,0,1,0,0,0,0,0,0,1,0,0,0,1,1,0,0,0,0,0,0,1,0,1,1,0,0,0,0,1,0,1,0,0,0,0,0,0,1,0,0,0,0,0,0,0,0,0,0,0,0,0,0,0,0,0,0,0,0,0,0,0,0,0,0,0,0,0],"split_type":[0,0,0,0,0,0,0,0,0,0,0,0,0,0,0,0,0,0,0,0,0,0,0,0,0,0,0,0,0,0,0,0,0,0,0,0,0,0,0,0,0,0,0,0,0,0,0,0,0,0,0,0,0,0,0,0,0,0,0,0,0,0,0,0,0,0,0,0,0,0,0,0,0,0,0],"sum_hessian":[7.3E1,2.8E1,4.5E1,1E0,2.7E1,1E1,3.5E1,7E0,2E1,9E0,1E0,2.3E1,1.2E1,5E0,2E0,3E0,1.7E1,7E0,2E0,1.3E1,1E1,6E0,6E0,3E0,2E0,2E0,1E0,9E0,8E0,1E0,6E0,1.1E1,2E0,7E0,3E0,1E0,5E0,3E0,3E0,1E0,8E0,1E0,7E0,5E0,1E0,8E0,3E0,1E0,1E0,3E0,4E0,1E0,2E0,4E0,1E0,2E0,1E0,1E0,2E0,7E0,1E0,4E0,3E0,3E0,2E0,3E0,5E0,2E0,1E0,2E0,1E0,1E0,1E0,1E0,1E0],"tree_param":{"num_deleted":"0","num_feature":"2","num_nodes":"75","size_leaf_vector":"0"}},{"base_weights":[-1.24086685E-1,-2.249781E-1,-6.134101E-2,3.2343664E-3,-2.3650506E-1,-1.8288662E-1,-1.9121889E-2,-2.0185749E-1,-3.4858286E-1,-1.0372669E-1,-3.951172E-2,4.184025E-2,-1.3019647E-1,7.061141E-2,-2.4625841E-1,-2.950685E-2,-6.3455915E-3,-2.3089124E-2,-2.3329787E-2,-2.9943084E-2,1.293972E-1,-2.2947302E-1,-1.2320416E-2,-7.651737E-3,1.21623E-2,-3.5927087E-1,-1.5776931E-1,1.32412845E-2,-7.011288E-2,5.842756E-2,-3.7344465E-1,1.8872176E-1,-2.1601215E-2,-5.0418978E-3,-2.4531008E-1,8.936247E-2,-1.109232E-1,-2.250776E-1,-4.8698395E-2,-8.8971645E-2,-2.5005126E-1,-1.250194E-1,1.1783729E-2,1.2969145E-1,-1.16523094E-1,-3.3643994E-2,-8.368528E-3,8.654838E-2,2.3271611E-1,1.32412845E-2,-1.4650191E-1,-2.005011E-2,-5.069496E-3,1.0872484E-4,1.32412845E-2,7.4044955E-3,-2.1371533E-1,-2.3563381E-2,-1.1627973E-4,-1.8645752E-2,6.63458E-3,-2.6514588E-2,-4.741821E-3,-1.2168036E-2,-4.2407606E-3,1.6193211E-2,3.794815E-3,-1.9190734E-2,1.1415132E-3,-4.0969052E-3,1.9127615E-2,2.1771077E-2,7.318437E-3,-1.3221534E-2,-3.2599324E-3,-1.9278254E-2,-4.764721E-3],"categories":[],"categories_nodes":[],"categories_segments":[],"categories_sizes":[],"default_left":[0,0,0,0,0,0,0,0,0,0,0,0,0,0,0,0,0,0,0,0,0,0,0,0,0,0,0,0,0,0,0,0,0,0,0,0,0,0,0,0,0,0,0,0,0,0,0,0,0,0,0,0,0,0,0,0,0,0,0,0,0,0,0,0,0,0,0,0,0,0,0,0,0,0,0,0,0],"id":23,"left_children":[1,3,5,-1,7,9,11,13,15,17,-1,19,21,23,25,-1,-1,27,-1,29,31,33,35,-1,-1,37,39,-1,41,43,45,47,49,-1,51,53,55,57,-1,59,61,63,-1,65,67,-1,-1,69,71,-1,73,-1,-1,-1,-1,-1,75,-1,-1,-1,-1,-1,-1,-1,-1,-1,-1,-1,-1,-1,-1,-1,-1,-1,-1,-1,-1],"loss_changes":[4.546566E-1,9.673083E-2,2.3768564E-1,0E0,3.4482956E-2,2.720661E-1,2.4921583E-1,2.9563957E-1,2.5898695E-2,1.7672858E-1,0E0,1.5471768E-1,1.4930306E-1,7.976503E-2,1.4332545E-1,0E0,0E0,9.686868E-2,0E0,4.467958E-1,1.0261367E-1,1.4956594E-3,8.009588E-2,0E0,0E0,1.6522694E-1,6.02867E-2,0E0,1.1945355E-1,1.6472402E-1,8.977532E-3,1.5819192E-2,1.248621E-1,0E0,5.4148734E-3,3.0403819E-2,1.0730079E-1,1.3892806E-1,0E0,2.7691793E-1,7.430953E-2,8.667581E-3,0E0,5.0449416E-2,7.732995E-2,0E0,0E0,1.0907487E-1,1.0570347E-2,0E0,1.5444085E-3,0E0,0E0,0E0,0E0,0E0,3.1918883E-3,0E0,0E0,0E0,0E0,0E0,0E0,0E0,0E0,0E0,0E0,0E0,0E0,0E0,0E0,0E0,0E0,0E0,0E0,0E0,0E0],"parents":[2147483647,0,0,1,1,2,2,4,4,5,5,6,6,7,7,8,8,9,9,11,11,12,12,13,13,14,14,17,17,19,19,20,20,21,21,22,22,25,25,26,26,28,28,29,29,30,30,31,31,32,32,34,34,35,35,36,36,37,37,39,39,40,40,41,41,43,43,44,44,47,47,48,48,50,50,56,56],"right_children":[2,4,6,-1,8,10,12,14,16,18,-1,20,22,24,26,-1,-1,28,-1,30,32,34,36,-1,-1,38,40,-1,42,44,46,48,50,-1,52,54,56,58,-1,60,62,64,-1,66,68,-1,-1,70,72,-1,74,-1,-1,-1,-1,-1,76,-1,-1,-1,-1,-1,-1,-1,-1,-1,-1,-1,-1,-1,-1,-1,-1,-1,-1,-1,-1],"split_conditions":[3.4366E-1,2.0056E-1,3.7168E-1,3.2343664E-3,7.282E-1,3.4516E-1,5.9612E-1,1.5613E-1,7.4999E-1,6.417E-1,-3.951172E-2,5.0974E-1,6.7971E-1,2.656E-2,5.2988E-1,-2.950685E-2,-6.3455915E-3,2.1951E-1,-2.3329787E-2,4.9209E-1,5.0995E-1,4.0024E-1,6.9515E-1,-7.651737E-3,1.21623E-2,5.0638E-1,2.9888E-1,1.32412845E-2,6.0802E-1,6.0787E-1,4.9842E-1,4.3458E-1,5.4431E-1,-5.0418978E-3,5.7236E-1,6.9313E-1,3.9024E-1,4.565E-1,-4.8698395E-2,2.3262E-1,3.1372E-1,2.9328E-1,1.1783729E-2,4.5884E-1,6.3961E-1,-3.3643994E-2,-8.368528E-3,5.7008E-1,4.8893E-1,1.32412845E-2,5.8327E-1,-2.005011E-2,-5.069496E-3,1.0872484E-4,1.32412845E-2,7.4044955E-3,7.4217E-1,-2.3563381E-2,-1.1627973E-4,-1.8645752E-2,6.63458E-3,-2.6514588E-2,-4.741821E-3,-1.2168036E-2,-4.2407606E-3,1.6193211E-2,3.794815E-3,-1.9190734E-2,1.1415132E-3,-4.0969052E-3,1.9127615E-2,2.1771077E-2,7.318437E-3,-1.3221534E-2,-3.2599324E-3,-1.9278254E-2,-4.764721E-3],"split_indices":[1,0,0,0,0,0,0,1,0,1,0,0,0,1,0,0,0,0,0,0,1,1,0,0,0,0,1,0,1,1,0,1,0,0,1,0,1,0,0,1,1,0,0,1,1,0,0,0,1,0,0,0,0,0,0,0,0,0,0,0,0,0,0,0,0,0,0,0,0,0,0,0,0,0,0,0,0],"split_type":[0,0,0,0,0,0,0,0,0,0,0,0,0,0,0,0,0,0,0,0,0,0,0,0,0,0,0,0,0,0,0,0,0,0,0,0,0,0,0,0,0,0,0,0,0,0,0,0,0,0,0,0,0,0,0,0,0,0,0,0,0,0,0,0,0,0,0,0,0,0,0,0,0,0,0,0,0],"sum_hessian":[7.3E1,2.7E1,4.6E1,1E0,2.6E1,1.1E1,3.5E1,2.2E1,4E0,1E1,1E0,2.3E1,1.2E1,3E0,1.9E1,3E0,1E0,8E0,2E0,1.3E1,1E1,6E0,6E0,1E0,2E0,7E0,1.2E1,1E0,7E0,1.1E1,2E0,7E0,3E0,1E0,5E0,3E0,3E0,6E0,1E0,8E0,4E0,6E0,1E0,8E0,3E0,1E0,1E0,3E0,4E0,1E0,2E0,4E0,1E0,2E0,1E0,1E0,2E0,4E0,2E0,4E0,4E0,2E0,2E0,3E0,3E0,3E0,5E0,1E0,2E0,2E0,1E0,2E0,2E0,1E0,1E0,1E0,1E0],"tree_param":{"num_deleted":"0","num_feature":"2","num_nodes":"77","size_leaf_vector":"0"}},{"base_weights":[-1.1789669E-1,-2.1056017E-1,-5.6915436E-2,-1.0233914E-1,-2.4691394E-1,-1.7715524E-1,-1.859451E-2,-2.1845458E-1,1.5203248E-2,-4.29406E-1,-1.9264272E-1,-9.345736E-2,-3.803003E-2,3.8735837E-2,-1.230048E-1,-8.577543E-2,-2.7507626E-2,-1.1692463E-2,-4.6872202E-2,-2.6955923E-1,-8.577517E-2,-6.0052145E-3,-2.2163298E-2,-3.0559745E-2,1.2340877E-1,-2.1657133E-1,-1.18661625E-2,3.113077E-3,-9.597986E-3,-3.3426173E-2,-2.0046976E-1,1.8692173E-2,-1.588043E-1,1.2744736E-2,-5.5414476E-2,5.4207075E-2,-3.5944045E-1,1.8008265E-1,-2.0791173E-2,-4.8528267E-3,