{"learner":{"attributes":{"best_iteration":"7","best_ntree_limit":"8","best_score":"1.049991131824486"},"feature_names":[],"feature_types":[],"gradient_booster":{"model":{"gbtree_model_param":{"num_parallel_tree":"1","num_trees":"58","size_leaf_vector":"0"},"tree_info":[0,0,0,0,0,0,0,0,0,0,0,0,0,0,0,0,0,0,0,0,0,0,0,0,0,0,0,0,0,0,0,0,0,0,0,0,0,0,0,0,0,0,0,0,0,0,0,0,0,0,0,0,0,0,0,0,0,0],"trees":[{"base_weights":[-4.9324325E-1,-1.010808E0,-1.5622972E-1,-1.1067564E0,-4.6544902E-2,1.05885684E-1,-5.0227404E-1,-4.8971314E-2,-9.8957606E-2,-1.9208977E-1,5.4238494E-2,-2.8620717E-1,-6.4699076E-2,1.6386632E-2,-4.498011E-1,-6.644639E-2,1.0906753E-2,-1.3034663E-2,-5.2263055E-2],"categories":[],"categories_nodes":[],"categories_segments":[],"categories_sizes":[],"default_left":[0,0,0,0,0,0,0,0,0,0,0,0,0,0,0,0,0,0,0],"id":0,"left_children":[1,3,5,7,-1,9,11,-1,-1,13,-1,15,-1,-1,17,-1,-1,-1,-1],"loss_changes":[1.2749628E1,3.9890862E-1,4.225547E0,1.261795E0,0E0,5.1052556E0,1.3104272E0,0E0,0E0,2.1086783E0,0E0,3.752991E0,0E0,0E0,6.971042E-1,0E0,0E0,0E0,0E0],"parents":[2147483647,0,0,1,1,2,2,3,3,5,5,6,6,9,9,11,11,14,14],"right_children":[2,4,6,8,-1,10,12,-1,-1,14,-1,16,-1,-1,18,-1,-1,-1,-1],"split_conditions":[3.4366E-1,2.9723E-1,5.1295E-1,1.7957E-1,-4.6544902E-2,4.3944E-1,5.4431E-1,-4.8971314E-2,-9.8957606E-2,3.9024E-1,5.4238494E-2,3.9667E-1,-6.4699076E-2,1.6386632E-2,4.8622E-1,-6.644639E-2,1.0906753E-2,-1.3034663E-2,-5.2263055E-2],"split_indices":[1,1,1,1,0,1,0,0,0,1,0,0,0,0,0,0,0,0,0],"split_type":[0,0,0,0,0,0,0,0,0,0,0,0,0,0,0,0,0,0,0],"sum_hessian":[7.3E1,2.8E1,4.5E1,2.1E1,7E0,2.6E1,1.9E1,8E0,1.3E1,1.8E1,8E0,1.3E1,6E0,7E0,1.1E1,5E0,8E0,6E0,5E0],"tree_param":{"num_deleted":"0","num_feature":"2","num_nodes":"19","size_leaf_vector":"0"}},{"base_weights":[-4.6043086E-1,-9.417034E-1,-1.4701056E-1,-1.0304738E0,-4.3490395E-2,9.8141566E-2,-4.7061542E-1,-4.570656E-2,-9.206591E-2,-1.802573E-1,5.0622594E-2,-2.6870874E-1,-6.0539853E-2,1.531126E-2,-4.2150748E-1,-6.2293485E-2,1.0179635E-2,-1.21967215E-2,-4.8996616E-2],"categories":[],"categories_nodes":[],"categories_segments":[],"categories_sizes":[],"default_left":[0,0,0,0,0,0,0,0,0,0,0,0,0,0,0,0,0,0,0],"id":1,"left_children":[1,3,5,7,-1,9,11,-1,-1,13,-1,15,-1,-1,17,-1,-1,-1,-1],"loss_changes":[1.1023763E1,3.3393288E-1,3.6954784E0,1.0774174E0,0E0,4.457538E0,1.1422644E0,0E0,0E0,1.8480794E0,0E0,3.294115E0,0E0,0E0,6.1381364E-1,0E0,0E0,0E0,0E0],"parents":[2147483647,0,0,1,1,2,2,3,3,5,5,6,6,9,9,11,11,14,14],"right_children":[2,4,6,8,-1,10,12,-1,-1,14,-1,16,-1,-1,18,-1,-1,-1,-1],"split_conditions":[3.4366E-1,2.9723E-1,5.1295E-1,1.7957E-1,-4.3490395E-2,4.3944E-1,5.4431E-1,-4.570656E-2,-9.206591E-2,3.9024E-1,5.0622594E-2,3.9667E-1,-6.0539853E-2,1.531126E-2,4.8622E-1,-6.2293485E-2,1.0179635E-2,-1.21967215E-2,-4.8996616E-2],"split_indices":[1,1,1,1,0,1,0,0,0,1,0,0,0,0,0,0,0,0,0],"split_type":[0,0,0,0,0,0,0,0,0,0,0,0,0,0,0,0,0,0,0],"sum_hessian":[7.3E1,2.8E1,4.5E1,2.1E1,7E0,2.6E1,1.9E1,8E0,1.3E1,1.8E1,8E0,1.3E1,6E0,7E0,1.1E1,5E0,8E0,6E0,5E0],"tree_param":{"num_deleted":"0","num_feature":"2","num_nodes":"19","size_leaf_vector":"0"}},{"base_weights":[-4.2980632E-1,-8.773261E-1,-1.3833071E-1,-9.594506E-1,-4.0636335E-2,-6.240234E-1,1.3917898E-2,-4.2659454E-2,-8.565418E-2,-1.5473056E-2,-7.033016E-2,2.4005851E-1,-5.2186155E-1,4.782761E-1,-7.7718355E-2,-6.0399048E-2,-1.1356918E-2,1.4500499E-2,5.8222305E-2,-1.8014327E-2,5.4484904E-3],"categories":[],"categories_nodes":[],"categories_segments":[],"categories_sizes":[],"default_left":[0,0,0,0,0,0,0,0,0,0,0,0,0,0,0,0,0,0,0,0,0],"id":2,"left_children":[1,3,5,7,-1,9,11,-1,-1,-1,-1,13,15,17,19,-1,-1,-1,-1,-1,-1],"loss_changes":[9.531279E0,2.7920341E-1,3.4102025E0,9.198017E-1,0E0,1.2480059E0,4.487091E0,0E0,0E0,0E0,0E0,2.0053718E0,1.0330915E0,1.1236658E0,3.1061122E-1,0E0,0E0,0E0,0E0,0E0,0E0],"parents":[2147483647,0,0,1,1,2,2,3,3,5,5,6,6,11,11,12,12,13,13,14,14],"right_children":[2,4,6,8,-1,10,12,-1,-1,-1,-1,14,16,18,20,-1,-1,-1,-1,-1,-1],"split_conditions":[3.4366E-1,2.9723E-1,3.7168E-1,1.7957E-1,-4.0636335E-2,4.2582E-1,6.0974E-1,-4.2659454E-2,-8.565418E-2,-1.5473056E-2,-7.033016E-2,5.1295E-1,6.7971E-1,4.432E-1,5.9698E-1,-6.0399048E-2,-1.1356918E-2,1.4500499E-2,5.8222305E-2,-1.8014327E-2,5.4484904E-3],"split_indices":[1,1,0,1,0,1,0,0,0,0,0,1,0,1,1,0,0,0,0,0,0],"split_type":[0,0,0,0,0,0,0,0,0,0,0,0,0,0,0,0,0,0,0,0,0],"sum_hessian":[7.3E1,2.8E1,4.5E1,2.1E1,7E0,1E1,3.5E1,8E0,1.3E1,5E0,5E0,2.5E1,1E1,1.4E1,1.1E1,5E0,5E0,8E0,6E0,5E0,6E0],"tree_param":{"num_deleted":"0","num_feature":"2","num_nodes":"21","size_leaf_vector":"0"}},{"base_weights":[-4.0117022E-1,-8.173525E-1,-1.3007335E-1,-8.9332426E-1,-3.7969574E-2,-5.850219E-1,1.25518525E-2,-3.981549E-2,-7.968898E-2,-1.4505987E-2,-6.593453E-2,2.2436784E-1,-4.892452E-1,4.4725358E-1,-7.293665E-2,-5.6624107E-2,-1.06471125E-2,5.1317327E-3,4.723699E-2,-1.6888432E-2,5.0982297E-3],"categories":[],"categories_nodes":[],"categories_segments":[],"categories_sizes":[],"default_left":[0,0,0,0,0,0,0,0,0,0,0,0,0,0,0,0,0,0,0,0,0],"id":3,"left_children":[1,3,5,7,-1,9,11,-1,-1,-1,-1,13,15,17,19,-1,-1,-1,-1,-1,-1],"loss_changes":[8.242786E0,2.3313713E-1,2.9921513E0,7.850876E-1,0E0,1.0968807E0,3.936162E0,0E0,0E0,0E0,0E0,1.7555096E0,9.079907E-1,9.943681E-1,2.7274218E-1,0E0,0E0,0E0,0E0,0E0,0E0],"parents":[2147483647,0,0,1,1,2,2,3,3,5,5,6,6,11,11,12,12,13,13,14,14],"right_children":[2,4,6,8,-1,10,12,-1,-1,-1,-1,14,16,18,20,-1,-1,-1,-1,-1,-1],"split_conditions":[3.4366E-1,2.9723E-1,3.7168E-1,1.7957E-1,-3.7969574E-2,4.2582E-1,6.0974E-1,-3.981549E-2,-7.968898E-2,-1.4505987E-2,-6.593453E-2,5.1295E-1,6.7971E-1,3.9537E-1,5.9698E-1,-5.6624107E-2,-1.06471125E-2,5.1317327E-3,4.723699E-2,-1.6888432E-2,5.0982297E-3],"split_indices":[1,1,0,1,0,1,0,0,0,0,0,1,0,1,1,0,0,0,0,0,0],"split_type":[0,0,0,0,0,0,0,0,0,0,0,0,0,0,0,0,0,0,0,0,0],"sum_hessian":[7.3E1,2.8E1,4.5E1,2.1E1,7E0,1E1,3.5E1,8E0,1.3E1,5E0,5E0,2.5E1,1E1,1.4E1,1.1E1,5E0,5E0,5E0,9E0,5E0,6E0],"tree_param":{"num_deleted":"0","num_feature":"2","num_nodes":"21","size_leaf_vector":"0"}},{"base_weights":[-3.7465823E-1,-7.507923E-1,-1.1557641E-1,-8.3175695E-1,-3.520931E-2,9.9566735E-2,-3.8948366E-1,-3.7161123E-2,-7.413921E-2,-1.3380589E-1,4.164368E-2,-2.1038611E-1,-5.1902875E-2,2.1556152E-2,-3.683678E-1,-5.171874E-2,9.934114E-3,-9.860873E-3,-4.375082E-2],"categories":[],"categories_nodes":[],"categories_segments":[],"categories_sizes":[],"default_left":[0,0,0,0,0,0,0,0,0,0,0,0,0,0,0,0,0,0,0],"id":4,"left_children":[1,3,5,7,-1,9,11,-1,-1,13,-1,15,-1,-1,17,-1,-1,-1,-1],"loss_changes":[7.12449E0,2.9287148E-1,2.6905968E0,6.6996765E-1,0E0,2.8392336E0,9.3814063E-1,0E0,0E0,1.8843188E0,0E0,2.3913765E0,0E0,0E0,5.3441083E-1,0E0,0E0,0E0,0E0],"parents":[2147483647,0,0,1,1,2,2,3,3,5,5,6,6,9,9,11,11,14,14],"right_children":[2,4,6,8,-1,10,12,-1,-1,14,-1,16,-1,-1,18,-1,-1,-1,-1],"split_conditions":[3.6466E-1,2.9723E-1,5.1295E-1,1.7957E-1,-3.520931E-2,4.3944E-1,5.4431E-1,-3.7161123E-2,-7.413921E-2,3.9024E-1,4.164368E-2,3.9667E-1,-5.1902875E-2,2.1556152E-2,4.8622E-1,-5.171874E-2,9.934114E-3,-9.860873E-3,-4.375082E-2],"split_indices":[1,1,1,1,0,1,0,0,0,1,0,0,0,0,0,0,0,0,0],"split_type":[0,0,0,0,0,0,0,0,0,0,0,0,0,0,0,0,0,0,0],"sum_hessian":[7.3E1,2.9E1,4.4E1,2.1E1,8E0,2.5E1,1.9E1,8E0,1.3E1,1.7E1,8E0,1.3E1,6E0,6E0,1.1E1,5E0,8E0,6E0,5E0],"tree_param":{"num_deleted":"0","num_feature":"2","num_nodes":"19","size_leaf_vector":"0"}},{"base_weights":[-3.4967518E-1,-7.094962E-1,-1.1522985E-1,-6.5031715E-2,-5.6501764E-1,-5.2482426E-1,1.312482E-2,-3.8534754E-3,-6.1316624E-2,-1.3058915E-2,-5.9104424E-2,2.0245102E-1,-4.3556666E-1,4.0060413E-1,-6.2111285E-2,-5.0044972E-2,-9.845445E-3,4.6727937E-3,4.2264294E-2,-1.4907861E-2,4.79243E-3],"categories":[],"categories_nodes":[],"categories_segments":[],"categories_sizes":[],"default_left":[0,0,0,0,0,0,0,0,0,0,0,0,0,0,0,0,0,0,0,0,0],"id":5,"left_children":[1,3,5,-1,7,9,11,-1,-1,-1,-1,13,15,17,19,-1,-1,-1,-1,-1,-1],"loss_changes":[6.1607637E0,1.7037582E-1,2.4252627E0,0E0,2.2928238E0,8.782799E-1,3.1463468E0,0E0,0E0,0E0,0E0,1.3879018E0,6.879592E-1,7.9162717E-1,2.1934849E-1,0E0,0E0,0E0,0E0,0E0,0E0],"parents":[2147483647,0,0,1,1,2,2,4,4,5,5,6,6,11,11,12,12,13,13,14,14],"right_children":[2,4,6,-1,8,10,12,-1,-1,-1,-1,14,16,18,20,-1,-1,-1,-1,-1,-1],"split_conditions":[3.4366E-1,4.5884E-1,3.7168E-1,-6.5031715E-2,5.4875E-1,4.2582E-1,6.0974E-1,-3.8534754E-3,-6.1316624E-2,-1.3058915E-2,-5.9104424E-2,5.1295E-1,6.7971E-1,3.9537E-1,5.9698E-1,-5.0044972E-2,-9.845445E-3,4.6727937E-3,4.2264294E-2,-1.4907861E-2,4.79243E-3],"split_indices":[1,0,0,0,0,1,0,0,0,0,0,1,0,1,1,0,0,0,0,0,0],"split_type":[0,0,0,0,0,0,0,0,0,0,0,0,0,0,0,0,0,0,0,0,0],"sum_hessian":[7.3E1,2.8E1,4.5E1,1.1E1,1.7E1,1E1,3.5E1,6E0,1.1E1,5E0,5E0,2.5E1,1E1,1.4E1,1.1E1,5E0,5E0,5E0,9E0,5E0,6E0],"tree_param":{"num_deleted":"0","num_feature":"2","num_nodes":"21","size_leaf_vector":"0"}},{"base_weights":[-3.2649595E-1,-6.518329E-1,-1.02349214E-1,-7.276137E-1,-2.9562376E-2,8.6586066E-2,-3.4284762E-1,-3.1939644E-2,-6.5221846E-2,-1.03450514E-1,3.9532475E-2,-1.7956415E-1,-4.6532724E-2,2.0371094E-2,-2.974509E-1,-4.5591E-2,9.44485E-3,-3.7263267E-2,1.3485823E-3],"categories":[],"categories_nodes":[],"categories_segments":[],"categories_sizes":[],"default_left":[0,0,0,0,0,0,0,0,0,0,0,0,0,0,0,0,0,0,0],"id":6,"left_children":[1,3,5,7,-1,9,11,-1,-1,13,-1,15,-1,-1,17,-1,-1,-1,-1],"loss_changes":[5.3296027E0,2.989893E-1,2.0744243E0,5.724039E-1,0E0,2.231085E0,7.951052E-1,0E0,0E0,1.4632849E0,0E0,1.9084308E0,0E0,0E0,8.2656646E-1,0E0,0E0,0E0,0E0],"parents":[2147483647,0,0,1,1,2,2,3,3,5,5,6,6,9,9,11,11,14,14],"right_children":[2,4,6,8,-1,10,12,-1,-1,14,-1,16,-1,-1,18,-1,-1,-1,-1],"split_conditions":[3.6466E-1,2.9723E-1,5.1295E-1,1.7957E-1,-2.9562376E-2,4.432E-1,5.4431E-1,-3.1939644E-2,-6.5221846E-2,3.9024E-1,3.9532475E-2,3.9667E-1,-4.6532724E-2,2.0371094E-2,4.2582E-1,-4.5591E-2,9.44485E-3,-3.7263267E-2,1.3485823E-3],"split_indices":[1,1,1,1,0,1,0,0,0,1,0,0,0,0,1,0,0,0,0],"split_type":[0,0,0,0,0,0,0,0,0,0,0,0,0,0,0,0,0,0,0],"sum_hessian":[7.3E1,2.9E1,4.4E1,2.1E1,8E0,2.5E1,1.9E1,8E0,1.3E1,1.8E1,7E0,1.3E1,6E0,6E0,1.2E1,5E0,8E0,7E0,5E0],"tree_param":{"num_deleted":"0","num_feature":"2","num_nodes":"19","size_leaf_vector":"0"}},{"base_weights":[-3.0451435E-1,-6.071695E-1,-9.597725E-2,-6.7745906E-1,-2.759155E-2,-3.5604514E-2,1.1897004E-2,-2.9810334E-2,-6.0679607E-2,1.8234766E-1,-3.920679E-1,3.5849947E-1,-5.3037755E-2,-4.4240598E-2,-9.668738E-3,1.0973403E-2,4.3507326E-2,-1.3166984E-2,4.4668457E-3],"categories":[],"categories_nodes":[],"categories_segments":[],"categories_sizes":[],"default_left":[0,0,0,0,0,0,0,0,0,0,0,0,0,0,0,0,0,0,0],"id":7,"left_children":[1,3,5,7,-1,-1,9,-1,-1,11,13,15,17,-1,-1,-1,-1,-1,-1],"loss_changes":[4.6122227E0,2.5534248E-1,1.8442277E0,4.890566E-1,0E0,0E0,2.5503116E0,0E0,0E0,1.0970668E0,4.965397E-1,6.2043E-1,1.760014E-1,0E0,0E0,0E0,0E0,0E0,0E0],"parents":[2147483647,0,0,1,1,2,2,3,3,6,6,9,9,10,10,11,11,12,12],"right_children":[2,4,6,8,-1,-1,10,-1,-1,12,14,16,18,-1,-1,-1,-1,-1,-1],"split_conditions":[3.6466E-1,2.9723E-1,3.7168E-1,1.7957E-1,-2.759155E-2,-3.5604514E-2,6.0974E-1,-2.9810334E-2,-6.0679607E-2,5.1295E-1,6.7971E-1,4.432E-1,5.9698E-1,-4.4240598E-2,-9.668738E-3,1.0973403E-2,4.3507326E-2,-1.3166984E-2,4.4668457E-3],"split_indices":[1,1,0,1,0,0,0,0,0,1,0,1,1,0,0,0,0,0,0],"split_type":[0,0,0,0,0,0,0,0,0,0,0,0,0,0,0,0,0,0,0],"sum_hessian":[7.3E1,2.9E1,4.4E1,2.1E1,8E0,9E0,3.5E1,8E0,1.3E1,2.5E1,1E1,1.4E1,1.1E1,5E0,5E0,8E0,6E0,5E0,6E0],"tree_param":{"num_deleted":"0","num_feature":"2","num_nodes":"19","size_leaf_vector":"0"}},{"base_weights":[-2.8386244E-1,-5.6556785E-1,-8.9750804E-2,-4.6709073E-1,-5.834952E-2,7.933582E-2,-3.0507588E-1,-5.2147496E-2,-1.5492615E-1,-8.5577026E-2,3.4581516E-2,-1.5759884E-1,-4.1733578E-2,3.960618E-3,-2.5262965E-2,1.9297475E-2,-2.6362008E-1,-4.1017175E-2,8.958251E-3,-3.319273E-2,1.418709E-3],"categories":[],"categories_nodes":[],"categories_segments":[],"categories_sizes":[],"default_left":[0,0,0,0,0,0,0,0,0,0,0,0,0,0,0,0,0,0,0,0,0],"id":8,"left_children":[1,3,5,7,-1,9,11,-1,13,15,-1,17,-1,-1,-1,-1,19,-1,-1,-1,-1],"loss_changes":[3.9957304E0,2.6417828E-1,1.66259E0,1.5307732E0,0E0,1.6763053E0,6.5373576E-1,0E0,4.3347418E-1,1.2277187E0,0E0,1.575246E0,0E0,0E0,0E0,0E0,6.656485E-1,0E0,0E0,0E0,0E0],"parents":[2147483647,0,0,1,1,2,2,3,3,5,5,6,6,8,8,9,9,11,11,16,16],"right_children":[2,4,6,8,-1,10,12,-1,14,16,-1,18,-1,-1,-1,-1,20,-1,-1,-1,-1],"split_conditions":[3.6466E-1,5.7655E-1,5.1295E-1,4.5884E-1,-5.834952E-2,4.432E-1,5.4431E-1,-5.2147496E-2,5.4553E-1,3.9024E-1,3.4581516E-2,3.9667E-1,-4.1733578E-2,3.960618E-3,-2.5262965E-2,1.9297475E-2,4.2582E-1,-4.1017175E-2,8.958251E-3,-3.319273E-2,1.418709E-3],"split_indices":[1,0,1,0,0,1,0,0,0,1,0,0,0,0,0,0,1,0,0,0,0],"split_type":[0,0,0,0,0,0,0,0,0,0,0,0,0,0,0,0,0,0,0,0,0],"sum_hessian":[7.3E1,2.9E1,4.4E1,2.2E1,7E0,2.5E1,1.9E1,1.2E1,1E1,1.8E1,7E0,1.3E1,6E0,5E0,5E0,6E0,1.2E1,5E0,8E0,7E0,5E0],"tree_param":{"num_deleted":"0","num_feature":"2","num_nodes":"21","size_leaf_vector":"0"}},{"base_weights":[-2.6505232E-1,-5.3596765E-1,-8.8495895E-2,-5.081177E-2,-4.118432E-1,-4.0610394E-1,1.1009221E-2,1.7478181E-3,-4.7351927E-2,-6.949997E-3,-4.8889298E-2,1.6464645E-1,-3.5313416E-1,3.216939E-1,-4.5383412E-2,-3.9080735E-2,-9.475211E-3,3.968736E-3,3.3809323E-2,-1.1636641E-2,4.1392543E-3],"categories":[],"categories_nodes":[],"categories_segments":[],"categories_sizes":[],"default_left":[0,0,0,0,0,0,0,0,0,0,0,0,0,0,0,0,0,0,0,0,0],"id":9,"left_children":[1,3,5,-1,7,9,11,-1,-1,-1,-1,13,15,17,19,-1,-1,-1,-1,-1,-1],"loss_changes":[3.492126E0,2.3040581E-1,1.4582375E0,0E0,1.7341042E0,7.869055E-1,2.0721974E0,0E0,0E0,0E0,0E0,8.722008E-1,3.5314798E-1,4.9662125E-1,1.4104459E-1,0E0,0E0,0E0,0E0,0E0,0E0],"parents":[2147483647,0,0,1,1,2,2,4,4,5,5,6,6,11,11,12,12,13,13,14,14],"right_children":[2,4,6,-1,8,10,12,-1,-1,-1,-1,14,16,18,20,-1,-1,-1,-1,-1,-1],"split_conditions":[3.4366E-1,4.5884E-1,3.7168E-1,-5.081177E-2,5.4875E-1,4.2582E-1,6.0974E-1,1.7478181E-3,-4.7351927E-2,-6.949997E-3,-4.8889298E-2,5.1295E-1,6.7971E-1,3.9537E-1,5.9698E-1,-3.9080735E-2,-9.475211E-3,3.968736E-3,3.3809323E-2,-1.1636641E-2,4.1392543E-3],"split_indices":[1,0,0,0,0,1,0,0,0,0,0,1,0,1,1,0,0,0,0,0,0],"split_type":[0,0,0,0,0,0,0,0,0,0,0,0,0,0,0,0,0,0,0,0,0],"sum_hessian":[7.3E1,2.8E1,4.5E1,1.1E1,1.7E1,1E1,3.5E1,6E0,1.1E1,5E0,5E0,2.5E1,1E1,1.4E1,1.1E1,5E0,5E0,5E0,9E0,5E0,6E0],"tree_param":{"num_deleted":"0","num_feature":"2","num_nodes":"21","size_leaf_vector":"0"}},{"base_weights":[-2.4747786E-1,-4.9909472E-1,-8.346988E-2,-5.578631E-1,-2.0632118E-2,-3.8072246E-1,9.675895E-3,-2.3386488E-2,-5.0713982E-2,-6.5156245E-3,-4.5833714E-2,1.5346262E-1,-3.3106327E-1,3.0008543E-1,-4.2604428E-2,-3.663819E-2,-8.88301E-3,3.7206912E-3,3.1527195E-2,-1.09093515E-2,3.8731606E-3],"categories":[],"categories_nodes":[],"categories_segments":[],"categories_sizes":[],"default_left":[0,0,0,0,0,0,0,0,0,0,0,0,0,0,0,0,0,0,0,0,0],"id":10,"left_children":[1,3,5,7,-1,9,11,-1,-1,-1,-1,13,15,17,19,-1,-1,-1,-1,-1,-1],"loss_changes":[3.0121117E0,2.282939E-1,1.2773237E0,4.296298E-1,0E0,6.916158E-1,1.8145815E0,0E0,0E0,0E0,0E0,7.602304E-1,3.1038415E-1,4.310447E-1,1.2383493E-1,0E0,0E0,0E0,0E0,0E0,0E0],"parents":[2147483647,0,0,1,1,2,2,3,3,5,5,6,6,11,11,12,12,13,13,14,14],"right_children":[2,4,6,8,-1,10,12,-1,-1,-1,-1,14,16,18,20,-1,-1,-1,-1,-1,-1],"split_conditions":[3.4366E-1,2.9723E-1,3.7168E-1,1.7957E-1,-2.0632118E-2,4.2582E-1,6.0974E-1,-2.3386488E-2,-5.0713982E-2,-6.5156245E-3,-4.5833714E-2,5.1295E-1,6.7971E-1,3.9537E-1,5.9698E-1,-3.663819E-2,-8.88301E-3,3.7206912E-3,3.1527195E-2,-1.09093515E-2,3.8731606E-3],"split_indices":[1,1,0,1,0,1,0,0,0,0,0,1,0,1,1,0,0,0,0,0,0],"split_type":[0,0,0,0,0,0,0,0,0,0,0,0,0,0,0,0,0,0,0,0,0],"sum_hessian":[7.3E1,2.8E1,4.5E1,2.1E1,7E0,1E1,3.5E1,8E0,1.3E1,5E0,5E0,2.5E1,1E1,1.4E1,1.1E1,5E0,5E0,5E0,9E0,5E0,6E0],"tree_param":{"num_deleted":"0","num_feature":"2","num_nodes":"21","size_leaf_vector":"0"}},{"base_weights":[-2.3113853E-1,-4.584243E-1,-7.447827E-2,-3.7125877E-1,-4.8879165E-2,6.4504296E-2,-2.514317E-1,-4.3010242E-2,-9.85312E-2,-7.346586E-2,2.880903E-2,-1.19607754E-1,-3.593706E-2,5.7142554E-3,-1.9262295E-2,1.834743E-2,-2.390983E-1,-3.3817604E-2,8.590832E-3,-2.9360183E-2,2.9343553E-4],"categories":[],"categories_nodes":[],"categories_segments":[],"categories_sizes":[],"default_left":[0,0,0,0,0,0,0,0,0,0,0,0,0,0,0,0,0,0,0,0,0],"id":11,"left_children":[1,3,5,7,-1,9,11,-1,13,15,-1,17,-1,-1,-1,-1,19,-1,-1,-1,-1],"loss_changes":[2.6007495E0,2.6350975E-1,1.1229233E0,1.2119122E0,0E0,1.1747543E0,5.4309154E-1,0E0,3.2380894E-1,1.0595515E0,0E0,1.137672E0,0E0,0E0,0E0,0E0,4.8289227E-1,0E0,0E0,0E0,0E0],"parents":[2147483647,0,0,1,1,2,2,3,3,5,5,6,6,8,8,9,9,11,11,16,16],"right_children":[2,4,6,8,-1,10,12,-1,14,16,-1,18,-1,-1,-1,-1,20,-1,-1,-1,-1],"split_conditions":[3.6466E-1,5.7655E-1,5.1295E-1,4.5884E-1,-4.8879165E-2,4.432E-1,5.4431E-1,-4.3010242E-2,5.4553E-1,3.9024E-1,2.880903E-2,3.9667E-1,-3.593706E-2,5.7142554E-3,-1.9262295E-2,1.834743E-2,4.2582E-1,-3.3817604E-2,8.590832E-3,-2.9360183E-2,2.9343553E-4],"split_indices":[1,0,1,0,0,1,0,0,0,1,0,0,0,0,0,0,1,0,0,0,0],"split_type":[0,0,0,0,0,0,0,0,0,0,0,0,0,0,0,0,0,0,0,0,0],"sum_hessian":[7.3E1,2.9E1,4.4E1,2.2E1,7E0,2.5E1,1.9E1,1.2E1,1E1,1.8E1,7E0,1.3E1,6E0,5E0,5E0,6E0,1.2E1,5E0,8E0,7E0,5E0],"tree_param":{"num_deleted":"0","num_feature":"2","num_nodes":"21","size_leaf_vector":"0"}},{"base_weights":[-2.1581006E-1,-4.8883307E-1,-9.840787E-2,-1.9872196E-2,-4.483749E-2,-3.692703E-1,-1.0124478E-2,8.508501E-3,-5.9942577E-2,1.2182572E-1,-3.3915627E-1,-7.894417E-2,2.600581E-1,-3.614774E-2,-8.701077E-3,8.142681E-3,-1.5728332E-2,3.4183756E-2,4.342465E-3],"categories":[],"categories_nodes":[],"categories_segments":[],"categories_sizes":[],"default_left":[0,0,0,0,0,0,0,0,0,0,0,0,0,0,0,0,0,0,0],"id":12,"left_children":[1,3,5,-1,-1,7,9,-1,-1,11,13,15,17,-1,-1,-1,-1,-1,-1],"loss_changes":[2.3238542E0,3.7843847E-1,1.263632E0,0E0,0E0,2.7888331E0,1.821366E0,0E0,0E0,8.53117E-1,3.2649708E-1,3.4153503E-1,6.858263E-1,0E0,0E0,0E0,0E0,0E0,0E0],"parents":[2147483647,0,0,1,1,2,2,5,5,6,6,9,9,10,10,11,11,12,12],"right_children":[2,4,6,-1,-1,8,10,-1,-1,12,14,16,18,-1,-1,-1,-1,-1,-1],"split_conditions":[2.9723E-1,1.7957E-1,3.7168E-1,-1.9872196E-2,-4.483749E-2,4.2546E-1,6.0974E-1,8.508501E-3,-5.9942577E-2,4.9842E-1,6.7971E-1,4.5884E-1,5.4705E-1,-3.614774E-2,-8.701077E-3,8.142681E-3,-1.5728332E-2,3.4183756E-2,4.342465E-3],"split_indices":[1,1,0,0,0,1,0,0,0,0,0,0,0,0,0,0,0,0,0],"split_type":[0,0,0,0,0,0,0,0,0,0,0,0,0,0,0,0,0,0,0],"sum_hessian":[7.3E1,2.1E1,5.2E1,8E0,1.3E1,1.2E1,4E1,6E0,6E0,2.9E1,1.1E1,1.2E1,1.7E1,6E0,5E0,5E0,7E0,8E0,9E0],"tree_param":{"num_deleted":"0","num_feature":"2","num_nodes":"19","size_leaf_vector":"0"}},{"base_weights":[-2.0138176E-1,-4.0999854E-1,-6.548463E-2,-4.033482E-2,-3.0202147E-1,-3.048053E-1,9.4601475E-3,4.828514E-3,-3.6794048E-2,-4.3752473E-3,-3.753548E-2,1.5562648E-1,-2.3134598E-1,-2.0486938E-2,3.1877103E-1,-5.363275E-3,-3.2440636E-2,4.248428E-3,-6.2755453E-3,3.0349417E-2,1.2408001E-2],"categories":[],"categories_nodes":[],"categories_segments":[],"categories_sizes":[],"default_left":[0,0,0,0,0,0,0,0,0,0,0,0,0,0,0,0,0,0,0,0,0],"id":13,"left_children":[1,3,5,-1,7,9,11,-1,-1,-1,-1,13,15,17,19,-1,-1,-1,-1,-1,-1],"loss_changes":[2.071083E0,2.3775482E-1,8.279318E-1,0E0,1.2752192E0,5.0128996E-1,1.3031225E0,0E0,0E0,0E0,0E0,6.673653E-1,4.1928446E-1,6.322512E-2,9.10846E-2,0E0,0E0,0E0,0E0,0E0,0E0],"parents":[2147483647,0,0,1,1,2,2,4,4,5,5,6,6,11,11,12,12,13,13,14,14],"right_children":[2,4,6,-1,8,10,12,-1,-1,-1,-1,14,16,18,20,-1,-1,-1,-1,-1,-1],"split_conditions":[3.4366E-1,4.5884E-1,3.7168E-1,-4.033482E-2,5.4875E-1,4.2582E-1,5.9612E-1,4.828514E-3,-3.6794048E-2,-4.3752473E-3,-3.753548E-2,4.9842E-1,5.1295E-1,4.5998E-1,5.4431E-1,-5.363275E-3,-3.2440636E-2,4.248428E-3,-6.2755453E-3,3.0349417E-2,1.2408001E-2],"split_indices":[1,0,0,0,0,1,0,0,0,0,0,0,1,0,0,0,0,0,0,0,0],"split_type":[0,0,0,0,0,0,0,0,0,0,0,0,0,0,0,0,0,0,0,0,0],"sum_hessian":[7.3E1,2.8E1,4.5E1,1.1E1,1.7E1,1E1,3.5E1,6E0,1.1E1,5E0,5E0,2.2E1,1.3E1,1.1E1,1.1E1,8E0,5E0,5E0,6E0,6E0,5E0],"tree_param":{"num_deleted":"0","num_feature":"2","num_nodes":"21","size_leaf_vector":"0"}},{"base_weights":[-1.8778197E-1,-4.281625E-1,-8.4458336E-2,-1.7046493E-2,-5.2671397E-1,-3.232066E-1,-6.6977106E-3,-2.5660802E-2,-4.6678007E-2,9.013354E-3,-5.4031417E-2,1.1120469E-1,-3.0089557E-1,-6.924179E-2,2.3534912E-1,-3.2272074E-2,-7.4835853E-3,7.925527E-3,-1.4382989E-2,3.3959597E-1,-2.2307967E-3,3.1708173E-2,1.5592699E-2],"categories":[],"categories_nodes":[],"categories_segments":[],"categories_sizes":[],"default_left":[0,0,0,0,0,0,0,0,0,0,0,0,0,0,0,0,0,0,0,0,0,0,0],"id":14,"left_children":[1,3,5,-1,7,9,11,-1,-1,-1,-1,13,15,17,19,-1,-1,-1,-1,21,-1,-1,-1],"loss_changes":[1.8017752E0,3.1581068E-1,9.817916E-1,0E0,3.4240484E-2,2.3761106E0,1.455613E0,0E0,0E0,0E0,0E0,6.883387E-1,2.6935208E-1,2.9888967E-1,5.075332E-1,0E0,0E0,0E0,0E0,5.4508448E-2,0E0,0E0,0E0],"parents":[2147483647,0,0,1,1,2,2,4,4,5,5,6,6,11,11,12,12,13,13,14,14,19,19],"right_children":[2,4,6,-1,8,10,12,-1,-1,-1,-1,14,16,18,20,-1,-1,-1,-1,22,-1,-1,-1],"split_conditions":[2.9723E-1,1.7957E-1,3.7168E-1,-1.7046493E-2,4.7568E-1,4.2546E-1,6.0974E-1,-2.5660802E-2,-4.6678007E-2,9.013354E-3,-5.4031417E-2,4.9842E-1,6.7971E-1,4.5884E-1,5.0024E-1,-3.2272074E-2,-7.4835853E-3,7.925527E-3,-1.4382989E-2,5.4705E-1,-2.2307967E-3,3.1708173E-2,1.5592699E-2],"split_indices":[1,1,0,0,0,1,0,0,0,0,0,0,0,0,1,0,0,0,0,0,0,0,0],"split_type":[0,0,0,0,0,0,0,0,0,0,0,0,0,0,0,0,0,0,0,0,0,0,0],"sum_hessian":[7.3E1,2.1E1,5.2E1,8E0,1.3E1,1.2E1,4E1,6E0,7E0,6E0,6E0,2.9E1,1.1E1,1.2E1,1.7E1,6E0,5E0,5E0,7E0,1.2E1,5E0,6E0,6E0],"tree_param":{"num_deleted":"0","num_feature":"2","num_nodes":"23","size_leaf_vector":"0"}},{"base_weights":[-1.7553003E-1,-3.5833064E-1,-4.9762297E-2,-3.5171043E-2,-2.5853363E-1,5.5851325E-2,-1.8457189E-1,5.50136E-3,-3.229416E-2,-5.6765098E-2,2.3725046E-2,-6.5710776E-2,-2.9694505E-2,1.5955018E-2,-1.9751322E-1,1.407632E-2,-2.094132E-2,2.7327018E-4,-2.778404E-2],"categories":[],"categories_nodes":[],"categories_segments":[],"categories_sizes":[],"default_left":[0,0,0,0,0,0,0,0,0,0,0,0,0,0,0,0,0,0,0],"id":15,"left_children":[1,3,5,-1,7,9,11,-1,-1,13,-1,15,-1,-1,17,-1,-1,-1,-1],"loss_changes":[1.6834595E0,2.0993733E-1,6.5100646E-1,0E0,1.05943E0,7.806568E-1,4.7642064E-1,0E0,0E0,7.627148E-1,0E0,8.0982673E-1,0E0,0E0,4.535963E-1,0E0,0E0,0E0,0E0],"parents":[2147483647,0,0,1,1,2,2,4,4,5,5,6,6,9,9,11,11,14,14],"right_children":[2,4,6,-1,8,10,12,-1,-1,14,-1,16,-1,-1,18,-1,-1,-1,-1],"split_conditions":[3.6466E-1,4.5884E-1,5.1295E-1,-3.5171043E-2,5.4875E-1,4.432E-1,5.4431E-1,5.50136E-3,-3.229416E-2,3.9024E-1,2.3725046E-2,6.2297E-1,-2.9694505E-2,1.5955018E-2,4.8622E-1,1.407632E-2,-2.094132E-2,2.7327018E-4,-2.778404E-2],"split_indices":[1,0,1,0,0,1,0,0,0,1,0,1,0,0,0,0,0,0,0],"split_type":[0,0,0,0,0,0,0,0,0,0,0,0,0,0,0,0,0,0,0],"sum_hessian":[7.3E1,2.9E1,4.4E1,1.2E1,1.7E1,2.5E1,1.9E1,6E0,1.1E1,1.8E1,7E0,1.3E1,6E0,6E0,1.2E1,6E0,7E0,6E0,6E0],"tree_param":{"num_deleted":"0","num_feature":"2","num_nodes":"19","size_leaf_vector":"0"}},{"base_weights":[-1.6353223E-1,-3.335213E-1,-4.657213E-2,-3.2736123E-2,-2.406321E-1,-1.9639283E-2,1.4522915E-2,5.1477007E-3,-3.0073937E-2,1.4053924E-1,-1.9354126E-1,-8.812971E-3,2.7817985E-1,-4.4294433E-3,-2.7225556E-2,3.9346223E-3,-4.50563E-3,2.6675789E-2,1.0605225E-2],"categories":[],"categories_nodes":[],"categories_segments":[],"categories_sizes":[],"default_left":[0,0,0,0,0,0,0,0,0,0,0,0,0,0,0,0,0,0,0],"id":16,"left_children":[1,3,5,-1,7,-1,9,-1,-1,11,13,15,17,-1,-1,-1,-1,-1,-1],"loss_changes":[1.4557306E0,1.8188572E-1,5.956809E-1,0E0,9.201832E-1,0E0,9.7110146E-1,0E0,0E0,4.7526103E-1,2.9762316E-1,4.0844403E-2,7.690424E-2,0E0,0E0,0E0,0E0,0E0,0E0],"parents":[2147483647,0,0,1,1,2,2,4,4,6,6,9,9,10,10,11,11,12,12],"right_children":[2,4,6,-1,8,-1,10,-1,-1,12,14,16,18,-1,-1,-1,-1,-1,-1],"split_conditions":[3.6466E-1,4.5884E-1,3.7168E-1,-3.2736123E-2,5.4875E-1,-1.9639283E-2,5.9612E-1,5.1477007E-3,-3.0073937E-2,4.9842E-1,5.1295E-1,4.5998E-1,5.4431E-1,-4.4294433E-3,-2.7225556E-2,3.9346223E-3,-4.50563E-3,2.6675789E-2,1.0605225E-2],"split_indices":[1,0,0,0,0,0,0,0,0,0,1,0,0,0,0,0,0,0,0],"split_type":[0,0,0,0,0,0,0,0,0,0,0,0,0,0,0,0,0,0,0],"sum_hessian":[7.3E1,2.9E1,4.4E1,1.2E1,1.7E1,9E0,3.5E1,6E0,1.1E1,2.2E1,1.3E1,1.1E1,1.1E1,8E0,5E0,5E0,6E0,6E0,5E0],"tree_param":{"num_deleted":"0","num_feature":"2","num_nodes":"19","size_leaf_vector":"0"}},{"base_weights":[-1.5224361E-1,-3.5516068E-1,-6.5141365E-2,-2.0357078E-1,-3.4839105E-2,-2.7341697E-1,2.4860483E-3,-3.0861035E-2,2.8700512E-3,1.1071116E-2,-4.9154192E-2,1.0457608E-1,-2.529462E-1,-5.4548036E-2,2.1368928E-1,-2.700935E-2,-6.431026E-3,7.988733E-3,-1.2639592E-2,3.0870295E-1,-2.0841414E-3,2.7662968E-2,1.5334944E-2],"categories":[],"categories_nodes":[],"categories_segments":[],"categories_sizes":[],"default_left":[0,0,0,0,0,0,0,0,0,0,0,0,0,0,0,0,0,0,0,0,0,0,0],"id":17,"left_children":[1,3,5,7,-1,9,11,-1,-1,-1,-1,13,15,17,19,-1,-1,-1,-1,21,-1,-1,-1],"loss_changes":[1.2847797E0,2.7015257E-1,7.471922E-1,5.688316E-1,0E0,2.187437E0,1.0956128E0,0E0,0E0,0E0,0E0,5.3253245E-1,1.8416214E-1,2.5660634E-1,4.2156482E-1,0E0,0E0,0E0,0E0,6.0750246E-3,0E0,0E0,0E0],"parents":[2147483647,0,0,1,1,2,2,3,3,5,5,6,6,11,11,12,12,13,13,14,14,19,19],"right_children":[2,4,6,8,-1,10,12,-1,-1,-1,-1,14,16,18,20,-1,-1,-1,-1,22,-1,-1,-1],"split_conditions":[2.9723E-1,4.8558E-1,3.7168E-1,4.0828E-1,-3.4839105E-2,4.2546E-1,6.0974E-1,-3.0861035E-2,2.8700512E-3,1.1071116E-2,-4.9154192E-2,4.9842E-1,6.7971E-1,4.5884E-1,5.0024E-1,-2.700935E-2,-6.431026E-3,7.988733E-3,-1.2639592E-2,5.4705E-1,-2.0841414E-3,2.7662968E-2,1.5334944E-2],"split_indices":[1,0,0,0,0,1,0,0,0,0,0,0,0,0,1,0,0,0,0,0,0,0,0],"split_type":[0,0,0,0,0,0,0,0,0,0,0,0,0,0,0,0,0,0,0,0,0,0,0],"sum_hessian":[7.3E1,2.1E1,5.2E1,1E1,1.1E1,1.2E1,4E1,5E0,5E0,6E0,6E0,2.9E1,1.1E1,1.2E1,1.7E1,6E0,5E0,5E0,7E0,1.2E1,5E0,6E0,6E0],"tree_param":{"num_deleted":"0","num_feature":"2","num_nodes":"23","size_leaf_vector":"0"}},{"base_weights":[-1.421509E-1,-2.954073E-1,-3.6821045E-2,-2.9866932E-2,-2.04738E-1,4.9420938E-2,-1.4709458E-1,5.5787163E-3,-2.6287276E-2,-4.7344636E-2,2.047962E-2,-4.040868E-2,-2.5458965E-2,8.378848E-2,-2.1308552E-2,1.4757457E-2,-1.8216416E-2,2.3856096E-2,-1.2185558E-2],"categories":[],"categories_nodes":[],"categories_segments":[],"categories_sizes":[],"default_left":[0,0,0,0,0,0,0,0,0,0,0,0,0,0,0,0,0,0,0],"id":18,"left_children":[1,3,5,-1,7,9,11,-1,-1,13,-1,15,-1,17,-1,-1,-1,-1,-1],"loss_changes":[1.183666E0,1.9814229E-1,4.3522894E-1,0E0,7.583899E-1,5.7558656E-1,3.9672145E-1,0E0,0E0,6.1372334E-1,0E0,7.201053E-1,0E0,8.017481E-1,0E0,0E0,0E0,0E0,0E0],"parents":[2147483647,0,0,1,1,2,2,4,4,5,5,6,6,9,9,11,11,13,13],"right_children":[2,4,6,-1,8,10,12,-1,-1,14,-1,16,-1,18,-1,-1,-1,-1,-1],"split_conditions":[3.6466E-1,4.5884E-1,5.1295E-1,-2.9866932E-2,5.4875E-1,4.432E-1,5.4431E-1,5.5787163E-3,-2.6287276E-2,4.2546E-1,2.047962E-2,6.2297E-1,-2.5458965E-2,5.3641E-1,-2.1308552E-2,1.4757457E-2,-1.8216416E-2,2.3856096E-2,-1.2185558E-2],"split_indices":[1,0,1,0,0,1,0,0,0,1,0,1,0,0,0,0,0,0,0],"split_type":[0,0,0,0,0,0,0,0,0,0,0,0,0,0,0,0,0,0,0],"sum_hessian":[7.3E1,2.9E1,4.4E1,1.2E1,1.7E1,2.5E1,1.9E1,6E0,1.1E1,1.8E1,7E0,1.3E1,6E0,1.2E1,6E0,6E0,7E0,6E0,6E0],"tree_param":{"num_deleted":"0","num_feature":"2","num_nodes":"19","size_leaf_vector":"0"}},{"base_weights":[-1.324173E-1,-2.7913496E-1,-3.7042752E-2,-2.9158236E-2,-1.9053315E-1,-2.1412297E-1,1.8094055E-2,-1.6407453E-2,-3.0460453E-2,-1.971303E-3,-2.7470605E-2,1.2455622E-1,-1.581005E-1,6.6190264E-3,-8.8750515E-3,1.8023001E-2,2.16204E-2,-3.23607E-3,-2.2813484E-2,1.0563531E-2,-1.4226573E-2],"categories":[],"categories_nodes":[],"categories_segments":[],"categories_sizes":[],"default_left":[0,0,0,0,0,0,0,0,0,0,0,0,0,0,0,0,0,0,0,0,0],"id":19,"left_children":[1,3,5,-1,7,9,11,13,-1,-1,-1,15,17,-1,-1,19,-1,-1,-1,-1,-1],"loss_changes":[1.0251517E0,2.0764399E-1,4.530017E-1,0E0,6.691028E-1,3.0475307E-1,6.949823E-1,1.2778866E-1,0E0,0E0,0E0,3.9595142E-1,2.2196671E-1,0E0,0E0,4.0939492E-1,0E0,0E0,0E0,0E0,0E0],"parents":[2147483647,0,0,1,1,2,2,4,4,5,5,6,6,7,7,11,11,12,12,15,15],"right_children":[2,4,6,-1,8,10,12,14,-1,-1,-1,16,18,-1,-1,20,-1,-1,-1,-1,-1],"split_conditions":[3.4366E-1,4.5884E-1,3.7168E-1,-2.9158236E-2,5.7655E-1,3.046E-1,5.9612E-1,5.4553E-1,-3.0460453E-2,-1.971303E-3,-2.7470605E-2,5.3034E-1,5.1295E-1,6.6190264E-3,-8.8750515E-3,4.8999E-1,2.16204E-2,-3.23607E-3,-2.2813484E-2,1.0563531E-2,-1.4226573E-2],"split_indices":[1,0,0,0,0,0,0,0,0,0,0,0,1,0,0,0,0,0,0,0,0],"split_type":[0,0,0,0,0,0,0,0,0,0,0,0,0,0,0,0,0,0,0,0,0],"sum_hessian":[7.3E1,2.8E1,4.5E1,1.1E1,1.7E1,1E1,3.5E1,1E1,7E0,5E0,5E0,2.2E1,1.3E1,5E0,5E0,1.4E1,8E0,8E0,5E0,9E0,5E0],"tree_param":{"num_deleted":"0","num_feature":"2","num_nodes":"21","size_leaf_vector":"0"}},{"base_weights":[-1.2382937E-1,-2.9331055E-1,-5.1142294E-2,-1.5013799E-1,-4.001095E-1,-1.8793924E-1,3.0830681E-2,-2.5243148E-2,4.599173E-3,-3.5808653E-2,-1.8239668E-2,5.085159E-3,-3.308617E-1,1.8314059E-1,-1.7430457E-1,-4.45172E-2,-1.5671053E-3,-3.4990392E-3,2.8495634E-1,-6.7766802E-3,-2.1387642E-2,3.0858476E-2,1.2672591E-2],"categories":[],"categories_nodes":[],"categories_segments":[],"categories_sizes":[],"default_left":[0,0,0,0,0,0,0,0,0,0,0,0,0,0,0,0,0,0,0,0,0,0,0],"id":20,"left_children":[1,3,5,7,9,11,13,-1,-1,-1,-1,-1,15,17,19,-1,-1,-1,21,-1,-1,-1,-1],"loss_changes":[8.9661217E-1,2.7632332E-1,6.001179E-1,4.5430452E-1,2.9513836E-2,7.534567E-1,1.0942228E0,0E0,0E0,0E0,0E0,0E0,1.0461698E0,4.812281E-1,1.13836884E-1,0E0,0E0,0E0,1.358782E-1,0E0,0E0,0E0,0E0],"parents":[2147483647,0,0,1,1,2,2,3,3,4,4,5,5,6,6,12,12,13,13,14,14,18,18],"right_children":[2,4,6,8,10,12,14,-1,-1,-1,-1,-1,16,18,20,-1,-1,-1,22,-1,-1,-1,-1],"split_conditions":[2.9723E-1,4.8558E-1,4.732E-1,4.0828E-1,6.1448E-1,4.2546E-1,5.9612E-1,-2.5243148E-2,4.599173E-3,-3.5808653E-2,-1.8239668E-2,5.085159E-3,3.7168E-1,3.9201E-1,5.1295E-1,-4.45172E-2,-1.5671053E-3,-3.4990392E-3,5.1284E-1,-6.7766802E-3,-2.1387642E-2,3.0858476E-2,1.2672591E-2],"split_indices":[1,0,0,0,0,1,0,0,0,0,0,0,0,1,1,0,0,0,0,0,0,0,0],"split_type":[0,0,0,0,0,0,0,0,0,0,0,0,0,0,0,0,0,0,0,0,0,0,0],"sum_hessian":[7.3E1,2.1E1,5.2E1,1E1,1.1E1,1.9E1,3.3E1,5E0,5E0,6E0,5E0,7E0,1.2E1,1.9E1,1.4E1,6E0,6E0,6E0,1.3E1,9E0,5E0,5E0,8E0],"tree_param":{"num_deleted":"0","num_feature":"2","num_nodes":"23","size_leaf_vector":"0"}},{"base_weights":[-1.1594519E-1,-2.4615109E-1,-3.1338315E-2,-1.8859373E-1,-3.265165E-2,1.1427113E-2,-6.821678E-2,-2.5477776E-2,-1.0638941E-1,-2.1495033E-2,-2.6145265E-3,5.083153E-2,-2.536893E-2,8.252458E-2,-1.6491514E-1,8.605569E-4,6.128779E-3,5.311336E-3,1.7714424E-2,-2.6249185E-3,-2.0050915E-2,9.226697E-3,-1.4381952E-2],"categories":[],"categories_nodes":[],"categories_segments":[],"categories_sizes":[],"default_left":[0,0,0,0,0,0,0,0,0,0,0,0,0,0,0,0,0,0,0,0,0,0,0],"id":21,"left_children":[1,3,5,7,-1,-1,9,-1,11,-1,13,15,-1,17,19,-1,-1,21,-1,-1,-1,-1,-1],"loss_changes":[8.0749327E-1,2.3370743E-1,3.220237E-1,2.6198453E-1,0E0,0E0,5.579827E-1,0E0,6.369071E-1,0E0,4.419716E-1,1.2433695E-2,0E0,2.479144E-1,1.3702425E-1,0E0,0E0,3.7155238E-1,0E0,0E0,0E0,0E0,0E0],"parents":[2147483647,0,0,1,1,2,2,3,3,6,6,8,8,10,10,11,11,13,13,14,14,17,17],"right_children":[2,4,6,8,-1,-1,10,-1,12,-1,14,16,-1,18,20,-1,-1,22,-1,-1,-1,-1,-1],"split_conditions":[3.4366E-1,2.9888E-1,3.9024E-1,4.2654E-1,-3.265165E-2,1.1427113E-2,3.7168E-1,-2.5477776E-2,5.7655E-1,-2.1495033E-2,5.9612E-1,1.9247E-1,-2.536893E-2,5.3034E-1,5.1295E-1,8.605569E-4,6.128779E-3,4.8999E-1,1.7714424E-2,-2.6249185E-3,-2.0050915E-2,9.226697E-3,-1.4381952E-2],"split_indices":[1,1,1,0,0,0,0,0,0,0,0,1,0,0,1,0,0,0,0,0,0,0,0],"split_type":[0,0,0,0,0,0,0,0,0,0,0,0,0,0,0,0,0,0,0,0,0,0,0],"sum_hessian":[7.3E1,2.8E1,4.5E1,2.3E1,5E0,7E0,3.8E1,7E0,1.6E1,8E0,3E1,1E1,6E0,2E1,1E1,5E0,5E0,1.4E1,6E0,5E0,5E0,9E0,5E0],"tree_param":{"num_deleted":"0","num_feature":"2","num_nodes":"23","size_leaf_vector":"0"}},{"base_weights":[-1.08555965E-1,-2.6586536E-1,-4.5369796E-2,-8.0318665E-3,-3.5533452E-1,-1.6565213E-1,3.0256629E-2,-1.4324621E-2,-3.256293E-2,3.936594E-3,-3.0392966E-1,1.6818081E-1,-1.5565939E-1,-4.027356E-2,-2.0595063E-3,-3.1463671E-3,2.6123407E-1,-6.2330426E-3,-1.8797733E-2,2.77641E-2,9.9933855E-3],"categories":[],"categories_nodes":[],"categories_segments":[],"categories_sizes":[],"default_left":[0,0,0,0,0,0,0,0,0,0,0,0,0,0,0,0,0,0,0,0,0],"id":22,"left_children":[1,3,5,-1,7,9,11,-1,-1,-1,13,15,17,-1,-1,-1,19,-1,-1,-1,-1],"loss_changes":[7.2348124E-1,2.6025927E-1,4.9622428E-1,0E0,8.5505605E-2,6.4939386E-1,8.9801764E-1,0E0,0E0,0E0,8.228643E-1,4.0202922E-1,8.253208E-2,0E0,0E0,0E0,1.4590281E-1,0E0,0E0,0E0,0E0],"parents":[2147483647,0,0,1,1,2,2,4,4,5,5,6,6,10,10,11,11,12,12,16,16],"right_children":[2,4,6,-1,8,10,12,-1,-1,-1,14,16,18,-1,-1,-1,20,-1,-1,-1,-1],"split_conditions":[2.8055E-1,1.7957E-1,4.732E-1,-8.0318665E-3,4.7568E-1,4.2546E-1,5.9612E-1,-1.4324621E-2,-3.256293E-2,3.936594E-3,3.7168E-1,3.9201E-1,5.1295E-1,-4.027356E-2,-2.0595063E-3,-3.1463671E-3,4.8893E-1,-6.2330426E-3,-1.8797733E-2,2.77641E-2,9.9933855E-3],"split_indices":[1,1,0,0,0,1,0,0,0,0,0,1,1,0,0,0,1,0,0,0,0],"split_type":[0,0,0,0,0,0,0,0,0,0,0,0,0,0,0,0,0,0,0,0,0],"sum_hessian":[7.3E1,2E1,5.3E1,8E0,1.2E1,2E1,3.3E1,5E0,7E0,8E0,1.2E1,1.9E1,1.4E1,6E0,6E0,6E0,1.3E1,9E0,5E0,6E0,7E0],"tree_param":{"num_deleted":"0","num_feature":"2","num_nodes":"21","size_leaf_vector":"0"}},{"base_weights":[-1.0154583E-1,-2.1539867E-1,-2.3387367E-2,-1.6101933E-1,-2.7830318E-2,1.3952283E-2,-6.0375504E-2,-2.3154935E-2,-8.203554E-2,-2.1009335E-2,-3.551532E-3,6.133033E-2,-2.2170408E-2,1.5966076E-1,-1.0946194E-1,1.6154018E-3,6.817519E-3,3.0291046E-3,1.7186828E-2,-2.279075E-2,-2.0037519E-2,1.5232486E-2,-1.631971E-2],"categories":[],"categories_nodes":[],"categories_segments":[],"categories_sizes":[],"default_left":[0,0,0,0,0,0,0,0,0,0,0,0,0,0,0,0,0,0,0,0,0,0,0],"id":23,"left_children":[1,3,5,7,-1,-1,9,-1,11,-1,13,15,-1,17,19,-1,-1,-1,-1,21,-1,-1,-1],"loss_changes":[6.5345603E-1,1.9421113E-1,3.5980055E-1,2.5467956E-1,0E0,0E0,4.8599845E-1,0E0,5.3864634E-1,0E0,5.7062495E-1,1.0985121E-2,0E0,9.8502874E-2,2.6728064E-1,0E0,0E0,0E0,0E0,6.602595E-1,0E0,0E0,0E0],"parents":[2147483647,0,0,1,1,2,2,3,3,6,6,8,8,10,10,11,11,13,13,14,14,19,19],"right_children":[2,4,6,8,-1,-1,10,-1,12,-1,14,16,-1,18,20,-1,-1,-1,-1,22,-1,-1,-1],"split_conditions":[3.6466E-1,2.9888E-1,3.9024E-1,4.2654E-1,-2.7830318E-2,1.3952283E-2,4.2582E-1,-2.3154935E-2,5.7655E-1,-2.1009335E-2,5.1295E-1,1.9247E-1,-2.2170408E-2,4.432E-1,5.4431E-1,1.6154018E-3,6.817519E-3,3.0291046E-3,1.7186828E-2,6.2297E-1,-2.0037519E-2,1.5232486E-2,-1.631971E-2],"split_indices":[1,1,1,0,0,0,1,0,0,0,1,1,0,1,0,0,0,0,0,1,0,0,0],"split_type":[0,0,0,0,0,0,0,0,0,0,0,0,0,0,0,0,0,0,0,0,0,0,0],"sum_hessian":[7.3E1,2.9E1,4.4E1,2.3E1,6E0,6E0,3.8E1,7E0,1.6E1,7E0,3.1E1,1E1,6E0,1.2E1,1.9E1,5E0,5E0,5E0,7E0,1.3E1,6E0,6E0,7E0],"tree_param":{"num_deleted":"0","num_feature":"2","num_nodes":"23","size_leaf_vector":"0"}},{"base_weights":[-9.491218E-2,-2.3694913E-1,-3.791795E-2,-7.444885E-3,-3.3194003E-1,-1.4712279E-1,3.0647334E-2,-3.1786658E-2,-1.2706572E-2,5.0286767E-3,-2.8407845E-1,1.5680185E-1,-1.3960186E-1,-3.74686E-2,-2.0994714E-3,-2.8658863E-3,2.4310856E-1,-5.8828914E-3,-1.637053E-2,2.8139884E-2,9.602744E-3],"categories":[],"categories_nodes":[],"categories_segments":[],"categories_sizes":[],"default_left":[0,0,0,0,0,0,0,0,0,0,0,0,0,0,0,0,0,0,0,0,0],"id":24,"left_children":[1,3,5,-1,7,9,11,-1,-1,-1,13,15,17,-1,-1,-1,19,-1,-1,-1,-1],"loss_changes":[5.900665E-1,2.4170315E-1,4.088426E-1,0E0,1.0738695E-1,6.3502E-1,7.5213176E-1,0E0,0E0,0E0,7.034483E-1,3.4590942E-1,5.5056393E-2,0E0,0E0,0E0,1.6475862E-1,0E0,0E0,0E0,0E0],"parents":[2147483647,0,0,1,1,2,2,4,4,5,5,6,6,10,10,11,11,12,12,16,16],"right_children":[2,4,6,-1,8,10,12,-1,-1,-1,14,16,18,-1,-1,-1,20,-1,-1,-1,-1],"split_conditions":[2.8055E-1,4.8558E-1,4.732E-1,-7.444885E-3,6.1448E-1,4.2546E-1,5.9612E-1,-3.1786658E-2,-1.2706572E-2,5.0286767E-3,3.7168E-1,3.9201E-1,5.1295E-1,-3.74686E-2,-2.0994714E-3,-2.8658863E-3,5.1284E-1,-5.8828914E-3,-1.637053E-2,2.8139884E-2,9.602744E-3],"split_indices":[1,0,0,0,0,1,0,0,0,0,0,1,1,0,0,0,0,0,0,0,0],"split_type":[0,0,0,0,0,0,0,0,0,0,0,0,0,0,0,0,0,0,0,0,0],"sum_hessian":[7.3E1,2E1,5.3E1,9E0,1.1E1,2E1,3.3E1,6E0,5E0,8E0,1.2E1,1.9E1,1.4E1,6E0,6E0,6E0,1.3E1,9E0,5E0,5E0,8E0],"tree_param":{"num_deleted":"0","num_feature":"2","num_nodes":"21","size_leaf_vector":"0"}},{"base_weights":[-8.879179E-2,-1.9104806E-1,-1.864779E-2,-1.3706507E-1,-2.6163006E-2,1.325198E-2,-5.323082E-2,-2.2467485E-2,-6.625535E-2,-1.9500256E-2,1.2578629E-4,5.4024953E-2,-1.9723885E-2,1.4808356E-2,-7.387406E-2,7.8097857E-3,2.5196382E-4,-1.2218607E-2,-9.588659E-3,-1.3612947E-2,1.5961327E-2],"categories":[],"categories_nodes":[],"categories_segments":[],"categories_sizes":[],"default_left":[0,0,0,0,0,0,0,0,0,0,0,0,0,0,0,0,0,0,0,0,0],"id":25,"left_children":[1,3,5,7,-1,-1,9,-1,11,-1,13,15,-1,-1,17,-1,-1,-1,19,-1,-1],"loss_changes":[5.272144E-1,2.0772886E-1,3.1340203E-1,2.5631234E-1,0E0,0E0,4.303073E-1,0E0,4.401367E-1,0E0,4.8183632E-1,3.0113582E-2,0E0,0E0,1.3581425E-1,0E0,0E0,0E0,6.1216015E-1,0E0,0E0],"parents":[2147483647,0,0,1,1,2,2,3,3,6,6,8,8,10,10,11,11,14,14,18,18],"right_children":[2,4,6,8,-1,-1,10,-1,12,-1,14,16,-1,-1,18,-1,-1,-1,20,-1,-1],"split_conditions":[3.6466E-1,2.9888E-1,3.9024E-1,4.1611E-1,-2.6163006E-2,1.325198E-2,4.2582E-1,-2.2467485E-2,5.7655E-1,-1.9500256E-2,4.8893E-1,5.0468E-1,-1.9723885E-2,1.4808356E-2,4.732E-1,7.8097857E-3,2.5196382E-4,-1.2218607E-2,5.8305E-1,-1.3612947E-2,1.5961327E-2],"split_indices":[1,1,1,0,0,0,1,0,0,0,1,0,0,0,0,0,0,0,1,0,0],"split_type":[0,0,0,0,0,0,0,0,0,0,0,0,0,0,0,0,0,0,0,0,0],"sum_hessian":[7.3E1,2.9E1,4.4E1,2.3E1,6E0,6E0,3.8E1,6E0,1.7E1,7E0,3.1E1,1.1E1,6E0,8E0,2.3E1,5E0,6E0,9E0,1.4E1,8E0,6E0],"tree_param":{"num_deleted":"0","num_feature":"2","num_nodes":"21","size_leaf_vector":"0"}},{"base_weights":[-8.296487E-2,-2.1257386E-1,-3.1024989E-2,-5.2992706E-3,-2.944722E-1,-1.2569907E-1,2.8362678E-2,-1.1244216E-2,-2.7455637E-2,5.967333E-3,-2.581354E-1,1.2578394E-1,-1.6072494E-1,-3.4485977E-2,-1.4685986E-3,-1.6052226E-4,1.9415286E-1,-1.8098239E-2,-5.1518595E-3,2.8909493E-2,4.496502E-3],"categories":[],"categories_nodes":[],"categories_segments":[],"categories_sizes":[],"default_left":[0,0,0,0,0,0,0,0,0,0,0,0,0,0,0,0,0,0,0,0,0],"id":26,"left_children":[1,3,5,-1,7,9,11,-1,-1,-1,13,15,17,-1,-1,-1,19,-1,-1,-1,-1],"loss_changes":[4.9156368E-1,2.2327143E-1,3.071787E-1,0E0,7.9669E-2,5.914097E-1,6.4653575E-1,0E0,0E0,0E0,6.164395E-1,2.015746E-1,7.242221E-2,0E0,0E0,0E0,3.6198997E-1,0E0,0E0,0E0,0E0],"parents":[2147483647,0,0,1,1,2,2,4,4,5,5,6,6,10,10,11,11,12,12,16,16],"right_children":[2,4,6,-1,8,10,12,-1,-1,-1,14,16,18,-1,-1,-1,20,-1,-1,-1,-1],"split_conditions":[2.8055E-1,1.7957E-1,4.732E-1,-5.2992706E-3,4.7568E-1,4.2546E-1,6.0974E-1,-1.1244216E-2,-2.7455637E-2,5.967333E-3,3.7168E-1,5.3034E-1,4.0961E-1,-3.4485977E-2,-1.4685986E-3,-1.6052226E-4,5.4705E-1,-1.8098239E-2,-5.1518595E-3,2.8909493E-2,4.496502E-3],"split_indices":[1,1,0,0,0,1,0,0,0,0,0,0,1,0,0,0,0,0,0,0,0],"split_type":[0,0,0,0,0,0,0,0,0,0,0,0,0,0,0,0,0,0,0,0,0],"sum_hessian":[7.3E1,2E1,5.3E1,8E0,1.2E1,2E1,3.3E1,5E0,7E0,8E0,1.2E1,2.2E1,1.1E1,6E0,6E0,8E0,1.4E1,5E0,6E0,5E0,9E0],"tree_param":{"num_deleted":"0","num_feature":"2","num_nodes":"21","size_leaf_vector":"0"}},{"base_weights":[-7.7607244E-2,-1.560492E-1,8.12756E-4,-1.1209418E-1,-2.733509E-2,2.1950109E-2,-5.227648E-2,-1.9523075E-1,6.4369366E-2,-3.2269023E-2,4.765376E-2,-8.081467E-2,-2.8384295E-1,-7.655045E-3,1.6505834E-2,2.0536976E-2,-4.5197956E-2,-1.7910631E-2,6.7986143E-3,-2.833615E-2,-9.5176E-3,-1.2394377E-1,1.1939968E-2,-3.050379E-3,-1.599762E-2],"categories":[],"categories_nodes":[],"categories_segments":[],"categories_sizes":[],"default_left":[0,0,0,0,0,0,0,0,0,0,0,0,0,0,0,0,0,0,0,0,0,0,0,0,0],"id":27,"left_children":[1,3,5,7,-1,-1,9,11,13,-1,15,17,19,-1,-1,-1,21,-1,-1,-1,-1,23,-1,-1,-1],"loss_changes":[4.5533177E-1,2.9810417E-1,6.04086E-1,4.8202533E-1,0E0,0E0,1.2669575E0,2.001118E-1,3.075341E-1,0E0,5.793901E-1,3.1963822E-1,1.2903291E-1,0E0,0E0,0E0,3.4164077E-1,0E0,0E0,0E0,0E0,1.0293977E-1,0E0,0E0,0E0],"parents":[2147483647,0,0,1,1,2,2,3,3,6,6,7,7,8,8,10,10,11,11,12,12,16,16,21,21],"right_children":[2,4,6,8,-1,-1,10,12,14,-1,16,18,20,-1,-1,-1,22,-1,-1,-1,-1,24,-1,-1,-1],"split_conditions":[3.9201E-1,3.806E-1,4.2546E-1,2.9723E-1,-2.733509E-2,2.1950109E-2,3.7168E-1,4.8558E-1,4.5884E-1,-3.2269023E-2,4.8893E-1,4.0828E-1,6.1448E-1,-7.655045E-3,1.6505834E-2,2.0536976E-2,6.4269E-1,-1.7910631E-2,6.7986143E-3,-2.833615E-2,-9.5176E-3,5.3975E-1,1.1939968E-2,-3.050379E-3,-1.599762E-2],"split_indices":[1,1,1,1,0,0,0,0,0,0,1,0,0,0,0,0,1,0,0,0,0,0,0,0,0],"split_type":[0,0,0,0,0,0,0,0,0,0,0,0,0,0,0,0,0,0,0,0,0,0,0,0,0],"sum_hessian":[7.3E1,3.6E1,3.7E1,3.1E1,5E0,5E0,3.2E1,2.1E1,1E1,6E0,2.6E1,1E1,1.1E1,5E0,5E0,7E0,1.9E1,5E0,5E0,6E0,5E0,1.4E1,5E0,8E0,6E0],"tree_param":{"num_deleted":"0","num_feature":"2","num_nodes":"25","size_leaf_vector":"0"}},{"base_weights":[-7.265616E-2,-1.6276501E-1,-1.0969012E-2,-1.0772454E-1,-2.4616731E-2,1.3394526E-2,-4.471183E-2,-1.8896017E-2,-3.3518456E-2,1.3283673E-2,-9.041124E-2,8.6944856E-2,-1.6352221E-2,-4.1165978E-2,1.1060976E-2,4.0941946E-3,7.860724E-3,1.9189235E-2,-8.272116E-2,-1.7378256E-2,-7.6782554E-3,-1.2077886E-2,1.4294705E-2],"categories":[],"categories_nodes":[],"categories_segments":[],"categories_sizes":[],"default_left":[0,0,0,0,0,0,0,0,0,0,0,0,0,0,0,0,0,0,0,0,0,0,0],"id":28,"left_children":[1,3,5,7,-1,-1,9,-1,11,-1,13,15,-1,-1,17,-1,-1,-1,19,-1,21,-1,-1],"loss_changes":[4.095479E-1,2.37849E-1,2.9582232E-1,2.4840733E-1,0E0,0E0,4.1137117E-1,0E0,3.9681256E-1,0E0,1.5412908E0,6.368086E-4,0E0,0E0,6.6397315E-1,0E0,0E0,0E0,2.3301262E-1,0E0,4.8680422E-1,0E0,0E0],"parents":[2147483647,0,0,1,1,2,2,3,3,6,6,8,8,10,10,11,11,14,14,18,18,20,20],"right_children":[2,4,6,8,-1,-1,10,-1,12,-1,14,16,-1,-1,18,-1,-1,-1,20,-1,22,-1,-1],"split_conditions":[3.6466E-1,2.9888E-1,3.9024E-1,4.2654E-1,-2.4616731E-2,1.3394526E-2,3.1741E-1,-1.8896017E-2,5.7655E-1,1.3283673E-2,4.2582E-1,1.9247E-1,-1.6352221E-2,-4.1165978E-2,4.8893E-1,4.0941946E-3,7.860724E-3,1.9189235E-2,4.732E-1,-1.7378256E-2,5.8305E-1,-1.2077886E-2,1.4294705E-2],"split_indices":[1,1,1,0,0,0,0,0,0,0,1,1,0,0,1,0,0,0,0,0,1,0,0],"split_type":[0,0,0,0,0,0,0,0,0,0,0,0,0,0,0,0,0,0,0,0,0,0,0],"sum_hessian":[7.3E1,2.9E1,4.4E1,2.3E1,6E0,6E0,3.8E1,7E0,1.6E1,6E0,3.2E1,1E1,6E0,5E0,2.7E1,5E0,5E0,7E0,2E1,6E0,1.4E1,8E0,6E0],"tree_param":{"num_deleted":"0","num_feature":"2","num_nodes":"23","size_leaf_vector":"0"}},{"base_weights":[-6.799573E-2,-4.4395953E-2,-2.1565273E-2,-1.444424E-1,2.5011271E-2,3.247937E-2,-2.4453667E-1,3.046448E-2,-5.1939692E-2,-7.027839E-3,1.1493752E-2,-3.3989653E-2,-1.0244106E-1,-2.5121108E-2,1.8163702E-2,4.802699E-3,-1.7287591E-2,2.5788907E-2,-6.401521E-2,-2.176939E-2,1.0799267E-2,8.82377E-3,-1.802397E-2],"categories":[],"categories_nodes":[],"categories_segments":[],"categories_sizes":[],"default_left":[0,0,0,0,0,0,0,0,0,0,0,0,0,0,0,0,0,0,0,0,0,0,0],"id":29,"left_children":[1,3,-1,5,7,9,11,-1,13,-1,-1,-1,15,-1,17,-1,-1,-1,19,-1,21,-1,-1],"loss_changes":[3.7063769E-1,4.7580096E-1,0E0,5.037903E-1,1.223722E0,1.8199262E-1,4.8726487E-1,0E0,7.004786E-1,0E0,0E0,0E0,2.7058935E-1,0E0,7.981885E-1,0E0,0E0,0E0,4.093652E-1,0E0,5.3808737E-1,0E0,0E0],"parents":[2147483647,0,0,1,1,3,3,4,4,5,5,6,6,8,8,12,12,14,14,18,18,20,20],"right_children":[2,4,-1,6,8,10,12,-1,14,-1,-1,-1,16,-1,18,-1,-1,-1,20,-1,22,-1,-1],"split_conditions":[7.282E-1,4.732E-1,-2.1565273E-2,3.1741E-1,4.9209E-1,4.1893E-1,3.7168E-1,3.046448E-2,5.3034E-1,-7.027839E-3,1.1493752E-2,-3.3989653E-2,4.1611E-1,-2.5121108E-2,5.4705E-1,4.802699E-3,-1.7287591E-2,2.5788907E-2,5.7008E-1,-2.176939E-2,5.1295E-1,8.82377E-3,-1.802397E-2],"split_indices":[0,0,0,0,0,1,0,0,0,0,0,0,0,0,0,0,0,0,0,0,1,0,0],"split_type":[0,0,0,0,0,0,0,0,0,0,0,0,0,0,0,0,0,0,0,0,0,0,0],"sum_hessian":[7.3E1,6.7E1,6E0,2.7E1,4E1,1E1,1.7E1,6E0,3.4E1,5E0,5E0,6E0,1.1E1,6E0,2.8E1,5E0,6E0,5E0,2.3E1,5E0,1.8E1,1.3E1,5E0],"tree_param":{"num_deleted":"0","num_feature":"2","num_nodes":"23","size_leaf_vector":"0"}},{"base_weights":[-6.375296E-2,-1.4680094E-1,-1.0010683E-2,-9.2607416E-2,-2.5433114E-2,2.9012723E-2,-1.1504717E-2,-1.6562099E-2,-2.6820837E-2,2.189286E-2,-4.2058926E-2,6.367603E-3,-1.4891458E-2,-2.3326564E-1,6.520772E-2,6.3815904E-3,-3.845562E-2,1.7865999E-2,-4.627323E-2,7.1641896E-3,-1.360939E-2],"categories":[],"categories_nodes":[],"categories_segments":[],"categories_sizes":[],"default_left":[0,0,0,0,0,0,0,0,0,0,0,0,0,0,0,0,0,0,0,0,0],"id":30,"left_children":[1,3,5,7,-1,9,-1,-1,11,-1,13,-1,-1,15,17,-1,-1,-1,19,-1,-1],"loss_changes":[3.2880628E-1,2.7082843E-1,2.618385E-1,1.9652183E-1,0E0,7.0359164E-1,0E0,0E0,3.4302396E-1,0E0,6.3051385E-1,0E0,0E0,1.0223216E0,3.9675942E-1,0E0,0E0,0E0,2.665265E-1,0E0,0E0],"parents":[2147483647,0,0,1,1,2,2,3,3,5,5,8,8,10,10,13,13,14,14,18,18],"right_children":[2,4,6,8,-1,10,-1,-1,12,-1,14,-1,-1,16,18,-1,-1,-1,20,-1,-1],"split_conditions":[3.4366E-1,2.9888E-1,6.2297E-1,4.2654E-1,-2.5433114E-2,3.4516E-1,-1.1504717E-2,-1.6562099E-2,5.7655E-1,2.189286E-2,4.2582E-1,6.367603E-3,-1.4891458E-2,3.9024E-1,4.8893E-1,6.3815904E-3,-3.845562E-2,1.7865999E-2,5.3975E-1,7.1641896E-3,-1.360939E-2],"split_indices":[1,1,1,0,0,0,0,0,0,0,1,0,0,1,1,0,0,0,0,0,0],"split_type":[0,0,0,0,0,0,0,0,0,0,0,0,0,0,0,0,0,0,0,0,0],"sum_hessian":[7.3E1,2.8E1,4.5E1,2.3E1,5E0,3.6E1,9E0,7E0,1.6E1,7E0,2.9E1,1E1,6E0,1E1,1.9E1,5E0,5E0,7E0,1.2E1,6E0,6E0],"tree_param":{"num_deleted":"0","num_feature":"2","num_nodes":"21","size_leaf_vector":"0"}},{"base_weights":[-5.979289E-2,-3.8010623E-2,-1.9713767E-2,-1.3233335E-1,2.7331995E-2,2.5683587E-2,-2.2154742E-1,2.8951397E-2,-4.518624E-2,-6.293065E-3,9.824559E-3,-3.0971527E-2,-9.143148E-2,-2.3690205E-2,2.1709219E-2,4.7475146E-3,-1.5824776E-2,2.3848666E-2,-5.326358E-2,-2.0409442E-2,1.8654188E-2,8.787242E-3,-1.6073193E-2],"categories":[],"categories_nodes":[],"categories_segments":[],"categories_sizes":[],"default_left":[0,0,0,0,0,0,0,0,0,0,0,0,0,0,0,0,0,0,0,0,0,0,0],"id":31,"left_children":[1,3,-1,5,7,9,11,-1,13,-1,-1,-1,15,-1,17,-1,-1,-1,19,-1,21,-1,-1],"loss_changes":[3.1731457E-1,4.2272094E-1,0E0,4.0041545E-1,1.0839068E0,1.3794348E-1,4.1053307E-1,0E0,6.4061886E-1,0E0,0E0,0E0,2.35363E-1,0E0,6.6109693E-1,0E0,0E0,0E0,3.8283846E-1,0E0,4.6114022E-1,0E0,0E0],"parents":[2147483647,0,0,1,1,3,3,4,4,5,5,6,6,8,8,12,12,14,14,18,18,20,20],"right_children":[2,4,-1,6,8,10,12,-1,14,-1,-1,-1,16,-1,18,-1,-1,-1,20,-1,22,-1,-1],"split_conditions":[7.282E-1,4.732E-1,-1.9713767E-2,3.1741E-1,4.9209E-1,4.1893E-1,3.7168E-1,2.8951397E-2,5.3034E-1,-6.293065E-3,9.824559E-3,-3.0971527E-2,4.1611E-1,-2.3690205E-2,5.4705E-1,4.7475146E-3,-1.5824776E-2,2.3848666E-2,5.7008E-1,-2.0409442E-2,5.1295E-1,8.787242E-3,-1.6073193E-2],"split_indices":[0,0,0,0,0,1,0,0,0,0,0,0,0,0,0,0,0,0,0,0,1,0,0],"split_type":[0,0,0,0,0,0,0,0,0,0,0,0,0,0,0,0,0,0,0,0,0,0,0],"sum_hessian":[7.3E1,6.7E1,6E0,2.7E1,4E1,1E1,1.7E1,6E0,3.4E1,5E0,5E0,6E0,1.1E1,6E0,2.8E1,5E0,6E0,5E0,2.3E1,5E0,1.8E1,1.3E1,5E0],"tree_param":{"num_deleted":"0","num_feature":"2","num_nodes":"23","size_leaf_vector":"0"}},{"base_weights":[-5.6076214E-2,-3.5705455E-2,-1.8446455E-2,-1.23783976E-1,2.5316594E-2,2.4078358E-2,-2.072674E-1,2.7090235E-2,-4.258404E-2,-5.899749E-3,9.210523E-3,-2.89805E-2,-8.549723E-2,-2.2167265E-2,1.9948386E-2,4.4507952E-3,-1.4807468E-2,2.2358127E-2,-5.042278E-2,-1.9133855E-2,1.6871655E-2,8.175273E-3,-1.50686195E-2],"categories":[],"categories_nodes":[],"categories_segments":[],"categories_sizes":[],"default_left":[0,0,0,0,0,0,0,0,0,0,0,0,0,0,0,0,0,0,0,0,0,0,0],"id":32,"left_children":[1,3,-1,5,7,9,11,-1,13,-1,-1,-1,15,-1,17,-1,-1,-1,19,-1,21,-1,-1],"loss_changes":[2.7744484E-1,3.6861557E-1,0E0,3.506242E-1,9.5046467E-1,1.2123938E-1,3.59612E-1,0E0,5.595758E-1,0E0,0E0,0E0,2.0627117E-1,0E0,5.826901E-1,0E0,0E0,0E0,3.349007E-1,0E0,4.0313756E-1,0E0,0E0],"parents":[2147483647,0,0,1,1,3,3,4,4,5,5,6,6,8,8,12,12,14,14,18,18,20,20],"right_children":[2,4,-1,6,8,10,12,-1,14,-1,-1,-1,16,-1,18,-1,-1,-1,20,-1,22,-1,-1],"split_conditions":[7.282E-1,4.732E-1,-1.8446455E-2,3.1741E-1,4.9209E-1,4.1893E-1,3.7168E-1,2.7090235E-2,5.3034E-1,-5.899749E-3,9.210523E-3,-2.89805E-2,4.1611E-1,-2.2167265E-2,5.4705E-1,4.4507952E-3,-1.4807468E-2,2.2358127E-2,5.7008E-1,-1.9133855E-2,5.1295E-1,8.175273E-3,-1.50686195E-2],"split_indices":[0,0,0,0,0,1,0,0,0,0,0,0,0,0,0,0,0,0,0,0,1,0,0],"split_type":[0,0,0,0,0,0,0,0,0,0,0,0,0,0,0,0,0,0,0,0,0,0,0],"sum_hessian":[7.3E1,6.7E1,6E0,2.7E1,4E1,1E1,1.7E1,6E0,3.4E1,5E0,5E0,6E0,1.1E1,6E0,2.8E1,5E0,6E0,5E0,2.3E1,5E0,1.8E1,1.3E1,5E0],"tree_param":{"num_deleted":"0","num_feature":"2","num_nodes":"23","size_leaf_vector":"0"}},{"base_weights":[-5.2589677E-2,-3.353891E-2,-1.7260611E-2,-1.1578684E-1,2.344843E-2,2.257345E-2,-1.9390775E-1,2.5348721E-2,-4.012842E-2,-5.531015E-3,8.634864E-3,-2.7117467E-2,-7.9948E-2,-2.2549303E-2,1.3314981E-2,4.1726204E-3,-1.3855561E-2,1.5645083E-2,-5.518954E-2,-1.17773294E-1,7.851286E-3,-1.4742187E-3,-2.207839E-2],"categories":[],"categories_nodes":[],"categories_segments":[],"categories_sizes":[],"default_left":[0,0,0,0,0,0,0,0,0,0,0,0,0,0,0,0,0,0,0,0,0,0,0],"id":33,"left_children":[1,3,-1,5,7,9,11,-1,13,-1,-1,-1,15,-1,17,-1,-1,-1,19,21,-1,-1,-1],"loss_changes":[2.4258615E-1,3.214372E-1,0E0,3.0702445E-1,8.3344436E-1,1.0655803E-1,3.1500727E-1,0E0,4.9132755E-1,0E0,0E0,0E0,1.8077543E-1,0E0,4.1285208E-1,0E0,0E0,0E0,2.4245486E-1,2.887893E-1,0E0,0E0,0E0],"parents":[2147483647,0,0,1,1,3,3,4,4,5,5,6,6,8,8,12,12,14,14,18,18,19,19],"right_children":[2,4,-1,6,8,10,12,-1,14,-1,-1,-1,16,-1,18,-1,-1,-1,20,22,-1,-1,-1],"split_conditions":[7.282E-1,4.732E-1,-1.7260611E-2,3.1741E-1,4.9209E-1,4.1893E-1,3.7168E-1,2.5348721E-2,5.2988E-1,-5.531015E-3,8.634864E-3,-2.7117467E-2,4.1611E-1,-2.2549303E-2,5.4875E-1,4.1726204E-3,-1.3855561E-2,1.5645083E-2,6.7697E-1,6.0974E-1,7.851286E-3,-1.4742187E-3,-2.207839E-2],"split_indices":[0,0,0,0,0,1,0,0,0,0,0,0,0,0,0,0,0,0,0,0,0,0,0],"split_type":[0,0,0,0,0,0,0,0,0,0,0,0,0,0,0,0,0,0,0,0,0,0,0],"sum_hessian":[7.3E1,6.7E1,6E0,2.7E1,4E1,1E1,1.7E1,6E0,3.4E1,5E0,5E0,6E0,1.1E1,5E0,2.9E1,5E0,6E0,7E0,2.2E1,1.6E1,6E0,1.1E1,5E0],"tree_param":{"num_deleted":"0","num_feature":"2","num_nodes":"23","size_leaf_vector":"0"}},{"base_weights":[-4.929699E-2,-1.3656338E-1,-1.4447155E-2,-1.6115804E-3,-2.0572625E-1,1.5681738E-2,-1.1143684E-2,-6.2713968E-3,-2.036934E-2,6.0061425E-2,-1.0923998E-2,-2.0665387E-3,1.4717835E-1,1.10240534E-1,-2.3994412E-2,1.8193977E-2,2.50298E-3,-1.7452531E-3,1.7362664E-2],"categories":[],"categories_nodes":[],"categories_segments":[],"categories_sizes":[],"default_left":[0,0,0,0,0,0,0,0,0,0,0,0,0,0,0,0,0,0,0],"id":34,"left_children":[1,3,5,-1,7,9,-1,-1,-1,11,-1,13,15,17,-1,-1,-1,-1,-1],"loss_changes":[2.2307727E-1,1.6271764E-1,2.2056283E-1,0E0,8.184385E-2,3.309481E-1,0E0,0E0,0E0,1.9515046E-1,0E0,8.2062054E-1,1.5477315E-1,2.806121E-1,0E0,0E0,0E0,0E0,0E0],"parents":[2147483647,0,0,1,1,2,2,4,4,5,5,9,9,11,11,12,12,13,13],"right_children":[2,4,6,-1,8,10,-1,-1,-1,12,-1,14,16,18,-1,-1,-1,-1,-1],"split_conditions":[2.8055E-1,1.7957E-1,6.2297E-1,-1.6115804E-3,4.7568E-1,6.0974E-1,-1.1143684E-2,-6.2713968E-3,-2.036934E-2,4.432E-1,-1.0923998E-2,4.2546E-1,5.1284E-1,3.6466E-1,-2.3994412E-2,1.8193977E-2,2.50298E-3,-1.7452531E-3,1.7362664E-2],"split_indices":[1,1,1,0,0,0,0,0,0,1,0,1,0,1,0,0,0,0,0],"split_type":[0,0,0,0,0,0,0,0,0,0,0,0,0,0,0,0,0,0,0],"sum_hessian":[7.3E1,2E1,5.3E1,8E0,1.2E1,4.4E1,9E0,5E0,7E0,3.5E1,9E0,2.1E1,1.4E1,1.6E1,5E0,7E0,7E0,8E0,8E0],"tree_param":{"num_deleted":"0","num_feature":"2","num_nodes":"19","size_leaf_vector":"0"}},{"base_weights":[-4.611323E-2,-1.0843952E-1,-3.537634E-3,-5.9306536E-2,-1.9605309E-2,1.3866973E-2,-3.72678E-2,-1.2395898E-1,3.270209E-3,-1.480764E-2,3.9386624E-3,-1.5041411E-3,-1.7988084E-2,6.572038E-2,-1.0391486E-2,1.3612765E-2,-2.167618E-2,9.624575E-3,-8.945272E-3],"categories":[],"categories_nodes":[],"categories_segments":[],"categories_sizes":[],"default_left":[0,0,0,0,0,0,0,0,0,0,0,0,0,0,0,0,0,0,0],"id":35,"left_children":[1,3,5,7,-1,-1,9,11,-1,-1,13,-1,-1,15,-1,-1,17,-1,-1],"loss_changes":[1.9598122E-1,2.0996526E-1,2.9290134E-1,1.6508509E-1,0E0,0E0,2.5817496E-1,1.7579879E-1,0E0,0E0,2.908142E-1,0E0,0E0,2.3667243E-1,0E0,0E0,2.2025856E-1,0E0,0E0],"parents":[2147483647,0,0,1,1,2,2,3,3,6,6,7,7,10,10,13,13,16,16],"right_children":[2,4,6,8,-1,-1,10,12,-1,-1,14,-1,-1,16,-1,-1,18,-1,-1],"split_conditions":[3.6466E-1,2.9888E-1,3.9024E-1,2.3262E-1,-1.9605309E-2,1.3866973E-2,4.2582E-1,1.7957E-1,3.270209E-3,-1.480764E-2,6.2297E-1,-1.5041411E-3,-1.7988084E-2,5.1284E-1,-1.0391486E-2,1.3612765E-2,4.8209E-1,9.624575E-3,-8.945272E-3],"split_indices":[1,1,1,1,0,0,1,1,0,0,1,0,0,0,0,0,1,0,0],"split_type":[0,0,0,0,0,0,0,0,0,0,0,0,0,0,0,0,0,0,0],"sum_hessian":[7.3E1,2.9E1,4.4E1,2.3E1,6E0,6E0,3.8E1,1.4E1,9E0,7E0,3.1E1,8E0,6E0,2.2E1,9E0,9E0,1.3E1,5E0,8E0],"tree_param":{"num_deleted":"0","num_feature":"2","num_nodes":"19","size_leaf_vector":"0"}},{"base_weights":[-4.3098893E-2,-2.5512569E-2,-1.5583537E-2,-1.0556269E-1,2.9778063E-2,2.350079E-2,-1.7857023E-1,2.4105769E-2,-2.9399175E-2,-4.4356803E-3,7.6670395E-3,-2.473687E-2,-7.545746E-2,-1.9402673E-2,2.6963621E-2,3.9896695E-3,-1.3121391E-2,1.814085E-2,-3.9617434E-2,-1.0039934E-1,8.524154E-3,-1.0250517E-3,-1.9284757E-2],"categories":[],"categories_nodes":[],"categories_segments":[],"categories_sizes":[],"default_left":[0,0,0,0,0,0,0,0,0,0,0,0,0,0,0,0,0,0,0,0,0,0,0],"id":36,"left_children":[1,3,-1,5,7,9,11,-1,13,-1,-1,-1,15,-1,17,-1,-1,-1,19,21,-1,-1,-1],"loss_changes":[2.0901363E-1,3.0411294E-1,0E0,2.6802954E-1,7.170267E-1,7.761417E-2,2.5584543E-1,0E0,4.5932135E-1,0E0,0E0,0E0,1.6290978E-1,0E0,4.2455015E-1,0E0,0E0,0E0,2.2568382E-1,2.2757636E-1,0E0,0E0,0E0],"parents":[2147483647,0,0,1,1,3,3,4,4,5,5,6,6,8,8,12,12,14,14,18,18,19,19],"right_children":[2,4,-1,6,8,10,12,-1,14,-1,-1,-1,16,-1,18,-1,-1,-1,20,22,-1,-1,-1],"split_conditions":[7.282E-1,4.732E-1,-1.5583537E-2,3.1741E-1,4.9209E-1,4.1893E-1,3.7168E-1,2.4105769E-2,5.3034E-1,-4.4356803E-3,7.6670395E-3,-2.473687E-2,4.1611E-1,-1.9402673E-2,5.4875E-1,3.9896695E-3,-1.3121391E-2,1.814085E-2,6.7697E-1,6.0974E-1,8.524154E-3,-1.0250517E-3,-1.9284757E-2],"split_indices":[0,0,0,0,0,1,0,0,0,0,0,0,0,0,0,0,0,0,0,0,0,0,0],"split_type":[0,0,0,0,0,0,0,0,0,0,0,0,0,0,0,0,0,0,0,0,0,0,0],"sum_hessian":[7.3E1,6.7E1,6E0,2.7E1,4E1,1E1,1.7E1,6E0,3.4E1,5E0,5E0,6E0,1.1E1,6E0,2.8E1,5E0,6E0,6E0,2.2E1,1.6E1,6E0,1.1E1,5E0],"tree_param":{"num_deleted":"0","num_feature":"2","num_nodes":"23","size_leaf_vector":"0"}},{"base_weights":[-4.034164E-2,-2.3887048E-2,-1.4581738E-2,-9.8739676E-2,2.7814431E-2,-6.231712E-3,-2.0500027E-1,2.2556111E-2,-2.756701E-2,-1.5998937E-2,2.1787332E-2,-2.8757738E-2,2.0412888E-4,-1.9757885E-2,2.052618E-2,1.3785298E-2,-3.7158534E-2,-9.406406E-2,7.976172E-3,-9.5457776E-4,-1.8079458E-2],"categories":[],"categories_nodes":[],"categories_segments":[],"categories_sizes":[],"default_left":[0,0,0,0,0,0,0,0,0,0,0,0,0,0,0,0,0,0,0,0,0],"id":37,"left_children":[1,3,-1,5,7,9,11,-1,13,-1,-1,-1,-1,-1,15,-1,17,19,-1,-1,-1],"loss_changes":[1.8297163E-1,2.6590586E-1,0E0,2.739611E-1,6.2802476E-1,1.0451518E0,4.828903E-1,0E0,4.024408E-1,0E0,0E0,0E0,0E0,0E0,2.8938887E-1,0E0,1.978301E-1,2.0018503E-1,0E0,0E0,0E0],"parents":[2147483647,0,0,1,1,3,3,4,4,5,5,6,6,8,8,14,14,16,16,17,17],"right_children":[2,4,-1,6,8,10,12,-1,14,-1,-1,-1,-1,-1,16,-1,18,20,-1,-1,-1],"split_conditions":[7.282E-1,4.732E-1,-1.4581738E-2,4.2546E-1,4.9209E-1,3.1107E-1,3.7168E-1,2.2556111E-2,5.2988E-1,-1.5998937E-2,2.1787332E-2,-2.8757738E-2,2.0412888E-4,-1.9757885E-2,5.4875E-1,1.3785298E-2,6.7697E-1,6.0974E-1,7.976172E-3,-9.5457776E-4,-1.8079458E-2],"split_indices":[0,0,0,1,0,1,0,0,0,0,0,0,0,0,0,0,0,0,0,0,0],"split_type":[0,0,0,0,0,0,0,0,0,0,0,0,0,0,0,0,0,0,0,0,0],"sum_hessian":[7.3E1,6.7E1,6E0,2.7E1,4E1,1.5E1,1.2E1,6E0,3.4E1,9E0,6E0,6E0,6E0,5E0,2.9E1,7E0,2.2E1,1.6E1,6E0,1.1E1,5E0],"tree_param":{"num_deleted":"0","num_feature":"2","num_nodes":"21","size_leaf_vector":"0"}},{"base_weights":[-3.774603E-2,-2.2349037E-2,-1.364434E-2,-9.214724E-2,2.5863126E-2,-5.4025548E-3,-1.9182168E-1,2.1106075E-2,-2.5986064E-2,-1.4919008E-2,2.0386716E-2,-2.6909025E-2,1.9100682E-4,-1.7244602E-2,2.4137374E-2,1.7776232E-2,-3.0088112E-2,-1.748554E-2,3.561729E-2,8.738975E-3,-1.1931837E-2],"categories":[],"categories_nodes":[],"categories_segments":[],"categories_sizes":[],"default_left":[0,0,0,0,0,0,0,0,0,0,0,0,0,0,0,0,0,0,0,0,0],"id":38,"left_children":[1,3,-1,5,7,9,11,-1,13,-1,-1,-1,-1,-1,15,-1,17,-1,19,-1,-1],"loss_changes":[1.602079E-1,2.3121151E-1,0E0,2.4105804E-1,5.5056787E-1,9.124388E-1,4.2280003E-1,0E0,3.6332935E-1,0E0,0E0,0E0,0E0,0E0,3.4189197E-1,0E0,3.2850322E-1,0E0,3.178324E-1,0E0,0E0],"parents":[2147483647,0,0,1,1,3,3,4,4,5,5,6,6,8,8,14,14,16,16,18,18],"right_children":[2,4,-1,6,8,10,12,-1,14,-1,-1,-1,-1,-1,16,-1,18,-1,20,-1,-1],"split_conditions":[7.282E-1,4.732E-1,-1.364434E-2,4.2546E-1,4.9209E-1,3.1107E-1,3.7168E-1,2.1106075E-2,5.3034E-1,-1.4919008E-2,2.0386716E-2,-2.6909025E-2,1.9100682E-4,-1.7244602E-2,5.4705E-1,1.7776232E-2,5.7008E-1,-1.748554E-2,5.1295E-1,8.738975E-3,-1.1931837E-2],"split_indices":[0,0,0,1,0,1,0,0,0,0,0,0,0,0,0,0,0,0,1,0,0],"split_type":[0,0,0,0,0,0,0,0,0,0,0,0,0,0,0,0,0,0,0,0,0],"sum_hessian":[7.3E1,6.7E1,6E0,2.7E1,4E1,1.5E1,1.2E1,6E0,3.4E1,9E0,6E0,6E0,6E0,6E0,2.8E1,5E0,2.3E1,5E0,1.8E1,1.3E1,5E0],"tree_param":{"num_deleted":"0","num_feature":"2","num_nodes":"21","size_leaf_vector":"0"}},{"base_weights":[-3.5373673E-2,-8.030226E-2,9.30347E-3,-4.0417943E-2,-2.0972617E-2,1.9287426E-2,-3.604431E-2,-8.452532E-2,9.688758E-3,-2.5179163E-2,4.2984914E-2,-1.7031377E-2,-2.0051477E-2,1.6115917E-2,-2.7921915E-2,4.5563858E-2,-1.0428303E-2,-9.315681E-2,1.0486423E-2,8.17539E-3,-5.784473E-4,-7.506537E-4,-1.2349524E-2],"categories":[],"categories_nodes":[],"categories_segments":[],"categories_sizes":[],"default_left":[0,0,0,0,0,0,0,0,0,0,0,0,0,0,0,0,0,0,0,0,0,0,0],"id":39,"left_children":[1,3,5,7,-1,-1,9,11,-1,-1,13,-1,15,-1,17,19,-1,21,-1,-1,-1,-1,-1],"loss_changes":[1.4928587E-1,2.8285682E-1,4.3638942E-1,2.503008E-1,0E0,0E0,7.9598016E-1,2.3442228E-1,0E0,0E0,3.3508813E-1,0E0,1.5468237E-1,0E0,2.3187625E-1,4.4779826E-2,0E0,8.753264E-2,0E0,0E0,0E0,0E0,0E0],"parents":[2147483647,0,0,1,1,2,2,3,3,6,6,7,7,10,10,12,12,14,14,15,15,17,17],"right_children":[2,4,6,8,-1,-1,10,12,-1,-1,14,-1,16,-1,18,20,-1,22,-1,-1,-1,-1,-1],"split_conditions":[3.9201E-1,3.806E-1,4.2546E-1,3.1107E-1,-2.0972617E-2,1.9287426E-2,3.7168E-1,4.1611E-1,9.688758E-3,-2.5179163E-2,4.8893E-1,-1.7031377E-2,5.7655E-1,1.6115917E-2,6.4269E-1,5.0468E-1,-1.0428303E-2,5.3713E-1,1.0486423E-2,8.17539E-3,-5.784473E-4,-7.506537E-4,-1.2349524E-2],"split_indices":[1,1,1,1,0,0,0,0,0,0,1,0,0,0,1,0,0,1,0,0,0,0,0],"split_type":[0,0,0,0,0,0,0,0,0,0,0,0,0,0,0,0,0,0,0,0,0,0,0],"sum_hessian":[7.3E1,3.6E1,3.7E1,3.1E1,5E0,5E0,3.2E1,2.5E1,6E0,6E0,2.6E1,7E0,1.8E1,7E0,1.9E1,1.2E1,6E0,1.4E1,5E0,5E0,7E0,7E0,7E0],"tree_param":{"num_deleted":"0","num_feature":"2","num_nodes":"23","size_leaf_vector":"0"}},{"base_weights":[-3.30387E-2,-8.535905E-2,2.5757262E-3,-3.359767E-2,-1.8797439E-2,1.4022296E-2,-3.058564E-2,-1.0067061E-1,5.2778637E-3,-1.4449371E-2,1.0888321E-2,-1.5085589E-4,-1.5985249E-2,7.074181E-2,-9.589765E-3,1.7496305E-2,-3.4863633E-4,8.980192E-3,-1.41752325E-2],"categories":[],"categories_nodes":[],"categories_segments":[],"categories_sizes":[],"default_left":[0,0,0,0,0,0,0,0,0,0,0,0,0,0,0,0,0,0,0],"id":40,"left_children":[1,3,5,7,-1,-1,9,11,-1,-1,13,-1,-1,15,-1,-1,17,-1,-1],"loss_changes":[1.3810843E-1,2.4822277E-1,2.8087384E-1,1.744488E-1,0E0,0E0,2.642477E-1,1.6600844E-1,0E0,0E0,2.7479833E-1,0E0,0E0,2.6585093E-1,0E0,0E0,4.0775663E-1,0E0,0E0],"parents":[2147483647,0,0,1,1,2,2,3,3,6,6,7,7,10,10,13,13,16,16],"right_children":[2,4,6,8,-1,-1,10,12,-1,-1,14,-1,-1,16,-1,-1,18,-1,-1],"split_conditions":[3.6466E-1,2.9888E-1,3.9024E-1,2.3262E-1,-1.8797439E-2,1.4022296E-2,4.2582E-1,1.7957E-1,5.2778637E-3,-1.4449371E-2,6.2297E-1,-1.5085589E-4,-1.5985249E-2,4.5032E-1,-9.589765E-3,1.7496305E-2,5.1295E-1,8.980192E-3,-1.41752325E-2],"split_indices":[1,1,1,1,0,0,1,1,0,0,1,0,0,0,0,0,1,0,0],"split_type":[0,0,0,0,0,0,0,0,0,0,0,0,0,0,0,0,0,0,0],"sum_hessian":[7.3E1,2.9E1,4.4E1,2.3E1,6E0,6E0,3.8E1,1.4E1,9E0,7E0,3.1E1,8E0,6E0,2.2E1,9E0,6E0,1.6E1,1E1,6E0],"tree_param":{"num_deleted":"0","num_feature":"2","num_nodes":"19","size_leaf_vector":"0"}},{"base_weights":[-3.0930677E-2,-1.6634535E-2,-1.2404162E-2,9.372476E-3,-3.4932446E-2,-1.7321253E-1,-4.422377E-3,-3.484995E-3,-2.033173E-2,-6.873947E-2,6.0064804E-2,8.130219E-3,-2.0891042E-2,1.4515117E-2,-5.071558E-2,-1.5971206E-2,1.4355381E-1,3.9111995E-4,-1.01610385E-2,4.148458E-4,1.9580152E-2],"categories":[],"categories_nodes":[],"categories_segments":[],"categories_sizes":[],"default_left":[0,0,0,0,0,0,0,0,0,0,0,0,0,0,0,0,0,0,0,0,0],"id":41,"left_children":[1,3,-1,-1,5,7,9,-1,-1,11,13,15,-1,-1,17,-1,19,-1,-1,-1,-1],"loss_changes":[1.3949406E-1,1.8055336E-1,0E0,0E0,2.5658903E-1,1.2386423E-1,2.1565783E-1,0E0,0E0,4.215889E-1,3.9424774E-1,6.293576E-1,0E0,0E0,7.1820706E-2,0E0,2.0941204E-1,0E0,0E0,0E0,0E0],"parents":[2147483647,0,0,1,1,4,4,5,5,6,6,9,9,10,10,11,11,14,14,16,16],"right_children":[2,4,-1,-1,6,8,10,-1,-1,12,14,16,-1,-1,18,-1,20,-1,-1,-1,-1],"split_conditions":[7.282E-1,1.7957E-1,-1.2404162E-2,9.372476E-3,2.8055E-1,4.7568E-1,4.9842E-1,-3.484995E-3,-2.033173E-2,6.2297E-1,5.7655E-1,3.9201E-1,-2.0891042E-2,1.4515117E-2,5.1295E-1,-1.5971206E-2,3.7168E-1,3.9111995E-4,-1.01610385E-2,4.148458E-4,1.9580152E-2],"split_indices":[0,1,0,0,1,0,0,0,0,1,0,1,0,0,1,0,0,0,0,0,0],"split_type":[0,0,0,0,0,0,0,0,0,0,0,0,0,0,0,0,0,0,0,0,0],"sum_hessian":[7.3E1,6.7E1,6E0,7E0,6E1,1E1,5E1,5E0,5E0,2.5E1,2.5E1,1.9E1,6E0,1.1E1,1.4E1,7E0,1.2E1,9E0,5E0,6E0,6E0],"tree_param":{"num_deleted":"0","num_feature":"2","num_nodes":"21","size_leaf_vector":"0"}},{"base_weights":[-2.9137503E-2,-1.2700553E-2,-1.6523637E-2,7.3731067E-3,-9.614242E-2,3.6549747E-2,-1.2372098E-2,-1.8486228E-2,1.4032684E-3,-6.7418395E-3,1.2935458E-1,5.5016257E-2,-2.20367E-2,1.6420398E-2,1.7700907E-3,1.4489444E-1,-7.689586E-2,-1.0715553E-3,3.293318E-2,4.6581756E-3,-1.6968919E-2],"categories":[],"categories_nodes":[],"categories_segments":[],"categories_sizes":[],"default_left":[0,0,0,0,0,0,0,0,0,0,0,0,0,0,0,0,0,0,0,0,0],"id":42,"left_children":[1,-1,3,5,7,9,-1,-1,-1,11,13,15,-1,-1,-1,17,19,-1,-1,-1,-1],"loss_changes":[1.2807119E-1,0E0,1.3199033E-1,2.7754876E-1,2.8088406E-1,1.8970248E-1,0E0,0E0,0E0,6.012406E-1,1.3694003E-1,3.4311038E-1,0E0,0E0,0E0,8.024454E-1,2.6318744E-1,0E0,0E0,0E0,0E0],"parents":[2147483647,0,0,2,2,3,3,4,4,5,5,9,9,10,10,11,11,15,15,16,16],"right_children":[2,-1,4,6,8,10,-1,-1,-1,12,14,16,-1,-1,-1,18,20,-1,-1,-1,-1],"split_conditions":[1.0833E-1,-1.2700553E-2,6.0974E-1,6.2297E-1,3.8417E-1,4.432E-1,-1.2372098E-2,-1.8486228E-2,1.4032684E-3,4.2546E-1,5.1284E-1,4.8622E-1,-2.20367E-2,1.6420398E-2,1.7700907E-3,3.4366E-1,2.9888E-1,-1.0715553E-3,3.293318E-2,4.6581756E-3,-1.6968919E-2],"split_indices":[1,0,0,1,1,1,0,0,0,1,0,0,0,0,0,1,1,0,0,0,0],"split_type":[0,0,0,0,0,0,0,0,0,0,0,0,0,0,0,0,0,0,0,0,0],"sum_hessian":[7.3E1,5E0,6.8E1,5.3E1,1.5E1,4.6E1,7E0,6E0,9E0,3.2E1,1.4E1,2.7E1,5E0,7E0,7E0,1.6E1,1.1E1,1.1E1,5E0,6E0,5E0],"tree_param":{"num_deleted":"0","num_feature":"2","num_nodes":"21","size_leaf_vector":"0"}},{"base_weights":[-2.7309641E-2,-1.1906768E-2,-1.5483652E-2,6.881832E-3,-8.999944E-2,3.4142654E-2,-1.1560179E-2,-1.7297829E-2,1.3085478E-3,6.7911125E-3,1.2497439E-2,-7.9263546E-2,1.16372555E-1,3.1957723E-2,-1.7028522E-2,-1.971842E-4,1.7609249E-1,-9.2514865E-3,1.2289503E-2,2.2536037E-2,3.32386E-3],"categories":[],"categories_nodes":[],"categories_segments":[],"categories_sizes":[],"default_left":[0,0,0,0,0,0,0,0,0,0,0,0,0,0,0,0,0,0,0,0,0],"id":43,"left_children":[1,-1,3,5,7,9,-1,-1,-1,11,-1,13,15,17,-1,-1,19,-1,-1,-1,-1],"loss_changes":[1.125744E-1,0E0,1.15613475E-1,2.4229401E-1,2.45802E-1,1.6918707E-1,0E0,0E0,0E0,3.8642383E-1,0E0,3.8529906E-1,1.2838489E-1,3.070147E-1,0E0,0E0,1.8337706E-1,0E0,0E0,0E0,0E0],"parents":[2147483647,0,0,2,2,3,3,4,4,5,5,9,9,11,11,12,12,13,13,16,16],"right_children":[2,-1,4,6,8,10,-1,-1,-1,12,-1,14,16,18,-1,-1,20,-1,-1,-1,-1],"split_conditions":[1.0833E-1,-1.1906768E-2,6.0974E-1,6.2297E-1,3.8417E-1,5.7008E-1,-1.1560179E-2,-1.7297829E-2,1.3085478E-3,3.9201E-1,1.2497439E-2,4.8558E-1,3.7168E-1,3.3776E-1,-1.7028522E-2,-1.971842E-4,4.8893E-1,-9.2514865E-3,1.2289503E-2,2.2536037E-2,3.32386E-3],"split_indices":[1,0,0,1,1,0,0,0,0,1,0,0,0,0,0,0,1,0,0,0,0],"split_type":[0,0,0,0,0,0,0,0,0,0,0,0,0,0,0,0,0,0,0,0,0],"sum_hessian":[7.3E1,5E0,6.8E1,5.3E1,1.5E1,4.6E1,7E0,6E0,9E0,3.9E1,7E0,2.2E1,1.7E1,1.3E1,9E0,6E0,1.1E1,6E0,7E0,5E0,6E0],"tree_param":{"num_deleted":"0","num_feature":"2","num_nodes":"21","size_leaf_vector":"0"}},{"base_weights":[-2.5467997E-2,-7.566609E-2,4.9791248E-3,4.6394207E-2,-1.4605483E-1,1.9636378E-2,-3.8992915E-2,-3.7297427E-3,1.0108947E-2,-1.934528E-2,-6.861897E-2,-1.6185844E-2,-2.5151626E-3,2.9896342E-3,-1.3780752E-2,1.4352991E-2,-4.9229074E-2,-1.1225577E-2,-3.8368525E-3,4.6489496E-2,-8.334818E-3,1.3557613E-2,-7.0200264E-3],"categories":[],"categories_nodes":[],"categories_segments":[],"categories_sizes":[],"default_left":[0,0,0,0,0,0,0,0,0,0,0,0,0,0,0,0,0,0,0,0,0,0,0],"id":44,"left_children":[1,3,5,7,9,-1,11,-1,-1,-1,13,-1,15,-1,-1,-1,17,-1,19,21,-1,-1,-1],"loss_changes":[1.13477446E-1,2.4734285E-1,5.41015E-1,1.0016523E-1,1.382471E-1,0E0,2.6390454E-1,0E0,0E0,0E0,1.5718971E-1,0E0,3.2642612E-1,0E0,0E0,0E0,1.3164932E-1,0E0,1.1856051E-1,2.990861E-1,0E0,0E0,0E0],"parents":[2147483647,0,0,1,1,2,2,3,3,4,4,6,6,10,10,12,12,16,16,18,18,19,19],"right_children":[2,4,6,8,10,-1,12,-1,-1,-1,14,-1,16,-1,-1,-1,18,-1,20,22,-1,-1,-1],"split_conditions":[4.732E-1,3.1741E-1,4.9209E-1,4.1893E-1,3.7168E-1,1.9636378E-2,5.3034E-1,-3.7297427E-3,1.0108947E-2,-1.934528E-2,4.2654E-1,-1.6185844E-2,5.4875E-1,2.9896342E-3,-1.3780752E-2,1.4352991E-2,2.8055E-1,-1.1225577E-2,5.1295E-1,6.0974E-1,-8.334818E-3,1.3557613E-2,-7.0200264E-3],"split_indices":[0,0,0,1,0,0,0,0,0,0,0,0,0,0,0,0,1,0,1,0,0,0,0],"split_type":[0,0,0,0,0,0,0,0,0,0,0,0,0,0,0,0,0,0,0,0,0,0,0],"sum_hessian":[7.3E1,2.7E1,4.6E1,1E1,1.7E1,6E0,4E1,5E0,5E0,6E0,1.1E1,6E0,3.4E1,6E0,5E0,6E0,2.8E1,8E0,2E1,1.4E1,6E0,7E0,7E0],"tree_param":{"num_deleted":"0","num_feature":"2","num_nodes":"23","size_leaf_vector":"0"}},{"base_weights":[-2.3814341E-2,-7.083961E-2,4.7074044E-3,1.2105914E-2,-1.6747722E-1,1.8374037E-2,-3.643078E-2,-1.4768558E-2,1.2501629E-1,-2.324909E-2,-7.809467E-5,-9.848294E-2,5.696538E-2,2.6125172E-2,-8.935433E-3,-2.0694122E-1,1.5157929E-3,1.3424897E-2,-8.798353E-3,-1.0103829E-2,-1.9253382E-2,7.925811E-3,-1.1623452E-2,7.77909E-3,-7.7990084E-3],"categories":[],"categories_nodes":[],"categories_segments":[],"categories_sizes":[],"default_left":[0,0,0,0,0,0,0,0,0,0,0,0,0,0,0,0,0,0,0,0,0,0,0,0,0],"id":45,"left_children":[1,3,5,7,9,-1,11,-1,13,-1,-1,15,17,-1,-1,19,21,-1,23,-1,-1,-1,-1,-1,-1],"loss_changes":[9.958543E-2,2.2646584E-1,4.735047E-1,4.0222588E-1,3.0802286E-1,0E0,2.4322288E-1,0E0,6.412711E-1,0E0,0E0,2.7145594E-1,1.3800605E-1,0E0,0E0,8.551598E-3,2.4458902E-1,0E0,1.3931234E-1,0E0,0E0,0E0,0E0,0E0,0E0],"parents":[2147483647,0,0,1,1,2,2,3,3,4,4,6,6,8,8,11,11,12,12,15,15,16,16,18,18],"right_children":[2,4,6,8,10,-1,12,-1,14,-1,-1,16,18,-1,-1,20,22,-1,24,-1,-1,-1,-1,-1,-1],"split_conditions":[4.732E-1,3.4516E-1,4.9209E-1,3.1107E-1,4.2582E-1,1.8374037E-2,4.3458E-1,-1.4768558E-2,4.2546E-1,-2.324909E-2,-7.809467E-5,5.7008E-1,5.4705E-1,2.6125172E-2,-8.935433E-3,2.9888E-1,7.282E-1,1.3424897E-2,5.1295E-1,-1.0103829E-2,-1.9253382E-2,7.925811E-3,-1.1623452E-2,7.77909E-3,-7.7990084E-3],"split_indices":[0,0,0,1,1,0,1,0,1,0,0,0,0,0,0,1,0,0,1,0,0,0,0,0,0],"split_type":[0,0,0,0,0,0,0,0,0,0,0,0,0,0,0,0,0,0,0,0,0,0,0,0,0],"sum_hessian":[7.3E1,2.7E1,4.6E1,1.5E1,1.2E1,6E0,4E1,5E0,1E1,6E0,6E0,2.4E1,1.6E1,5E0,5E0,1.1E1,1.3E1,5E0,1.1E1,6E0,5E0,8E0,5E0,5E0,6E0],"tree_param":{"num_deleted":"0","num_feature":"2","num_nodes":"25","size_leaf_vector":"0"}},{"base_weights":[-2.2328017E-2,-6.627329E-2,4.327206E-3,1.2676172E-2,-1.583439E-1,1.7192848E-2,-3.4177735E-2,-1.0696299E-2,1.7453486E-2,-2.198197E-2,-7.307495E-5,-1.480392E-2,-5.596578E-4,1.3421581E-2,-4.387134E-2,-1.02163665E-2,-2.2049951E-3,4.2320564E-2,-7.2976435E-3,1.2661498E-2,-6.7101684E-3],"categories":[],"categories_nodes":[],"categories_segments":[],"categories_sizes":[],"default_left":[0,0,0,0,0,0,0,0,0,0,0,0,0,0,0,0,0,0,0,0,0],"id":46,"left_children":[1,3,5,7,9,-1,11,-1,-1,-1,-1,-1,13,-1,15,-1,17,19,-1,-1,-1],"loss_changes":[8.696823E-2,2.0553711E-1,4.148631E-1,5.7991385E-1,2.7538446E-1,0E0,2.2484566E-1,0E0,0E0,0E0,0E0,0E0,2.7997792E-1,0E0,1.1128459E-1,0E0,9.303697E-2,2.651735E-1,0E0,0E0,0E0],"parents":[2147483647,0,0,1,1,2,2,3,3,4,4,6,6,12,12,14,14,16,16,17,17],"right_children":[2,4,6,8,10,-1,12,-1,-1,-1,-1,-1,14,-1,16,-1,18,20,-1,-1,-1],"split_conditions":[4.732E-1,4.2546E-1,4.9209E-1,3.1107E-1,3.7168E-1,1.7192848E-2,5.3034E-1,-1.0696299E-2,1.7453486E-2,-2.198197E-2,-7.307495E-5,-1.480392E-2,5.4875E-1,1.3421581E-2,2.8055E-1,-1.02163665E-2,5.1295E-1,6.0974E-1,-7.2976435E-3,1.2661498E-2,-6.7101684E-3],"split_indices":[0,1,0,1,0,0,0,0,0,0,0,0,0,0,1,0,1,0,0,0,0],"split_type":[0,0,0,0,0,0,0,0,0,0,0,0,0,0,0,0,0,0,0,0,0],"sum_hessian":[7.3E1,2.7E1,4.6E1,1.5E1,1.2E1,6E0,4E1,9E0,6E0,6E0,6E0,6E0,3.4E1,6E0,2.8E1,8E0,2E1,1.4E1,6E0,7E0,7E0],"tree_param":{"num_deleted":"0","num_feature":"2","num_nodes":"21","size_leaf_vector":"0"}},{"base_weights":[-2.080274E-2,-6.1849143E-2,4.0930486E-3,1.6107043E-2,-1.530376E-1,1.6087595E-2,-3.1930134E-2,-1.3177003E-2,1.1926117E-1,-2.1247573E-2,-6.837725E-5,-8.9075446E-2,5.3985327E-2,2.3401506E-2,-7.003095E-3,-1.9269533E-1,6.104133E-3,1.2452631E-2,-6.5383227E-3,-9.205754E-3,-1.8164255E-2,7.609562E-3,-1.034612E-2,6.985846E-3,-6.8285093E-3],"categories":[],"categories_nodes":[],"categories_segments":[],"categories_sizes":[],"default_left":[0,0,0,0,0,0,0,0,0,0,0,0,0,0,0,0,0,0,0,0,0,0,0,0,0],"id":47,"left_children":[1,3,5,7,9,-1,11,-1,13,-1,-1,15,17,-1,-1,19,21,-1,23,-1,-1,-1,-1,-1,-1],"loss_changes":[7.5872466E-2,2.015087E-1,3.63089E-1,3.3751348E-1,2.5735536E-1,0E0,2.0610505E-1,0E0,4.7999656E-1,0E0,0E0,2.4773869E-1,1.1637382E-1,0E0,0E0,1.181978E-2,2.0630537E-1,0E0,1.0956915E-1,0E0,0E0,0E0,0E0,0E0,0E0],"parents":[2147483647,0,0,1,1,2,2,3,3,4,4,6,6,8,8,11,11,12,12,15,15,16,16,18,18],"right_children":[2,4,6,8,10,-1,12,-1,14,-1,-1,16,18,-1,-1,20,22,-1,24,-1,-1,-1,-1,-1,-1],"split_conditions":[4.732E-1,3.4516E-1,4.9209E-1,3.1107E-1,4.2582E-1,1.6087595E-2,4.3458E-1,-1.3177003E-2,4.2546E-1,-2.1247573E-2,-6.837725E-5,5.7008E-1,5.4705E-1,2.3401506E-2,-7.003095E-3,2.9888E-1,7.282E-1,1.2452631E-2,5.1295E-1,-9.205754E-3,-1.8164255E-2,7.609562E-3,-1.034612E-2,6.985846E-3,-6.8285093E-3],"split_indices":[0,0,0,1,1,0,1,0,1,0,0,0,0,0,0,1,0,0,1,0,0,0,0,0,0],"split_type":[0,0,0,0,0,0,0,0,0,0,0,0,0,0,0,0,0,0,0,0,0,0,0,0,0],"sum_hessian":[7.3E1,2.7E1,4.6E1,1.5E1,1.2E1,6E0,4E1,5E0,1E1,6E0,6E0,2.4E1,1.6E1,5E0,5E0,1.1E1,1.3E1,5E0,1.1E1,6E0,5E0,8E0,5E0,5E0,6E0],"tree_param":{"num_deleted":"0","num_feature":"2","num_nodes":"25","size_leaf_vector":"0"}},{"base_weights":[-1.9506093E-2,-5.023302E-2,1.092555E-2,-5.7320003E-3,-2.0939972E-2,1.4676365E-2,-2.9831974E-2,8.814085E-2,-1.3272144E-1,-8.217262E-2,2.1184629E-2,-3.197263E-2,2.6528664E-2,-1.9966025E-2,5.058262E-5,1.3535565E-2,-1.8295664E-2,8.695411E-2,-6.3895346E-3,-7.625782E-3,5.843462E-3,-2.062291E-3,3.9234315E-3,9.167011E-3,2.7891793E-3],"categories":[],"categories_nodes":[],"categories_segments":[],"categories_sizes":[],"default_left":[0,0,0,0,0,0,0,0,0,0,0,0,0,0,0,0,0,0,0,0,0,0,0,0,0],"id":48,"left_children":[1,3,5,7,-1,-1,9,11,13,15,17,19,-1,-1,-1,21,-1,23,-1,-1,-1,-1,-1,-1,-1],"loss_changes":[6.974407E-2,3.754018E-1,2.9199028E-1,3.9316574E-1,0E0,0E0,8.7188534E-2,6.17392E-1,2.4948193E-1,2.510246E-1,1.2634766E-1,1.15155034E-1,0E0,0E0,0E0,1.8940786E-2,0E0,1.4763325E-2,0E0,0E0,0E0,0E0,0E0,0E0,0E0],"parents":[2147483647,0,0,1,1,2,2,3,3,6,6,7,7,8,8,9,9,10,10,11,11,15,15,17,17],"right_children":[2,4,6,8,-1,-1,10,12,14,16,18,20,-1,-1,-1,22,-1,24,-1,-1,-1,-1,-1,-1,-1],"split_conditions":[5.0974E-1,4.8622E-1,5.4431E-1,4.2546E-1,-2.0939972E-2,1.4676365E-2,3.8642E-1,3.4366E-1,3.7168E-1,2.9855E-1,5.1295E-1,4.1611E-1,2.6528664E-2,-1.9966025E-2,5.058262E-5,2.0897E-1,-1.8295664E-2,6.0974E-1,-6.3895346E-3,-7.625782E-3,5.843462E-3,-2.062291E-3,3.9234315E-3,9.167011E-3,2.7891793E-3],"split_indices":[0,0,0,1,0,0,1,1,0,1,1,0,0,0,0,1,0,0,0,0,0,0,0,0,0],"split_type":[0,0,0,0,0,0,0,0,0,0,0,0,0,0,0,0,0,0,0,0,0,0,0,0,0],"sum_hessian":[7.3E1,3.6E1,3.7E1,3.1E1,5E0,6E0,3.1E1,1.8E1,1.3E1,1.5E1,1.6E1,1.3E1,5E0,6E0,7E0,1E1,5E0,1E1,6E0,8E0,5E0,5E0,5E0,5E0,5E0],"tree_param":{"num_deleted":"0","num_feature":"2","num_nodes":"25","size_leaf_vector":"0"}},{"base_weights":[-1.8209357E-2,-5.5466026E-2,5.6743976E-3,1.756724E-2,-1.3497075E-1,1.8174727E-2,-2.9096484E-2,-1.1876828E-2,1.11929275E-1,-1.7656082E-2,-6.723412E-5,-1.3331248E-2,1.4655441E-3,2.0707803E-2,-5.317526E-3,1.2198551E-2,-3.749094E-2,-7.757163E-2,3.481465E-3,-2.8428782E-3,-1.2644318E-2,1.8972999E-3,-2.6399484E-3],"categories":[],"categories_nodes":[],"categories_segments":[],"categories_sizes":[],"default_left":[0,0,0,0,0,0,0,0,0,0,0,0,0,0,0,0,0,0,0,0,0,0,0],"id":49,"left_children":[1,3,5,7,9,-1,11,-1,13,-1,-1,-1,15,-1,-1,-1,17,19,-1,21,-1,-1,-1],"loss_changes":[6.616209E-2,1.707593E-1,3.8557172E-1,2.83335E-1,1.8832576E-1,0E0,1.8652976E-1,0E0,3.4975192E-1,0E0,0E0,0E0,2.2586547E-1,0E0,0E0,0E0,1.0113333E-1,1.3555585E-1,0E0,1.181665E-2,0E0,0E0,0E0],"parents":[2147483647,0,0,1,1,2,2,3,3,4,4,6,6,8,8,12,12,16,16,17,17,19,19],"right_children":[2,4,6,8,10,-1,12,-1,14,-1,-1,-1,16,-1,-1,-1,18,20,-1,22,-1,-1,-1],"split_conditions":[4.7568E-1,3.4516E-1,4.9209E-1,3.1107E-1,4.2582E-1,1.8174727E-2,5.3034E-1,-1.1876828E-2,4.2546E-1,-1.7656082E-2,-6.723412E-5,-1.3331248E-2,5.4875E-1,2.0707803E-2,-5.317526E-3,1.2198551E-2,6.8303E-1,6.0974E-1,3.481465E-3,3.8825E-1,-1.2644318E-2,1.8972999E-3,-2.6399484E-3],"split_indices":[0,0,0,1,1,0,0,0,1,0,0,0,0,0,0,0,0,0,0,1,0,0,0],"split_type":[0,0,0,0,0,0,0,0,0,0,0,0,0,0,0,0,0,0,0,0,0,0,0],"sum_hessian":[7.3E1,2.8E1,4.5E1,1.5E1,1.3E1,5E0,4E1,5E0,1E1,7E0,6E0,6E0,3.4E1,5E0,5E0,6E0,2.8E1,1.9E1,9E0,1.1E1,8E0,6E0,5E0],"tree_param":{"num_deleted":"0","num_feature":"2","num_nodes":"23","size_leaf_vector":"0"}},{"base_weights":[-1.6939245E-2,-4.5399606E-2,1.1217928E-2,-3.5291158E-3,-1.9585673E-2,1.3769294E-2,-2.6839152E-2,8.4171265E-2,-1.22298986E-1,-8.969821E-3,3.9171213E-3,-2.0670699E-2,2.360805E-2,-1.8208455E-2,-1.19343844E-4,1.0136529E-2,-5.462787E-2,-6.5008258E-3,6.1338665E-3,-1.1801365E-2,3.2464655E-3],"categories":[],"categories_nodes":[],"categories_segments":[],"categories_sizes":[],"default_left":[0,0,0,0,0,0,0,0,0,0,0,0,0,0,0,0,0,0,0,0,0],"id":50,"left_children":[1,3,5,7,-1,-1,9,11,13,-1,15,17,-1,-1,-1,-1,19,-1,-1,-1,-1],"loss_changes":[5.981017E-2,3.3330876E-1,2.542074E-1,3.4361127E-1,0E0,0E0,9.176142E-2,4.6586657E-1,2.0321451E-1,0E0,1.9946428E-1,1.0176788E-1,0E0,0E0,0E0,0E0,1.8785676E-1,0E0,0E0,0E0,0E0],"parents":[2147483647,0,0,1,1,2,2,3,3,6,6,7,7,8,8,10,10,11,11,16,16],"right_children":[2,4,6,8,-1,-1,10,12,14,-1,16,18,-1,-1,-1,-1,20,-1,-1,-1,-1],"split_conditions":[5.0974E-1,4.8622E-1,5.4431E-1,4.2546E-1,-1.9585673E-2,1.3769294E-2,5.7008E-1,3.4366E-1,3.7168E-1,-8.969821E-3,6.0974E-1,4.1611E-1,2.360805E-2,-1.8208455E-2,-1.19343844E-4,1.0136529E-2,6.8303E-1,-6.5008258E-3,6.1338665E-3,-1.1801365E-2,3.2464655E-3],"split_indices":[0,0,0,1,0,0,0,1,0,0,0,0,0,0,0,0,0,0,0,0,0],"split_type":[0,0,0,0,0,0,0,0,0,0,0,0,0,0,0,0,0,0,0,0,0],"sum_hessian":[7.3E1,3.6E1,3.7E1,3.1E1,5E0,6E0,3.1E1,1.8E1,1.3E1,7E0,2.4E1,1.3E1,5E0,6E0,7E0,7E0,1.7E1,8E0,5E0,8E0,9E0],"tree_param":{"num_deleted":"0","num_feature":"2","num_nodes":"21","size_leaf_vector":"0"}},{"base_weights":[-1.578084E-2,-6.1567533E-3,-8.026318E-3,1.18072415E-2,-2.7509807E-2,-1.0909128E-2,-1.1998418E-2,1.12746535E-2,-3.494314E-2,-1.4669177E-2,-3.5119473E-3,9.033736E-3,-3.6222063E-2,-1.5620952E-2,1.8547038E-3],"categories":[],"categories_nodes":[],"categories_segments":[],"categories_sizes":[],"default_left":[0,0,0,0,0,0,0,0,0,0,0,0,0,0,0],"id":51,"left_children":[1,3,-1,-1,5,-1,7,-1,9,-1,11,-1,13,-1,-1],"loss_changes":[6.4318314E-2,2.4185988E-1,0E0,0E0,1.0985391E-1,0E0,2.1010327E-1,0E0,2.4672842E-1,0E0,1.7466468E-1,0E0,3.6171338E-1,0E0,0E0],"parents":[2147483647,0,0,1,1,4,4,6,6,8,8,10,10,12,12],"right_children":[2,4,-1,-1,6,-1,8,-1,10,-1,12,-1,14,-1,-1],"split_conditions":[7.282E-1,1.7957E-1,-8.026318E-3,1.18072415E-2,2.3262E-1,-1.0909128E-2,2.9855E-1,1.12746535E-2,3.6466E-1,-1.4669177E-2,3.4516E-1,9.033736E-3,4.2582E-1,-1.5620952E-2,1.8547038E-3],"split_indices":[0,1,0,0,1,0,1,0,1,0,0,0,1,0,0],"split_type":[0,0,0,0,0,0,0,0,0,0,0,0,0,0,0],"sum_hessian":[7.3E1,6.7E1,6E0,7E0,6E1,6E0,5.4E1,6E0,4.8E1,7E0,4.1E1,8E0,3.3E1,8E0,2.5E1],"tree_param":{"num_deleted":"0","num_feature":"2","num_nodes":"15","size_leaf_vector":"0"}},{"base_weights":[-1.4803427E-2,-5.2651133E-2,9.378896E-3,1.5463367E-2,-1.2673548E-1,1.7136287E-2,-2.2913992E-2,-1.0837954E-2,1.0131364E-1,-1.648137E-2,-1.7447202E-4,-1.21891545E-2,5.6623034E-3,1.8342387E-2,-4.4117603E-3,1.1398505E-2,-2.9851029E-2,-9.0531735E-3,1.05095655E-2,6.075529E-3,-3.910481E-2,-7.628011E-6,-5.439114E-3],"categories":[],"categories_nodes":[],"categories_segments":[],"categories_sizes":[],"default_left":[0,0,0,0,0,0,0,0,0,0,0,0,0,0,0,0,0,0,0,0,0,0,0],"id":52,"left_children":[1,3,5,7,9,-1,11,-1,13,-1,-1,-1,15,-1,-1,-1,17,-1,19,-1,21,-1,-1],"loss_changes":[6.822198E-2,1.4830008E-1,3.307099E-1,2.3437512E-1,1.6149761E-1,0E0,1.6448899E-1,0E0,2.6672488E-1,0E0,0E0,0E0,1.8640485E-1,0E0,0E0,0E0,1.07613936E-1,0E0,7.661924E-2,0E0,1.6936243E-2,0E0,0E0],"parents":[2147483647,0,0,1,1,2,2,3,3,4,4,6,6,8,8,12,12,16,16,18,18,20,20],"right_children":[2,4,6,8,10,-1,12,-1,14,-1,-1,-1,16,-1,-1,-1,18,-1,20,-1,22,-1,-1],"split_conditions":[4.7568E-1,3.4516E-1,4.9209E-1,3.1107E-1,4.2582E-1,1.7136287E-2,5.3034E-1,-1.0837954E-2,4.2546E-1,-1.648137E-2,-1.7447202E-4,-1.21891545E-2,5.4875E-1,1.8342387E-2,-4.4117603E-3,1.1398505E-2,2.8055E-1,-9.0531735E-3,4.0024E-1,6.075529E-3,5.1295E-1,-7.628011E-6,-5.439114E-3],"split_indices":[0,0,0,1,1,0,0,0,1,0,0,0,0,0,0,0,1,0,1,0,1,0,0],"split_type":[0,0,0,0,0,0,0,0,0,0,0,0,0,0,0,0,0,0,0,0,0,0,0],"sum_hessian":[7.3E1,2.8E1,4.5E1,1.5E1,1.3E1,5E0,4E1,5E0,1E1,7E0,6E0,6E0,3.4E1,5E0,5E0,6E0,2.8E1,8E0,2E1,8E0,1.2E1,6E0,6E0],"tree_param":{"num_deleted":"0","num_feature":"2","num_nodes":"23","size_leaf_vector":"0"}},{"base_weights":[-1.376941E-2,-4.3936837E-2,1.4430509E-2,2.135566E-3,-1.76335E-2,1.1451555E-2,-2.0584667E-2,-4.7031153E-2,1.2780158E-2,-8.147969E-3,8.416291E-3,3.1089393E-2,-1.1552464E-1,9.413411E-3,-4.4093877E-2,-3.0875911E-3,8.265599E-3,2.6673363E-3,-2.2329204E-2,-1.0776645E-2,3.7463065E-3],"categories":[],"categories_nodes":[],"categories_segments":[],"categories_sizes":[],"default_left":[0,0,0,0,0,0,0,0,0,0,0,0,0,0,0,0,0,0,0,0,0],"id":53,"left_children":[1,3,5,7,-1,-1,9,11,-1,-1,13,15,17,-1,19,-1,-1,-1,-1,-1,-1],"loss_changes":[6.358724E-2,3.1758863E-1,1.9194551E-1,2.562076E-1,0E0,0E0,8.2632E-2,1.3200957E-1,0E0,0E0,1.5925238E-1,7.313975E-2,3.6845428E-1,0E0,1.7577162E-1,0E0,0E0,0E0,0E0,0E0,0E0],"parents":[2147483647,0,0,1,1,2,2,3,3,6,6,7,7,10,10,11,11,12,12,14,14],"right_children":[2,4,6,8,-1,-1,10,12,-1,-1,14,16,18,-1,20,-1,-1,-1,-1,-1,-1],"split_conditions":[5.0468E-1,6.2297E-1,5.4431E-1,4.3944E-1,-1.76335E-2,1.1451555E-2,5.7008E-1,2.9723E-1,1.2780158E-2,-8.147969E-3,6.0974E-1,4.1611E-1,3.4516E-1,9.413411E-3,3.8417E-1,-3.0875911E-3,8.265599E-3,2.6673363E-3,-2.2329204E-2,-1.0776645E-2,3.7463065E-3],"split_indices":[0,1,0,1,0,0,0,1,0,0,0,0,0,0,1,0,0,0,0,0,0],"split_type":[0,0,0,0,0,0,0,0,0,0,0,0,0,0,0,0,0,0,0,0,0],"sum_hessian":[7.3E1,3.5E1,3.8E1,2.9E1,6E0,7E0,3.1E1,2.3E1,6E0,7E0,2.4E1,1.1E1,1.2E1,7E0,1.7E1,6E0,5E0,7E0,5E0,8E0,9E0],"tree_param":{"num_deleted":"0","num_feature":"2","num_nodes":"21","size_leaf_vector":"0"}},{"base_weights":[-1.2921171E-2,-4.7192045E-2,1.0213214E-2,-2.0919964E-3,-1.7043268E-2,6.336947E-2,-3.8938902E-2,-5.839205E-2,7.836375E-3,1.3648725E-1,-8.9359535E-3,-9.837102E-2,4.0577375E-3,5.083445E-2,-1.66269E-2,1.4776453E-2,3.990543E-3,-9.59268E-3,7.0733894E-3,-1.4743473E-2,-8.292323E-4,-1.0039544E-2,1.7029282E-2],"categories":[],"categories_nodes":[],"categories_segments":[],"categories_sizes":[],"default_left":[0,0,0,0,0,0,0,0,0,0,0,0,0,0,0,0,0,0,0,0,0,0,0],"id":54,"left_children":[1,3,5,7,-1,9,11,13,-1,15,17,19,-1,21,-1,-1,-1,-1,-1,-1,-1,-1,-1],"loss_changes":[5.9151817E-2,2.4313459E-1,1.2004094E-1,1.5610836E-1,0E0,1.1752949E-1,1.3803467E-1,3.1449315E-1,0E0,4.4969425E-2,1.5945902E-1,1.2645222E-1,0E0,3.8841584E-1,0E0,0E0,0E0,0E0,0E0,0E0,0E0,0E0,0E0],"parents":[2147483647,0,0,1,1,2,2,3,3,5,5,6,6,7,7,9,9,10,10,11,11,13,13],"right_children":[2,4,6,8,-1,10,12,14,-1,16,18,20,-1,22,-1,-1,-1,-1,-1,-1,-1,-1,-1],"split_conditions":[4.7951E-1,4.5032E-1,5.7655E-1,3.7168E-1,-1.7043268E-2,3.6539E-1,6.8303E-1,4.2546E-1,7.836375E-3,5.4553E-1,4.8209E-1,4.432E-1,4.0577375E-3,3.1107E-1,-1.66269E-2,1.4776453E-2,3.990543E-3,-9.59268E-3,7.0733894E-3,-1.4743473E-2,-8.292323E-4,-1.0039544E-2,1.7029282E-2],"split_indices":[0,0,0,0,0,1,0,1,0,0,1,1,0,1,0,0,0,0,0,0,0,0,0],"split_type":[0,0,0,0,0,0,0,0,0,0,0,0,0,0,0,0,0,0,0,0,0,0,0],"sum_hessian":[7.3E1,2.9E1,4.4E1,2.4E1,5E0,2.1E1,2.3E1,1.6E1,8E0,1E1,1.1E1,1.4E1,9E0,1E1,6E0,5E0,5E0,5E0,6E0,6E0,8E0,5E0,5E0],"tree_param":{"num_deleted":"0","num_feature":"2","num_nodes":"23","size_leaf_vector":"0"}},{"base_weights":[-1.2142785E-2,-4.675949E-2,8.73829E-3,1.7720152E-2,-1.2252216E-1,1.4162077E-2,-2.2221807E-2,-9.41207E-3,9.422618E-2,-1.7138012E-2,7.242324E-5,-1.2008321E-2,5.990926E-3,1.596495E-2,-3.0088497E-3,1.0151366E-2,-2.5440633E-2,-6.2114514E-2,3.7838393E-3,-1.8629929E-3,-1.016612E-2,2.718233E-3,-3.450721E-3],"categories":[],"categories_nodes":[],"categories_segments":[],"categories_sizes":[],"default_left":[0,0,0,0,0,0,0,0,0,0,0,0,0,0,0,0,0,0,0,0,0,0,0],"id":55,"left_children":[1,3,5,7,9,-1,11,-1,13,-1,-1,-1,15,-1,-1,-1,17,19,-1,21,-1,-1,-1],"loss_changes":[5.389831E-2,1.389553E-1,2.6624855E-1,1.871331E-1,1.703622E-1,0E0,1.6045861E-1,0E0,1.8386403E-1,0E0,0E0,0E0,1.4575362E-1,0E0,0E0,0E0,8.384794E-2,8.823738E-2,0E0,2.1854596E-2,0E0,0E0,0E0],"parents":[2147483647,0,0,1,1,2,2,3,3,4,4,6,6,8,8,12,12,16,16,17,17,19,19],"right_children":[2,4,6,8,10,-1,12,-1,14,-1,-1,-1,16,-1,-1,-1,18,20,-1,22,-1,-1,-1],"split_conditions":[4.732E-1,3.4516E-1,4.9209E-1,3.1107E-1,4.2582E-1,1.4162077E-2,5.3034E-1,-9.41207E-3,4.2546E-1,-1.7138012E-2,7.242324E-5,-1.2008321E-2,5.4875E-1,1.596495E-2,-3.0088497E-3,1.0151366E-2,6.8303E-1,6.0974E-1,3.7838393E-3,3.8825E-1,-1.016612E-2,2.718233E-3,-3.450721E-3],"split_indices":[0,0,0,1,1,0,0,0,1,0,0,0,0,0,0,0,0,0,0,1,0,0,0],"split_type":[0,0,0,0,0,0,0,0,0,0,0,0,0,0,0,0,0,0,0,0,0,0,0],"sum_hessian":[7.3E1,2.7E1,4.6E1,1.5E1,1.2E1,6E0,4E1,5E0,1E1,6E0,6E0,6E0,3.4E1,5E0,5E0,6E0,2.8E1,1.9E1,9E0,1.1E1,8E0,6E0,5E0],"tree_param":{"num_deleted":"0","num_feature":"2","num_nodes":"23","size_leaf_vector":"0"}},{"base_weights":[-1.1344659E-2,-2.1698817E-3,-7.413781E-3,1.2172411E-2,-2.070393E-2,-5.2632842E-2,1.0874203E-2,1.5767748E-2,-1.4838816E-2,-1.0935763E-2,5.264022E-2,-5.451487E-2,1.3062091E-2,1.5613925E-1,-3.3668354E-2,4.107468E-3,-1.5213218E-2,1.5278348E-2,6.979321E-3,1.7047227E-4,-6.5969373E-3],"categories":[],"categories_nodes":[],"categories_segments":[],"categories_sizes":[],"default_left":[0,0,0,0,0,0,0,0,0,0,0,0,0,0,0,0,0,0,0,0,0],"id":56,"left_children":[1,3,-1,-1,5,7,9,11,-1,-1,13,15,-1,17,19,-1,-1,-1,-1,-1,-1],"loss_changes":[5.9196096E-2,2.1064265E-1,0E0,0E0,6.3084185E-2,3.110426E-1,2.170861E-1,2.544051E-1,0E0,0E0,2.3751113E-1,2.704602E-1,0E0,1.70542E-2,2.9469175E-2,0E0,0E0,0E0,0E0,0E0,0E0],"parents":[2147483647,0,0,1,1,4,4,5,5,6,6,7,7,10,10,11,11,13,13,14,14],"right_children":[2,4,-1,-1,6,8,10,12,-1,-1,14,16,-1,18,20,-1,-1,-1,-1,-1,-1],"split_conditions":[7.282E-1,1.5613E-1,-7.413781E-3,1.2172411E-2,4.9842E-1,4.5032E-1,2.8055E-1,3.7168E-1,-1.4838816E-2,-1.0935763E-2,5.7655E-1,4.2546E-1,1.3062091E-2,3.8642E-1,5.1295E-1,4.107468E-3,-1.5213218E-2,1.5278348E-2,6.979321E-3,1.7047227E-4,-6.5969373E-3],"split_indices":[0,1,0,0,0,0,1,0,0,0,0,1,0,1,1,0,0,0,0,0,0],"split_type":[0,0,0,0,0,0,0,0,0,0,0,0,0,0,0,0,0,0,0,0,0],"sum_hessian":[7.3E1,6.7E1,6E0,6E0,6.1E1,3E1,3.1E1,2.1E1,9E0,6E0,2.5E1,1.5E1,6E0,1.1E1,1.4E1,9E0,6E0,5E0,6E0,9E0,5E0],"tree_param":{"num_deleted":"0","num_feature":"2","num_nodes":"21","size_leaf_vector":"0"}},{"base_weights":[-1.0537441E-2,-1.9455944E-3,-6.937181E-3,1.0648739E-2,-2.0789605E-2,-8.816137E-3,-8.096846E-3,1.1589165E-2,-3.1162895E-2,-1.4070344E-2,-6.225072E-4,1.02118775E-2,-2.7201496E-2,-8.789788E-3,2.6546717E-3],"categories":[],"categories_nodes":[],"categories_segments":[],"categories_sizes":[],"default_left":[0,0,0,0,0,0,0,0,0,0,0,0,0,0,0],"id":57,"left_children":[1,3,-1,-1,5,-1,7,-1,9,-1,11,-1,13,-1,-1],"loss_changes":[5.1928855E-2,1.8738107E-1,0E0,0E0,7.396459E-2,0E0,2.1111919E-1,0E0,2.3399489E-1,0E0,1.563946E-1,0E0,2.069532E-1,0E0,0E0],"parents":[2147483647,0,0,1,1,4,4,6,6,8,8,10,10,12,12],"right_children":[2,4,-1,-1,6,-1,8,-1,10,-1,12,-1,14,-1,-1],"split_conditions":[7.282E-1,1.7957E-1,-6.937181E-3,1.0648739E-2,2.3262E-1,-8.816137E-3,2.9855E-1,1.1589165E-2,3.6466E-1,-1.4070344E-2,3.1741E-1,1.02118775E-2,4.9842E-1,-8.789788E-3,2.6546717E-3],"split_indices":[0,1,0,0,1,0,1,0,1,0,0,0,0,0,0],"split_type":[0,0,0,0,0,0,0,0,0,0,0,0,0,0,0],"sum_hessian":[7.3E1,6.7E1,6E0,7E0,6E1,6E0,5.4E1,6E0,4.8E1,7E0,4.1E1,6E0,3.5E1,1.4E1,2.1E1],"tree_param":{"num_deleted":"0","num_feature":"2","num_nodes":"15","size_leaf_vector":"0"}}]},"name":"gbtree"},"learner_model_param":{"base_score":"5E-1","boost_from_average":"1","num_class":"0","num_feature":"2","num_target":"1"},"objective":{"name":"reg:squarederror","reg_loss_param":{"scale_pos_weight":"1"}}},"version":[1,7,3]}