tree
version=v4
num_class=1
num_tree_per_iteration=1
label_index=0
max_feature_idx=3
objective=regression
feature_names=Column_0 Column_1 Column_2 Column_3
feature_infos=[0.066979999999999998:0.81057999999999997] [0.077950000000000005:0.73553999999999997] [-0.36046000000000006:0.47954000000000002] [-15.237458193979933:12.14703940127669]
tree_sizes=740 733 632 730 733 735 606 602 621 620 621 722 603 605 737 739 623 624 623

Tree=0
num_leaves=6
num_cat=0
split_feature=3 2 2 1 1
split_gain=27.5301 10.6439 3.21426 0.786659 1.39573
threshold=1.1674516549914968 -0.046124999999999965 -0.046124999999999965 0.50763000000000014 0.36502500000000004
decision_type=2 2 2 2 2
left_child=2 -2 -1 4 -3
right_child=1 3 -4 -5 -6
leaf_value=-0.059202435995555566 -0.016376891804652082 0.029659276966833396 -0.024484323559121956 0.02690495259025031 0.054505689116592843
leaf_weight=12.000000000000002 11.999999999999998 10.000000000000002 14.999999999999998 9.9999999999999982 12.999999999999998
leaf_count=12 12 10 15 10 13
internal_value=-7.0884e-09 0.0239487 -0.0399146 0.0386126 0.0437029
internal_weight=0 45 27 33 23
internal_count=72 45 27 33 23
is_linear=0
shrinkage=1


Tree=1
num_leaves=6
num_cat=0
split_feature=3 2 2 0 2
split_gain=24.8459 9.60615 2.90087 0.71133 0.451424
threshold=1.1674516549914968 -0.046124999999999965 -0.046124999999999965 0.58099500000000004 0.16311500000000004
decision_type=2 2 2 2 2
left_child=2 -2 -1 4 -3
right_child=1 3 -4 -5 -6
leaf_value=-0.056242307275533671 -0.015558040204147498 0.034815800127883739 -0.023260100372135641 0.025548980198800565 0.048838751796971669
leaf_weight=12.000000000000002 11.999999999999998 12.000000000000002 14.999999999999998 9.9999999999999982 10.999999999999998
leaf_count=12 12 12 15 10 11
internal_value=0 0.0227513 -0.0379189 0.036682 0.0415224
internal_weight=0 45 27 33 23
internal_count=72 45 27 33 23
is_linear=0
shrinkage=0.05


Tree=2
num_leaves=5
num_cat=0
split_feature=3 1 1 1
split_gain=22.4234 5.44092 4.8884 2.62521
threshold=1.1674516549914968 0.32308000000000009 0.50763000000000014 0.32308000000000009
decision_type=2 2 2 2
left_child=3 -2 -3 -1
right_child=1 2 -4 -5
leaf_value=-0.052202321359744425 -0.0042574685865214897 0.052522172965109339 0.012791236291329068 -0.02099918244140489
leaf_weight=13.000000000000002 13.999999999999998 16.000000000000004 14.999999999999998 13.999999999999998
leaf_count=13 14 16 15 14
internal_value=0 0.0216138 0.0332975 -0.0360229
internal_weight=0 45 31 27
internal_count=72 45 31 27
is_linear=0
shrinkage=0.05


Tree=3
num_leaves=6
num_cat=0
split_feature=3 0 1 0 3
split_gain=20.2371 5.18047 2.36925 0.614377 0.168468
threshold=1.1674516549914968 0.42132500000000001 0.32308000000000009 0.58099500000000004 1.7399912252572722
decision_type=2 2 2 2 2
left_child=2 -2 -1 4 -3
right_child=1 3 -4 -5 -6
leaf_value=-0.049592204506580639 -0.0047113422969622277 0.041742922291159605 -0.019949223296550505 0.022442472285845064 0.032565017119050028
leaf_weight=13.000000000000002 13.999999999999998 10.000000000000005 13.999999999999998 10.999999999999998 9.9999999999999982
leaf_count=13 14 10 14 11 10
internal_value=0 0.0205331 -0.0342218 0.0319338 0.037154
internal_weight=0 45 27 31 20
internal_count=72 45 27 31 20
is_linear=0
shrinkage=0.05


Tree=4
num_leaves=6
num_cat=0
split_feature=2 0 0 0 1
split_gain=15.1611 7.03385 1.91321 0.977647 0.0486162
threshold=-0.046124999999999965 0.61077500000000018 0.42132500000000001 0.42132500000000001 0.45295000000000002
decision_type=2 2 2 2 2
left_child=3 2 -2 -1 -4
right_child=1 -3 4 -5 -6
leaf_value=-0.04173050691875127 0.011355275762352077 -0.013603962638548442 0.03430734662847084 -0.021477071128108288 0.038909251367052394
leaf_weight=13.000000000000002 10.999999999999998 13.999999999999998 11.000000000000002 10.999999999999998 11.999999999999998
leaf_count=13 11 14 11 11 12
internal_value=0 0.0162238 0.0285059 -0.0324477 0.0367083
internal_weight=0 48 34 24 23
internal_count=72 48 34 24 23
is_linear=0
shrinkage=0.05


Tree=5
num_leaves=6
num_cat=0
split_feature=2 0 0 0 1
split_gain=13.6829 6.34805 1.72667 0.882327 0.0438762
threshold=-0.046124999999999965 0.61077500000000018 0.42132500000000001 0.42132500000000001 0.45295000000000002
decision_type=2 2 2 2 2
left_child=3 2 -2 -1 -4
right_child=1 -3 4 -5 -6
leaf_value=-0.039643981284014154 0.010787512023340572 -0.012923765076058254 0.032591979002410704 -0.020403217676688325 0.036963789312479393
leaf_weight=13.000000000000002 10.999999999999998 13.999999999999998 11.000000000000002 10.999999999999998 11.999999999999998
leaf_count=13 11 14 11 11 12
internal_value=0 0.0154126 0.0270806 -0.0308253 0.0348729
internal_weight=0 48 34 24 23
internal_count=72 48 34 24 23
is_linear=0
shrinkage=0.05


Tree=6
num_leaves=5
num_cat=0
split_feature=3 2 1 3
split_gain=17.1247 6.2977 1.96092 0.630677
threshold=1.1674516549914968 -0.046124999999999965 0.30961 1.6381568072320798
decision_type=2 2 2 2
left_child=2 -2 -1 -3
right_child=1 3 -4 -5
leaf_value=-0.046545509062707414 -0.012130310176871717 0.036873508748762746 -0.019428255756696065 0.023042751150205733
leaf_weight=12.000000000000002 11.999999999999998 17 14.999999999999998 15.999999999999998
leaf_count=12 12 17 15 16
internal_value=0 0.0188882 -0.0314804 0.0301677
internal_weight=0 45 27 33
internal_count=72 45 27 33
is_linear=0
shrinkage=0.05


Tree=7
num_leaves=5
num_cat=0
split_feature=2 0 1 0
split_gain=11.3701 5.45819 1.49435 0.820176
threshold=-0.046124999999999965 0.61077500000000018 0.43937500000000002 0.42132500000000001
decision_type=2 2 2 2
left_child=3 2 -2 -1
right_child=1 -3 -4 -5
leaf_value=-0.036602029591225653 0.014386771027656162 -0.0122255841003997 0.035351392681546072 -0.01805129364471544
leaf_weight=13.000000000000002 17 13.999999999999998 17 10.999999999999998
leaf_count=13 17 14 17 11
internal_value=0 0.0140498 0.0248691 -0.0280996
internal_weight=0 48 34 24
internal_count=72 48 34 24
is_linear=0
shrinkage=0.05


Tree=8
num_leaves=5
num_cat=0
split_feature=3 1 1 1
split_gain=15.0426 3.82799 3.35457 1.67471
threshold=1.1674516549914968 0.32308000000000009 0.50763000000000014 0.30961
decision_type=2 2 2 2
left_child=3 -2 -3 -1
right_child=1 2 -4 -5
leaf_value=-0.043426922770837928 -0.0039975732273887848 0.043428380030672988 0.010515691091616949 -0.01836669037739436
leaf_weight=12.000000000000002 13.999999999999998 16.000000000000004 14.999999999999998 14.999999999999998
leaf_count=12 14 16 15 15
internal_value=0 0.0177027 0.0275029 -0.0295046
internal_weight=0 45 31 27
internal_count=72 45 31 27
is_linear=0
shrinkage=0.05


Tree=9
num_leaves=5
num_cat=0
split_feature=3 2 2 3
split_gain=13.5759 4.81435 1.62349 0.519217
threshold=1.1674516549914968 -0.046124999999999965 -0.046124999999999965 1.6381568072320798
decision_type=2 2 2 2
left_child=2 -2 -1 -3
right_child=1 3 -4 -5
leaf_value=-0.041737127769738425 -0.01030296092600717 0.032764104830429838 -0.017063115189472837 0.020214875275269151
leaf_weight=12.000000000000002 11.999999999999998 17 14.999999999999998 15.999999999999998
leaf_count=12 12 17 15 16
internal_value=0 0.0168176 -0.0280293 0.0266796
internal_weight=0 45 27 33
internal_count=72 45 27 33
is_linear=0
shrinkage=0.05


Tree=10
num_leaves=5
num_cat=0
split_feature=3 2 2 3
split_gain=12.2523 4.34495 1.4652 0.468594
threshold=1.1674516549914968 -0.046124999999999965 -0.046124999999999965 1.6381568072320798
decision_type=2 2 2 2
left_child=2 -2 -1 -3
right_child=1 3 -4 -5
leaf_value=-0.039650271095645916 -0.0097878133800501643 0.031125900374814486 -0.016209959598879022 0.01920413193292916
leaf_weight=12.000000000000002 11.999999999999998 17 14.999999999999998 15.999999999999998
leaf_count=12 12 17 15 16
internal_value=0 0.0159767 -0.0266279 0.0253456
internal_weight=0 45 27 33
internal_count=72 45 27 33
is_linear=0
shrinkage=0.05


Tree=11
num_leaves=6
num_cat=0
split_feature=3 2 1 1 1
split_gain=11.0577 3.92132 1.43602 0.502259 0.613971
threshold=1.1674516549914968 -0.046124999999999965 0.30961 0.50763000000000014 0.36502500000000004
decision_type=2 2 2 2 2
left_child=2 -2 -1 4 -3
right_child=1 3 -4 -5 -6
leaf_value=-0.03818858957771832 -0.0092984222418939066 0.018831401839852328 -0.014982796615610521 0.014723429698497057 0.035310597947010629
leaf_weight=12.000000000000002 11.999999999999998 10.000000000000002 14.999999999999998 9.9999999999999982 12.999999999999998
leaf_count=12 12 10 15 10 13
internal_value=0 0.0151779 -0.0252965 0.0240784 0.0281457
internal_weight=0 45 27 33 23
internal_count=72 45 27 33 23
is_linear=0
shrinkage=0.05


Tree=12
num_leaves=5
num_cat=0
split_feature=2 0 1 0
split_gain=7.31441 4.059 1.14141 0.852213
threshold=-0.046124999999999965 0.61077500000000018 0.43937500000000002 0.42132500000000001
decision_type=2 2 2 2
left_child=3 2 -2 -1
right_child=1 -3 -4 -5
leaf_value=-0.03120453119851075 0.011437662625137499 -0.011389832624367305 0.029760047279791358 -0.012294955128295856
leaf_weight=13.000000000000002 17 13.999999999999998 17 10.999999999999998
leaf_count=13 17 14 17 11
internal_value=0 0.0112688 0.0205989 -0.0225376
internal_weight=0 48 34 24
internal_count=72 48 34 24
is_linear=0
shrinkage=0.05


Tree=13
num_leaves=5
num_cat=0
split_feature=2 0 1 0
split_gain=6.60126 3.66324 1.03013 0.769123
threshold=-0.046124999999999965 0.61077500000000018 0.43937500000000002 0.42132500000000001
decision_type=2 2 2 2
left_child=3 2 -2 -1
right_child=1 -3 -4 -5
leaf_value=-0.02964430394080968 0.010865779264884837 -0.010820341216666359 0.028272044477874743 -0.011680207384580915
leaf_weight=13.000000000000002 17 13.999999999999998 17 10.999999999999998
leaf_count=13 17 14 17 11
internal_value=0 0.0107054 0.0195689 -0.0214108
internal_weight=0 48 34 24
internal_count=72 48 34 24
is_linear=0
shrinkage=0.05


Tree=14
num_leaves=6
num_cat=0
split_feature=1 2 2 1 0
split_gain=6.00807 3.03733 1.98697 1.29281 0.252455
threshold=0.32308000000000009 -0.023900000000000029 0.15139500000000006 0.24836000000000003 0.54492000000000018
decision_type=2 2 2 2 2
left_child=3 -2 -3 -1 -4
right_child=1 2 4 -5 -6
leaf_value=-0.0064140617692222185 -0.011649883030490443 0.033023526336598608 0.014081190787255761 -0.028432317177454633 0.0028460919857025146
leaf_weight=12.000000000000002 10.999999999999998 13.999999999999998 10.000000000000002 14.999999999999998 9.9999999999999982
leaf_count=12 11 14 10 15 10
internal_value=0 0.0111879 0.0185765 -0.0186464 0.00846364
internal_weight=0 45 34 27 20
internal_count=72 45 34 27 20
is_linear=0
shrinkage=0.05


Tree=15
num_leaves=6
num_cat=0
split_feature=2 0 0 0 0
split_gain=5.50004 3.12037 0.932886 0.697061 0.0404171
threshold=-0.046124999999999965 0.61077500000000018 0.42132500000000001 0.42132500000000001 0.51684500000000011
decision_type=2 2 2 2 2
left_child=3 2 -2 -1 -4
right_child=1 -3 4 -5 -6
leaf_value=-0.027381816162512847 0.0059761637313799423 -0.010095063277653285 0.021490653329105533 -0.010279965366829527 0.025686595278481647
leaf_weight=13.000000000000002 10.999999999999998 13.999999999999998 11.000000000000002 10.999999999999998 11.999999999999998
leaf_count=13 11 14 11 11 12
internal_value=0 0.00977173 0.0179522 -0.0195435 0.0236798
internal_weight=0 48 34 24 23
internal_count=72 48 34 24 23
is_linear=0
shrinkage=0.05


Tree=16
num_leaves=5
num_cat=0
split_feature=3 2 2 3
split_gain=8.90752 2.15041 0.851155 0.349088
threshold=1.1674516549914968 -0.046124999999999965 -0.046124999999999965 1.6381568072320798
decision_type=2 2 2 2
left_child=2 -2 -1 -3
right_child=1 3 -4 -5
leaf_value=-0.032629598521937919 -0.0045029907176891964 0.025202654543168408 -0.01476390245060126 0.014912780170561746
leaf_weight=12.000000000000002 11.999999999999998 17 14.999999999999998 15.999999999999998
leaf_count=12 12 17 15 16
internal_value=0 0.0136225 -0.0227042 0.0202136
internal_weight=0 45 27 33
internal_count=72 45 27 33
is_linear=0
shrinkage=0.05


Tree=17
num_leaves=5
num_cat=0
split_feature=3 1 1 1
split_gain=8.03903 2.23426 2.05867 0.994405
threshold=1.1674516549914968 0.32308000000000009 0.50763000000000014 0.30961
decision_type=2 2 2 2
left_child=3 -2 -3 -1
right_child=1 2 -4 -5
leaf_value=-0.032297152280807484 -0.0036371801846793723 0.032904283143579953 0.0071210024133324633 -0.012986480382581553
leaf_weight=12.000000000000002 13.999999999999998 16.000000000000004 14.999999999999998 14.999999999999998
leaf_count=12 14 16 15 15
internal_value=0 0.0129414 0.0204285 -0.021569
internal_weight=0 45 31 27
internal_count=72 45 31 27
is_linear=0
shrinkage=0.05


Tree=18
num_leaves=5
num_cat=0
split_feature=3 2 2 3
split_gain=7.25523 1.84007 0.746473 0.301852
threshold=1.1674516549914968 -0.046124999999999965 -0.046124999999999965 1.6381568072320798
decision_type=2 2 2 2
left_child=2 -2 -1 -3
right_child=1 3 -4 -5
leaf_value=-0.029785566652814538 -0.0044723672481874624 0.023030539974570274 -0.013054538654784363 0.01346213195938617
leaf_weight=12.000000000000002 11.999999999999998 17 14.999999999999998 15.999999999999998
leaf_count=12 12 17 15 16
internal_value=0 0.0122943 -0.0204906 0.0183913
internal_weight=0 45 27 33
internal_count=72 45 27 33
is_linear=0
shrinkage=0.05


end of trees

feature_importances:
Column_1=23
Column_2=23
Column_0=20
Column_3=18

parameters:
[boosting: gbdt]
[objective: regression]
[metric: rmse]
[tree_learner: serial]
[device_type: cpu]
[data: ]
[valid: ]
[num_iterations: 10000]
[learning_rate: 0.05]
[num_leaves: 63]
[num_threads: 0]
[deterministic: 0]
[force_col_wise: 0]
[force_row_wise: 0]
[histogram_pool_size: -1]
[max_depth: -1]
[min_data_in_leaf: 10]
[min_sum_hessian_in_leaf: 0.001]
[bagging_fraction: 0.9]
[pos_bagging_fraction: 1]
[neg_bagging_fraction: 1]
[bagging_freq: 0]
[bagging_seed: 18467]
[feature_fraction: 0.8]
[feature_fraction_bynode: 1]
[feature_fraction_seed: 26500]
[extra_trees: 0]
[extra_seed: 15724]
[early_stopping_round: 0]
[first_metric_only: 0]
[max_delta_step: 0]
[lambda_l1: 0]
[lambda_l2: 0]
[linear_lambda: 0]
[min_gain_to_split: 0]
[drop_rate: 0.1]
[max_drop: 50]
[skip_drop: 0.5]
[xgboost_dart_mode: 0]
[uniform_drop: 0]
[drop_seed: 6334]
[top_rate: 0.2]
[other_rate: 0.1]
[min_data_per_group: 100]
[max_cat_threshold: 32]
[cat_l2: 10]
[cat_smooth: 10]
[max_cat_to_onehot: 4]
[top_k: 20]
[monotone_constraints: ]
[monotone_constraints_method: basic]
[monotone_penalty: 0]
[feature_contri: ]
[forcedsplits_filename: ]
[refit_decay_rate: 0.9]
[cegb_tradeoff: 1]
[cegb_penalty_split: 0]
[cegb_penalty_feature_lazy: ]
[cegb_penalty_feature_coupled: ]
[path_smooth: 0]
[interaction_constraints: ]
[verbosity: -1]
[saved_feature_importance_type: 0]
[linear_tree: 0]
[max_bin: 255]
[max_bin_by_feature: ]
[min_data_in_bin: 3]
[bin_construct_sample_cnt: 200000]
[data_random_seed: 41]
[is_enable_sparse: 1]
[enable_bundle: 1]
[use_missing: 1]
[zero_as_missing: 0]
[feature_pre_filter: 1]
[pre_partition: 0]
[two_round: 0]
[header: 0]
[label_column: ]
[weight_column: ]
[group_column: ]
[ignore_column: ]
[categorical_feature: ]
[forcedbins_filename: ]
[precise_float_parser: 0]
[parser_config_file: ]
[objective_seed: 19169]
[num_class: 1]
[is_unbalance: 0]
[scale_pos_weight: 1]
[sigmoid: 1]
[boost_from_average: 1]
[reg_sqrt: 0]
[alpha: 0.9]
[fair_c: 1]
[poisson_max_delta_step: 0.7]
[tweedie_variance_power: 1.5]
[lambdarank_truncation_level: 30]
[lambdarank_norm: 1]
[label_gain: ]
[lambdarank_position_bias_regularization: 0]
[eval_at: ]
[multi_error_top_k: 1]
[auc_mu_weights: ]
[num_machines: 1]
[local_listen_port: 12400]
[time_out: 120]
[machine_list_filename: ]
[machines: ]
[gpu_platform_id: -1]
[gpu_device_id: -1]
[gpu_use_dp: 0]
[num_gpu: 1]

end of parameters

pandas_categorical:null
