tree
version=v4
num_class=1
num_tree_per_iteration=1
label_index=0
max_feature_idx=3
objective=regression
feature_names=Column_0 Column_1 Column_2 Column_3
feature_infos=[0.18557999999999999:0.79232999999999998] [-0.18134:0.73553999999999997] [-0.70970999999999995:0.49456999999999995] [-15.237458193979933:6.3746329073736012]
tree_sizes=621 717 726 730 716 719 710 594 729 601 705 733 695 696 738 711 707 735 710 740 736 597 844 720 723 626 725 625 628 734 627 737 741 741 626 724 626 644 641 624 722 742 736 726 744 610 740 737 746 739 742 748 738 715 613 645 645 740 629

Tree=0
num_leaves=5
num_cat=0
split_feature=2 3 3 3
split_gain=19.0927 11.184 2.20848 1.7424
threshold=-0.027180000000000034 1.1513957277367273 1.6782703609562566 1.1096048828164427
decision_type=2 2 2 2
left_child=3 -2 -3 -1
right_child=1 2 -4 -5
leaf_value=-0.10001872014381909 -0.036135884208017832 0.090169379775558098 0.038840295366908868 -0.046129943152302746
leaf_weight=12.000000000000002 14.999999999999998 19 14.999999999999998 11.999999999999998
leaf_count=12 15 19 15 12
internal_value=5.30726e-09 0.0357915 0.0675242 -0.0730743
internal_weight=0 49 34 24
internal_count=73 49 34 24
is_linear=0
shrinkage=1


Tree=1
num_leaves=6
num_cat=0
split_feature=3 2 0 2 0
split_gain=15.4792 8.31381 3.63798 3.13129 0.370832
threshold=1.1513957277367273 -0.027180000000000034 0.61655000000000004 -0.052729999999999937 0.46659000000000006
decision_type=2 2 2 2 2
left_child=3 -2 4 -1 -3
right_child=1 2 -4 -5 -6
leaf_value=-0.099949761412360422 -0.039244458892128686 0.067178688645362833 0.010096483565866947 -0.031476690488703114 0.092392032678721342
leaf_weight=11.000000000000002 10.999999999999998 10.000000000000002 9.9999999999999982 17 13.999999999999998
leaf_count=11 11 10 10 17 14
internal_value=0 0.0363234 0.0607718 -0.0583768 0.0818865
internal_weight=0 45 34 28 24
internal_count=73 45 34 28 24
is_linear=0
shrinkage=0.1


Tree=2
num_leaves=6
num_cat=0
split_feature=3 1 3 1 1
split_gain=12.5382 5.61984 2.10537 3.17901 1.29739
threshold=1.1513957277367273 0.31580500000000006 1.6782703609562566 0.44318500000000005 0.51044000000000012
decision_type=2 2 2 2 2
left_child=1 -1 3 -2 -4
right_child=2 -3 4 -5 -6
leaf_value=-0.10427031964063643 0.016529185666392245 -0.013740764372050763 0.035636385828256595 0.089318982263406121 -0.014131440086798234
leaf_weight=12.000000000000002 12.000000000000002 15.999999999999998 10.000000000000002 11.999999999999998 10.999999999999998
leaf_count=12 12 16 10 12 11
internal_value=0 -0.0525391 0.032691 0.0529241 0.00956752
internal_weight=0 28 45 24 21
internal_count=73 28 45 24 21
is_linear=0
shrinkage=0.1


Tree=3
num_leaves=6
num_cat=0
split_feature=3 1 3 0 0
split_gain=10.1559 4.55207 1.72281 0.762824 0.0784624
threshold=1.1513957277367273 0.31580500000000006 1.3803495351338204 0.54790000000000016 0.45695500000000006
decision_type=2 2 2 2 2
left_child=1 -1 -2 4 -4
right_child=2 -3 3 -5 -6
leaf_value=-0.093843288222948684 0.061869258930285775 -0.012366687320172787 0.035526840239763248 -0.0024899858981370926 0.023287891054695305
leaf_weight=12.000000000000002 11.999999999999998 15.999999999999998 10.000000000000002 11.999999999999998 10.999999999999998
leaf_count=12 12 16 10 12 11
internal_value=0 -0.0472852 0.0294219 0.0176229 0.029116
internal_weight=0 28 45 33 21
internal_count=73 28 45 33 21
is_linear=0
shrinkage=0.1


Tree=4
num_leaves=6
num_cat=0
split_feature=2 0 1 0 0
split_gain=10.843 7.88002 0.701956 0.6924 0.00859461
threshold=-0.027180000000000034 0.59198500000000009 0.41427000000000008 0.40894500000000006 0.52691500000000013
decision_type=2 2 2 2 2
left_child=2 3 -1 -2 -5
right_child=1 -3 -4 4 -6
leaf_value=-0.069522676350814938 0.035872745662927613 -0.02565474460522334 -0.034833303242921831 0.069772147048603392 0.065721482634544373
leaf_weight=14.000000000000002 10.000000000000002 18 9.9999999999999982 11.000000000000002 9.9999999999999982
leaf_count=14 10 18 10 11 10
internal_value=0 0.0269725 -0.0550688 0.0575302 0.0678433
internal_weight=0 49 24 31 21
internal_count=73 49 24 31 21
is_linear=0
shrinkage=0.1


Tree=5
num_leaves=6
num_cat=0
split_feature=2 0 1 0 0
split_gain=8.78282 6.38282 0.568584 0.560844 0.00696163
threshold=-0.027180000000000034 0.59198500000000009 0.41427000000000008 0.40894500000000006 0.52691500000000013
decision_type=2 2 2 2 2
left_child=2 3 -1 -2 -5
right_child=1 -3 -4 4 -6
leaf_value=-0.062570408731698987 0.032285469770431507 -0.023089270252320503 -0.031349972188472748 0.06279493306170808 0.059149334430694582
leaf_weight=14.000000000000002 10.000000000000002 18 9.9999999999999982 11.000000000000002 9.9999999999999982
leaf_count=14 10 18 10 11 10
internal_value=0 0.0242752 -0.0495619 0.0517772 0.0610589
internal_weight=0 49 24 31 21
internal_count=73 49 24 31 21
is_linear=0
shrinkage=0.1


Tree=6
num_leaves=6
num_cat=0
split_feature=2 3 2 3 3
split_gain=7.12173 4.46657 1.36898 1.23642 0.899409
threshold=-0.052729999999999937 1.223669494296064 0.17547499999999996 1.6281852478708088 1.1096048828164427
decision_type=2 2 2 2 2
left_child=4 2 -2 -3 -1
right_child=1 3 -4 -5 -6
leaf_value=-0.070855255424976324 0.0089398816972970935 0.063945017208655683 -0.043385675698518755 0.024554844638880562 -0.029417920519005172
leaf_weight=10.000000000000002 10.000000000000002 14.999999999999998 9.9999999999999982 17 10.999999999999998
leaf_count=10 10 15 10 17 11
internal_value=0 0.019849 -0.0172229 0.043019 -0.04915
internal_weight=0 52 20 32 21
internal_count=73 52 20 32 21
is_linear=0
shrinkage=0.1


Tree=7
num_leaves=5
num_cat=0
split_feature=2 0 0 0
split_gain=5.85949 4.75701 0.442336 0.423892
threshold=-0.027180000000000034 0.59198500000000009 0.495255 0.46659000000000006
decision_type=2 2 2 2
left_child=2 3 -1 -2
right_child=1 -3 -4 -5
leaf_value=-0.054057852302988353 0.030684582636292486 -0.021061812755134371 -0.026905930538972219 0.054181992613217413
leaf_weight=12.000000000000002 14.000000000000002 18 11.999999999999998 17
leaf_count=12 14 18 12 17
internal_value=0 0.0198279 -0.0404819 0.0435703
internal_weight=0 49 24 31
internal_count=73 49 24 31
is_linear=0
shrinkage=0.1


Tree=8
num_leaves=6
num_cat=0
split_feature=3 1 3 1 1
split_gain=5.04622 2.91394 0.964285 1.39233 0.740587
threshold=1.1513957277367273 0.31580500000000006 1.6782703609562566 0.44318500000000005 0.51044000000000012
decision_type=2 2 2 2 2
left_child=1 -1 3 -2 -4
right_child=2 -3 4 -5 -6
leaf_value=-0.070581409148871885 0.010346302058314903 -0.0053932476788759237 0.024785950779914849 0.058518432080745697 -0.012815222821452402
leaf_weight=12.000000000000002 12.000000000000002 15.999999999999998 10.000000000000002 11.999999999999998 10.999999999999998
leaf_count=12 12 16 10 12 11
internal_value=0 -0.033331 0.0207393 0.0344324 0.0050901
internal_weight=0 28 45 24 21
internal_count=73 28 45 24 21
is_linear=0
shrinkage=0.1


Tree=9
num_leaves=5
num_cat=0
split_feature=2 0 3 3
split_gain=4.36027 3.38597 0.752098 0.486775
threshold=-0.027180000000000034 0.59198500000000009 1.3135113816451327 1.0673814282412859
decision_type=2 2 2 2
left_child=3 2 -2 -1
right_child=1 -3 -4 -5
leaf_value=-0.051771969720721227 0.019971089889960627 -0.01739330706703994 0.051270027020398318 -0.022884750100118773
leaf_weight=10.000000000000002 14.000000000000002 18 17 13.999999999999998
leaf_count=10 14 18 17 14
internal_value=0 0.0171042 0.037135 -0.0349211
internal_weight=0 49 31 24
internal_count=73 49 31 24
is_linear=0
shrinkage=0.1


Tree=10
num_leaves=6
num_cat=0
split_feature=2 0 0 3 2
split_gain=3.61276 2.90279 0.603096 0.455854 1.27501
threshold=-0.052729999999999937 0.59198500000000009 0.495255 1.2915182827969809 0.15957499999999994
decision_type=2 2 2 2 2
left_child=2 3 -1 -2 -5
right_child=1 -3 -4 4 -6
leaf_value=-0.051164594394239496 0.016517010517418385 -0.017000381099550346 -0.017232821360230448 0.017455987564542072 0.066792600452899933
leaf_weight=11.000000000000002 11.999999999999998 19 9.9999999999999982 11.000000000000002 9.9999999999999982
leaf_count=11 12 19 10 11 10
internal_value=0 0.0141373 -0.0350066 0.032065 0.0409496
internal_weight=0 52 21 33 21
internal_count=73 52 21 33 21
is_linear=0
shrinkage=0.1


Tree=11
num_leaves=6
num_cat=0
split_feature=3 1 2 2 2
split_gain=3.20149 2.1599 1.67969 0.805447 0.735085
threshold=1.1513957277367273 0.31580500000000006 -0.027180000000000034 0.12944000000000008 0.22488500000000006
decision_type=2 2 2 2 2
left_child=1 -1 -2 -4 -5
right_child=2 -3 3 4 -6
leaf_value=-0.058619223502076524 -0.017447423901070246 -0.002495644069858827 0.051352616548538212 0.0014745953564460458 0.036598793044686322
leaf_weight=12.000000000000002 10.999999999999998 15.999999999999998 9.9999999999999982 13.000000000000002 10.999999999999998
leaf_count=12 11 16 10 13 11
internal_value=0 -0.0265486 0.0165191 0.0275083 0.0175732
internal_weight=0 28 45 34 24
internal_count=73 28 45 34 24
is_linear=0
shrinkage=0.1


Tree=12
num_leaves=6
num_cat=0
split_feature=2 0 0 1 1
split_gain=2.46923 2.15239 0.521257 0.39093 0.647808
threshold=-0.052729999999999937 0.59198500000000009 0.495255 0.38621 0.49178500000000008
decision_type=2 2 2 2 2
left_child=2 3 -1 -2 -5
right_child=1 -3 -4 4 -6
leaf_value=-0.043962590379471117 0.011732773334634575 -0.015124941979976079 -0.012416961221024396 0.051981213350187627 0.017661650919101456
leaf_weight=11.000000000000002 10.999999999999998 19 9.9999999999999982 11.000000000000002 10.999999999999998
leaf_count=11 11 19 10 11 11
internal_value=0 0.0116877 -0.0289409 0.0271252 0.0348214
internal_weight=0 52 21 33 22
internal_count=73 52 21 33 22
is_linear=0
shrinkage=0.1


Tree=13
num_leaves=6
num_cat=0
split_feature=2 0 0 1 1
split_gain=2.00008 1.74344 0.422218 0.316653 0.524724
threshold=-0.052729999999999937 0.59198500000000009 0.495255 0.38621 0.49178500000000008
decision_type=2 2 2 2 2
left_child=2 3 -1 -2 -5
right_child=1 -3 -4 4 -6
leaf_value=-0.039566332423551509 0.010559496537528256 -0.013612448012358265 -0.011175264699850232 0.046783092211593269 0.015895485386929729
leaf_weight=11.000000000000002 10.999999999999998 19 9.9999999999999982 11.000000000000002 10.999999999999998
leaf_count=11 11 19 10 11 11
internal_value=0 0.0105189 -0.0260468 0.0244127 0.0313393
internal_weight=0 52 21 33 22
internal_count=73 52 21 33 22
is_linear=0
shrinkage=0.1


Tree=14
num_leaves=6
num_cat=0
split_feature=2 2 0 1 2
split_gain=1.63748 1.42563 2.44221 0.324855 0.290175
threshold=-0.027180000000000034 0.12944000000000008 0.61655000000000004 0.41427000000000008 0.22488500000000006
decision_type=2 2 2 2 2
left_child=3 -2 4 -1 -3
right_child=1 2 -4 -5 -6
leaf_value=-0.031232982814045879 0.036162029442687836 0.0079105161130428297 -0.034911380622249383 -0.007634371630847455 0.031447075544433163
leaf_weight=14.000000000000002 14.999999999999998 10.000000000000002 12.999999999999998 9.9999999999999982 10.999999999999998
leaf_count=14 15 10 13 10 11
internal_value=0 0.0104817 -0.000847793 -0.0214002 0.0202392
internal_weight=0 49 34 24 21
internal_count=73 49 34 24 21
is_linear=0
shrinkage=0.1


Tree=15
num_leaves=6
num_cat=0
split_feature=2 0 0 0 2
split_gain=1.32721 1.11728 0.351829 0.287475 0.0691168
threshold=-0.052729999999999937 0.59198500000000009 0.495255 0.50806000000000007 0.15139500000000006
decision_type=2 2 2 2 2
left_child=2 3 -1 4 -2
right_child=1 -3 -4 -5 -6
leaf_value=-0.03355906446549025 0.0071657287295569059 -0.010749165615753125 -0.0076423985138535508 0.032038164014617607 0.018652685582637787
leaf_weight=11.000000000000002 11.000000000000002 19 9.9999999999999982 11.999999999999998 9.9999999999999982
leaf_count=11 11 19 10 12 10
internal_value=0 0.00856872 -0.0212178 0.0196911 0.0126357
internal_weight=0 52 21 33 21
internal_count=73 52 21 33 21
is_linear=0
shrinkage=0.1


Tree=16
num_leaves=6
num_cat=0
split_feature=3 2 0 2 0
split_gain=2.03228 0.887383 0.894953 0.718719 1.01927
threshold=1.223669494296064 0.039380000000000033 0.495255 0.12944000000000008 0.52691500000000013
decision_type=2 2 2 2 2
left_child=3 -2 -3 4 -1
right_child=1 2 -4 -5 -6
leaf_value=-0.030703940063249297 -0.0062217167545376081 0.046838180077346879 0.01023167661007713 -0.039952448179776022 0.014446187019348146
leaf_weight=10.000000000000005 13.999999999999998 11.000000000000002 17 10.999999999999998 9.9999999999999982
leaf_count=10 14 11 17 11 10
internal_value=0 0.0143346 0.0246128 -0.0194211 -0.00812888
internal_weight=0 42 28 31 20
internal_count=73 42 28 31 20
is_linear=0
shrinkage=0.1


Tree=17
num_leaves=6
num_cat=0
split_feature=3 1 3 1 1
split_gain=1.67062 1.31959 0.334648 0.603773 0.266169
threshold=1.1096048828164427 0.31580500000000006 1.6782703609562566 0.44318500000000005 0.51044000000000012
decision_type=2 2 2 2 2
left_child=1 -1 3 -2 -4
right_child=2 -3 4 -5 -6
leaf_value=-0.049099828191101536 0.0049061815689007433 -0.0022030373414357505 0.013257561326026913 0.035000352313121159 -0.0092844293537465011
leaf_weight=10.000000000000002 15.000000000000002 14.999999999999998 10.000000000000002 11.999999999999998 10.999999999999998
leaf_count=10 15 15 10 12 11
internal_value=0 -0.0209618 0.0109176 0.0182814 0.00144985
internal_weight=0 25 48 27 21
internal_count=73 25 48 27 21
is_linear=0
shrinkage=0.1


Tree=18
num_leaves=6
num_cat=0
split_feature=3 2 0 2 0
split_gain=1.35934 0.669565 0.720947 0.600584 0.841853
threshold=1.223669494296064 0.039380000000000033 0.495255 0.12944000000000008 0.52691500000000013
decision_type=2 2 2 2 2
left_child=3 -2 -3 4 -1
right_child=1 2 -4 -5 -6
leaf_value=-0.026077431142330149 -0.0061325775991593091 0.040599656850099558 0.0077440108446513905 -0.034651783819903026 0.014955559894442558
leaf_weight=10.000000000000005 13.999999999999998 11.000000000000002 17 10.999999999999998 9.9999999999999982
leaf_count=10 14 11 17 11 10
internal_value=0 0.0117235 0.0206516 -0.0158835 -0.00556094
internal_weight=0 42 28 31 20
internal_count=73 42 28 31 20
is_linear=0
shrinkage=0.1


Tree=19
num_leaves=6
num_cat=0
split_feature=2 2 0 2 1
split_gain=0.771453 1.09272 1.24418 0.277086 0.231692
threshold=-0.027180000000000034 0.12944000000000008 0.61655000000000004 0.22488500000000006 0.41427000000000008
decision_type=2 2 2 2 2
left_child=4 -2 3 -3 -1
right_child=1 2 -4 -5 -6
leaf_value=-0.022992741901959685 0.029677298590540885 0.00027913324534893029 -0.027037430010162868 0.023278768709860745 -0.0030632288567721843
leaf_weight=14.000000000000002 14.999999999999998 10.000000000000002 12.999999999999998 10.999999999999998 9.9999999999999982
leaf_count=14 15 10 13 11 10
internal_value=0 0.0071945 -0.00272438 0.0123266 -0.0146888
internal_weight=0 49 34 21 24
internal_count=73 49 34 21 24
is_linear=0
shrinkage=0.1


Tree=20
num_leaves=6
num_cat=0
split_feature=3 1 0 1 3
split_gain=1.08895 1.01479 0.319963 0.414149 0.350821
threshold=1.1096048828164427 0.31580500000000006 0.50806000000000007 0.42611000000000004 1.3803495351338204
decision_type=2 2 2 2 2
left_child=1 -1 3 -2 -4
right_child=2 -3 4 -5 -6
leaf_value=-0.041598976179957378 0.015602104589343066 -0.00047333656499783203 0.03115383625030517 -0.011466785864188122 0.0069732426479458811
leaf_weight=10.000000000000002 10.000000000000002 14.999999999999998 10.000000000000002 12.999999999999998 14.999999999999998
leaf_count=10 10 15 10 13 15
internal_value=0 -0.0169236 0.00881437 0.000302297 0.0166455
internal_weight=0 25 48 23 25
internal_count=73 25 48 23 25
is_linear=0
shrinkage=0.1


Tree=21
num_leaves=5
num_cat=0
split_feature=3 0 2 0
split_gain=0.921379 0.52228 0.483296 0.558207
threshold=1.223669494296064 0.52691500000000013 0.039380000000000033 0.495255
decision_type=2 2 2 2
left_child=1 -1 -2 -4
right_child=2 -3 3 -5
leaf_value=-0.028350186376617501 -0.0055184672453573776 -0.0020460255832100908 0.034789934009313572 0.0058794206775286623
leaf_weight=13.000000000000002 13.999999999999998 18 11.000000000000002 17
leaf_count=13 14 18 11 17
internal_value=0 -0.0130768 0.00965193 0.0172371
internal_weight=0 31 42 28
internal_count=73 31 42 28
is_linear=0
shrinkage=0.1


Tree=22
num_leaves=7
num_cat=0
split_feature=3 1 0 0 3 0
split_gain=0.757483 0.254784 0.629507 1.07449 0.0728845 0.0176964
threshold=0.99066512002177265 0.34751499999999996 0.50806000000000007 0.59198500000000009 1.3803495351338204 0.40894500000000006
decision_type=2 2 2 2 2 2
left_child=-1 4 5 -4 -2 -3
right_child=1 2 3 -5 -6 -7
leaf_value=-0.021884119553634757 -0.010510816946625708 -0.00022102817893028252 0.045072888135910018 -0.0012841500341892243 0.0015626678615808486 -0.0061702058382797987
leaf_weight=12.999999999999998 10.000000000000002 10.000000000000002 10.000000000000002 9.9999999999999982 9.9999999999999982 9.9999999999999982
leaf_count=13 10 10 10 10 10 10
internal_value=0 0.00474156 0.00934938 0.0218944 -0.00447407 -0.00319562
internal_weight=0 60 40 20 20 20
internal_count=73 60 40 20 20 20
is_linear=0
shrinkage=0.1


Tree=23
num_leaves=6
num_cat=0
split_feature=1 0 2 1 0
split_gain=0.476556 1.12126 1.04561 0.87121 0.693534
threshold=0.34751499999999996 0.50806000000000007 0.084965000000000027 0.49178500000000008 0.50806000000000007
decision_type=2 2 2 2 2
left_child=4 2 -2 -3 -1
right_child=1 3 -4 -5 -6
leaf_value=0.010872107520699498 -0.031334497847340319 0.042413106396667309 0.011349115963093938 0.0026133766694163736 -0.021973461409409843
leaf_weight=10.000000000000002 11.000000000000002 11.000000000000002 11.999999999999998 10.999999999999998 18
leaf_count=10 11 11 12 11 18
internal_value=0 0.00637336 -0.00906479 0.0225132 -0.0102429
internal_weight=0 45 23 22 28
internal_count=73 45 23 22 28
is_linear=0
shrinkage=0.1


Tree=24
num_leaves=6
num_cat=0
split_feature=3 2 2 3 3
split_gain=0.592776 0.494711 1.38209 0.636884 0.68645
threshold=0.99066512002177265 -0.027180000000000034 0.096745000000000039 1.3135113816451327 1.6782703609562566
decision_type=2 2 2 2 2
left_child=-1 -2 -3 -4 -5
right_child=1 2 3 4 -6
leaf_value=-0.019359210738912225 -0.0096758848677078891 0.042589182108640676 -0.019494301572823051 0.029170936648733905 -0.0070298361507329073
leaf_weight=12.999999999999998 18 9.9999999999999982 10.999999999999998 10.000000000000002 10.999999999999998
leaf_count=13 18 10 11 10 11
internal_value=0 0.0041945 0.0101389 -1.75464e-06 0.0102086
internal_weight=0 60 42 32 21
internal_count=73 60 42 32 21
is_linear=0
shrinkage=0.1


Tree=25
num_leaves=5
num_cat=0
split_feature=3 2 2 2
split_gain=0.498612 0.212826 0.478841 0.127687
threshold=1.0398389680930018 0.15139500000000006 -0.027180000000000034 0.22488500000000006
decision_type=2 2 2 2
left_child=-1 2 -2 -3
right_child=1 3 -4 -5
leaf_value=-0.01393285406459319 -0.00085145704215392457 -0.0092977097374387068 0.024986789576136148 0.005007060359303768
leaf_weight=19 16.000000000000004 12.000000000000002 12.999999999999998 12.999999999999998
leaf_count=19 16 12 13 13
internal_value=0 0.0049023 0.0107312 -0.00185923
internal_weight=0 54 29 25
internal_count=73 54 29 25
is_linear=0
shrinkage=0.1


Tree=26
num_leaves=6
num_cat=0
split_feature=3 2 2 3 0
split_gain=0.406427 0.367266 1.0301 0.532659 1.27832
threshold=0.99066512002177265 -0.027180000000000034 0.096745000000000039 1.3135113816451327 0.54203000000000012
decision_type=2 2 2 2 2
left_child=-1 -2 -3 -4 -5
right_child=1 2 3 4 -6
leaf_value=-0.016030003438488798 -0.0084778023262818657 0.036609977185726165 -0.017986030250110412 0.032702067409726698 -0.016698569580912589
leaf_weight=12.999999999999998 18 9.9999999999999982 10.999999999999998 11.000000000000002 9.9999999999999982
leaf_count=13 18 10 11 11 10
internal_value=0 0.00347317 0.00859501 -0.000159665 0.00917795
internal_weight=0 60 42 32 21
internal_count=73 60 42 32 21
is_linear=0
shrinkage=0.1


Tree=27
num_leaves=5
num_cat=0
split_feature=3 1 1 1
split_gain=0.342622 0.171506 0.283627 0.228157
threshold=1.0398389680930018 0.42611000000000004 0.53135500000000013 0.26474000000000003
decision_type=2 2 2 2
left_child=-1 3 -3 -2
right_child=1 2 -4 -5
leaf_value=-0.011549580950093896 -0.0010269337926398622 -0.01217795326732672 0.0080027036493023253 0.017934074997901919
leaf_weight=19 11.000000000000002 13.000000000000002 14.999999999999998 14.999999999999998
leaf_count=19 11 13 15 15
internal_value=0 0.00406374 -0.00136689 0.00991211
internal_weight=0 54 28 26
internal_count=73 54 28 26
is_linear=0
shrinkage=0.1


Tree=28
num_leaves=5
num_cat=0
split_feature=0 1 1 2
split_gain=0.323927 0.638367 0.66917 0.159644
threshold=0.35842000000000002 0.34751499999999996 0.49178500000000008 0.096745000000000039
decision_type=2 2 2 2
left_child=-1 3 -3 -2
right_child=1 2 -4 -5
leaf_value=-0.013098768678804239 -0.0022470672543232254 0.026960002130363137 -0.00079655316413233162 -0.019053213186562064
leaf_weight=14.999999999999998 13.000000000000002 15.999999999999998 19 9.9999999999999982
leaf_count=15 13 16 19 10
internal_value=0 0.00338761 0.0118922 -0.00955409
internal_weight=0 58 35 23
internal_count=73 58 35 23
is_linear=0
shrinkage=0.1


Tree=29
num_leaves=6
num_cat=0
split_feature=0 1 3 3 1
split_gain=0.262381 0.517077 1.1397 0.897708 0.489996
threshold=0.35842000000000002 0.34751499999999996 1.7539877429409225 1.1513957277367273 0.49178500000000008
decision_type=2 2 2 2 2
left_child=-1 3 4 -2 -3
right_child=1 2 -4 -5 -6
leaf_value=-0.011788890833655995 -0.027513809874653811 0.037208228868742775 -0.015951564019037922 0.012036010606045073 0.0086309517966583378
leaf_weight=14.999999999999998 12.000000000000002 12.000000000000002 10.999999999999998 10.999999999999998 11.999999999999998
leaf_count=15 12 12 11 11 12
internal_value=0 0.00304885 0.0107029 -0.00859868 0.0229196
internal_weight=0 58 35 23 24
internal_count=73 58 35 23 24
is_linear=0
shrinkage=0.1


Tree=30
num_leaves=5
num_cat=0
split_feature=3 2 2 3
split_gain=0.212026 0.24204 0.614619 0.170384
threshold=0.99066512002177265 -0.052729999999999937 0.12944000000000008 1.4640141589189886
decision_type=2 2 2 2
left_child=-1 -2 -3 -4
right_child=1 2 3 -5
leaf_value=-0.011578104759638127 -0.0084923272428568449 0.021909433556720617 -0.011628447224696475 0.0039347477585953824
leaf_weight=12.999999999999998 14.999999999999998 15.999999999999998 12.000000000000002 17
leaf_count=13 15 16 12 17
internal_value=0 0.00250859 0.00617556 -0.00250519
internal_weight=0 60 45 29
internal_count=73 60 45 29
is_linear=0
shrinkage=0.1


Tree=31
num_leaves=6
num_cat=0
split_feature=0 3 1 0 1
split_gain=0.22021 0.203105 0.479787 0.342438 0.334416
threshold=0.67774000000000012 2.1415071311650444 0.44318500000000005 0.50806000000000007 0.28601000000000004
decision_type=2 2 2 2 2
left_child=1 2 4 -4 -1
right_child=-2 -3 3 -5 -6
leaf_value=-0.0012222752595941223 0.011799426863972957 0.0104532390832901 -0.0054964608668039228 0.019559552939608694 -0.023305978253483774
leaf_weight=12.000000000000002 12.999999999999998 9.9999999999999982 12.000000000000002 9.9999999999999982 15.999999999999998
leaf_count=12 13 10 12 10 16
internal_value=0 -0.00255654 -0.0051585 0.00589264 -0.0138415
internal_weight=0 60 50 22 28
internal_count=73 60 50 22 28
is_linear=0
shrinkage=0.1


Tree=32
num_leaves=6
num_cat=0
split_feature=0 2 1 2 1
split_gain=0.17837 0.238965 0.402207 0.575257 0.106712
threshold=0.67774000000000012 -0.052729999999999937 0.49178500000000008 0.15139500000000006 0.31580500000000006
decision_type=2 2 2 2 2
left_child=1 4 3 -3 -1
right_child=-2 2 -4 -5 -6
leaf_value=-0.003921319358050822 0.010619483429651994 0.027041993425651025 -0.010783922063807648 -0.0035171036741563251 -0.018530374625697732
leaf_weight=10.000000000000002 12.999999999999998 11.000000000000002 14.999999999999998 13.999999999999998 9.9999999999999982
leaf_count=10 13 11 15 14 10
internal_value=0 -0.00230089 0.00216159 0.0099289 -0.0112258
internal_weight=0 60 40 25 20
internal_count=73 60 40 25 20
is_linear=0
shrinkage=0.1


Tree=33
num_leaves=6
num_cat=0
split_feature=1 0 2 2 0
split_gain=0.183193 0.653381 0.613237 0.49417 0.181587
threshold=0.31580500000000006 0.50806000000000007 0.084965000000000027 0.24666999999999997 0.54790000000000016
decision_type=2 2 2 2 2
left_child=4 2 -2 -3 -1
right_child=1 3 -4 -5 -6
leaf_value=0.0026734564114700658 -0.023876813923319175 0.028634974747323069 0.007472065678582742 -0.00093361265026032931 -0.014495833058442389
leaf_weight=11.000000000000002 12.000000000000002 13.000000000000002 12.999999999999998 9.9999999999999982 13.999999999999998
leaf_count=11 12 13 13 10 14
internal_value=0 0.00361528 -0.0075754 0.0157791 -0.00694135
internal_weight=0 48 25 23 25
internal_count=73 48 25 23 25
is_linear=0
shrinkage=0.1


Tree=34
num_leaves=5
num_cat=0
split_feature=1 0 0 0
split_gain=0.162279 0.263698 0.500493 0.145955
threshold=0.44318500000000005 0.55803000000000014 0.48254500000000006 0.50806000000000007
decision_type=2 2 2 2
left_child=1 2 -1 -2
right_child=3 -3 -4 -5
leaf_value=0.0019588005862065721 -0.0013303343206644055 0.0052907749389608707 -0.026545377278869804 0.012619801014661789
leaf_weight=14.000000000000002 15.000000000000002 18 10.999999999999998 14.999999999999998
leaf_count=14 15 18 11 15
internal_value=0 -0.00393819 -0.010583 0.00564473
internal_weight=0 43 25 30
internal_count=73 43 25 30
is_linear=0
shrinkage=0.1


Tree=35
num_leaves=6
num_cat=0
split_feature=2 0 0 2 0
split_gain=0.169674 1.28249 0.590631 0.209387 0.102551
threshold=0.12944000000000008 0.52691500000000013 0.61655000000000004 0.22488500000000006 0.45695500000000006
decision_type=2 2 2 2 2
left_child=1 4 3 -2 -1
right_child=2 -3 -4 -5 -6
leaf_value=-0.0052066601191957775 -0.0052661585807800282 0.025130615887396474 -0.021915051398368982 0.014727289771491832 -0.018918347060680393
leaf_weight=12.000000000000002 10.000000000000002 17 12.999999999999998 10.999999999999998 9.9999999999999982
leaf_count=12 10 17 13 11 10
internal_value=0 0.00450146 -0.00516344 0.0052066 -0.0114392
internal_weight=0 39 34 21 22
internal_count=73 39 34 21 22
is_linear=0
shrinkage=0.1


Tree=36
num_leaves=5
num_cat=0
split_feature=3 1 1 1
split_gain=0.157726 0.178459 0.282463 0.189182
threshold=1.0398389680930018 0.39369000000000004 0.53135500000000013 0.26474000000000003
decision_type=2 2 2 2
left_child=-1 3 -3 -2
right_child=1 2 -4 -5
leaf_value=-0.0078362810670545222 -4.1381972418590016e-05 -0.011436909675830973 0.0076640771577755609 0.01811449465652307
leaf_weight=19 11.000000000000002 16.000000000000004 14.999999999999998 11.999999999999998
leaf_count=19 11 16 15 12
internal_value=0 0.00275721 -0.0021945 0.00943125
internal_weight=0 54 31 23
internal_count=73 54 31 23
is_linear=0
shrinkage=0.1


Tree=37
num_leaves=5
num_cat=0
split_feature=1 0 0 0
split_gain=0.152232 0.193144 0.337892 0.108063
threshold=0.44318500000000005 0.57402000000000009 0.48254500000000006 0.50806000000000007
decision_type=2 2 2 2
left_child=1 2 -1 -2
right_child=3 -3 -4 -5
leaf_value=0.0022655470030648363 -0.00053455194458365432 0.0053423884262641273 -0.019704950042068958 0.011468940873940786
leaf_weight=14.000000000000002 15.000000000000002 14.999999999999998 13.999999999999998 14.999999999999998
leaf_count=14 15 15 14 15
internal_value=0 -0.00381432 -0.0087197 0.00546719
internal_weight=0 43 28 30
internal_count=73 43 28 30
is_linear=0
shrinkage=0.1


Tree=38
num_leaves=5
num_cat=0
split_feature=3 0 1 1
split_gain=0.141236 0.278511 0.558671 0.773843
threshold=1.8371647185205835 0.35842000000000002 0.31580500000000006 0.49178500000000008
decision_type=2 2 2 2
left_child=1 -1 -3 -4
right_child=-2 2 3 -5
leaf_value=-0.015129528337946306 0.0086492763956387848 -0.013513014256022872 0.026672547204153876 -0.0060175135172903542
leaf_weight=12.999999999999998 14.999999999999998 15.999999999999998 14.000000000000002 14.999999999999998
leaf_count=13 15 16 14 15
internal_value=0 -0.00223688 0.00148766 0.0097639
internal_weight=0 58 45 29
internal_count=73 58 45 29
is_linear=0
shrinkage=0.1


Tree=39
num_leaves=5
num_cat=0
split_feature=1 0 3 1
split_gain=0.1363 0.232379 0.249565 0.5118
threshold=0.57277000000000011 0.48254500000000006 1.3803495351338204 0.34751499999999996
decision_type=2 2 2 2
left_child=1 -1 3 -3
right_child=-2 2 -4 -5
leaf_value=0.0068711405423910995 0.0084967963397502896 -0.013948442979848808 -0.017928393357075179 0.014195308073734245
leaf_weight=19 14.999999999999998 14.000000000000002 12.999999999999998 11.999999999999998
leaf_count=19 15 14 13 12
internal_value=0 -0.00219745 -0.00661548 -0.000959019
internal_weight=0 58 39 26
internal_count=73 58 39 26
is_linear=0
shrinkage=0.1


Tree=40
num_leaves=6
num_cat=0
split_feature=2 0 3 0 3
split_gain=0.155453 1.00381 0.621724 1.07149 0.205046
threshold=0.12944000000000008 0.52691500000000013 1.3135113816451327 0.54203000000000012 1.2915182827969809
decision_type=2 2 2 2 2
left_child=1 4 -2 -4 -1
right_child=2 -3 3 -5 -6
leaf_value=-0.00013999708674170751 -0.021104897887978175 0.022559432794942574 0.029517649924382557 -0.016774710640311243 -0.019448292052203959
leaf_weight=11.000000000000002 13.999999999999998 17 10.000000000000002 9.9999999999999982 10.999999999999998
leaf_count=11 14 17 10 10 11
internal_value=0 0.0043087 -0.00494233 0.00637147 -0.00979414
internal_weight=0 39 34 20 22
internal_count=73 39 34 20 22
is_linear=0
shrinkage=0.1


Tree=41
num_leaves=6
num_cat=0
split_feature=2 3 2 3 2
split_gain=0.125917 0.503597 0.394343 0.329576 0.227002
threshold=0.12944000000000008 1.3135113816451327 -0.027180000000000034 1.7539877429409225 -0.096544999999999978
decision_type=2 2 2 2 2
left_child=2 -2 4 -3 -1
right_child=1 3 -4 -5 -6
leaf_value=0.0056536702128748102 -0.018994408167366472 0.018571310015395276 0.016597164968649547 -0.007102665305137635 -0.013797188053528465
leaf_weight=11.999999999999998 13.999999999999998 10.000000000000002 14.999999999999998 9.9999999999999982 12.000000000000002
leaf_count=12 14 10 15 10 12
internal_value=0 -0.0044481 0.00387783 0.00573432 -0.00407176
internal_weight=0 34 39 20 24
internal_count=73 34 39 20 24
is_linear=0
shrinkage=0.1


Tree=42
num_leaves=6
num_cat=0
split_feature=0 3 1 1 3
split_gain=0.162504 0.162037 0.27455 0.33223 0.22629
threshold=0.67774000000000012 2.1415071311650444 0.44318500000000005 0.28601000000000004 1.3803495351338204
decision_type=2 2 2 2 2
left_child=1 2 3 -1 -4
right_child=-2 -3 4 -5 -6
leaf_value=0.0014893424425584572 0.010136181488633156 0.0094240951538085947 0.01309781114881237 -0.020522053539752963 -0.0072704290971159942
leaf_weight=12.000000000000002 12.999999999999998 9.9999999999999982 12.000000000000002 15.999999999999998 9.9999999999999982
leaf_count=12 13 10 12 16 10
internal_value=0 -0.00219617 -0.00452023 -0.0110886 0.00383952
internal_weight=0 60 50 28 22
internal_count=73 60 50 28 22
is_linear=0
shrinkage=0.1


Tree=43
num_leaves=6
num_cat=0
split_feature=0 0 2 0 0
split_gain=0.131628 0.122147 0.198149 0.205551 0.23004
threshold=0.67774000000000012 0.54790000000000016 0.22488500000000006 0.35842000000000002 0.48254500000000006
decision_type=2 2 2 2 2
left_child=1 2 3 -1 -5
right_child=-2 -3 -4 4 -6
leaf_value=-0.013936298950151964 0.0091225636245396268 -0.0088687106397830791 0.013264250783249738 0.01391522772610187 -0.0070410942150787876
leaf_weight=10.999999999999998 12.999999999999998 18 9.9999999999999982 10.000000000000002 10.999999999999998
leaf_count=11 13 18 10 10 11
internal_value=0 -0.00197656 0.000977225 -0.00286247 0.00293811
internal_weight=0 60 42 32 21
internal_count=73 60 42 32 21
is_linear=0
shrinkage=0.1


Tree=44
num_leaves=6
num_cat=0
split_feature=2 3 2 3 2
split_gain=0.125897 0.381935 0.298517 0.269407 0.186323
threshold=0.12944000000000008 1.3135113816451327 -0.027180000000000034 1.7539877429409225 -0.096544999999999978
decision_type=2 2 2 2 2
left_child=2 -2 4 -3 -1
right_child=1 3 -4 -5 -6
leaf_value=0.0057719732013841478 -0.017115672087363368 0.016026005577296012 0.014944052894910177 -0.0071863530576229103 -0.011850131054719286
leaf_weight=11.999999999999998 13.999999999999998 10.000000000000002 14.999999999999998 9.9999999999999982 12.000000000000002
leaf_count=12 14 10 15 10 12
internal_value=0 -0.00444773 0.00387751 0.00441983 -0.00303908
internal_weight=0 34 39 20 24
internal_count=73 34 39 20 24
is_linear=0
shrinkage=0.1


Tree=45
num_leaves=5
num_cat=0
split_feature=3 1 3 1
split_gain=0.114947 0.110933 0.241328 0.177121
threshold=1.8371647185205835 0.31580500000000006 1.1096048828164427 0.49178500000000008
decision_type=2 2 2 2
left_child=1 2 -1 -3
right_child=-2 3 -4 -5
leaf_value=-0.019030985683202738 0.0078028998772303269 0.0079819922090360994 0.0029384604096412657 -0.005672426090428704
leaf_weight=10.000000000000002 14.999999999999998 19 9.9999999999999982 19
leaf_count=10 15 19 10 19
internal_value=0 -0.00201799 -0.00804626 0.00115478
internal_weight=0 58 20 38
internal_count=73 58 20 38
is_linear=0
shrinkage=0.1


Tree=46
num_leaves=6
num_cat=0
split_feature=2 3 2 3 2
split_gain=0.109718 0.29035 0.231037 0.22867 0.160942
threshold=0.12944000000000008 1.3135113816451327 -0.027180000000000034 1.7539877429409225 -0.096544999999999978
decision_type=2 2 2 2 2
left_child=2 -2 4 -3 -1
right_child=1 3 -4 -5 -6
leaf_value=0.0057239203713834287 -0.015197303046339325 0.014272252842783923 0.013355538696050646 -0.0071132548153400423 -0.010653988892833388
leaf_weight=11.999999999999998 13.999999999999998 10.000000000000002 14.999999999999998 9.9999999999999982 12.000000000000002
leaf_count=12 14 10 15 10 12
internal_value=0 -0.00415213 0.0036198 0.0035795 -0.00246503
internal_weight=0 34 39 20 24
internal_count=73 34 39 20 24
is_linear=0
shrinkage=0.1


Tree=47
num_leaves=6
num_cat=0
split_feature=0 3 0 0 0
split_gain=0.117548 0.387708 0.442189 0.110934 0.248397
threshold=0.68808000000000014 1.7539877429409225 0.35842000000000002 0.50806000000000007 0.57402000000000009
decision_type=2 2 2 2 2
left_child=1 2 -1 -4 -5
right_child=-2 -3 3 4 -6
leaf_value=-0.012707993961297549 0.010072027854621411 -0.01504405087325722 0.016710302870099746 -0.005868309600786728 0.015383293869143184
leaf_weight=12.999999999999998 9.9999999999999982 15.999999999999998 11.999999999999998 11.000000000000002 10.999999999999998
leaf_count=13 10 16 12 11 11
internal_value=0 -0.00159873 0.00297839 0.00897613 0.00475749
internal_weight=0 63 47 34 22
internal_count=73 63 47 34 22
is_linear=0
shrinkage=0.1


Tree=48
num_leaves=6
num_cat=0
split_feature=3 0 2 2 0
split_gain=0.134985 0.143376 0.471263 0.119426 0.270705
threshold=1.8371647185205835 0.35842000000000002 -0.061530000000000022 0.084965000000000027 0.61655000000000004
decision_type=2 2 2 2 2
left_child=1 -1 -3 -4 -5
right_child=-2 2 3 4 -6
leaf_value=-0.011437195768723122 0.0084557118018468228 0.019630683492869141 -0.013612827557054433 0.0095905388472601744 -0.011650360810259979
leaf_weight=12.999999999999998 14.999999999999998 9.9999999999999982 10.999999999999998 12.000000000000002 11.999999999999998
leaf_count=13 15 10 11 12 12
internal_value=0 -0.00218682 0.000485508 -0.00498454 -0.00102991
internal_weight=0 58 45 35 24
internal_count=73 58 45 35 24
is_linear=0
shrinkage=0.1


Tree=49
num_leaves=6
num_cat=0
split_feature=0 3 0 3 0
split_gain=0.111915 0.342195 0.305275 0.0845776 0.189505
threshold=0.68808000000000014 1.7539877429409225 0.35842000000000002 1.3135113816451327 0.55803000000000014
decision_type=2 2 2 2 2
left_child=1 2 -1 4 -4
right_child=-2 -3 3 -5 -6
leaf_value=-0.010293475223275332 0.0098277398198843013 -0.014191469084471465 -0.004432422791918118 0.014476757387941084 0.014206925686448813
leaf_weight=12.999999999999998 9.9999999999999982 15.999999999999998 12.000000000000002 11.999999999999998 9.9999999999999982
leaf_count=13 10 16 12 12 10
internal_value=0 -0.00155996 0.00274013 0.00772357 0.00404001
internal_weight=0 63 47 34 22
internal_count=73 63 47 34 22
is_linear=0
shrinkage=0.1


Tree=50
num_leaves=6
num_cat=0
split_feature=3 1 3 3 1
split_gain=0.143194 0.0916195 0.164862 0.156597 0.142065
threshold=1.8371647185205835 0.31580500000000006 1.1096048828164427 1.0398389680930018 0.49178500000000008
decision_type=2 2 2 2 2
left_child=1 2 -1 -3 -5
right_child=-2 3 -4 4 -6
leaf_value=-0.016809935122728343 0.0087090315421422329 0.011372904591262341 0.0013483883254230024 0.005019640550017356 -0.0093740454409271482
leaf_weight=10.000000000000002 14.999999999999998 9.9999999999999982 9.9999999999999982 12.000000000000002 15.999999999999998
leaf_count=10 15 10 10 12 16
internal_value=0 -0.00225234 -0.00773077 0.000631053 -0.00320532
internal_weight=0 58 20 38 28
internal_count=73 58 20 38 28
is_linear=0
shrinkage=0.1


Tree=51
num_leaves=6
num_cat=0
split_feature=3 0 2 0 0
split_gain=0.115987 0.0922117 0.388205 0.0885955 0.143819
threshold=1.8371647185205835 0.35842000000000002 -0.061530000000000022 0.52691500000000013 0.63634500000000005
decision_type=2 2 2 2 2
left_child=1 -1 -3 -4 -5
right_child=-2 2 3 4 -6
leaf_value=-0.0094455585026970296 0.0078381279607613891 0.017492336947470905 -0.011814043422540029 0.0063563877095778772 -0.0094737435267730208
leaf_weight=12.999999999999998 14.999999999999998 9.9999999999999982 11.999999999999998 12.000000000000002 10.999999999999998
leaf_count=13 15 10 12 12 11
internal_value=0 -0.0020271 0.000116007 -0.00484866 -0.00121454
internal_weight=0 58 45 35 23
internal_count=73 58 45 35 23
is_linear=0
shrinkage=0.1


Tree=52
num_leaves=6
num_cat=0
split_feature=0 3 1 0 1
split_gain=0.118315 0.325174 0.347718 0.269962 0.484736
threshold=0.68808000000000014 1.7539877429409225 0.53135500000000013 0.40894500000000006 0.34751499999999996
decision_type=2 2 2 2 2
left_child=1 2 3 -1 -5
right_child=-2 -3 -4 4 -6
leaf_value=-0.015919416761025786 0.010104833282530309 -0.013917292980477215 0.019132778197526932 -0.01166586672576765 0.015299009581406911
leaf_weight=9.9999999999999982 9.9999999999999982 15.999999999999998 9.9999999999999982 12.000000000000002 14.999999999999998
leaf_count=10 10 16 10 12 15
internal_value=0 -0.00160394 0.00258784 -0.00188377 0.00331462
internal_weight=0 63 47 37 27
internal_count=73 63 47 37 27
is_linear=0
shrinkage=0.1


Tree=53
num_leaves=6
num_cat=0
split_feature=2 0 0 1 2
split_gain=0.0961576 0.578361 0.341111 0.119896 0.113881
threshold=0.12944000000000008 0.52691500000000013 0.495255 0.41427000000000008 0.27370000000000011
decision_type=2 2 2 2 2
left_child=1 3 -2 -1 -4
right_child=2 -3 4 -5 -6
leaf_value=6.6195445304567145e-05 0.01059649695261297 0.017242056843550766 -0.018163471194830801 -0.014698408544063568 -0.0040769920373956358
leaf_weight=11.000000000000002 10.999999999999998 17 11.000000000000002 10.999999999999998 11.999999999999998
leaf_count=11 11 17 11 11 12
internal_value=0 0.00338873 -0.00388708 -0.00731611 -0.010814
internal_weight=0 39 34 22 23
internal_count=73 39 34 22 23
is_linear=0
shrinkage=0.1


Tree=54
num_leaves=5
num_cat=0
split_feature=1 2 2 1
split_gain=0.106881 0.133269 0.551889 0.1991
threshold=0.53135500000000013 -0.027180000000000034 0.12944000000000008 0.42611000000000004
decision_type=2 2 2 2
left_child=1 -1 -3 -4
right_child=-2 2 3 -5
leaf_value=-0.009548531839733615 0.0066885775162114046 0.019984204931692645 -2.6040107888333933e-06 -0.017785132974386216
leaf_weight=17 18 10.999999999999998 17.000000000000004 9.9999999999999982
leaf_count=17 18 11 17 10
internal_value=0 -0.00218899 0.00110344 -0.00658873
internal_weight=0 55 38 27
internal_count=73 55 38 27
is_linear=0
shrinkage=0.1


Tree=55
num_leaves=5
num_cat=0
split_feature=3 3 2 2
split_gain=0.125088 0.0675374 0.0695029 0.105719
threshold=1.8371647185205835 1.0155719928782347 0.18945999999999996 0.084965000000000027
decision_type=2 2 2 2
left_child=1 -1 3 -3
right_child=-2 2 -4 -5
leaf_value=0.0034235687460750343 0.0081398245692253113 -0.006155340630855214 -0.010643309118070951 0.0061633369123393839
leaf_weight=15.999999999999998 14.999999999999998 19.000000000000004 11.999999999999998 10.999999999999998
leaf_count=16 15 19 12 11
internal_value=0 -0.00210513 -0.0042113 -0.00163849
internal_weight=0 58 42 30
internal_count=73 58 42 30
is_linear=0
shrinkage=0.1


Tree=56
num_leaves=5
num_cat=0
split_feature=3 0 1 1
split_gain=0.101321 0.0631252 0.284058 0.451806
threshold=1.8371647185205835 0.35842000000000002 0.31580500000000006 0.49178500000000008
decision_type=2 2 2 2
left_child=1 -1 -3 -4
right_child=-2 2 3 -5
leaf_value=-0.0080325449566141915 0.0073258419334888457 -0.01081779738815385 0.018699895776808258 -0.0062785549461841592
leaf_weight=12.999999999999998 14.999999999999998 15.999999999999998 14.000000000000002 14.999999999999998
leaf_count=13 15 16 14 15
internal_value=0 -0.00189461 -0.000121434 0.00578001
internal_weight=0 58 45 29
internal_count=73 58 45 29
is_linear=0
shrinkage=0.1


Tree=57
num_leaves=6
num_cat=0
split_feature=0 3 0 0 3
split_gain=0.104317 0.313925 0.174067 0.121242 0.15177
threshold=0.68808000000000014 1.7539877429409225 0.35842000000000002 0.50806000000000007 1.1096048828164427
decision_type=2 2 2 2 2
left_child=1 2 -1 -4 -5
right_child=-2 -3 3 4 -6
leaf_value=-0.0072292907593341981 0.0094882484246045368 -0.013604569272138179 0.014461129779616992 -0.0071332008764147734 0.0095474862804015483
leaf_weight=12.999999999999998 9.9999999999999982 15.999999999999998 11.999999999999998 10.000000000000002 11.999999999999998
leaf_count=13 10 16 12 10 12
internal_value=0 -0.00150607 0.00261257 0.00637563 0.00196536
internal_weight=0 63 47 34 22
internal_count=73 63 47 34 22
is_linear=0
shrinkage=0.1


Tree=58
num_leaves=5
num_cat=0
split_feature=3 2 1 3
split_gain=0.110365 0.0760451 0.148467 0.273352
threshold=1.8371647185205835 -0.061530000000000022 0.31580500000000006 1.1513957277367273
decision_type=2 2 2 2
left_child=1 -1 -3 -4
right_child=-2 2 3 -5
leaf_value=0.0041533382795751099 0.0076458109418551124 -0.013042254747751243 0.011442928326626616 -0.008041835866040653
leaf_weight=14.999999999999998 14.999999999999998 12.999999999999998 12.000000000000002 18
leaf_count=15 15 13 12 18
internal_value=0 -0.00197736 -0.00411598 -0.00024793
internal_weight=0 58 43 30
internal_count=73 58 43 30
is_linear=0
shrinkage=0.1


end of trees

feature_importances:
Column_0=83
Column_3=69
Column_2=67
Column_1=59

parameters:
[boosting: gbdt]
[objective: regression]
[metric: rmse]
[tree_learner: serial]
[device_type: cpu]
[data: ]
[valid: ]
[num_iterations: 10000]
[learning_rate: 0.1]
[num_leaves: 63]
[num_threads: 0]
[deterministic: 0]
[force_col_wise: 0]
[force_row_wise: 0]
[histogram_pool_size: -1]
[max_depth: -1]
[min_data_in_leaf: 10]
[min_sum_hessian_in_leaf: 0.001]
[bagging_fraction: 0.9]
[pos_bagging_fraction: 1]
[neg_bagging_fraction: 1]
[bagging_freq: 0]
[bagging_seed: 18467]
[feature_fraction: 0.8]
[feature_fraction_bynode: 1]
[feature_fraction_seed: 26500]
[extra_trees: 0]
[extra_seed: 15724]
[early_stopping_round: 0]
[first_metric_only: 0]
[max_delta_step: 0]
[lambda_l1: 0]
[lambda_l2: 0]
[linear_lambda: 0]
[min_gain_to_split: 0]
[drop_rate: 0.1]
[max_drop: 50]
[skip_drop: 0.5]
[xgboost_dart_mode: 0]
[uniform_drop: 0]
[drop_seed: 6334]
[top_rate: 0.2]
[other_rate: 0.1]
[min_data_per_group: 100]
[max_cat_threshold: 32]
[cat_l2: 10]
[cat_smooth: 10]
[max_cat_to_onehot: 4]
[top_k: 20]
[monotone_constraints: ]
[monotone_constraints_method: basic]
[monotone_penalty: 0]
[feature_contri: ]
[forcedsplits_filename: ]
[refit_decay_rate: 0.9]
[cegb_tradeoff: 1]
[cegb_penalty_split: 0]
[cegb_penalty_feature_lazy: ]
[cegb_penalty_feature_coupled: ]
[path_smooth: 0]
[interaction_constraints: ]
[verbosity: -1]
[saved_feature_importance_type: 0]
[linear_tree: 0]
[max_bin: 255]
[max_bin_by_feature: ]
[min_data_in_bin: 3]
[bin_construct_sample_cnt: 200000]
[data_random_seed: 41]
[is_enable_sparse: 1]
[enable_bundle: 1]
[use_missing: 1]
[zero_as_missing: 0]
[feature_pre_filter: 1]
[pre_partition: 0]
[two_round: 0]
[header: 0]
[label_column: ]
[weight_column: ]
[group_column: ]
[ignore_column: ]
[categorical_feature: ]
[forcedbins_filename: ]
[precise_float_parser: 0]
[parser_config_file: ]
[objective_seed: 19169]
[num_class: 1]
[is_unbalance: 0]
[scale_pos_weight: 1]
[sigmoid: 1]
[boost_from_average: 1]
[reg_sqrt: 0]
[alpha: 0.9]
[fair_c: 1]
[poisson_max_delta_step: 0.7]
[tweedie_variance_power: 1.5]
[lambdarank_truncation_level: 30]
[lambdarank_norm: 1]
[label_gain: ]
[lambdarank_position_bias_regularization: 0]
[eval_at: ]
[multi_error_top_k: 1]
[auc_mu_weights: ]
[num_machines: 1]
[local_listen_port: 12400]
[time_out: 120]
[machine_list_filename: ]
[machines: ]
[gpu_platform_id: -1]
[gpu_device_id: -1]
[gpu_use_dp: 0]
[num_gpu: 1]

end of parameters

pandas_categorical:null
