tree
version=v4
num_class=1
num_tree_per_iteration=1
label_index=0
max_feature_idx=3
objective=regression
feature_names=Column_0 Column_1 Column_2 Column_3
feature_infos=[0.066979999999999998:0.81057999999999997] [0.077950000000000005:0.73553999999999997] [-0.36046000000000006:0.47954000000000002] [-15.237458193979933:12.14703940127669]
tree_sizes=739 729 618 717 605 618 617 606 617 620 733 622 607 720 707 606 709 733 604 735 610 739 739 740 624 640 739 740 624 741 731 624 729 625 743 730 731 629 745 606 743 610 625 727 623 742 731 628 611 641 631 735 731 746 746 615 628 741 733 614

Tree=0
num_leaves=6
num_cat=0
split_feature=3 2 2 1 1
split_gain=27.5301 10.6439 3.21426 0.786659 1.39573
threshold=1.1674516549914968 -0.046124999999999965 -0.046124999999999965 0.50763000000000014 0.36502500000000004
decision_type=2 2 2 2 2
left_child=2 -2 -1 4 -3
right_child=1 3 -4 -5 -6
leaf_value=-0.11840486490271153 -0.032753776520904568 0.059318561022066389 -0.048968640029844315 0.053809912268900216 0.10901138532158529
leaf_weight=12.000000000000002 11.999999999999998 10.000000000000002 14.999999999999998 9.9999999999999982 12.999999999999998
leaf_count=12 12 10 15 10 13
internal_value=-7.0884e-09 0.0478975 -0.0798292 0.0772252 0.0874058
internal_weight=0 45 27 33 23
internal_count=72 45 27 33 23
is_linear=0
shrinkage=1


Tree=1
num_leaves=6
num_cat=0
split_feature=3 2 1 0 2
split_gain=22.2993 8.62159 2.6204 0.696548 0.447864
threshold=1.1674516549914968 -0.046124999999999965 0.32308000000000009 0.58099500000000004 0.16311500000000004
decision_type=2 2 2 2 2
left_child=2 -2 -1 4 -3
right_child=1 3 -4 -5 -6
leaf_value=-0.10417539569047779 -0.029478391818702224 0.06572221443057058 -0.041826346383563112 0.047469268888235099 0.093657310577956121
leaf_weight=13.000000000000002 11.999999999999998 12.000000000000002 13.999999999999998 9.9999999999999982 10.999999999999998
leaf_count=13 12 12 14 10 11
internal_value=0 0.0431078 -0.0718463 0.0695027 0.0790825
internal_weight=0 45 27 33 23
internal_count=72 45 27 33 23
is_linear=0
shrinkage=0.1


Tree=2
num_leaves=5
num_cat=0
split_feature=3 2 2 3
split_gain=18.0625 6.98349 2.43326 0.654953
threshold=1.1674516549914968 -0.046124999999999965 -0.046124999999999965 1.6381568072320798
decision_type=2 2 2 2
left_child=2 -2 -1 -3
right_child=1 3 -4 -5
leaf_value=-0.098225132624308251 -0.026530552127708992 0.07621978048016044 -0.037810832622150584 0.048030905332416302
leaf_weight=12.000000000000002 11.999999999999998 17 14.999999999999998 15.999999999999998
leaf_count=12 12 17 15 16
internal_value=0 0.038797 -0.0646616 0.0625524
internal_weight=0 45 27 33
internal_count=72 45 27 33
is_linear=0
shrinkage=0.1


Tree=3
num_leaves=6
num_cat=0
split_feature=3 2 2 1 3
split_gain=14.8137 4.30266 3.13151 0.699353 0.113303
threshold=1.2551872918117011 -0.023900000000000029 -0.046124999999999965 0.50763000000000014 1.7399912252572722
decision_type=2 2 2 2 2
left_child=2 -2 -1 4 -3
right_child=1 3 -4 -5 -6
leaf_value=-0.090615873210705231 -0.015395915406671437 0.074769735471768767 -0.025416811818585679 0.035635597258806231 0.060062417685985574
leaf_weight=13.000000000000002 10.999999999999998 11.000000000000005 17 9.9999999999999982 9.9999999999999982
leaf_count=13 11 11 17 10 10
internal_value=0 0.0383355 -0.0536697 0.0574015 0.0677663
internal_weight=0 42 30 31 21
internal_count=72 42 30 31 21
is_linear=0
shrinkage=0.1


Tree=4
num_leaves=5
num_cat=0
split_feature=3 2 1 3
split_gain=12.0234 4.66002 1.88925 0.518566
threshold=1.1674516549914968 -0.046124999999999965 0.30961 1.6381568072320798
decision_type=2 2 2 2
left_child=2 -2 -1 -3
right_child=1 3 -4 -5
leaf_value=-0.082330585534994782 -0.021711072387794655 0.063220296997357817 -0.029096426963806155 0.038137577567249538
leaf_weight=12.000000000000002 11.999999999999998 17 14.999999999999998 15.999999999999998
leaf_count=12 12 17 15 16
internal_value=0 0.0316536 -0.0527561 0.051059
internal_weight=0 45 27 33
internal_count=72 45 27 33
is_linear=0
shrinkage=0.1


Tree=5
num_leaves=5
num_cat=0
split_feature=3 1 1 2
split_gain=9.91309 3.58108 3.26809 2.33908
threshold=1.2551872918117011 0.32308000000000009 0.50763000000000014 -0.046124999999999965
decision_type=2 2 2 2
left_child=3 -2 -3 -1
right_child=1 2 -4 -5
leaf_value=-0.075834998029928935 -0.017659375444054604 0.080191570546594426 0.015220169958968958 -0.019485858082771302
leaf_weight=13.000000000000002 10.999999999999998 16.000000000000004 14.999999999999998 17
leaf_count=13 11 16 15 17
internal_value=0 0.0313599 0.0487538 -0.0439038
internal_weight=0 42 31 30
internal_count=72 42 31 30
is_linear=0
shrinkage=0.1


Tree=6
num_leaves=5
num_cat=0
split_feature=3 1 1 2
split_gain=8.0296 2.90067 2.64715 1.89466
threshold=1.2551872918117011 0.32308000000000009 0.50763000000000014 -0.046124999999999965
decision_type=2 2 2 2
left_child=3 -2 -3 -1
right_child=1 2 -4 -5
leaf_value=-0.068251498158161436 -0.015893437916582282 0.072172413719817988 0.013698152955621483 -0.017537272064124837
leaf_weight=13.000000000000002 10.999999999999998 16.000000000000004 14.999999999999998 17
leaf_count=13 11 16 15 17
internal_value=0 0.0282239 0.0438784 -0.0395134
internal_weight=0 42 31 30
internal_count=72 42 31 30
is_linear=0
shrinkage=0.1


Tree=7
num_leaves=5
num_cat=0
split_feature=3 2 1 2
split_gain=6.57738 3.00144 1.36409 0.437621
threshold=1.1674516549914968 -0.046124999999999965 0.30961 0.15139500000000006
decision_type=2 2 2 2
left_child=2 -2 -1 -3
right_child=1 3 -4 -5
leaf_value=-0.06414985035856563 -0.019415841018781067 0.051600441423555216 -0.018915691177050276 0.028473170184426841
leaf_weight=12.000000000000002 11.999999999999998 14.999999999999998 14.999999999999998 18
leaf_count=12 12 15 15 18
internal_value=0 0.0234119 -0.0390198 0.0389856
internal_weight=0 45 27 33
internal_count=72 45 27 33
is_linear=0
shrinkage=0.1


Tree=8
num_leaves=5
num_cat=0
split_feature=3 1 1 2
split_gain=5.37533 2.18357 2.02071 1.40707
threshold=1.2551872918117011 0.32308000000000009 0.50763000000000014 -0.046124999999999965
decision_type=2 2 2 2
left_child=3 -2 -3 -1
right_child=1 2 -4 -5
leaf_value=-0.057095246074291367 -0.01518488506024534 0.061395343299955121 0.010306412304441135 -0.013391159869292202
leaf_weight=13.000000000000002 10.999999999999998 16.000000000000004 14.999999999999998 17
leaf_count=13 11 16 15 17
internal_value=0 0.0230926 0.0366749 -0.0323296
internal_weight=0 42 31 30
internal_count=72 42 31 30
is_linear=0
shrinkage=0.1


Tree=9
num_leaves=5
num_cat=0
split_feature=3 0 1 2
split_gain=4.37853 2.42262 1.0464 0.969222
threshold=1.1674516549914968 0.42132500000000001 0.30961 0.15139500000000006
decision_type=2 2 2 2
left_child=2 -2 -1 -3
right_child=1 3 -4 -5
leaf_value=-0.053846343886107199 -0.015424780414572785 0.051814891584217537 -0.014228203793366751 0.016432522932688397
leaf_weight=12.000000000000002 13.999999999999998 16.000000000000004 14.999999999999998 14.999999999999998
leaf_count=12 14 16 15 15
internal_value=0 0.0191018 -0.0318363 0.0346944
internal_weight=0 45 27 31
internal_count=72 45 27 31
is_linear=0
shrinkage=0.1


Tree=10
num_leaves=6
num_cat=0
split_feature=1 2 0 3 0
split_gain=3.65255 2.20217 2.01183 1.5955 0.635703
threshold=0.32308000000000009 -0.046124999999999965 0.59944000000000008 1.1177375954854134 0.48254500000000006
decision_type=2 2 2 2 2
left_child=3 -2 4 -1 -3
right_child=1 2 -4 -5 -6
leaf_value=-0.058395156264305095 -0.023939544521272185 0.029113661612455655 -0.0086370246112346654 -0.0089215302723459899 0.061031608081733191
leaf_weight=11.000000000000002 9.9999999999999982 13.000000000000002 9.9999999999999982 15.999999999999998 11.999999999999998
leaf_count=11 10 13 10 16 12
internal_value=0 0.0174465 0.029271 -0.0290775 0.0444343
internal_weight=0 45 35 27 25
internal_count=72 45 35 27 25
is_linear=0
shrinkage=0.1


Tree=11
num_leaves=5
num_cat=0
split_feature=3 1 1 2
split_gain=3.08444 1.44197 1.38485 0.889684
threshold=1.2551872918117011 0.32308000000000009 0.50763000000000014 -0.046124999999999965
decision_type=2 2 2 2
left_child=3 -2 -3 -1
right_child=1 2 -4 -5
leaf_value=-0.044182769280786689 -0.013612753288312393 0.048994938470423216 0.0067011270920435588 -0.0094305673504576984
leaf_weight=13.000000000000002 10.999999999999998 16.000000000000004 14.999999999999998 17
leaf_count=13 11 16 15 17
internal_value=0 0.0174928 0.0285302 -0.0244899
internal_weight=0 42 31 30
internal_count=72 42 31 30
is_linear=0
shrinkage=0.1


Tree=12
num_leaves=5
num_cat=0
split_feature=2 0 0 1
split_gain=2.50657 3.00528 1.31051 0.846698
threshold=-0.046124999999999965 0.61077500000000018 0.42132500000000001 0.43937500000000002
decision_type=2 2 2 2
left_child=2 3 -1 -2
right_child=1 -3 -4 -5
leaf_value=-0.047881964966654769 0.013469130852643183 -0.025800499586122377 -0.00098364298993890934 0.045030434100943456
leaf_weight=13.000000000000002 17 13.999999999999998 10.999999999999998 17
leaf_count=13 17 14 11 17
internal_value=0 0.0131935 -0.0263869 0.0292498
internal_weight=0 48 24 34
internal_count=72 48 24 34
is_linear=0
shrinkage=0.1


Tree=13
num_leaves=6
num_cat=0
split_feature=3 0 1 2 0
split_gain=2.32105 1.93749 1.17464 0.528923 0.273771
threshold=1.1177375954854134 0.37419000000000008 0.30961 0.15139500000000006 0.49733500000000003
decision_type=2 2 2 2 2
left_child=2 -2 -1 4 -3
right_child=1 3 -4 -5 -6
leaf_value=-0.051568097472190849 -0.02415130829269236 0.022367605905641203 -0.0066941952066762109 0.0091706344485282896 0.044678263501687486
leaf_weight=10.000000000000002 10.999999999999998 11.000000000000002 13.999999999999998 14.999999999999998 10.999999999999998
leaf_count=10 11 11 14 15 11
internal_value=0 0.0126958 -0.0253917 0.0236504 0.0335229
internal_weight=0 48 24 37 22
internal_count=72 48 24 37 22
is_linear=0
shrinkage=0.1


Tree=14
num_leaves=6
num_cat=0
split_feature=3 1 1 2 2
split_gain=2.00456 1.11049 1.62079 0.653268 1.90994
threshold=1.2987004683105183 0.32308000000000009 0.486655 -0.046124999999999965 0.19967500000000002
decision_type=2 2 2 2 2
left_child=3 -2 -3 -1 -5
right_child=1 2 -4 4 -6
leaf_value=-0.035590690603623021 -0.011573502692309293 0.05583485622297632 0.0065717308508122674 0.024106843322515479 -0.037698377966880803
leaf_weight=12.999999999999998 10.999999999999998 11.000000000000002 17 10.000000000000002 9.9999999999999982
leaf_count=13 11 11 17 10 10
internal_value=0 0.0153486 0.0259251 -0.0181392 -0.00679577
internal_weight=0 39 28 33 20
internal_count=72 39 28 33 20
is_linear=0
shrinkage=0.1


Tree=15
num_leaves=5
num_cat=0
split_feature=2 0 0 1
split_gain=1.65521 2.18153 0.943445 0.592463
threshold=-0.046124999999999965 0.61077500000000018 0.42132500000000001 0.43937500000000002
decision_type=2 2 2 2
left_child=2 3 -1 -2
right_child=1 -3 -4 -5
leaf_value=-0.03968050548663505 0.011200669188709822 -0.022501471505633423 0.00011150251058014956 0.037601722535841604
leaf_weight=13.000000000000002 17 13.999999999999998 10.999999999999998 17
leaf_count=13 17 14 11 17
internal_value=0 0.0107213 -0.0214425 0.0244012
internal_weight=0 48 24 34
internal_count=72 48 24 34
is_linear=0
shrinkage=0.1


Tree=16
num_leaves=6
num_cat=0
split_feature=3 1 1 2 2
split_gain=1.51433 0.809159 1.2675 0.595479 0.605984
threshold=1.2987004683105183 0.32308000000000009 0.486655 0.1354750000000001 -0.057765000000000004
decision_type=2 2 2 2 2
left_child=3 -2 -3 4 -1
right_child=1 2 -4 -5 -6
leaf_value=-0.021808054027232258 -0.0096405457366596572 0.048818468099290663 0.0052539668538991143 -0.033536225060621899 0.012204870283603664
leaf_weight=10.999999999999998 10.999999999999998 11.000000000000002 17 11.999999999999998 10.000000000000002
leaf_count=11 11 11 17 12 10
internal_value=0 0.0133404 0.0223686 -0.0157659 -0.00561142
internal_weight=0 39 28 33 21
internal_count=72 39 28 33 21
is_linear=0
shrinkage=0.1


Tree=17
num_leaves=6
num_cat=0
split_feature=3 0 0 1 0
split_gain=1.27298 1.20013 0.909177 1.02508 0.647429
threshold=0.98591328485635876 0.33406000000000008 0.61077500000000018 0.32308000000000009 0.53337500000000004
decision_type=2 2 2 2 2
left_child=-1 -2 3 -3 -5
right_child=1 2 -4 4 -6
leaf_value=-0.029732400116821128 -0.023903177001259546 -0.0075069282948970794 -0.012670129554515536 0.01845764780624045 0.050192677918821572
leaf_weight=11.999999999999998 10.999999999999998 9.9999999999999982 10.999999999999998 18.000000000000004 9.9999999999999982
leaf_count=12 11 10 11 18 10
internal_value=0 0.00594648 0.0126474 0.0199762 0.0297916
internal_weight=0 60 49 38 28
internal_count=72 60 49 38 28
is_linear=0
shrinkage=0.1


Tree=18
num_leaves=5
num_cat=0
split_feature=2 0 0 1
split_gain=1.15481 1.38419 0.65519 0.395294
threshold=-0.046124999999999965 0.61077500000000018 0.40018000000000004 0.43937500000000002
decision_type=2 2 2 2
left_child=2 3 -1 -2
right_child=1 -3 -4 -5
leaf_value=-0.035872280868616956 0.0090695073937668517 -0.017508662791390503 -0.00271175721516976 0.03063456497209914
leaf_weight=11.000000000000002 17 13.999999999999998 12.999999999999998 17
leaf_count=11 17 14 13 17
internal_value=0 0.00895517 -0.0179103 0.019852
internal_weight=0 48 24 34
internal_count=72 48 24 34
is_linear=0
shrinkage=0.1


Tree=19
num_leaves=6
num_cat=0
split_feature=3 3 1 2 3
split_gain=0.970778 0.627752 0.584475 0.469036 0.372273
threshold=1.2987004683105183 1.6381568072320798 0.52081500000000014 0.1354750000000001 1.0385363890560142
decision_type=2 2 2 2 2
left_child=3 -2 -3 4 -1
right_child=1 2 -4 -5 -6
leaf_value=-0.016305830397389146 0.026729187816381457 0.013840185664594171 -0.017813530564308167 -0.028394401612846804 0.010353182610124349
leaf_weight=11.000000000000002 14.999999999999998 14.000000000000002 9.9999999999999982 11.999999999999998 9.9999999999999982
leaf_count=11 15 14 10 12 10
internal_value=0 0.0106812 0.000651137 -0.0126232 -0.00361106
internal_weight=0 39 24 33 21
internal_count=72 39 24 33 21
is_linear=0
shrinkage=0.1


Tree=20
num_leaves=5
num_cat=0
split_feature=2 0 0 1
split_gain=0.941338 0.998744 0.503232 0.312614
threshold=-0.046124999999999965 0.61077500000000018 0.40018000000000004 0.43937500000000002
decision_type=2 2 2 2
left_child=2 3 -1 -2
right_child=1 -3 -4 -5
leaf_value=-0.03191221539269793 0.0077525727889117078 -0.014394041809386441 -0.0028504632126826507 0.026930191200774386
leaf_weight=11.000000000000002 17 13.999999999999998 12.999999999999998 17
leaf_count=11 17 14 13 17
internal_value=0 0.00808522 -0.0161704 0.0173414
internal_weight=0 48 24 34
internal_count=72 48 24 34
is_linear=0
shrinkage=0.1


Tree=21
num_leaves=6
num_cat=0
split_feature=1 1 0 2 0
split_gain=0.807781 0.840952 0.714509 0.743984 0.170339
threshold=0.32308000000000009 0.24836000000000003 0.37419000000000008 0.09275499999999999 0.54492000000000018
decision_type=2 2 2 2 2
left_child=1 -1 -2 -4 -5
right_child=2 -3 3 4 -6
leaf_value=0.0060571379959583269 -0.013948842341249641 -0.029459441552559536 0.033052310507212371 0.012224271446466442 -0.0062331804074347019
leaf_weight=12.000000000000002 10.999999999999998 14.999999999999998 13.999999999999998 10.000000000000002 9.9999999999999982
leaf_count=12 11 15 14 10 10
internal_value=0 -0.0136743 0.00820458 0.0153719 0.00299555
internal_weight=0 27 45 34 20
internal_count=72 27 45 34 20
is_linear=0
shrinkage=0.1


Tree=22
num_leaves=6
num_cat=0
split_feature=3 2 0 3 1
split_gain=0.764622 0.559427 1.15995 0.287695 0.271337
threshold=1.8517814675254678 -0.046124999999999965 0.61077500000000018 1.1177375954854134 0.43937500000000002
decision_type=2 2 2 2 2
left_child=1 3 4 -1 -3
right_child=-2 2 -4 -5 -6
leaf_value=-0.030754832830280056 0.020088561922311784 0.0042548930415740377 -0.023559111504194638 -0.0067675640434026714 0.025107606003681823
leaf_weight=10.000000000000002 14.999999999999998 13.000000000000002 11.999999999999998 9.9999999999999982 11.999999999999998
leaf_count=10 15 13 12 10 12
internal_value=0 -0.00528646 0.00199718 -0.0187612 0.0142642
internal_weight=0 57 37 20 25
internal_count=72 57 37 20 25
is_linear=0
shrinkage=0.1


Tree=23
num_leaves=6
num_cat=0
split_feature=3 2 0 0 1
split_gain=0.619344 0.453136 0.939558 0.273152 0.219783
threshold=1.8517814675254678 -0.046124999999999965 0.61077500000000018 0.40018000000000004 0.43937500000000002
decision_type=2 2 2 2 2
left_child=1 3 4 -1 -3
right_child=-2 2 -4 -5 -6
leaf_value=-0.028571645617485038 0.018079705834388733 0.0038294041386017423 -0.021203200456996762 -0.005198510130867362 0.022596845154960951
leaf_weight=10.000000000000002 14.999999999999998 13.000000000000002 11.999999999999998 9.9999999999999982 11.999999999999998
leaf_count=10 15 13 12 10 12
internal_value=0 -0.00475782 0.00179746 -0.0168851 0.0128378
internal_weight=0 57 37 20 25
internal_count=72 57 37 20 25
is_linear=0
shrinkage=0.1


Tree=24
num_leaves=5
num_cat=0
split_feature=2 2 0 3
split_gain=0.51687 0.555781 1.00624 0.347731
threshold=-0.046124999999999965 0.1354750000000001 0.59944000000000008 1.1177375954854134
decision_type=2 2 2 2
left_child=3 -2 -3 -1
right_child=1 2 -4 -5
leaf_value=-0.026224572192877521 0.020521869554239163 0.012340754035272095 -0.024647618674983583 -0.0018092111285243715
leaf_weight=10.000000000000002 17 19.000000000000004 11.999999999999998 13.999999999999998
leaf_count=10 17 19 12 14
internal_value=0 0.00599114 -0.00197733 -0.0119823
internal_weight=0 48 31 24
internal_count=72 48 31 24
is_linear=0
shrinkage=0.1


Tree=25
num_leaves=5
num_cat=0
split_feature=3 0 2 3
split_gain=0.466439 0.347012 0.725835 0.572959
threshold=1.8517814675254678 0.37419000000000008 0.15139500000000006 1.1177375954854134
decision_type=2 2 2 2
left_child=1 -1 3 -3
right_child=-2 2 -4 -5
leaf_value=-0.016619064658880234 0.015690006787578266 -0.0071516462042927722 -0.015886472468264402 0.023750328868627549
leaf_weight=15.999999999999998 14.999999999999998 10.000000000000002 15.999999999999998 14.999999999999998
leaf_count=16 15 10 16 15
internal_value=0 -0.00412895 0.000745242 0.0113895
internal_weight=0 57 41 25
internal_count=72 57 41 25
is_linear=0
shrinkage=0.1


Tree=26
num_leaves=6
num_cat=0
split_feature=2 2 0 0 3
split_gain=0.42823 0.411313 0.681602 0.302204 0.198858
threshold=-0.046124999999999965 0.09275499999999999 0.59944000000000008 0.42132500000000001 1.6027002856242401
decision_type=2 2 2 2 2
left_child=3 -2 4 -1 -3
right_child=1 2 -4 -5 -6
leaf_value=-0.021228681791287198 0.019879116969449179 0.0013750578192147339 -0.018482280938098065 0.001292335546829484 0.020859355963766577
leaf_weight=13.000000000000002 13.999999999999998 11.000000000000002 12.999999999999998 10.999999999999998 9.9999999999999982
leaf_count=13 14 11 13 11 10
internal_value=0 0.00545327 -0.000486778 -0.0109065 0.0106533
internal_weight=0 48 34 24 21
internal_count=72 48 34 24 21
is_linear=0
shrinkage=0.1


Tree=27
num_leaves=6
num_cat=0
split_feature=1 1 0 0 3
split_gain=0.394115 0.702687 0.506685 0.647241 0.212678
threshold=0.32308000000000009 0.24836000000000003 0.51684500000000011 0.59944000000000008 1.2987004683105183
decision_type=2 2 2 2 2
left_child=1 -1 4 -4 -2
right_child=2 -3 3 -5 -6
leaf_value=0.0084851188890752351 -0.01505635000765323 -0.02398071403304736 0.035583957433700547 -0.00039494864642620087 0.0037708453088998797
leaf_weight=12.000000000000002 10.000000000000002 14.999999999999998 10.000000000000002 9.9999999999999982 14.999999999999998
leaf_count=12 10 15 10 10 15
internal_value=0 -0.00955145 0.00573087 0.0175945 -0.00376003
internal_weight=0 27 45 20 25
internal_count=72 27 45 20 25
is_linear=0
shrinkage=0.1


Tree=28
num_leaves=5
num_cat=0
split_feature=3 3 1 1
split_gain=0.331878 0.27155 0.556041 0.250882
threshold=1.8517814675254678 1.6027002856242401 0.43937500000000002 0.26217000000000007
decision_type=2 2 2 2
left_child=1 2 3 -1
right_child=-2 -3 -4 -5
leaf_value=0.0037227711301635602 0.013234729357063772 -0.016848869249224664 0.015046775271184743 -0.015446299925032589
leaf_weight=11.000000000000002 14.999999999999998 11.999999999999998 15.999999999999998 18
leaf_count=11 15 12 16 18
internal_value=0 -0.00348282 8.14553e-05 -0.00817527
internal_weight=0 57 45 29
internal_count=72 57 45 29
is_linear=0
shrinkage=0.1


Tree=29
num_leaves=6
num_cat=0
split_feature=2 2 3 0 0
split_gain=0.312605 0.365469 0.496881 0.719538 0.22494
threshold=-0.046124999999999965 0.09275499999999999 1.2987004683105183 0.53337500000000004 0.42132500000000001
decision_type=2 2 2 2 2
left_child=4 -2 -3 -4 -1
right_child=1 2 3 -5 -6
leaf_value=-0.018223884071295073 0.018257421361548561 -0.016304705277658427 0.026220529594204636 -0.010842433720827103 0.0012060250494290482
leaf_weight=13.000000000000002 13.999999999999998 12.999999999999998 11.000000000000002 9.9999999999999982 10.999999999999998
leaf_count=13 14 13 11 10 11
internal_value=0 0.00465925 -0.000939991 0.0085715 -0.00931851
internal_weight=0 48 34 21 24
internal_count=72 48 34 21 24
is_linear=0
shrinkage=0.1


Tree=30
num_leaves=6
num_cat=0
split_feature=1 1 0 0 2
split_gain=0.269846 0.544166 0.461532 0.504596 0.132836
threshold=0.32308000000000009 0.24836000000000003 0.51684500000000011 0.59944000000000008 0.075835
decision_type=2 2 2 2 2
left_child=1 -1 4 -4 -2
right_child=2 -3 3 -5 -6
leaf_value=0.0079688144071648499 -0.011903070278155304 -0.020601246108611426 0.031948641985654821 0.00018086202442646026 0.0026872859587176489
leaf_weight=12.000000000000002 12.000000000000002 14.999999999999998 10.000000000000002 9.9999999999999982 12.999999999999998
leaf_count=12 12 15 10 10 13
internal_value=0 -0.00790344 0.00474206 0.0160648 -0.00431609
internal_weight=0 27 45 20 25
internal_count=72 27 45 20 25
is_linear=0
shrinkage=0.1


Tree=31
num_leaves=5
num_cat=0
split_feature=3 3 1 1
split_gain=0.246067 0.24082 0.378486 0.176597
threshold=1.8517814675254678 1.6027002856242401 0.43937500000000002 0.26217000000000007
decision_type=2 2 2 2
left_child=1 2 3 -1
right_child=-2 -3 -4 -5
leaf_value=0.0035278635649857188 0.011395986812810104 -0.015586005710065366 0.012704503821441905 -0.012554793371560258
leaf_weight=11.000000000000002 14.999999999999998 11.999999999999998 15.999999999999998 18
leaf_count=11 15 12 16 18
internal_value=0 -0.00299894 0.000357606 -0.00645448
internal_weight=0 57 45 29
internal_count=72 57 45 29
is_linear=0
shrinkage=0.1


Tree=32
num_leaves=6
num_cat=0
split_feature=0 2 2 2 1
split_gain=0.225641 1.04685 0.659274 0.245182 0.0787209
threshold=0.53337500000000004 0.15139500000000006 1.0000000180025095e-35 -0.11497000000000003 0.43937500000000002
decision_type=2 2 2 2 2
left_child=2 -2 3 -1 -4
right_child=1 -3 4 -5 -6
leaf_value=-0.0059274052456021291 0.027985431375698394 -0.0097115736345157917 0.013635148108005519 -0.027562455384230074 0.0013760577142238617
leaf_weight=10.000000000000002 13.000000000000002 17 11.000000000000002 10.999999999999998 9.9999999999999982
leaf_count=10 13 17 11 11 10
internal_value=0 0.0066238 -0.00473128 -0.0172601 0.00779749
internal_weight=0 30 42 21 21
internal_count=72 30 42 21 21
is_linear=0
shrinkage=0.1


Tree=33
num_leaves=5
num_cat=0
split_feature=0 2 1 1
split_gain=0.201057 0.498076 0.454398 0.550411
threshold=0.37419000000000008 -0.057765000000000004 0.32308000000000009 0.50763000000000014
decision_type=2 2 2 2
left_child=-1 -2 -3 -4
right_child=1 2 3 -5
leaf_value=-0.009152796988685926 0.020106704389819735 -0.018722692312439903 0.016833145590499043 -0.010868833894626452
leaf_weight=18 12.999999999999998 11.999999999999998 16.000000000000004 12.999999999999998
leaf_count=18 13 12 16 13
internal_value=0 0.00305093 -0.002357 0.00441502
internal_weight=0 54 41 29
internal_count=72 54 41 29
is_linear=0
shrinkage=0.1


Tree=34
num_leaves=6
num_cat=0
split_feature=2 2 3 0 3
split_gain=0.225749 0.307003 0.355826 0.511151 0.174592
threshold=-0.046124999999999965 0.09275499999999999 1.2987004683105183 0.53337500000000004 1.1177375954854134
decision_type=2 2 2 2 2
left_child=4 -2 -3 -4 -1
right_child=1 2 3 -5 -6
leaf_value=-0.018010693788528438 0.016422520737562861 -0.014174652314529971 0.021751935972662808 -0.0094863934814929975 -0.0007103733718395234
leaf_weight=10.000000000000002 13.999999999999998 12.999999999999998 11.000000000000002 9.9999999999999982 13.999999999999998
leaf_count=10 14 13 11 10 14
internal_value=0 0.00395942 -0.00117244 0.00687654 -0.00791884
internal_weight=0 48 34 21 24
internal_count=72 48 34 21 24
is_linear=0
shrinkage=0.1


Tree=35
num_leaves=6
num_cat=0
split_feature=0 2 2 2 0
split_gain=0.216588 0.73653 0.470806 0.206339 0.0935697
threshold=0.53337500000000004 0.15139500000000006 1.0000000180025095e-35 -0.11497000000000003 0.45341000000000004
decision_type=2 2 2 2 2
left_child=2 -2 3 -1 -4
right_child=1 -3 4 -5 -6
leaf_value=-0.0048267152160406104 0.024407469108700747 -0.0072123694945784179 0.012953075356781481 -0.024674110453237186 -0.00041229176250371068
leaf_weight=10.000000000000002 13.000000000000002 17 10.000000000000002 10.999999999999998 10.999999999999998
leaf_count=10 13 17 10 11 11
internal_value=0 0.00648956 -0.0046354 -0.015223 0.00595217
internal_weight=0 30 42 21 21
internal_count=72 30 42 21 21
is_linear=0
shrinkage=0.1


Tree=36
num_leaves=6
num_cat=0
split_feature=0 2 2 2 2
split_gain=0.175437 0.596589 0.381353 0.167134 0.0816772
threshold=0.53337500000000004 0.15139500000000006 1.0000000180025095e-35 -0.11497000000000003 0.16311500000000004
decision_type=2 2 2 2 2
left_child=2 -2 3 -1 -4
right_child=1 -3 4 -5 -6
leaf_value=-0.0043440435826778397 0.021966722435676128 -0.0064911325188244098 -0.0005893152037804776 -0.022206697917797349 0.011897845268249512
leaf_weight=10.000000000000002 13.000000000000002 17 11.000000000000002 10.999999999999998 9.9999999999999982
leaf_count=10 13 17 11 11 10
internal_value=0 0.0058406 -0.00417186 -0.0137007 0.00535695
internal_weight=0 30 42 21 21
internal_count=72 30 42 21 21
is_linear=0
shrinkage=0.1


Tree=37
num_leaves=5
num_cat=0
split_feature=0 2 1 1
split_gain=0.159999 0.433884 0.334679 0.418865
threshold=0.37419000000000008 -0.057765000000000004 0.32308000000000009 0.50763000000000014
decision_type=2 2 2 2
left_child=-1 -2 -3 -4
right_child=1 2 3 -5
leaf_value=-0.0081649317509598206 0.018640429927752569 -0.016371060783664387 0.014319092081859705 -0.0098468892204646892
leaf_weight=18 12.999999999999998 11.999999999999998 16.000000000000004 12.999999999999998
leaf_count=18 13 12 16 13
internal_value=0 0.00272164 -0.00232578 0.00348607
internal_weight=0 54 41 29
internal_count=72 54 41 29
is_linear=0
shrinkage=0.1


Tree=38
num_leaves=6
num_cat=0
split_feature=2 2 3 0 3
split_gain=0.173177 0.216947 0.292123 0.342822 0.140363
threshold=-0.046124999999999965 0.09275499999999999 1.2987004683105183 0.53337500000000004 1.1177375954854134
decision_type=2 2 2 2 2
left_child=4 -2 -3 -4 -1
right_child=1 2 3 -5 -6
leaf_value=-0.015984435845166439 0.013944757224193641 -0.012627110114464393 0.018629137282683086 -0.0069536294788122184 -0.00047243007325700352
leaf_weight=10.000000000000002 13.999999999999998 12.999999999999998 11.000000000000002 9.9999999999999982 13.999999999999998
leaf_count=10 14 13 11 10 14
internal_value=0 0.00346788 -0.000846124 0.00644687 -0.00693577
internal_weight=0 48 34 21 24
internal_count=72 48 34 21 24
is_linear=0
shrinkage=0.1


Tree=39
num_leaves=5
num_cat=0
split_feature=0 2 2 3
split_gain=0.166586 0.411556 0.280784 0.188446
threshold=0.53337500000000004 0.15139500000000006 0.16311500000000004 1.4829601797024685
decision_type=2 2 2 2
left_child=2 -2 3 -1
right_child=1 -3 -4 -5
leaf_value=-0.0022883411987047447 0.019085255143447562 -0.0045510055825990796 0.0105610904796049 -0.01791335797080627
leaf_weight=19 13.000000000000002 17 9.9999999999999982 12.999999999999998
leaf_count=19 13 17 10 13
internal_value=0 0.00569137 -0.00406527 -0.008636
internal_weight=0 30 42 32
internal_count=72 30 42 32
is_linear=0
shrinkage=0.1


Tree=40
num_leaves=6
num_cat=0
split_feature=2 2 3 0 3
split_gain=0.136474 0.16437 0.249929 0.269095 0.128009
threshold=-0.046124999999999965 0.09275499999999999 1.2987004683105183 0.53337500000000004 1.1177375954854134
decision_type=2 2 2 2 2
left_child=4 -2 -3 -4 -1
right_child=1 2 3 -5 -6
leaf_value=-0.014798366669565436 0.012197926281286138 -0.011573508553780042 0.016862361192364578 -0.0058031657338142402 1.5285730894122806e-05
leaf_weight=10.000000000000002 13.999999999999998 12.999999999999998 11.000000000000002 9.9999999999999982 13.999999999999998
leaf_count=10 14 13 11 10 14
internal_value=0 0.00307853 -0.000676509 0.00606925 -0.00615707
internal_weight=0 48 34 21 24
internal_count=72 48 34 21 24
is_linear=0
shrinkage=0.1


Tree=41
num_leaves=5
num_cat=0
split_feature=0 2 2 3
split_gain=0.157169 0.304229 0.218578 0.175053
threshold=0.53337500000000004 0.15139500000000006 0.16311500000000004 1.4829601797024685
decision_type=2 2 2 2
left_child=2 -2 3 -1
right_child=1 -3 -4 -5
leaf_value=-0.001863540875676431 0.017043923414670502 -0.0032779863432926292 0.0089561801776289942 -0.016923059967274851
leaf_weight=19 13.000000000000002 17 9.9999999999999982 12.999999999999998
leaf_count=19 13 17 10 13
internal_value=0 0.00552817 -0.0039487 -0.00798147
internal_weight=0 30 42 32
internal_count=72 30 42 32
is_linear=0
shrinkage=0.1


Tree=42
num_leaves=5
num_cat=0
split_feature=1 1 0 3
split_gain=0.138198 0.432726 0.295548 0.194058
threshold=0.24836000000000003 0.32308000000000009 0.53337500000000004 1.3353602225578711
decision_type=2 2 2 2
left_child=-1 -2 3 -3
right_child=1 2 -4 -5
leaf_value=0.0097964570236702755 -0.016668578597406548 -0.012471067002759528 0.012869331054389477 0.0044962223885314807
leaf_weight=11.999999999999998 14.999999999999998 13.000000000000002 18 13.999999999999998
leaf_count=12 15 13 18 14
internal_value=0 -0.00195929 0.0029438 -0.00367321
internal_weight=0 60 45 27
internal_count=72 60 45 27
is_linear=0
shrinkage=0.1


Tree=43
num_leaves=6
num_cat=0
split_feature=2 1 3 0 1
split_gain=0.116875 0.32318 0.203955 0.185744 0.119467
threshold=0.16311500000000004 0.43937500000000002 1.4829601797024685 0.46659000000000006 0.486655
decision_type=2 2 2 2 2
left_child=2 -2 3 -1 -4
right_child=1 -3 4 -5 -6
leaf_value=0.010723663651983118 -0.003759133021036783 0.01944932747632265 -0.002863624691963195 -0.0058761771911611926 -0.018321103975176813
leaf_weight=14.000000000000002 15.000000000000002 9.9999999999999982 10.000000000000002 12.999999999999998 9.9999999999999982
leaf_count=14 15 10 10 13 10
internal_value=0 0.00552425 -0.00293843 0.00273115 -0.0105924
internal_weight=0 25 47 27 20
internal_count=72 25 47 27 20
is_linear=0
shrinkage=0.1


Tree=44
num_leaves=5
num_cat=0
split_feature=1 1 0 3
split_gain=0.11326 0.34296 0.240164 0.185215
threshold=0.24836000000000003 0.32308000000000009 0.53337500000000004 1.3353602225578711
decision_type=2 2 2 2
left_child=-1 -2 3 -3
right_child=1 2 -4 -5
leaf_value=0.0088686553295701746 -0.014868775730331739 -0.011968658735545779 0.011538604150215785 0.0046075323330504554
leaf_weight=11.999999999999998 14.999999999999998 13.000000000000002 18 13.999999999999998
leaf_count=12 15 13 18 14
internal_value=0 -0.00177373 0.00259128 -0.0033736
internal_weight=0 60 45 27
internal_count=72 60 45 27
is_linear=0
shrinkage=0.1


Tree=45
num_leaves=6
num_cat=0
split_feature=3 3 1 0 1
split_gain=0.108729 0.29836 0.249818 0.163437 0.0659937
threshold=1.6381568072320798 1.3353602225578711 0.52081500000000014 0.53337500000000004 0.39369000000000004
decision_type=2 2 2 2 2
left_child=1 3 -2 4 -1
right_child=2 -3 -4 -5 -6
leaf_value=-0.0016191053390502926 0.0031269877084663931 0.016403420867087942 -0.017567442171275618 0.0061683688561121625 -0.012843539811332117
leaf_weight=10.000000000000002 14.000000000000002 11.999999999999998 9.9999999999999982 14.999999999999998 10.999999999999998
leaf_count=10 14 12 10 15 11
internal_value=0 0.00274785 -0.00549569 -0.00180401 -0.00749857
internal_weight=0 48 24 36 21
internal_count=72 48 24 36 21
is_linear=0
shrinkage=0.1


Tree=46
num_leaves=6
num_cat=0
split_feature=3 3 1 0 1
split_gain=0.0880708 0.241671 0.204645 0.132384 0.0534549
threshold=1.6381568072320798 1.3353602225578711 0.486655 0.53337500000000004 0.39369000000000004
decision_type=2 2 2 2 2
left_child=1 3 -2 4 -1
right_child=2 -3 -4 -5 -6
leaf_value=-0.0014571942389011378 0.0035480208121813255 0.01476307847769931 -0.01498465447855944 0.0055515321344137194 -0.011559185851365329
leaf_weight=10.000000000000002 13.000000000000002 11.999999999999998 10.999999999999998 14.999999999999998 10.999999999999998
leaf_count=10 13 12 11 15 11
internal_value=0 0.00247306 -0.00494612 -0.00162361 -0.00674871
internal_weight=0 48 24 36 21
internal_count=72 48 24 36 21
is_linear=0
shrinkage=0.1


Tree=47
num_leaves=5
num_cat=0
split_feature=1 1 0 3
split_gain=0.0986148 0.296734 0.162372 0.109931
threshold=0.32308000000000009 0.24836000000000003 0.53337500000000004 1.3353602225578711
decision_type=2 2 2 2
left_child=1 -1 3 -2
right_child=2 -3 -4 -5
leaf_value=0.0069429642676065344 -0.0086596189066767675 -0.014154436811804772 0.010223597971101603 0.0041108042567170096
leaf_weight=12.000000000000002 13.000000000000002 14.999999999999998 18 13.999999999999998
leaf_count=12 13 15 18 14
internal_value=0 -0.00477781 0.00286669 -0.00203792
internal_weight=0 27 45 27
internal_count=72 27 45 27
is_linear=0
shrinkage=0.1


Tree=48
num_leaves=5
num_cat=0
split_feature=3 1 1 0
split_gain=0.0837339 0.213898 0.177623 0.142578
threshold=1.6381568072320798 0.43937500000000002 0.486655 0.51684500000000011
decision_type=2 2 2 2
left_child=1 3 -2 -1
right_child=2 -3 -4 -5
leaf_value=0.003622395254890708 0.0030907021978726747 0.011425840306807968 -0.014175124350003898 -0.010005197301506997
leaf_weight=17.000000000000004 13.000000000000002 17 10.999999999999998 13.999999999999998
leaf_count=17 13 17 11 14
internal_value=0 0.0024114 -0.0048228 -0.002532
internal_weight=0 48 24 31
internal_count=72 48 24 31
is_linear=0
shrinkage=0.1


Tree=49
num_leaves=5
num_cat=0
split_feature=3 3 1 2
split_gain=0.0867852 0.213769 0.223797 0.165478
threshold=1.8517814675254678 1.4829601797024685 0.43937500000000002 0.039380000000000033
decision_type=2 2 2 2
left_child=1 2 3 -1
right_child=-2 -3 -4 -5
leaf_value=0.0029291367158293721 0.0067678131659825646 -0.012028399074139695 0.011672288688520591 -0.013003792681477286
leaf_weight=16.000000000000004 14.999999999999998 14.999999999999998 14.999999999999998 10.999999999999998
leaf_count=16 15 15 15 11
internal_value=0 -0.001781 0.00187878 -0.00356206
internal_weight=0 57 42 27
internal_count=72 57 42 27
is_linear=0
shrinkage=0.1


Tree=50
num_leaves=5
num_cat=0
split_feature=2 2 2 3
split_gain=0.0773523 0.201971 0.147061 0.104222
threshold=-0.046124999999999965 0.09275499999999999 0.23608000000000001 1.1177375954854134
decision_type=2 2 2 2
left_child=3 -2 -3 -1
right_child=1 2 -4 -5
leaf_value=-0.012432581428438422 0.012426480996821608 -0.0080453434700353283 0.0051309092319570485 0.00093405132980218955
leaf_weight=10.000000000000002 13.999999999999998 18 15.999999999999998 13.999999999999998
leaf_count=10 14 18 16 14
internal_value=0 0.00231769 -0.00184475 -0.00463538
internal_weight=0 48 34 24
internal_count=72 48 34 24
is_linear=0
shrinkage=0.1


Tree=51
num_leaves=6
num_cat=0
split_feature=0 2 2 2 1
split_gain=0.0714364 0.332484 0.182034 0.109153 0.0809271
threshold=0.53337500000000004 0.15139500000000006 1.0000000180025095e-35 -0.11497000000000003 0.43937500000000002
decision_type=2 2 2 2 2
left_child=2 -2 3 -1 -4
right_child=1 -3 4 -5 -6
leaf_value=-0.0016841142717748875 0.015765622559075168 -0.0054790306617231929 0.0098401951349594355 -0.016119601001793687 -0.0025894953683018689
leaf_weight=10.000000000000002 13.000000000000002 17 11.000000000000002 10.999999999999998 9.9999999999999982
leaf_count=10 13 17 11 11 10
internal_value=0 0.00372699 -0.00266213 -0.00924556 0.00392129
internal_weight=0 30 42 21 21
internal_count=72 30 42 21 21
is_linear=0
shrinkage=0.1


Tree=52
num_leaves=6
num_cat=0
split_feature=3 3 2 2 2
split_gain=0.0751141 0.177636 0.14596 0.0968364 0.253667
threshold=1.6381568072320798 1.3353602225578711 0.075835 0.1354750000000001 -0.046124999999999965
decision_type=2 2 2 2 2
left_child=1 3 -2 4 -1
right_child=2 -3 -4 -5 -6
leaf_value=-0.006539908108802942 -0.013795125288888807 0.012820620477820436 0.0020231050838317192 -0.0081269144438780288 0.014644904136657711
leaf_weight=12.999999999999998 10.000000000000002 11.999999999999998 13.999999999999998 12.999999999999998 10.000000000000002
leaf_count=13 10 12 14 13 10
internal_value=0 0.00228391 -0.00456782 -0.00122832 0.00267088
internal_weight=0 48 24 36 23
internal_count=72 48 24 36 23
is_linear=0
shrinkage=0.1


Tree=53
num_leaves=6
num_cat=0
split_feature=2 1 2 0 2
split_gain=0.0714425 0.199506 0.172058 0.225102 0.189067
threshold=0.16311500000000004 0.43937500000000002 0.039380000000000033 0.37419000000000008 -0.07108499999999994
decision_type=2 2 2 2 2
left_child=2 -2 3 -1 -5
right_child=1 -3 -4 4 -6
leaf_value=-0.0097434380684386611 -0.0029748664796352383 0.015259996373206379 -0.011134638444830975 0.017866887934505939 -0.0011316770857030692
leaf_weight=10.999999999999998 15.000000000000002 9.9999999999999982 14.999999999999998 9.9999999999999982 11.000000000000002
leaf_count=11 15 10 15 10 11
internal_value=0 0.00431908 -0.00229738 0.00184508 0.00791526
internal_weight=0 25 47 32 21
internal_count=72 25 47 32 21
is_linear=0
shrinkage=0.1


Tree=54
num_leaves=6
num_cat=0
split_feature=1 1 2 2 3
split_gain=0.0713158 0.232164 0.121669 0.17746 0.0310596
threshold=0.24836000000000003 0.32308000000000009 1.0000000180025095e-35 0.15139500000000006 1.3976283800874878
decision_type=2 2 2 2 2
left_child=-1 -2 -3 -4 -5
right_child=1 2 3 4 -6
leaf_value=0.0070373884091774631 -0.012181612402200699 -0.0059741664821138752 0.015112019935622813 0.003670557141304015 -0.0042110113799571991
leaf_weight=11.999999999999998 14.999999999999998 12.999999999999998 11.999999999999998 10.000000000000002 9.9999999999999982
leaf_count=12 15 13 12 10 10
internal_value=0 -0.00140748 0.0021839 0.00549812 -0.000270227
internal_weight=0 60 45 32 20
internal_count=72 60 45 32 20
is_linear=0
shrinkage=0.1


Tree=55
num_leaves=5
num_cat=0
split_feature=3 3 0 1
split_gain=0.0666205 0.165518 0.187703 0.165446
threshold=1.8517814675254678 1.4829601797024685 0.46659000000000006 0.30961
decision_type=2 2 2 2
left_child=1 2 -1 -4
right_child=-2 -3 3 -5
leaf_value=0.0093792680857910059 0.0059296562150120734 -0.010577475552757582 -0.013155620104887265 0.0035078676274189584
leaf_weight=18 14.999999999999998 14.999999999999998 11.000000000000002 12.999999999999998
leaf_count=18 15 15 11 13
internal_value=0 -0.00156044 0.00165994 -0.00412956
internal_weight=0 57 42 24
internal_count=72 57 42 24
is_linear=0
shrinkage=0.1


Tree=56
num_leaves=5
num_cat=0
split_feature=1 0 0 2
split_gain=0.0678121 0.180899 0.229434 0.22392
threshold=0.24836000000000003 0.53337500000000004 0.40018000000000004 0.15139500000000006
decision_type=2 2 2 2
left_child=-1 2 -2 -3
right_child=1 3 -4 -5
leaf_value=0.0068623425128559283 0.0015707458472914168 0.014930435471857585 -0.014887083087523935 -0.0036852456363184113
leaf_weight=11.999999999999998 18 12.000000000000002 15.999999999999998 13.999999999999998
leaf_count=12 18 12 16 14
internal_value=0 -0.00137247 -0.00617411 0.00490661
internal_weight=0 60 34 26
internal_count=72 60 34 26
is_linear=0
shrinkage=0.1


Tree=57
num_leaves=6
num_cat=0
split_feature=2 3 3 0 0
split_gain=0.0631551 0.188149 0.141074 0.191265 0.159429
threshold=0.16311500000000004 1.2987004683105183 1.3976283800874878 0.49733500000000003 0.48254500000000006
decision_type=2 2 2 2 2
left_child=2 -2 3 -1 -4
right_child=1 -3 4 -5 -6
leaf_value=0.010732596500643661 -0.005726135691458527 0.011750621468360936 -0.016513100232590321 -0.0068882606246254661 0.00051249182698401535
leaf_weight=14.000000000000002 11.000000000000002 13.999999999999998 11.000000000000002 10.999999999999998 10.999999999999998
leaf_count=14 11 14 11 11 11
internal_value=0 0.00406085 -0.00216003 0.00297942 -0.0080003
internal_weight=0 25 47 25 22
internal_count=72 25 47 25 22
is_linear=0
shrinkage=0.1


Tree=58
num_leaves=6
num_cat=0
split_feature=3 3 1 0 1
split_gain=0.0574234 0.155952 0.132846 0.12056 0.0661974
threshold=1.6381568072320798 1.3353602225578711 0.486655 0.53337500000000004 0.39369000000000004
decision_type=2 2 2 2 2
left_child=1 3 -2 4 -1
right_child=2 -3 -4 -5 -6
leaf_value=-0.00029630675911903372 0.0028498716795673732 0.011869622161611915 -0.012081911872056398 0.0055532611161470419 -0.011538056216456673
leaf_weight=10.000000000000002 13.000000000000002 11.999999999999998 10.999999999999998 14.999999999999998 10.999999999999998
leaf_count=10 13 12 11 15 11
internal_value=0 0.00199693 -0.00399386 -0.00129397 -0.00618484
internal_weight=0 48 24 36 21
internal_count=72 48 24 36 21
is_linear=0
shrinkage=0.1


Tree=59
num_leaves=5
num_cat=0
split_feature=3 3 0 1
split_gain=0.0538418 0.119576 0.146381 0.14905
threshold=1.8517814675254678 1.4829601797024685 0.46659000000000006 0.30961
decision_type=2 2 2 2
left_child=1 2 -1 -4
right_child=-2 -3 3 -5
leaf_value=0.008151286985311243 0.0053307121309141316 -0.0090669573067377017 -0.012345462563362984 0.0034708152596767137
leaf_weight=18 14.999999999999998 14.999999999999998 11.000000000000002 12.999999999999998
leaf_count=18 15 15 11 13
internal_value=0 -0.00140282 0.00133437 -0.00377831
internal_weight=0 57 42 24
internal_count=72 57 42 24
is_linear=0
shrinkage=0.1


end of trees

feature_importances:
Column_2=78
Column_1=68
Column_3=66
Column_0=59

parameters:
[boosting: gbdt]
[objective: regression]
[metric: rmse]
[tree_learner: serial]
[device_type: cpu]
[data: ]
[valid: ]
[num_iterations: 10000]
[learning_rate: 0.1]
[num_leaves: 63]
[num_threads: 0]
[deterministic: 0]
[force_col_wise: 0]
[force_row_wise: 0]
[histogram_pool_size: -1]
[max_depth: -1]
[min_data_in_leaf: 10]
[min_sum_hessian_in_leaf: 0.001]
[bagging_fraction: 0.9]
[pos_bagging_fraction: 1]
[neg_bagging_fraction: 1]
[bagging_freq: 0]
[bagging_seed: 18467]
[feature_fraction: 0.9]
[feature_fraction_bynode: 1]
[feature_fraction_seed: 26500]
[extra_trees: 0]
[extra_seed: 15724]
[early_stopping_round: 0]
[first_metric_only: 0]
[max_delta_step: 0]
[lambda_l1: 0]
[lambda_l2: 0]
[linear_lambda: 0]
[min_gain_to_split: 0]
[drop_rate: 0.1]
[max_drop: 50]
[skip_drop: 0.5]
[xgboost_dart_mode: 0]
[uniform_drop: 0]
[drop_seed: 6334]
[top_rate: 0.2]
[other_rate: 0.1]
[min_data_per_group: 100]
[max_cat_threshold: 32]
[cat_l2: 10]
[cat_smooth: 10]
[max_cat_to_onehot: 4]
[top_k: 20]
[monotone_constraints: ]
[monotone_constraints_method: basic]
[monotone_penalty: 0]
[feature_contri: ]
[forcedsplits_filename: ]
[refit_decay_rate: 0.9]
[cegb_tradeoff: 1]
[cegb_penalty_split: 0]
[cegb_penalty_feature_lazy: ]
[cegb_penalty_feature_coupled: ]
[path_smooth: 0]
[interaction_constraints: ]
[verbosity: -1]
[saved_feature_importance_type: 0]
[linear_tree: 0]
[max_bin: 255]
[max_bin_by_feature: ]
[min_data_in_bin: 3]
[bin_construct_sample_cnt: 200000]
[data_random_seed: 41]
[is_enable_sparse: 1]
[enable_bundle: 1]
[use_missing: 1]
[zero_as_missing: 0]
[feature_pre_filter: 1]
[pre_partition: 0]
[two_round: 0]
[header: 0]
[label_column: ]
[weight_column: ]
[group_column: ]
[ignore_column: ]
[categorical_feature: ]
[forcedbins_filename: ]
[precise_float_parser: 0]
[parser_config_file: ]
[objective_seed: 19169]
[num_class: 1]
[is_unbalance: 0]
[scale_pos_weight: 1]
[sigmoid: 1]
[boost_from_average: 1]
[reg_sqrt: 0]
[alpha: 0.9]
[fair_c: 1]
[poisson_max_delta_step: 0.7]
[tweedie_variance_power: 1.5]
[lambdarank_truncation_level: 30]
[lambdarank_norm: 1]
[label_gain: ]
[lambdarank_position_bias_regularization: 0]
[eval_at: ]
[multi_error_top_k: 1]
[auc_mu_weights: ]
[num_machines: 1]
[local_listen_port: 12400]
[time_out: 120]
[machine_list_filename: ]
[machines: ]
[gpu_platform_id: -1]
[gpu_device_id: -1]
[gpu_use_dp: 0]
[num_gpu: 1]

end of parameters

pandas_categorical:null
