{"learner":{"attributes":{"best_iteration":"7","best_ntree_limit":"8","best_score":"1.049991131824486"},"feature_names":[],"feature_types":[],"gradient_booster":{"model":{"gbtree_model_param":{"num_parallel_tree":"1","num_trees":"58","size_leaf_vector":"0"},"tree_info":[0,0,0,0,0,0,0,0,0,0,0,0,0,0,0,0,0,0,0,0,0,0,0,0,0,0,0,0,0,0,0,0,0,0,0,0,0,0,0,0,0,0,0,0,0,0,0,0,0,0,0,0,0,0,0,0,0,0],"trees":[{"base_weights":[-4.9324325E-1,-1.010808E0,-1.5622972E-1,-1.1067564E0,-4.6544902E-2,1.05885684E-1,-5.0227404E-1,-4.8971314E-2,-9.8957606E-2,-1.9208977E-1,5.4238494E-2,-2.8620717E-1,-6.4699076E-2,1.6386632E-2,-4.498011E-1,-6.644639E-2,1.0906753E-2,-1.3034663E-2,-5.2263055E-2],"categories":[],"categories_nodes":[],"categories_segments":[],"categories_sizes":[],"default_left":[0,0,0,0,0,0,0,0,0,0,0,0,0,0,0,0,0,0,0],"id":0,"left_children":[1,3,5,7,-1,9,11,-1,-1,13,-1,15,-1,-1,17,-1,-1,-1,-1],"loss_changes":[1.2749628E1,3.9890862E-1,4.225547E0,1.261795E0,0E0,5.1052556E0,1.3104272E0,0E0,0E0,2.1086783E0,0E0,3.752991E0,0E0,0E0,6.971042E-1,0E0,0E0,0E0,0E0],"parents":[2147483647,0,0,1,1,2,2,3,3,5,5,6,6,9,9,11,11,14,14],"right_children":[2,4,6,8,-1,10,12,-1,-1,14,-1,16,-1,-1,18,-1,-1,-1,-1],"split_conditions":[3.4366E-1,2.9723E-1,5.1295E-1,1.7957E-1,-4.6544902E-2,4.3944E-1,5.4431E-1,-4.8971314E-2,-9.8957606E-2,3.9024E-1,5.4238494E-2,3.9667E-1,-6.4699076E-2,1.6386632E-2,4.8622E-1,-6.644639E-2,1.0906753E-2,-1.3034663E-2,-5.2263055E-2],"split_indices":[1,1,1,1,0,1,0,0,0,1,0,0,0,0,0,0,0,0,0],"split_type":[0,0,0,0,0,0,0,0,0,0,0,0,0,0,0,0,0,0,0],"sum_hessian":[7.3E1,2.8E1,4.5E1,2.1E1,7E0,2.6E1,1.9E1,8E0,1.3E1,1.8E1,8E0,1.3E1,6E0,7E0,1.1E1,5E0,8E0,6E0,5E0],"tree_param":{"num_deleted":"0","num_feature":"2","num_nodes":"19","size_leaf_vector":"0"}},{"base_weights":[-4.6043086E-1,-9.417034E-1,-1.4701056E-1,-1.0304738E0,-4.3490395E-2,9.8141566E-2,-4.7061542E-1,-4.570656E-2,-9.206591E-2,-1.802573E-1,5.0622594E-2,-2.6870874E-1,-6.0539853E-2,1.531126E-2,-4.2150748E-1,-6.2293485E-2,1.0179635E-2,-1.21967215E-2,-4.8996616E-2],"categories":[],"categories_nodes":[],"categories_segments":[],"categories_sizes":[],"default_left":[0,0,0,0,0,0,0,0,0,0,0,0,0,0,0,0,0,0,0],"id":1,"left_children":[1,3,5,7,-1,9,11,-1,-1,13,-1,15,-1,-1,17,-1,-1,-1,-1],"loss_changes":[1.1023763E1,3.3393288E-1,3.6954784E0,1.0774174E0,0E0,4.457538E0,1.1422644E0,0E0,0E0,1.8480794E0,0E0,3.294115E0,0E0,0E0,6.1381364E-1,0E0,0E0,0E0,0E0],"parents":[2147483647,0,0,1,1,2,2,3,3,5,5,6,6,9,9,11,11,14,14],"right_children":[2,4,6,8,-1,10,12,-1,-1,14,-1,16,-1,-1,18,-1,-1,-1,-1],"split_conditions":[3.4366E-1,2.9723E-1,5.1295E-1,1.7957E-1,-4.3490395E-2,4.3944E-1,5.4431E-1,-4.570656E-2,-9.206591E-2,3.9024E-1,5.0622594E-2,3.9667E-1,-6.0539853E-2,1.531126E-2,4.8622E-1,-6.2293485E-2,1.0179635E-2,-1.21967215E-2,-4.8996616E-2],"split_indices":[1,1,1,1,0,1,0,0,0,1,0,0,0,0,0,0,0,0,0],"split_type":[0,0,0,0,0,0,0,0,0,0,0,0,0,0,0,0,0,0,0],"sum_hessian":[7.3E1,2.8E1,4.5E1,2.1E1,7E0,2.6E1,1.9E1,8E0,1.3E1,1.8E1,8E0,1.3E1,6E0,7E0,1.1E1,5E0,8E0,6E0,5E0],"tree_param":{"num_deleted":"0","num_feature":"2","num_nodes":"19","size_leaf_vector":"0"}},{"base_weights":[-4.2980632E-1,-8.773261E-1,-1.3833071E-1,-9.594506E-1,-4.0636335E-2,-6.240234E-1,1.3917898E-2,-4.2659454E-2,-8.565418E-2,-1.5473056E-2,-7.033016E-2,2.4005851E-1,-5.2186155E-1,4.782761E-1,-7.7718355E-2,-6.0399048E-2,-1.1356918E-2,1.4500499E-2,5.8222305E-2,-1.8014327E-2,5.4484904E-3],"categories":[],"categories_nodes":[],"categories_segments":[],"categories_sizes":[],"default_left":[0,0,0,0,0,0,0,0,0,0,0,0,0,0,0,0,0,0,0,0,0],"id":2,"left_children":[1,3,5,7,-1,9,11,-1,-1,-1,-1,13,15,17,19,-1,-1,-1,-1,-1,-1],"loss_changes":[9.531279E0,2.7920341E-1,3.4102025E0,9.198017E-1,0E0,1.2480059E0,4.487091E0,0E0,0E0,0E0,0E0,2.0053718E0,1.0330915E0,1.1236658E0,3.1061122E-1,0E0,0E0,0E0,0E0,0E0,0E0],"parents":[2147483647,0,0,1,1,2,2,3,3,5,5,6,6,11,11,12,12,13,13,14,14],"right_children":[2,4,6,8,-1,10,12,-1,-1,-1,-1,14,16,18,20,-1,-1,-1,-1,-1,-1],"split_conditions":[3.4366E-1,2.9723E-1,3.7168E-1,1.7957E-1,-4.0636335E-2,4.2582E-1,6.0974E-1,-4.2659454E-2,-8.565418E-2,-1.5473056E-2,-7.033016E-2,5.1295E-1,6.7971E-1,4.432E-1,5.9698E-1,-6.0399048E-2,-1.1356918E-2,1.4500499E-2,5.8222305E-2,-1.8014327E-2,5.4484904E-3],"split_indices":[1,1,0,1,0,1,0,0,0,0,0,1,0,1,1,0,0,0,0,0,0],"split_type":[0,0,0,0,0,0,0,0,0,0,0,0,0,0,0,0,0,0,0,0,0],"sum_hessian":[7.3E1,2.8E1,4.5E1,2.1E1,7E0,1E1,3.5E1,8E0,1.3E1,5E0,5E0,2.5E1,1E1,1.4E1,1.1E1,5E0,5E0,8E0,6E0,5E0,6E0],"tree_param":{"num_deleted":"0","num_feature":"2","num_nodes":"21","size_leaf_vector":"0"}},{"base_weights":[-4.0117022E-1,-8.173525E-1,-1.3007335E-1,-8.9332426E-1,-3.7969574E-2,-5.850219E-1,1.25518525E-2,-3.981549E-2,-7.968898E-2,-1.4505987E-2,-6.593453E-2,2.2436784E-1,-4.892452E-1,4.4725358E-1,-7.293665E-2,-5.6624107E-2,-1.06471125E-2,5.1317327E-3,4.723699E-2,-1.6888432E-2,5.0982297E-3],"categories":[],"categories_nodes":[],"categories_segments":[],"categories_sizes":[],"default_left":[0,0,0,0,0,0,0,0,0,0,0,0,0,0,0,0,0,0,0,0,0],"id":3,"left_children":[1,3,5,7,-1,9,11,-1,-1,-1,-1,13,15,17,19,-1,-1,-1,-1,-1,-1],"loss_changes":[8.242786E0,2.3313713E-1,2.9921513E0,7.850876E-1,0E0,1.0968807E0,3.936162E0,0E0,0E0,0E0,0E0,1.7555096E0,9.079907E-1,9.943681E-1,2.7274218E-1,0E0,0E0,0E0,0E0,0E0,0E0],"parents":[2147483647,0,0,1,1,2,2,3,3,5,5,6,6,11,11,12,12,13,13,14,14],"right_children":[2,4,6,8,-1,10,12,-1,-1,-1,-1,14,16,18,20,-1,-1,-1,-1,-1,-1],"split_conditions":[3.4366E-1,2.9723E-1,3.7168E-1,1.7957E-1,-3.7969574E-2,4.2582E-1,6.0974E-1,-3.981549E-2,-7.968898E-2,-1.4505987E-2,-6.593453E-2,5.1295E-1,6.7971E-1,3.9537E-1,5.9698E-1,-5.6624107E-2,-1.06471125E-2,5.1317327E-3,4.723699E-2,-1.6888432E-2,5.0982297E-3],"split_indices":[1,1,0,1,0,1,0,0,0,0,0,1,0,1,1,0,0,0,0,0,0],"split_type":[0,0,0,0,0,0,0,0,0,0,0,0,0,0,0,0,0,0,0,0,0],"sum_hessian":[7.3E1,2.8E1,4.5E1,2.1E1,7E0,1E1,3.5E1,8E0,1.3E1,5E0,5E0,2.5E1,1E1,1.4E1,1.1E1,5E0,5E0,5E0,9E0,5E0,6E0],"tree_param":{"num_deleted":"0","num_feature":"2","num_nodes":"21","size_leaf_vector":"0"}},{"base_weights":[-3.7465823E-1,-7.507923E-1,-1.1557641E-1,-8.3175695E-1,-3.520931E-2,9.9566735E-2,-3.8948366E-1,-3.7161123E-2,-7.413921E-2,-1.3380589E-1,4.164368E-2,-2.1038611E-1,-5.1902875E-2,2.1556152E-2,-3.683678E-1,-5.171874E-2,9.934114E-3,-9.860873E-3,-4.375082E-2],"categories":[],"categories_nodes":[],"categories_segments":[],"categories_sizes":[],"default_left":[0,0,0,0,0,0,0,0,0,0,0,0,0,0,0,0,0,0,0],"id":4,"left_children":[1,3,5,7,-1,9,11,-1,-1,13,-1,15,-1,-1,17,-1,-1,-1,-1],"loss_changes":[7.12449E0,2.9287148E-1,2.6905968E0,6.6996765E-1,0E0,2.8392336E0,9.3814063E-1,0E0,0E0,1.8843188E0,0E0,2.3913765E0,0E0,0E0,5.3441083E-1,0E0,0E0,0E0,0E0],"parents":[2147483647,0,0,1,1,2,2,3,3,5,5,6,6,9,9,11,11,14,14],"right_children":[2,4,6,8,-1,10,12,-1,-1,14,-1,16,-1,-1,18,-1,-1,-1,-1],"split_conditions":[3.6466E-1,2.9723E-1,5.1295E-1,1.7957E-1,-3.520931E-2,4.3944E-1,5.4431E-1,-3.7161123E-2,-7.413921E-2,3.9024E-1,4.164368E-2,3.9667E-1,-5.1902875E-2,2.1556152E-2,4.8622E-1,-5.171874E-2,9.934114E-3,-9.860873E-3,-4.375082E-2],"split_indices":[1,1,1,1,0,1,0,0,0,1,0,0,0,0,0,0,0,0,0],"split_type":[0,0,0,0,0,0,0,0,0,0,0,0,0,0,0,0,0,0,0],"sum_hessian":[7.3E1,2.9E1,4.4E1,2.1E1,8E0,2.5E1,1.9E1,8E0,1.3E1,1.7E1,8E0,1.3E1,6E0,6E0,1.1E1,5E0,8E0,6E0,5E0],"tree_param":{"num_deleted":"0","num_feature":"2","num_nodes":"19","size_leaf_vector":"0"}},{"base_weights":[-3.4967518E-1,-7.094962E-1,-1.1522985E-1,-6.5031715E-2,-5.6501764E-1,-5.2482426E-1,1.312482E-2,-3.8534754E-3,-6.1316624E-2,-1.3058915E-2,-5.9104424E-2,2.0245102E-1,-4.3556666E-1,4.0060413E-1,-6.2111285E-2,-5.0044972E-2,-9.845445E-3,4.6727937E-3,4.2264294E-2,-1.4907861E-2,4.79243E-3],"categories":[],"categories_nodes":[],"categories_segments":[],"categories_sizes":[],"default_left":[0,0,0,0,0,0,0,0,0,0,0,0,0,0,0,0,0,0,0,0,0],"id":5,"left_children":[1,3,5,-1,7,9,11,-1,-1,-1,-1,13,15,17,19,-1,-1,-1,-1,-1,-1],"loss_changes":[6.1607637E0,1.7037582E-1,2.4252627E0,0E0,2.2928238E0,8.782799E-1,3.1463468E0,0E0,0E0,0E0,0E0,1.3879018E0,6.879592E-1,7.9162717E-1,2.1934849E-1,0E0,0E0,0E0,0E0,0E0,0E0],"parents":[2147483647,0,0,1,1,2,2,4,4,5,5,6,6,11,11,12,12,13,13,14,14],"right_children":[2,4,6,-1,8,10,12,-1,-1,-1,-1,14,16,18,20,-1,-1,-1,-1,-1,-1],"split_conditions":[3.4366E-1,4.5884E-1,3.7168E-1,-6.5031715E-2,5.4875E-1,4.2582E-1,6.0974E-1,-3.8534754E-3,-6.1316624E-2,-1.3058915E-2,-5.9104424E-2,5.1295E-1,6.7971E-1,3.9537E-1,5.9698E-1,-5.0044972E-2,-9.845445E-3,4.6727937E-3,4.2264294E-2,-1.4907861E-2,4.79243E-3],"split_indices":[1,0,0,0,0,1,0,0,0,0,0,1,0,1,1,0,0,0,0,0,0],"split_type":[0,0,0,0,0,0,0,0,0,0,0,0,0,0,0,0,0,0,0,0,0],"sum_hessian":[7.3E1,2.8E1,4.5E1,1.1E1,1.7E1,1E1,3.5E1,6E0,1.1E1,5E0,5E0,2.5E1,1E1,1.4E1,1.1E1,5E0,5E0,5E0,9E0,5E0,6E0],"tree_param":{"num_deleted":"0","num_feature":"2","num_nodes":"21","size_leaf_vector":"0"}},{"base_weights":[-3.2649595E-1,-6.518329E-1,-1.02349214E-1,-7.276137E-1,-2.9562376E-2,8.6586066E-2,-3.4284762E-1,-3.1939644E-2,-6.5221846E-2,-1.03450514E-1,3.9532475E-2,-1.7956415E-1,-4.6532724E-2,2.0371094E-2,-2.974509E-1,-4.5591E-2,9.44485E-3,-3.7263267E-2,1.3485823E-3],"categories":[],"categories_nodes":[],"categories_segments":[],"categories_sizes":[],"default_left":[0,0,0,0,0,0,0,0,0,0,0,0,0,0,0,0,0,0,0],"id":6,"left_children":[1,3,5,7,-1,9,11,-1,-1,13,-1,15,-1,-1,17,-1,-1,-1,-1],"loss_changes":[5.3296027E0,2.989893E-1,2.0744243E0,5.724039E-1,0E0,2.231085E0,7.951052E-1,0E0,0E0,1.4632849E0,0E0,1.9084308E0,0E0,0E0,8.2656646E-1,0E0,0E0,0E0,0E0],"parents":[2147483647,0,0,1,1,2,2,3,3,5,5,6,6,9,9,11,11,14,14],"right_children":[2,4,6,8,-1,10,12,-1,-1,14,-1,16,-1,-1,18,-1,-1,-1,-1],"split_conditions":[3.6466E-1,2.9723E-1,5.1295E-1,1.7957E-1,-2.9562376E-2,4.432E-1,5.4431E-1,-3.1939644E-2,-6.5221846E-2,3.9024E-1,3.9532475E-2,3.9667E-1,-4.6532724E-2,2.0371094E-2,4.2582E-1,-4.5591E-2,9.44485E-3,-3.7263267E-2,1.3485823E-3],"split_indices":[1,1,1,1,0,1,0,0,0,1,0,0,0,0,1,0,0,0,0],"split_type":[0,0,0,0,0,0,0,0,0,0,0,0,0,0,0,0,0,0,0],"sum_hessian":[7.3E1,2.9E1,4.4E1,2.1E1,8E0,2.5E1,1.9E1,8E0,1.3E1,1.8E1,7E0,1.3E1,6E0,6E0,1.2E1,5E0,8E0,7E0,5E0],"tree_param":{"num_deleted":"0","num_feature":"2","num_nodes":"19","size_leaf_vector":"0"}},{"base_weights":[-3.0451435E-1,-6.071695E-1,-9.597725E-2,-6.7745906E-1,-2.759155E-2,-3.5604514E-2,1.1897004E-2,-2.9810334E-2,-6.0679607E-2,1.8234766E-1,-3.920679E-1,3.5849947E-1,-5.3037755E-2,-4.4240598E-2,-9.668738E-3,1.0973403E-2,4.3507326E-2,-1.3166984E-2,4.4668457E-3],"categories":[],"categories_nodes":[],"categories_segments":[],"categories_sizes":[],"default_left":[0,0,0,0,0,0,0,0,0,0,0,0,0,0,0,0,0,0,0],"id":7,"left_children":[1,3,5,7,-1,-1,9,-1,-1,11,13,15,17,-1,-1,-1,-1,-1,-1],"loss_changes":[4.6122227E0,2.5534248E-1,1.8442277E0,4.890566E-1,0E0,0E0,2.5503116E0,0E0,0E0,1.0970668E0,4.965397E-1,6.2043E-1,1.760014E-1,0E0,0E0,0E0,0E0,0E0,0E0],"parents":[2147483647,0,0,1,1,2,2,3,3,6,6,9,9,10,10,11,11,12,12],"right_children":[2,4,6,8,-1,-1,10,-1,-1,12,14,16,18,-1,-1,-1,-1,-1,-1],"split_conditions":[3.6466E-1,2.9723E-1,3.7168E-1,1.7957E-1,-2.759155E-2,-3.5604514E-2,6.0974E-1,-2.9810334E-2,-6.0679607E-2,5.1295E-1,6.7971E-1,4.432E-1,5.9698E-1,-4.4240598E-2,-9.668738E-3,1.0973403E-2,4.3507326E-2,-1.3166984E-2,4.4668457E-3],"split_indices":[1,1,0,1,0,0,0,0,0,1,0,1,1,0,0,0,0,0,0],"split_type":[0,0,0,0,0,0,0,0,0,0,0,0,0,0,0,0,0,0,0],"sum_hessian":[7.3E1,2.9E1,4.4E1,2.1E1,8E0,9E0,3.5E1,8E0,1.3E1,2.5E1,1E1,1.4E1,1.1E1,5E0,5E0,8E0,6E0,5E0,6E0],"tree_param":{"num_deleted":"0","num_feature":"2","num_nodes":"19","size_leaf_vector":"0"}},{"base_weights":[-2.8386244E-1,-5.6556785E-1,-8.9750804E-2,-4.6709073E-1,-5.834952E-2,7.933582E-2,-3.0507588E-1,-5.2147496E-2,-1.5492615E-1,-8.5577026E-2,3.4581516E-2,-1.5759884E-1,-4.1733578E-2,3.960618E-3,-2.5262965E-2,1.9297475E-2,-2.6362008E-1,-4.1017175E-2,8.958251E-3,-3.319273E-2,1.418709E-3],"categories":[],"categories_nodes":[],"categories_segments":[],"categories_sizes":[],"default_left":[0,0,0,0,0,0,0,0,0,0,0,0,0,0,0,0,0,0,0,0,0],"id":8,"left_children":[1,3,5,7,-1,9,11,-1,13,15,-1,17,-1,-1,-1,-1,19,-1,-1,-1,-1],"loss_changes":[3.9957304E0,2.6417828E-1,1.66259E0,1.5307732E0,0E0,1.6763053E0,6.5373576E-1,0E0,4.3347418E-1,1.2277187E0,0E0,1.575246E0,0E0,0E0,0E0,0E0,6.656485E-1,0E0,0E0,0E0,0E0],"parents":[2147483647,0,0,1,1,2,2,3,3,5,5,6,6,8,8,9,9,11,11,16,16],"right_children":[2,4,6,8,-1,10,12,-1,14,16,-1,18,-1,-1,-1,-1,20,-1,-1,-1,-1],"split_conditions":[3.6466E-1,5.7655E-1,5.1295E-1,4.5884E-1,-5.834952E-2,4.432E-1,5.4431E-1,-5.2147496E-2,5.4553E-1,3.9024E-1,3.4581516E-2,3.9667E-1,-4.1733578E-2,3.960618E-3,-2.5262965E-2,1.9297475E-2,4.2582E-1,-4.1017175E-2,8.958251E-3,-3.319273E-2,1.418709E-3],"split_indices":[1,0,1,0,0,1,0,0,0,1,0,0,0,0,0,0,1,0,0,0,0],"split_type":[0,0,0,0,0,0,0,0,0,0,0,0,0,0,0,0,0,0,0,0,0],"sum_hessian":[7.3E1,2.9E1,4.4E1,2.2E1,7E0,2.5E1,1.9E1,1.2E1,1E1,1.8E1,7E0,1.3E1,6E0,5E0,5E0,6E0,1.2E1,5E0,8E0,7E0,5E0],"tree_param":{"num_deleted":"0","num_feature":"2","num_nodes":"21","size_leaf_vector":"0"}},{"base_weights":[-2.6505232E-1,-5.3596765E-1,-8.8495895E-2,-5.081177E-2,-4.118432E-1,-4.0610394E-1,1.1009221E-2,1.7478181E-3,-4.7351927E-2,-6.949997E-3,-4.8889298E-2,1.6464645E-1,-3.5313416E-1,3.216939E-1,-4.5383412E-2,-3.9080735E-2,-9.475211E-3,3.968736E-3,3.3809323E-2,-1.1636641E-2,4.1392543E-3],"categories":[],"categories_nodes":[],"categories_segments":[],"categories_sizes":[],"default_left":[0,0,0,0,0,0,0,0,0,0,0,0,0,0,0,0,0,0,0,0,0],"id":9,"left_children":[1,3,5,-1,7,9,11,-1,-1,-1,-1,13,15,17,19,-1,-1,-1,-1,-1,-1],"loss_changes":[3.492126E0,2.3040581E-1,1.4582375E0,0E0,1.7341042E0,7.869055E-1,2.0721974E0,0E0,0E0,0E0,0E0,8.722008E-1,3.5314798E-1,4.9662125E-1,1.4104459E-1,0E0,0E0,0E0,0E0,0E0,0E0],"parents":[2147483647,0,0,1,1,2,2,4,4,5,5,6,6,11,11,12,12,13,13,14,14],"right_children":[2,4,6,-1,8,10,12,-1,-1,-1,-1,14,16,18,20,-1,-1,-1,-1,-1,-1],"split_conditions":[3.4366E-1,4.5884E-1,3.7168E-1,-5.081177E-2,5.4875E-1,4.2582E-1,6.0974E-1,1.7478181E-3,-4.7351927E-2,-6.949997E-3,-4.8889298E-2,5.1295E-1,6.7971E-1,3.9537E-1,5.9698E-1,-3.9080735E-2,-9.475211E-3,3.968736E-3,3.3809323E-2,-1.1636641E-2,4.1392543E-3],"split_indices":[1,0,0,0,0,1,0,0,0,0,0,1,0,1,1,0,0,0,0,0,0],"split_type":[0,0,0,0,0,0,0,0,0,0,0,0,0,0,0,0,0,0,0,0,0],"sum_hessian":[7.3E1,2.8E1,4.5E1,1.1E1,1.7E1,1E1,3.5E1,6E0,1.1E1,5E0,5E0,2.5E1,1E1,1.4E1,1.1E1,5E0,5E0,5E0,9E0,5E0,6E0],"tree_param":{"num_deleted":"0","num_feature":"2","num_nodes":"21","size_leaf_vector":"0"}},{"base_weights":[-2.4747786E-1,-4.9909472E-1,-8.346988E-2,-5.578631E-1,-2.0632118E-2,-3.8072246E-1,9.675895E-3,-2.3386488E-2,-5.0713982E-2,-6.5156245E-3,-4.5833714E-2,1.5346262E-1,-3.3106327E-1,3.0008543E-1,-4.2604428E-2,-3.663819E-2,-8.88301E-3,3.7206912E-3,3.1527195E-2,-1.09093515E-2,3.8731606E-3],"categories":[],"categories_nodes":[],"categories_segments":[],"categories_sizes":[],"default_left":[0,0,0,0,0,0,0,0,0,0,0,0,0,0,0,0,0,0,0,0,0],"id":10,"left_children":[1,3,5,7,-1,9,11,-1,-1,-1,-1,13,15,17,19,-1,-1,-1,-1,-1,-1],"loss_changes":[3.0121117E0,2.282939E-1,1.2773237E0,4.296298E-1,0E0,6.916158E-1,1.8145815E0,0E0,0E0,0E0,0E0,7.602304E-1,3.1038415E-1,4.310447E-1,1.2383493E-1,0E0,0E0,0E0,0E0,0E0,0E0],"parents":[2147483647,0,0,1,1,2,2,3,3,5,5,6,6,11,11,12,12,13,13,14,14],"right_children":[2,4,6,8,-1,10,12,-1,-1,-1,-1,14,16,18,20,-1,-1,-1,-1,-1,-1],"split_conditions":[3.4366E-1,2.9723E-1,3.7168E-1,1.7957E-1,-2.0632118E-2,4.2582E-1,6.0974E-1,-2.3386488E-2,-5.0713982E-2,-6.5156245E-3,-4.5833714E-2,5.1295E-1,6.7971E-1,3.9537E-1,5.9698E-1,-3.663819E-2,-8.88301E-3,3.7206912E-3,3.1527195E-2,-1.09093515E-2,3.8731606E-3],"split_indices":[1,1,0,1,0,1,0,0,0,0,0,1,0,1,1,0,0,0,0,0,0],"split_type":[0,0,0,0,0,0,0,0,0,0,0,0,0,0,0,0,0,0,0,0,0],"sum_hessian":[7.3E1,2.8E1,4.5E1,2.1E1,7E0,1E1,3.5E1,8E0,1.3E1,5E0,5E0,2.5E1,1E1,1.4E1,1.1E1,5E0,5E0,5E0,9E0,5E0,6E0],"tree_param":{"num_deleted":"0","num_feature":"2","num_nodes":"21","size_leaf_vector":"0"}},{"base_weights":[-2.3113853E-1,-4.584243E-1,-7.447827E-2,-3.7125877E-1,-4.8879165E-2,6.4504296E-2,-2.514317E-1,-4.3010242E-2,-9.85312E-2,-7.346586E-2,2.880903E-2,-1.19607754E-1,-3.593706E-2,5.7142554E-3,-1.9262295E-2,1.834743E-2,-2.390983E-1,-3.3817604E-2,8.590832E-3,-2.9360183E-2,2.9343553E-4],"categories":[],"categories_nodes":[],"categories_segments":[],"categories_sizes":[],"default_left":[0,0,0,0,0,0,0,0,0,0,0,0,0,0,0,0,0,0,0,0,0],"id":11,"left_children":[1,3,5,7,-1,9,11,-1,13,15,-1,17,-1,-1,-1,-1,19,-1,-1,-1,-1],"loss_changes":[2.6007495E0,2.6350975E-1,1.1229233E0,1.2119122E0,0E0,1.1747543E0,5.4309154E-1,0E0,3.2380894E-1,1.0595515E0,0E0,1.137672E0,0E0,0E0,0E0,0E0,4.8289227E-1,0E0,0E0,0E0,0E0],"parents":[2147483647,0,0,1,1,2,2,3,3,5,5,6,6,8,8,9,9,11,11,16,16],"right_children":[2,4,6,8,-1,10,12,-1,14,16,-1,18,-1,-1,-1,-1,20,-1,-1,-1,-1],"split_conditions":[3.6466E-1,5.7655E-1,5.1295E-1,4.5884E-1,-4.8879165E-2,4.432E-1,5.4431E-1,-4.3010242E-2,5.4553E-1,3.9024E-1,2.880903E-2,3.9667E-1,-3.593706E-2,5.7142554E-3,-1.9262295E-2,1.834743E-2,4.2582E-1,-3.3817604E-2,8.590832E-3,-2.9360183E-2,2.9343553E-4],"split_indices":[1,0,1,0,0,1,0,0,0,1,0,0,0,0,0,0,1,0,0,0,0],"split_type":[0,0,0,0,0,0,0,0,0,0,0,0,0,0,0,0,0,0,0,0,0],"sum_hessian":[7.3E1,2.9E1,4.4E1,2.2E1,7E0,2.5E1,1.9E1,1.2E1,1E1,1.8E1,7E0,1.3E1,6E0,5E0,5E0,6E0,1.2E1,5E0,8E0,7E0,5E0],"tree_param":{"num_deleted":"0","num_feature":"2","num_nodes":"21","size_leaf_vector":"0"}},{"base_weights":[-2.1581006E-1,-4.8883307E-1,-9.840787E-2,-1.9872196E-2,-4.483749E-2,-3.692703E-1,-1.0124478E-2,8.508501E-3,-5.9942577E-2,1.2182572E-1,-3.3915627E-1,-7.894417E-2,2.600581E-1,-3.614774E-2,-8.701077E-3,8.142681E-3,-1.5728332E-2,3.4183756E-2,4.342465E-3],"categories":[],"categories_nodes":[],"categories_segments":[],"categories_sizes":[],"default_left":[0,0,0,0,0,0,0,0,0,0,0,0,0,0,0,0,0,0,0],"id":12,"left_children":[1,3,5,-1,-1,7,9,-1,-1,11,13,15,17,-1,-1,-1,-1,-1,-1],"loss_changes":[2.3238542E0,3.7843847E-1,1.263632E0,0E0,0E0,2.7888331E0,1.821366E0,0E0,0E0,8.53117E-1,3.2649708E-1,3.4153503E-1,6.858263E-1,0E0,0E0,0E0,0E0,0E0,0E0],"parents":[2147483647,0,0,1,1,2,2,5,5,6,6,9,9,10,10,11,11,12,12],"right_children":[2,4,6,-1,-1,8,10,-1,-1,12,14,16,18,-1,-1,-1,-1,-1,-1],"split_conditions":[2.9723E-1,1.7957E-1,3.7168E-1,-1.9872196E-2,-4.483749E-2,4.2546E-1,6.0974E-1,8.508501E-3,-5.9942577E-2,4.9842E-1,6.7971E-1,4.5884E-1,5.4705E-1,-3.614774E-2,-8.701077E-3,8.142681E-3,-1.5728332E-2,3.4183756E-2,4.342465E-3],"split_indices":[1,1,0,0,0,1,0,0,0,0,0,0,0,0,0,0,0,0,0],"split_type":[0,0,0,0,0,0,0,0,0,0,0,0,0,0,0,0,0,0,0],"sum_hessian":[7.3E1,2.1E1,5.2E1,8E0,1.3E1,1.2E1,4E1,6E0,6E0,2.9E1,1.1E1,1.2E1,1.7E1,6E0,5E0,5E0,7E0,8E0,9E0],"tree_param":{"num_deleted":"0","num_feature":"2","num_nodes":"19","size_leaf_vector":"0"}},{"base_weights":[-2.0138176E-1,-4.0999854E-1,-6.548463E-2,-4.033482E-2,-3.0202147E-1,-3.048053E-1,9.4601475E-3,4.828514E-3,-3.6794048E-2,-4.3752473E-3,-3.753548E-2,1.5562648E-1,-2.3134598E-1,-2.0486938E-2,3.1877103E-1,-5.363275E-3,-3.2440636E-2,4.248428E-3,-6.2755453E-3,3.0349417E-2,1.2408001E-2],"categories":[],"categories_nodes":[],"categories_segments":[],"categories_sizes":[],"default_left":[0,0,0,0,0,0,0,0,0,0,0,0,0,0,0,0,0,0,0,0,0],"id":13,"left_children":[1,3,5,-1,7,9,11,-1,-1,-1,-1,13,15,17,19,-1,-1,-1,-1,-1,-1],"loss_changes":[2.071083E0,2.3775482E-1,8.279318E-1,0E0,1.2752192E0,5.0128996E-1,1.3031225E0,0E0,0E0,0E0,0E0,6.673653E-1,4.1928446E-1,6.322512E-2,9.10846E-2,0E0,0E0,0E0,0E0,0E0,0E0],"parents":[2147483647,0,0,1,1,2,2,4,4,5,5,6,6,11,11,12,12,13,13,14,14],"right_children":[2,4,6,-1,8,10,12,-1,-1,-1,-1,14,16,18,20,-1,-1,-1,-1,-1,-1],"split_conditions":[3.4366E-1,4.5884E-1,3.7168E-1,-4.033482E-2,5.4875E-1,4.2582E-1,5.9612E-1,4.828514E-3,-3.6794048E-2,-4.3752473E-3,-3.753548E-2,4.9842E-1,5.1295E-1,4.5998E-1,5.4431E-1,-5.363275E-3,-3.2440636E-2,4.248428E-3,-6.2755453E-3,3.0349417E-2,1.2408001E-2],"split_indices":[1,0,0,0,0,1,0,0,0,0,0,0,1,0,0,0,0,0,0,0,0],"split_type":[0,0,0,0,0,0,0,0,0,0,0,0,0,0,0,0,0,0,0,0,0],"sum_hessian":[7.3E1,2.8E1,4.5E1,1.1E1,1.7E1,1E1,3.5E1,6E0,1.1E1,5E0,5E0,2.2E1,1.3E1,1.1E1,1.1E1,8E0,5E0,5E0,6E0,6E0,5E0],"tree_param":{"num_deleted":"0","num_feature":"2","num_nodes":"21","size_leaf_vector":"0"}},{"base_weights":[-1.8778197E-1,-4.281625E-1,-8.4458336E-2,-1.7046493E-2,-5.2671397E-1,-3.232066E-1,-6.6977106E-3,-2.5660802E-2,-4.6678007E-2,9.013354E-3,-5.4031417E-2,1.1120469E-1,-3.0089557E-1,-6.924179E-2,2.3534912E-1,-3.2272074E-2,-7.4835853E-3,7.925527E-3,-1.4382989E-2,3.3959597E-1,-2.2307967E-3,3.1708173E-2,1.5592699E-2],"categories":[],"categories_nodes":[],"categories_segments":[],"categories_sizes":[],"default_left":[0,0,0,0,0,0,0,0,0,0,0,0,0,0,0,0,0,0,0,0,0,0,0],"id":14,"left_children":[1,3,5,-1,7,9,11,-1,-1,-1,-1,13,15,17,19,-1,-1,-1,-1,21,-1,-1,-1],"loss_changes":[1.8017752E0,3.1581068E-1,9.817916E-1,0E0,3.4240484E-2,2.3761106E0,1.455613E0,0E0,0E0,0E0,0E0,6.883387E-1,2.6935208E-1,2.9888967E-1,5.075332E-1,0E0,0E0,0E0,0E0,5.4508448E-2,0E0,0E0,0E0],"parents":[2147483647,0,0,1,1,2,2,4,4,5,5,6,6,11,11,12,12,13,13,14,14,19,19],"right_children":[2,4,6,-1,8,10,12,-1,-1,-1,-1,14,16,18,20,-1,-1,-1,-1,22,-1,-1,-1],"split_conditions":[2.9723E-1,1.7957E-1,3.7168E-1,-1.7046493E-2,4.7568E-1,4.2546E-1,6.0974E-1,-2.5660802E-2,-4.6678007E-2,9.013354E-3,-5.4031417E-2,4.9842E-1,6.7971E-1,4.5884E-1,5.0024E-1,-3.2272074E-2,-7.4835853E-3,7.925527E-3,-1.4382989E-2,5.4705E-1,-2.2307967E-3,3.1708173E-2,1.5592699E-2],"split_indices":[1,1,0,0,0,1,0,0,0,0,0,0,0,0,1,0,0,0,0,0,0,0,0],"split_type":[0,0,0,0,0,0,0,0,0,0,0,0,0,0,0,0,0,0,0,0,0,0,0],"sum_hessian":[7.3E1,2.1E1,5.2E1,8E0,1.3E1,1.2E1,4E1,6E0,7E0,6E0,6E0,2.9E1,1.1E1,1.2E1,1.7E1,6E0,5E0,5E0,7E0,1.2E1,5E0,6E0,6E0],"tree_param":{"num_deleted":"0","num_feature":"2","num_nodes":"23","size_leaf_vector":"0"}},{"base_weights":[-1.7553003E-1,-3.5833064E-1,-4.9762297E-2,-3.5171043E-2,-2.5853363E-1,5.5851325E-2,-1.8457189E-1,5.50136E-3,-3.229416E-2,-5.6765098E-2,2.3725046E-2,-6.5710776E-2,-2.9694505E-2,1.5955018E-2,-1.9751322E-1,1.407632E-2,-2.094132E-2,2.7327018E-4,-2.778404E-2],"categories":[],"categories_nodes":[],"categories_segments":[],"categories_sizes":[],"default_left":[0,0,0,0,0,0,0,0,0,0,0,0,0,0,0,0,0,0,0],"id":15,"left_children":[1,3,5,-1,7,9,11,-1,-1,13,-1,15,-1,-1,17,-1,-1,-1,-1],"loss_changes":[1.6834595E0,2.0993733E-1,6.5100646E-1,0E0,1.05943E0,7.806568E-1,4.7642064E-1,0E0,0E0,7.627148E-1,0E0,8.0982673E-1,0E0,0E0,4.535963E-1,0E0,0E0,0E0,0E0],"parents":[2147483647,0,0,1,1,2,2,4,4,5,5,6,6,9,9,11,11,14,14],"right_children":[2,4,6,-1,8,10,12,-1,-1,14,-1,16,-1,-1,18,-1,-1,-1,-1],"split_conditions":[3.6466E-1,4.5884E-1,5.1295E-1,-3.5171043E-2,5.4875E-1,4.432E-1,5.4431E-1,5.50136E-3,-3.229416E-2,3.9024E-1,2.3725046E-2,6.2297E-1,-2.9694505E-2,1.5955018E-2,4.8622E-1,1.407632E-2,-2.094132E-2,2.7327018E-4,-2.778404E-2],"split_indices":[1,0,1,0,0,1,0,0,0,1,0,1,0,0,0,0,0,0,0],"split_type":[0,0,0,0,0,0,0,0,0,0,0,0,0,0,0,0,0,0,0],"sum_hessian":[7.3E1,2.9E1,4.4E1,1.2E1,1.7E1,2.5E1,1.9E1,6E0,1.1E1,1.8E1,7E0,1.3E1,6E0,6E0,1.2E1,6E0,7E0,6E0,6E0],"tree_param":{"num_deleted":"0","num_feature":"2","num_nodes":"19","size_leaf_vector":"0"}},{"base_weights":[-1.6353223E-1,-3.335213E-1,-4.657213E-2,-3.2736123E-2,-2.406321E-1,-1.9639283E-2,1.4522915E-2,5.1477007E-3,-3.0073937E-2,1.4053924E-1,-1.9354126E-1,-8.812971E-3,2.7817985E-1,-4.4294433E-3,-2.7225556E-2,3.9346223E-3,-4.50563E-3,2.6675789E-2,1.0605225E-2],"categories":[],"categories_nodes":[],"categories_segments":[],"categories_sizes":[],"default_left":[0,0,0,0,0,0,0,0,0,0,0,0,0,0,0,0,0,0,0],"id":16,"left_children":[1,3,5,-1,7,-1,9,-1,-1,11,13,15,17,-1,-1,-1,-1,-1,-1],"loss_changes":[1.4557306E0,1.8188572E-1,5.956809E-1,0E0,9.201832E-1,0E0,9.7110146E-1,0E0,0E0,4.7526103E-1,2.9762316E-1,4.0844403E-2,7.690424E-2,0E0,0E0,0E0,0E0,0E0,0E0],"parents":[2147483647,0,0,1,1,2,2,4,4,6,6,9,9,10,10,11,11,12,12],"right_children":[2,4,6,-1,8,-1,10,-1,-1,12,14,16,18,-1,-1,-1,-1,-1,-1],"split_conditions":[3.6466E-1,4.5884E-1,3.7168E-1,-3.2736123E-2,5.4875E-1,-1.9639283E-2,5.9612E-1,5.1477007E-3,-3.0073937E-2,4.9842E-1,5.1295E-1,4.5998E-1,5.4431E-1,-4.4294433E-3,-2.7225556E-2,3.9346223E-3,-4.50563E-3,2.6675789E-2,1.0605225E-2],"split_indices":[1,0,0,0,0,0,0,0,0,0,1,0,0,0,0,0,0,0,0],"split_type":[0,0,0,0,0,0,0,0,0,0,0,0,0,0,0,0,0,0,0],"sum_hessian":[7.3E1,2.9E1,4.4E1,1.2E1,1.7E1,9E0,3.5E1,6E0,1.1E1,2.2E1,1.3E1,1.1E1,1.1E1,8E0,5E0,5E0,6E0,6E0,5E0],"tree_param":{"num_deleted":"0","num_feature":"2","num_nodes":"19","size_leaf_vector":"0"}},{"base_weights":[-1.5224361E-1,-3.5516068E-1,-6.5141365E-2,-2.0357078E-1,-3.4839105E-2,-2.7341697E-1,2.4860483E-3,-3.0861035E-2,2.8700512E-3,1.1071116E-2,-4.9154192E-2,1.0457608E-1,-2.529462E-1,-5.4548036E-2,2.1368928E-1,-2.700935E-2,-6.431026E-3,7.988733E-3,-1.2639592E-2,3.0870295E-1,-2.0841414E-3,2.7662968E-2,1.5334944E-2],"categories":[],"categories_nodes":[],"categories_segments":[],"categories_sizes":[],"default_left":[0,0,0,0,0,0,0,0,0,0,0,0,0,0,0,0,0,0,0,0,0,0,0],"id":17,"left_children":[1,3,5,7,-1,9,11,-1,-1,-1,-1,13,15,17,19,-1,-1,-1,-1,21,-1,-1,-1],"loss_changes":[1.2847797E0,2.7015257E-1,7.471922E-1,5.688316E-1,0E0,2.187437E0,1.0956128E0,0E0,0E0,0E0,0E0,5.3253245E-1,1.8416214E-1,2.5660634E-1,4.2156482E-1,0E0,0E0,0E0,0E0,6.0750246E-3,0E0,0E0,0E0],"parents":[2147483647,0,0,1,1,2,2,3,3,5,5,6,6,11,11,12,12,13,13,14,14,19,19],"right_children":[2,4,6,8,-1,10,12,-1,-1,-1,-1,14,16,18,20,-1,-1,-1,-1,22,-1,-1,-1],"split_conditions":[2.9723E-1,4.8558E-1,3.7168E-1,4.0828E-1,-3.4839105E-2,4.2546E-1,6.0974E-1,-3.0861035E-2,2.8700512E-3,1.1071116E-2,-4.9154192E-2,4.9842E-1,6.7971E-1,4.5884E-1,5.0024E-1,-2.700935E-2,-6.431026E-3,7.988733E-3,-1.2639592E-2,5.4705E-1,-2.0841414E-3,2.7662968E-2,1.5334944E-2],"split_indices":[1,0,0,0,0,1,0,0,0,0,0,0,0,0,1,0,0,0,0,0,0,0,0],"split_type":[0,0,0,0,0,0,0,0,0,0,0,0,0,0,0,0,0,0,0,0,0,0,0],"sum_hessian":[7.3E1,2.1E1,5.2E1,1E1,1.1E1,1.2E1,4E1,5E0,5E0,6E0,6E0,2.9E1,1.1E1,1.2E1,1.7E1,6E0,5E0,5E0,7E0,1.2E1,5E0,6E0,6E0],"tree_param":{"num_deleted":"0","num_feature":"2","num_nodes":"23","size_leaf_vector":"0"}},{"base_weights":[-1.421509E-1,-2.954073E-1,-3.6821045E-2,-2.9866932E-2,-2.04738E-1,4.9420938E-2,-1.4709458E-1,5.5787163E-3,-2.6287276E-2,-4.7344636E-2,2.047962E-2,-4.040868E-2,-2.5458965E-2,8.378848E-2,-2.1308552E-2,1.4757457E-2,-1.8216416E-2,2.3856096E-2,-1.2185558E-2],"categories":[],"categories_nodes":[],"categories_segments":[],"categories_sizes":[],"default_left":[0,0,0,0,0,0,0,0,0,0,0,0,0,0,0,0,0,0,0],"id":18,"left_children":[1,3,5,-1,7,9,11,-1,-1,13,-1,15,-1,17,-1,-1,-1,-1,-1],"loss_changes":[1.183666E0,1.9814229E-1,4.3522894E-1,0E0,7.583899E-1,5.7558656E-1,3.9672145E-1,0E0,0E0,6.1372334E-1,0E0,7.201053E-1,0E0,8.017481E-1,0E0,0E0,0E0,0E0,0E0],"parents":[2147483647,0,0,1,1,2,2,4,4,5,5,6,6,9,9,11,11,13,13],"right_children":[2,4,6,-1,8,10,12,-1,-1,14,-1,16,-1,18,-1,-1,-1,-1,-1],"split_conditions":[3.6466E-1,4.5884E-1,5.1295E-1,-2.9866932E-2,5.4875E-1,4.432E-1,5.4431E-1,5.5787163E-3,-2.6287276E-2,4.2546E-1,2.047962E-2,6.2297E-1,-2.5458965E-2,5.3641E-1,-2.1308552E-2,1.4757457E-2,-1.8216416E-2,2.3856096E-2,-1.2185558E-2],"split_indices":[1,0,1,0,0,1,0,0,0,1,0,1,0,0,0,0,0,0,0],"split_type":[0,0,0,0,0,0,0,0,0,0,0,0,0,0,0,0,0,0,0],"sum_hessian":[7.3E1,2.9E1,4.4E1,1.2E1,1.7E1,2.5E1,1.9E1,6E0,1.1E1,1.8E1,7E0,1.3E1,6E0,1.2E1,6E0,6E0,7E0,6E0,6E0],"tree_param":{"num_deleted":"0","num_feature":"2","num_nodes":"19","size_leaf_vector":"0"}},{"base_weights":[-1.324173E-1,-2.7913496E-1,-3.7042752E-2,-2.9158236E-2,-1.9053315E-1,-2.1412297E-1,1.8094055E-2,-1.6407453E-2,-3.0460453E-2,-1.971303E-3,-2.7470605E-2,1.2455622E-1,-1.581005E-1,6.6190264E-3,-8.8750515E-3,1.8023001E-2,2.16204E-2,-3.23607E-3,-2.2813484E-2,1.0563531E-2,-1.4226573E-2],"categories":[],"categories_nodes":[],"categories_segments":[],"categories_sizes":[],"default_left":[0,0,0,0,0,0,0,0,0,0,0,0,0,0,0,0,0,0,0,0,0],"id":19,"left_children":[1,3,5,-1,7,9,11,13,-1,-1,-1,15,17,-1,-1,19,-1,-1,-1,-1,-1],"loss_changes":[1.0251517E0,2.0764399E-1,4.530017E-1,0E0,6.691028E-1,3.0475307E-1,6.949823E-1,1.2778866E-1,0E0,0E0,0E0,3.9595142E-1,2.2196671E-1,0E0,0E0,4.0939492E-1,0E0,0E0,0E0,0E0,0E0],"parents":[2147483647,0,0,1,1,2,2,4,4,5,5,6,6,7,7,11,11,12,12,15,15],"right_children":[2,4,6,-1,8,10,12,14,-1,-1,-1,16,18,-1,-1,20,-1,-1,-1,-1,-1],"split_conditions":[3.4366E-1,4.5884E-1,3.7168E-1,-2.9158236E-2,5.7655E-1,3.046E-1,5.9612E-1,5.4553E-1,-3.0460453E-2,-1.971303E-3,-2.7470605E-2,5.3034E-1,5.1295E-1,6.6190264E-3,-8.8750515E-3,4.8999E-1,2.16204E-2,-3.23607E-3,-2.2813484E-2,1.0563531E-2,-1.4226573E-2],"split_indices":[1,0,0,0,0,0,0,0,0,0,0,0,1,0,0,0,0,0,0,0,0],"split_type":[0,0,0,0,0,0,0,0,0,0,0,0,0,0,0,0,0,0,0,0,0],"sum_hessian":[7.3E1,2.8E1,4.5E1,1.1E1,1.7E1,1E1,3.5E1,1E1,7E0,5E0,5E0,2.2E1,1.3E1,5E0,5E0,1.4E1,8E0,8E0,5E0,9E0,5E0],"tree_param":{"num_deleted":"0","num_feature":"2","num_nodes":"21","size_leaf_vector":"0"}},{"base_weights":[-1.2382937E-1,-2.9331055E-1,-5.1142294E-2,-1.5013799E-1,-4.001095E-1,-1.8793924E-1,3.0830681E-2,-2.5243148E-2,4.599173E-3,-3.5808653E-2,-1.8239668E-2,5.085159E-3,-3.308617E-1,1.8314059E-1,-1.7430457E-1,-4.45172E-2,-1.5671053E-3,-3.4990392E-3,2.8495634E-1,-6.7766802E-3,-2.1387642E-2,3.0858476E-2,1.2672591E-2],"categories":[],"categories_nodes":[],"categories_segments":[],"categories_sizes":[],"default_left":[0,0,0,0,0,0,0,0,0,0,0,0,0,0,0,0,0,0,0,0,0,0,0],"id":20,"left_children":[1,3,5,7,9,11,13,-1,-1,-1,-1,-1,15,17,19,-1,-1,-1,21,-1,-1,-1,-1],"loss_changes":[8.9661217E-1,2.7632332E-1,6.001179E-1,4.5430452E-1,2.9513836E-2,7.534567E-1,1.0942228E0,0E0,0E0,0E0,0E0,0E0,1.0461698E0,4.812281E-1,1.13836884E-1,0E0,0E0,0E0,1.358782E-1,0E0,0E0,0E0,0E0],"parents":[2147483647,0,0,1,1,2,2,3,3,4,4,5,5,6,6,12,12,13,13,14,14,18,18],"right_children":[2,4,6,8,10,12,14,-1,-1,-1,-1,-1,16,18,20,-1,-1,-1,22,-1,-1,-1,-1],"split_conditions":[2.9723E-1,4.8558E-1,4.732E-1,4.0828E-1,6.1448E-1,4.2546E-1,5.9612E-1,-2.5243148E-2,4.599173E-3,-3.5808653E-2,-1.8239668E-2,5.085159E-3,3.7168E-1,3.9201E-1,5.1295E-1,-4.45172E-2,-1.5671053E-3,-3.4990392E-3,5.1284E-1,-6.7766802E-3,-2.1387642E-2,3.0858476E-2,1.2672591E-2],"split_indices":[1,0,0,0,0,1,0,0,0,0,0,0,0,1,1,0,0,0,0,0,0,0,0],"split_type":[0,0,0,0,0,0,0,0,0,0,0,0,0,0,0,0,0,0,0,0,0,0,0],"sum_hessian":[7.3E1,2.1E1,5.2E1,1E1,1.1E1,1.9E1,3.3E1,5E0,5E0,6E0,5E0,7E0,1.2E1,1.9E1,1.4E1,6E0,6E0,6E0,1.3E1,9E0,5E0,5E0,8E0],"tree_param":{"num_deleted":"0","num_feature":"2","num_nodes":"23","size_leaf_vector":"0"}},{"base_weights":[-1.1594519E-1,-2.4615109E-1,-3.1338315E-2,-1.8859373E-1,-3.265165E-2,1.1427113E-2,-6.821678E-2,-2.5477776E-2,-1.0638941E-1,-2.1495033E-2,-2.6145265E-3,5.083153E-2,-2.536893E-2,8.252458E-2,-1.6491514E-1,8.605569E-4,6.128779E-3,5.311336E-3,1.7714424E-2,-2.6249185E-3,-2.0050915E-2,9.226697E-3,-1.4381952E-2],"categories":[],"categories_nodes":[],"categories_segments":[],"categories_sizes":[],"default_left":[0,0,0,0,0,0,0,0,0,0,0,0,0,0,0,0,0,0,0,0,0,0,0],"id":21,"left_children":[1,3,5,7,-1,-1,9,-1,11,-1,13,15,-1,17,19,-1,-1,21,-1,-1,-1,-1,-1],"loss_changes":[8.0749327E-1,2.3370743E-1,3.220237E-1,2.6198453E-1,0E0,0E0,5.579827E-1,0E0,6.369071E-1,0E0,4.419716E-1,1.2433695E-2,0E0,2.479144E-1,1.3702425E-1,0E0,0E0,3.7155238E-1,0E0,0E0,0E0,0E0,0E0],"parents":[2147483647,0,0,1,1,2,2,3,3,6,6,8,8,10,10,11,11,13,13,14,14,17,17],"right_children":[2,4,6,8,-1,-1,10,-1,12,-1,14,16,-1,18,20,-1,-1,22,-1,-1,-1,-1,-1],"split_conditions":[3.4366E-1,2.9888E-1,3.9024E-1,4.2654E-1,-3.265165E-2,1.1427113E-2,3.7168E-1,-2.5477776E-2,5.7655E-1,-2.1495033E-2,5.9612E-1,1.9247E-1,-2.536893E-2,5.3034E-1,5.1295E-1,8.605569E-4,6.128779E-3,4.8999E-1,1.7714424E-2,-2.6249185E-3,-2.0050915E-2,9.226697E-3,-1.4381952E-2],"split_indices":[1,1,1,0,0,0,0,0,0,0,0,1,0,0,1,0,0,0,0,0,0,0,0],"split_type":[0,0,0,0,0,0,0,0,0,0,0,0,0,0,0,0,0,0,0,0,0,0,0],"sum_hessian":[7.3E1,2.8E1,4.5E1,2.3E1,5E0,7E0,3.8E1,7E0,1.6E1,8E0,3E1,1E1,6E0,2E1,1E1,5E0,5E0,1.4E1,6E0,5E0,5E0,9E0,5E0],"tree_param":{"num_deleted":"0","num_feature":"2","num_nodes":"23","size_leaf_vector":"0"}},{"base_weights":[-1.08555965E-1,-2.6586536E-1,-4.5369796E-2,-8.0318665E-3,-3.5533452E-1,-1.6565213E-1,3.0256629E-2,-1.4324621E-2,-3.256293E-2,3.936594E-3,-3.0392966E-1,1.6818081E-1,-1.5565939E-1,-4.027356E-2,-2.0595063E-3,-3.1463671E-3,2.6123407E-1,-6.2330426E-3,-1.8797733E-2,2.77641E-2,9.9933855E-3],"categories":[],"categories_nodes":[],"categories_segments":[],"categories_sizes":[],"default_left":[0,0,0,0,0,0,0,0,0,0,0,0,0,0,0,0,0,0,0,0,0],"id":22,"left_children":[1,3,5,-1,7,9,11,-1,-1,-1,13,15,17,-1,-1,-1,19,-1,-1,-1,-1],"loss_changes":[7.2348124E-1,2.6025927E-1,4.9622428E-1,0E0,8.5505605E-2,6.4939386E-1,8.9801764E-1,0E0,0E0,0E0,8.228643E-1,4.0202922E-1,8.253208E-2,0E0,0E0,0E0,1.4590281E-1,0E0,0E0,0E0,0E0],"parents":[2147483647,0,0,1,1,2,2,4,4,5,5,6,6,10,10,11,11,12,12,16,16],"right_children":[2,4,6,-1,8,10,12,-1,-1,-1,14,16,18,-1,-1,-1,20,-1,-1,-1,-1],"split_conditions":[2.8055E-1,1.7957E-1,4.732E-1,-8.0318665E-3,4.7568E-1,4.2546E-1,5.9612E-1,-1.4324621E-2,-3.256293E-2,3.936594E-3,3.7168E-1,3.9201E-1,5.1295E-1,-4.027356E-2,-2.0595063E-3,-3.1463671E-3,4.8893E-1,-6.2330426E-3,-1.8797733E-2,2.77641E-2,9.9933855E-3],"split_indices":[1,1,0,0,0,1,0,0,0,0,0,1,1,0,0,0,1,0,0,0,0],"split_type":[0,0,0,0,0,0,0,0,0,0,0,0,0,0,0,0,0,0,0,0,0],"sum_hessian":[7.3E1,2E1,5.3E1,8E0,1.2E1,2E1,3.3E1,5E0,7E0,8E0,1.2E1,1.9E1,1.4E1,6E0,6E0,6E0,1.3E1,9E0,5E0,6E0,7E0],"tree_param":{"num_deleted":"0","num_feature":"2","num_nodes":"21","size_leaf_vector":"0"}},{"base_weights":[-1.0154583E-1,-2.1539867E-1,-2.3387367E-2,-1.6101933E-1,-2.7830318E-2,1.3952283E-2,-6.0375504E-2,-2.3154935E-2,-8.203554E-2,-2.1009335E-2,-3.551532E-3,6.133033E-2,-2.2170408E-2,1.5966076E-1,-1.0946194E-1,1.6154018E-3,6.817519E-3,3.0291046E-3,1.7186828E-2,-2.279075E-2,-2.0037519E-2,1.5232486E-2,-1.631971E-2],"categories":[],"categories_nodes":[],"categories_segments":[],"categories_sizes":[],"default_left":[0,0,0,0,0,0,0,0,0,0,0,0,0,0,0,0,0,0,0,0,0,0,0],"id":23,"left_children":[1,3,5,7,-1,-1,9,-1,11,-1,13,15,-1,17,19,-1,-1,-1,-1,21,-1,-1,-1],"loss_changes":[6.5345603E-1,1.9421113E-1,3.5980055E-1,2.5467956E-1,0E0,0E0,4.8599845E-1,0E0,5.3864634E-1,0E0,5.7062495E-1,1.0985121E-2,0E0,9.8502874E-2,2.6728064E-1,0E0,0E0,0E0,0E0,6.602595E-1,0E0,0E0,0E0],"parents":[2147483647,0,0,1,1,2,2,3,3,6,6,8,8,10,10,11,11,13,13,14,14,19,19],"right_children":[2,4,6,8,-1,-1,10,-1,12,-1,14,16,-1,18,20,-1,-1,-1,-1,22,-1,-1,-1],"split_conditions":[3.6466E-1,2.9888E-1,3.9024E-1,4.2654E-1,-2.7830318E-2,1.3952283E-2,4.2582E-1,-2.3154935E-2,5.7655E-1,-2.1009335E-2,5.1295E-1,1.9247E-1,-2.2170408E-2,4.432E-1,5.4431E-1,1.6154018E-3,6.817519E-3,3.0291046E-3,1.7186828E-2,6.2297E-1,-2.0037519E-2,1.5232486E-2,-1.631971E-2],"split_indices":[1,1,1,0,0,0,1,0,0,0,1,1,0,1,0,0,0,0,0,1,0,0,0],"split_type":[0,0,0,0,0,0,0,0,0,0,0,0,0,0,0,0,0,0,0,0,0,0,0],"sum_hessian":[7.3E1,2.9E1,4.4E1,2.3E1,6E0,6E0,3.8E1,7E0,1.6E1,7E0,3.1E1,1E1,6E0,1.2E1,1.9E1,5E0,5E0,5E0,7E0,1.3E1,6E0,6E0,7E0],"tree_param":{"num_deleted":"0","num_feature":"2","num_nodes":"23","size_leaf_vector":"0"}},{"base_weights":[-9.491218E-2,-2.3694913E-1,-3.791795E-2,-7.444885E-3,-3.3194003E-1,-1.4712279E-1,3.0647334E-2,-3.1786658E-2,-1.2706572E-2,5.0286767E-3,-2.8407845E-1,1.5680185E-1,-1.3960186E-1,-3.74686E-2,-2.0994714E-3,-2.8658863E-3,2.4310856E-1,-5.8828914E-3,-1.637053E-2,2.8139884E-2,9.602744E-3],"categories":[],"categories_nodes":[],"categories_segments":[],"categories_sizes":[],"default_left":[0,0,0,0,0,0,0,0,0,0,0,0,0,0,0,0,0,0,0,0,0],"id":24,"left_children":[1,3,5,-1,7,9,11,-1,-1,-1,13,15,17,-1,-1,-1,19,-1,-1,-1,-1],"loss_changes":[5.900665E-1,2.4170315E-1,4.088426E-1,0E0,1.0738695E-1,6.3502E-1,7.5213176E-1,0E0,0E0,0E0,7.034483E-1,3.4590942E-1,5.5056393E-2,0E0,0E0,0E0,1.6475862E-1,0E0,0E0,0E0,0E0],"parents":[2147483647,0,0,1,1,2,2,4,4,5,5,6,6,10,10,11,11,12,12,16,16],"right_children":[2,4,6,-1,8,10,12,-1,-1,-1,14,16,18,-1,-1,-1,20,-1,-1,-1,-1],"split_conditions":[2.8055E-1,4.8558E-1,4.732E-1,-7.444885E-3,6.1448E-1,4.2546E-1,5.9612E-1,-3.1786658E-2,-1.2706572E-2,5.0286767E-3,3.7168E-1,3.9201E-1,5.1295E-1,-3.74686E-2,-2.0994714E-3,-2.8658863E-3,5.1284E-1,-5.8828914E-3,-1.637053E-2,2.8139884E-2,9.602744E-3],"split_indices":[1,0,0,0,0,1,0,0,0,0,0,1,1,0,0,0,0,0,0,0,0],"split_type":[0,0,0,0,0,0,0,0,0,0,0,0,0,0,0,0,0,0,0,0,0],"sum_hessian":[7.3E1,2E1,5.3E1,9E0,1.1E1,2E1,3.3E1,6E0,5E0,8E0,1.2E1,1.9E1,1.4E1,6E0,6E0,6E0,1.3E1,9E0,5E0,5E0,8E0],"tree_param":{"num_deleted":"0","num_feature":"2","num_nodes":"21","size_leaf_vector":"0"}},{"base_weights":[-8.879179E-2,-1.9104806E-1,-1.864779E-2,-1.3706507E-1,-2.6163006E-2,1.325198E-2,-5.323082E-2,-2.2467485E-2,-6.625535E-2,-1.9500256E-2,1.2578629E-4,5.4024953E-2,-1.9723885E-2,1.4808356E-2,-7.387406E-2,7.8097857E-3,2.5196382E-4,-1.2218607E-2,-9.588659E-3,-1.3612947E-2,1.5961327E-2],"categories":[],"categories_nodes":[],"categories_segments":[],"categories_sizes":[],"default_left":[0,0,0,0,0,0,0,0,0,0,0,0,0,0,0,0,0,0,0,0,0],"id":25,"left_children":[1,3,5,7,-1,-1,9,-1,11,-1,13,15,-1,-1,17,-1,-1,-1,19,-1,-1],"loss_changes":[5.272144E-1,2.0772886E-1,3.1340203E-1,2.5631234E-1,0E0,0E0,4.303073E-1,0E0,4.401367E-1,0E0,4.8183632E-1,3.0113582E-2,0E0,0E0,1.3581425E-1,0E0,0E0,0E0,6.1216015E-1,0E0,0E0],"parents":[2147483647,0,0,1,1,2,2,3,3,6,6,8,8,10,10,11,11,14,14,18,18],"right_children":[2,4,6,8,-1,-1,10,-1,12,-1,14,16,-1,-1,18,-1,-1,-1,20,-1,-1],"split_conditions":[3.6466E-1,2.9888E-1,3.9024E-1,4.1611E-1,-2.6163006E-2,1.325198E-2,4.2582E-1,-2.2467485E-2,5.7655E-1,-1.9500256E-2,4.8893E-1,5.0468E-1,-1.9723885E-2,1.4808356E-2,4.732E-1,7.8097857E-3,2.5196382E-4,-1.2218607E-2,5.8305E-1,-1.3612947E-2,1.5961327E-2],"split_indices":[1,1,1,0,0,0,1,0,0,0,1,0,0,0,0,0,0,0,1,0,0],"split_type":[0,0,0,0,0,0,0,0,0,0,0,0,0,0,0,0,0,0,0,0,0],"sum_hessian":[7.3E1,2.9E1,4.4E1,2.3E1,6E0,6E0,3.8E1,6E0,1.7E1,7E0,3.1E1,1.1E1,6E0,8E0,2.3E1,5E0,6E0,9E0,1.4E1,8E0,6E0],"tree_param":{"num_deleted":"0","num_feature":"2","num_nodes":"21","size_leaf_vector":"0"}},{"base_weights":[-8.296487E-2,-2.1257386E-1,-3.1024989E-2,-5.2992706E-3,-2.944722E-1,-1.2569907E-1,2.8362678E-2,-1.1244216E-2,-2.7455637E-2,5.967333E-3,-2.581354E-1,1.2578394E-1,-1.6072494E-1,-3.4485977E-2,-1.4685986E-3,-1.6052226E-4,1.9415286E-1,-1.8098239E-2,-5.1518595E-3,2.8909493E-2,4.496502E-3],"categories":[],"categories_nodes":[],"categories_segments":[],"categories_sizes":[],"default_left":[0,0,0,0,0,0,0,0,0,0,0,0,0,0,0,0,0,0,0,0,0],"id":26,"left_children":[1,3,5,-1,7,9,11,-1,-1,-1,13,15,17,-1,-1,-1,19,-1,-1,-1,-1],"loss_changes":[4.9156368E-1,2.2327143E-1,3.071787E-1,0E0,7.9669E-2,5.914097E-1,6.4653575E-1,0E0,0E0,0E0,6.164395E-1,2.015746E-1,7.242221E-2,0E0,0E0,0E0,3.6198997E-1,0E0,0E0,0E0,0E0],"parents":[2147483647,0,0,1,1,2,2,4,4,5,5,6,6,10,10,11,11,12,12,16,16],"right_children":[2,4,6,-1,8,10,12,-1,-1,-1,14,16,18,-1,-1,-1,20,-1,-1,-1,-1],"split_conditions":[2.8055E-1,1.7957E-1,4.732E-1,-5.2992706E-3,4.7568E-1,4.2546E-1,6.0974E-1,-1.1244216E-2,-2.7455637E-2,5.967333E-3,3.7168E-1,5.3034E-1,4.0961E-1,-3.4485977E-2,-1.4685986E-3,-1.6052226E-4,5.4705E-1,-1.8098239E-2,-5.1518595E-3,2.8909493E-2,4.496502E-3],"split_indices":[1,1,0,0,0,1,0,0,0,0,0,0,1,0,0,0,0,0,0,0,0],"split_type":[0,0,0,0,0,0,0,0,0,0,0,0,0,0,0,0,0,0,0,0,0],"sum_hessian":[7.3E1,2E1,5.3E1,8E0,1.2E1,2E1,3.3E1,5E0,7E0,8E0,1.2E1,2.2E1,1.1E1,6E0,6E0,8E0,1.4E1,5E0,6E0,5E0,9E0],"tree_param":{"num_deleted":"0","num_feature":"2","num_nodes":"21","size_leaf_vector":"0"}},{"base_weights":[-7.7607244E-2,-1.560492E-1,8.12756E-4,-1.1209418E-1,-2.733509E-2,2.1950109E-2,-5.227648E-2,-1.9523075E-1,6.4369366E-2,-3.2269023E-2,4.765376E-2,-8.081467E-2,-2.8384295E-1,-7.655045E-3,1.6505834E-2,2.0536976E-2,-4.5197956E-2,-1.7910631E-2,6.7986143E-3,-2.833615E-2,-9.5176E-3,-1.2394377E-1,1.1939968E-2,-3.050379E-3,-1.599762E-2],"categories":[],"categories_nodes":[],"categories_segments":[],"categories_sizes":[],"default_left":[0,0,0,0,0,0,0,0,0,0,0,0,0,0,0,0,0,0,0,0,0,0,0,0,0],"id":27,"left_children":[1,3,5,7,-1,-1,9,11,13,-1,15,17,19,-1,-1,-1,21,-1,-1,-1,-1,23,-1,-1,-1],"loss_changes":[4.5533177E-1,2.9810417E-1,6.04086E-1,4.8202533E-1,0E0,0E0,1.2669575E0,2.001118E-1,3.075341E-1,0E0,5.793901E-1,3.1963822E-1,1.2903291E-1,0E0,0E0,0E0,3.4164077E-1,0E0,0E0,0E0,0E0,1.0293977E-1,0E0,0E0,0E0],"parents":[2147483647,0,0,1,1,2,2,3,3,6,6,7,7,8,8,10,10,11,11,12,12,16,16,21,21],"right_children":[2,4,6,8,-1,-1,10,12,14,-1,16,18,20,-1,-1,-1,22,-1,-1,-1,-1,24,-1,-1,-1],"split_conditions":[3.9201E-1,3.806E-1,4.2546E-1,2.9723E-1,-2.733509E-2,2.1950109E-2,3.7168E-1,4.8558E-1,4.5884E-1,-3.2269023E-2,4.8893E-1,4.0828E-1,6.1448E-1,-7.655045E-3,1.6505834E-2,2.0536976E-2,6.4269E-1,-1.7910631E-2,6.7986143E-3,-2.833615E-2,-9.5176E-3,5.3975E-1,1.1939968E-2,-3.050379E-3,-1.599762E-2],"split_indices":[1,1,1,1,0,0,0,0,0,0,1,0,0,0,0,0,1,0,0,0,0,0,0,0,0],"split_type":[0,0,0,0,0,0,0,0,0,0,0,0,0,0,0,0,0,0,0,0,0,0,0,0,0],"sum_hessian":[7.3E1,3.6E1,3.7E1,3.1E1,5E0,5E0,3.2E1,2.1E1,1E1,6E0,2.6E1,1E1,1.1E1,5E0,5E0,7E0,1.9E1,5E0,5E0,6E0,5E0,1.4E1,5E0,8E0,6E0],"tree_param":{"num_deleted":"0","num_feature":"2","num_nodes":"25","size_leaf_vector":"0"}},{"base_weights":[-7.265616E-2,-1.6276501E-1,-1.0969012E-2,-1.0772454E-1,-2.4616731E-2,1.3394526E-2,-4.471183E-2,-1.8896017E-2,-3.3518456E-2,1.3283673E-2,-9.041124E-2,8.6944856E-2,-1.6352221E-2,-4.1165978E-2,1.1060976E-2,4.0941946E-3,7.860724E-3,1.9189235E-2,-8.272116E-2,-1.7378256E-2,-7.6782554E-3,-1.2077886E-2,1.4294705E-2],"categories":[],"categories_nodes":[],"categories_segments":[],"categories_sizes":[],"default_left":[0,0,0,0,0,0,0,0,0,0,0,0,0,0,0,0,0,0,0,0,0,0,0],"id":28,"left_children":[1,3,5,7,-1,-1,9,-1,11,-1,13,15,-1,-1,17,-1,-1,-1,19,-1,21,-1,-1],"loss_changes":[4.095479E-1,2.37849E-1,2.9582232E-1,2.4840733E-1,0E0,0E0,4.1137117E-1,0E0,3.9681256E-1,0E0,1.5412908E0,6.368086E-4,0E0,0E0,6.6397315E-1,0E0,0E0,0E0,2.3301262E-1,0E0,4.8680422E-1,0E0,0E0],"parents":[2147483647,0,0,1,1,2,2,3,3,6,6,8,8,10,10,11,11,14,14,18,18,20,20],"right_children":[2,4,6,8,-1,-1,10,-1,12,-1,14,16,-1,-1,18,-1,-1,-1,20,-1,22,-1,-1],"split_conditions":[3.6466E-1,2.9888E-1,3.9024E-1,4.2654E-1,-2.4616731E-2,1.3394526E-2,3.1741E-1,-1.8896017E-2,5.7655E-1,1.3283673E-2,4.2582E-1,1.9247E-1,-1.6352221E-2,-4.1165978E-2,4.8893E-1,4.0941946E-3,7.860724E-3,1.9189235E-2,4.732E-1,-1.7378256E-2,5.8305E-1,-1.2077886E-2,1.4294705E-2],"split_indices":[1,1,1,0,0,0,0,0,0,0,1,1,0,0,1,0,0,0,0,0,1,0,0],"split_type":[0,0,0,0,0,0,0,0,0,0,0,0,0,0,0,0,0,0,0,0,0,0,0],"sum_hessian":[7.3E1,2.9E1,4.4E1,2.3E1,6E0,6E0,3.8E1,7E0,1.6E1,6E0,3.2E1,1E1,6E0,5E0,2.7E1,5E0,5E0,7E0,2E1,6E0,1.4E1,8E0,6E0],"tree_param":{"num_deleted":"0","num_feature":"2","num_nodes":"23","size_leaf_vector":"0"}},{"base_weights":[-6.799573E-2,-4.4395953E-2,-2.1565273E-2,-1.444424E-1,2.5011271E-2,3.247937E-2,-2.4453667E-1,3.046448E-2,-5.1939692E-2,-7.027839E-3,1.1493752E-2,-3.3989653E-2,-1.0244106E-1,-2.5121108E-2,1.8163702E-2,4.802699E-3,-1.7287591E-2,2.5788907E-2,-6.401521E-2,-2.176939E-2,1.0799267E-2,1.1765026E-1,-1.802397E-2,2.8891316E-2,-5.535013E-3],"categories":[],"categories_nodes":[],"categories_segments":[],"categories_sizes":[],"default_left":[0,0,0,0,0,0,0,0,0,0,0,0,0,0,0,0,0,0,0,0,0,0,0,0,0],"id":29,"left_children":[1,3,-1,5,7,9,11,-1,13,-1,-1,-1,15,-1,17,-1,-1,-1,19,-1,21,23,-1,-1,-1],"loss_changes":[3.7063769E-1,4.7580096E-1,0E0,5.037903E-1,1.223722E0,1.8199262E-1,4.8726487E-1,0E0,7.004786E-1,0E0,0E0,0E0,2.7058935E-1,0E0,7.981885E-1,0E0,0E0,0E0,4.093652E-1,0E0,5.3808737E-1,7.455913E-1,0E0,0E0,0E0],"parents":[2147483647,0,0,1,1,3,3,4,4,5,5,6,6,8,8,12,12,14,14,18,18,20,20,21,21],"right_children":[2,4,-1,6,8,10,12,-1,14,-1,-1,-1,16,-1,18,-1,-1,-1,20,-1,22,24,-1,-1,-1],"split_conditions":[7.282E-1,4.732E-1,-2.1565273E-2,3.1741E-1,4.9209E-1,4.1893E-1,3.7168E-1,3.046448E-2,5.3034E-1,-7.027839E-3,1.1493752E-2,-3.3989653E-2,4.1611E-1,-2.5121108E-2,5.4705E-1,4.802699E-3,-1.7287591E-2,2.5788907E-2,5.7008E-1,-2.176939E-2,5.1295E-1,6.0974E-1,-1.802397E-2,2.8891316E-2,-5.535013E-3],"split_indices":[0,0,0,0,0,1,0,0,0,0,0,0,0,0,0,0,0,0,0,0,1,0,0,0,0],"split_type":[0,0,0,0,0,0,0,0,0,0,0,0,0,0,0,0,0,0,0,0,0,0,0,0,0],"sum_hessian":[7.3E1,6.7E1,6E0,2.7E1,4E1,1E1,1.7E1,6E0,3.4E1,5E0,5E0,6E0,1.1E1,6E0,2.8E1,5E0,6E0,5E0,2.3E1,5E0,1.8E1,1.3E1,5E0,5E0,8E0],"tree_param":{"num_deleted":"0","num_feature":"2","num_nodes":"25","size_leaf_vector":"0"}},{"base_weights":[-6.355657E-2,-4.146792E-2,-2.0178938E-2,-1.3510951E-1,2.3493849E-2,3.0449407E-2,-2.2877833E-1,2.850605E-2,-4.849476E-2,-6.588599E-3,1.0775393E-2,-3.1804603E-2,-9.579838E-2,-2.350618E-2,1.7123904E-2,4.50253E-3,-1.6176246E-2,2.41771E-2,-5.9898946E-2,-2.0408804E-2,1.02699725E-2,1.104948E-1,-1.6897473E-2,2.708561E-2,-5.1660123E-3],"categories":[],"categories_nodes":[],"categories_segments":[],"categories_sizes":[],"default_left":[0,0,0,0,0,0,0,0,0,0,0,0,0,0,0,0,0,0,0,0,0,0,0,0,0],"id":30,"left_children":[1,3,-1,5,7,9,11,-1,13,-1,-1,-1,15,-1,17,-1,-1,-1,19,-1,21,23,-1,-1,-1],"loss_changes":[3.2473838E-1,4.1682664E-1,0E0,4.4118202E-1,1.0709095E0,1.5995446E-1,4.268126E-1,0E0,6.1379844E-1,0E0,0E0,0E0,2.371313E-1,0E0,7.0110655E-1,0E0,0E0,0E0,3.601819E-1,0E0,4.7348294E-1,6.543118E-1,0E0,0E0,0E0],"parents":[2147483647,0,0,1,1,3,3,4,4,5,5,6,6,8,8,12,12,14,14,18,18,20,20,21,21],"right_children":[2,4,-1,6,8,10,12,-1,14,-1,-1,-1,16,-1,18,-1,-1,-1,20,-1,22,24,-1,-1,-1],"split_conditions":[7.282E-1,4.732E-1,-2.0178938E-2,3.1741E-1,4.9209E-1,4.1893E-1,3.7168E-1,2.850605E-2,5.3034E-1,-6.588599E-3,1.0775393E-2,-3.1804603E-2,4.1611E-1,-2.350618E-2,5.4705E-1,4.50253E-3,-1.6176246E-2,2.41771E-2,5.7008E-1,-2.0408804E-2,5.1295E-1,6.0974E-1,-1.6897473E-2,2.708561E-2,-5.1660123E-3],"split_indices":[0,0,0,0,0,1,0,0,0,0,0,0,0,0,0,0,0,0,0,0,1,0,0,0,0],"split_type":[0,0,0,0,0,0,0,0,0,0,0,0,0,0,0,0,0,0,0,0,0,0,0,0,0],"sum_hessian":[7.3E1,6.7E1,6E0,2.7E1,4E1,1E1,1.7E1,6E0,3.4E1,5E0,5E0,6E0,1.1E1,6E0,2.8E1,5E0,6E0,5E0,2.3E1,5E0,1.8E1,1.3E1,5E0,5E0,8E0],"tree_param":{"num_deleted":"0","num_feature":"2","num_nodes":"25","size_leaf_vector":"0"}},{"base_weights":[-5.9407126E-2,-1.3667527E-1,-9.403143E-3,-8.3259195E-2,-2.4567027E-2,3.0076418E-2,-1.1590291E-2,-1.5538597E-2,-2.0045321E-2,2.191049E-2,-4.0809713E-2,6.3408264E-3,-1.3615268E-2,-2.2823921E-1,6.4316995E-2,6.2495456E-3,-3.763244E-2,1.733679E-2,-4.3301348E-2,7.149972E-3,-1.3181231E-2],"categories":[],"categories_nodes":[],"categories_segments":[],"categories_sizes":[],"default_left":[0,0,0,0,0,0,0,0,0,0,0,0,0,0,0,0,0,0,0,0,0],"id":31,"left_children":[1,3,5,7,-1,9,-1,-1,11,-1,13,-1,-1,15,17,-1,-1,-1,19,-1,-1],"loss_changes":[2.8462973E-1,2.6842117E-1,2.6822007E-1,1.8385325E-1,0E0,6.992587E-1,0E0,0E0,3.024839E-1,0E0,6.05795E-1,0E0,0E0,9.7924995E-1,3.691107E-1,0E0,0E0,0E0,2.5545934E-1,0E0,0E0],"parents":[2147483647,0,0,1,1,2,2,3,3,5,5,8,8,10,10,13,13,14,14,18,18],"right_children":[2,4,6,8,-1,10,-1,-1,12,-1,14,-1,-1,16,18,-1,-1,-1,20,-1,-1],"split_conditions":[3.4366E-1,2.9888E-1,6.2297E-1,4.2654E-1,-2.4567027E-2,3.4516E-1,-1.1590291E-2,-1.5538597E-2,5.7655E-1,2.191049E-2,4.2582E-1,6.3408264E-3,-1.3615268E-2,3.9024E-1,4.8893E-1,6.2495456E-3,-3.763244E-2,1.733679E-2,5.3975E-1,7.149972E-3,-1.3181231E-2],"split_indices":[1,1,1,0,0,0,0,0,0,0,1,0,0,1,1,0,0,0,0,0,0],"split_type":[0,0,0,0,0,0,0,0,0,0,0,0,0,0,0,0,0,0,0,0,0],"sum_hessian":[7.3E1,2.8E1,4.5E1,2.3E1,5E0,3.6E1,9E0,7E0,1.6E1,7E0,2.9E1,1E1,6E0,1E1,1.9E1,5E0,5E0,7E0,1.2E1,6E0,6E0],"tree_param":{"num_deleted":"0","num_feature":"2","num_nodes":"21","size_leaf_vector":"0"}},{"base_weights":[-5.5723723E-2,-3.5311744E-2,-1.8453825E-2,-1.23952284E-1,2.6084526E-2,2.3528138E-2,-2.0719297E-1,2.7112603E-2,-4.1744117E-2,-5.916166E-3,9.1512855E-3,-2.8967932E-2,-8.548332E-2,-2.2175848E-2,2.0989714E-2,4.4483803E-3,-1.4803611E-2,2.2347447E-2,-4.9128912E-2,-1.9142063E-2,1.8540587E-2,1.1109046E-1,-1.5037441E-2,2.4966722E-2,-3.6839272E-3],"categories":[],"categories_nodes":[],"categories_segments":[],"categories_sizes":[],"default_left":[0,0,0,0,0,0,0,0,0,0,0,0,0,0,0,0,0,0,0,0,0,0,0,0,0],"id":32,"left_children":[1,3,-1,5,7,9,11,-1,13,-1,-1,-1,15,-1,17,-1,-1,-1,19,-1,21,23,-1,-1,-1],"loss_changes":[2.7879825E-1,3.7330273E-1,0E0,3.486133E-1,9.478761E-1,1.205742E-1,3.5923254E-1,0E0,5.637647E-1,0E0,0E0,0E0,2.0613462E-1,0E0,5.7785326E-1,0E0,0E0,0E0,3.394502E-1,0E0,4.0744352E-1,5.138318E-1,0E0,0E0,0E0],"parents":[2147483647,0,0,1,1,3,3,4,4,5,5,6,6,8,8,12,12,14,14,18,18,20,20,21,21],"right_children":[2,4,-1,6,8,10,12,-1,14,-1,-1,-1,16,-1,18,-1,-1,-1,20,-1,22,24,-1,-1,-1],"split_conditions":[7.282E-1,4.732E-1,-1.8453825E-2,3.1741E-1,4.9209E-1,4.1893E-1,3.7168E-1,2.7112603E-2,5.3034E-1,-5.916166E-3,9.1512855E-3,-2.8967932E-2,4.1611E-1,-2.2175848E-2,5.4705E-1,4.4483803E-3,-1.4803611E-2,2.2347447E-2,5.7008E-1,-1.9142063E-2,5.1295E-1,6.0974E-1,-1.5037441E-2,2.4966722E-2,-3.6839272E-3],"split_indices":[0,0,0,0,0,1,0,0,0,0,0,0,0,0,0,0,0,0,0,0,1,0,0,0,0],"split_type":[0,0,0,0,0,0,0,0,0,0,0,0,0,0,0,0,0,0,0,0,0,0,0,0,0],"sum_hessian":[7.3E1,6.7E1,6E0,2.7E1,4E1,1E1,1.7E1,6E0,3.4E1,5E0,5E0,6E0,1.1E1,6E0,2.8E1,5E0,6E0,5E0,2.3E1,5E0,1.8E1,1.3E1,5E0,5E0,8E0],"tree_param":{"num_deleted":"0","num_feature":"2","num_nodes":"25","size_leaf_vector":"0"}},{"base_weights":[-5.2087065E-2,-3.2982484E-2,-1.7267507E-2,-1.1594472E-1,2.4479106E-2,2.2057643E-2,-1.9383812E-1,2.536965E-2,-3.8976874E-2,-5.546405E-3,8.5793305E-3,-2.710571E-2,-7.993501E-2,-2.2563094E-2,1.4695228E-2,4.1703577E-3,-1.3851951E-2,1.5641214E-2,-5.3371273E-2,-1.2698743E-1,9.977644E-3,-4.2566102E-2,-2.0599911E-2,-5.7059317E-3,2.7200507E-4],"categories":[],"categories_nodes":[],"categories_segments":[],"categories_sizes":[],"default_left":[0,0,0,0,0,0,0,0,0,0,0,0,0,0,0,0,0,0,0,0,0,0,0,0,0],"id":33,"left_children":[1,3,-1,5,7,9,11,-1,13,-1,-1,-1,15,-1,17,-1,-1,-1,19,21,-1,23,-1,-1,-1],"loss_changes":[2.4425878E-1,3.270039E-1,0E0,3.052609E-1,8.295518E-1,1.05973415E-1,3.146749E-1,0E0,4.963393E-1,0E0,0E0,0E0,1.8065575E-1,0E0,4.0698007E-1,0E0,0E0,0E0,3.3251202E-1,2.0025054E-1,0E0,1.8852638E-2,0E0,0E0,0E0],"parents":[2147483647,0,0,1,1,3,3,4,4,5,5,6,6,8,8,12,12,14,14,18,18,19,19,21,21],"right_children":[2,4,-1,6,8,10,12,-1,14,-1,-1,-1,16,-1,18,-1,-1,-1,20,22,-1,24,-1,-1,-1],"split_conditions":[7.282E-1,4.732E-1,-1.7267507E-2,3.1741E-1,4.9209E-1,4.1893E-1,3.7168E-1,2.536965E-2,5.2988E-1,-5.546405E-3,8.5793305E-3,-2.710571E-2,4.1611E-1,-2.2563094E-2,5.4875E-1,4.1703577E-3,-1.3851951E-2,1.5641214E-2,6.7697E-1,6.0974E-1,9.977644E-3,5.7796E-1,-2.0599911E-2,-5.7059317E-3,2.7200507E-4],"split_indices":[0,0,0,0,0,1,0,0,0,0,0,0,0,0,0,0,0,0,0,0,0,0,0,0,0],"split_type":[0,0,0,0,0,0,0,0,0,0,0,0,0,0,0,0,0,0,0,0,0,0,0,0,0],"sum_hessian":[7.3E1,6.7E1,6E0,2.7E1,4E1,1E1,1.7E1,6E0,3.4E1,5E0,5E0,6E0,1.1E1,5E0,2.9E1,5E0,6E0,7E0,2.2E1,1.6E1,6E0,1.1E1,5E0,6E0,5E0],"tree_param":{"num_deleted":"0","num_feature":"2","num_nodes":"25","size_leaf_vector":"0"}},{"base_weights":[-4.8837703E-2,-3.0970016E-2,-1.6157452E-2,-1.0845439E-1,2.2701507E-2,2.0679029E-2,-1.8134402E-1,2.3738744E-2,-3.6710124E-2,-5.199755E-3,8.0431225E-3,-2.5363201E-2,-7.474668E-2,-1.9709103E-2,1.912627E-2,3.9097103E-3,-1.2961469E-2,1.8280627E-2,-5.0066523E-2,-1.18994765E-1,9.336225E-3,-3.9826464E-2,-1.9312419E-2,-5.3391205E-3,2.5500395E-4],"categories":[],"categories_nodes":[],"categories_segments":[],"categories_sizes":[],"default_left":[0,0,0,0,0,0,0,0,0,0,0,0,0,0,0,0,0,0,0,0,0,0,0,0,0],"id":34,"left_children":[1,3,-1,5,7,9,11,-1,13,-1,-1,-1,15,-1,17,-1,-1,-1,19,21,-1,23,-1,-1,-1],"loss_changes":[2.136014E-1,2.85254E-1,0E0,2.672996E-1,7.2731674E-1,9.31407E-2,2.7564418E-1,0E0,4.4684428E-1,0E0,0E0,0E0,1.5832633E-1,0E0,4.629146E-1,0E0,0E0,0E0,2.9153484E-1,1.7615204E-1,0E0,1.6509982E-2,0E0,0E0,0E0],"parents":[2147483647,0,0,1,1,3,3,4,4,5,5,6,6,8,8,12,12,14,14,18,18,19,19,21,21],"right_children":[2,4,-1,6,8,10,12,-1,14,-1,-1,-1,16,-1,18,-1,-1,-1,20,22,-1,24,-1,-1,-1],"split_conditions":[7.282E-1,4.732E-1,-1.6157452E-2,3.1741E-1,4.9209E-1,4.1893E-1,3.7168E-1,2.3738744E-2,5.3034E-1,-5.199755E-3,8.0431225E-3,-2.5363201E-2,4.1611E-1,-1.9709103E-2,5.4875E-1,3.9097103E-3,-1.2961469E-2,1.8280627E-2,6.7697E-1,6.0974E-1,9.336225E-3,5.7796E-1,-1.9312419E-2,-5.3391205E-3,2.5500395E-4],"split_indices":[0,0,0,0,0,1,0,0,0,0,0,0,0,0,0,0,0,0,0,0,0,0,0,0,0],"split_type":[0,0,0,0,0,0,0,0,0,0,0,0,0,0,0,0,0,0,0,0,0,0,0,0,0],"sum_hessian":[7.3E1,6.7E1,6E0,2.7E1,4E1,1E1,1.7E1,6E0,3.4E1,5E0,5E0,6E0,1.1E1,6E0,2.8E1,5E0,6E0,6E0,2.2E1,1.6E1,6E0,1.1E1,5E0,6E0,5E0],"tree_param":{"num_deleted":"0","num_feature":"2","num_nodes":"25","size_leaf_vector":"0"}},{"base_weights":[-4.5721885E-2,-2.9004931E-2,-1.511876E-2,-1.01447865E-1,2.1175727E-2,-1.1779097E-2,-2.0400575E-1,2.2212684E-2,-3.4427967E-2,-1.6470872E-2,2.1510543E-2,-2.909335E-2,6.7826395E-4,-1.8442089E-2,1.7802853E-2,1.8830614E-2,-4.1256934E-2,-1.7817453E-2,2.2906829E-2,1.07398644E-1,-1.3354391E-2,2.3662666E-2,-3.2452687E-3],"categories":[],"categories_nodes":[],"categories_segments":[],"categories_sizes":[],"default_left":[0,0,0,0,0,0,0,0,0,0,0,0,0,0,0,0,0,0,0,0,0,0,0],"id":35,"left_children":[1,3,-1,5,7,9,11,-1,13,-1,-1,-1,-1,-1,15,-1,17,-1,19,21,-1,-1,-1],"loss_changes":[1.869624E-1,2.4934416E-1,0E0,2.550917E-1,6.37113E-1,1.0558815E0,5.1286036E-1,0E0,3.909551E-1,0E0,0E0,0E0,0E0,0E0,4.0989146E-1,0E0,3.077442E-1,0E0,3.417419E-1,4.5261812E-1,0E0,0E0,0E0],"parents":[2147483647,0,0,1,1,3,3,4,4,5,5,6,6,8,8,14,14,16,16,18,18,19,19],"right_children":[2,4,-1,6,8,10,12,-1,14,-1,-1,-1,-1,-1,16,-1,18,-1,20,22,-1,-1,-1],"split_conditions":[7.282E-1,4.732E-1,-1.511876E-2,4.2546E-1,4.9209E-1,3.1107E-1,3.7168E-1,2.2212684E-2,5.3034E-1,-1.6470872E-2,2.1510543E-2,-2.909335E-2,6.7826395E-4,-1.8442089E-2,5.4705E-1,1.8830614E-2,5.7008E-1,-1.7817453E-2,5.1295E-1,6.0974E-1,-1.3354391E-2,2.3662666E-2,-3.2452687E-3],"split_indices":[0,0,0,1,0,1,0,0,0,0,0,0,0,0,0,0,0,0,1,0,0,0,0],"split_type":[0,0,0,0,0,0,0,0,0,0,0,0,0,0,0,0,0,0,0,0,0,0,0],"sum_hessian":[7.3E1,6.7E1,6E0,2.7E1,4E1,1.5E1,1.2E1,6E0,3.4E1,9E0,6E0,6E0,6E0,6E0,2.8E1,5E0,2.3E1,5E0,1.8E1,1.3E1,5E0,5E0,8E0],"tree_param":{"num_deleted":"0","num_feature":"2","num_nodes":"23","size_leaf_vector":"0"}},{"base_weights":[-4.265285E-2,-1.00842156E-1,-2.9121363E-3,-5.174625E-2,-1.9107372E-2,1.4140909E-2,-3.7201647E-2,-1.1401505E-1,3.5123688E-3,9.916736E-3,-7.2012916E-2,-4.7461578E-4,-1.7713629E-2,-3.366237E-2,1.1305829E-2,1.563791E-2,-6.4356215E-2,-1.2320054E-2,-1.3440592E-2,-8.802312E-3,9.157163E-3],"categories":[],"categories_nodes":[],"categories_segments":[],"categories_sizes":[],"default_left":[0,0,0,0,0,0,0,0,0,0,0,0,0,0,0,0,0,0,0,0,0],"id":36,"left_children":[1,3,5,7,-1,-1,9,11,-1,-1,13,-1,-1,-1,15,-1,17,-1,19,-1,-1],"loss_changes":[1.7083018E-1,2.1352625E-1,3.024386E-1,1.526593E-1,0E0,0E0,2.395396E-1,1.9584152E-1,0E0,0E0,1.0411444E0,0E0,0E0,0E0,4.3119335E-1,0E0,1.0461997E-1,0E0,2.2561055E-1,0E0,0E0],"parents":[2147483647,0,0,1,1,2,2,3,3,6,6,7,7,10,10,14,14,16,16,18,18],"right_children":[2,4,6,8,-1,-1,10,12,-1,-1,14,-1,-1,-1,16,-1,18,-1,20,-1,-1],"split_conditions":[3.6466E-1,2.9888E-1,3.9024E-1,2.3262E-1,-1.9107372E-2,1.4140909E-2,3.1741E-1,1.7957E-1,3.5123688E-3,9.916736E-3,4.2582E-1,-4.7461578E-4,-1.7713629E-2,-3.366237E-2,4.8893E-1,1.563791E-2,4.732E-1,-1.2320054E-2,5.8305E-1,-8.802312E-3,9.157163E-3],"split_indices":[1,1,1,1,0,0,0,1,0,0,1,0,0,0,1,0,0,0,1,0,0],"split_type":[0,0,0,0,0,0,0,0,0,0,0,0,0,0,0,0,0,0,0,0,0],"sum_hessian":[7.3E1,2.9E1,4.4E1,2.3E1,6E0,6E0,3.8E1,1.4E1,9E0,6E0,3.2E1,8E0,6E0,5E0,2.7E1,7E0,2E1,6E0,1.4E1,8E0,6E0],"tree_param":{"num_deleted":"0","num_feature":"2","num_nodes":"21","size_leaf_vector":"0"}},{"base_weights":[-3.999058E-2,-2.3455035E-2,-1.4618152E-2,-9.110909E-2,2.3319805E-2,-7.6092477E-3,-1.8686973E-1,2.1045929E-2,-2.8804988E-2,-1.5177624E-2,2.0377878E-2,-2.7155397E-2,1.127114E-3,-1.6941773E-2,1.9760601E-2,1.5932154E-2,-3.9736673E-2,-1.05573274E-1,9.437167E-3,-3.746842E-2,-1.6814059E-2,-4.511735E-3,-3.5657216E-4],"categories":[],"categories_nodes":[],"categories_segments":[],"categories_sizes":[],"default_left":[0,0,0,0,0,0,0,0,0,0,0,0,0,0,0,0,0,0,0,0,0,0,0],"id":37,"left_children":[1,3,-1,5,7,9,11,-1,13,-1,-1,-1,-1,-1,15,-1,17,19,-1,21,-1,-1,-1],"loss_changes":[1.8499091E-1,2.1731117E-1,0E0,2.2246598E-1,5.579472E-1,9.2536825E-1,4.652899E-1,0E0,3.3946845E-1,0E0,0E0,0E0,0E0,0E0,3.408748E-1,0E0,2.6399046E-1,1.289295E-1,0E0,8.620633E-3,0E0,0E0,0E0],"parents":[2147483647,0,0,1,1,3,3,4,4,5,5,6,6,8,8,14,14,16,16,17,17,19,19],"right_children":[2,4,-1,6,8,10,12,-1,14,-1,-1,-1,-1,-1,16,-1,18,20,-1,22,-1,-1,-1],"split_conditions":[7.282E-1,4.732E-1,-1.4618152E-2,4.2546E-1,4.9209E-1,3.1107E-1,3.7168E-1,2.1045929E-2,5.3034E-1,-1.5177624E-2,2.0377878E-2,-2.7155397E-2,1.127114E-3,-1.6941773E-2,5.4875E-1,1.5932154E-2,6.7697E-1,6.0974E-1,9.437167E-3,5.7796E-1,-1.6814059E-2,-4.511735E-3,-3.5657216E-4],"split_indices":[0,0,0,1,0,1,0,0,0,0,0,0,0,0,0,0,0,0,0,0,0,0,0],"split_type":[0,0,0,0,0,0,0,0,0,0,0,0,0,0,0,0,0,0,0,0,0,0,0],"sum_hessian":[7.3E1,6.7E1,6E0,2.7E1,4E1,1.5E1,1.2E1,6E0,3.4E1,9E0,6E0,6E0,6E0,6E0,2.8E1,6E0,2.2E1,1.6E1,6E0,1.1E1,5E0,6E0,5E0],"tree_param":{"num_deleted":"0","num_feature":"2","num_nodes":"23","size_leaf_vector":"0"}},{"base_weights":[-3.736501E-2,-2.188763E-2,-1.3678413E-2,1.7554934E-4,-1.2490766E-2,-1.9771429E-2,1.372452E-2,9.431994E-3,-4.361475E-2,-1.8652247E-1,-1.0989652E-3,-4.486266E-3,-2.1160576E-2,-7.401763E-2,4.9674843E-2,6.5578297E-3,-1.8480202E-2,1.576592E-1,-8.2458936E-2,1.5561789E-2,7.543374E-3,-2.9175566E-3,-8.4205475E-3],"categories":[],"categories_nodes":[],"categories_segments":[],"categories_sizes":[],"default_left":[0,0,0,0,0,0,0,0,0,0,0,0,0,0,0,0,0,0,0,0,0,0,0],"id":38,"left_children":[1,3,-1,5,-1,7,-1,-1,9,11,13,-1,-1,15,17,-1,-1,19,21,-1,-1,-1,-1],"loss_changes":[1.6209625E-1,2.1705595E-1,0E0,2.2241811E-1,0E0,1.9633223E-1,0E0,0E0,2.9143506E-1,1.1639258E-1,1.4436641E-1,0E0,0E0,4.6686476E-1,3.4117317E-1,0E0,0E0,1.6108364E-2,9.918027E-3,0E0,0E0,0E0,0E0],"parents":[2147483647,0,0,1,1,3,3,5,5,8,8,9,9,10,10,13,13,14,14,17,17,18,18],"right_children":[2,4,-1,6,-1,8,-1,-1,10,12,14,-1,-1,16,18,-1,-1,20,22,-1,-1,-1,-1],"split_conditions":[7.282E-1,6.2297E-1,-1.3678413E-2,5.7236E-1,-1.2490766E-2,1.7957E-1,1.372452E-2,9.431994E-3,2.8055E-1,4.7568E-1,4.9842E-1,-4.486266E-3,-2.1160576E-2,3.4516E-1,5.9612E-1,6.5578297E-3,-1.8480202E-2,3.8642E-1,6.3772E-1,1.5561789E-2,7.543374E-3,-2.9175566E-3,-8.4205475E-3],"split_indices":[0,1,0,1,0,1,0,0,1,0,0,0,0,0,0,0,0,1,0,0,0,0,0],"split_type":[0,0,0,0,0,0,0,0,0,0,0,0,0,0,0,0,0,0,0,0,0,0,0],"sum_hessian":[7.3E1,6.7E1,6E0,5.9E1,8E0,5.4E1,5E0,7E0,4.7E1,1E1,3.7E1,5E0,5E0,1.5E1,2.2E1,8E0,7E0,1.2E1,1E1,5E0,7E0,5E0,5E0],"tree_param":{"num_deleted":"0","num_feature":"2","num_nodes":"23","size_leaf_vector":"0"}},{"base_weights":[-3.495202E-2,-8.894597E-2,1.8206608E-3,-4.005004E-2,-1.8291196E-2,4.120065E-2,-1.0509702E-2,-1.0116936E-1,4.1725463E-3,2.3396177E-2,-2.3347322E-2,-6.2354095E-4,-1.5457667E-2,-1.7767207E-1,6.269866E-2,5.9134727E-3,-3.0343385E-2,1.8360378E-2,-3.2833003E-2,6.2205163E-3,-7.9775285E-3],"categories":[],"categories_nodes":[],"categories_segments":[],"categories_sizes":[],"default_left":[0,0,0,0,0,0,0,0,0,0,0,0,0,0,0,0,0,0,0,0,0],"id":39,"left_children":[1,3,5,7,-1,9,-1,11,-1,-1,13,-1,-1,15,17,-1,-1,-1,19,-1,-1],"loss_changes":[1.470891E-1,2.1750562E-1,2.57323E-1,1.4598383E-1,0E0,6.3642836E-1,0E0,1.4444035E-1,0E0,0E0,4.0951058E-1,0E0,0E0,6.721617E-1,3.5597616E-1,0E0,0E0,0E0,1.280079E-1,0E0,0E0],"parents":[2147483647,0,0,1,1,2,2,3,3,5,5,7,7,10,10,13,13,14,14,18,18],"right_children":[2,4,6,8,-1,10,-1,12,-1,-1,14,-1,-1,16,18,-1,-1,-1,20,-1,-1],"split_conditions":[3.6466E-1,2.9888E-1,6.2297E-1,2.3262E-1,-1.8291196E-2,3.4516E-1,-1.0509702E-2,1.7957E-1,4.1725463E-3,2.3396177E-2,4.2582E-1,-6.2354095E-4,-1.5457667E-2,3.9024E-1,5.1284E-1,5.9134727E-3,-3.0343385E-2,1.8360378E-2,4.8209E-1,6.2205163E-3,-7.9775285E-3],"split_indices":[1,1,1,1,0,0,0,1,0,0,1,0,0,1,0,0,0,0,1,0,0],"split_type":[0,0,0,0,0,0,0,0,0,0,0,0,0,0,0,0,0,0,0,0,0],"sum_hessian":[7.3E1,2.9E1,4.4E1,2.3E1,6E0,3.5E1,9E0,1.4E1,9E0,6E0,2.9E1,8E0,6E0,1E1,1.9E1,5E0,5E0,6E0,1.3E1,5E0,8E0],"tree_param":{"num_deleted":"0","num_feature":"2","num_nodes":"21","size_leaf_vector":"0"}},{"base_weights":[-3.2670345E-2,-1.7852727E-2,-1.289593E-2,-8.6064644E-2,2.9166453E-2,-8.848615E-3,-1.744794E-1,2.0484496E-2,-2.0458905E-2,-1.4187166E-2,1.8750472E-2,-2.5510095E-2,1.2076083E-3,-1.5451944E-2,2.5038611E-2,1.5843127E-2,-2.2555433E-2,-1.5595546E-2,3.717438E-2,1.13999404E-1,-1.112098E-2,2.1316294E-2,-9.1093086E-4],"categories":[],"categories_nodes":[],"categories_segments":[],"categories_sizes":[],"default_left":[0,0,0,0,0,0,0,0,0,0,0,0,0,0,0,0,0,0,0,0,0,0,0],"id":40,"left_children":[1,3,-1,5,7,9,11,-1,13,-1,-1,-1,-1,-1,15,-1,17,-1,19,21,-1,-1,-1],"loss_changes":[1.4964628E-1,2.2060445E-1,0E0,1.8961309E-1,5.019589E-1,7.9409266E-1,4.1589582E-1,0E0,3.0065796E-1,0E0,0E0,0E0,0E0,0E0,2.6176724E-1,0E0,2.7348262E-1,0E0,2.8760663E-1,3.0406216E-1,0E0,0E0,0E0],"parents":[2147483647,0,0,1,1,3,3,4,4,5,5,6,6,8,8,14,14,16,16,18,18,19,19],"right_children":[2,4,-1,6,8,10,12,-1,14,-1,-1,-1,-1,-1,16,-1,18,-1,20,22,-1,-1,-1],"split_conditions":[7.282E-1,4.732E-1,-1.289593E-2,4.2546E-1,4.9209E-1,3.1107E-1,3.7168E-1,2.0484496E-2,5.3034E-1,-1.4187166E-2,1.8750472E-2,-2.5510095E-2,1.2076083E-3,-1.5451944E-2,5.4705E-1,1.5843127E-2,5.7008E-1,-1.5595546E-2,5.1295E-1,6.0974E-1,-1.112098E-2,2.1316294E-2,-9.1093086E-4],"split_indices":[0,0,0,1,0,1,0,0,0,0,0,0,0,0,0,0,0,0,1,0,0,0,0],"split_type":[0,0,0,0,0,0,0,0,0,0,0,0,0,0,0,0,0,0,0,0,0,0,0],"sum_hessian":[7.3E1,6.7E1,6E0,2.7E1,4E1,1.5E1,1.2E1,6E0,3.4E1,9E0,6E0,6E0,6E0,6E0,2.8E1,5E0,2.3E1,5E0,1.8E1,1.3E1,5E0,5E0,8E0],"tree_param":{"num_deleted":"0","num_feature":"2","num_nodes":"23","size_leaf_vector":"0"}},{"base_weights":[-3.0464267E-2,-1.658987E-2,-1.2066907E-2,-8.031476E-2,2.73342E-2,2.4279995E-2,-1.3977185E-1,1.9167634E-2,-1.9093629E-2,-5.522728E-3,8.861227E-3,-2.0087473E-2,-5.342188E-2,-1.4458603E-2,2.34894E-2,4.00917E-3,-1.26906475E-2,1.3794005E-2,-2.6358597E-2,-9.142794E-2,1.0157435E-2,-3.52041E-2,-1.4147823E-2,-4.8962864E-4,-4.709382E-3],"categories":[],"categories_nodes":[],"categories_segments":[],"categories_sizes":[],"default_left":[0,0,0,0,0,0,0,0,0,0,0,0,0,0,0,0,0,0,0,0,0,0,0,0,0],"id":41,"left_children":[1,3,-1,5,7,9,11,-1,13,-1,-1,-1,15,-1,17,-1,-1,-1,19,21,-1,23,-1,-1,-1],"loss_changes":[1.3124174E-1,1.9253118E-1,0E0,1.7752285E-1,4.39333E-1,1.09805286E-1,1.8473715E-1,0E0,2.6339358E-1,0E0,0E0,0E0,1.5754509E-1,0E0,2.3676512E-1,0E0,0E0,0E0,2.54518E-1,8.62727E-2,0E0,9.083223E-3,0E0,0E0,0E0],"parents":[2147483647,0,0,1,1,3,3,4,4,5,5,6,6,8,8,12,12,14,14,18,18,19,19,21,21],"right_children":[2,4,-1,6,8,10,12,-1,14,-1,-1,-1,16,-1,18,-1,-1,-1,20,22,-1,24,-1,-1,-1],"split_conditions":[7.282E-1,4.732E-1,-1.2066907E-2,3.1741E-1,4.9209E-1,4.1893E-1,3.7168E-1,1.9167634E-2,5.3034E-1,-5.522728E-3,8.861227E-3,-2.0087473E-2,4.2654E-1,-1.4458603E-2,5.4875E-1,4.00917E-3,-1.26906475E-2,1.3794005E-2,6.7697E-1,6.0974E-1,1.0157435E-2,3.8825E-1,-1.4147823E-2,-4.8962864E-4,-4.709382E-3],"split_indices":[0,0,0,0,0,1,0,0,0,0,0,0,0,0,0,0,0,0,0,0,0,1,0,0,0],"split_type":[0,0,0,0,0,0,0,0,0,0,0,0,0,0,0,0,0,0,0,0,0,0,0,0,0],"sum_hessian":[7.3E1,6.7E1,6E0,2.7E1,4E1,1E1,1.7E1,6E0,3.4E1,5E0,5E0,6E0,1.1E1,6E0,2.8E1,6E0,5E0,6E0,2.2E1,1.6E1,6E0,1.1E1,5E0,6E0,5E0],"tree_param":{"num_deleted":"0","num_feature":"2","num_nodes":"25","size_leaf_vector":"0"}},{"base_weights":[-2.8560309E-2,-1.2188525E-2,-9.909065E-3,-6.787006E-2,5.9273724E-2,-2.9326722E-2,-1.9659214E-2,2.0786557E-2,2.3338955E-3,-7.27405E-2,1.0208551E-2,-1.6366815E-2,8.797683E-2,-1.5693331E-2,-1.1436729E-2,1.7919501E-2,-2.9802771E-2,7.704086E-3,-5.9544623E-2,4.96906E-3,-9.066941E-3,-1.3060694E-2,3.6128748E-3],"categories":[],"categories_nodes":[],"categories_segments":[],"categories_sizes":[],"default_left":[0,0,0,0,0,0,0,0,0,0,0,0,0,0,0,0,0,0,0,0,0,0,0],"id":42,"left_children":[1,3,-1,5,7,9,-1,-1,11,13,-1,-1,15,-1,17,-1,19,-1,21,-1,-1,-1,-1],"loss_changes":[1.238545E-1,2.6266623E-1,0E0,2.6933736E-1,3.5912922E-1,2.3973805E-1,0E0,0E0,4.7254047E-1,2.1518028E-1,0E0,0E0,3.2713932E-1,0E0,1.10462494E-1,0E0,1.0425745E-1,0E0,1.8120566E-1,0E0,0E0,0E0,0E0],"parents":[2147483647,0,0,1,1,3,3,4,4,5,5,8,8,9,9,12,12,14,14,16,16,18,18],"right_children":[2,4,-1,6,8,10,-1,-1,12,14,-1,-1,16,-1,18,-1,20,-1,22,-1,-1,-1,-1],"split_conditions":[6.2297E-1,3.9201E-1,-9.909065E-3,3.806E-1,4.2546E-1,3.1107E-1,-1.9659214E-2,2.0786557E-2,4.432E-1,4.1611E-1,1.0208551E-2,-1.6366815E-2,5.1284E-1,-1.5693331E-2,5.0468E-1,1.7919501E-2,5.0531E-1,7.704086E-3,5.6478E-1,4.96906E-3,-9.066941E-3,-1.3060694E-2,3.6128748E-3],"split_indices":[1,1,0,1,1,1,0,0,1,0,0,0,0,0,0,0,1,0,0,0,0,0,0],"split_type":[0,0,0,0,0,0,0,0,0,0,0,0,0,0,0,0,0,0,0,0,0,0,0],"sum_hessian":[7.3E1,6.4E1,9E0,3.6E1,2.8E1,3.1E1,5E0,5E0,2.3E1,2.5E1,6E0,6E0,1.7E1,7E0,1.8E1,7E0,1E1,5E0,1.3E1,5E0,5E0,6E0,7E0],"tree_param":{"num_deleted":"0","num_feature":"2","num_nodes":"23","size_leaf_vector":"0"}},{"base_weights":[-2.666903E-2,-1.4089029E-2,-1.0879866E-2,9.527684E-3,-3.2366235E-2,-1.515166E-1,-6.032504E-3,-2.9643432E-3,-1.786919E-2,-7.256544E-2,6.073245E-2,5.331477E-3,-2.135712E-2,1.409017E-2,-4.5025554E-2,-1.5157123E-2,1.325684E-1,6.371733E-4,-9.504247E-3,-1.2455438E-3,1.971043E-2],"categories":[],"categories_nodes":[],"categories_segments":[],"categories_sizes":[],"default_left":[0,0,0,0,0,0,0,0,0,0,0,0,0,0,0,0,0,0,0,0,0],"id":43,"left_children":[1,3,-1,-1,5,7,9,-1,-1,11,13,15,-1,-1,17,-1,19,-1,-1,-1,-1],"loss_changes":[1.08173236E-1,1.7950864E-1,0E0,0E0,1.9048405E-1,9.7438216E-2,2.3095258E-1,0E0,0E0,4.3128324E-1,3.580471E-1,5.546375E-1,0E0,0E0,6.6665E-2,0E0,2.5693154E-1,0E0,0E0,0E0,0E0],"parents":[2147483647,0,0,1,1,4,4,5,5,6,6,9,9,10,10,11,11,14,14,16,16],"right_children":[2,4,-1,-1,6,8,10,-1,-1,12,14,16,-1,-1,18,-1,20,-1,-1,-1,-1],"split_conditions":[7.282E-1,1.7957E-1,-1.0879866E-2,9.527684E-3,2.8055E-1,4.7568E-1,4.9842E-1,-2.9643432E-3,-1.786919E-2,6.2297E-1,5.7655E-1,3.9201E-1,-2.135712E-2,1.409017E-2,5.1295E-1,-1.5157123E-2,3.7168E-1,6.371733E-4,-9.504247E-3,-1.2455438E-3,1.971043E-2],"split_indices":[0,1,0,0,1,0,0,0,0,1,0,1,0,0,1,0,0,0,0,0,0],"split_type":[0,0,0,0,0,0,0,0,0,0,0,0,0,0,0,0,0,0,0,0,0],"sum_hessian":[7.3E1,6.7E1,6E0,7E0,6E1,1E1,5E1,5E0,5E0,2.5E1,2.5E1,1.9E1,6E0,1.1E1,1.4E1,7E0,1.2E1,9E0,5E0,6E0,6E0],"tree_param":{"num_deleted":"0","num_feature":"2","num_nodes":"21","size_leaf_vector":"0"}},{"base_weights":[-2.514199E-2,-1.1822364E-2,-1.3256784E-2,3.0478707E-3,-8.231928E-3,8.096128E-2,-5.491774E-2,-1.2260045E-2,1.7512569E-1,-9.848867E-2,1.7473562E-2,-8.550373E-3,5.8724447E-3,5.9491755E-3,1.8443331E-2,-1.9935718E-1,2.181515E-3,1.30313095E-2,-6.6489577E-3,-8.987535E-3,-1.842408E-2,6.263709E-3,-5.088413E-3],"categories":[],"categories_nodes":[],"categories_segments":[],"categories_sizes":[],"default_left":[0,0,0,0,0,0,0,0,0,0,0,0,0,0,0,0,0,0,0,0,0,0,0],"id":44,"left_children":[1,-1,3,5,-1,7,9,11,13,15,17,-1,-1,-1,-1,19,21,-1,-1,-1,-1,-1,-1],"loss_changes":[1.1443556E-1,0E0,1.089016E-1,2.7542412E-1,0E0,2.3037842E-1,1.1211644E-1,1.379218E-1,6.865296E-2,2.2383282E-1,2.475953E-1,0E0,0E0,0E0,0E0,1.1061102E-2,7.4013636E-2,0E0,0E0,0E0,0E0,0E0,0E0],"parents":[2147483647,0,0,2,2,3,3,5,5,6,6,7,7,8,8,9,9,10,10,15,15,16,16],"right_children":[2,-1,4,6,-1,8,10,12,14,16,18,-1,-1,-1,-1,20,22,-1,-1,-1,-1,-1,-1],"split_conditions":[1.0833E-1,-1.1822364E-2,6.2297E-1,4.8622E-1,-8.231928E-3,3.7168E-1,4.3458E-1,3.6466E-1,3.4366E-1,5.7008E-1,4.8893E-1,-8.550373E-3,5.8724447E-3,5.9491755E-3,1.8443331E-2,2.9888E-1,2.9855E-1,1.30313095E-2,-6.6489577E-3,-8.987535E-3,-1.842408E-2,6.263709E-3,-5.088413E-3],"split_indices":[1,0,1,0,0,0,1,1,1,0,1,0,0,0,0,1,1,0,0,0,0,0,0],"split_type":[0,0,0,0,0,0,0,0,0,0,0,0,0,0,0,0,0,0,0,0,0,0,0],"sum_hessian":[7.3E1,5E0,6.8E1,5.9E1,9E0,2.5E1,3.4E1,1.3E1,1.2E1,2.1E1,1.3E1,6E0,7E0,6E0,6E0,1E1,1.1E1,5E0,8E0,5E0,5E0,5E0,6E0],"tree_param":{"num_deleted":"0","num_feature":"2","num_nodes":"23","size_leaf_vector":"0"}},{"base_weights":[-2.3502205E-2,-7.274755E-2,6.335494E-3,6.7711645E-3,-1.6502076E-1,1.7186638E-2,-3.1861413E-2,-1.1579508E-2,1.7702926E-2,-2.320466E-2,2.1962496E-4,-9.3251064E-2,6.029169E-2,-1.4275363E-2,-3.3727628E-3,1.3818466E-2,-6.709881E-3,7.895151E-3,-1.243296E-2,6.6913324E-3,-6.5981266E-3],"categories":[],"categories_nodes":[],"categories_segments":[],"categories_sizes":[],"default_left":[0,0,0,0,0,0,0,0,0,0,0,0,0,0,0,0,0,0,0,0,0],"id":45,"left_children":[1,3,5,7,9,-1,11,-1,-1,-1,-1,13,15,-1,17,-1,19,-1,-1,-1,-1],"loss_changes":[1.091941E-1,2.0656592E-1,4.073193E-1,6.276406E-1,3.161248E-1,0E0,2.375694E-1,0E0,0E0,0E0,0E0,2.1750861E-1,1.4242378E-1,0E0,2.644579E-1,0E0,1.013958E-1,0E0,0E0,0E0,0E0],"parents":[2147483647,0,0,1,1,2,2,3,3,4,4,6,6,11,11,12,12,14,14,16,16],"right_children":[2,4,6,8,10,-1,12,-1,-1,-1,-1,14,16,-1,18,-1,20,-1,-1,-1,-1],"split_conditions":[4.732E-1,4.2546E-1,4.9209E-1,3.1107E-1,3.7168E-1,1.7186638E-2,4.3458E-1,-1.1579508E-2,1.7702926E-2,-2.320466E-2,2.1962496E-4,5.7008E-1,5.4705E-1,-1.4275363E-2,7.282E-1,1.3818466E-2,5.1295E-1,7.895151E-3,-1.243296E-2,6.6913324E-3,-6.5981266E-3],"split_indices":[0,1,0,1,0,0,1,0,0,0,0,0,0,0,0,0,1,0,0,0,0],"split_type":[0,0,0,0,0,0,0,0,0,0,0,0,0,0,0,0,0,0,0,0,0],"sum_hessian":[7.3E1,2.7E1,4.6E1,1.5E1,1.2E1,6E0,4E1,9E0,6E0,6E0,6E0,2.4E1,1.6E1,1.1E1,1.3E1,5E0,1.1E1,8E0,5E0,5E0,6E0],"tree_param":{"num_deleted":"0","num_feature":"2","num_nodes":"21","size_leaf_vector":"0"}},{"base_weights":[-2.1801384E-2,-6.789368E-2,6.1217127E-3,9.290222E-3,-1.5766665E-1,1.6081784E-2,-2.9591363E-2,-1.37863215E-2,1.137772E-1,-2.2166219E-2,2.0550552E-4,-8.7009765E-2,5.6588136E-2,2.3974683E-2,-8.330317E-3,-1.7725241E-1,-3.4439478E-3,1.2954812E-2,-6.1988793E-3,-8.749285E-3,-1.6380364E-2,7.368807E-3,-1.1655902E-2,6.2731234E-3,-6.1739623E-3],"categories":[],"categories_nodes":[],"categories_segments":[],"categories_sizes":[],"default_left":[0,0,0,0,0,0,0,0,0,0,0,0,0,0,0,0,0,0,0,0,0,0,0,0,0],"id":46,"left_children":[1,3,5,7,9,-1,11,-1,13,-1,-1,15,17,-1,-1,19,21,-1,23,-1,-1,-1,-1,-1,-1],"loss_changes":[9.565656E-2,1.9547753E-1,3.5598314E-1,3.437503E-1,2.8833538E-1,0E0,2.078036E-1,0E0,5.447271E-1,0E0,0E0,1.8791954E-1,1.2503901E-1,0E0,0E0,4.4452846E-3,2.3163024E-1,0E0,8.894992E-2,0E0,0E0,0E0,0E0,0E0,0E0],"parents":[2147483647,0,0,1,1,2,2,3,3,4,4,6,6,8,8,11,11,12,12,15,15,16,16,18,18],"right_children":[2,4,6,8,10,-1,12,-1,14,-1,-1,16,18,-1,-1,20,22,-1,24,-1,-1,-1,-1,-1,-1],"split_conditions":[4.732E-1,3.4516E-1,4.9209E-1,3.1107E-1,4.2582E-1,1.6081784E-2,4.3458E-1,-1.37863215E-2,4.2546E-1,-2.2166219E-2,2.0550552E-4,5.7008E-1,5.4705E-1,2.3974683E-2,-8.330317E-3,2.9888E-1,7.282E-1,1.2954812E-2,5.1295E-1,-8.749285E-3,-1.6380364E-2,7.368807E-3,-1.1655902E-2,6.2731234E-3,-6.1739623E-3],"split_indices":[0,0,0,1,1,0,1,0,1,0,0,0,0,0,0,1,0,0,1,0,0,0,0,0,0],"split_type":[0,0,0,0,0,0,0,0,0,0,0,0,0,0,0,0,0,0,0,0,0,0,0,0,0],"sum_hessian":[7.3E1,2.7E1,4.6E1,1.5E1,1.2E1,6E0,4E1,5E0,1E1,6E0,6E0,2.4E1,1.6E1,5E0,5E0,1.1E1,1.3E1,5E0,1.1E1,6E0,5E0,8E0,5E0,5E0,6E0],"tree_param":{"num_deleted":"0","num_feature":"2","num_nodes":"25","size_leaf_vector":"0"}},{"base_weights":[-2.0441739E-2,-6.1922316E-2,7.66624E-3,-1.454056E-2,-1.8676946E-2,8.8288546E-2,-3.9859463E-2,-9.615918E-3,5.741302E-2,-1.2406368E-3,1.2249299E-2,-1.0712556E-2,6.1705774E-3,2.2476267E-2,-7.99539E-2,4.4584982E-2,-5.777064E-3,-1.1248965E-2,2.55303E-4,1.0186776E-2,-3.9170124E-3],"categories":[],"categories_nodes":[],"categories_segments":[],"categories_sizes":[],"default_left":[0,0,0,0,0,0,0,0,0,0,0,0,0,0,0,0,0,0,0,0,0],"id":47,"left_children":[1,3,5,7,-1,9,11,-1,13,-1,-1,-1,15,-1,17,19,-1,-1,-1,-1,-1],"loss_changes":[8.675392E-2,2.6233795E-1,1.7594256E-1,2.1183814E-1,0E0,1.3642357E-1,1.3833919E-1,0E0,5.564401E-1,0E0,0E0,0E0,7.055038E-2,0E0,6.472578E-2,1.3958836E-1,0E0,0E0,0E0,0E0,0E0],"parents":[2147483647,0,0,1,1,2,2,3,3,5,5,6,6,8,8,12,12,14,14,15,15],"right_children":[2,4,6,8,-1,10,12,-1,14,-1,-1,-1,16,-1,18,20,-1,-1,-1,-1,-1],"split_conditions":[4.7951E-1,4.5032E-1,5.4875E-1,3.1107E-1,-1.8676946E-2,5.0974E-1,2.8055E-1,-9.615918E-3,4.2546E-1,-1.2406368E-3,1.2249299E-2,-1.0712556E-2,5.1295E-1,2.2476267E-2,5.7318E-1,6.0974E-1,-5.777064E-3,-1.1248965E-2,2.55303E-4,1.0186776E-2,-3.9170124E-3],"split_indices":[0,0,0,1,0,0,1,0,1,0,0,0,1,0,1,0,0,0,0,0,0],"split_type":[0,0,0,0,0,0,0,0,0,0,0,0,0,0,0,0,0,0,0,0,0],"sum_hessian":[7.3E1,2.9E1,4.4E1,2.4E1,5E0,1.6E1,2.8E1,9E0,1.5E1,7E0,9E0,8E0,2E1,5E0,1E1,1.4E1,6E0,5E0,5E0,7E0,7E0],"tree_param":{"num_deleted":"0","num_feature":"2","num_nodes":"21","size_leaf_vector":"0"}},{"base_weights":[-1.912512E-2,-6.24472E-3,-7.5701405E-3,5.5468768E-2,-5.155348E-2,-4.1098963E-2,1.5497214E-1,-1.4229459E-2,-2.4868956E-2,-8.22658E-3,6.0049095E-3,2.0282064E-2,2.5932877E-3,5.583348E-2,-6.775806E-2,7.4916934E-3,7.5713947E-4,-1.2811554E-2,3.3363637E-3,6.6414033E-3,-7.0897215E-3],"categories":[],"categories_nodes":[],"categories_segments":[],"categories_sizes":[],"default_left":[0,0,0,0,0,0,0,0,0,0,0,0,0,0,0,0,0,0,0,0,0],"id":48,"left_children":[1,3,-1,5,7,9,11,-1,13,-1,-1,-1,-1,15,17,-1,-1,-1,19,-1,-1],"loss_changes":[7.734694E-2,1.846101E-1,0E0,2.75416E-1,1.3539042E-1,1.3343996E-1,1.8525279E-1,0E0,1.1800459E-1,0E0,0E0,0E0,0E0,2.3172017E-2,1.617679E-1,0E0,0E0,0E0,1.2512681E-1,0E0,0E0],"parents":[2147483647,0,0,1,1,3,3,4,4,5,5,6,6,8,8,13,13,14,14,18,18],"right_children":[2,4,-1,6,8,10,12,-1,14,-1,-1,-1,-1,16,18,-1,-1,-1,20,-1,-1],"split_conditions":[6.2297E-1,4.8622E-1,-7.5701405E-3,3.6466E-1,5.2988E-1,4.1611E-1,3.4516E-1,-1.4229459E-2,5.7655E-1,-8.22658E-3,6.0049095E-3,2.0282064E-2,2.5932877E-3,2.9888E-1,3.8417E-1,7.4916934E-3,7.5713947E-4,-1.2811554E-2,4.5884E-1,6.6414033E-3,-7.0897215E-3],"split_indices":[1,0,0,1,0,0,0,0,0,0,0,0,0,1,1,0,0,0,1,0,0],"split_type":[0,0,0,0,0,0,0,0,0,0,0,0,0,0,0,0,0,0,0,0,0],"sum_hessian":[7.3E1,6.4E1,9E0,2.7E1,3.7E1,1.4E1,1.3E1,5E0,3.2E1,9E0,5E0,6E0,7E0,1.1E1,2.1E1,5E0,6E0,8E0,1.3E1,7E0,6E0],"tree_param":{"num_deleted":"0","num_feature":"2","num_nodes":"21","size_leaf_vector":"0"}},{"base_weights":[-1.7773934E-2,-6.220506E-2,9.073844E-3,9.640193E-3,-1.45845E-1,1.5479314E-2,-2.4835737E-2,-8.625021E-3,1.3974064E-2,-2.1193294E-2,8.7916915E-4,-7.3230036E-2,6.392972E-2,-1.0539362E-2,-1.8813048E-2,1.1810987E-2,1.0550146E-4,-1.0581708E-1,7.863588E-3,-1.4678007E-2,1.2517796E-3],"categories":[],"categories_nodes":[],"categories_segments":[],"categories_sizes":[],"default_left":[0,0,0,0,0,0,0,0,0,0,0,0,0,0,0,0,0,0,0,0,0],"id":49,"left_children":[1,3,5,7,9,-1,11,-1,-1,-1,-1,13,15,17,-1,-1,-1,19,-1,-1,-1],"loss_changes":[8.883734E-2,1.6966167E-1,3.195999E-1,3.7377188E-1,2.833913E-1,0E0,1.8080701E-1,0E0,0E0,0E0,0E0,2.9798853E-1,8.751403E-2,2.4196512E-1,0E0,0E0,0E0,1.3541229E-1,0E0,0E0,0E0],"parents":[2147483647,0,0,1,1,2,2,3,3,4,4,6,6,11,11,12,12,13,13,17,17],"right_children":[2,4,6,8,10,-1,12,-1,-1,-1,-1,14,16,18,-1,-1,-1,20,-1,-1,-1],"split_conditions":[4.732E-1,4.2546E-1,4.9209E-1,3.1107E-1,3.7168E-1,1.5479314E-2,4.432E-1,-8.625021E-3,1.3974064E-2,-2.1193294E-2,8.7916915E-4,3.9024E-1,5.4705E-1,2.8055E-1,-1.8813048E-2,1.1810987E-2,1.0550146E-4,6.1448E-1,7.863588E-3,-1.4678007E-2,1.2517796E-3],"split_indices":[0,1,0,1,0,0,1,0,0,0,0,1,0,1,0,0,0,0,0,0,0],"split_type":[0,0,0,0,0,0,0,0,0,0,0,0,0,0,0,0,0,0,0,0,0],"sum_hessian":[7.3E1,2.7E1,4.6E1,1.5E1,1.2E1,6E0,4E1,9E0,6E0,6E0,6E0,2.6E1,1.4E1,2E1,6E0,5E0,9E0,1.1E1,9E0,6E0,5E0],"tree_param":{"num_deleted":"0","num_feature":"2","num_nodes":"21","size_leaf_vector":"0"}},{"base_weights":[-1.660231E-2,-5.691332E-2,1.0640637E-2,-1.0012461E-2,-1.8213602E-2,8.303259E-2,-3.2162946E-2,-6.947417E-2,7.756245E-3,-9.2936883E-4,1.1330151E-2,-9.965948E-2,2.8906707E-2,6.089273E-2,-1.9830868E-2,9.665404E-4,-1.392603E-2,6.9312854E-3,-4.9464004E-3,-1.1270455E-2,1.9643206E-2],"categories":[],"categories_nodes":[],"categories_segments":[],"categories_sizes":[],"default_left":[0,0,0,0,0,0,0,0,0,0,0,0,0,0,0,0,0,0,0,0,0],"id":50,"left_children":[1,3,5,7,-1,9,11,13,-1,-1,-1,15,17,19,-1,-1,-1,-1,-1,-1,-1],"loss_changes":[8.18717E-2,2.5918338E-1,1.4210916E-1,1.758019E-1,0E0,1.12240866E-1,1.2241854E-1,4.4812825E-1,0E0,0E0,0E0,1.3793208E-1,1.0248737E-1,5.062834E-1,0E0,0E0,0E0,0E0,0E0,0E0,0E0],"parents":[2147483647,0,0,1,1,2,2,3,3,5,5,6,6,7,7,11,11,12,12,13,13],"right_children":[2,4,6,8,-1,10,12,14,-1,-1,-1,16,18,20,-1,-1,-1,-1,-1,-1,-1],"split_conditions":[4.7951E-1,4.5032E-1,5.4875E-1,3.7168E-1,-1.8213602E-2,3.9201E-1,3.8642E-1,4.2546E-1,7.756245E-3,-9.2936883E-4,1.1330151E-2,2.4974E-1,5.1295E-1,3.1107E-1,-1.9830868E-2,9.665404E-4,-1.392603E-2,6.9312854E-3,-4.9464004E-3,-1.1270455E-2,1.9643206E-2],"split_indices":[0,0,0,0,0,1,1,1,0,0,0,1,1,1,0,0,0,0,0,0,0],"split_type":[0,0,0,0,0,0,0,0,0,0,0,0,0,0,0,0,0,0,0,0,0],"sum_hessian":[7.3E1,2.9E1,4.4E1,2.4E1,5E0,1.6E1,2.8E1,1.6E1,8E0,7E0,9E0,1.3E1,1.5E1,1E1,6E0,6E0,7E0,9E0,6E0,5E0,5E0],"tree_param":{"num_deleted":"0","num_feature":"2","num_nodes":"21","size_leaf_vector":"0"}},{"base_weights":[-1.566104E-2,-5.558442E-2,8.456314E-3,1.1520591E-2,-1.3389948E-1,1.4520281E-2,-2.3360474E-2,-1.0566053E-2,9.360124E-2,-1.9530818E-2,8.805328E-4,-1.32816825E-2,2.9098664E-3,1.8415507E-2,-5.545335E-3,9.173445E-3,-3.0129157E-2,-9.3110695E-2,2.6862763E-2,9.0440514E-4,-1.30121345E-2,6.4634234E-3,-4.628417E-3],"categories":[],"categories_nodes":[],"categories_segments":[],"categories_sizes":[],"default_left":[0,0,0,0,0,0,0,0,0,0,0,0,0,0,0,0,0,0,0,0,0,0,0],"id":51,"left_children":[1,3,5,7,9,-1,11,-1,13,-1,-1,-1,15,-1,-1,-1,17,19,21,-1,-1,-1,-1],"loss_changes":[7.172067E-2,1.4869192E-1,2.813901E-1,2.1333379E-1,2.4258378E-1,0E0,1.6609393E-1,0E0,2.981673E-1,0E0,0E0,0E0,1.4570338E-1,0E0,0E0,0E0,1.0659494E-1,1.20447904E-1,8.9381225E-2,0E0,0E0,0E0,0E0],"parents":[2147483647,0,0,1,1,2,2,3,3,4,4,6,6,8,8,12,12,16,16,17,17,18,18],"right_children":[2,4,6,8,10,-1,12,-1,14,-1,-1,-1,16,-1,-1,-1,18,20,22,-1,-1,-1,-1],"split_conditions":[4.732E-1,3.4516E-1,4.9209E-1,3.1107E-1,4.2582E-1,1.4520281E-2,5.2988E-1,-1.0566053E-2,4.2546E-1,-1.9530818E-2,8.805328E-4,-1.32816825E-2,5.4875E-1,1.8415507E-2,-5.545335E-3,9.173445E-3,3.8642E-1,2.4974E-1,5.1295E-1,9.0440514E-4,-1.30121345E-2,6.4634234E-3,-4.628417E-3],"split_indices":[0,0,0,1,1,0,0,0,1,0,0,0,0,0,0,0,1,1,1,0,0,0,0],"split_type":[0,0,0,0,0,0,0,0,0,0,0,0,0,0,0,0,0,0,0,0,0,0,0],"sum_hessian":[7.3E1,2.7E1,4.6E1,1.5E1,1.2E1,6E0,4E1,5E0,1E1,6E0,6E0,5E0,3.5E1,5E0,5E0,7E0,2.8E1,1.3E1,1.5E1,6E0,7E0,9E0,6E0],"tree_param":{"num_deleted":"0","num_feature":"2","num_nodes":"23","size_leaf_vector":"0"}},{"base_weights":[-1.4705473E-2,-2.3234724E-3,-7.028845E-3,-1.8562589E-2,1.203412E-2,-6.2072095E-3,-9.654486E-3,1.1367385E-2,-3.2373283E-2,-1.0353584E-2,-1.3990074E-2,1.16544245E-2,-4.6536926E-2,-1.5184843E-2,-1.9176849E-3,8.893392E-2,-5.4415055E-2,-2.1023147E-3,1.4330731E-2,-1.590854E-2,1.2792698E-3],"categories":[],"categories_nodes":[],"categories_segments":[],"categories_sizes":[],"default_left":[0,0,0,0,0,0,0,0,0,0,0,0,0,0,0,0,0,0,0,0,0],"id":52,"left_children":[1,3,-1,5,-1,7,-1,-1,9,-1,11,-1,13,-1,15,17,19,-1,-1,-1,-1],"loss_changes":[7.217884E-2,1.74798E-1,0E0,8.0867946E-2,0E0,2.3196222E-1,0E0,0E0,9.131527E-2,0E0,2.3877178E-1,0E0,2.5007716E-1,0E0,1.43154E-1,1.3677382E-1,2.1776788E-1,0E0,0E0,0E0,0E0],"parents":[2147483647,0,0,1,1,3,3,5,5,8,8,10,10,12,12,14,14,15,15,16,16],"right_children":[2,4,-1,6,-1,8,-1,-1,10,-1,12,-1,14,-1,16,18,20,-1,-1,-1,-1],"split_conditions":[6.2297E-1,5.7236E-1,-7.028845E-3,7.282E-1,1.203412E-2,1.7957E-1,-9.654486E-3,1.1367385E-2,2.3262E-1,-1.0353584E-2,2.9855E-1,1.16544245E-2,3.6466E-1,-1.5184843E-2,4.2546E-1,3.9201E-1,4.732E-1,-2.1023147E-3,1.4330731E-2,-1.590854E-2,1.2792698E-3],"split_indices":[1,1,0,0,0,1,0,0,1,0,1,0,1,0,1,1,0,0,0,0,0],"split_type":[0,0,0,0,0,0,0,0,0,0,0,0,0,0,0,0,0,0,0,0,0],"sum_hessian":[7.3E1,6.4E1,9E0,5.9E1,5E0,5.4E1,5E0,7E0,4.7E1,6E0,4.1E1,6E0,3.5E1,7E0,2.8E1,1E1,1.8E1,5E0,5E0,5E0,1.3E1],"tree_param":{"num_deleted":"0","num_feature":"2","num_nodes":"21","size_leaf_vector":"0"}},{"base_weights":[-1.3731846E-2,-4.553593E-2,1.5977869E-2,1.8472326E-3,-1.8157613E-2,1.2003371E-2,-2.0538207E-2,-4.7262922E-2,1.2747076E-2,-5.3434305E-2,4.2882483E-3,2.0999894E-2,-1.0663914E-1,-2.2249867E-3,-9.963453E-3,-3.634149E-3,7.389825E-3,2.4609538E-3,-2.0610133E-2,-7.810435E-3,7.4975463E-3],"categories":[],"categories_nodes":[],"categories_segments":[],"categories_sizes":[],"default_left":[0,0,0,0,0,0,0,0,0,0,0,0,0,0,0,0,0,0,0,0,0],"id":53,"left_children":[1,3,5,7,-1,-1,9,11,-1,13,-1,15,17,19,-1,-1,-1,-1,-1,-1,-1],"loss_changes":[7.064943E-2,3.3574754E-1,2.084568E-1,2.5571564E-1,0E0,0E0,8.486368E-2,9.951593E-2,0E0,9.323668E-2,0E0,6.939361E-2,3.1387466E-1,1.6663307E-1,0E0,0E0,0E0,0E0,0E0,0E0,0E0],"parents":[2147483647,0,0,1,1,2,2,3,3,6,6,7,7,9,9,11,11,12,12,13,13],"right_children":[2,4,6,8,-1,-1,10,12,-1,14,-1,16,18,20,-1,-1,-1,-1,-1,-1,-1],"split_conditions":[5.0468E-1,6.2297E-1,5.4431E-1,4.3944E-1,-1.8157613E-2,1.2003371E-2,6.8303E-1,2.9723E-1,1.2747076E-2,6.0974E-1,4.2882483E-3,4.1611E-1,3.4516E-1,5.7008E-1,-9.963453E-3,-3.634149E-3,7.389825E-3,2.4609538E-3,-2.0610133E-2,-7.810435E-3,7.4975463E-3],"split_indices":[0,1,0,1,0,0,0,1,0,0,0,0,0,0,0,0,0,0,0,0,0],"split_type":[0,0,0,0,0,0,0,0,0,0,0,0,0,0,0,0,0,0,0,0,0],"sum_hessian":[7.3E1,3.5E1,3.8E1,2.9E1,6E0,7E0,3.1E1,2.3E1,6E0,2.2E1,9E0,1.1E1,1.2E1,1.4E1,8E0,6E0,5E0,7E0,5E0,7E0,7E0],"tree_param":{"num_deleted":"0","num_feature":"2","num_nodes":"21","size_leaf_vector":"0"}},{"base_weights":[-1.2888292E-2,-4.8528112E-2,1.1157995E-2,-4.8351167E-3,-1.668707E-2,6.511324E-2,-3.8765896E-2,-6.180641E-2,7.7485926E-3,1.1548824E-2,1.337445E-2,-1.0888341E-2,2.3513712E-2,5.3013854E-2,-1.7505659E-2,-1.4493576E-2,1.0200771E-2,-2.7703543E-3,7.988571E-3,-9.868953E-3,1.715836E-2],"categories":[],"categories_nodes":[],"categories_segments":[],"categories_sizes":[],"default_left":[0,0,0,0,0,0,0,0,0,0,0,0,0,0,0,0,0,0,0,0,0],"id":54,"left_children":[1,3,5,7,-1,9,11,13,-1,-1,15,-1,17,19,-1,-1,-1,-1,-1,-1,-1],"loss_changes":[6.3959874E-2,2.2695726E-1,1.2373868E-1,1.604212E-1,0E0,9.909834E-2,1.6246878E-1,3.4733218E-1,0E0,0E0,4.063728E-1,0E0,8.421493E-2,3.8701072E-1,0E0,0E0,0E0,0E0,0E0,0E0,0E0],"parents":[2147483647,0,0,1,1,2,2,3,3,5,5,6,6,7,7,10,10,12,12,13,13],"right_children":[2,4,6,8,-1,10,12,14,-1,-1,16,-1,18,20,-1,-1,-1,-1,-1,-1,-1],"split_conditions":[4.7951E-1,4.5032E-1,5.7655E-1,3.7168E-1,-1.668707E-2,2.9855E-1,3.8417E-1,4.2546E-1,7.7485926E-3,1.1548824E-2,3.9201E-1,-1.0888341E-2,6.7697E-1,3.1107E-1,-1.7505659E-2,-1.4493576E-2,1.0200771E-2,-2.7703543E-3,7.988571E-3,-9.868953E-3,1.715836E-2],"split_indices":[0,0,0,0,0,1,1,1,0,0,1,0,0,1,0,0,0,0,0,0,0],"split_type":[0,0,0,0,0,0,0,0,0,0,0,0,0,0,0,0,0,0,0,0,0],"sum_hessian":[7.3E1,2.9E1,4.4E1,2.4E1,5E0,2.1E1,2.3E1,1.6E1,8E0,7E0,1.4E1,8E0,1.5E1,1E1,6E0,5E0,9E0,9E0,6E0,5E0,5E0],"tree_param":{"num_deleted":"0","num_feature":"2","num_nodes":"21","size_leaf_vector":"0"}},{"base_weights":[-1.2159086E-2,-8.2021635E-3,-3.5304253E-3,5.9397884E-2,-2.5245408E-2,-5.0208264E-4,9.467552E-3,-1.3523404E-2,2.8830008E-3,1.323039E-2,-2.833593E-2,-1.3314551E-2,9.847419E-3,4.734998E-2,-5.804491E-3,1.6901609E-2,-2.8731398E-2,5.7951663E-2,-1.2063237E-2,2.6615737E-3,5.3067803E-3],"categories":[],"categories_nodes":[],"categories_segments":[],"categories_sizes":[],"default_left":[0,0,0,0,0,0,0,0,0,0,0,0,0,0,0,0,0,0,0,0,0],"id":55,"left_children":[1,-1,3,5,7,-1,-1,-1,9,-1,11,-1,13,15,-1,-1,17,19,-1,-1,-1],"loss_changes":[6.16801E-2,0E0,9.578714E-2,8.035747E-2,2.2733226E-1,0E0,0E0,0E0,2.487716E-1,0E0,2.2391668E-1,0E0,1.0836047E-1,3.1796026E-1,0E0,0E0,2.040026E-1,6.532669E-4,0E0,0E0,0E0],"parents":[2147483647,0,0,2,2,3,3,4,4,8,8,10,10,12,12,13,13,16,16,17,17],"right_children":[2,-1,4,6,8,-1,-1,-1,10,-1,12,-1,14,16,-1,-1,18,20,-1,-1,-1],"split_conditions":[1.0833E-1,-8.2021635E-3,2.9855E-1,2.3262E-1,3.6466E-1,-5.0208264E-4,9.467552E-3,-1.3523404E-2,3.9024E-1,1.323039E-2,4.2582E-1,-1.3314551E-2,6.2297E-1,4.5032E-1,-5.804491E-3,1.6901609E-2,5.1295E-1,4.8209E-1,-1.2063237E-2,2.6615737E-3,5.3067803E-3],"split_indices":[1,0,1,1,1,0,0,0,1,0,1,0,1,0,0,0,1,1,0,0,0],"split_type":[0,0,0,0,0,0,0,0,0,0,0,0,0,0,0,0,0,0,0,0,0],"sum_hessian":[7.3E1,5E0,6.8E1,1.7E1,5.1E1,9E0,8E0,7E0,4.4E1,6E0,3.8E1,7E0,3.1E1,2.2E1,9E0,6E0,1.6E1,1E1,6E0,5E0,5E0],"tree_param":{"num_deleted":"0","num_feature":"2","num_nodes":"21","size_leaf_vector":"0"}},{"base_weights":[-1.13261035E-2,-3.9427433E-2,1.6333774E-2,3.3450169E-3,-1.9573195E-2,1.232129E-2,-1.654074E-2,8.2867734E-2,-1.048176E-1,-6.6867154E-3,1.5750363E-2,-1.801324E-2,2.2833405E-2,-1.6656522E-2,8.171471E-4,9.357904E-3,-2.1465218E-2,-6.0029775E-3,5.852149E-3,-4.9917396E-2,3.2819028E-3,-9.181782E-3,8.026536E-4],"categories":[],"categories_nodes":[],"categories_segments":[],"categories_sizes":[],"default_left":[0,0,0,0,0,0,0,0,0,0,0,0,0,0,0,0,0,0,0,0,0,0,0],"id":56,"left_children":[1,3,5,7,-1,-1,9,11,13,-1,15,17,-1,-1,-1,-1,19,-1,-1,21,-1,-1,-1],"loss_changes":[5.816267E-2,3.5149133E-1,1.8754128E-1,2.839303E-1,0E0,0E0,7.643891E-2,4.3019038E-1,1.9239375E-1,0E0,9.599628E-2,8.964531E-2,0E0,0E0,0E0,0E0,3.558805E-2,0E0,0E0,5.8449015E-2,0E0,0E0,0E0],"parents":[2147483647,0,0,1,1,2,2,3,3,6,6,7,7,8,8,10,10,11,11,16,16,19,19],"right_children":[2,4,6,8,-1,-1,10,12,14,-1,16,18,-1,-1,-1,-1,20,-1,-1,22,-1,-1,-1],"split_conditions":[5.0974E-1,4.8622E-1,5.4431E-1,4.2546E-1,-1.9573195E-2,1.232129E-2,2.8055E-1,3.4366E-1,3.7168E-1,-6.6867154E-3,5.7655E-1,4.1611E-1,2.2833405E-2,-1.6656522E-2,8.171471E-4,9.357904E-3,6.7971E-1,-6.0029775E-3,5.852149E-3,4.432E-1,3.2819028E-3,-9.181782E-3,8.026536E-4],"split_indices":[0,0,0,1,0,0,1,1,0,0,0,0,0,0,0,0,0,0,0,1,0,0,0],"split_type":[0,0,0,0,0,0,0,0,0,0,0,0,0,0,0,0,0,0,0,0,0,0,0],"sum_hessian":[7.3E1,3.6E1,3.7E1,3.1E1,5E0,6E0,3.1E1,1.8E1,1.3E1,9E0,2.2E1,1.3E1,5E0,6E0,7E0,5E0,1.7E1,8E0,5E0,1.2E1,5E0,5E0,7E0],"tree_param":{"num_deleted":"0","num_feature":"2","num_nodes":"23","size_leaf_vector":"0"}},{"base_weights":[-1.0514952E-2,-4.4384237E-2,1.2298237E-2,-4.391908E-3,-1.5271618E-2,6.0248367E-2,-3.2168478E-2,-1.0392852E-2,3.6081523E-2,1.2964888E-1,-8.389473E-3,-9.872314E-3,2.578963E-2,-3.0760147E-2,1.4787909E-2,1.3628843E-2,4.197879E-3,-7.947436E-3,5.733441E-3,-2.130081E-3,7.464052E-3,8.27723E-3,-1.5585748E-2],"categories":[],"categories_nodes":[],"categories_segments":[],"categories_sizes":[],"default_left":[0,0,0,0,0,0,0,0,0,0,0,0,0,0,0,0,0,0,0,0,0,0,0],"id":57,"left_children":[1,3,5,7,-1,9,11,-1,13,15,17,-1,19,21,-1,-1,-1,-1,-1,-1,-1,-1,-1],"loss_changes":[5.7723165E-2,1.9015387E-1,9.7886406E-2,1.4076743E-1,0E0,1.0588472E-1,1.4174631E-1,0E0,2.2141631E-1,3.2028183E-2,1.0743572E-1,0E0,6.675511E-2,3.9772213E-1,0E0,0E0,0E0,0E0,0E0,0E0,0E0,0E0,0E0],"parents":[2147483647,0,0,1,1,2,2,3,3,5,5,6,6,8,8,9,9,10,10,12,12,13,13],"right_children":[2,4,6,8,-1,10,12,-1,14,16,18,-1,20,22,-1,-1,-1,-1,-1,-1,-1,-1,-1],"split_conditions":[4.7951E-1,4.5032E-1,5.7655E-1,2.5566E-1,-1.5271618E-2,3.6539E-1,3.8417E-1,-1.0392852E-2,3.7168E-1,5.4553E-1,4.8209E-1,-9.872314E-3,6.7697E-1,4.2546E-1,1.4787909E-2,1.3628843E-2,4.197879E-3,-7.947436E-3,5.733441E-3,-2.130081E-3,7.464052E-3,8.27723E-3,-1.5585748E-2],"split_indices":[0,0,0,1,0,1,1,0,0,0,1,0,0,1,0,0,0,0,0,0,0,0,0],"split_type":[0,0,0,0,0,0,0,0,0,0,0,0,0,0,0,0,0,0,0,0,0,0,0],"sum_hessian":[7.3E1,2.9E1,4.4E1,2.4E1,5E0,2.1E1,2.3E1,5E0,1.9E1,1E1,1.1E1,8E0,1.5E1,1.4E1,5E0,5E0,5E0,5E0,6E0,9E0,6E0,8E0,6E0],"tree_param":{"num_deleted":"0","num_feature":"2","num_nodes":"23","size_leaf_vector":"0"}}]},"name":"gbtree"},"learner_model_param":{"base_score":"5E-1","boost_from_average":"1","num_class":"0","num_feature":"2","num_target":"1"},"objective":{"name":"reg:squarederror","reg_loss_param":{"scale_pos_weight":"1"}}},"version":[1,7,3]}