{"learner":{"attributes":{"best_iteration":"67","best_ntree_limit":"68","best_score":"1.1747400706267894"},"feature_names":[],"feature_types":[],"gradient_booster":{"model":{"gbtree_model_param":{"num_parallel_tree":"1","num_trees":"118","size_leaf_vector":"0"},"tree_info":[0,0,0,0,0,0,0,0,0,0,0,0,0,0,0,0,0,0,0,0,0,0,0,0,0,0,0,0,0,0,0,0,0,0,0,0,0,0,0,0,0,0,0,0,0,0,0,0,0,0,0,0,0,0,0,0,0,0,0,0,0,0,0,0,0,0,0,0,0,0,0,0,0,0,0,0,0,0,0,0,0,0,0,0,0,0,0,0,0,0,0,0,0,0,0,0,0,0,0,0,0,0,0,0,0,0,0,0,0,0,0,0,0,0,0,0,0,0],"trees":[{"base_weights":[-4.931507E-1,-1.3923233E0,-2.5618905E-1,-4.907693E-1,-1.2566592E-1,1.434742E-1,-8.0547005E-1,-4.397069E-2,-4.0778643E-3,-8.797452E-1,3.855108E-1,2.4764594E-1,-1.151067E0,-3.1923104E-2,-8.354346E-2,6.6204417E-1,-6.1415147E-2,4.446915E-1,-3.5048526E-2,-9.708213E-2,-3.6807697E-2,1.55017525E-2,5.8303636E-2,1.4532893E-2,-1.680077E-1,1.7970638E-2,4.2742874E-2,-6.79644E-3,-1.8156642E-2],"categories":[],"categories_nodes":[],"categories_segments":[],"categories_sizes":[],"default_left":[0,0,0,0,0,0,0,0,0,0,0,0,0,0,0,0,0,0,0,0,0,0,0,0,0,0,0,0,0],"id":0,"left_children":[1,3,5,7,-1,9,11,-1,-1,13,15,17,19,-1,-1,21,23,25,-1,-1,-1,-1,-1,-1,27,-1,-1,-1,-1],"loss_changes":[1.5197369E1,3.0077953E0,1.3067683E1,1.7651749E-1,0E0,9.007131E0,9.3839E0,0E0,0E0,2.7022743E-1,3.6247678E0,1.1939677E0,1.1632977E0,0E0,0E0,7.8467417E-1,3.5896766E-1,1.7520905E-2,0E0,0E0,0E0,0E0,0E0,0E0,2.9659182E-2,0E0,0E0,0E0,0E0],"parents":[2147483647,0,0,1,1,2,2,3,3,5,5,6,6,9,9,10,10,11,11,12,12,15,15,16,16,17,17,24,24],"right_children":[2,4,6,8,-1,10,12,-1,-1,14,16,18,20,-1,-1,22,24,26,-1,-1,-1,-1,-1,-1,28,-1,-1,-1,-1],"split_conditions":[4.7918E-1,1.2922E-1,5.3573E-1,8.2917E-1,-1.2566592E-1,-1.236E-2,2.9091E-1,-4.397069E-2,-4.0778643E-3,2.0079E-1,3.4152E-1,8.2415E-1,6.0368E-1,-3.1923104E-2,-8.354346E-2,1.1792E-1,4.2233E-1,4.2334E-1,-3.5048526E-2,-9.708213E-2,-3.6807697E-2,1.55017525E-2,5.8303636E-2,1.4532893E-2,5.726E-1,1.7970638E-2,4.2742874E-2,-6.79644E-3,-1.8156642E-2],"split_indices":[4821,96,3785,1,0,1135,2684,0,0,12,4070,0,3222,0,0,139,87,3,0,0,0,0,0,0,116,0,0,0,0],"split_type":[0,0,0,0,0,0,0,0,0,0,0,0,0,0,0,0,0,0,0,0,0,0,0,0,0,0,0,0,0],"sum_hessian":[7.2E1,1.4E1,5.8E1,4E0,1E1,3.4E1,2.4E1,3E0,1E0,6E0,2.8E1,6E0,1.8E1,3E0,3E0,1.7E1,1.1E1,5E0,1E0,1.4E1,4E0,4E0,1.3E1,3E0,8E0,3E0,2E0,5E0,3E0],"tree_param":{"num_deleted":"0","num_feature":"6670","num_nodes":"29","size_leaf_vector":"0"}},{"base_weights":[-4.6074003E-1,-1.29948E0,-2.396919E-1,-4.6357128E-1,-1.17097795E-1,1.3122562E-1,-7.4938875E-1,-4.149734E-2,-3.924945E-3,-8.302595E-1,3.5878322E-1,2.3273894E-1,-1.0717838E0,-3.0127425E-2,-7.884414E-2,6.164912E-1,-5.7677347E-2,4.2145857E-1,-3.3734206E-2,-9.224857E-2,-3.9302014E-2,1.4571649E-2,5.4243203E-2,1.3715419E-2,-1.5817969E-1,1.695979E-2,4.0605735E-2,-6.371662E-3,-1.713533E-2],"categories":[],"categories_nodes":[],"categories_segments":[],"categories_sizes":[],"default_left":[0,0,0,0,0,0,0,0,0,0,0,0,0,0,0,0,0,0,0,0,0,0,0,0,0,0,0,0,0],"id":1,"left_children":[1,3,5,7,-1,9,11,-1,-1,13,15,17,19,-1,-1,21,23,25,-1,-1,-1,-1,-1,-1,27,-1,-1,-1,-1],"loss_changes":[1.3222862E1,2.5591373E0,1.1252613E1,1.5553963E-1,0E0,7.9556465E0,8.165274E0,0E0,0E0,2.4068165E-1,3.1479886E0,1.091213E0,1.001873E0,0E0,0E0,6.7075586E-1,3.1903625E-1,1.8149734E-2,0E0,0E0,0E0,0E0,0E0,0E0,2.6913375E-2,0E0,0E0,0E0,0E0],"parents":[2147483647,0,0,1,1,2,2,3,3,5,5,6,6,9,9,10,10,11,11,12,12,15,15,16,16,17,17,24,24],"right_children":[2,4,6,8,-1,10,12,-1,-1,14,16,18,20,-1,-1,22,24,26,-1,-1,-1,-1,-1,-1,28,-1,-1,-1,-1],"split_conditions":[4.7918E-1,1.2922E-1,5.3573E-1,8.2917E-1,-1.17097795E-1,-1.236E-2,2.9091E-1,-4.149734E-2,-3.924945E-3,2.0079E-1,3.4152E-1,8.2415E-1,6.0939E-1,-3.0127425E-2,-7.884414E-2,1.1792E-1,4.2233E-1,4.2334E-1,-3.3734206E-2,-9.224857E-2,-3.9302014E-2,1.4571649E-2,5.4243203E-2,1.3715419E-2,5.726E-1,1.695979E-2,4.0605735E-2,-6.371662E-3,-1.713533E-2],"split_indices":[4821,96,3785,1,0,1135,2684,0,0,12,4070,0,3661,0,0,139,87,3,0,0,0,0,0,0,116,0,0,0,0],"split_type":[0,0,0,0,0,0,0,0,0,0,0,0,0,0,0,0,0,0,0,0,0,0,0,0,0,0,0,0,0],"sum_hessian":[7.2E1,1.4E1,5.8E1,4E0,1E1,3.4E1,2.4E1,3E0,1E0,6E0,2.8E1,6E0,1.8E1,3E0,3E0,1.7E1,1.1E1,5E0,1E0,1.3E1,5E0,4E0,1.3E1,3E0,8E0,3E0,2E0,5E0,3E0],"tree_param":{"num_deleted":"0","num_feature":"6670","num_nodes":"29","size_leaf_vector":"0"}},{"base_weights":[-4.3057063E-1,-9.816124E-1,-1.4063972E-1,-3.170652E-1,-1.3356036E0,2.5105688E-1,-6.748569E-1,-4.2848542E-2,5.144623E-2,-1.2862158E-1,-9.3649787E-1,-3.5945E-1,4.616477E-1,2.8910413E-1,-9.9416375E-1,1.1338659E-2,-4.90788E-3,-1.8955171E-2,-7.3829226E-2,-5.1517785E-2,-2.5596995E-2,6.387402E-1,-9.084808E-3,-3.5840606E-3,2.7452998E-2,-3.231163E-2,-8.5953206E-2,8.560843E-3,-6.68014E-3,8.560843E-3,4.995777E-2,1.2909705E-2,-1.880278E-1,-3.5840606E-3,-1.6413407E-2],"categories":[],"categories_nodes":[],"categories_segments":[],"categories_sizes":[],"default_left":[0,0,0,0,0,0,0,0,0,0,0,0,0,0,0,0,0,0,0,0,0,0,0,0,0,0,0,0,0,0,0,0,0,0,0],"id":2,"left_children":[1,3,5,7,9,11,13,-1,15,-1,17,19,21,23,25,-1,-1,-1,-1,-1,27,29,31,-1,-1,-1,-1,-1,-1,-1,-1,-1,33,-1,-1],"loss_changes":[1.1524721E1,5.4576244E0,1.04227295E1,9.663274E-1,8.163643E-1,3.8943868E0,6.7512035E0,0E0,6.8181075E-2,0E0,7.8676224E-2,8.5698867E-1,1.8397932E0,1.7300636E-1,8.7521553E-1,0E0,0E0,0E0,0E0,0E0,5.451474E-2,1.5364361E-1,2.593542E-1,0E0,0E0,0E0,0E0,0E0,0E0,0E0,0E0,0E0,6.829411E-3,0E0,0E0],"parents":[2147483647,0,0,1,1,2,2,3,3,4,4,5,5,6,6,8,8,10,10,11,11,12,12,13,13,14,14,20,20,21,21,22,22,32,32],"right_children":[2,4,6,8,10,12,14,-1,16,-1,18,20,22,24,26,-1,-1,-1,-1,-1,28,30,32,-1,-1,-1,-1,-1,-1,-1,-1,-1,34,-1,-1],"split_conditions":[4.3231E-1,5.274E-2,3.694E-1,5.36E-1,4.9772E-1,5.7152E-1,-8.307E-2,-4.2848542E-2,8.0529E-1,-1.2862158E-1,2.5333E-1,-1.4419E-1,3.4321E-1,3.0445E-1,7.407E-2,1.1338659E-2,-4.90788E-3,-1.8955171E-2,-7.3829226E-2,-5.1517785E-2,4.342E-1,2.1291E-1,5.0078E-1,-3.5840606E-3,2.7452998E-2,-3.231163E-2,-8.5953206E-2,8.560843E-3,-6.68014E-3,8.560843E-3,4.995777E-2,1.2909705E-2,7.4472E-1,-3.5840606E-3,-1.6413407E-2],"split_indices":[3570,5178,3779,10,974,1588,5437,0,0,0,2,114,1481,1,187,0,0,0,0,0,1,13,5,0,0,0,0,0,0,0,0,0,0,0,0],"split_type":[0,0,0,0,0,0,0,0,0,0,0,0,0,0,0,0,0,0,0,0,0,0,0,0,0,0,0,0,0,0,0,0,0,0,0],"sum_hessian":[7.2E1,2.4E1,4.8E1,9E0,1.5E1,2.8E1,2E1,5E0,4E0,6E0,9E0,7E0,2.1E1,5E0,1.5E1,2E0,2E0,1E0,8E0,3E0,4E0,1.5E1,6E0,1E0,4E0,4E0,1.1E1,1E0,3E0,1E0,1.4E1,3E0,3E0,1E0,2E0],"tree_param":{"num_deleted":"0","num_feature":"6670","num_nodes":"35","size_leaf_vector":"0"}},{"base_weights":[-4.030782E-1,-1.139241E0,-2.0908634E-1,-4.1330457E-1,-1.3656447E0,1.1131421E-1,-6.4928365E-1,-3.6950447E-2,-3.5937142E-3,-1.22379884E-1,-6.539626E-2,-7.367393E-1,3.1217834E-1,2.0549786E-1,-9.3003035E-1,-2.6668094E-2,-7.002894E-2,5.2013344E-1,-7.539663E-2,3.717501E-1,-2.970058E-2,-7.84408E-2,-2.9736267E-2,1.3615563E-2,4.710691E-2,1.0490293E-2,-1.3877496E-1,1.4763715E-2,3.6077563E-2,-5.655481E-3,-1.4935053E-2],"categories":[],"categories_nodes":[],"categories_segments":[],"categories_sizes":[],"default_left":[0,0,0,0,0,0,0,0,0,0,0,0,0,0,0,0,0,0,0,0,0,0,0,0,0,0,0,0,0,0,0],"id":3,"left_children":[1,3,5,7,9,11,13,-1,-1,-1,-1,15,17,19,21,-1,-1,23,25,27,-1,-1,-1,-1,-1,-1,29,-1,-1,-1,-1],"loss_changes":[1.0186899E1,1.9008942E0,8.393602E0,1.2139386E-1,2.2233963E-2,6.192017E0,6.190546E0,0E0,0E0,0E0,0E0,1.935656E-1,2.3765635E0,8.472274E-1,7.597122E-1,0E0,0E0,5.8050156E-1,1.6948655E-1,1.9991636E-2,0E0,0E0,0E0,0E0,0E0,0E0,1.9407809E-2,0E0,0E0,0E0,0E0],"parents":[2147483647,0,0,1,1,2,2,3,3,4,4,5,5,6,6,11,11,12,12,13,13,14,14,17,17,18,18,19,19,26,26],"right_children":[2,4,6,8,10,12,14,-1,-1,-1,-1,16,18,20,22,-1,-1,24,26,28,-1,-1,-1,-1,-1,-1,30,-1,-1,-1,-1],"split_conditions":[4.7918E-1,1.2922E-1,5.3573E-1,8.2917E-1,2.3479E-1,-1.236E-2,2.9091E-1,-3.6950447E-2,-3.5937142E-3,-1.22379884E-1,-6.539626E-2,2.0079E-1,3.0257E-1,8.2415E-1,6.0368E-1,-2.6668094E-2,-7.002894E-2,1.5974E-1,-4.246E-2,4.2334E-1,-2.970058E-2,-7.84408E-2,-2.9736267E-2,1.3615563E-2,4.710691E-2,1.0490293E-2,5.726E-1,1.4763715E-2,3.6077563E-2,-5.655481E-3,-1.4935053E-2],"split_indices":[4821,96,3785,1,35,1135,2684,0,0,0,0,12,4209,0,3222,0,0,139,23,3,0,0,0,0,0,0,116,0,0,0,0],"split_type":[0,0,0,0,0,0,0,0,0,0,0,0,0,0,0,0,0,0,0,0,0,0,0,0,0,0,0,0,0,0,0],"sum_hessian":[7.2E1,1.4E1,5.8E1,4E0,1E1,3.4E1,2.4E1,3E0,1E0,5E0,5E0,6E0,2.8E1,6E0,1.8E1,3E0,3E0,1.8E1,1E1,5E0,1E0,1.4E1,4E0,5E0,1.3E1,2E0,8E0,3E0,2E0,5E0,3E0],"tree_param":{"num_deleted":"0","num_feature":"6670","num_nodes":"31","size_leaf_vector":"0"}},{"base_weights":[-3.7779844E-1,-1.0690192E0,-1.95661E-1,-3.9041555E-1,-1.2802919E0,1.5008786E-3,-8.295028E-1,-3.4871988E-2,-3.45895E-3,-1.1473115E-1,-6.1308987E-2,-7.3578995E-1,2.007281E-1,-2.5972152E-1,-7.2096504E-2,-8.637507E-1,1.5594623E-2,4.4242382E-1,-1.8325384E-1,-2.262776E-2,-5.0165905E-3,-3.2322537E-2,-7.56236E-2,2.838318E-1,4.9318925E-2,6.171979E-2,-3.5403065E-2,1.4659651E-2,2.8785711E-2,-6.082181E-3,2.8078709E-2],"categories":[],"categories_nodes":[],"categories_segments":[],"categories_sizes":[],"default_left":[0,0,0,0,0,0,0,0,0,0,0,0,0,0,0,0,0,0,0,0,0,0,0,0,0,0,0,0,0,0,0],"id":4,"left_children":[1,3,5,7,9,11,13,-1,-1,-1,-1,15,17,19,-1,21,-1,23,25,-1,-1,-1,-1,27,-1,29,-1,-1,-1,-1,-1],"loss_changes":[8.98133E0,1.650711E0,7.374442E0,1.0688281E-1,1.9540787E-2,6.904561E0,8.015652E-1,0E0,0E0,0E0,0E0,1.3871865E0,3.5149264E0,1.2201786E-2,0E0,1.2853336E-1,0E0,5.981846E-1,1.0903122E0,0E0,0E0,0E0,0E0,5.750501E-2,0E0,4.3223894E-1,0E0,0E0,0E0,0E0,0E0],"parents":[2147483647,0,0,1,1,2,2,3,3,4,4,5,5,6,6,11,11,12,12,13,13,15,15,17,17,18,18,23,23,25,25],"right_children":[2,4,6,8,10,12,14,-1,-1,-1,-1,16,18,20,-1,22,-1,24,26,-1,-1,-1,-1,28,-1,30,-1,-1,-1,-1,-1],"split_conditions":[4.7918E-1,1.2922E-1,5.7046E-1,8.2917E-1,2.3479E-1,1.739E-2,-7.695E-2,-3.4871988E-2,-3.45895E-3,-1.1473115E-1,-6.1308987E-2,8.5986E-1,3.2525E-1,8.0335E-1,-7.2096504E-2,3.6844E-1,1.5594623E-2,4.3036E-1,1.8842E-1,-2.262776E-2,-5.0165905E-3,-3.2322537E-2,-7.56236E-2,5.9055E-1,4.9318925E-2,5.1842E-1,-3.5403065E-2,1.4659651E-2,2.8785711E-2,-6.082181E-3,2.8078709E-2],"split_indices":[4821,96,4251,1,35,2857,107,0,0,0,0,1,4209,0,0,276,0,1994,2152,0,0,0,0,455,0,7,0,0,0,0,0],"split_type":[0,0,0,0,0,0,0,0,0,0,0,0,0,0,0,0,0,0,0,0,0,0,0,0,0,0,0,0,0,0,0],"sum_hessian":[7.2E1,1.4E1,5.8E1,4E0,1E1,4.5E1,1.3E1,3E0,1E0,5E0,5E0,9E0,3.6E1,3E0,1E1,8E0,1E0,2.2E1,1.4E1,2E0,1E0,3E0,5E0,1.4E1,8E0,8E0,6E0,9E0,5E0,6E0,2E0],"tree_param":{"num_deleted":"0","num_feature":"6670","num_nodes":"31","size_leaf_vector":"0"}},{"base_weights":[-3.5394445E-1,-7.4886227E-1,-7.663812E-2,-3.609661E-1,-1.300626E0,1.5570047E-1,-7.0918274E-1,-6.633892E-1,1.3778934E-1,-1.1074835E-1,-5.691534E-2,-4.195365E-2,2.7362156E-1,-5.790132E-2,-1.9750435E-2,-2.3286372E-1,-5.85768E-2,2.794304E-1,-5.528199E-3,4.473917E-1,-1.6224444E-1,-2.1066882E-2,-3.3292396E-3,3.0949367E-2,1.0721916E-2,5.429585E-1,1.340194E-2,-3.0815408E-2,-2.3912018E-2,2.9503671E-2,5.2631933E-2,6.7577455E-3,-5.476485E-3],"categories":[],"categories_nodes":[],"categories_segments":[],"categories_sizes":[],"default_left":[0,0,0,0,0,0,0,0,0,0,0,0,0,0,0,0,0,0,0,0,0,0,0,0,0,0,0,0,0,0,0,0,0],"id":5,"left_children":[1,3,5,7,9,11,13,15,17,-1,-1,-1,19,-1,-1,21,-1,23,-1,25,27,-1,-1,-1,-1,29,-1,31,-1,-1,-1,-1,-1],"loss_changes":[7.9370756E0,5.9513283E0,6.576859E0,2.9572766E0,2.3723602E-2,2.9357278E0,1.3287163E-1,4.2586517E-1,2.6025173E-1,0E0,0E0,0E0,2.2690606E0,0E0,0E0,2.3739338E-2,0E0,3.1915873E-2,0E0,4.422307E-1,1.7539057E-1,0E0,0E0,0E0,0E0,8.023214E-2,0E0,3.7199114E-2,0E0,0E0,0E0,0E0,0E0],"parents":[2147483647,0,0,1,1,2,2,3,3,4,4,5,5,6,6,7,7,8,8,12,12,15,15,17,17,19,19,20,20,25,25,27,27],"right_children":[2,4,6,8,10,12,14,16,18,-1,-1,-1,20,-1,-1,22,-1,24,-1,26,28,-1,-1,-1,-1,30,-1,32,-1,-1,-1,-1,-1],"split_conditions":[3.2219E-1,8.931E-2,5.3341E-1,5.0167E-1,4.3453E-1,1.561E-1,4.9256E-1,1.8247E-1,4.8694E-1,-1.1074835E-1,-5.691534E-2,-4.195365E-2,3.8661E-1,-5.790132E-2,-1.9750435E-2,7.8843E-1,-5.85768E-2,5.9593E-1,-5.528199E-3,3.7208E-1,6.2513E-1,-2.1066882E-2,-3.3292396E-3,3.0949367E-2,1.0721916E-2,5.8687E-1,1.340194E-2,1.9808E-1,-2.3912018E-2,2.9503671E-2,5.2631933E-2,6.7577455E-3,-5.476485E-3],"split_indices":[339,3534,844,1659,279,2078,35,214,9,0,0,0,4139,0,0,0,0,0,0,2351,43,0,0,0,0,541,0,3,0,0,0,0,0],"split_type":[0,0,0,0,0,0,0,0,0,0,0,0,0,0,0,0,0,0,0,0,0,0,0,0,0,0,0,0,0,0,0,0,0],"sum_hessian":[7.2E1,2.9E1,4.3E1,1.8E1,1.1E1,3.2E1,1.1E1,1.1E1,7E0,7E0,4E0,4E0,2.8E1,9E0,2E0,3E0,8E0,4E0,3E0,2E1,8E0,2E0,1E0,1E0,3E0,1.4E1,6E0,5E0,3E0,9E0,5E0,1E0,4E0],"tree_param":{"num_deleted":"0","num_feature":"6670","num_nodes":"33","size_leaf_vector":"0"}},{"base_weights":[-3.309766E-1,-9.4217575E-1,-1.699772E-1,-3.4075394E-1,-1.1298969E0,2.0773625E-3,-7.231581E-1,-3.0343486E-2,-3.2043927E-3,-1.0129082E-1,-5.4070015E-2,-6.462921E-1,1.772562E-1,-2.9531598E-1,-6.485726E-2,-7.5929767E-1,1.3903439E-2,3.8761947E-1,-1.5711787E-1,-2.5374325E-2,-4.6231E-3,-2.7912758E-2,-6.6812485E-2,2.4536331E-1,4.3623313E-2,-2.5879765E-1,3.3586705E-1,1.14417365E-2,2.306248E-2,-5.3374614E-3,-3.0709352E-2,6.5043303E-3,3.1280715E-2],"categories":[],"categories_nodes":[],"categories_segments":[],"categories_sizes":[],"default_left":[0,0,0,0,0,0,0,0,0,0,0,0,0,0,0,0,0,0,0,0,0,0,0,0,0,0,0,0,0,0,0,0,0],"id":6,"left_children":[1,3,5,7,9,11,13,-1,-1,-1,-1,15,17,19,-1,21,-1,23,25,-1,-1,-1,-1,27,-1,29,31,-1,-1,-1,-1,-1,-1],"loss_changes":[7.0232472E0,1.3084774E0,5.616963E0,7.782394E-2,1.8951416E-2,5.339267E0,5.928073E-1,0E0,0E0,0E0,0E0,1.0805931E0,2.6634824E0,2.9394984E-2,0E0,1.2674761E-1,0E0,4.9211383E-1,8.3882034E-1,0E0,0E0,0E0,0E0,3.9589167E-2,0E0,3.3835262E-1,2.4527282E-2,0E0,0E0,0E0,0E0,0E0,0E0],"parents":[2147483647,0,0,1,1,2,2,3,3,4,4,5,5,6,6,11,11,12,12,13,13,15,15,17,17,18,18,23,23,25,25,26,26],"right_children":[2,4,6,8,10,12,14,-1,-1,-1,-1,16,18,20,-1,22,-1,24,26,-1,-1,-1,-1,28,-1,30,32,-1,-1,-1,-1,-1,-1],"split_conditions":[4.7918E-1,1.2922E-1,5.7046E-1,8.2917E-1,2.3479E-1,1.739E-2,-3.674E-2,-3.0343486E-2,-3.2043927E-3,-1.0129082E-1,-5.4070015E-2,8.5986E-1,3.2525E-1,6.4284E-1,-6.485726E-2,3.6844E-1,1.3903439E-2,4.8623E-1,5.6378E-1,-2.5374325E-2,-4.6231E-3,-2.7912758E-2,-6.6812485E-2,2.1583E-1,4.3623313E-2,1.7149E-1,7.0696E-1,1.14417365E-2,2.306248E-2,-5.3374614E-3,-3.0709352E-2,6.5043303E-3,3.1280715E-2],"split_indices":[4821,96,4251,1,35,2857,2006,0,0,0,0,1,4209,11,0,276,0,3150,7,0,0,0,0,25,0,289,0,0,0,0,0,0,0],"split_type":[0,0,0,0,0,0,0,0,0,0,0,0,0,0,0,0,0,0,0,0,0,0,0,0,0,0,0,0,0,0,0,0,0],"sum_hessian":[7.2E1,1.4E1,5.8E1,4E0,1E1,4.5E1,1.3E1,3E0,1E0,5E0,5E0,9E0,3.6E1,4E0,9E0,8E0,1E0,2.2E1,1.4E1,3E0,1E0,3E0,5E0,1.4E1,8E0,1.2E1,2E0,7E0,7E0,6E0,6E0,1E0,1E0],"tree_param":{"num_deleted":"0","num_feature":"6670","num_nodes":"33","size_leaf_vector":"0"}},{"base_weights":[-3.1005362E-1,-8.8410646E-1,-1.5885282E-1,-3.2190695E-1,-1.0592784E0,1.9007825E-3,-6.756966E-1,-2.8636664E-2,-3.0842277E-3,-9.906996E-2,-5.407927E-2,-6.059023E-1,1.6612053E-1,-2.165154E-1,-5.859335E-2,-7.1287537E-1,1.33820595E-2,3.6194485E-1,-1.4521815E-1,-1.8685052E-2,-4.4497345E-3,-2.6342666E-2,-6.26367E-2,2.5751325E-1,4.611867E-2,-2.4216065E-1,3.2327202E-1,1.1879169E-2,2.5427913E-2,-4.99434E-3,-2.873518E-2,6.260417E-3,3.0107688E-2],"categories":[],"categories_nodes":[],"categories_segments":[],"categories_sizes":[],"default_left":[0,0,0,0,0,0,0,0,0,0,0,0,0,0,0,0,0,0,0,0,0,0,0,0,0,0,0,0,0,0,0,0,0],"id":7,"left_children":[1,3,5,7,9,11,13,-1,-1,-1,-1,15,17,19,-1,21,-1,23,25,-1,-1,-1,-1,27,-1,29,31,-1,-1,-1,-1,-1,-1],"loss_changes":[6.195757E0,1.1362333E0,4.90327E0,6.841451E-2,2.1001816E-2,4.692063E0,5.0936747E-1,0E0,0E0,0E0,0E0,9.662175E-1,2.3083653E0,5.727619E-3,0E0,1.0465765E-1,0E0,4.492681E-1,7.595328E-1,0E0,0E0,0E0,0E0,9.176099E-2,0E0,2.9624838E-1,2.2722274E-2,0E0,0E0,0E0,0E0,0E0,0E0],"parents":[2147483647,0,0,1,1,2,2,3,3,4,4,5,5,6,6,11,11,12,12,13,13,15,15,17,17,18,18,23,23,25,25,26,26],"right_children":[2,4,6,8,10,12,14,-1,-1,-1,-1,16,18,20,-1,22,-1,24,26,-1,-1,-1,-1,28,-1,30,32,-1,-1,-1,-1,-1,-1],"split_conditions":[4.7918E-1,1.2922E-1,5.7046E-1,8.2917E-1,5.0436E-1,1.739E-2,-7.695E-2,-2.8636664E-2,-3.0842277E-3,-9.906996E-2,-5.407927E-2,8.5986E-1,3.2525E-1,8.0335E-1,-5.859335E-2,3.6844E-1,1.33820595E-2,5.8687E-1,5.6378E-1,-1.8685052E-2,-4.4497345E-3,-2.6342666E-2,-6.26367E-2,2.865E-1,4.611867E-2,1.7149E-1,7.0696E-1,1.1879169E-2,2.5427913E-2,-4.99434E-3,-2.873518E-2,6.260417E-3,3.0107688E-2],"split_indices":[4821,96,4251,1,347,2857,107,0,0,0,0,1,4209,0,0,276,0,541,7,0,0,0,0,2683,0,289,0,0,0,0,0,0,0],"split_type":[0,0,0,0,0,0,0,0,0,0,0,0,0,0,0,0,0,0,0,0,0,0,0,0,0,0,0,0,0,0,0,0,0],"sum_hessian":[7.2E1,1.4E1,5.8E1,4E0,1E1,4.5E1,1.3E1,3E0,1E0,4E0,6E0,9E0,3.6E1,3E0,1E1,8E0,1E0,2.2E1,1.4E1,2E0,1E0,3E0,5E0,1.7E1,5E0,1.2E1,2E0,9E0,8E0,6E0,6E0,1E0,1E0],"tree_param":{"num_deleted":"0","num_feature":"6670","num_nodes":"33","size_leaf_vector":"0"}},{"base_weights":[-2.9030824E-1,-6.2138885E-1,-5.7973552E-2,-2.965968E-1,-1.0838604E0,1.3013814E-1,-5.704496E-1,-5.4686785E-1,1.1588437E-1,-9.243867E-2,-4.7193013E-2,-2.7781764E-1,2.717967E-1,-4.648439E-2,-1.6186925E-2,-1.9150083E-1,-4.8303425E-2,2.3486646E-1,-4.6360744E-3,-3.7093174E-2,-8.7009385E-2,3.5847232E-1,-2.046513E-2,-1.7171038E-2,-2.9685686E-3,2.6423441E-2,8.80701E-3,-3.5421578E-3,-8.328532E-3,2.564325E-1,4.4087984E-2,1.0949565E-2,2.3935491E-2],"categories":[],"categories_nodes":[],"categories_segments":[],"categories_sizes":[],"default_left":[0,0,0,0,0,0,0,0,0,0,0,0,0,0,0,0,0,0,0,0,0,0,0,0,0,0,0,0,0,0,0,0,0],"id":8,"left_children":[1,3,5,7,9,11,13,15,17,-1,-1,19,21,-1,-1,23,-1,25,-1,-1,27,29,-1,-1,-1,-1,-1,-1,-1,31,-1,-1,-1],"loss_changes":[5.579246E0,4.184744E0,4.3159575E0,2.0247834E0,3.543091E-2,1.982594E0,7.6208115E-2,2.9107022E-1,1.8366179E-1,0E0,0E0,3.292002E-1,1.2780454E0,0E0,0E0,1.3693452E-2,0E0,2.7593195E-2,0E0,0E0,4.9278885E-4,3.641603E-1,0E0,0E0,0E0,0E0,0E0,0E0,0E0,7.113755E-2,0E0,0E0,0E0],"parents":[2147483647,0,0,1,1,2,2,3,3,4,4,5,5,6,6,7,7,8,8,11,11,12,12,15,15,17,17,20,20,21,21,29,29],"right_children":[2,4,6,8,10,12,14,16,18,-1,-1,20,22,-1,-1,24,-1,26,-1,-1,28,30,-1,-1,-1,-1,-1,-1,-1,32,-1,-1,-1],"split_conditions":[3.2219E-1,8.931E-2,5.3341E-1,5.0167E-1,4.3453E-1,4.8765E-1,4.9256E-1,1.8247E-1,4.8694E-1,-9.243867E-2,-4.7193013E-2,5.8201E-1,5.6437E-1,-4.648439E-2,-1.6186925E-2,7.8843E-1,-4.8303425E-2,5.9593E-1,-4.6360744E-3,-3.7093174E-2,6.2394E-1,5.8687E-1,-2.046513E-2,-1.7171038E-2,-2.9685686E-3,2.6423441E-2,8.80701E-3,-3.5421578E-3,-8.328532E-3,2.865E-1,4.4087984E-2,1.0949565E-2,2.3935491E-2],"split_indices":[339,3534,844,1659,279,1964,35,214,9,0,0,0,26,0,0,0,0,0,0,0,1,541,0,0,0,0,0,0,0,2683,0,0,0],"split_type":[0,0,0,0,0,0,0,0,0,0,0,0,0,0,0,0,0,0,0,0,0,0,0,0,0,0,0,0,0,0,0,0,0],"sum_hessian":[7.2E1,2.9E1,4.3E1,1.8E1,1.1E1,3.2E1,1.1E1,1.1E1,7E0,7E0,4E0,8E0,2.4E1,9E0,2E0,3E0,8E0,4E0,3E0,3E0,5E0,2.1E1,3E0,2E0,1E0,1E0,3E0,3E0,2E0,1.6E1,5E0,7E0,9E0],"tree_param":{"num_deleted":"0","num_feature":"6670","num_nodes":"33","size_leaf_vector":"0"}},{"base_weights":[-2.7169412E-1,-5.807007E-1,-5.4832976E-2,-2.763441E-1,-1.0142069E0,1.2066699E-1,-5.328885E-1,-5.115564E-1,1.1101735E-1,-8.637239E-2,-4.436143E-2,-2.6242176E-1,2.5375226E-1,-4.334669E-2,-1.5377577E-2,-1.8217316E-1,-4.5083195E-2,2.2429755E-1,-4.375295E-3,-3.5006683E-2,-8.246213E-2,3.351766E-1,-1.9313969E-2,-1.6312486E-2,-2.8572467E-3,2.5432562E-2,8.311616E-3,-3.3429116E-3,-7.912105E-3,2.3925212E-1,4.1332483E-2,1.0231E-2,2.2319844E-2],"categories":[],"categories_nodes":[],"categories_segments":[],"categories_sizes":[],"default_left":[0,0,0,0,0,0,0,0,0,0,0,0,0,0,0,0,0,0,0,0,0,0,0,0,0,0,0,0,0,0,0,0,0],"id":9,"left_children":[1,3,5,7,9,11,13,15,17,-1,-1,19,21,-1,-1,23,-1,25,-1,-1,27,29,-1,-1,-1,-1,-1,-1,-1,31,-1,-1,-1],"loss_changes":[4.859999E0,3.6779451E0,3.755846E0,1.7879225E0,1.5934944E-2,1.7490445E0,5.8805466E-2,2.4446106E-1,1.6656113E-1,0E0,0E0,2.9245716E-1,1.1270635E0,0E0,0E0,1.2072951E-2,0E0,2.7557403E-2,0E0,0E0,5.340986E-4,3.2381892E-1,0E0,0E0,0E0,0E0,0E0,0E0,0E0,6.140721E-2,0E0,0E0,0E0],"parents":[2147483647,0,0,1,1,2,2,3,3,4,4,5,5,6,6,7,7,8,8,11,11,12,12,15,15,17,17,20,20,21,21,29,29],"right_children":[2,4,6,8,10,12,14,16,18,-1,-1,20,22,-1,-1,24,-1,26,-1,-1,28,30,-1,-1,-1,-1,-1,-1,-1,32,-1,-1,-1],"split_conditions":[3.2219E-1,8.931E-2,5.3341E-1,5.0167E-1,4.3453E-1,4.8765E-1,4.9256E-1,1.8247E-1,4.8694E-1,-8.637239E-2,-4.436143E-2,5.8201E-1,5.6437E-1,-4.334669E-2,-1.5377577E-2,7.8843E-1,-4.5083195E-2,5.9593E-1,-4.375295E-3,-3.5006683E-2,6.2394E-1,5.8687E-1,-1.9313969E-2,-1.6312486E-2,-2.8572467E-3,2.5432562E-2,8.311616E-3,-3.3429116E-3,-7.912105E-3,2.865E-1,4.1332483E-2,1.0231E-2,2.2319844E-2],"split_indices":[339,3534,844,1659,279,1964,35,214,9,0,0,0,26,0,0,0,0,0,0,0,1,541,0,0,0,0,0,0,0,2683,0,0,0],"split_type":[0,0,0,0,0,0,0,0,0,0,0,0,0,0,0,0,0,0,0,0,0,0,0,0,0,0,0,0,0,0,0,0,0],"sum_hessian":[7.2E1,2.9E1,4.3E1,1.8E1,1.1E1,3.2E1,1.1E1,1.1E1,7E0,7E0,4E0,8E0,2.4E1,9E0,2E0,3E0,8E0,4E0,3E0,3E0,5E0,2.1E1,3E0,2E0,1E0,1E0,3E0,3E0,2E0,1.6E1,5E0,7E0,9E0],"tree_param":{"num_deleted":"0","num_feature":"6670","num_nodes":"33","size_leaf_vector":"0"}},{"base_weights":[-2.5427645E-1,-7.3239374E-1,-1.2841144E-1,-2.592754E-1,-8.808662E-1,7.12092E-2,-4.0274388E-1,-2.2932021E-2,-2.7501003E-3,-7.9222776E-2,-4.189634E-2,-4.5277932E-1,1.952337E-1,1.5336196E-1,-5.864279E-1,-1.5822088E-2,-4.36052E-2,3.2715744E-1,-5.0383106E-2,2.4876152E-1,-1.5713826E-2,-2.0145096E-2,-6.807517E-1,2.2504497E-1,3.8317025E-2,6.4321584E-3,-9.016672E-2,9.415809E-3,2.4759816E-2,-5.4208867E-2,-2.1427609E-2,8.482227E-3,2.060043E-2,-3.4490942E-3,-1.0041993E-2],"categories":[],"categories_nodes":[],"categories_segments":[],"categories_sizes":[],"default_left":[0,0,0,0,0,0,0,0,0,0,0,0,0,0,0,0,0,0,0,0,0,0,0,0,0,0,0,0,0,0,0,0,0,0,0],"id":10,"left_children":[1,3,5,7,9,11,13,-1,-1,-1,-1,15,17,19,21,-1,-1,23,25,27,-1,-1,29,31,-1,-1,33,-1,-1,-1,-1,-1,-1,-1,-1],"loss_changes":[4.298963E0,8.252897E-1,3.2596622E0,4.052773E-2,3.1808853E-2,2.3629572E0,2.64363E0,0E0,0E0,0E0,0E0,9.507096E-2,9.561614E-1,2.944498E-1,3.867426E-1,0E0,0E0,2.4149942E-1,6.731272E-2,1.8710732E-2,0E0,0E0,2.5972843E-2,4.6715617E-2,0E0,0E0,1.1228599E-2,0E0,0E0,0E0,0E0,0E0,0E0,0E0,0E0],"parents":[2147483647,0,0,1,1,2,2,3,3,4,4,5,5,6,6,11,11,12,12,13,13,14,14,17,17,18,18,19,19,22,22,23,23,26,26],"right_children":[2,4,6,8,10,12,14,-1,-1,-1,-1,16,18,20,22,-1,-1,24,26,28,-1,-1,30,32,-1,-1,34,-1,-1,-1,-1,-1,-1,-1,-1],"split_conditions":[4.7918E-1,1.2922E-1,5.3573E-1,8.2917E-1,2.3479E-1,-1.236E-2,2.9091E-1,-2.2932021E-2,-2.7501003E-3,-7.9222776E-2,-4.189634E-2,2.0079E-1,3.0257E-1,8.2415E-1,4.7937E-1,-1.5822088E-2,-4.36052E-2,5.8687E-1,-4.246E-2,4.2334E-1,-1.5713826E-2,-2.0145096E-2,6.2637E-1,5.626E-1,3.8317025E-2,6.4321584E-3,5.726E-1,9.415809E-3,2.4759816E-2,-5.4208867E-2,-2.1427609E-2,8.482227E-3,2.060043E-2,-3.4490942E-3,-1.0041993E-2],"split_indices":[4821,96,3785,1,35,1135,2684,0,0,0,0,12,4209,0,2525,0,0,541,23,3,0,0,16,1,0,0,116,0,0,0,0,0,0,0,0],"split_type":[0,0,0,0,0,0,0,0,0,0,0,0,0,0,0,0,0,0,0,0,0,0,0,0,0,0,0,0,0,0,0,0,0,0,0],"sum_hessian":[7.2E1,1.4E1,5.8E1,4E0,1E1,3.4E1,2.4E1,3E0,1E0,5E0,5E0,6E0,2.8E1,6E0,1.8E1,3E0,3E0,1.8E1,1E1,5E0,1E0,5E0,1.3E1,1.3E1,5E0,2E0,8E0,3E0,2E0,1.1E1,2E0,5E0,8E0,5E0,3E0],"tree_param":{"num_deleted":"0","num_feature":"6670","num_nodes":"35","size_leaf_vector":"0"}},{"base_weights":[-2.3826335E-1,-6.872509E-1,-1.2007561E-1,-2.4496616E-1,-8.258121E-1,6.589461E-2,-3.756309E-1,-2.1642093E-2,-2.6469715E-3,-7.764373E-2,-4.186805E-2,-3.8788816E-1,1.9319345E-1,1.4449722E-1,-5.47487E-1,-1.8166208E-1,-4.115241E-2,2.3950815E-2,3.607253E-1,2.3580034E-1,-1.5124557E-2,-1.888603E-2,-6.350979E-1,-1.6074294E-2,-1.9130532E-3,-8.152465E-2,9.482432E-3,3.592221E-2,2.4181972E-1,8.88617E-3,2.3521826E-2,-5.048201E-2,-2.035623E-2,-3.115011E-3,-8.334934E-3,1.9359626E-2,4.17565E-3],"categories":[],"categories_nodes":[],"categories_segments":[],"categories_sizes":[],"default_left":[0,0,0,0,0,0,0,0,0,0,0,0,0,0,0,0,0,0,0,0,0,0,0,0,0,0,0,0,0,0,0,0,0,0,0,0,0],"id":11,"left_children":[1,3,5,7,9,11,13,-1,-1,-1,-1,15,17,19,21,23,-1,25,27,29,-1,-1,31,-1,-1,33,-1,-1,35,-1,-1,-1,-1,-1,-1,-1,-1],"loss_changes":[3.7912107E0,7.1695614E-1,2.8287668E0,3.551939E-2,3.851652E-2,2.096748E0,2.3137898E0,0E0,0E0,0E0,0E0,1.6562903E-1,7.8525937E-1,2.6878875E-1,3.3225393E-1,2.0034656E-2,0E0,1.724468E-1,8.100474E-2,1.7622054E-2,0E0,0E0,1.0766983E-2,0E0,0E0,4.8566908E-3,0E0,0E0,1.295048E-2,0E0,0E0,0E0,0E0,0E0,0E0,0E0,0E0],"parents":[2147483647,0,0,1,1,2,2,3,3,4,4,5,5,6,6,11,11,12,12,13,13,14,14,15,15,17,17,18,18,19,19,22,22,25,25,28,28],"right_children":[2,4,6,8,10,12,14,-1,-1,-1,-1,16,18,20,22,24,-1,26,28,30,-1,-1,32,-1,-1,34,-1,-1,36,-1,-1,-1,-1,-1,-1,-1,-1],"split_conditions":[4.7918E-1,1.2922E-1,5.3573E-1,8.2917E-1,5.0436E-1,9.835E-2,2.9091E-1,-2.1642093E-2,-2.6469715E-3,-7.764373E-2,-4.186805E-2,6.5177E-1,1.5928E-1,8.2415E-1,4.7937E-1,4.348E-1,-4.115241E-2,1.8312E-1,1.9337E-1,4.2334E-1,-1.5124557E-2,-1.888603E-2,6.2637E-1,-1.6074294E-2,-1.9130532E-3,8.0824E-1,9.482432E-3,3.592221E-2,9.0371E-1,8.88617E-3,2.3521826E-2,-5.048201E-2,-2.035623E-2,-3.115011E-3,-8.334934E-3,1.9359626E-2,4.17565E-3],"split_indices":[4821,96,3785,1,347,1179,2684,0,0,0,0,1,1321,0,2525,3,0,3179,20,3,0,0,16,0,0,17,0,0,0,0,0,0,0,0,0,0,0],"split_type":[0,0,0,0,0,0,0,0,0,0,0,0,0,0,0,0,0,0,0,0,0,0,0,0,0,0,0,0,0,0,0,0,0,0,0,0,0],"sum_hessian":[7.2E1,1.4E1,5.8E1,4E0,1E1,3.4E1,2.4E1,3E0,1E0,4E0,6E0,7E0,2.7E1,6E0,1.8E1,4E0,3E0,1.4E1,1.3E1,5E0,1E0,5E0,1.3E1,3E0,1E0,7E0,7E0,5E0,8E0,3E0,2E0,1.1E1,2E0,4E0,3E0,7E0,1E0],"tree_param":{"num_deleted":"0","num_feature":"6670","num_nodes":"37","size_leaf_vector":"0"}},{"base_weights":[-2.2337842E-1,-4.8104435E-1,-4.262032E-2,-2.2959696E-1,-8.3908236E-1,9.9157825E-2,-4.289585E-1,-4.2638427E-1,9.428364E-2,-7.206415E-2,-3.5732195E-2,-3.574811E-1,1.7446944E-1,-3.4850698E-2,-1.2518569E-2,-1.9351326E-1,-3.88973E-2,1.8859743E-1,-3.5384635E-3,-3.2361012E-2,-1.2324126E-2,2.833551E-1,-9.898254E-2,-1.6868014E-2,-2.5477097E-3,2.1694869E-2,6.8335747E-3,1.9973491E-1,3.4433726E-2,-1.7628843E-2,-1.472006E-2,6.56906E-3,1.7236384E-2,4.6345824E-3,-3.4404288E-3],"categories":[],"categories_nodes":[],"categories_segments":[],"categories_sizes":[],"default_left":[0,0,0,0,0,0,0,0,0,0,0,0,0,0,0,0,0,0,0,0,0,0,0,0,0,0,0,0,0,0,0,0,0,0,0],"id":12,"left_children":[1,3,5,7,9,11,13,15,17,-1,-1,19,21,-1,-1,23,-1,25,-1,-1,-1,27,29,-1,-1,-1,-1,31,-1,33,-1,-1,-1,-1,-1],"loss_changes":[3.3794875E0,2.5081806E0,2.4526043E0,1.2511774E0,7.215595E-2,1.1972466E0,3.475356E-2,1.574161E-1,1.15633346E-1,0E0,0E0,5.6654215E-4,8.9152205E-1,0E0,0E0,1.740329E-2,0E0,2.271071E-2,0E0,0E0,0E0,2.1693933E-1,6.777043E-2,0E0,0E0,0E0,0E0,3.3851445E-2,0E0,1.6293824E-2,0E0,0E0,0E0,0E0,0E0],"parents":[2147483647,0,0,1,1,2,2,3,3,4,4,5,5,6,6,7,7,8,8,11,11,12,12,15,15,17,17,21,21,22,22,27,27,29,29],"right_children":[2,4,6,8,10,12,14,16,18,-1,-1,20,22,-1,-1,24,-1,26,-1,-1,-1,28,30,-1,-1,-1,-1,32,-1,34,-1,-1,-1,-1,-1],"split_conditions":[3.2219E-1,8.931E-2,5.3341E-1,5.0167E-1,4.3453E-1,1.561E-1,4.9256E-1,1.991E-1,4.8694E-1,-7.206415E-2,-3.5732195E-2,2.5009E-1,3.8661E-1,-3.4850698E-2,-1.2518569E-2,7.5057E-1,-3.88973E-2,5.9593E-1,-3.5384635E-3,-3.2361012E-2,-1.2324126E-2,5.8687E-1,6.2513E-1,-1.6868014E-2,-2.5477097E-3,2.1694869E-2,6.8335747E-3,2.1583E-1,3.4433726E-2,1.9808E-1,-1.472006E-2,6.56906E-3,1.7236384E-2,4.6345824E-3,-3.4404288E-3],"split_indices":[339,3534,844,1659,279,2078,35,766,9,0,0,3,4139,0,0,1,0,0,0,0,0,541,43,0,0,0,0,25,0,3,0,0,0,0,0],"split_type":[0,0,0,0,0,0,0,0,0,0,0,0,0,0,0,0,0,0,0,0,0,0,0,0,0,0,0,0,0,0,0,0,0,0,0],"sum_hessian":[7.2E1,2.9E1,4.3E1,1.8E1,1.1E1,3.2E1,1.1E1,1.1E1,7E0,7E0,4E0,4E0,2.8E1,9E0,2E0,4E0,7E0,4E0,3E0,2E0,2E0,2E1,8E0,3E0,1E0,1E0,3E0,1.5E1,5E0,5E0,3E0,4E0,1.1E1,1E0,4E0],"tree_param":{"num_deleted":"0","num_feature":"6670","num_nodes":"35","size_leaf_vector":"0"}},{"base_weights":[-2.0920669E-1,-6.0578316E-1,-1.04836285E-1,-2.9475048E-1,-5.8529116E-2,5.7775564E-2,-3.2829943E-1,-2.696801E-2,-6.634655E-3,-3.765511E-1,1.6062078E-1,1.2786308E-1,-4.7908038E-1,-1.3394599E-2,-3.6027733E-2,2.775196E-1,-2.8112546E-2,2.0806463E-1,-1.3250484E-2,-1.64841E-2,-5.559857E-1,1.892782E-1,3.1684205E-2,6.345304E-3,-7.508519E-2,7.6167877E-3,2.1053981E-2,-4.412396E-2,-1.8099148E-2,6.5439004E-3,1.686964E-2,-9.317601E-3,-3.2471009E-3],"categories":[],"categories_nodes":[],"categories_segments":[],"categories_sizes":[],"default_left":[0,0,0,0,0,0,0,0,0,0,0,0,0,0,0,0,0,0,0,0,0,0,0,0,0,0,0,0,0,0,0,0,0],"id":13,"left_children":[1,3,5,7,-1,9,11,-1,-1,13,15,17,19,-1,-1,21,23,25,-1,-1,27,29,-1,-1,31,-1,-1,-1,-1,-1,-1,-1,-1],"loss_changes":[2.958023E0,5.8459806E-1,2.1628952E0,6.1796963E-2,0E0,1.6238765E0,1.7807722E0,0E0,0E0,5.8069468E-2,6.476202E-1,2.0772937E-1,2.5667953E-1,0E0,0E0,1.5024745E-1,6.9887675E-2,1.7920762E-2,0E0,0E0,4.6491623E-4,2.7658999E-2,0E0,0E0,8.683689E-3,0E0,0E0,0E0,0E0,0E0,0E0,0E0,0E0],"parents":[2147483647,0,0,1,1,2,2,3,3,5,5,6,6,9,9,10,10,11,11,12,12,15,15,16,16,17,17,20,20,21,21,24,24],"right_children":[2,4,6,8,-1,10,12,-1,-1,14,16,18,20,-1,-1,22,24,26,-1,-1,28,30,-1,-1,32,-1,-1,-1,-1,-1,-1,-1,-1],"split_conditions":[4.7918E-1,2.2394E-1,5.3573E-1,7.5248E-1,-5.8529116E-2,-1.236E-2,2.9091E-1,-2.696801E-2,-6.634655E-3,2.0079E-1,3.4152E-1,8.2415E-1,4.7937E-1,-1.3394599E-2,-3.6027733E-2,5.8687E-1,4.2233E-1,4.2334E-1,-1.3250484E-2,-1.64841E-2,6.2637E-1,5.4779E-1,3.1684205E-2,6.345304E-3,1.721E-2,7.6167877E-3,2.1053981E-2,-4.412396E-2,-1.8099148E-2,6.5439004E-3,1.686964E-2,-9.317601E-3,-3.2471009E-3],"split_indices":[4821,6286,3785,1,0,1135,2684,0,0,12,4070,0,2525,0,0,541,87,3,0,0,16,5,0,0,36,0,0,0,0,0,0,0,0],"split_type":[0,0,0,0,0,0,0,0,0,0,0,0,0,0,0,0,0,0,0,0,0,0,0,0,0,0,0,0,0,0,0,0,0],"sum_hessian":[7.2E1,1.4E1,5.8E1,6E0,8E0,3.4E1,2.4E1,4E0,2E0,6E0,2.8E1,6E0,1.8E1,3E0,3E0,1.7E1,1.1E1,5E0,1E0,5E0,1.3E1,1.2E1,5E0,3E0,8E0,3E0,2E0,1.1E1,2E0,4E0,8E0,2E0,6E0],"tree_param":{"num_deleted":"0","num_feature":"6670","num_nodes":"33","size_leaf_vector":"0"}},{"base_weights":[-1.9565266E-1,-4.2283842E-1,-3.630663E-2,-2.391684E-1,-6.1862063E-2,8.690569E-2,-3.7211496E-1,-3.7690067E-1,1.0981514E-1,-2.3528894E-2,1.5298209E-1,-3.0095946E-2,-1.13146715E-2,-1.2909852E-1,-3.365574E-2,1.9693155E-2,4.0592536E-2,2.4839647E-1,-8.6649455E-2,-1.263534E-2,-3.5019764E-3,-2.024209E-3,6.084817E-3,1.738492E-1,3.0434236E-2,-1.5000458E-2,-1.2934544E-2,1.5794074E-2,7.239756E-3,4.2228363E-3,-3.0391759E-3],"categories":[],"categories_nodes":[],"categories_segments":[],"categories_sizes":[],"default_left":[0,0,0,0,0,0,0,0,0,0,0,0,0,0,0,0,0,0,0,0,0,0,0,0,0,0,0,0,0,0,0],"id":14,"left_children":[1,3,5,7,-1,9,11,13,15,-1,17,-1,-1,19,-1,-1,21,23,25,-1,-1,-1,-1,27,-1,29,-1,-1,-1,-1,-1],"loss_changes":[2.6273322E0,2.0177274E0,1.8528707E0,1.0988481E0,0E0,9.21563E-1,1.689434E-2,2.2691154E-1,6.336263E-2,0E0,6.84588E-1,0E0,0E0,8.356191E-3,0E0,0E0,1.8627651E-2,1.7585194E-1,5.2747548E-2,0E0,0E0,0E0,0E0,2.5121331E-2,0E0,1.3200609E-2,0E0,0E0,0E0,0E0,0E0],"parents":[2147483647,0,0,1,1,2,2,3,3,5,5,6,6,7,7,8,8,10,10,13,13,16,16,17,17,18,18,23,23,25,25],"right_children":[2,4,6,8,-1,10,12,14,16,-1,18,-1,-1,20,-1,-1,22,24,26,-1,-1,-1,-1,28,-1,30,-1,-1,-1,-1,-1],"split_conditions":[3.2219E-1,2.8635E-1,5.3341E-1,4.5723E-1,-6.1862063E-2,1.561E-1,4.9256E-1,1.151E-2,5.9593E-1,-2.3528894E-2,3.8661E-1,-3.0095946E-2,-1.13146715E-2,7.8843E-1,-3.365574E-2,1.9693155E-2,4.4798E-1,5.8687E-1,6.2513E-1,-1.263534E-2,-3.5019764E-3,-2.024209E-3,6.084817E-3,3.7208E-1,3.0434236E-2,1.9808E-1,-1.2934544E-2,1.5794074E-2,7.239756E-3,4.2228363E-3,-3.0391759E-3],"split_indices":[339,2766,844,6186,0,2078,35,382,0,0,4139,0,0,0,0,0,2,541,43,0,0,0,0,2351,0,3,0,0,0,0,0],"split_type":[0,0,0,0,0,0,0,0,0,0,0,0,0,0,0,0,0,0,0,0,0,0,0,0,0,0,0,0,0,0,0],"sum_hessian":[7.2E1,2.9E1,4.3E1,2.1E1,8E0,3.2E1,1.1E1,1.5E1,6E0,4E0,2.8E1,9E0,2E0,4E0,1.1E1,1E0,5E0,2E1,8E0,2E0,2E0,2E0,3E0,1.5E1,5E0,5E0,3E0,9E0,6E0,1E0,4E0],"tree_param":{"num_deleted":"0","num_feature":"6670","num_nodes":"31","size_leaf_vector":"0"}},{"base_weights":[-1.8250096E-1,-5.3244454E-1,-9.043901E-2,-6.1860874E-2,-3.5114637E-1,-5.733792E-3,-4.217233E-1,-3.0210914E-2,-5.932506E-3,-3.8339028E-1,7.938226E-2,-3.5447657E-2,5.1866234E-3,-3.197407E-2,-1.497949E-3,-1.5395261E-1,1.622923E-1,-1.7852958E-2,-3.3155268E-3,2.3133275E-1,-9.760239E-2,1.1516504E-2,2.9871698E-2,1.7094539E-3,-1.1273924E-2],"categories":[],"categories_nodes":[],"categories_segments":[],"categories_sizes":[],"default_left":[0,0,0,0,0,0,0,0,0,0,0,0,0,0,0,0,0,0,0,0,0,0,0,0,0],"id":15,"left_children":[1,3,5,-1,7,9,11,-1,-1,13,15,-1,-1,-1,-1,17,19,-1,-1,21,23,-1,-1,-1,-1],"loss_changes":[2.30365E0,5.0545454E-1,1.653211E0,0E0,1.2274802E-1,1.5733765E0,3.3258486E-1,0E0,0E0,1.3190103E-1,7.988175E-1,0E0,0E0,0E0,0E0,9.098673E-2,5.6087583E-1,0E0,0E0,2.5049996E-1,4.7853917E-2,0E0,0E0,0E0,0E0],"parents":[2147483647,0,0,1,1,2,2,4,4,5,5,6,6,9,9,10,10,15,15,16,16,19,19,20,20],"right_children":[2,4,6,-1,8,10,12,-1,-1,14,16,-1,-1,-1,-1,18,20,-1,-1,22,24,-1,-1,-1,-1],"split_conditions":[4.7918E-1,3.593E-1,5.9407E-1,-6.1860874E-2,8.0908E-1,2.5431E-1,8.5986E-1,-3.0210914E-2,-5.932506E-3,4.1229E-1,4.5574E-1,-3.5447657E-2,5.1866234E-3,-3.197407E-2,-1.497949E-3,2.1434E-1,3.8661E-1,-1.7852958E-2,-3.3155268E-3,5.8687E-1,5.4882E-1,1.1516504E-2,2.9871698E-2,1.7094539E-3,-1.1273924E-2],"split_indices":[4821,510,981,0,1,5655,1,0,0,4,1964,0,0,0,0,545,4139,0,0,541,1,0,0,0,0],"split_type":[0,0,0,0,0,0,0,0,0,0,0,0,0,0,0,0,0,0,0,0,0,0,0,0,0],"sum_hessian":[7.2E1,1.4E1,5.8E1,4E0,1E1,4.7E1,1.1E1,8E0,2E0,8E0,3.9E1,1E1,1E0,7E0,1E0,1E1,2.9E1,5E0,5E0,2.3E1,6E0,1.7E1,6E0,2E0,4E0],"tree_param":{"num_deleted":"0","num_feature":"6670","num_nodes":"25","size_leaf_vector":"0"}},{"base_weights":[-1.70883E-1,-3.7054268E-1,-3.0867714E-2,-2.0564748E-1,-7.3244834E-1,7.6189406E-2,-3.227025E-1,-3.2476476E-1,9.5998816E-2,-1.6177593E-2,-5.7755932E-2,-2.7663308E-1,1.3439365E-1,-2.520216E-2,-6.604243E-3,-1.6864277E-1,-3.205912E-2,1.7834473E-2,3.2734293E-2,-2.5445564E-2,-9.133575E-3,2.2437435E-1,-5.9007116E-2,-3.0956762E-3,-1.531644E-2,-1.8828467E-3,5.0947433E-3,1.5695187E-1,2.6665112E-2,4.2457666E-4,-1.111956E-2,4.3927557E-3,1.3249987E-2,4.5495615E-3,-2.6851564E-3],"categories":[],"categories_nodes":[],"categories_segments":[],"categories_sizes":[],"default_left":[0,0,0,0,0,0,0,0,0,0,0,0,0,0,0,0,0,0,0,0,0,0,0,0,0,0,0,0,0,0,0,0,0,0,0],"id":16,"left_children":[1,3,5,7,9,11,13,15,17,-1,-1,19,21,-1,-1,23,-1,-1,25,-1,-1,27,29,-1,-1,-1,-1,31,-1,33,-1,-1,-1,-1,-1],"loss_changes":[2.0293067E0,1.639669E0,1.399278E0,8.216654E-1,8.903027E-3,7.1485806E-1,7.9340935E-3,1.8442786E-1,5.5009782E-2,0E0,0E0,7.183403E-3,5.179075E-1,0E0,0E0,2.7820826E-2,0E0,0E0,1.3919411E-2,0E0,0E0,1.21061325E-1,5.310792E-2,0E0,0E0,0E0,0E0,1.8746018E-2,0E0,1.744689E-2,0E0,0E0,0E0,0E0,0E0],"parents":[2147483647,0,0,1,1,2,2,3,3,4,4,5,5,6,6,7,7,8,8,11,11,12,12,15,15,18,18,21,21,22,22,27,27,29,29],"right_children":[2,4,6,8,10,12,14,16,18,-1,-1,20,22,-1,-1,24,-1,-1,26,-1,-1,28,30,-1,-1,-1,-1,32,-1,34,-1,-1,-1,-1,-1],"split_conditions":[3.2219E-1,2.8635E-1,5.3341E-1,4.5723E-1,4.8665E-1,1.561E-1,8.6845E-1,2.097E-1,5.9593E-1,-1.6177593E-2,-5.7755932E-2,2.5009E-1,3.7725E-1,-2.520216E-2,-6.604243E-3,-5.01E-2,-3.205912E-2,1.7834473E-2,4.4798E-1,-2.5445564E-2,-9.133575E-3,5.8687E-1,6.2513E-1,-3.0956762E-3,-1.531644E-2,-1.8828467E-3,5.0947433E-3,2.1583E-1,2.6665112E-2,2.5346E-1,-1.111956E-2,4.3927557E-3,1.3249987E-2,4.5495615E-3,-2.6851564E-3],"split_indices":[339,2766,844,6186,1,2078,5,325,0,0,0,3,4139,0,0,35,0,0,2,0,0,541,43,0,0,0,0,25,0,3,0,0,0,0,0],"split_type":[0,0,0,0,0,0,0,0,0,0,0,0,0,0,0,0,0,0,0,0,0,0,0,0,0,0,0,0,0,0,0,0,0,0,0],"sum_hessian":[7.2E1,2.9E1,4.3E1,2.1E1,8E0,3.2E1,1.1E1,1.5E1,6E0,1E0,7E0,4E0,2.8E1,1E1,1E0,7E0,8E0,1E0,5E0,2E0,2E0,1.9E1,9E0,2E0,5E0,2E0,3E0,1.4E1,5E0,6E0,3E0,3E0,1.1E1,2E0,4E0],"tree_param":{"num_deleted":"0","num_feature":"6670","num_nodes":"35","size_leaf_vector":"0"}},{"base_weights":[-1.5991186E-1,-4.6882686E-1,-7.866378E-2,-5.506932E-2,-3.055559E-1,6.911956E-2,-2.23825E-1,-2.62115E-2,-5.393382E-3,1.498703E-1,-2.0914637E-2,-3.641854E-2,-1.0656933E-1,1.1050034E-2,2.5815406E-1,1.24757424E-1,-2.011142E-1,6.373335E-3,-7.7040695E-2,2.6093015E-2,1.2722635E-2,1.36527615E-2,4.9078735E-3,-3.7993724E-3,-2.6489794E-1,-8.945982E-3,-1.9575919E-3,-1.2540072E-2,-2.3883399E-2],"categories":[],"categories_nodes":[],"categories_segments":[],"categories_sizes":[],"default_left":[0,0,0,0,0,0,0,0,0,0,0,0,0,0,0,0,0,0,0,0,0,0,0,0,0,0,0,0,0],"id":17,"left_children":[1,3,5,-1,7,9,11,-1,-1,13,-1,-1,15,17,19,21,23,-1,25,-1,-1,-1,-1,-1,27,-1,-1,-1,-1],"loss_changes":[1.7953291E0,4.2569995E-1,1.2811627E0,0E0,8.777356E-2,8.847857E-1,8.6902153E-1,0E0,0E0,3.7294692E-1,0E0,0E0,5.0624716E-1,8.469496E-2,5.221039E-2,1.1872165E-2,1.4012694E-1,0E0,9.796463E-3,0E0,0E0,0E0,0E0,0E0,4.3011904E-3,0E0,0E0,0E0,0E0],"parents":[2147483647,0,0,1,1,2,2,4,4,5,5,6,6,9,9,12,12,13,13,14,14,15,15,16,16,18,18,24,24],"right_children":[2,4,6,-1,8,10,12,-1,-1,14,-1,-1,16,18,20,22,24,-1,26,-1,-1,-1,-1,-1,28,-1,-1,-1,-1],"split_conditions":[4.7918E-1,3.593E-1,3.389E-2,-5.506932E-2,8.0908E-1,6.6457E-1,3.958E-1,-2.62115E-2,-5.393382E-3,1.2265E-1,-2.0914637E-2,-3.641854E-2,1.8316E-1,2.1675E-1,3.4052E-1,1.4122E-1,8.5421E-1,6.373335E-3,2.8932E-1,2.6093015E-2,1.2722635E-2,1.36527615E-2,4.9078735E-3,-3.7993724E-3,2.0507E-1,-8.945982E-3,-1.9575919E-3,-1.2540072E-2,-2.3883399E-2],"split_indices":[4821,510,4247,0,1,54,3949,0,0,1321,0,0,1357,105,139,20,3015,0,3,0,0,0,0,0,432,0,0,0,0],"split_type":[0,0,0,0,0,0,0,0,0,0,0,0,0,0,0,0,0,0,0,0,0,0,0,0,0,0,0,0,0],"sum_hessian":[7.2E1,1.4E1,5.8E1,4E0,1E1,2.9E1,2.9E1,8E0,2E0,2.4E1,5E0,8E0,2.1E1,1.1E1,1.3E1,6E0,1.5E1,6E0,5E0,5E0,8E0,2E0,4E0,5E0,1E1,2E0,3E0,5E0,5E0],"tree_param":{"num_deleted":"0","num_feature":"6670","num_nodes":"29","size_leaf_vector":"0"}},{"base_weights":[-1.4971825E-1,-4.394431E-1,-7.352179E-2,-5.1765162E-2,-2.855124E-1,6.438128E-2,-2.0897412E-1,-2.4464065E-2,-6.831617E-2,1.4000145E-1,-1.9607471E-2,-3.3990636E-2,-9.956127E-2,-6.1543323E-3,-1.5312374E-3,9.843756E-3,2.4156506E-1,1.1805215E-1,-1.8854456E-1,5.96362E-3,-7.307991E-2,2.44622E-2,1.1874457E-2,1.29701225E-2,4.6134023E-3,-4.749215E-2,-2.4834181E-1,-8.498683E-3,-1.8474772E-3,-1.0467813E-3,-3.8555812E-3,-1.2492557E-2,-2.3486823E-2],"categories":[],"categories_nodes":[],"categories_segments":[],"categories_sizes":[],"default_left":[0,0,0,0,0,0,0,0,0,0,0,0,0,0,0,0,0,0,0,0,0,0,0,0,0,0,0,0,0,0,0,0,0],"id":18,"left_children":[1,3,5,-1,7,9,11,-1,13,15,-1,-1,17,-1,-1,19,21,23,25,-1,27,-1,-1,-1,-1,29,31,-1,-1,-1,-1,-1,-1],"loss_changes":[1.57924E0,3.8193178E-1,1.1155324E0,0E0,7.489544E-2,7.7574474E-1,7.5654924E-1,0E0,2.9932056E-4,3.2810426E-1,0E0,0E0,4.4826514E-1,0E0,0E0,7.5139605E-2,4.6945333E-2,1.108399E-2,1.23158574E-1,0E0,8.904502E-3,0E0,0E0,0E0,0E0,7.0356764E-5,6.141126E-3,0E0,0E0,0E0,0E0,0E0,0E0],"parents":[2147483647,0,0,1,1,2,2,4,4,5,5,6,6,8,8,9,9,12,12,15,15,16,16,17,17,18,18,20,20,25,25,26,26],"right_children":[2,4,6,-1,8,10,12,-1,14,16,-1,-1,18,-1,-1,20,22,24,26,-1,28,-1,-1,-1,-1,30,32,-1,-1,-1,-1,-1,-1],"split_conditions":[4.7918E-1,3.593E-1,3.389E-2,-5.1765162E-2,8.0908E-1,6.6457E-1,3.958E-1,-2.4464065E-2,8.1109E-1,1.2265E-1,-1.9607471E-2,-3.3990636E-2,1.8316E-1,-6.1543323E-3,-1.5312374E-3,2.1675E-1,3.4052E-1,1.4122E-1,8.5421E-1,5.96362E-3,2.8932E-1,2.44622E-2,1.1874457E-2,1.29701225E-2,4.6134023E-3,7.2797E-1,8.5881E-1,-8.498683E-3,-1.8474772E-3,-1.0467813E-3,-3.8555812E-3,-1.2492557E-2,-2.3486823E-2],"split_indices":[4821,510,4247,0,1,54,3949,0,0,1321,0,0,1357,0,0,105,139,20,3015,0,3,0,0,0,0,0,345,0,0,0,0,0,0],"split_type":[0,0,0,0,0,0,0,0,0,0,0,0,0,0,0,0,0,0,0,0,0,0,0,0,0,0,0,0,0,0,0,0,0],"sum_hessian":[7.2E1,1.4E1,5.8E1,4E0,1E1,2.9E1,2.9E1,8E0,2E0,2.4E1,5E0,8E0,2.1E1,1E0,1E0,1.1E1,1.3E1,6E0,1.5E1,6E0,5E0,5E0,8E0,2E0,4E0,5E0,1E1,2E0,3E0,1E0,4E0,6E0,4E0],"tree_param":{"num_deleted":"0","num_feature":"6670","num_nodes":"33","size_leaf_vector":"0"}},{"base_weights":[-1.4025454E-1,-4.120792E-1,-6.876939E-2,-4.8659246E-2,-2.6702166E-1,-3.7456322E-3,-3.2313362E-1,-2.2833128E-2,-6.575432E-2,-3.4394485E-1,5.3043418E-2,-3.611709E-1,3.5728612E-3,-5.923545E-3,-1.4738158E-3,-2.7614743E-2,-7.4412962E-3,-1.07248396E-1,1.2859659E-1,-2.9249843E-2,-1.1572469E-2,-1.3983493E-2,-2.4543952E-2,-6.122301E-3,2.1126492E-1,-2.9258989E-3,2.8774606E-3,5.2780826E-3,-7.076108E-3,1.0153329E-2,2.3338243E-2],"categories":[],"categories_nodes":[],"categories_segments":[],"categories_sizes":[],"default_left":[0,0,0,0,0,0,0,0,0,0,0,0,0,0,0,0,0,0,0,0,0,0,0,0,0,0,0,0,0,0,0],"id":19,"left_children":[1,3,5,-1,7,9,11,-1,13,15,17,19,-1,-1,-1,-1,-1,21,23,-1,-1,-1,25,27,29,-1,-1,-1,-1,-1,-1],"loss_changes":[1.3901557E0,3.418095E-1,9.74633E-1,0E0,6.282735E-2,9.4558436E-1,1.8644321E-1,0E0,2.7729291E-4,5.0139427E-3,5.2243507E-1,5.4217577E-3,0E0,0E0,0E0,0E0,0E0,8.712442E-2,3.2426602E-1,0E0,0E0,0E0,8.778222E-3,8.7627515E-2,9.434986E-2,0E0,0E0,0E0,0E0,0E0,0E0],"parents":[2147483647,0,0,1,1,2,2,4,4,5,5,6,6,8,8,9,9,10,10,11,11,17,17,18,18,22,22,23,23,24,24],"right_children":[2,4,6,-1,8,10,12,-1,14,16,18,20,-1,-1,-1,-1,-1,22,24,-1,-1,-1,26,28,30,-1,-1,-1,-1,-1,-1],"split_conditions":[4.7918E-1,3.593E-1,5.9407E-1,-4.8659246E-2,8.0908E-1,1.4342E-1,8.5986E-1,-2.2833128E-2,8.1109E-1,8.3447E-1,4.0423E-1,7.8011E-1,3.5728612E-3,-5.923545E-3,-1.4738158E-3,-2.7614743E-2,-7.4412962E-3,3.7497E-1,3.7538E-1,-2.9249843E-2,-1.1572469E-2,-1.3983493E-2,4.7804E-1,4.1618E-1,5.8687E-1,-2.9258989E-3,2.8774606E-3,5.2780826E-3,-7.076108E-3,1.0153329E-2,2.3338243E-2],"split_indices":[4821,510,981,0,1,5657,1,0,0,0,1965,5,0,0,0,0,0,1089,2551,0,0,0,4,25,541,0,0,0,0,0,0],"split_type":[0,0,0,0,0,0,0,0,0,0,0,0,0,0,0,0,0,0,0,0,0,0,0,0,0,0,0,0,0,0,0],"sum_hessian":[7.2E1,1.4E1,5.8E1,4E0,1E1,4.7E1,1.1E1,8E0,2E0,6E0,4.1E1,1E1,1E0,1E0,1E0,5E0,1E0,1.3E1,2.8E1,8E0,2E0,6E0,7E0,1.1E1,1.7E1,6E0,1E0,6E0,5E0,1.1E1,6E0],"tree_param":{"num_deleted":"0","num_feature":"6670","num_nodes":"31","size_leaf_vector":"0"}},{"base_weights":[-1.3156468E-1,-2.7451035E-1,-1.3301955E-2,-3.8048443E-1,7.2785066E-3,1.2990822E-1,-1.5587871E-1,-2.8506348E-1,-5.1455352E-2,1.0394535E-1,-7.449028E-2,1.8384077E-1,-1.4526527E-1,-2.2107277E-2,-2.7547935E-1,-1.1850333E-1,-2.4951251E-2,1.2008733E-2,3.7405104E-3,-1.7531712E-3,-8.835981E-3,1.22396916E-1,2.1474676E-2,-1.0701545E-3,-1.38130905E-2,5.2305437E-3,-8.455471E-2,-2.4129396E-2,-8.558826E-3,-1.0306178E-2,-8.978058E-4,1.0867056E-2,4.3066973E-3,-2.532483E-3,-8.565323E-3],"categories":[],"categories_nodes":[],"categories_segments":[],"categories_sizes":[],"default_left":[0,0,0,0,0,0,0,0,0,0,0,0,0,0,0,0,0,0,0,0,0,0,0,0,0,0,0,0,0,0,0,0,0,0,0],"id":20,"left_children":[1,3,5,7,9,11,13,15,-1,17,19,21,23,25,27,29,-1,-1,-1,-1,-1,31,-1,-1,-1,-1,33,-1,-1,-1,-1,-1,-1,-1,-1],"loss_changes":[1.2304238E0,9.8822594E-1,8.5740614E-1,5.042515E-1,8.6786225E-2,3.3836263E-1,3.2989198E-1,1.1920726E-1,0E0,7.200815E-3,1.0532629E-2,7.8305066E-2,1.7759986E-2,6.898919E-2,4.5370936E-2,1.0443732E-2,0E0,0E0,0E0,0E0,0E0,1.0682389E-2,0E0,0E0,0E0,0E0,6.684687E-3,0E0,0E0,0E0,0E0,0E0,0E0,0E0,0E0],"parents":[2147483647,0,0,1,1,2,2,3,3,4,4,5,5,6,6,7,7,9,9,10,10,11,11,12,12,13,13,14,14,15,15,21,21,26,26],"right_children":[2,4,6,8,10,12,14,16,-1,18,20,22,24,26,28,30,-1,-1,-1,-1,-1,32,-1,-1,-1,-1,34,-1,-1,-1,-1,-1,-1,-1,-1],"split_conditions":[4.6637E-1,8.0057E-1,3.338E-2,4.9945E-1,3.8391E-1,5.4377E-1,3.1662E-1,2.5292E-1,-5.1455352E-2,3.4327E-1,4.9648E-1,5.8687E-1,3.0445E-1,1.4179E-1,4.8699E-1,6.5177E-1,-2.4951251E-2,1.2008733E-2,3.7405104E-3,-1.7531712E-3,-8.835981E-3,1.8471E-1,2.1474676E-2,-1.0701545E-3,-1.38130905E-2,5.2305437E-3,7.0769E-1,-2.4129396E-2,-8.558826E-3,-1.0306178E-2,-8.978058E-4,1.0867056E-2,4.3066973E-3,-2.532483E-3,-8.565323E-3],"split_indices":[3583,5239,4247,2817,3,1298,1679,396,0,1,3,541,1,140,555,1,0,0,0,0,0,633,0,0,0,0,58,0,0,0,0,0,0,0,0],"split_type":[0,0,0,0,0,0,0,0,0,0,0,0,0,0,0,0,0,0,0,0,0,0,0,0,0,0,0,0,0,0,0,0,0,0,0],"sum_hessian":[7.2E1,3.2E1,4E1,2.3E1,9E0,2E1,2E1,1.9E1,4E0,4E0,5E0,1.7E1,3E0,1E1,1E1,5E0,1.4E1,1E0,3E0,3E0,2E0,1.2E1,5E0,1E0,2E0,4E0,6E0,7E0,3E0,4E0,1E0,8E0,4E0,3E0,3E0],"tree_param":{"num_deleted":"0","num_feature":"6670","num_nodes":"35","size_leaf_vector":"0"}},{"base_weights":[-1.23056784E-1,-2.695863E-1,-2.035355E-2,-1.5988714E-1,-4.5538902E-2,5.4921653E-2,-1.6924817E-2,-2.4155173E-1,7.294852E-2,-2.0203403E-1,9.733051E-2,-1.2051525E-1,-2.3071427E-2,1.3589377E-2,2.470938E-2,-1.8637408E-2,-6.616847E-3,1.6165993E-1,-4.106138E-2,-2.3592676E-3,-1.0871892E-2,-1.1403688E-3,3.6350817E-3,1.1178383E-1,1.9455513E-2,8.835622E-4,-7.814976E-3,1.0132653E-2,4.0717144E-3,3.3105435E-3,-1.893552E-3],"categories":[],"categories_nodes":[],"categories_segments":[],"categories_sizes":[],"default_left":[0,0,0,0,0,0,0,0,0,0,0,0,0,0,0,0,0,0,0,0,0,0,0,0,0,0,0,0,0,0,0],"id":21,"left_children":[1,3,5,7,-1,9,-1,11,13,15,17,19,-1,-1,21,-1,-1,23,25,-1,-1,-1,-1,27,-1,29,-1,-1,-1,-1,-1],"loss_changes":[1.093094E0,1.0139492E0,6.924052E-1,4.7396713E-1,0E0,3.792716E-1,0E0,1.0686505E-1,3.207377E-2,4.5168847E-3,2.6481536E-1,1.2855083E-2,0E0,0E0,6.4267414E-3,0E0,0E0,6.8507195E-2,2.657539E-2,0E0,0E0,0E0,0E0,1.2775347E-2,0E0,9.026852E-3,0E0,0E0,0E0,0E0,0E0],"parents":[2147483647,0,0,1,1,2,2,3,3,5,5,7,7,8,8,9,9,10,10,11,11,14,14,17,17,18,18,23,23,25,25],"right_children":[2,4,6,8,-1,10,-1,12,14,16,18,20,-1,-1,22,-1,-1,24,26,-1,-1,-1,-1,28,-1,30,-1,-1,-1,-1,-1],"split_conditions":[3.2219E-1,4.8154E-1,5.3341E-1,4.5723E-1,-4.5538902E-2,1.561E-1,-1.6924817E-2,2.402E-1,5.9593E-1,2.5009E-1,3.7725E-1,-5.01E-2,-2.3071427E-2,1.3589377E-2,4.4798E-1,-1.8637408E-2,-6.616847E-3,5.8687E-1,6.2513E-1,-2.3592676E-3,-1.0871892E-2,-1.1403688E-3,3.6350817E-3,3.7208E-1,1.9455513E-2,2.5346E-1,-7.814976E-3,1.0132653E-2,4.0717144E-3,3.3105435E-3,-1.893552E-3],"split_indices":[339,2817,844,6186,0,2078,0,767,0,3,4139,35,0,0,2,0,0,541,43,0,0,0,0,2351,0,3,0,0,0,0,0],"split_type":[0,0,0,0,0,0,0,0,0,0,0,0,0,0,0,0,0,0,0,0,0,0,0,0,0,0,0,0,0,0,0],"sum_hessian":[7.2E1,2.9E1,4.3E1,2.3E1,6E0,3.2E1,1.1E1,1.7E1,6E0,4E0,2.8E1,7E0,1E1,1E0,5E0,2E0,2E0,1.9E1,9E0,2E0,5E0,2E0,3E0,1.4E1,5E0,6E0,3E0,9E0,5E0,2E0,4E0],"tree_param":{"num_deleted":"0","num_feature":"6670","num_nodes":"31","size_leaf_vector":"0"}},{"base_weights":[-1.14932664E-1,-3.4297875E-1,-5.5006836E-2,-4.1401517E-2,-2.1678004E-1,4.443429E-2,-1.666893E-1,-1.9357014E-2,-7.995811E-2,-4.6656273E-2,1.8115559E-1,-2.6888324E-2,-5.6957413E-2,-7.152925E-3,-1.2643308E-3,5.0350055E-2,-1.4869761E-1,1.0030447E-1,1.940734E-2,5.7811834E-2,-1.2452319E-2,-2.297771E-3,8.45498E-2,-2.3290722E-3,-1.3067E-2,3.1313107E-3,8.464792E-3,-1.3572928E-3,9.292961E-2,2.7285274E-3,7.963154E-3,2.497755E-3,8.2589565E-3],"categories":[],"categories_nodes":[],"categories_segments":[],"categories_sizes":[],"default_left":[0,0,0,0,0,0,0,0,0,0,0,0,0,0,0,0,0,0,0,0,0,0,0,0,0,0,0,0,0,0,0,0,0],"id":22,"left_children":[1,3,5,-1,7,9,11,-1,13,15,17,-1,19,-1,-1,21,23,25,-1,27,-1,-1,29,-1,-1,-1,-1,-1,31,-1,-1,-1,-1],"loss_changes":[9.78741E-1,2.7604425E-1,6.626507E-1,0E0,4.1541815E-2,4.0698075E-1,5.6895095E-1,0E0,2.2828076E-3,2.0546004E-1,5.5616707E-2,0E0,2.4744594E-1,0E0,0E0,3.305743E-2,2.4622723E-2,1.171045E-3,0E0,2.8339349E-2,0E0,0E0,4.47084E-3,0E0,0E0,0E0,0E0,0E0,3.5073832E-3,0E0,0E0,0E0,0E0],"parents":[2147483647,0,0,1,1,2,2,4,4,5,5,6,6,8,8,9,9,10,10,12,12,15,15,16,16,17,17,19,19,22,22,28,28],"right_children":[2,4,6,-1,8,10,12,-1,14,16,18,-1,20,-1,-1,22,24,26,-1,28,-1,-1,30,-1,-1,-1,-1,-1,32,-1,-1,-1,-1],"split_conditions":[4.7918E-1,3.593E-1,1.2759E-1,-4.1401517E-2,4.1648E-1,5.128E-1,4.0996E-1,-1.9357014E-2,8.2917E-1,2.6855E-1,5.8687E-1,-2.6888324E-2,5.567E-1,-7.152925E-3,-1.2643308E-3,1.1429E-1,7.4995E-1,4.342E-1,1.940734E-2,4.3806E-1,-1.2452319E-2,-2.297771E-3,2.9952E-1,-2.3290722E-3,-1.3067E-2,3.1313107E-3,8.464792E-3,-1.3572928E-3,3.2473E-1,2.7285274E-3,7.963154E-3,2.497755E-3,8.2589565E-3],"split_indices":[4821,510,5889,0,63,659,2886,0,1,2531,541,0,1530,0,0,287,55,1,0,1,0,0,4,0,0,0,0,0,3,0,0,0,0],"split_type":[0,0,0,0,0,0,0,0,0,0,0,0,0,0,0,0,0,0,0,0,0,0,0,0,0,0,0,0,0,0,0,0,0],"sum_hessian":[7.2E1,1.4E1,5.8E1,4E0,1E1,3.1E1,2.7E1,7E0,3E0,1.9E1,1.2E1,9E0,1.8E1,2E0,1E0,1E1,9E0,7E0,5E0,9E0,9E0,3E0,7E0,2E0,7E0,2E0,5E0,3E0,6E0,3E0,4E0,2E0,4E0],"tree_param":{"num_deleted":"0","num_feature":"6670","num_nodes":"33","size_leaf_vector":"0"}},{"base_weights":[-1.0734171E-1,-3.2186708E-1,-5.098201E-2,-4.1707985E-2,-2.1696502E-1,-1.08029125E-2,-3.0577338E-1,-1.9160984E-2,-7.606557E-2,-1.8516098E-1,4.0492203E-2,-2.549896E-2,-1.0156763E-2,-6.795278E-3,-1.2169182E-3,-5.474873E-5,-1.8514276E-2,-5.5829428E-2,1.2621677E-1,-4.108447E-3,2.73349E-3,7.232418E-3,-1.3370863E-1,-1.0718571E-2,1.7823744E-1,-2.694878E-3,4.228887E-3,-2.5438964E-3,-1.0645691E-2,2.9772331E-3,-4.3840455E-3,8.618532E-3,1.8242802E-2],"categories":[],"categories_nodes":[],"categories_segments":[],"categories_sizes":[],"default_left":[0,0,0,0,0,0,0,0,0,0,0,0,0,0,0,0,0,0,0,0,0,0,0,0,0,0,0,0,0,0,0,0,0],"id":23,"left_children":[1,3,5,-1,7,9,11,-1,13,15,17,-1,-1,-1,-1,19,-1,21,23,-1,-1,25,27,29,31,-1,-1,-1,-1,-1,-1,-1,-1],"loss_changes":[8.662031E-1,2.4792719E-1,6.006967E-1,0E0,4.5687318E-2,4.725709E-1,5.828738E-4,0E0,2.0097513E-3,1.3703024E-1,3.4558895E-1,0E0,0E0,0E0,0E0,9.9865785E-3,0E0,9.919116E-2,1.586267E-1,0E0,0E0,2.7485637E-2,2.580464E-3,1.9166468E-2,3.7905216E-2,0E0,0E0,0E0,0E0,0E0,0E0,0E0,0E0],"parents":[2147483647,0,0,1,1,2,2,4,4,5,5,6,6,8,8,9,9,10,10,15,15,17,17,18,18,21,21,22,22,23,23,24,24],"right_children":[2,4,6,-1,8,10,12,-1,14,16,18,-1,-1,-1,-1,20,-1,22,24,-1,-1,26,28,30,32,-1,-1,-1,-1,-1,-1,-1,-1],"split_conditions":[4.7918E-1,1.2477E-1,5.9491E-1,-4.1707985E-2,4.1648E-1,1.3377E-1,8.4615E-1,-1.9160984E-2,8.2917E-1,5.731E-2,3.6365E-1,-2.549896E-2,-1.0156763E-2,-6.795278E-3,-1.2169182E-3,5.7001E-1,-1.8514276E-2,5.567E-1,-1.083E-2,-4.108447E-3,2.73349E-3,8.731E-1,1.8899E-1,4.8772E-1,5.8687E-1,-2.694878E-3,4.228887E-3,-2.5438964E-3,-1.0645691E-2,2.9772331E-3,-4.3840455E-3,8.618532E-3,1.8242802E-2],"split_indices":[4821,451,547,0,63,2231,0,0,1,24,2551,0,0,0,0,0,0,1530,2611,0,0,55,19,9,541,0,0,0,0,0,0,0,0],"split_type":[0,0,0,0,0,0,0,0,0,0,0,0,0,0,0,0,0,0,0,0,0,0,0,0,0,0,0,0,0,0,0,0,0],"sum_hessian":[7.2E1,1.4E1,5.8E1,3E0,1.1E1,5.1E1,7E0,8E0,3E0,1.1E1,4E1,5E0,2E0,2E0,1E0,3E0,8E0,1.9E1,2.1E1,1E0,2E0,1.1E1,8E0,6E0,1.5E1,6E0,5E0,1E0,7E0,3E0,3E0,9E0,6E0],"tree_param":{"num_deleted":"0","num_feature":"6670","num_nodes":"33","size_leaf_vector":"0"}},{"base_weights":[-1.0080651E-1,-3.964819E-2,-7.491865E-2,9.0250194E-2,-1.2552886E-1,1.0759752E-2,1.1978463E-2,1.43995555E-2,-1.5477058E-1,3.4142698E-3,-4.4075947E-2,-2.4140772E-1,-7.807683E-2,-3.8742868E-3,-7.9996214E-4,-3.1117675E-1,-1.3700727E-1,-8.755495E-3,-1.5148478E-2,-5.8923834E-3,-2.4301047E-2,-6.106295E-4,-1.1180975E-2,3.6194471E-3,-5.810055E-3],"categories":[],"categories_nodes":[],"categories_segments":[],"categories_sizes":[],"default_left":[0,0,0,0,0,0,0,0,0,0,0,0,0,0,0,0,0,0,0,0,0,0,0,0,0],"id":24,"left_children":[1,-1,3,5,7,9,-1,-1,11,-1,13,15,17,-1,-1,19,21,23,-1,-1,-1,-1,-1,-1,-1],"loss_changes":[7.689253E-1,0E0,5.964751E-1,9.214899E-2,5.3110045E-1,1.9163191E-2,0E0,0E0,3.133781E-1,0E0,4.6216277E-4,1.2489653E-1,2.3872672E-1,0E0,0E0,1.3363004E-2,1.5899092E-2,7.817282E-2,0E0,0E0,0E0,0E0,0E0,0E0,0E0],"parents":[2147483647,0,0,2,2,3,3,4,4,5,5,8,8,10,10,11,11,12,12,15,15,16,16,17,17],"right_children":[2,-1,4,6,8,10,-1,-1,12,-1,14,16,18,-1,-1,20,22,24,-1,-1,-1,-1,-1,-1,-1],"split_conditions":[2.1062E-1,-3.964819E-2,2.3307E-1,3.344E-1,-1.3813E-1,4.973E-1,1.1978463E-2,1.43995555E-2,6.8534E-1,3.4142698E-3,8.5942E-1,2.485E-1,1.0138E-1,-3.8742868E-3,-7.9996214E-4,2.5305E-1,2.553E-1,4.4118E-1,-1.5148478E-2,-5.8923834E-3,-2.4301047E-2,-6.106295E-4,-1.1180975E-2,3.6194471E-3,-5.810055E-3],"split_indices":[4321,0,5000,493,5889,9,0,0,4591,0,0,5614,3534,0,0,1,15,3621,0,0,0,0,0,0,0],"split_type":[0,0,0,0,0,0,0,0,0,0,0,0,0,0,0,0,0,0,0,0,0,0,0,0,0],"sum_hessian":[7.2E1,3E0,6.9E1,1.6E1,5.3E1,8E0,8E0,4E0,4.9E1,5E0,3E0,2.2E1,2.7E1,2E0,1E0,1.2E1,1E1,1.8E1,9E0,1E0,1.1E1,1E0,9E0,1E1,8E0],"tree_param":{"num_deleted":"0","num_feature":"6670","num_nodes":"25","size_leaf_vector":"0"}},{"base_weights":[-9.425773E-2,-3.7417978E-2,-6.978841E-2,8.41119E-2,-1.1694613E-1,9.812769E-3,1.4906527E-1,1.3535584E-2,-1.4434926E-1,3.2008777E-3,-4.193882E-2,1.2303389E-2,4.8317825E-3,-2.2512758E-1,-7.284032E-2,-3.6805728E-3,-7.699639E-4,-2.841765E-1,-1.1994633E-1,-8.208592E-3,-1.4126744E-2,-5.6714183E-3,-2.208019E-2,-5.8773125E-4,-9.864922E-3,-5.000438E-3,3.8307137E-3],"categories":[],"categories_nodes":[],"categories_segments":[],"categories_sizes":[],"default_left":[0,0,0,0,0,0,0,0,0,0,0,0,0,0,0,0,0,0,0,0,0,0,0,0,0,0,0],"id":25,"left_children":[1,-1,3,5,7,9,11,-1,13,-1,15,-1,-1,17,19,-1,-1,21,23,25,-1,-1,-1,-1,-1,-1,-1],"loss_changes":[6.8798983E-1,0E0,5.178677E-1,8.0578886E-2,4.6616513E-1,1.7097501E-2,8.428842E-4,0E0,2.724203E-1,0E0,4.0019257E-4,0E0,0E0,1.0876334E-1,2.0750229E-1,0E0,0E0,7.5957775E-3,1.1958256E-2,6.925975E-2,0E0,0E0,0E0,0E0,0E0,0E0,0E0],"parents":[2147483647,0,0,2,2,3,3,4,4,5,5,6,6,8,8,10,10,13,13,14,14,17,17,18,18,19,19],"right_children":[2,-1,4,6,8,10,12,-1,14,-1,16,-1,-1,18,20,-1,-1,22,24,26,-1,-1,-1,-1,-1,-1,-1],"split_conditions":[2.1062E-1,-3.7417978E-2,2.3307E-1,3.344E-1,-1.3813E-1,4.973E-1,5.5464E-1,1.3535584E-2,6.8534E-1,3.2008777E-3,8.5942E-1,1.2303389E-2,4.8317825E-3,2.4983E-1,6.1291E-1,-3.6805728E-3,-7.699639E-4,2.5305E-1,2.553E-1,7.2059E-1,-1.4126744E-2,-5.6714183E-3,-2.208019E-2,-5.8773125E-4,-9.864922E-3,-5.000438E-3,3.8307137E-3],"split_indices":[4321,0,5000,493,5889,9,3,0,4591,0,0,0,0,5614,1766,0,0,1,15,3975,0,0,0,0,0,0,0],"split_type":[0,0,0,0,0,0,0,0,0,0,0,0,0,0,0,0,0,0,0,0,0,0,0,0,0,0,0],"sum_hessian":[7.2E1,3E0,6.9E1,1.6E1,5.3E1,8E0,8E0,4E0,4.9E1,5E0,3E0,6E0,2E0,2.2E1,2.7E1,2E0,1E0,1.3E1,9E0,1.8E1,9E0,1E0,1.2E1,1E0,8E0,9E0,9E0],"tree_param":{"num_deleted":"0","num_feature":"6670","num_nodes":"27","size_leaf_vector":"0"}},{"base_weights":[-8.803083E-2,-3.5313215E-2,-6.4898275E-2,-1.3655527E-1,2.4461754E-2,7.803202E-2,-1.7040728E-1,-1.3254756E-1,6.579266E-2,2.4291717E-3,8.465908E-3,1.342536E-2,-2.025655E-1,-2.043107E-3,-1.0916878E-2,8.335835E-3,1.73396E-1,3.8449198E-3,-1.3733369E-3,-2.3429384E-2,-1.6033292E-1,4.4149786E-2,-9.36104E-2,6.374129E-3,1.5257631E-2,-4.257699E-3,-1.3436094E-2,-9.616804E-4,4.564E-3,-7.9940995E-3,-1.5637503E-3],"categories":[],"categories_nodes":[],"categories_segments":[],"categories_sizes":[],"default_left":[0,0,0,0,0,0,0,0,0,0,0,0,0,0,0,0,0,0,0,0,0,0,0,0,0,0,0,0,0,0,0],"id":26,"left_children":[1,-1,3,5,7,9,11,13,15,-1,-1,17,19,-1,-1,21,23,-1,-1,-1,25,27,29,-1,-1,-1,-1,-1,-1,-1,-1],"loss_changes":[6.158888E-1,0E0,4.5156932E-1,2.966014E-1,2.1637943E-1,5.8870465E-3,2.0371842E-1,5.625583E-3,1.593008E-1,0E0,0E0,8.144237E-3,8.442259E-2,0E0,0E0,6.985263E-2,6.611526E-3,0E0,0E0,0E0,3.464651E-2,1.4103211E-2,2.4989136E-3,0E0,0E0,0E0,0E0,0E0,0E0,0E0,0E0],"parents":[2147483647,0,0,2,2,3,3,4,4,5,5,6,6,7,7,8,8,11,11,12,12,15,15,16,16,20,20,21,21,22,22],"right_children":[2,-1,4,6,8,10,12,14,16,-1,-1,18,20,-1,-1,22,24,-1,-1,-1,26,28,30,-1,-1,-1,-1,-1,-1,-1,-1],"split_conditions":[2.1062E-1,-3.5313215E-2,1.3812E-1,2.0127E-1,2.082E-1,3.8391E-1,-5.444E-2,1.9617E-1,5.1164E-1,2.4291717E-3,8.465908E-3,3.5991E-1,2.5894E-1,-2.043107E-3,-1.0916878E-2,3.0857E-1,5.4665E-1,3.8449198E-3,-1.3733369E-3,-2.3429384E-2,3.4766E-1,2.2507E-1,8.3081E-1,6.374129E-3,1.5257631E-2,-4.257699E-3,-1.3436094E-2,-9.616804E-4,4.564E-3,-7.9940995E-3,-1.5637503E-3],"split_indices":[4321,0,6386,5000,2818,3,6459,3,1735,0,0,26,2852,0,0,2570,56,0,0,0,2910,1479,0,0,0,0,0,0,0,0,0],"split_type":[0,0,0,0,0,0,0,0,0,0,0,0,0,0,0,0,0,0,0,0,0,0,0,0,0,0,0,0,0,0,0],"sum_hessian":[7.2E1,3E0,6.9E1,3.8E1,3.1E1,5E0,3.3E1,6E0,2.5E1,3E0,2E0,5E0,2.8E1,1E0,5E0,1.7E1,8E0,2E0,3E0,6E0,2.2E1,1.3E1,4E0,3E0,5E0,4E0,1.8E1,3E0,1E1,3E0,1E0],"tree_param":{"num_deleted":"0","num_feature":"6670","num_nodes":"31","size_leaf_vector":"0"}},{"base_weights":[-8.225528E-2,-4.4435793E-1,-6.038862E-2,-3.7730835E-2,-1.0057437E-2,7.4419774E-2,-1.0170999E-1,8.282847E-3,1.3228783E-1,1.197918E-2,-1.2581903E-1,2.7956278E-3,-3.727615E-2,1.0886902E-2,4.3619904E-3,-2.0377745E-1,-6.7054175E-2,-3.2575976E-3,-7.050265E-4,-8.736633E-2,-2.5574255E-1,1.105137E-2,-1.4589648E-1,-7.1898117E-3,-1.0455576E-3,-2.0007955E-2,-4.213149E-3,-2.7122367E-3,3.884393E-3,-6.15281E-3,-1.2721669E-2],"categories":[],"categories_nodes":[],"categories_segments":[],"categories_sizes":[],"default_left":[0,0,0,0,0,0,0,0,0,0,0,0,0,0,0,0,0,0,0,0,0,0,0,0,0,0,0,0,0,0,0],"id":27,"left_children":[1,3,5,-1,-1,7,9,11,13,-1,15,-1,17,-1,-1,19,21,-1,-1,23,25,27,29,-1,-1,-1,-1,-1,-1,-1,-1],"loss_changes":[5.51178E-1,5.4110885E-3,3.9750203E-1,0E0,0E0,6.3966945E-2,3.6045176E-1,1.3277166E-2,1.4439225E-4,0E0,2.1539676E-1,0E0,2.7838955E-4,0E0,0E0,1.0469234E-1,1.86353E-1,0E0,0E0,3.65524E-3,1.583159E-2,3.264968E-2,8.811176E-3,0E0,0E0,0E0,0E0,0E0,0E0,0E0,0E0],"parents":[2147483647,0,0,1,1,2,2,5,5,6,6,7,7,8,8,10,10,12,12,15,15,16,16,19,19,20,20,21,21,22,22],"right_children":[2,4,6,-1,-1,8,10,12,14,-1,16,-1,18,-1,-1,20,22,-1,-1,24,26,28,30,-1,-1,-1,-1,-1,-1,-1,-1],"split_conditions":[2.1062E-1,8.3855E-1,2.3307E-1,-3.7730835E-2,-1.0057437E-2,3.344E-1,-1.3813E-1,4.973E-1,5.5464E-1,1.197918E-2,2.9807E-1,2.7956278E-3,8.5942E-1,1.0886902E-2,4.3619904E-3,1.5737E-1,3.9652E-1,-3.2575976E-3,-7.050265E-4,7.5057E-1,8.6209E-1,7.2059E-1,4.666E-1,-7.1898117E-3,-1.0455576E-3,-2.0007955E-2,-4.213149E-3,-2.7122367E-3,3.884393E-3,-6.15281E-3,-1.2721669E-2],"split_indices":[4321,0,5000,0,0,493,5889,9,3,0,2321,0,0,0,0,3026,1565,0,0,1,0,3975,3638,0,0,0,0,0,0,0,0],"split_type":[0,0,0,0,0,0,0,0,0,0,0,0,0,0,0,0,0,0,0,0,0,0,0,0,0,0,0,0,0,0,0],"sum_hessian":[7.2E1,3E0,6.9E1,2E0,1E0,1.6E1,5.3E1,8E0,8E0,4E0,4.9E1,5E0,3E0,6E0,2E0,2E1,2.9E1,2E0,1E0,7E0,1.3E1,1.5E1,1.4E1,6E0,1E0,1.2E1,1E0,7E0,8E0,5E0,9E0],"tree_param":{"num_deleted":"0","num_feature":"6670","num_nodes":"31","size_leaf_vector":"0"}},{"base_weights":[-7.707088E-2,-4.229782E-1,-5.620373E-2,-3.58443E-2,-9.680285E-3,6.966663E-2,-9.4788775E-2,7.531964E-3,1.24060564E-1,1.1260427E-2,-1.1738578E-1,2.6209005E-3,-3.547109E-2,1.1920305E-2,6.009944E-3,-1.9003968E-1,-6.2615186E-2,-3.0947172E-3,-6.785877E-4,-8.184327E-2,-2.3829193E-1,1.0295779E-2,-1.3621254E-1,-6.72761E-3,-1.0063492E-3,-2.0737974E-2,-1.059413E-2,-2.5342454E-3,3.6254334E-3,-5.1910984E-3,-1.1571239E-2],"categories":[],"categories_nodes":[],"categories_segments":[],"categories_sizes":[],"default_left":[0,0,0,0,0,0,0,0,0,0,0,0,0,0,0,0,0,0,0,0,0,0,0,0,0,0,0,0,0,0,0],"id":28,"left_children":[1,3,5,-1,-1,7,9,11,13,-1,15,-1,17,-1,-1,19,21,-1,-1,23,25,27,29,-1,-1,-1,-1,-1,-1,-1,-1],"loss_changes":[5.031482E-1,2.910018E-3,3.4657356E-1,0E0,0E0,5.652131E-2,3.164945E-1,1.18492795E-2,1.0525584E-3,0E0,1.8706542E-1,0E0,2.38813E-4,0E0,0E0,9.0132594E-2,1.6238405E-1,0E0,0E0,3.0979738E-3,1.2856901E-2,2.8468054E-2,7.481754E-3,0E0,0E0,0E0,0E0,0E0,0E0,0E0,0E0],"parents":[2147483647,0,0,1,1,2,2,5,5,6,6,7,7,8,8,10,10,12,12,15,15,16,16,19,19,20,20,21,21,22,22],"right_children":[2,4,6,-1,-1,8,10,12,14,-1,16,-1,18,-1,-1,20,22,-1,-1,24,26,28,30,-1,-1,-1,-1,-1,-1,-1,-1],"split_conditions":[2.1062E-1,8.3855E-1,2.3307E-1,-3.58443E-2,-9.680285E-3,3.344E-1,-1.3813E-1,4.973E-1,4.6104E-1,1.1260427E-2,2.9807E-1,2.6209005E-3,8.5942E-1,1.1920305E-2,6.009944E-3,1.5737E-1,3.9652E-1,-3.0947172E-3,-6.785877E-4,7.5057E-1,3.6942E-1,7.2059E-1,3.8752E-1,-6.72761E-3,-1.0063492E-3,-2.0737974E-2,-1.059413E-2,-2.5342454E-3,3.6254334E-3,-5.1910984E-3,-1.1571239E-2],"split_indices":[4321,0,5000,0,0,493,5889,9,1,0,2321,0,0,0,0,3026,1565,0,0,1,289,3975,141,0,0,0,0,0,0,0,0],"split_type":[0,0,0,0,0,0,0,0,0,0,0,0,0,0,0,0,0,0,0,0,0,0,0,0,0,0,0,0,0,0,0],"sum_hessian":[7.2E1,3E0,6.9E1,2E0,1E0,1.6E1,5.3E1,8E0,8E0,4E0,4.9E1,5E0,3E0,3E0,5E0,2E1,2.9E1,2E0,1E0,7E0,1.3E1,1.5E1,1.4E1,6E0,1E0,8E0,5E0,7E0,8E0,4E0,1E1],"tree_param":{"num_deleted":"0","num_feature":"6670","num_nodes":"31","size_leaf_vector":"0"}},{"base_weights":[-7.227992E-2,-4.0263596E-1,-5.2369863E-2,-3.405208E-2,-9.317275E-3,6.542857E-2,-8.848474E-2,6.839035E-3,1.16748266E-1,1.0584804E-2,-1.0967659E-1,2.4570958E-3,-3.3754084E-2,1.1249786E-2,5.6343228E-3,-1.77647E-1,-5.8441423E-2,-2.9399816E-3,-6.5314025E-4,-7.667178E-2,-2.2265805E-1,9.591797E-3,-1.271141E-1,-6.295121E-3,-9.686116E-4,-1.742117E-2,-3.657876E-3,-2.3679356E-3,3.3837378E-3,-5.364064E-3,-1.1081898E-2],"categories":[],"categories_nodes":[],"categories_segments":[],"categories_sizes":[],"default_left":[0,0,0,0,0,0,0,0,0,0,0,0,0,0,0,0,0,0,0,0,0,0,0,0,0,0,0,0,0,0,0],"id":29,"left_children":[1,3,5,-1,-1,7,9,11,13,-1,15,-1,17,-1,-1,19,21,-1,-1,23,25,27,29,-1,-1,-1,-1,-1,-1,-1,-1],"loss_changes":[4.590648E-1,8.2695484E-4,3.0358878E-1,0E0,0E0,5.03171E-2,2.782415E-1,1.0576208E-2,1.1871234E-3,0E0,1.6374177E-1,0E0,2.0418642E-4,0E0,0E0,7.837337E-2,1.4137995E-1,0E0,0E0,2.6206113E-3,1.2100518E-2,2.4822019E-2,6.6476166E-3,0E0,0E0,0E0,0E0,0E0,0E0,0E0,0E0],"parents":[2147483647,0,0,1,1,2,2,5,5,6,6,7,7,8,8,10,10,12,12,15,15,16,16,19,19,20,20,21,21,22,22],"right_children":[2,4,6,-1,-1,8,10,12,14,-1,16,-1,18,-1,-1,20,22,-1,-1,24,26,28,30,-1,-1,-1,-1,-1,-1,-1,-1],"split_conditions":[2.1062E-1,8.3855E-1,2.3307E-1,-3.405208E-2,-9.317275E-3,3.344E-1,-1.3813E-1,4.973E-1,4.6104E-1,1.0584804E-2,2.9807E-1,2.4570958E-3,8.5942E-1,1.1249786E-2,5.6343228E-3,1.5737E-1,3.9652E-1,-2.9399816E-3,-6.5314025E-4,7.5057E-1,8.6209E-1,7.2059E-1,4.666E-1,-6.295121E-3,-9.686116E-4,-1.742117E-2,-3.657876E-3,-2.3679356E-3,3.3837378E-3,-5.364064E-3,-1.1081898E-2],"split_indices":[4321,0,5000,0,0,493,5889,9,1,0,2321,0,0,0,0,3026,1565,0,0,1,0,3975,3638,0,0,0,0,0,0,0,0],"split_type":[0,0,0,0,0,0,0,0,0,0,0,0,0,0,0,0,0,0,0,0,0,0,0,0,0,0,0,0,0,0,0],"sum_hessian":[7.2E1,3E0,6.9E1,2E0,1E0,1.6E1,5.3E1,8E0,8E0,4E0,4.9E1,5E0,3E0,3E0,5E0,2E1,2.9E1,2E0,1E0,7E0,1.3E1,1.5E1,1.4E1,6E0,1E0,1.2E1,1E0,7E0,8E0,5E0,9E0],"tree_param":{"num_deleted":"0","num_feature":"6670","num_nodes":"31","size_leaf_vector":"0"}},{"base_weights":[-6.769194E-2,-2.8746044E-2,-4.869127E-2,-1.03704825E-1,1.9878104E-2,6.06273E-2,-1.2965447E-1,6.0882352E-2,-7.641948E-2,1.8496403E-3,6.6279084E-3,8.418943E-3,-1.5375054E-1,9.81758E-3,1.392256E-1,3.6274658E-3,-1.1366168E-1,3.379629E-2,-1.2718804E-2,-1.2127382E-1,-1.9352425E-2,3.9122973E-2,-2.9263293E-2,5.2180365E-3,1.218419E-2,-4.8660594E-3,-1.0966678E-2,3.0524388E-3,7.4964395E-4,-2.2864938E-4,-1.1194475E-3,-3.7565066E-3,-1.0302834E-2,3.1625626E-3,5.537532E-4,-3.256953E-3,-5.8385433E-4],"categories":[],"categories_nodes":[],"categories_segments":[],"categories_sizes":[],"default_left":[0,0,0,0,0,0,0,0,0,0,0,0,0,0,0,0,0,0,0,0,0,0,0,0,0,0,0,0,0,0,0,0,0,0,0,0,0],"id":30,"left_children":[1,-1,3,5,7,9,11,13,15,-1,-1,17,19,21,23,-1,25,27,29,31,-1,33,35,-1,-1,-1,-1,-1,-1,-1,-1,-1,-1,-1,-1,-1,-1],"loss_changes":[4.190744E-1,0E0,2.6611862E-1,1.7417064E-1,1.3100812E-1,3.8077012E-3,1.1441338E-1,9.064648E-2,5.1970314E-2,0E0,0E0,3.6483677E-3,6.6922605E-2,1.8324073E-2,3.2595843E-3,0E0,3.2197013E-3,8.6089596E-5,3.9870152E-5,2.0621568E-2,0E0,5.583493E-4,1.7913086E-3,0E0,0E0,0E0,0E0,0E0,0E0,0E0,0E0,0E0,0E0,0E0,0E0,0E0,0E0],"parents":[2147483647,0,0,2,2,3,3,4,4,5,5,6,6,7,7,8,8,11,11,12,12,13,13,14,14,16,16,17,17,18,18,19,19,21,21,22,22],"right_children":[2,-1,4,6,8,10,12,14,16,-1,-1,18,20,22,24,-1,26,28,30,32,-1,34,36,-1,-1,-1,-1,-1,-1,-1,-1,-1,-1,-1,-1,-1,-1],"split_conditions":[2.1062E-1,-2.8746044E-2,1.3812E-1,2.0127E-1,3.7626E-1,3.8391E-1,-5.444E-2,4.6312E-1,2.584E-1,1.8496403E-3,6.6279084E-3,3.5991E-1,5.5083E-1,4.526E-1,3.3133E-1,3.6274658E-3,3.6624E-1,7.1793E-1,6.9621E-1,-8.884E-2,-1.9352425E-2,7.8494E-1,4.5387E-1,5.2180365E-3,1.218419E-2,-4.8660594E-3,-1.0966678E-2,3.0524388E-3,7.4964395E-4,-2.2864938E-4,-1.1194475E-3,-3.7565066E-3,-1.0302834E-2,3.1625626E-3,5.537532E-4,-3.256953E-3,-5.8385433E-4],"split_indices":[4321,0,6386,5000,5852,3,6459,2818,10,0,0,26,2792,5907,128,0,89,0,0,4177,0,5,11,0,0,0,0,0,0,0,0,0,0,0,0,0,0],"split_type":[0,0,0,0,0,0,0,0,0,0,0,0,0,0,0,0,0,0,0,0,0,0,0,0,0,0,0,0,0,0,0,0,0,0,0,0,0],"sum_hessian":[7.2E1,3E0,6.9E1,3.8E1,3.1E1,5E0,3.3E1,2.2E1,9E0,3E0,2E0,5E0,2.8E1,1.4E1,8E0,2E0,7E0,2E0,3E0,2.3E1,5E0,8E0,6E0,3E0,5E0,4E0,3E0,1E0,1E0,1E0,2E0,5E0,1.8E1,7E0,1E0,3E0,3E0],"tree_param":{"num_deleted":"0","num_feature":"6670","num_nodes":"37","size_leaf_vector":"0"}},{"base_weights":[-6.324728E-2,-3.0912174E-2,-4.7613584E-2,-1.7317997E-1,-1.9139403E-2,1.1187763E-3,-2.0873551E-1,1.2925979E-2,-1.0612299E-1,-9.944736E-3,-1.8756397E-2,-3.786125E-2,8.174398E-2,-1.5897816E-2,-1.3487324E-1,-6.8845846E-2,4.045981E-2,5.231912E-3,1.2594002E-1,7.5743796E-4,-1.8691394E-3,-1.1161283E-2,-5.2335933E-3,-8.9291064E-4,-7.065766E-3,-2.56408E-4,3.5412433E-3,-2.3146188E-3,2.4795244E-3,5.3834235E-3,1.1577927E-2],"categories":[],"categories_nodes":[],"categories_segments":[],"categories_sizes":[],"default_left":[0,0,0,0,0,0,0,0,0,0,0,0,0,0,0,0,0,0,0,0,0,0,0,0,0,0,0,0,0,0,0],"id":31,"left_children":[1,-1,3,5,7,-1,9,11,13,-1,-1,15,17,19,21,23,25,27,29,-1,-1,-1,-1,-1,-1,-1,-1,-1,-1,-1,-1],"loss_changes":[3.7857816E-1,0E0,2.5053883E-1,9.00563E-2,1.6593231E-1,0E0,1.4712214E-3,1.5687826E-1,3.935975E-2,0E0,0E0,6.588088E-2,6.3590184E-2,1.4246795E-3,5.069524E-4,2.631925E-2,2.5332402E-3,9.055692E-3,7.3983967E-3,0E0,0E0,0E0,0E0,0E0,0E0,0E0,0E0,0E0,0E0,0E0,0E0],"parents":[2147483647,0,0,2,2,3,3,4,4,6,6,7,7,8,8,11,11,12,12,13,13,14,14,15,15,16,16,17,17,18,18],"right_children":[2,-1,4,6,8,-1,10,12,14,-1,-1,16,18,20,22,24,26,28,30,-1,-1,-1,-1,-1,-1,-1,-1,-1,-1,-1,-1],"split_conditions":[-3.387E-2,-3.0912174E-2,5.246E-2,3.456E-1,4.2142E-1,1.1187763E-3,4.7626E-1,3.3816E-1,4.0419E-1,-9.944736E-3,-1.8756397E-2,3.8194E-1,3.0202E-1,6.3618E-1,6.7846E-1,2.741E-2,7.4472E-1,2.7569E-1,5.8687E-1,7.5743796E-4,-1.8691394E-3,-1.1161283E-2,-5.2335933E-3,-8.9291064E-4,-7.065766E-3,-2.56408E-4,3.5412433E-3,-2.3146188E-3,2.4795244E-3,5.3834235E-3,1.1577927E-2],"split_indices":[4447,0,2902,6,2948,0,6,2569,1660,0,0,6283,2897,0,16,222,0,15,541,0,0,0,0,0,0,0,0,0,0,0,0],"split_type":[0,0,0,0,0,0,0,0,0,0,0,0,0,0,0,0,0,0,0,0,0,0,0,0,0,0,0,0,0,0,0],"sum_hessian":[7.2E1,2E0,7E1,1.2E1,5.8E1,2E0,1E1,4.3E1,1.5E1,5E0,5E0,2.5E1,1.8E1,4E0,1.1E1,1.8E1,7E0,7E0,1.1E1,1E0,3E0,8E0,3E0,6E0,1.2E1,1E0,6E0,3E0,4E0,5E0,6E0],"tree_param":{"num_deleted":"0","num_feature":"6670","num_nodes":"31","size_leaf_vector":"0"}},{"base_weights":[-5.9374265E-2,-2.9366566E-2,-4.4502236E-2,-1.623132E-1,-1.7789613E-2,1.0628373E-3,-1.9568954E-1,1.2239542E-2,-9.925794E-2,-1.05217295E-2,-1.9317511E-2,-3.5201415E-2,7.651456E-2,-1.4927822E-2,-1.26124E-1,-6.410128E-2,3.783594E-2,4.8601185E-3,1.1790797E-1,7.290334E-4,-1.764E-3,-1.0417197E-2,-4.939204E-3,-8.3550904E-4,-6.5765968E-3,-2.467923E-4,3.3135929E-3,-2.1844213E-3,2.3307512E-3,5.0469628E-3,1.0833629E-2],"categories":[],"categories_nodes":[],"categories_segments":[],"categories_sizes":[],"default_left":[0,0,0,0,0,0,0,0,0,0,0,0,0,0,0,0,0,0,0,0,0,0,0,0,0,0,0,0,0,0,0],"id":32,"left_children":[1,-1,3,5,7,-1,9,11,13,-1,-1,15,17,19,21,23,25,27,29,-1,-1,-1,-1,-1,-1,-1,-1,-1,-1,-1,-1],"loss_changes":[3.4320876E-1,0E0,2.2055234E-1,7.9348385E-2,1.4555395E-1,0E0,1.5739202E-3,1.3686122E-1,3.436713E-2,0E0,0E0,5.7305336E-2,5.5781364E-2,1.2875365E-3,8.973479E-5,2.2757523E-2,2.23306E-3,8.03304E-3,6.399825E-3,0E0,0E0,0E0,0E0,0E0,0E0,0E0,0E0,0E0,0E0,0E0,0E0],"parents":[2147483647,0,0,2,2,3,3,4,4,6,6,7,7,8,8,11,11,12,12,13,13,14,14,15,15,16,16,17,17,18,18],"right_children":[2,-1,4,6,8,-1,10,12,14,-1,-1,16,18,20,22,24,26,28,30,-1,-1,-1,-1,-1,-1,-1,-1,-1,-1,-1,-1],"split_conditions":[-3.387E-2,-2.9366566E-2,5.246E-2,3.456E-1,4.2142E-1,1.0628373E-3,2.0372E-1,3.3816E-1,4.0419E-1,-1.05217295E-2,-1.9317511E-2,3.8194E-1,3.0202E-1,6.3618E-1,6.7846E-1,2.741E-2,7.4472E-1,2.7569E-1,5.8687E-1,7.290334E-4,-1.764E-3,-1.0417197E-2,-4.939204E-3,-8.3550904E-4,-6.5765968E-3,-2.467923E-4,3.3135929E-3,-2.1844213E-3,2.3307512E-3,5.0469628E-3,1.0833629E-2],"split_indices":[4447,0,2902,6,2948,0,26,2569,1660,0,0,6283,2897,0,16,222,0,15,541,0,0,0,0,0,0,0,0,0,0,0,0],"split_type":[0,0,0,0,0,0,0,0,0,0,0,0,0,0,0,0,0,0,0,0,0,0,0,0,0,0,0,0,0,0,0],"sum_hessian":[7.2E1,2E0,7E1,1.2E1,5.8E1,2E0,1E1,4.3E1,1.5E1,7E0,3E0,2.5E1,1.8E1,4E0,1.1E1,1.8E1,7E0,7E0,1.1E1,1E0,3E0,8E0,3E0,6E0,1.2E1,1E0,6E0,3E0,4E0,5E0,6E0],"tree_param":{"num_deleted":"0","num_feature":"6670","num_nodes":"31","size_leaf_vector":"0"}},{"base_weights":[-5.5782184E-2,-2.7898235E-2,-4.16362E-2,-1.5235327E-1,-1.6535215E-2,1.0096967E-3,-1.8372549E-1,1.15870675E-2,-9.283804E-2,-1.0313506E-2,-1.9583993E-2,-3.272843E-2,7.161948E-2,-1.4015228E-2,-8.8458285E-3,-5.9683796E-2,3.538161E-2,4.5138863E-3,1.1038826E-1,7.01695E-4,-1.6647751E-3,-7.817975E-4,-6.1212946E-3,-2.3753756E-4,3.1005775E-3,-2.7144896E-3,1.8086333E-3,4.731527E-3,1.0137183E-2],"categories":[],"categories_nodes":[],"categories_segments":[],"categories_sizes":[],"default_left":[0,0,0,0,0,0,0,0,0,0,0,0,0,0,0,0,0,0,0,0,0,0,0,0,0,0,0,0,0],"id":33,"left_children":[1,-1,3,5,7,-1,9,11,13,-1,-1,15,17,19,-1,21,23,25,27,-1,-1,-1,-1,-1,-1,-1,-1,-1,-1],"loss_changes":[3.1103253E-1,0E0,1.9479747E-1,7.009959E-2,1.2767848E-1,0E0,3.4345984E-3,1.19400114E-1,3.0010208E-2,0E0,0E0,4.984592E-2,4.893215E-2,1.1637614E-3,0E0,1.9677565E-2,1.968761E-3,7.2560706E-3,5.5352002E-3,0E0,0E0,0E0,0E0,0E0,0E0,0E0,0E0,0E0,0E0],"parents":[2147483647,0,0,2,2,3,3,4,4,6,6,7,7,8,8,11,11,12,12,13,13,15,15,16,16,17,17,18,18],"right_children":[2,-1,4,6,8,-1,10,12,14,-1,-1,16,18,20,-1,22,24,26,28,-1,-1,-1,-1,-1,-1,-1,-1,-1,-1],"split_conditions":[-3.387E-2,-2.7898235E-2,5.246E-2,3.456E-1,4.2142E-1,1.0096967E-3,2.8419E-1,3.3816E-1,4.0419E-1,-1.0313506E-2,-1.9583993E-2,3.8194E-1,3.0202E-1,6.3618E-1,-8.8458285E-3,2.741E-2,7.4472E-1,-4.406E-2,5.8687E-1,7.01695E-4,-1.6647751E-3,-7.817975E-4,-6.1212946E-3,-2.3753756E-4,3.1005775E-3,-2.7144896E-3,1.8086333E-3,4.731527E-3,1.0137183E-2],"split_indices":[4447,0,2902,6,2948,0,20,2569,1660,0,0,6283,2897,0,0,222,0,28,541,0,0,0,0,0,0,0,0,0,0],"split_type":[0,0,0,0,0,0,0,0,0,0,0,0,0,0,0,0,0,0,0,0,0,0,0,0,0,0,0,0,0],"sum_hessian":[7.2E1,2E0,7E1,1.2E1,5.8E1,2E0,1E1,4.3E1,1.5E1,8E0,2E0,2.5E1,1.8E1,4E0,1.1E1,1.8E1,7E0,7E0,1.1E1,1E0,3E0,6E0,1.2E1,1E0,6E0,2E0,5E0,5E0,6E0],"tree_param":{"num_deleted":"0","num_feature":"6670","num_nodes":"29","size_leaf_vector":"0"}},{"base_weights":[-5.2374862E-2,-2.6503326E-2,-3.891876E-2,-1.4314891E-1,-1.5293151E-2,9.592116E-4,-1.7266403E-1,1.0943547E-2,-8.648825E-2,-9.625939E-3,-1.8604795E-2,-3.0429192E-2,6.6982895E-2,-1.3156691E-2,-1.09835714E-1,-5.5570833E-2,3.308585E-2,4.062106E-3,1.0334819E-1,6.753825E-4,-1.571131E-3,-9.132996E-3,-4.163796E-3,-7.31539E-4,-5.697513E-3,-2.286304E-4,2.901253E-3,-1.9936664E-3,2.0823858E-3,4.435806E-3,9.4855055E-3],"categories":[],"categories_nodes":[],"categories_segments":[],"categories_sizes":[],"default_left":[0,0,0,0,0,0,0,0,0,0,0,0,0,0,0,0,0,0,0,0,0,0,0,0,0,0,0,0,0,0,0],"id":34,"left_children":[1,-1,3,5,7,-1,9,11,13,-1,-1,15,17,19,21,23,25,27,29,-1,-1,-1,-1,-1,-1,-1,-1,-1,-1,-1,-1],"loss_changes":[2.8192067E-1,0E0,1.7264837E-1,6.2041312E-2,1.1115402E-1,0E0,4.9194694E-3,1.04052305E-1,2.5948614E-2,0E0,0E0,4.3357283E-2,4.3054722E-2,1.0520351E-3,1.0206252E-3,1.701421E-2,1.7360207E-3,6.548967E-3,4.7865957E-3,0E0,0E0,0E0,0E0,0E0,0E0,0E0,0E0,0E0,0E0,0E0,0E0],"parents":[2147483647,0,0,2,2,3,3,4,4,6,6,7,7,8,8,11,11,12,12,13,13,14,14,15,15,16,16,17,17,18,18],"right_children":[2,-1,4,6,8,-1,10,12,14,-1,-1,16,18,20,22,24,26,28,30,-1,-1,-1,-1,-1,-1,-1,-1,-1,-1,-1,-1],"split_conditions":[-3.387E-2,-2.6503326E-2,5.246E-2,3.456E-1,4.2142E-1,9.592116E-4,2.8419E-1,3.3816E-1,4.0419E-1,-9.625939E-3,-1.8604795E-2,3.8194E-1,3.0202E-1,6.3618E-1,6.7846E-1,2.741E-2,7.4472E-1,2.7569E-1,5.8687E-1,6.753825E-4,-1.571131E-3,-9.132996E-3,-4.163796E-3,-7.31539E-4,-5.697513E-3,-2.286304E-4,2.901253E-3,-1.9936664E-3,2.0823858E-3,4.435806E-3,9.4855055E-3],"split_indices":[4447,0,2902,6,2948,0,20,2569,1660,0,0,6283,2897,0,16,222,0,15,541,0,0,0,0,0,0,0,0,0,0,0,0],"split_type":[0,0,0,0,0,0,0,0,0,0,0,0,0,0,0,0,0,0,0,0,0,0,0,0,0,0,0,0,0,0,0],"sum_hessian":[7.2E1,2E0,7E1,1.2E1,5.8E1,2E0,1E1,4.3E1,1.5E1,8E0,2E0,2.5E1,1.8E1,4E0,1.1E1,1.8E1,7E0,7E0,1.1E1,1E0,3E0,8E0,3E0,6E0,1.2E1,1E0,6E0,3E0,4E0,5E0,6E0],"tree_param":{"num_deleted":"0","num_feature":"6670","num_nodes":"31","size_leaf_vector":"0"}},{"base_weights":[-4.923735E-2,-2.5178159E-2,-3.6439437E-2,-1.3451058E-1,-1.4212924E-2,9.112507E-4,-1.6228068E-1,1.0355824E-2,-8.088867E-2,-8.984212E-3,-1.7674556E-2,-2.8291479E-2,6.269656E-2,-1.2349093E-2,-1.02706105E-1,-6.3747466E-2,1.2068161E-2,3.768534E-3,9.67572E-2,6.500557E-4,-1.977007E-2,-8.786902E-3,-4.428057E-3,-1.7744722E-3,-5.8062486E-3,-1.8315637E-3,2.3249194E-3,-2.4790815E-3,1.6163943E-3,9.273956E-3,4.4911075E-3,-4.4731426E-4,-1.6787976E-3],"categories":[],"categories_nodes":[],"categories_segments":[],"categories_sizes":[],"default_left":[0,0,0,0,0,0,0,0,0,0,0,0,0,0,0,0,0,0,0,0,0,0,0,0,0,0,0,0,0,0,0,0,0],"id":35,"left_children":[1,-1,3,5,7,-1,9,11,13,-1,-1,15,17,19,21,23,25,27,29,-1,31,-1,-1,-1,-1,-1,-1,-1,-1,-1,-1,-1,-1],"loss_changes":[2.554022E-1,0E0,1.5285255E-1,5.4917842E-2,9.748791E-2,0E0,6.0684085E-3,9.0778224E-2,2.2657402E-2,0E0,0E0,3.797508E-2,3.7770778E-2,9.5117034E-4,6.557852E-4,5.839899E-3,9.736963E-3,5.9510814E-3,4.4970065E-3,0E0,1.08464155E-5,0E0,0E0,0E0,0E0,0E0,0E0,0E0,0E0,0E0,0E0,0E0,0E0],"parents":[2147483647,0,0,2,2,3,3,4,4,6,6,7,7,8,8,11,11,12,12,13,13,14,14,15,15,16,16,17,17,18,18,20,20],"right_children":[2,-1,4,6,8,-1,10,12,14,-1,-1,16,18,20,22,24,26,28,30,-1,32,-1,-1,-1,-1,-1,-1,-1,-1,-1,-1,-1,-1],"split_conditions":[-3.387E-2,-2.5178159E-2,5.246E-2,3.456E-1,4.2142E-1,9.112507E-4,2.8419E-1,3.3816E-1,4.0419E-1,-8.984212E-3,-1.7674556E-2,4.144E-2,3.0202E-1,6.3618E-1,6.2906E-1,7.063E-2,2.5656E-1,-4.406E-2,2.8803E-1,6.500557E-4,5.79E-1,-8.786902E-3,-4.428057E-3,-1.7744722E-3,-5.8062486E-3,-1.8315637E-3,2.3249194E-3,-2.4790815E-3,1.6163943E-3,9.273956E-3,4.4911075E-3,-4.4731426E-4,-1.6787976E-3],"split_indices":[4447,0,2902,6,2948,0,20,2569,1660,0,0,6284,2897,0,16,2183,570,28,33,0,2,0,0,0,0,0,0,0,0,0,0,0,0],"split_type":[0,0,0,0,0,0,0,0,0,0,0,0,0,0,0,0,0,0,0,0,0,0,0,0,0,0,0,0,0,0,0,0,0],"sum_hessian":[7.2E1,2E0,7E1,1.2E1,5.8E1,2E0,1E1,4.3E1,1.5E1,8E0,2E0,2.5E1,1.8E1,4E0,1.1E1,1.3E1,1.2E1,7E0,1.1E1,1E0,3E0,7E0,4E0,4E0,9E0,4E0,8E0,2E0,5E0,5E0,6E0,1E0,2E0],"tree_param":{"num_deleted":"0","num_feature":"6670","num_nodes":"33","size_leaf_vector":"0"}},{"base_weights":[-4.636375E-2,-2.391925E-2,-3.4194138E-2,-1.2640287E-1,-1.32973995E-2,8.6568895E-4,-1.5253316E-1,9.711288E-3,-7.57402E-2,-8.385264E-3,-1.679083E-2,-2.6442217E-2,5.8673386E-2,-1.1718122E-2,-9.610439E-2,-4.8573032E-2,2.9423751E-2,3.3780532E-3,9.064749E-2,6.256789E-4,-1.8818846E-2,-7.97466E-3,-3.680504E-3,-6.1447406E-4,-4.993481E-3,2.867386E-4,2.799006E-3,-1.8188645E-3,1.860458E-3,8.69433E-3,4.2023943E-3,-4.3054039E-4,-1.5948578E-3],"categories":[],"categories_nodes":[],"categories_segments":[],"categories_sizes":[],"default_left":[0,0,0,0,0,0,0,0,0,0,0,0,0,0,0,0,0,0,0,0,0,0,0,0,0,0,0,0,0,0,0,0,0],"id":36,"left_children":[1,-1,3,5,7,-1,9,11,13,-1,-1,15,17,19,21,23,25,27,29,-1,31,-1,-1,-1,-1,-1,-1,-1,-1,-1,-1,-1,-1],"loss_changes":[2.3123161E-1,0E0,1.3512635E-1,4.861982E-2,8.550243E-2,0E0,6.9338977E-3,7.943811E-2,1.973395E-2,0E0,0E0,3.3574544E-2,3.3286147E-2,8.692147E-4,5.5246055E-4,1.32696405E-2,1.474522E-3,5.3379703E-3,4.004225E-3,0E0,5.8830483E-6,0E0,0E0,0E0,0E0,0E0,0E0,0E0,0E0,0E0,0E0,0E0,0E0],"parents":[2147483647,0,0,2,2,3,3,4,4,6,6,7,7,8,8,11,11,12,12,13,13,14,14,15,15,16,16,17,17,18,18,20,20],"right_children":[2,-1,4,6,8,-1,10,12,14,-1,-1,16,18,20,22,24,26,28,30,-1,32,-1,-1,-1,-1,-1,-1,-1,-1,-1,-1,-1,-1],"split_conditions":[-3.387E-2,-2.391925E-2,5.246E-2,3.456E-1,4.2142E-1,8.6568895E-4,2.8419E-1,3.3816E-1,4.0419E-1,-8.385264E-3,-1.679083E-2,3.8194E-1,3.0202E-1,6.3618E-1,6.7846E-1,2.741E-2,7.4685E-1,2.7569E-1,2.8803E-1,6.256789E-4,5.79E-1,-7.97466E-3,-3.680504E-3,-6.1447406E-4,-4.993481E-3,2.867386E-4,2.799006E-3,-1.8188645E-3,1.860458E-3,8.69433E-3,4.2023943E-3,-4.3054039E-4,-1.5948578E-3],"split_indices":[4447,0,2902,6,2948,0,20,2569,1660,0,0,6283,2897,0,16,222,0,15,33,0,2,0,0,0,0,0,0,0,0,0,0,0,0],"split_type":[0,0,0,0,0,0,0,0,0,0,0,0,0,0,0,0,0,0,0,0,0,0,0,0,0,0,0,0,0,0,0,0,0],"sum_hessian":[7.2E1,2E0,7E1,1.2E1,5.8E1,2E0,1E1,4.3E1,1.5E1,8E0,2E0,2.5E1,1.8E1,4E0,1.1E1,1.8E1,7E0,7E0,1.1E1,1E0,3E0,8E0,3E0,6E0,1.2E1,2E0,5E0,3E0,4E0,5E0,6E0,1E0,2E0],"tree_param":{"num_deleted":"0","num_feature":"6670","num_nodes":"33","size_leaf_vector":"0"}},{"base_weights":[-4.3583293E-2,-2.272329E-2,-3.200914E-2,-1.18792675E-1,-1.2344815E-2,8.224041E-4,-1.4338191E-1,9.219674E-3,-7.087561E-2,-6.333778E-3,-1.3381234E-2,-2.4556067E-2,5.4953866E-2,-1.11192E-2,-8.9867815E-2,-5.580945E-2,1.099035E-2,3.1299004E-3,8.4923685E-2,6.022163E-4,-1.7913776E-2,-7.6869223E-3,-3.877131E-3,-2.3071298E-3,-5.734698E-3,-1.5669496E-3,2.0611489E-3,-2.2641844E-3,1.4450822E-3,8.150937E-3,3.9322423E-3,-4.143946E-4,-1.5151146E-3],"categories":[],"categories_nodes":[],"categories_segments":[],"categories_sizes":[],"default_left":[0,0,0,0,0,0,0,0,0,0,0,0,0,0,0,0,0,0,0,0,0,0,0,0,0,0,0,0,0,0,0,0,0],"id":37,"left_children":[1,-1,3,5,7,-1,9,11,13,-1,-1,15,17,19,21,23,25,27,29,-1,31,-1,-1,-1,-1,-1,-1,-1,-1,-1,-1,-1,-1],"loss_changes":[2.0946725E-1,0E0,1.1969784E-1,4.305069E-2,7.512246E-2,0E0,7.6436847E-3,6.931653E-2,1.7159238E-2,0E0,0E0,2.9497951E-2,2.924414E-2,7.9437764E-4,4.8458576E-4,4.890293E-3,7.4096103E-3,4.8832595E-3,3.5648197E-3,0E0,1.7486745E-6,0E0,0E0,0E0,0E0,0E0,0E0,0E0,0E0,0E0,0E0,0E0,0E0],"parents":[2147483647,0,0,2,2,3,3,4,4,6,6,7,7,8,8,11,11,12,12,13,13,14,14,15,15,16,16,17,17,18,18,20,20],"right_children":[2,-1,4,6,8,-1,10,12,14,-1,-1,16,18,20,22,24,26,28,30,-1,32,-1,-1,-1,-1,-1,-1,-1,-1,-1,-1,-1,-1],"split_conditions":[-3.387E-2,-2.272329E-2,5.246E-2,3.456E-1,4.2142E-1,8.224041E-4,4.7626E-1,3.3816E-1,4.0419E-1,-6.333778E-3,-1.3381234E-2,4.144E-2,3.0202E-1,6.3618E-1,6.2906E-1,2.907E-1,2.5656E-1,-4.406E-2,2.8803E-1,6.022163E-4,5.79E-1,-7.6869223E-3,-3.877131E-3,-2.3071298E-3,-5.734698E-3,-1.5669496E-3,2.0611489E-3,-2.2641844E-3,1.4450822E-3,8.150937E-3,3.9322423E-3,-4.143946E-4,-1.5151146E-3],"split_indices":[4447,0,2902,6,2948,0,6,2569,1660,0,0,6284,2897,0,16,2287,570,28,33,0,2,0,0,0,0,0,0,0,0,0,0,0,0],"split_type":[0,0,0,0,0,0,0,0,0,0,0,0,0,0,0,0,0,0,0,0,0,0,0,0,0,0,0,0,0,0,0,0,0],"sum_hessian":[7.2E1,2E0,7E1,1.2E1,5.8E1,2E0,1E1,4.3E1,1.5E1,5E0,5E0,2.5E1,1.8E1,4E0,1.1E1,1.3E1,1.2E1,7E0,1.1E1,1E0,3E0,7E0,4E0,7E0,6E0,4E0,8E0,2E0,5E0,5E0,6E0,1E0,2E0],"tree_param":{"num_deleted":"0","num_feature":"6670","num_nodes":"33","size_leaf_vector":"0"}},{"base_weights":[-4.101031E-2,-2.1587122E-2,-3.000377E-2,-1.1133651E-1,-1.1574458E-2,7.8128284E-4,-1.3442053E-1,8.612668E-3,-6.636565E-2,-7.2278087E-3,-1.5282223E-2,-2.3004653E-2,5.1425178E-2,-1.05507225E-2,-8.40914E-2,-4.2533815E-2,2.625269E-2,2.7927835E-3,7.9561345E-2,5.796321E-4,-1.2789463E-3,-7.182468E-3,-3.6445037E-3,-5.2819384E-4,-4.3779486E-3,2.600469E-4,2.4952458E-3,-2.1509752E-3,1.354766E-3,8.045789E-3,3.9220336E-3],"categories":[],"categories_nodes":[],"categories_segments":[],"categories_sizes":[],"default_left":[0,0,0,0,0,0,0,0,0,0,0,0,0,0,0,0,0,0,0,0,0,0,0,0,0,0,0,0,0,0,0],"id":38,"left_children":[1,-1,3,5,7,-1,9,11,13,-1,-1,15,17,19,21,23,25,27,29,-1,-1,-1,-1,-1,-1,-1,-1,-1,-1,-1,-1],"loss_changes":[1.896767E-1,0E0,1.0513368E-1,3.793761E-2,6.583011E-2,0E0,9.386286E-3,6.074216E-2,1.4942557E-2,0E0,0E0,2.6127452E-2,2.5776055E-2,7.2603533E-4,3.196001E-4,1.026956E-2,1.16377E-3,4.3629226E-3,3.4589916E-3,0E0,0E0,0E0,0E0,0E0,0E0,0E0,0E0,0E0,0E0,0E0,0E0],"parents":[2147483647,0,0,2,2,3,3,4,4,6,6,7,7,8,8,11,11,12,12,13,13,14,14,15,15,16,16,17,17,18,18],"right_children":[2,-1,4,6,8,-1,10,12,14,-1,-1,16,18,20,22,24,26,28,30,-1,-1,-1,-1,-1,-1,-1,-1,-1,-1,-1,-1],"split_conditions":[-3.387E-2,-2.1587122E-2,5.246E-2,3.456E-1,4.2142E-1,7.8128284E-4,2.8419E-1,3.3816E-1,4.0419E-1,-7.2278087E-3,-1.5282223E-2,3.8194E-1,3.0202E-1,6.3618E-1,6.2906E-1,2.741E-2,7.4685E-1,-4.406E-2,5.8338E-1,5.796321E-4,-1.2789463E-3,-7.182468E-3,-3.6445037E-3,-5.2819384E-4,-4.3779486E-3,2.600469E-4,2.4952458E-3,-2.1509752E-3,1.354766E-3,8.045789E-3,3.9220336E-3],"split_indices":[4447,0,2902,6,2948,0,20,2569,1660,0,0,6283,2897,0,16,222,0,28,356,0,0,0,0,0,0,0,0,0,0,0,0],"split_type":[0,0,0,0,0,0,0,0,0,0,0,0,0,0,0,0,0,0,0,0,0,0,0,0,0,0,0,0,0,0,0],"sum_hessian":[7.2E1,2E0,7E1,1.2E1,5.8E1,2E0,1E1,4.3E1,1.5E1,8E0,2E0,2.5E1,1.8E1,4E0,1.1E1,1.8E1,7E0,7E0,1.1E1,1E0,3E0,7E0,4E0,6E0,1.2E1,2E0,5E0,2E0,5E0,4E0,7E0],"tree_param":{"num_deleted":"0","num_feature":"6670","num_nodes":"31","size_leaf_vector":"0"}},{"base_weights":[-3.856222E-2,-2.0507766E-2,-2.8094808E-2,-1.0133136E-1,-9.932625E-3,-3.6033615E-2,-1.09350355E-2,9.712689E-3,-6.2108617E-2,7.4221793E-4,-4.2288606E-3,-2.136203E-2,5.40588E-2,-9.899289E-3,-7.868679E-2,-4.8957866E-2,9.999795E-3,1.3665536E-2,7.852128E-2,5.5789505E-4,-1.609341E-2,-6.711118E-3,-3.425833E-3,-1.2141543E-3,-4.533499E-3,-1.3375721E-3,1.8264068E-3,-6.857512E-4,1.7094293E-3,3.8521222E-3,7.563041E-3,-3.508944E-4,-1.3754115E-3],"categories":[],"categories_nodes":[],"categories_segments":[],"categories_sizes":[],"default_left":[0,0,0,0,0,0,0,0,0,0,0,0,0,0,0,0,0,0,0,0,0,0,0,0,0,0,0,0,0,0,0,0,0],"id":39,"left_children":[1,-1,3,5,7,9,-1,11,13,-1,-1,15,17,19,21,23,25,27,29,-1,31,-1,-1,-1,-1,-1,-1,-1,-1,-1,-1,-1,-1],"loss_changes":[1.717905E-1,0E0,9.343313E-2,3.5398543E-2,6.0054038E-2,7.1010888E-3,0E0,6.0410656E-2,1.3069622E-2,0E0,0E0,2.2991419E-2,1.6713116E-2,6.566775E-4,1.8858165E-4,4.292134E-3,5.627583E-3,1.8737853E-3,1.4886931E-3,0E0,1.6723876E-5,0E0,0E0,0E0,0E0,0E0,0E0,0E0,0E0,0E0,0E0,0E0,0E0],"parents":[2147483647,0,0,2,2,3,3,4,4,5,5,7,7,8,8,11,11,12,12,13,13,14,14,15,15,16,16,17,17,18,18,20,20],"right_children":[2,-1,4,6,8,10,-1,12,14,-1,-1,16,18,20,22,24,26,28,30,-1,32,-1,-1,-1,-1,-1,-1,-1,-1,-1,-1,-1,-1],"split_conditions":[-3.387E-2,-2.0507766E-2,6.091E-2,1.716E-1,4.2142E-1,5.4779E-1,-1.09350355E-2,3.3816E-1,4.0419E-1,7.4221793E-4,-4.2288606E-3,4.144E-2,3.5256E-1,6.3618E-1,6.2906E-1,7.063E-2,2.5656E-1,2.7569E-1,4.8179E-1,5.5789505E-4,5.79E-1,-6.711118E-3,-3.425833E-3,-1.2141543E-3,-4.533499E-3,-1.3375721E-3,1.8264068E-3,-6.857512E-4,1.7094293E-3,3.8521222E-3,7.563041E-3,-3.508944E-4,-1.3754115E-3],"split_indices":[4447,0,2902,210,2948,5,0,2569,1660,0,0,6284,2883,0,16,2183,570,15,155,0,2,0,0,0,0,0,0,0,0,0,0,0,0],"split_type":[0,0,0,0,0,0,0,0,0,0,0,0,0,0,0,0,0,0,0,0,0,0,0,0,0,0,0,0,0,0,0,0,0],"sum_hessian":[7.2E1,2E0,7E1,1.3E1,5.7E1,6E0,7E0,4.2E1,1.5E1,2E0,4E0,2.5E1,1.7E1,4E0,1.1E1,1.3E1,1.2E1,7E0,1E1,1E0,3E0,7E0,4E0,4E0,9E0,4E0,8E0,2E0,5E0,6E0,4E0,1E0,2E0],"tree_param":{"num_deleted":"0","num_feature":"6670","num_nodes":"33","size_leaf_vector":"0"}},{"base_weights":[-3.6205042E-2,-1.9482376E-2,-2.6248917E-2,-1.39189E-2,-1.21607944E-1,-3.272094E-2,4.968249E-2,-1.3971356E-2,-5.175117E-3,-5.8661774E-2,-2.1741274E-3,6.802556E-2,-1.7767338E-2,-6.7970273E-3,-7.31566E-2,-4.449809E-3,1.2223744E-2,7.4211764E-3,3.5042556E-3,4.1519257E-4,-2.053529E-3,-1.1413053E-3,7.126957E-4,-2.7774798E-3,-6.1597987E-3,2.5772683E-3,-1.7557925E-4],"categories":[],"categories_nodes":[],"categories_segments":[],"categories_sizes":[],"default_left":[0,0,0,0,0,0,0,0,0,0,0,0,0,0,0,0,0,0,0,0,0,0,0,0,0,0,0],"id":40,"left_children":[1,-1,3,5,7,9,11,-1,-1,13,15,17,19,21,23,-1,25,-1,-1,-1,-1,-1,-1,-1,-1,-1,-1],"loss_changes":[1.5566416E-1,0E0,8.178762E-2,7.815915E-2,1.436536E-2,3.9492946E-2,1.976718E-2,0E0,0E0,1.9800574E-2,2.0475665E-2,3.2816045E-3,1.0476355E-3,1.1053487E-3,3.7661046E-3,0E0,6.5296916E-3,0E0,0E0,0E0,0E0,0E0,0E0,0E0,0E0,0E0,0E0],"parents":[2147483647,0,0,2,2,3,3,4,4,5,5,6,6,9,9,10,10,11,11,12,12,13,13,14,14,16,16],"right_children":[2,-1,4,6,8,10,12,-1,-1,14,16,18,20,22,24,-1,26,-1,-1,-1,-1,-1,-1,-1,-1,-1,-1],"split_conditions":[-3.387E-2,-1.9482376E-2,6.2261E-1,5.199E-1,6.5725E-1,3.8642E-1,3.5464E-1,-1.3971356E-2,-5.175117E-3,-8.652E-2,2.4353E-1,4.07E-1,7.4685E-1,6.0227E-1,2.735E-1,-4.449809E-3,2.3178E-1,7.4211764E-3,3.5042556E-3,4.1519257E-4,-2.053529E-3,-1.1413053E-3,7.126957E-4,-2.7774798E-3,-6.1597987E-3,2.5772683E-3,-1.7557925E-4],"split_indices":[4447,0,652,3563,2,3568,40,0,0,2554,609,748,0,8,3560,0,2227,0,0,0,0,0,0,0,0,0,0],"split_type":[0,0,0,0,0,0,0,0,0,0,0,0,0,0,0,0,0,0,0,0,0,0,0,0,0,0,0],"sum_hessian":[7.2E1,2E0,7E1,6.3E1,7E0,4.9E1,1.4E1,2E0,5E0,2.6E1,2.3E1,1.1E1,3E0,6E0,2E1,4E0,1.9E1,3E0,8E0,1E0,2E0,4E0,2E0,5E0,1.5E1,7E0,1.2E1],"tree_param":{"num_deleted":"0","num_feature":"6670","num_nodes":"27","size_leaf_vector":"0"}},{"base_weights":[-3.404797E-2,-1.8508257E-2,-2.457988E-2,-1.2908222E-2,-1.14880666E-1,-3.0495156E-2,4.657544E-2,-1.327279E-2,-4.851672E-3,-8.018247E-2,-1.6068766E-2,6.383409E-2,-1.6844375E-2,-2.1070363E-3,-6.6477144E-3,1.8243039E-3,-4.038435E-2,7.0037376E-3,3.2706372E-3,3.9962234E-4,-1.9508525E-3,-1.7106886E-3,1.5786657E-3,1.500705E-4,-4.018492E-3],"categories":[],"categories_nodes":[],"categories_segments":[],"categories_sizes":[],"default_left":[0,0,0,0,0,0,0,0,0,0,0,0,0,0,0,0,0,0,0,0,0,0,0,0,0],"id":41,"left_children":[1,-1,3,5,7,9,11,-1,-1,13,15,17,19,-1,-1,21,23,-1,-1,-1,-1,-1,-1,-1,-1],"loss_changes":[1.409661E-1,0E0,7.3348254E-2,6.837298E-2,1.3483122E-2,3.4552E-2,1.7493352E-2,0E0,0E0,2.3536459E-3,1.7476888E-2,3.0994713E-3,9.5162296E-4,0E0,0E0,1.1845743E-2,9.615261E-3,0E0,0E0,0E0,0E0,0E0,0E0,0E0,0E0],"parents":[2147483647,0,0,2,2,3,3,4,4,5,5,6,6,9,9,10,10,11,11,12,12,15,15,16,16],"right_children":[2,-1,4,6,8,10,12,-1,-1,14,16,18,20,-1,-1,22,24,-1,-1,-1,-1,-1,-1,-1,-1],"split_conditions":[-3.387E-2,-1.8508257E-2,6.2261E-1,5.199E-1,6.5725E-1,3.9447E-1,3.5464E-1,-1.327279E-2,-4.851672E-3,3.4102E-1,3.4999E-1,4.07E-1,7.4685E-1,-2.1070363E-3,-6.6477144E-3,1.2276E-1,-3.494E-2,7.0037376E-3,3.2706372E-3,3.9962234E-4,-1.9508525E-3,-1.7106886E-3,1.5786657E-3,1.500705E-4,-4.018492E-3],"split_indices":[4447,0,652,3563,2,6383,40,0,0,1,6053,748,0,0,0,3812,2787,0,0,0,0,0,0,0,0],"split_type":[0,0,0,0,0,0,0,0,0,0,0,0,0,0,0,0,0,0,0,0,0,0,0,0,0],"sum_hessian":[7.2E1,2E0,7E1,6.3E1,7E0,4.9E1,1.4E1,2E0,5E0,1E1,3.9E1,1.1E1,3E0,2E0,8E0,2.3E1,1.6E1,3E0,8E0,1E0,2E0,1E1,1.3E1,4E0,1.2E1],"tree_param":{"num_deleted":"0","num_feature":"6670","num_nodes":"25","size_leaf_vector":"0"}},{"base_weights":[-3.205143E-2,-1.740864E-1,-1.9047584E-2,-4.2602226E-2,-2.1852737E-2,-8.3630644E-2,-7.778464E-3,-5.2807527E-3,1.5307949E-3,-8.483673E-3,-2.364188E-3,6.25175E-2,-1.6916072E-2,6.4354916E-3,2.3599073E-2,-2.5643336E-2,4.409784E-2,3.7851112E-4,2.1075667E-3,-1.3006088E-2,-6.141813E-2,3.6130908E-3,7.364117E-4,-3.0233827E-3,1.7448071E-4,-5.095391E-3,-2.3544498E-3],"categories":[],"categories_nodes":[],"categories_segments":[],"categories_sizes":[],"default_left":[0,0,0,0,0,0,0,0,0,0,0,0,0,0,0,0,0,0,0,0,0,0,0,0,0,0,0],"id":42,"left_children":[1,3,5,7,-1,9,11,-1,-1,-1,-1,13,15,-1,17,19,21,-1,-1,23,25,-1,-1,-1,-1,-1,-1],"loss_changes":[1.315151E-1,8.011247E-2,4.8839495E-2,8.446105E-3,0E0,1.1798397E-2,3.8955435E-2,0E0,0E0,0E0,0E0,4.3196566E-3,2.935249E-2,0E0,1.9225571E-4,2.044965E-2,5.051987E-4,0E0,0E0,1.5165696E-2,2.1657348E-4,0E0,0E0,0E0,0E0,0E0,0E0],"parents":[2147483647,0,0,1,1,2,2,3,3,5,5,6,6,11,11,12,12,14,14,15,15,16,16,19,19,20,20],"right_children":[2,4,6,8,-1,10,12,-1,-1,-1,-1,14,16,-1,18,20,22,-1,-1,24,26,-1,-1,-1,-1,-1,-1],"split_conditions":[2.6974E-1,5.151E-1,2.6799E-1,5.6966E-1,-2.1852737E-2,2.3846E-1,8.29E-3,-5.2807527E-3,1.5307949E-3,-8.483673E-3,-2.364188E-3,7.6345E-1,5.8584E-1,6.4354916E-3,8.0529E-1,3.5923E-1,7.2868E-1,3.7851112E-4,2.1075667E-3,1.1169E-1,5.2483E-1,3.6130908E-3,7.364117E-4,-3.0233827E-3,1.7448071E-4,-5.095391E-3,-2.3544498E-3],"split_indices":[6325,2,2369,0,0,3,5868,0,0,0,0,17,556,0,0,3171,1,0,0,3903,2093,0,0,0,0,0,0],"split_type":[0,0,0,0,0,0,0,0,0,0,0,0,0,0,0,0,0,0,0,0,0,0,0,0,0,0,0],"sum_hessian":[7.2E1,5E0,6.7E1,3E0,2E0,9E0,5.8E1,2E0,1E0,5E0,4E0,6E0,5.2E1,3E0,3E0,4.6E1,6E0,1E0,2E0,3.5E1,1.1E1,5E0,1E0,1.2E1,2.3E1,8E0,3E0],"tree_param":{"num_deleted":"0","num_feature":"6670","num_nodes":"27","size_leaf_vector":"0"}},{"base_weights":[-3.0106187E-2,-1.6529705E-1,-1.7734844E-2,-4.034455E-2,-2.0760102E-2,9.618912E-3,-4.0912826E-2,-5.016716E-3,1.4733911E-3,-2.2523E-2,4.3168515E-2,-8.825654E-2,-2.2543186E-2,8.4496936E-4,-4.2019896E-3,8.990198E-3,6.277648E-2,-7.5943805E-3,-3.2579352E-3,1.3032268E-2,-3.742498E-2,-1.1427798E-2,1.785785E-2,-1.6652105E-3,1.3417125E-3,3.3442443E-3,6.7761363E-3,2.472517E-3,2.6271045E-3,-8.819134E-3,-4.637232E-2,-1.4306166E-3,-6.928202E-5,1.4920146E-3,3.6431776E-4,5.3596706E-4,-4.3353514E-4,2.260536E-4,-1.1616929E-3,-4.040891E-3,-2.2572635E-3],"categories":[],"categories_nodes":[],"categories_segments":[],"categories_sizes":[],"default_left":[0,0,0,0,0,0,0,0,0,0,0,0,0,0,0,0,0,0,0,0,0,0,0,0,0,0,0,0,0,0,0,0,0,0,0,0,0,0,0,0,0],"id":43,"left_children":[1,3,5,7,-1,9,11,-1,-1,13,15,17,19,21,-1,23,25,-1,-1,27,29,31,33,-1,-1,-1,-1,-1,35,37,39,-1,-1,-1,-1,-1,-1,-1,-1,-1,-1],"loss_changes":[1.1916043E-1,7.242903E-2,4.3505862E-2,7.683771E-3,0E0,3.547943E-2,3.0188844E-2,0E0,0E0,1.3356799E-2,1.0158306E-2,1.4285222E-3,1.5311675E-2,2.5008223E-3,0E0,2.3403687E-3,9.857677E-4,0E0,0E0,1.7801996E-3,4.709961E-3,5.446565E-4,3.56877E-5,0E0,0E0,0E0,0E0,0E0,3.0727254E-4,5.202566E-4,2.1093711E-4,0E0,0E0,0E0,0E0,0E0,0E0,0E0,0E0,0E0,0E0],"parents":[2147483647,0,0,1,1,2,2,3,3,5,5,6,6,9,9,10,10,11,11,12,12,13,13,15,15,16,16,19,19,20,20,21,21,22,22,28,28,29,29,30,30],"right_children":[2,4,6,8,-1,10,12,-1,-1,14,16,18,20,22,-1,24,26,-1,-1,28,30,32,34,-1,-1,-1,-1,-1,36,38,40,-1,-1,-1,-1,-1,-1,-1,-1,-1,-1],"split_conditions":[2.6974E-1,5.151E-1,3.389E-2,5.6966E-1,-2.0760102E-2,2.291E-1,1.8895E-1,-5.016716E-3,1.4733911E-3,3.2722E-1,3.3923E-1,2.3846E-1,6.473E-2,4.1936E-1,-4.2019896E-3,6.9389E-1,3.8812E-1,-7.5943805E-3,-3.2579352E-3,4.4919E-1,5.5281E-1,3.8966E-1,5.7788E-1,-1.6652105E-3,1.3417125E-3,3.3442443E-3,6.7761363E-3,2.472517E-3,6.9494E-1,4.1499E-1,2.5849E-1,-1.4306166E-3,-6.928202E-5,1.4920146E-3,3.6431776E-4,5.3596706E-4,-4.3353514E-4,2.260536E-4,-1.1616929E-3,-4.040891E-3,-2.2572635E-3],"split_indices":[6325,2,4247,0,0,6167,1919,0,0,1191,2670,3,3588,328,0,0,38,0,0,9,1732,12,6,0,0,0,0,0,1,1,6659,0,0,0,0,0,0,0,0,0,0],"split_type":[0,0,0,0,0,0,0,0,0,0,0,0,0,0,0,0,0,0,0,0,0,0,0,0,0,0,0,0,0,0,0,0,0,0,0,0,0,0,0,0,0],"sum_hessian":[7.2E1,5E0,6.7E1,3E0,2E0,3.1E1,3.6E1,2E0,1E0,1.6E1,1.5E1,9E0,2.7E1,1E1,6E0,6E0,9E0,6E0,3E0,8E0,1.9E1,6E0,4E0,1E0,5E0,7E0,2E0,2E0,6E0,5E0,1.4E1,3E0,3E0,3E0,1E0,4E0,2E0,2E0,3E0,8E0,6E0],"tree_param":{"num_deleted":"0","num_feature":"6670","num_nodes":"41","size_leaf_vector":"0"}},{"base_weights":[-2.831211E-2,-1.611557E-2,-2.0030439E-2,-1.01881675E-1,-1.090753E-2,-2.843506E-3,-1.0528464E-2,7.679586E-3,-4.0954098E-2,-1.2058617E-2,4.269638E-2,4.506073E-3,-5.5547103E-2,-3.606354E-2,9.549558E-3,1.308235E-2,5.023002E-3,-1.2470253E-2,1.5266911E-3,-5.113441E-3,-2.224166E-3,-3.2624719E-3,-6.3430885E-4,1.4313122E-3,-1.000236E-3,-4.505766E-4,1.5335233E-3,-1.6027653E-3,-1.7851518E-4],"categories":[],"categories_nodes":[],"categories_segments":[],"categories_sizes":[],"default_left":[0,0,0,0,0,0,0,0,0,0,0,0,0,0,0,0,0,0,0,0,0,0,0,0,0,0,0,0,0],"id":44,"left_children":[1,-1,3,5,7,-1,-1,9,11,13,15,17,19,21,23,25,-1,27,-1,-1,-1,-1,-1,-1,-1,-1,-1,-1,-1],"loss_changes":[1.0848434E-1,0E0,5.1905937E-2,1.191622E-2,3.6615647E-2,0E0,0E0,2.885277E-2,1.683531E-2,1.4349362E-2,9.907918E-3,2.1373434E-3,4.192341E-3,2.300758E-3,3.5276546E-3,1.247567E-3,0E0,3.0833838E-4,0E0,0E0,0E0,0E0,0E0,0E0,0E0,0E0,0E0,0E0,0E0],"parents":[2147483647,0,0,2,2,3,3,4,4,7,7,8,8,9,9,10,10,11,11,12,12,13,13,14,14,15,15,17,17],"right_children":[2,-1,4,6,8,-1,-1,10,12,14,16,18,20,22,24,26,-1,28,-1,-1,-1,-1,-1,-1,-1,-1,-1,-1,-1],"split_conditions":[-3.387E-2,-1.611557E-2,1.5739E-1,4.2355E-1,3.8127E-1,-2.843506E-3,-1.0528464E-2,2.7016E-1,3.1447E-1,3.9422E-1,3.182E-1,2.8384E-1,3.7153E-1,6.5494E-1,5.3569E-1,3.2718E-1,5.023002E-3,6.9389E-1,1.5266911E-3,-5.113441E-3,-2.224166E-3,-3.2624719E-3,-6.3430885E-4,1.4313122E-3,-1.000236E-3,-4.505766E-4,1.5335233E-3,-1.6027653E-3,-1.7851518E-4],"split_indices":[4447,0,1573,2,3226,0,0,320,60,4390,2168,19,1139,1122,4110,15,0,0,0,0,0,0,0,0,0,0,0,0,0],"split_type":[0,0,0,0,0,0,0,0,0,0,0,0,0,0,0,0,0,0,0,0,0,0,0,0,0,0,0,0,0],"sum_hessian":[7.2E1,2E0,7E1,6E0,6.4E1,3E0,3E0,4E1,2.4E1,2.6E1,1.4E1,6E0,1.8E1,1.2E1,1.4E1,7E0,7E0,3E0,3E0,1.1E1,7E0,9E0,3E0,1E1,4E0,2E0,5E0,1E0,2E0],"tree_param":{"num_deleted":"0","num_feature":"6670","num_nodes":"29","size_leaf_vector":"0"}},{"base_weights":[-2.6660478E-2,-1.5046678E-1,-1.5344325E-2,-3.51402E-2,-1.9055998E-2,8.627305E-3,-3.5661835E-2,-4.4211075E-3,1.3606311E-3,-1.3556503E-2,4.6730027E-2,-7.7487245E-2,-1.9450553E-2,-3.7727285E-2,1.1846689E-2,3.133131E-2,6.1861817E-3,-6.6258735E-3,-2.9335802E-3,1.3877511E-2,-3.1220742E-2,-1.3324133E-2,-3.7326373E-3,2.0914398E-2,-9.250402E-3,7.610783E-4,2.6519056E-3,2.1849782E-3,3.936827E-3,-4.1691594E-2,-1.2627203E-2,-1.2432322E-3,-1.1810661E-5,2.411023E-3,8.8592846E-4,-3.397912E-5,-1.3365918E-3,4.610883E-4,-2.6693457E-4,-1.2927324E-3,-3.342828E-3,1.7653778E-4,-1.2932823E-3],"categories":[],"categories_nodes":[],"categories_segments":[],"categories_sizes":[],"default_left":[0,0,0,0,0,0,0,0,0,0,0,0,0,0,0,0,0,0,0,0,0,0,0,0,0,0,0,0,0,0,0,0,0,0,0,0,0,0,0,0,0,0,0],"id":45,"left_children":[1,3,5,7,-1,9,11,-1,-1,13,15,17,19,21,23,25,-1,-1,-1,27,29,31,-1,33,35,-1,-1,-1,37,39,41,-1,-1,-1,-1,-1,-1,-1,-1,-1,-1,-1,-1],"loss_changes":[9.996499E-2,6.27677E-2,3.3426646E-2,6.143546E-3,0E0,2.7681928E-2,2.3580436E-2,0E0,0E0,1.3341257E-2,4.022209E-3,7.108636E-4,1.1417041E-2,2.5691576E-3,2.2977917E-3,4.943451E-4,0E0,0E0,0E0,1.0985115E-3,3.5620462E-3,2.1149893E-4,0E0,4.3818075E-4,2.9352796E-4,0E0,0E0,0E0,1.21323035E-4,1.471769E-4,6.6303683E-4,0E0,0E0,0E0,0E0,0E0,0E0,0E0,0E0,0E0,0E0,0E0,0E0],"parents":[2147483647,0,0,1,1,2,2,3,3,5,5,6,6,9,9,10,10,11,11,12,12,13,13,14,14,15,15,19,19,20,20,21,21,23,23,24,24,28,28,29,29,30,30],"right_children":[2,4,6,8,-1,10,12,-1,-1,14,16,18,20,22,24,26,-1,-1,-1,28,30,32,-1,34,36,-1,-1,-1,38,40,42,-1,-1,-1,-1,-1,-1,-1,-1,-1,-1,-1,-1],"split_conditions":[2.6974E-1,5.151E-1,3.389E-2,5.6966E-1,-1.9055998E-2,3.1079E-1,1.8895E-1,-4.4211075E-3,1.3606311E-3,4.3147E-1,3.898E-1,2.3846E-1,1.0787E-1,4.5485E-1,5.766E-1,1.9297E-1,6.1861817E-3,-6.6258735E-3,-2.9335802E-3,1.4122E-1,3.9419E-1,4.9257E-1,-3.7326373E-3,2.4129E-1,4.3806E-1,7.610783E-4,2.6519056E-3,2.1849782E-3,6.9494E-1,5.75E-3,7.4685E-1,-1.2432322E-3,-1.1810661E-5,2.411023E-3,8.8592846E-4,-3.397912E-5,-1.3365918E-3,4.610883E-4,-2.6693457E-4,-1.2927324E-3,-3.342828E-3,1.7653778E-4,-1.2932823E-3],"split_indices":[6325,2,4247,0,0,6135,1919,0,0,5965,38,3,3013,15,15,84,0,0,0,20,5784,10,0,16,1,0,0,0,1,108,0,0,0,0,0,0,0,0,0,0,0,0,0],"split_type":[0,0,0,0,0,0,0,0,0,0,0,0,0,0,0,0,0,0,0,0,0,0,0,0,0,0,0,0,0,0,0,0,0,0,0,0,0,0,0,0,0,0,0],"sum_hessian":[7.2E1,5E0,6.7E1,3E0,2E0,3.1E1,3.6E1,2E0,1E0,2E1,1.1E1,9E0,2.7E1,1E1,1E1,9E0,2E0,6E0,3E0,7E0,2E1,4E0,6E0,7E0,3E0,2E0,7E0,2E0,5E0,1.2E1,8E0,3E0,1E0,2E0,5E0,2E0,1E0,4E0,1E0,2E0,1E1,2E0,6E0],"tree_param":{"num_deleted":"0","num_feature":"6670","num_nodes":"43","size_leaf_vector":"0"}},{"base_weights":[-2.505151E-2,-1.474148E-2,-1.7452126E-2,-8.695575E-3,-8.532302E-2,-1.4960803E-2,5.11697E-3,-3.0169825E-3,-9.027226E-3,-4.1056443E-2,1.4342464E-4,-9.265564E-3,-5.856083E-2,1.4225514E-2,-2.3336286E-2,-1.3482267E-3,9.737537E-5,-2.187219E-3,-5.055278E-3,1.8784617E-3,-5.8455666E-4,-2.477853E-3,2.0061182E-4],"categories":[],"categories_nodes":[],"categories_segments":[],"categories_sizes":[],"default_left":[0,0,0,0,0,0,0,0,0,0,0,0,0,0,0,0,0,0,0,0,0,0,0],"id":46,"left_children":[1,-1,3,5,7,9,-1,-1,-1,11,13,15,17,19,21,-1,-1,-1,-1,-1,-1,-1,-1],"loss_changes":[9.1711074E-2,0E0,4.1454438E-2,3.186442E-2,7.799696E-3,2.3655154E-2,0E0,0E0,0E0,1.1699956E-2,1.3227063E-2,8.515188E-4,1.6737804E-3,6.151867E-3,3.8736705E-3,0E0,0E0,0E0,0E0,0E0,0E0,0E0,0E0],"parents":[2147483647,0,0,2,2,3,3,4,4,5,5,9,9,10,10,11,11,12,12,13,13,14,14],"right_children":[2,-1,4,6,8,10,-1,-1,-1,12,14,16,18,20,22,-1,-1,-1,-1,-1,-1,-1,-1],"split_conditions":[7.255E-2,-1.474148E-2,5.0095E-1,4.622E-1,4.7774E-1,2.0583E-1,5.11697E-3,-3.0169825E-3,-9.027226E-3,1.8014E-1,4.6091E-1,4.9614E-1,1.1315E-1,2.4364E-1,6.432E-2,-1.3482267E-3,9.737537E-5,-2.187219E-3,-5.055278E-3,1.8784617E-3,-5.8455666E-4,-2.477853E-3,2.0061182E-4],"split_indices":[6307,0,1065,3168,118,1414,0,0,0,5187,5070,32,2742,4210,3176,0,0,0,0,0,0,0,0],"split_type":[0,0,0,0,0,0,0,0,0,0,0,0,0,0,0,0,0,0,0,0,0,0,0],"sum_hessian":[7.2E1,2E0,7E1,6.3E1,7E0,5.9E1,4E0,4E0,3E0,2.1E1,3.8E1,8E0,1.3E1,2.4E1,1.4E1,4E0,4E0,4E0,9E0,1.6E1,8E0,1E1,4E0],"tree_param":{"num_deleted":"0","num_feature":"6670","num_nodes":"23","size_leaf_vector":"0"}},{"base_weights":[-2.3599299E-2,-1.3787413E-1,-1.3169177E-2,-3.1721354E-2,-1.7508984E-2,-1.7855069E-2,6.626886E-2,-3.998244E-3,1.2391628E-3,-4.977614E-2,-7.283224E-3,1.5087874E-3,5.621028E-3,-5.978976E-3,-2.383805E-2,6.7768935E-3,-3.265548E-2,-2.6381926E-3,-5.465023E-3,-4.007081E-3,2.6984543E-3,-4.122091E-2,-2.1411874E-3,5.680606E-4,-7.9637626E-4,-1.4799687E-3,5.8442523E-4,-3.299482E-3,-1.2293921E-3,3.860407E-4,-6.536891E-4],"categories":[],"categories_nodes":[],"categories_segments":[],"categories_sizes":[],"default_left":[0,0,0,0,0,0,0,0,0,0,0,0,0,0,0,0,0,0,0,0,0,0,0,0,0,0,0,0,0,0,0],"id":47,"left_children":[1,3,5,7,-1,9,11,-1,-1,13,15,-1,-1,-1,17,19,21,-1,23,25,-1,27,29,-1,-1,-1,-1,-1,-1,-1,-1],"loss_changes":[8.519304E-2,5.347041E-2,2.6495423E-2,5.0468296E-3,0E0,2.1572672E-2,9.4328076E-5,0E0,0E0,1.05264895E-2,1.805815E-2,0E0,0E0,0E0,1.8908689E-3,1.0536498E-2,4.616363E-3,0E0,4.164002E-4,4.7926577E-3,0E0,2.4249591E-4,2.844562E-4,0E0,0E0,0E0,0E0,0E0,0E0,0E0,0E0],"parents":[2147483647,0,0,1,1,2,2,3,3,5,5,6,6,9,9,10,10,14,14,15,15,16,16,18,18,19,19,21,21,22,22],"right_children":[2,4,6,8,-1,10,12,-1,-1,14,16,-1,-1,-1,18,20,22,-1,24,26,-1,28,30,-1,-1,-1,-1,-1,-1,-1,-1],"split_conditions":[2.6974E-1,5.151E-1,5.4139E-1,5.6966E-1,-1.7508984E-2,2.3846E-1,5.146E-2,-3.998244E-3,1.2391628E-3,1.387E-1,4.8628E-1,1.5087874E-3,5.621028E-3,-5.978976E-3,4.8665E-1,3.7489E-1,4.6196E-1,-2.6381926E-3,7.0696E-1,3.8618E-1,2.6984543E-3,4.8793E-1,5.8565E-1,5.680606E-4,-7.9637626E-4,-1.4799687E-3,5.8442523E-4,-3.299482E-3,-1.2293921E-3,3.860407E-4,-6.536891E-4],"split_indices":[6325,2,3123,0,0,3,8,0,0,3170,186,0,0,0,1,2649,3541,0,0,867,0,466,1,0,0,0,0,0,0,0,0],"split_type":[0,0,0,0,0,0,0,0,0,0,0,0,0,0,0,0,0,0,0,0,0,0,0,0,0,0,0,0,0,0,0],"sum_hessian":[7.2E1,5E0,6.7E1,3E0,2E0,6.4E1,3E0,2E0,1E0,1.5E1,4.9E1,1E0,2E0,6E0,9E0,3.2E1,1.7E1,5E0,4E0,2.4E1,8E0,1.3E1,4E0,1E0,3E0,1E1,1.4E1,1.1E1,2E0,2E0,2E0],"tree_param":{"num_deleted":"0","num_feature":"6670","num_nodes":"31","size_leaf_vector":"0"}},{"base_weights":[-2.2171509E-2,-1.3486332E-2,-1.5198124E-2,-7.9602264E-2,-8.0284765E-3,-2.1318072E-3,-8.315991E-3,6.2696575E-3,-3.1156275E-2,-9.333331E-3,3.393706E-2,3.5030034E-3,-4.228568E-2,-2.7813632E-2,7.3051513E-3,7.0211426E-3,5.1100876E-2,1.2947297E-2,-1.3405154E-2,-3.8908508E-3,-1.6958606E-3,-2.5181244E-3,-4.842617E-4,1.0974304E-3,-7.7068765E-4,-2.0988894E-4,1.131414E-3,4.7418773E-3,2.1567412E-3,1.176456E-3,7.470623E-5,-1.2531963E-3,-2.5488363E-4],"categories":[],"categories_nodes":[],"categories_segments":[],"categories_sizes":[],"default_left":[0,0,0,0,0,0,0,0,0,0,0,0,0,0,0,0,0,0,0,0,0,0,0,0,0,0,0,0,0,0,0,0,0],"id":48,"left_children":[1,-1,3,5,7,-1,-1,9,11,13,15,17,19,21,23,25,27,29,31,-1,-1,-1,-1,-1,-1,-1,-1,-1,-1,-1,-1,-1,-1],"loss_changes":[7.751804E-2,0E0,3.2145515E-2,8.0534555E-3,2.1689821E-2,0E0,0E0,1.8016208E-2,9.791557E-3,8.505255E-3,6.570911E-3,1.2913598E-3,2.4126694E-3,1.3827886E-3,2.0826652E-3,5.965432E-4,6.2002055E-4,1.480343E-4,4.240469E-5,0E0,0E0,0E0,0E0,0E0,0E0,0E0,0E0,0E0,0E0,0E0,0E0,0E0,0E0],"parents":[2147483647,0,0,2,2,3,3,4,4,7,7,8,8,9,9,10,10,11,11,12,12,13,13,14,14,15,15,16,16,17,17,18,18],"right_children":[2,-1,4,6,8,-1,-1,10,12,14,16,18,20,22,24,26,28,30,32,-1,-1,-1,-1,-1,-1,-1,-1,-1,-1,-1,-1,-1,-1],"split_conditions":[-3.387E-2,-1.3486332E-2,1.5739E-1,4.2355E-1,3.8127E-1,-2.1318072E-3,-8.315991E-3,2.7016E-1,3.1447E-1,3.9422E-1,4.8997E-1,6.3583E-1,3.7153E-1,6.5494E-1,5.3569E-1,3.6614E-1,2.7344E-1,7.6419E-1,6.9389E-1,-3.8908508E-3,-1.6958606E-3,-2.5181244E-3,-4.842617E-4,1.0974304E-3,-7.7068765E-4,-2.0988894E-4,1.131414E-3,4.7418773E-3,2.1567412E-3,1.176456E-3,7.470623E-5,-1.2531963E-3,-2.5488363E-4],"split_indices":[4447,0,1573,2,3226,0,0,320,60,4390,1590,48,1139,1122,4110,7,19,0,0,0,0,0,0,0,0,0,0,0,0,0,0,